{"number_of_layer": 8, "number_of_neurons_each_layer": [5, 50, 50, 50, 50, 50, 50, 5], "weight": [[[0.075727, 0.390525, 0.536794, 0.372584, -0.046255], [0.034755, 0.167795, -0.062436, 0.334343, -0.43094], [0.289983, -0.041435, -0.054566, 0.198848, -0.018902], [0.047739, -0.925532, -0.087903, 0.029531, -0.092901], [-0.129882, 0.161167, 0.837348, 0.043658, 0.022927], [-0.008594, -0.006793, -0.018804, -0.407778, 0.020675], [0.017542, 0.002373, -0.066116, 0.45217, -0.546977], [0.242976, -0.007099, 0.000819, 0.045623, -0.026782], [1.1621, -0.012671, -0.003067, -0.074192, -0.809888], [-0.009219, -0.448443, -0.168357, -0.087808, 0.003281], [-1.59976, 0.037641, 0.007832, -0.004578, -0.021562], [0.01671, -0.775372, 0.768174, 0.027244, 0.10119], [-0.007653, -0.00932, -0.012637, -0.056388, 0.992517], [-0.135918, -0.115076, -0.650577, 0.186289, 0.002394], [-0.003852, -0.003032, -0.028658, 0.005754, 0.000406], [-0.05361, -0.993565, -0.9859, 0.557202, -0.05929], [-0.030333, -0.645778, 0.781846, 0.122503, -0.419255], [0.003184, -0.003151, 0.004839, -0.015665, -0.006341], [-0.121507, -0.08196, -0.498118, -0.083231, 0.038791], [0.079243, -0.618976, 0.444577, -0.401577, 0.242794], [-0.424615, 0.025465, -0.000265, 0.102192, 0.381687], [-0.174488, -0.146493, 0.046951, -0.098405, -0.145497], [0.020725, 0.782341, -0.712456, 0.014926, 0.096304], [-1.36611, 0.018941, 0.002694, -0.001121, 0.010552], [-0.438715, 0.119436, -0.153675, 0.227327, -0.320228], [-0.00055, -0.002447, -0.000357, 0.002372, 0.003321], [0.47463, -0.147153, -0.173533, -0.135463, -0.156339], [0.022549, 0.973599, -1.0281, 0.11734, -0.142923], [0.317758, -0.230383, 0.034008, 0.06396, -0.760226], [0.006449, 0.945287, -0.017507, -0.000776, -0.007474], [0.015668, 0.746568, 0.14623, 0.006101, 0.013179], [-0.115777, 0.005115, -0.008413, 0.066944, 0.231459], [0.006771, -1.00572, 1.01539, 0.09047, 0.041408], [-0.053908, 0.015637, 0.044145, -0.733625, -0.202825], [0.00153, -0.019634, -0.827723, 0.003705, 0.003914], [-0.144973, 0.01155, 0.000777, 0.126818, 0.206755], [0.011442, -0.074569, -0.354879, -0.20911, 0.076205], [0.009214, -0.27833, -0.03026, -0.055835, 0.135308], [0.077179, 0.403666, 0.478096, -0.082441, 0.035309], [0.044357, 0.025108, 0.182318, 0.335166, -0.274514], [-0.078151, 1.39051, 0.127444, 0.311146, -0.054745], [-0.222504, -0.116302, 0.043038, -0.017722, 0.215843], [0.00644, -0.403491, 0.456314, -0.043807, 0.069191], [0.328049, 0.002581, -0.013372, 0.203803, -0.077902], [0.006553, 0.001458, -0.017971, 0.001307, 0.003594], [-0.041464, 0.059139, -0.005796, -0.468602, 0.339233], [0.180532, 0.186341, -0.133492, -0.177745, -0.881704], [0.031271, 0.899567, 0.180968, 0.056775, -0.177884], [0.002976, -0.735367, -0.336342, 0.32317, -0.023415], [-0.357875, -0.155444, 0.139395, 0.236314, -0.325258]], [[-0.032662, 0.03709, -0.083733, -0.037563, -0.018025, -0.013758, -0.048687, 0.014339, 0.008634, -0.064714, -0.027374, 0.01187, -0.009524, 0.008468, 0.009635, -0.023378, 0.028235, 0.043506, 0.030222, -0.011982, -0.030565, -0.053837, 0.029213, 0.027465, -0.022893, -0.006279, -0.011279, -0.034772, 0.0095, 0.02284, -0.000231, -0.075156, 0.015245, -0.036138, -0.047175, -0.043715, 0.005383, 0.023343, -0.047095, -0.0559, -0.008374, -0.05585, 0.023658, -0.004627, 0.001411, -0.007826, 0.018279, -0.064909, 0.011502, -0.026695], [0.003875, 0.442176, 1.41636, -2.40266, 0.339157, 0.337609, 0.942509, -0.720679, 0.026672, -0.958033, 0.306293, -0.643893, -0.093475, 0.357719, -0.035878, 0.139005, -0.032731, -0.018369, -0.299907, -1.00246, -6.13458, 0.122765, 0.310763, 0.619445, 1.06258, -0.028783, 0.135059, -0.847488, 0.15506, -0.996224, -1.29067, -0.22314, -0.878677, 0.7299, 0.166662, -4.37311, 0.038083, -1.37002, -0.022132, 0.987599, -0.911146, -1.48161, -0.091152, -1.04261, 0.012255, -0.333976, 1.71943, -0.177735, -0.737788, 0.757927], [-0.014088, 0.588484, 0.180807, -0.170736, 0.634298, 0.210769, 0.093225, 0.186418, 0.112124, -0.082366, -0.039502, -0.133983, 0.021762, -0.122574, -0.00342, -0.313401, 0.284779, 0.025362, 0.161573, 0.438272, 0.01539, -0.135753, 2.15466, 0.171427, 0.248871, 0.034103, -0.026836, 0.695657, -0.161044, 0.088457, -0.232024, -0.344697, 1.1511, -0.316744, -0.018196, -0.259211, -0.20003, 0.43498, -0.006382, -0.051766, -0.333357, 0.405919, -0.162797, -0.027291, -0.040339, 0.610496, -0.122364, 0.245319, 0.694145, -0.306832], [-0.071869, -0.083551, -0.107927, 0.140013, 0.205005, -0.693148, 0.471733, 0.169163, -0.119355, -0.167226, 1.03089, 0.486141, 0.378688, -0.009829, -0.048577, -0.121798, 0.586082, -0.022339, -0.033657, -0.15695, -0.35453, -0.369886, -0.071317, 0.787047, 0.480715, -0.036027, -0.489124, 0.206345, 0.651576, 0.180628, -0.043023, 0.847111, -0.033408, -0.385281, 0.645749, -0.255736, -0.457713, 0.014138, -0.094886, -0.320718, -0.122413, -0.202046, 0.004853, -0.503862, 0.023936, 0.127869, 0.808648, -0.09464, -0.043537, 0.142947], [0.886979, -0.073695, 1.29105, -0.441745, 1.15492, 0.744783, -0.651311, -0.368234, -0.038906, 0.131842, -0.209265, -0.836333, -0.635927, -0.918326, -0.023508, -0.03462, -0.26996, 0.042923, 0.826737, 0.084907, 0.817267, -0.200446, -0.169848, 0.458059, -0.661551, 0.008601, -0.124848, -0.223985, -0.427035, -0.773869, 0.039996, -1.39655, -0.315295, 0.304893, 0.268872, 0.826588, -0.141084, 0.266626, 0.742907, 1.00039, -0.47011, 0.139433, 0.02975, -0.438618, 0.035046, 0.351724, -0.596932, 0.221862, 0.156152, -0.315454], [-0.08136, -0.452667, -0.023293, 0.095838, -0.733969, 0.256693, -0.217392, 0.287891, 0.076019, 0.113175, -0.233503, -1.08652, -0.09845, 0.860594, 0.012301, 0.16565, -0.433138, -0.004507, -0.22425, 0.106254, -0.205942, -0.019042, -0.959656, -0.199437, -0.009458, -0.014548, -0.0664, -0.628377, 0.196275, -0.484131, 0.087007, -0.475394, -0.776591, 0.271275, -0.033556, 0.041983, 0.210712, -0.177947, -0.293873, -0.655291, 0.038345, -0.133905, 0.247737, 0.396633, 0.035411, 0.670126, -0.592837, -0.566621, 0.382973, -0.001946], [0.118713, -0.714172, -0.304059, 0.035155, 0.36353, 0.196254, -0.340301, -0.048293, 0.067164, 0.541961, 0.132875, -0.142568, -0.192205, 0.040808, -0.002114, -0.21125, 0.13039, 0.013442, 0.336696, 0.657458, -0.314128, -0.12371, 0.584494, 0.295115, -0.460052, 0.01471, 0.170806, 0.465071, -0.335529, 0.120218, 0.186277, 0.940047, 0.550716, 0.675858, -0.16094, -1.32272, 0.159835, -0.11509, 0.136065, -2.27752, -0.068877, 0.240953, -0.258301, -0.337507, 0.012982, 1.07574, 0.236401, 0.155096, 0.268211, 0.485653], [0.032172, 0.806901, -0.036633, 0.134301, -0.093758, -0.421538, 0.353715, -0.358155, 0.237446, 1.01089, -0.290284, 2.63754, 0.177584, 0.776103, 0.013512, -0.28984, 0.552744, -0.005566, 0.017535, -0.000223, -0.283489, 0.328635, 1.66326, -0.169953, -0.044327, -0.003113, -0.305813, 0.61062, 0.183255, 0.013778, 0.318073, 0.379442, 0.371048, -0.655595, 0.270411, -0.272328, 0.290472, 0.345427, -0.325781, -0.888991, 0.632452, 0.027322, -0.300795, -0.531841, -0.036095, -0.43719, 0.029331, -0.458278, -0.67809, 0.384933], [-0.250193, -2.96251, -1.03597, 0.149939, 0.010521, 0.281927, -0.76845, -0.105716, 0.10124, 0.193945, -0.278788, -0.084466, 0.619692, 0.135113, -0.005858, 0.394863, -0.085354, -0.024908, -0.160504, 0.018671, -1.273, 0.227773, 0.196874, -0.009039, 0.212081, -0.044575, 0.442513, -0.104712, -0.115418, -0.156539, 0.471806, 0.594507, -0.097132, 0.807836, -0.249723, -1.48799, 0.13621, -0.240694, -0.061381, 1.98345, 0.023608, -0.113637, 0.088513, -0.052612, 0.020223, 0.494137, -0.36844, -0.318525, -0.613549, -0.180264], [-0.625611, 0.029439, -0.218176, -0.388734, 0.08336, 0.103236, -0.362142, 0.222991, -0.080212, 0.203521, -1.81072, 1.84266, -0.04577, -0.1265, -0.013235, -0.264467, 0.48624, -0.020347, 0.457042, 0.281377, 0.066675, 0.114906, 3.01122, -0.148911, -0.33406, -0.034796, 0.244639, 0.490975, -0.224444, 0.042052, -0.932487, -0.457242, 0.596048, 0.35501, 0.094796, -0.126278, -0.199702, -0.120134, 0.267646, -0.552363, -0.090613, -0.022648, 0.121646, 0.119519, -0.003351, 0.158441, -0.230259, 0.44635, -0.351791, -0.41209], [0.416094, -0.123402, 0.357088, -0.102453, -0.074108, 0.074329, -0.548486, 0.02777, -0.104496, -0.499979, -0.274544, -0.511111, -0.035748, 0.346349, -0.026727, 0.420396, 0.160692, 0.043708, 0.076675, -0.108076, -0.010787, -0.456348, -0.119992, 0.144293, -0.234734, -0.002229, 0.112356, 0.852801, -0.380807, 0.003663, 0.54074, -0.648488, 1.35183, 0.563288, 0.313788, -0.298801, -0.007309, -0.153793, 0.266441, -0.423896, 0.495121, 0.367474, -0.786021, -0.267848, -0.030777, 1.06922, -0.306603, -0.19157, 0.116484, -0.205946], [-0.155311, 0.481633, 0.288249, -1.74896, 0.206459, 0.220347, 0.357178, -0.332032, 0.099859, 0.096298, -0.132356, 0.478046, -0.134659, -0.053339, -0.000886, 0.081869, -0.672108, 0.006551, -0.130244, 0.068651, -0.557582, -0.004398, 0.45224, 0.094123, 0.335535, 0.004799, 0.053181, -0.551366, 0.229413, -0.255797, -0.24614, -0.288347, -0.132214, 0.123156, 0.064495, -1.53447, 0.131652, -1.05421, -0.022719, 0.157238, 0.170964, -0.774003, -0.092527, -0.490794, -0.01994, -0.5854, 0.680169, 0.343023, -0.090177, 0.312499], [-0.076066, 0.965792, 0.952925, -0.86622, -0.057287, -0.124341, 0.149614, -0.294627, 0.031303, 0.232142, -0.244521, -0.405516, -0.151286, 0.423765, 0.040828, -0.232184, 0.274048, -0.013, 0.113825, 0.217464, 0.311466, 0.20352, 0.648406, 0.098246, 0.387159, 0.033489, -0.1345, -0.031833, -0.415143, -0.526672, -0.455369, 0.361518, 0.009188, -0.125084, 0.025806, 0.484353, -0.274865, -0.150994, -0.463139, 0.475629, -0.374402, -0.124089, 0.057149, -0.555032, 0.00474, -0.448092, -0.311975, 0.067989, -0.413898, 0.105219], [-0.026677, -0.008251, 0.038747, -0.037252, -0.042364, -0.051305, -0.053648, -0.029546, -0.043168, 0.020997, -0.033385, -0.003471, -0.008353, -0.029065, -0.024722, 0.014937, 0.009959, -0.037941, 0.019317, -0.039445, -0.048446, 0.019672, -0.01876, -0.040931, -0.015286, -0.010096, -0.014717, 0.038007, 0.016041, -0.02399, -0.055716, 0.032561, -0.048627, 0.030461, -0.015397, 0.022881, -0.045124, 0.000427, -0.048043, -0.009458, -0.012981, -0.025969, -0.015916, 0.00314, -0.031657, 0.039106, 0.016726, -0.006805, 0.036948, -0.045986], [-0.226155, 1.00559, 0.00705, 0.210282, -0.250785, -0.605636, -0.935269, 0.611806, 0.649956, 0.85522, -0.286741, 0.372133, 0.788975, -0.140804, 0.02149, -0.060736, -0.237759, -0.015018, -0.243944, -0.573943, -0.196873, -0.687038, -0.136646, -0.053646, -0.312828, -0.04165, 0.035135, -0.092193, -0.210724, 0.136614, 0.249677, 1.14592, -0.081788, 0.392958, -0.312167, -0.828149, -0.151669, 0.317873, -0.00573, 0.195205, -0.117572, 0.024821, -0.184483, 0.651239, -0.007234, -0.340491, 0.310844, 0.136664, -0.24702, -0.572582], [0.411188, -0.71536, -0.769334, 0.602099, 0.249116, 0.007918, -0.408052, 0.272292, 0.005021, -0.033836, -0.061481, -0.784746, -0.093313, 0.034738, -0.041122, -1.07122, -0.185887, 0.017987, -0.041232, -0.385351, -0.443287, -0.490707, -1.18886, -0.103967, 0.032918, -0.002445, 0.015868, -0.366099, -0.068757, 0.227462, 0.248834, 0.081373, -0.628746, 0.008984, -0.924405, -0.068181, -0.03871, -0.013086, -0.091822, 0.518475, 0.347604, 0.43196, 0.401776, 0.249116, -0.032094, 0.699142, 0.244398, 0.174603, -0.569001, 0.125069], [-0.10139, 0.048629, -0.66593, 0.726263, -0.084655, -0.931486, 0.891555, -0.047582, -0.137469, 0.377273, -0.415082, -1.16224, 0.931531, 0.575808, 0.006925, 0.08319, 0.72969, -0.027561, -0.173846, -0.533248, -0.378697, -0.017033, 0.558881, -0.320469, -0.051753, -0.007063, -0.188067, 0.013741, -0.036355, -0.602395, -1.65885, -0.434296, -0.384904, -0.956684, 0.356288, -0.204654, -0.149745, -0.974029, -0.22185, 0.061234, -0.697456, -0.266319, 0.21185, 0.103835, 0.012964, -1.25456, 0.816777, -0.4326, -0.189383, 0.246524], [-0.857142, 0.886848, 0.440586, 0.265597, -0.123306, -0.118308, -0.014342, 0.014062, 0.332468, 0.480661, -0.739278, 0.523818, 0.739038, -0.004959, -0.008845, -0.476347, 0.052184, 0.040145, 0.228489, 0.015862, -1.06242, 0.09178, 0.090535, 0.312703, -0.795891, 0.003523, 0.202979, 0.175814, -0.132832, 0.154966, -0.030333, 0.251624, -0.032894, 0.150038, 0.069459, -0.9517, 0.3057, -0.492631, -0.539098, 1.83226, -0.291294, 0.057985, 0.20146, -0.015716, 0.023849, 0.089334, -0.434383, 0.859946, -0.225838, -0.471398], [-0.028277, -0.021209, -0.003658, 0.009927, -0.054602, -0.018559, -0.024587, -0.038156, 0.037573, 0.033094, 0.028403, -0.031738, -0.03136, 0.000252, -0.003465, -0.020706, -0.031883, -0.034707, -0.028884, 0.008649, 0.01457, -0.029786, -0.00393, -0.031404, -0.03512, 0.039169, -0.050778, -0.033705, -0.017324, -0.0101, -0.049424, -0.019631, 0.025641, 0.015983, -0.039429, -0.013792, -0.043552, -0.023877, -0.022038, -0.018822, 0.036454, 0.023723, 0.020412, -0.007855, -0.026876, -0.000868, 0.035548, -0.021937, 0.026013, -0.030465], [-0.04833, -0.053441, -0.007235, -0.016809, 0.014301, -0.022546, -0.017343, -0.02041, -0.050106, 0.017266, 0.014709, -0.047766, 0.009527, 0.003995, 0.041561, 0.018893, 0.011007, -0.045777, 0.004, -0.03715, -0.055539, -0.02235, -0.042041, 0.026744, 0.027918, -0.010422, -0.061349, 0.029759, 0.015298, 0.010914, -0.054675, -0.058222, -0.034628, 0.039794, 0.028938, -0.002289, -0.04023, -0.058324, 0.012625, 0.007218, -0.038437, -0.027792, 0.034323, -0.016605, 0.016339, -0.033335, 0.009643, -0.003462, -0.052044, -0.049776], [-0.319853, -0.783512, -0.306024, 0.571606, 0.254799, -0.819952, 0.718909, 0.005962, 0.022125, -0.292902, -0.105161, 1.31663, 0.578733, 0.607738, -0.015153, 0.153827, 0.864479, 0.034077, 0.730969, -0.017201, -0.020018, -0.157828, 0.370929, 0.221849, 0.269881, 0.003203, 0.03646, -0.036009, 0.541659, -0.62514, -0.468314, -0.086668, 0.320106, -0.693944, 1.37145, -0.075051, -0.478751, -0.783747, -0.057721, -0.778135, 0.350313, -0.616892, 0.187451, 0.14805, 0.020765, -0.403425, 0.072174, 0.115285, 0.028446, -0.137571], [-0.17551, 0.441239, 0.386022, 0.443365, -0.163506, 0.078539, -0.347779, -0.078302, 0.041456, -0.007842, -0.676091, 0.129684, 0.102821, 0.013135, 0.008209, -0.292546, -0.018926, -0.026677, -0.042364, 0.058364, 1.34476, 0.03779, 0.114512, -0.320197, -0.465406, 0.050716, -0.666569, -0.246813, 0.489262, -0.480114, 0.202917, -0.626412, -0.120429, 0.412953, 0.479801, 0.731366, 0.554844, -0.462727, 0.307241, 0.013818, 0.137075, -0.097287, -0.037639, -0.157587, 0.033458, -0.134317, -0.497063, -0.149455, -0.193496, 0.063016], [0.323473, -0.440756, 0.357335, -0.389286, 0.097981, -0.369294, 0.659358, -0.211213, -0.050437, 0.00181, 0.01229, -0.626128, -0.024544, -0.423688, 0.04141, 0.086198, -0.133624, 0.031186, 0.443289, 0.262055, 0.056986, -0.774531, 0.270295, 0.457478, -0.145836, 0.022408, 0.059017, -0.206193, -0.032352, 0.160694, 0.389281, -0.157617, -0.283713, -0.713379, -0.049916, 0.05118, -0.425366, -0.59488, 0.020725, -0.521469, -0.293493, 0.462533, 0.286802, -0.22602, 0.043097, -0.071499, -0.29043, 0.191452, 0.114522, -0.049753], [0.096618, -0.145338, -0.358796, -0.132503, -0.164618, 0.353932, 0.341548, -0.597378, 0.285141, -0.147821, 0.185276, 0.118374, -0.004757, -0.135005, -0.023724, 0.297749, 0.238795, -0.017488, 0.130486, -0.766926, -1.64051, 0.232361, -0.714303, 0.697665, -0.115623, 0.010922, 0.124033, 0.003116, -0.162215, 0.187464, 0.124027, -0.396888, -0.095915, 1.16367, -0.009752, -2.01974, 0.178627, 0.315333, -0.108853, -0.976839, -0.052357, 0.105882, -0.055166, -0.686948, 0.027101, 0.064392, 0.315881, -0.025914, -0.325475, 0.081611], [-0.073433, 0.561658, 0.000626, -1.38063, -1.28564, -0.615779, 0.169969, -0.04394, 0.078387, -0.686387, 0.2277, -0.288394, 0.357278, 0.410102, -0.012223, -0.40885, 1.49637, -0.01229, 0.0394, 0.128528, 0.003664, 0.793925, 2.25767, 0.003787, 0.200761, 0.042715, -0.165178, 0.959078, 0.061439, 0.174426, 0.221676, -0.098411, -0.349048, -0.750044, 0.312002, -0.023964, 0.025317, -0.011448, -0.447563, -0.346187, 0.170728, -0.247536, -2.25729, -0.015236, -0.001355, -0.663739, -0.010428, -0.198429, -0.590694, -0.066992], [0.030555, -0.017479, -0.060765, -0.030806, -0.044406, -0.04084, -0.036478, -0.02124, -0.050055, 0.034449, -0.057228, -0.040375, -0.02561, 0.001967, -0.024924, -0.052713, -0.034174, 0.030906, 0.025249, -0.03124, 0.00783, -0.025013, 0.016899, -0.025911, 0.037991, 0.051227, -0.013381, 0.00393, 0.040097, 0.024157, 0.023289, -0.047357, -0.018574, 0.011852, -0.002459, -0.030204, 0.014686, -0.044979, -0.058879, -0.029657, -0.056181, 0.005374, 0.022158, -0.026244, 0.011651, 0.023672, 0.034543, -0.017267, 0.032417, 0.022997], [0.421653, -0.061285, -0.242212, 0.056348, 0.346053, 0.107225, 0.059894, -0.255523, 0.040956, 0.618486, 0.168133, -1.314, -0.046012, -0.533169, 0.033502, -0.015731, -0.839533, -0.009621, 0.168924, -0.505367, -0.197194, -0.268695, -0.305972, -0.170014, -0.0866, -0.041394, 0.016458, -1.13974, -0.215159, -0.114468, 0.278951, 0.027651, -1.49912, 0.174036, 0.184758, -0.495498, 0.269572, 0.409465, 0.724069, -0.043746, 0.034316, 0.620167, 0.418127, 0.231361, 0.018499, 0.00887, -0.26035, 0.345603, 0.332035, 0.098924], [0.076979, -0.032024, 0.309773, 0.147305, 0.028504, 0.143572, 0.204996, -0.227577, 0.143056, 0.494415, 0.150524, -0.964699, -0.083871, -0.144117, -0.019407, -0.076228, -0.012492, -0.035577, 0.086977, -0.248892, -1.49469, 0.009211, -0.711206, 0.147508, 0.034917, -0.027779, -0.356954, -0.193378, 0.401964, -1.68141, -0.660237, -0.181513, 0.000795, 0.232048, 0.122232, -0.780734, -0.075447, -0.069723, 0.178963, -0.066189, 0.174089, -0.123252, 0.175803, -0.292054, 0.006435, -0.486456, 0.259848, -1.10582, 0.02205, 0.434004], [0.269928, 1.37966, 0.085243, -0.182927, 0.268486, 0.025377, 0.596988, -0.552676, 0.118088, -0.725477, 0.18377, 1.2827, -0.270863, -0.372797, -0.003906, 0.22917, -0.134991, 0.030054, 0.291813, 1.04687, -0.74925, -0.390642, 2.71215, 0.271881, 0.272694, 0.017962, -0.044126, -0.761913, -0.119515, -2.07965, 0.195371, 1.66712, -0.601579, 0.281729, 0.416004, -0.886435, 0.178517, -0.702517, 0.28816, -0.394957, -0.279541, -0.044376, 0.003465, -0.654295, -0.001963, -0.141231, 0.692071, -0.165616, -0.251694, 0.123535], [0.087703, 0.107335, -0.041226, 0.086187, -0.622508, -0.109711, 0.158548, -0.200176, 0.253806, -0.118174, -0.195288, 0.096394, 0.152544, 0.436815, 0.046725, 0.011503, -0.152712, 0.01058, 0.368233, 0.393099, -0.109043, -0.09634, -0.120173, -0.084217, -0.222698, -0.028156, -0.150154, -0.14826, 0.418001, -0.148577, 0.23403, 0.227635, -0.092735, 0.014941, 1.41578, -0.506315, 0.05597, 0.149512, 0.001638, -0.134762, 0.114754, 0.13711, 0.100257, 0.038741, 0.02913, -0.163373, -0.088256, -0.059699, -0.121729, -0.227877], [-0.014775, -0.01079, -0.001323, -0.037588, 0.039339, -0.030177, -0.029169, -0.012794, -0.040391, -0.068118, -0.029243, -0.026584, 0.031629, -0.028566, -0.019455, -0.035834, 0.012315, 0.001929, 0.018082, 0.008585, -0.007761, 0.014514, 0.029061, -0.054162, 0.033763, -0.035291, -0.044455, -0.046413, 0.02035, 0.017384, -0.03862, 0.00219, -0.011684, 0.039858, -0.0053, -0.043398, -0.044937, 0.032742, -0.051004, -0.054728, -0.050313, -0.014001, 0.002553, 0.026759, 0.003696, 0.041774, 0.0139, -0.016657, -0.010769, 0.027768], [0.015637, -0.03157, -0.02703, -0.046912, -0.03309, -0.023929, 0.01922, -0.005863, -0.048206, 0.015141, 0.005993, -0.055521, 0.017988, 0.033836, 0.03509, -0.042, -0.028276, -0.00394, 0.050829, -0.004636, -0.0449, -0.047081, -0.03205, 0.026498, -0.030095, -0.035777, -0.035538, -0.023444, -0.064258, -0.022942, 0.008411, -0.013856, 0.007965, 0.017747, 0.043241, -0.044984, -0.041901, -0.025872, -0.013439, -0.04422, 0.017592, -0.062765, 0.017472, 0.011528, -0.044753, -0.057642, 0.002146, -0.053708, -0.039568, 0.012649], [-0.591144, 0.551588, 0.153209, -1.14824, 0.020179, 0.209575, -0.942177, -0.0241, -0.084021, -0.406175, 0.044342, -0.481601, -0.286804, 0.017756, -0.022172, 0.276086, -0.171676, 0.007697, 0.078525, 0.351051, 0.21037, -0.118456, -0.726094, -0.120401, -0.625098, -0.010336, 0.148385, -0.749089, -0.35778, -0.330333, 0.109079, 0.09799, -0.643629, 0.467696, 0.025716, -0.151145, 0.438715, 0.09142, 0.036106, 0.848373, -0.097807, -0.161225, 0.278174, -0.023009, -0.023062, 0.474476, 0.063854, -0.130429, -0.246916, -1.14386], [-0.29392, -0.039772, -0.246054, 0.237536, -0.004753, 0.228247, -0.462536, -0.207766, 0.099467, -0.04837, -0.024338, -0.176812, -1.87908, -0.248732, 0.038521, -0.015008, 0.098375, 0.051251, 0.424852, 0.372839, -0.541739, 0.022807, 0.328442, 0.147854, 0.366077, -0.011359, -0.054524, -0.177547, -0.122761, 0.172644, -0.11207, 1.05707, -0.009297, 0.077665, 0.424774, -0.464481, 0.231077, -0.43033, 0.012551, 0.129, 0.092022, -0.05262, 0.305213, -0.20989, 0.047555, -0.413164, 0.233875, 0.242399, -0.276049, -0.157458], [-0.1194, 0.48541, -1.20038, 0.411385, 0.054827, 0.037889, -0.000205, -0.551373, -0.099636, -0.231993, 0.538906, -0.238617, -0.745936, -0.376886, -0.014056, 0.077806, -0.068153, -0.053188, 0.250651, 0.00505, 1.26579, 0.212902, -0.087613, 1.25023, 0.060164, 0.000659, 0.171667, 0.074704, -0.06075, 0.042119, -0.311946, -0.343233, 0.426056, -0.208097, 0.54007, -0.329375, 0.104781, -0.049341, -0.016127, 0.705206, 0.338317, 0.12763, 0.095722, -0.862505, -0.04072, 0.864795, -0.731172, 0.192338, 0.023807, -0.327901], [-0.619214, -0.266837, -0.343781, -0.328343, -0.357728, -0.406696, -0.034321, 0.235478, -0.311884, -0.07775, -0.478851, 1.51576, -0.123573, -0.409677, 0.04271, -0.032946, 0.569713, -0.031682, -0.229923, -0.049136, 0.537568, -0.065616, 1.38878, -0.354454, 0.372222, -0.045024, 0.160224, 1.28715, 0.757382, 0.29887, 0.020629, -0.476206, 1.27153, -0.220032, -0.206731, 0.361379, -0.048709, -0.05851, -0.067672, 0.664899, -0.091699, 0.203413, -0.330206, 0.102744, -0.005601, -0.466837, -0.378131, 0.025273, -0.396817, 0.119612], [0.009733, -0.263475, 0.399098, 0.496805, -0.072094, -0.067059, 0.027285, 0.630671, 0.085366, 0.266308, -0.836417, 0.554681, -0.164767, -0.110426, 0.017989, 0.096089, -0.350425, 0.004398, -0.009033, -0.201532, -0.252652, -0.083251, 0.635279, -0.785616, -0.071231, -0.03287, 0.077774, -0.431525, 0.363589, 0.157456, 0.373029, 0.265967, -0.700071, -0.034906, 0.148253, -0.498792, 0.254162, 0.026454, 0.120803, 0.145976, 0.028385, 0.194664, 0.607732, 1.27132, -0.010759, 0.33393, 0.232249, 0.289646, 0.059842, -0.115592], [0.028245, 0.047887, 0.129032, -0.205626, 0.263456, -0.738783, 0.189399, 0.001639, 0.064521, -0.205164, -0.010286, 1.4872, 0.124766, -0.469377, -0.022032, -0.45286, 0.340579, -0.024922, -0.280161, 0.163786, 0.008171, 0.341182, -0.001953, -0.146122, 0.147126, 0.016826, -0.296044, 0.009314, -0.147486, -1.50533, -0.249507, -0.049027, 0.958635, -0.205305, -5.32869, -0.204758, -1.09501, 0.005656, 0.102253, 0.115482, -1.01978, 0.186618, 0.257943, -0.025178, 0.051387, -0.213028, -0.368874, -0.567814, 0.241959, -0.189919], [0.034409, 0.008747, -0.000386, 0.023769, 0.028205, -0.045243, 0.022614, -0.050656, 0.036575, 0.00595, -0.044129, -0.026551, -0.03541, -0.056345, 0.044469, -0.04298, -0.034038, -0.024225, 0.031025, -0.034106, 0.013075, -0.006279, 0.012923, 0.030027, -0.019738, 7.5e-05, -0.053631, 0.003733, 0.021023, -0.014601, 0.019388, -0.021818, 6.6e-05, -0.037064, -0.041726, -0.015349, -0.031431, -0.058859, 0.004546, -0.048253, -0.057466, 0.029524, -0.017279, 0.010943, -0.040417, 0.025355, -0.027106, 0.022624, -0.025713, 0.00468], [0.227071, -0.839838, 1.51003, 0.222368, -0.75883, 0.496543, 0.267864, -0.579707, -0.353832, 0.364545, -0.478224, 0.629922, -0.241754, 0.620922, 0.03087, 0.050676, -0.036551, 0.007985, -0.436375, 0.048404, 0.145939, 0.171987, 1.9012, 0.014845, -0.475133, 0.015278, 0.291146, 0.261333, -0.225874, 0.053614, 0.096815, -0.216515, -0.073984, -0.215837, -2.00998, -0.136354, 0.235674, 0.14664, 0.068287, 0.852205, 0.208975, 0.612563, 0.068937, -0.71328, -0.035564, -0.676146, -0.07457, 0.441561, 0.717805, -0.294552], [0.004038, -0.002395, -0.044852, -0.035661, 0.027692, 0.006954, -0.015869, 0.01398, -0.01029, 0.005655, 0.017775, 0.018184, 0.009937, 0.034399, 0.001299, 0.016161, -0.019964, 0.041336, -0.029096, -0.042656, -0.009168, -0.037664, 0.041549, 0.016576, -0.037606, 0.010762, 0.035042, -0.011316, -0.005915, -0.009924, -0.053365, -0.012437, 0.032059, 0.032662, -0.03289, -0.05216, 0.021027, -0.012156, -0.049687, -0.02033, 0.036138, 0.002363, 0.022955, -0.024221, -0.025397, -0.016586, -0.043413, -0.008114, -0.053773, -0.003312], [-0.379326, -1.65888, -1.28839, 0.29156, 0.288373, -0.334575, 0.316877, 0.050512, 0.867635, 0.052198, -0.266063, -0.324503, -2.62698, 0.053518, -0.007906, -0.236802, 0.232272, -0.015625, 0.080707, 0.789189, -0.397869, 0.426332, 0.609068, -0.813241, -0.217309, -0.026652, -0.45187, 0.1772, 0.719298, -0.090903, -0.185507, -0.441022, -0.083886, 0.89421, -0.092982, 1.40454, 0.02087, 0.002777, -0.247364, -0.747438, 0.29829, -0.160566, -0.264399, 0.156865, 0.041492, -0.235899, 0.775903, -0.280138, -0.335033, 0.135023], [0.028365, 0.002611, 0.03908, -0.015743, 0.001236, 0.004753, -0.049913, -0.018761, -0.020501, -0.037739, -0.050417, -0.027898, 0.026717, -0.032812, 0.007054, 0.025591, -0.031047, -0.050166, 0.036564, -0.034528, 0.003843, 0.005435, 0.025721, -0.004095, -0.011611, 0.004683, -0.002368, 0.005616, -0.011935, -0.051611, 0.022397, -0.023646, -0.00132, 0.005249, -0.040162, -0.012524, 0.01608, 0.009491, 0.025148, 0.035334, -0.024261, -0.033009, -0.052058, 0.009074, -0.035198, -0.039094, -0.002143, -0.019567, -0.029688, 0.007257], [-0.162778, 0.640589, -0.785946, -0.625903, 0.476085, -0.880153, 0.44446, 0.099087, 0.095482, -0.657092, -0.543362, -0.727452, 0.655827, -0.257936, 0.022504, -0.093801, -0.500535, -0.031314, -0.085407, 0.075906, -0.569177, -0.646152, -1.64427, -0.32707, 0.168798, -0.011182, -0.321127, -0.400876, 0.085242, 0.634464, 0.101324, -0.732732, -0.130057, -0.143675, -0.262011, -0.62276, -0.197318, 0.956213, 0.362322, -0.525478, 0.351356, 0.084469, 0.430193, 0.217985, 0.027611, -0.44425, 0.845078, 0.174772, -0.005854, 0.29881], [-0.261105, 0.310939, 0.146731, 0.240106, -0.001986, -0.577585, 0.514549, -0.227261, 0.030907, -0.204584, 0.215141, 2.21889, 0.319739, -0.132265, -0.018735, -0.230198, 0.559871, 0.041535, -0.775772, 0.083858, -0.133792, -0.153829, 0.040099, -0.058167, 0.327415, 0.001077, -0.190379, -0.425075, 0.18, -1.15216, -0.641729, -0.10104, 1.16863, -0.592131, -4.63368, -0.625625, -1.22863, 0.039083, -0.603512, -0.206277, -0.899725, 0.056482, 0.243402, -0.217427, 0.047902, -0.516134, 0.469606, -0.011564, 0.117018, 0.391537], [-0.021329, -0.037769, -0.0315, -0.027478, 0.029008, 0.023455, 0.01402, -0.028934, 0.017128, 0.035312, -0.010441, 0.032421, 0.041999, 0.016884, 0.013645, 0.011355, -0.040121, -0.025029, 0.009688, -0.045401, 0.018209, 0.015917, -0.049359, -0.029898, -0.029799, 0.032565, -0.02798, -0.005852, -0.029365, -0.039995, -0.047093, 0.011583, 0.038987, -0.044078, -0.019218, -0.046206, -0.006924, -0.050299, -0.02314, 0.010597, 0.018637, -0.028431, -0.019973, -0.025413, 0.02577, -0.048876, -0.00364, 0.046854, 0.00565, 0.000205], [0.71935, -0.084637, 0.244822, 0.220071, 0.41099, -0.192004, 0.161804, -0.770147, 0.251705, -0.325013, 0.280676, 0.430674, 1.29456, -0.115484, -0.040164, -0.263437, 0.073451, -0.022995, 0.001153, 0.794122, -0.572826, 0.33541, -0.160082, 0.545615, 0.578718, 0.049309, -0.911247, 0.245256, 0.543316, -1.11284, 0.375988, 0.288978, 0.274105, 0.082238, -1.32821, -1.82611, -1.16673, 0.277162, 0.114857, 1.04049, -0.326348, -0.45564, -0.22326, -1.35277, -0.034045, -0.764109, 0.976569, -0.234915, -0.34501, 0.04836], [0.510369, 0.946371, 0.602217, -1.194, 0.359757, 0.379436, 0.35746, 0.191107, -0.227246, 0.856329, -0.245953, -0.363073, 0.193993, -0.357274, 0.042188, -0.108879, -0.628471, 0.003964, 0.804847, 0.691171, 0.450868, 0.325244, 0.895768, -0.054673, 0.418599, 0.01453, 0.116741, 0.164174, -0.358156, -0.16308, -0.071432, 0.090648, -0.072283, -0.739385, 0.384815, 0.237935, -1.6396, -0.989796, 0.186745, -0.036124, 0.088977, 0.452142, 0.175919, 0.350246, -0.006222, -1.13433, -0.013468, 0.940983, -0.861811, -0.261909], [0.05327, 0.106095, -0.160497, 0.451055, 0.060595, -0.002509, -0.075762, 0.560192, -1.55684, 0.016393, 2.41282, 0.631319, -0.072206, 0.131486, -0.014519, 0.038415, -0.114939, 0.042521, 0.066045, 0.358701, 0.62657, 0.229493, 1.06825, 1.44682, 0.333801, 0.050442, 0.166356, -0.082007, 0.173453, 0.113304, -0.030549, -0.242962, -0.004594, 0.284304, -0.127965, 0.184351, -0.141041, -0.131482, -0.054592, 0.229182, -0.032867, 0.236765, -0.078802, -1.72472, 0.001087, -0.140468, 0.261539, 0.140319, 0.210872, 0.376764], [-0.37026, -1.01467, -0.133861, 0.118186, -0.334911, 0.079079, -0.713957, -0.257601, 0.17595, -0.304299, 1.05776, 0.240159, 0.023216, 0.377797, 0.055175, -0.004223, 0.63622, 0.027717, 0.481898, 0.004642, -2.51732, 0.180659, -0.205595, 0.839573, -0.01953, 0.054791, -0.369876, 0.017394, 0.352053, 0.118995, 0.201316, -0.001456, -0.150687, 0.534704, 0.564273, -2.25185, -0.077457, -0.190438, -0.116027, 0.157867, 0.155941, -0.135831, -0.1442, -0.653727, -0.016974, -0.018718, 0.457861, 0.047301, -0.821859, -0.187747]], [[-0.008485, 0.000783, 0.018173, 0.490073, -0.153884, -0.196699, -0.122893, 0.314459, 0.609754, 0.322067, -0.071718, 1.31227, -0.01727, -0.01388, 0.16912, 0.269437, 0.231004, 0.006127, 0.018825, 0.038172, -0.221009, -0.251481, 0.986868, 0.067976, 0.05861, -0.028012, 0.202747, 1.67121, 0.072336, 0.032286, -0.045044, 0.018474, -0.059979, -0.068475, -0.294044, -0.497894, -0.416844, 0.130765, 0.011924, 0.023761, -0.049781, 0.362297, -0.008513, 0.541494, 0.017929, -0.048585, 0.087844, -0.01356, 0.244708, -0.858034], [-0.006895, 0.124719, -0.272036, 0.748505, -0.011654, -0.044439, -0.026582, -0.352395, 0.543077, -0.06485, 0.06877, 0.535227, 0.542302, -0.016882, -0.004363, 0.091992, 0.100116, -0.112185, -0.023392, 0.045102, 0.278269, 0.062698, 0.270349, -0.398435, 0.57849, -0.04297, 0.297352, -0.547238, -0.379941, -0.158341, 0.032096, 0.034516, 0.011585, -0.437194, 0.087449, -0.027125, 0.122649, 0.074931, -0.023436, -0.763502, -0.019707, 0.445992, 0.000307, -0.135083, 0.006997, 0.022997, -0.111401, -0.183011, 0.726862, -0.713052], [-0.028913, -0.017383, -0.13508, -0.265565, -0.388965, 0.031806, 0.044294, 0.126447, 0.01508, -0.020719, 0.210309, -1.34714, -0.299233, -0.03121, -0.003971, 0.882841, 0.576867, -0.156673, 0.020205, -0.040136, 0.376712, 0.201594, -0.171745, -0.084273, -0.663722, 0.007235, 0.140962, 0.36252, 0.134873, -0.469946, 0.009081, 0.008192, 0.710166, -0.120943, 0.506847, -0.013882, 0.346558, 0.119707, -0.019886, -0.510671, -0.01553, -0.313039, -0.044751, -0.152449, -0.173049, 0.045832, 0.378618, -0.25885, -0.086835, -0.30151], [-0.04001, -0.330538, -0.568953, 0.395655, 0.178389, -0.632089, -0.472446, 0.52976, 0.083444, -0.028537, 0.078386, 0.319822, -0.318332, 0.013595, -0.353281, -0.31275, -0.350224, -1.12732, 0.020746, -0.011641, -0.244653, -0.375708, 0.328998, -0.083025, 0.296845, -0.047048, -0.117624, 0.447868, -0.1083, -0.104752, 0.004303, -0.021741, 0.649409, 0.17622, 0.091812, 0.014978, -0.077263, -0.159118, 0.003172, -0.124926, 0.047049, -0.791195, -0.026596, 0.377411, 0.010727, -0.042725, -0.192167, -0.012797, 0.009035, -0.088514], [0.0045, 1.2008, 0.114854, -0.60647, 0.107143, 0.207331, -0.307259, 0.175557, 0.315194, -0.303221, 0.533183, -1.11447, 0.661879, -0.025382, -0.115669, 0.795053, -0.176717, 0.256623, 0.022666, 0.036732, 0.104666, -0.086315, 0.245783, -0.353149, -0.258753, 0.031063, -1.03782, -0.200655, 1.18777, 0.386147, 0.020911, -0.008768, -0.215088, -0.070741, -0.380378, -0.446123, -0.425797, 0.73919, 0.029992, 0.998339, 0.013609, 0.633912, 0.044925, -0.210993, -0.314689, 0.006464, 0.054583, -0.296355, -0.728909, -0.025967], [-0.013, 0.328613, 0.395281, -0.114378, 0.095247, -0.34487, 0.445595, -0.856714, 0.281162, 0.674723, 0.348873, 0.693528, 0.256123, 0.035198, 0.019633, -0.041739, 0.770414, 0.358312, -0.024168, -0.005195, 0.112915, -0.116158, -0.309964, -0.001367, -0.07744, -0.024742, -0.104012, -0.15661, 0.599222, -0.21674, 0.006048, -0.039147, -0.725986, -0.466605, -0.570142, 0.404981, -0.156136, 0.657318, -0.021613, -0.419232, 0.028097, 0.343771, 0.035368, -0.315726, 1.2332, -0.010137, -0.069576, -0.832109, 0.146017, -0.130969], [-0.048677, 0.398987, 0.025017, 0.036149, 0.001652, 0.118916, -0.191122, 0.167753, -0.415535, 0.054617, -0.490041, 0.684191, 0.010491, 0.044762, -0.581724, 0.355339, 0.048664, -0.626934, 0.011946, 0.026582, 0.103888, -0.312705, -0.403834, 0.46619, 0.381415, -0.05353, 0.137614, -0.221031, 0.195835, -0.071736, 0.006801, 0.03088, -0.201031, 0.015818, -0.393825, -0.189605, -0.163352, 0.213373, 0.015818, 0.034865, 0.047273, 0.262224, 0.003313, 0.11295, -0.035988, -0.027859, 0.438653, -0.012971, 0.951542, 0.462707], [-0.005822, 0.301739, 0.601181, -0.894791, -0.152264, -0.635563, 0.887382, 0.406634, 0.101822, 0.974068, 0.595284, 0.131857, -0.010607, -0.017386, -0.322851, -0.405643, -0.09848, -0.368244, 0.000914, 0.018478, -0.950886, -0.167678, -0.828682, 0.049123, 1.52323, -0.005426, -1.62188, 0.51622, 0.205356, 0.251755, -0.026982, -0.010916, -1.23081, -0.766014, 0.091164, 0.703956, -0.006097, 0.896728, 0.038373, 0.065938, -0.008937, 0.215359, -0.03799, -0.191361, 0.915374, 0.023749, -1.303, -0.628713, -0.27498, -1.1554], [-0.036582, 0.063201, 0.285297, 0.375345, -0.588181, -0.538581, -0.668903, -0.212078, -0.002885, 0.103204, 0.040343, -5.8265, -0.30528, 0.045334, 0.368062, -0.251825, 0.425529, -0.145468, -0.030812, -0.025436, 0.042932, -0.262969, 0.355119, 0.32073, -0.395241, 0.012045, 0.077753, -0.287955, 0.033248, -0.405421, 0.014037, -0.025163, -0.398191, 0.17211, -0.310004, 0.010387, 0.255296, -0.016791, -0.007518, 0.383429, -0.015137, -0.834612, -0.01809, -0.209013, -0.878841, -0.022631, -0.039649, -0.400541, 0.252735, -0.222248], [-0.047697, 0.465415, 0.002679, 0.04583, 0.085553, 0.041254, 0.013118, -0.183759, 0.38601, -0.141332, -0.177973, -0.273029, -0.142441, -0.004702, -0.058263, 0.166354, 0.174989, 0.524678, -0.029153, -0.019343, 0.10143, -0.60452, -0.259285, 0.177351, 0.104671, 0.019418, 0.190014, 0.616937, 0.081721, 0.24248, -0.01972, 0.002744, 0.550135, -0.060985, 0.119063, 0.021144, -0.076372, 0.177426, 0.016973, 0.144914, 0.032959, -0.167225, -0.029915, 0.137885, 0.28243, -0.03392, -0.016391, 0.010797, 1.27129, 0.437603], [0.035524, -0.369322, 0.269426, 0.116237, 0.127975, 0.138172, -1.44497, -0.079428, -0.409781, -0.026749, 0.1094, 1.19104, 0.170874, 0.019639, -0.244709, 0.005939, 0.234529, 0.051405, 0.024963, 0.014597, -0.302493, 0.131933, 0.482922, 0.499304, -0.159767, 0.004244, -0.41393, 0.178845, -0.142726, 0.370369, 0.009639, -0.030479, -0.338336, 0.153746, -0.277579, -0.229208, 0.438827, 0.268932, -0.013131, -0.314761, -0.045366, -0.462573, -0.038354, 0.034427, -0.324318, -0.032958, 0.466634, -0.041065, -0.391218, -0.406606], [0.033023, -0.154747, -0.398065, 0.356754, 0.12453, -0.152233, -0.18585, -0.07267, 0.563338, 0.22921, -0.434841, 0.396779, 0.035867, -0.038213, -0.071621, -0.59458, -0.03508, 0.132455, 0.016607, -0.012478, -0.079567, -0.265314, 0.346268, 0.180154, -0.025248, 0.000805, 0.363572, -0.295046, -0.081643, -0.145059, -0.006222, 0.017404, 0.200018, 0.25664, -0.043833, 0.185837, -0.195312, 0.020357, -0.005856, -0.186761, 0.040423, -0.31172, -0.022136, 0.285974, 0.168117, 0.003229, -0.46101, 0.047607, -0.268342, -0.064415], [0.023468, 0.100079, -0.355312, -0.32723, -0.052011, -0.567389, -0.004006, -0.239415, 0.015855, -0.570571, -0.477202, 0.604145, -0.489057, -0.000859, 0.24352, -0.031485, 0.086621, -0.31563, 0.056284, 0.029269, 0.505654, -0.258007, 0.701583, 0.100468, 0.404934, 0.007008, 0.405673, -0.924203, 0.306694, -0.115156, -0.016767, 0.020282, 0.450639, -0.114525, -0.402179, -0.164301, 0.360938, -0.483966, -0.00029, 0.325685, -0.02867, -0.058684, -0.012097, 0.113693, 0.492221, -0.012482, 0.639447, 0.16819, -0.320311, -0.274902], [-0.018267, -0.207568, -0.450152, -0.288022, 0.070882, -0.039664, -0.100108, -0.249262, 0.694453, 0.276328, -0.091705, 0.516844, -0.287692, 0.027969, -0.393473, -0.862443, 0.189675, -0.768607, -0.044802, -0.004547, 0.204696, -0.014159, -0.590048, 0.595524, 0.182355, 0.03329, 0.28487, -0.457047, 0.42731, 0.058066, 0.027161, 0.047026, 0.432423, -0.0213, 0.429851, -0.357901, 0.395809, -1.24135, -0.007598, 0.189388, -0.035381, 0.419576, -0.034475, -0.233887, 0.26778, -0.018694, 0.645322, 0.368432, 0.207434, 0.286133], [0.004781, 0.457876, -0.068037, -0.280188, 0.430923, -0.200643, -0.093106, 0.409988, 0.580791, 0.137457, -0.188266, 0.464104, -0.07752, 0.006717, -0.3327, 0.167546, -0.169694, 1.31458, 0.00996, -0.012126, 0.085895, -0.04197, 0.043178, 0.464163, 0.65408, -0.036322, -0.05774, -2.3666, -0.308728, -0.214869, 0.055493, -0.020007, 0.083922, -0.148093, -0.061636, -0.281909, -0.41846, -0.665912, -0.022205, 0.151265, 0.003732, -0.009998, -0.012379, 0.385404, 0.48591, -0.000131, -0.425115, -0.22405, -0.230982, 0.849383], [-0.052879, -0.267358, -0.471913, 0.313979, -0.443237, 0.678026, -0.128585, -0.713454, 0.494996, -0.072564, -0.504314, -2.08037, 0.401054, -0.028879, -0.304702, 0.492633, 0.505772, -0.227049, -0.043196, -0.018446, 1.08016, 0.43706, -0.028752, -0.436792, -1.57237, -0.012201, 0.339212, -0.307571, -0.031212, -0.452846, -0.00477, 0.020118, 0.917613, -0.035641, 0.048699, -0.556795, 0.612625, 0.690883, -0.049203, 0.174372, -0.012619, 0.681263, -0.033368, -0.77436, 1.20329, 0.025994, -0.457269, -0.260309, -0.66164, -0.00481], [-0.026991, -0.793833, 0.265162, -0.033414, -0.268278, 0.92847, 0.459518, -0.382767, 0.597222, 0.213974, -0.762199, 1.95701, 0.545119, -0.023867, -0.053969, 1.74814, -0.168576, -0.089834, -0.024033, -0.01774, -0.81828, 0.004555, -0.326899, -0.001469, -0.565837, -0.005394, 0.046153, -0.242607, 0.121839, 0.683998, 0.009973, -0.009784, -0.740765, 0.179369, -0.112506, 0.462325, -0.101354, 1.50949, 0.019427, 0.100582, 0.036092, 0.067422, -0.042816, 0.020787, -1.05983, 0.040471, 0.23487, -0.769655, 0.422983, -0.352054], [0.002745, -0.312853, -0.623476, 0.674809, 0.527894, -0.247892, -0.037494, 0.519134, 0.46705, 0.019341, -0.166503, 2.15919, 0.167592, -0.005905, -0.25205, -0.369301, -0.778401, -0.127349, 0.012728, -0.034949, -0.497332, 0.060451, 0.43121, 0.400274, 1.64176, 0.009022, 0.769043, -0.599409, -0.74206, 0.071346, 0.020661, -0.002722, 0.294432, 0.206472, -0.356795, -0.232143, 0.368023, -0.839911, 0.038808, 0.122518, -0.01805, -0.322264, 0.002431, 0.324347, -2.96923, -0.045167, 0.378525, 0.251559, -0.608281, -0.519459], [-0.038566, -0.055815, -0.269554, -0.228072, 0.473289, 0.34203, -0.643691, 0.426154, -1.27895, 0.608017, -0.085191, 0.827128, 0.512199, 0.015644, -0.72562, 0.602192, 0.072329, 0.79826, -0.032004, 0.033246, 0.509805, 0.322885, 0.044872, -0.043029, 0.988706, -0.015992, 0.506626, -0.288645, -0.459683, -0.200375, -0.043467, 0.010585, 0.05631, -0.145194, -0.258464, -0.21453, 0.292707, 0.212621, 0.017818, -0.359464, -0.020773, 0.439499, -0.026342, 0.572027, 0.946769, -0.004698, -0.140567, 0.025783, -0.435921, 0.314085], [-0.041113, -0.024873, 0.042337, -0.124147, -0.057908, -0.347655, -0.239414, -0.468367, 0.541693, -0.509389, -0.113341, -0.751339, 0.177501, -0.044207, 0.332014, 0.232818, -0.101209, -1.16266, -0.046925, 0.01702, -0.313435, 0.260894, -0.205029, 0.004718, -0.599329, -0.008145, -0.012329, 0.424472, -0.423483, -2.05136, -0.007045, 0.025975, 0.121627, 0.366845, 0.210446, -0.115722, -0.242139, -0.159479, -0.036714, 0.641352, -0.029407, -0.00476, -0.04053, 0.005664, 0.45244, 0.032921, -0.455866, 0.27887, 0.051714, -0.392293], [0.008772, 0.296563, -0.173781, -0.155536, 0.389854, 0.471193, -0.292171, -0.126041, -0.451785, -0.030519, 0.035552, -0.378871, 0.148494, -0.042448, 0.629466, -0.144102, 0.013084, -0.158332, 0.008683, -0.033419, 0.002702, 0.646282, 0.391488, -0.440946, 0.231966, 0.014141, -0.243794, -0.136425, -0.036793, 0.261392, -0.038799, 0.009527, 0.19001, -1.0673, 0.574329, 0.203723, 0.231504, 0.13493, -0.019854, 0.091007, -0.022628, 0.483919, 0.013319, 0.219933, 0.318307, 0.039655, 0.075251, -0.100341, -0.132399, 0.159531], [0.012848, -0.358798, -0.454719, 0.059365, 0.144972, -0.130695, -0.850428, -0.199011, 1.14981, 0.232904, -0.073488, 0.869744, 0.614037, -0.036006, 0.114281, -0.533877, 0.175564, -0.895378, -0.031519, -0.000394, 0.370779, 0.333234, 0.653175, -0.058697, 0.137114, 0.003698, -0.427709, -0.249628, 0.036745, 0.269144, 0.00891, 0.039093, 0.229344, -0.546818, 0.463182, 0.473714, -0.348167, 0.098651, 0.026642, -0.799389, -0.00887, 0.224183, -0.005336, -0.045865, 0.319967, -0.006223, -0.114598, 0.118645, -0.361474, 0.372931], [0.035963, 0.116253, -0.318228, -0.245501, -0.768509, 0.265559, 0.001045, -0.306298, -0.285447, 0.199629, -0.118552, -0.354303, 0.029021, -0.012145, 0.340116, -0.137855, 0.397032, -0.369336, 0.008151, 0.012145, -0.48738, 0.337296, 1.00177, 0.508628, -0.010858, -0.018116, 0.263685, 0.42829, -0.07874, -0.204582, 0.013048, 0.003947, -0.080781, 0.076916, 0.129237, 0.079245, 0.367552, -0.740303, 0.009422, 0.525335, -0.003256, -0.080201, -0.040832, 0.26227, 0.485042, -0.044096, 0.785237, -0.211314, -0.094763, 0.58187], [-0.021078, -0.184379, -0.055673, -0.248398, -0.312634, 0.307804, -0.284952, -0.159449, 0.16982, 0.258446, -0.224979, -0.362722, 0.20122, 0.04267, 0.060027, -0.011183, 0.143386, -0.521048, 0.045524, -0.020682, -0.230736, -0.080784, 0.315248, -0.290935, 0.217324, 0.011214, -0.32001, 0.258702, -0.068119, 0.116716, -0.004318, 0.032091, 0.212766, 0.209133, -0.109559, -0.032398, -0.006888, -0.391663, 0.02657, -0.071603, 0.025059, 0.37444, 0.004496, -0.009484, 0.141568, -0.031879, -1.01162, -0.195227, 0.002807, 0.493397], [0.028725, -0.751206, -0.617098, -0.906253, 0.372992, -0.179244, -0.369124, -0.102473, 0.088773, -0.381571, 0.007184, 0.244755, -0.11182, 0.022472, 0.015092, 0.703549, -0.113996, 0.102338, -0.044962, 0.006617, -0.079663, 0.190477, -0.003709, 0.00806, -0.802202, -0.008943, 0.343924, -1.24453, -0.235417, -0.088732, 0.036021, -0.037225, 0.678116, 0.554424, 0.170945, -0.513439, 0.195169, 0.217605, 0.040916, 0.094562, 0.005448, -0.393825, -0.013742, -0.022208, -0.263389, 0.032142, -0.098186, 0.039843, -0.014646, -0.627673], [0.047201, -0.021078, 0.027358, -0.00627, 0.01094, -0.065643, -0.039462, -0.029721, -0.01514, 0.003196, -0.02948, -0.026575, -0.040415, -0.028653, -0.032825, -0.066237, -0.023496, 0.009945, 0.026933, 0.037744, -0.006914, -0.012173, -0.029009, -0.042288, 0.004258, -0.040273, -0.045667, -0.017884, -0.058654, -0.024455, 0.044467, -0.008331, 0.027194, 0.042804, -0.020932, 0.031033, -0.027172, -0.05142, -0.021697, -0.011852, -0.04738, -0.020265, 0.023401, -0.045452, -0.046159, -0.039378, 0.0051, -0.039424, -0.039807, 0.015137], [-0.016553, 0.686936, -0.159917, -0.137587, -0.285997, -0.624419, -0.809689, -0.178069, 0.195186, 0.323755, -0.07011, 0.58286, -0.597277, -0.00895, 0.676538, -0.007303, 0.168448, -0.324496, 0.02296, 0.054725, -0.090218, -0.338304, -0.07762, -0.0475, 0.50502, -0.01786, -0.054818, 1.20528, -0.520949, 0.473089, 0.000937, 0.02696, 0.139008, 0.242798, -0.31224, -0.136972, 0.107381, -0.313462, 0.036835, -0.137257, 0.015741, 0.984042, -0.003229, 0.186379, 0.614334, -0.035962, 0.60222, 0.463286, -0.792214, -0.093986], [-0.028454, -0.45113, 0.117397, 0.541443, 0.237617, -0.520713, 0.248398, 0.064516, 0.023714, -0.059322, -0.225874, 1.37069, 0.468979, 0.015704, -0.359076, 0.17729, -0.190122, 0.28254, -0.041421, -0.0552, 0.270305, 0.176881, -0.569672, 0.320356, -0.51843, 0.036025, -0.058044, -0.439901, -0.591982, 0.155143, 0.003217, 0.024314, -0.067474, 0.00232, 0.092157, -0.176654, -0.08148, -0.350632, 0.049163, -0.074352, 0.001837, -0.249319, -0.003016, -0.180477, -0.139152, 0.002945, -0.239024, -0.423063, -0.532824, -0.218842], [0.014253, -0.614061, 0.283167, -0.406685, 0.182009, -0.756635, 0.710377, 0.461935, -0.017202, 0.378782, 0.367742, 1.05063, -0.040338, -0.026408, 0.06752, 0.552835, -0.253015, 0.188852, -0.023109, -0.032587, 0.014499, -0.033155, 0.544646, -0.048266, 0.211629, 0.023503, -0.31178, 0.362662, -0.28255, -0.182318, 0.036412, 0.022019, -0.191001, -0.308397, -0.03063, -0.217048, 0.337569, -1.29648, -0.009388, 0.254524, 0.023057, 0.189575, -0.035234, 0.350499, 0.001704, 0.019374, -0.055688, 0.222422, -1.08057, 0.00651], [0.018301, -0.253921, -0.16136, 0.208188, 0.140977, 0.092461, 0.080467, -0.309875, 0.157209, -0.15672, -0.347482, 0.451854, -0.222139, -0.021348, -0.486991, -0.146262, -0.109261, 0.075585, 0.013712, -0.018406, -0.024014, -0.088853, -0.058895, -0.099094, 0.325259, 0.047834, 0.063335, -0.513025, -0.110329, 0.208856, 0.029027, -0.033488, 0.215237, 0.149885, 0.181583, 0.101043, 1.07487, -0.167009, 0.019021, -0.059992, -0.016163, 0.326641, 0.05093, -0.115544, 0.507773, 0.028588, -0.156872, 0.116188, -0.342283, 0.338579], [-0.034518, 0.089769, -0.162413, 0.43377, -0.041833, 0.02117, -0.308804, -0.215762, 0.08468, -0.323171, -0.214323, -0.300154, 0.080563, 0.004355, -0.326326, -0.067477, -0.222816, -0.102049, 0.040485, -0.002608, 0.584041, -0.166563, -0.005149, -0.288881, -0.514106, 0.006174, -0.012225, 0.111199, -3.3e-05, 0.157838, 0.020437, 0.023286, -0.134904, -0.475068, 0.200913, 0.199628, 0.238604, -0.168872, -0.024435, -0.188949, 0.025694, 0.171057, -0.007189, 0.301357, 0.206075, -0.013594, -0.473933, 0.34906, 0.046678, -0.951663], [-0.023951, 0.294093, 0.104998, 0.319559, 0.213361, -0.300254, 0.430715, -0.303168, -1.41476, -0.037297, 0.370302, 0.294268, -0.488507, 0.042827, -0.56046, 0.051883, -0.451566, -0.254087, 0.014184, 0.035636, 0.030889, 0.248877, -0.187374, -0.832241, 0.294299, -0.04612, -0.537955, -0.345482, -0.645597, -0.141991, 0.035066, 0.018415, -0.125424, 0.129929, 0.552521, 0.033323, -0.386604, -0.10738, 0.034333, -0.419975, 0.010751, -0.02909, 0.013647, -0.310263, 0.119639, -0.008926, -0.331591, -0.008567, -0.252883, -0.41503], [-0.018683, 0.090895, -0.087777, -1.57102, -0.594452, -0.539547, -0.10898, -0.393551, 0.388257, -0.129726, 0.372153, 1.54671, -0.701141, 0.04593, 0.536348, -0.901804, 0.332785, -0.423805, 0.006158, 0.051874, -0.067096, -0.173815, 0.399178, -0.029576, -0.155244, 0.028502, -0.04759, -0.192034, -0.72601, 0.084645, 0.000982, 0.00923, -0.244152, 0.346414, -0.780975, -0.03023, 0.22741, -0.111665, -0.015526, -0.962064, -0.017229, 0.201696, 0.020106, -0.130183, 0.575537, 0.02986, 1.42285, 0.746275, -0.519108, 1.01834], [0.042841, 0.547873, -0.250259, -0.730849, -0.054567, -0.645279, -0.653182, 0.003721, -0.447495, -0.446754, -0.237396, -1.03372, 0.172773, -0.033694, -0.826316, -0.104893, -0.195337, 0.647346, -0.001493, -0.026004, 0.094935, 0.47574, 0.052878, -2.19011, 0.516182, -0.017074, 0.299287, 0.027158, 0.321142, -0.719912, 0.007435, -0.016488, -0.601816, 0.055983, 0.002756, -0.284921, 0.102421, 0.208067, -0.053223, -0.32446, 0.022107, 0.25041, 0.012369, -0.127327, -0.032777, 0.031068, -0.557527, 0.549861, 0.850834, -2.76759], [0.036193, 0.401721, 0.336691, 0.014227, -0.339803, -0.410003, 0.608497, 0.56626, -0.203103, 0.166411, 0.516399, -1.15388, -0.473086, 0.035322, -0.346536, -0.171077, 0.083558, -1.23554, 0.02613, -0.045316, -0.337602, -0.118624, -0.598626, 0.133413, -0.666126, -0.027301, 0.323155, 0.077887, -0.065834, 0.029196, -0.014554, 0.024135, -0.018709, 0.345123, 0.356358, 0.499324, 0.015071, 1.21268, -0.026858, 1.08781, -0.01288, -0.659919, -0.007321, 0.2363, -1.21951, 0.047033, -0.208131, 0.278066, -0.060228, -1.12657], [0.013504, 0.311922, 0.169353, -0.28339, -0.526164, -0.600855, 0.251884, -0.526836, -0.483737, 0.349877, -0.522979, 1.35499, -0.282946, 0.039616, 0.037346, 0.643226, 0.456695, 0.379819, 0.043775, -0.033392, -0.910303, 0.207663, -0.973263, 0.100327, -0.311354, -0.016679, -0.424947, 0.242875, -0.576536, 0.193027, -0.029458, 0.017197, 0.201909, 0.406664, 0.397677, 0.387912, 0.070902, -0.227948, -0.005426, 0.123797, 0.026433, -0.263186, -0.042786, -0.188345, 0.833705, -0.041057, -0.367594, 0.337778, -0.302067, -1.04042], [0.005051, -0.125605, 0.018778, 0.192442, 0.093275, -0.194849, -0.04123, 0.022058, 0.622108, -0.167802, -0.081817, 0.105119, -0.113484, -0.023325, 0.054846, -0.287078, 0.00967, -1.04786, 0.031419, -0.016125, 0.061656, 0.247706, -0.263022, 0.204174, 0.163782, -0.005403, -0.001699, -0.106722, -0.356371, 0.136732, 0.043275, 0.030424, 0.565104, -0.320341, -0.024418, 0.203505, 1.30264, -0.475973, 0.019685, -0.312205, 0.031387, 0.099895, 0.01801, 0.095885, 0.349485, 0.035941, -0.13346, -0.10322, -0.590653, -0.010644], [0.006958, 0.083382, -0.204732, -0.583056, -0.014576, -0.054649, -0.111436, -0.237034, -0.143678, 0.112931, 0.248073, -0.118536, -0.264042, -0.04117, -0.289588, -0.812629, 0.169187, -0.135807, -0.042419, -0.035665, -0.16166, 0.001859, 0.385141, -0.310092, -0.041675, -0.025598, -0.243783, 0.252746, 0.049268, 0.206099, 0.039865, 0.005252, 0.093975, -0.06513, -0.134911, 0.003822, 0.068813, 0.002424, 0.000871, 0.007505, -0.035199, -0.100426, 0.037504, -0.116046, 0.067443, 0.018715, 0.564743, 0.079392, 0.042108, 0.404686], [-0.037872, 0.332487, -0.067882, 0.36822, -0.905564, -0.285377, 0.218789, 1.3342, 1.44464, 0.100031, -0.217198, -0.945518, -0.951985, -0.031175, 0.393708, -0.130819, -0.203123, -0.078059, -0.042948, 0.022323, -0.760099, -0.842648, -0.219145, 0.072958, -0.967513, 0.039618, 0.128794, 0.347927, -1.30534, -0.256537, 0.008003, -0.004024, -0.62919, -0.1432, 0.362199, -0.020084, -0.083554, -0.539078, -0.010856, -0.310481, -0.020349, 1.24165, -0.017576, 0.815513, 0.158105, 0.036694, -0.613885, 1.29512, -0.090127, -0.443792], [0.041853, 0.012795, 0.013431, -0.044576, 0.032521, -0.058105, 0.027584, -0.040811, 0.03543, -0.016822, -0.042924, -0.031782, -0.000268, 0.049925, -0.043667, -0.027678, -0.020249, 0.029197, 0.003986, 0.001994, 0.002456, -0.02019, -0.066983, 0.027573, -0.047061, -0.024765, -0.015961, 0.033955, -0.040796, 0.031805, 0.026769, 0.017105, -0.010441, -0.001983, -0.019309, -0.0272, -0.017372, -0.001913, -0.032161, 0.024131, 0.009287, 0.007624, 0.01128, -0.024361, -0.028081, 0.038908, -0.003945, -0.032696, -0.015612, -0.032679], [0.003797, 0.470147, -0.026092, -0.14163, 0.046781, -0.014394, -0.615346, -0.242009, 0.118944, -0.315062, -0.401192, 1.33038, -0.279978, 0.011713, -0.026133, -0.08263, -0.163161, 0.557489, 0.022769, 0.02173, 0.551074, -0.095763, -0.159999, -0.358673, 0.253029, -0.01411, 0.095985, -0.827561, -0.586803, -0.426174, 0.039099, 0.021942, -1.19957, -0.035896, -0.071294, 0.22059, 0.069938, 0.020886, 0.017321, 0.297312, -0.049981, -0.042372, -0.014864, -0.641459, -0.384693, 0.039325, 0.63847, 0.480686, -0.228113, 0.294804], [-0.047733, -0.008543, -0.021064, -0.033673, 0.016647, -0.050393, -0.03329, 0.018705, -0.063398, 0.032814, 0.013517, -0.017975, 0.021861, 0.028017, 0.006506, -0.022357, -0.014379, -0.007547, -0.000251, 0.04368, -0.046115, 0.025864, -0.029832, 0.026816, -0.054146, -0.041545, -0.031213, -0.034849, -0.008296, 0.008842, -0.020431, -0.004705, -0.040002, -0.018347, -0.02381, 0.020433, -0.025081, -0.059916, 0.016512, -0.017485, 0.011451, 0.008104, 0.027778, -0.047408, 0.003327, 0.012097, 0.025495, -0.006628, 0.001123, -0.04793], [-0.012548, 0.157206, -0.343802, -0.198921, -0.163697, 0.418476, -0.456043, -0.141204, 0.229378, -0.945247, -0.681841, -1.07757, -0.043151, 0.010185, -0.19395, 0.539551, -0.471376, 0.042392, -0.029263, -0.016093, 0.107432, 0.08968, -0.749231, -0.189661, -0.217727, -0.023392, 0.288141, 0.111288, -0.491773, 0.214535, 0.026078, 0.003922, 0.524744, 0.260288, 0.147632, -0.371046, 0.134115, -0.473319, 0.016199, 0.114528, 0.031713, -0.188602, -0.004633, -0.431471, -0.830947, 0.032906, 0.272318, 0.758871, -0.175504, -0.487371], [-0.04539, 0.019522, -0.730701, -0.284808, 0.245771, 0.16693, 0.808095, 0.133304, 0.464405, -1.24093, -0.171713, -0.974783, 0.194786, -0.017875, 0.110891, -0.292378, 0.647055, 0.657409, -0.008283, -0.019372, -0.444196, -0.585056, 0.195872, 0.168959, -0.465191, -0.028099, 0.547792, 0.253971, -0.361036, 0.121614, 0.008063, 0.047556, -0.196501, -0.218438, 0.164888, 0.37776, -0.56625, -2.60884, -0.029261, 0.401515, -0.049191, 0.459974, -0.029355, -0.072929, -0.501506, 0.031157, 0.137792, 0.257595, -0.408003, -0.119849], [0.003186, 0.278706, 0.087042, -0.499718, -0.444434, 0.373404, 0.016509, -0.278029, 0.191308, -0.538282, -0.555453, -0.266921, -0.446093, -0.0168, 0.186551, 0.475346, 0.498147, -0.06752, -0.014904, -0.045345, 0.126995, -0.171368, -0.003338, 0.077302, -0.106323, 0.017408, 0.499091, -0.225884, 0.095392, 0.028179, 0.028945, 0.016402, 0.78193, 0.588966, -0.14194, -0.336384, 0.336929, -0.023764, -0.040234, -0.06219, 0.025252, 0.505267, 0.052976, 0.138192, 0.851789, -0.045948, -0.007019, 0.198801, -0.657965, -0.03493], [0.020884, 0.272235, 0.080236, 0.283569, 0.35377, 0.085409, 0.903071, -0.667995, 0.750418, 0.327002, 0.202323, -0.378369, -0.384306, -0.0083, -0.137589, -0.349071, 0.434802, -0.240721, -0.000677, 0.011076, 0.652304, 0.120567, 0.259436, 0.676303, -0.670191, -0.01698, -0.006113, 0.907883, 0.622977, 0.520074, 0.000589, 0.031044, 0.340035, 0.30095, -0.292198, -0.138382, -0.010436, 0.606363, 0.041158, -0.804049, 0.038591, -0.917441, -0.042056, 0.038646, 0.356379, -0.01073, -0.465541, 0.433611, -1.15288, 0.033695], [-0.016122, -0.757481, -0.120012, -0.402381, -0.332082, -0.051714, 0.151114, 0.053622, 0.319032, -0.164905, 0.026691, -0.102648, 0.005022, 0.002234, 0.135521, 0.276759, 0.118966, -0.116634, -0.045196, 0.048982, -0.394133, -0.029263, 0.17661, 0.049382, -0.409949, 0.007918, -0.144369, -0.402339, -0.064399, -0.386209, -0.046076, -0.015288, 0.188225, 0.000677, -0.103929, -0.056035, 0.005721, 0.18126, -0.020209, -0.282703, -0.037523, -0.229331, -0.022071, -0.205114, -0.545104, 0.01216, -0.727551, -0.067574, 0.050806, 0.016044], [0.046697, -0.135534, -0.926477, 0.755261, -0.374146, -0.953197, 0.072212, 0.668906, 0.740887, 0.320093, 1.00225, 0.569802, 1.15518, 0.035821, -0.583965, -0.097136, 1.15162, -4.39813, -0.004659, -0.029527, -0.931152, 0.389178, 0.022619, -0.894583, 0.880782, 0.017308, 0.497157, -0.13406, 0.740307, 0.049962, 0.021377, 0.001065, -0.741878, 0.160197, -0.036699, -0.261275, -1.06718, 1.89874, 0.02108, 0.27032, -0.042225, -2.36777, 0.039284, 0.420523, -0.045249, -0.036005, 1.15358, -0.416043, 0.405233, -0.868091], [-0.018338, -0.204149, 0.062923, 0.660082, 0.561649, 0.051342, 0.425195, 0.158568, 0.236234, 0.269925, -0.173706, 0.196274, -0.175585, 0.022362, -0.103089, 0.510275, 0.027771, 0.303967, -0.046042, -0.046228, -0.258987, -0.052785, -0.822155, -0.743608, 0.492033, -0.016997, -1.39124, -0.352962, -0.923662, 0.363574, -0.041883, 0.030488, -0.516466, 0.08732, 0.058988, -0.22628, -0.096962, -0.161515, 0.010998, 0.61249, 0.022551, -0.379398, 0.044594, 0.19251, 0.550411, 0.047772, 1.11791, 0.375766, -0.256823, -0.021143], [-0.011093, -0.55354, -0.187705, 0.117095, 0.154566, 0.529811, -0.30962, -0.389653, -0.333319, 0.383811, 0.433156, 0.692863, -0.580335, 0.012353, 0.303357, -0.375161, -0.104631, -0.104274, -0.046504, -0.028007, 0.39154, 0.110789, 0.093244, 0.587921, 0.441158, 0.034798, 0.259387, 0.396567, -0.376323, -0.020919, 0.015564, 0.035698, 0.424521, 0.586446, 0.117312, -0.320842, -0.211487, -0.761256, -0.034199, -0.416367, -0.009886, 0.422791, -0.030982, 0.3422, 0.840918, 0.048422, -0.085594, -0.12796, 0.086132, -0.034341]], [[0.842495, 0.42723, 1.0318, 0.525571, 0.095866, 0.067652, -0.15527, 0.16739, -0.615961, 0.280113, 0.920784, 0.015446, -0.105537, -0.406026, 0.00186, 0.050526, 1.13006, -0.076361, -0.18924, 0.343387, -0.02767, 0.096827, -0.466169, 0.961183, 0.369717, 0.023359, -0.260967, 0.115336, 0.020314, -0.190252, -0.147406, 0.262463, 0.475676, 0.501615, -0.433631, 0.708597, -0.024473, 0.009069, 0.211886, 0.002664, 0.066837, 0.030921, -0.552387, 0.383028, 0.05475, 0.205702, 0.023384, -0.097028, -0.05769, -0.060093], [-0.137392, -0.677836, 0.031292, 0.028628, 0.110559, 0.1252, -0.183076, 0.074888, -1.17003, 0.278381, 0.216504, -1.75714, -0.44752, 0.134448, 0.116932, -0.453, -0.690544, -0.026221, -0.193623, -0.474197, 0.00551, -0.096958, 0.36197, 0.640553, -0.561514, 0.043562, 0.219867, 0.058316, -0.290911, -0.394477, 0.734814, 0.571149, -0.178729, 0.034778, -0.167895, -0.008438, 0.02794, 0.518014, 0.071509, 0.016033, 1.20092, 0.036032, -0.073637, 0.762956, -0.085691, 0.00453, 0.170592, 0.025077, -0.139736, 0.453947], [-0.459815, -0.24578, -0.943975, 0.529372, -0.05869, 0.18, 0.059931, -0.221764, 0.627433, -0.211741, -0.655838, -0.027914, -0.178882, -0.019022, -0.440081, -0.001155, -0.186304, -0.053922, 0.041294, -0.289223, -0.053625, -0.10913, -0.175979, 0.467704, 0.292639, 0.008642, 0.153062, 0.475766, 0.345084, -0.589481, 0.833209, -0.116812, 0.307463, 0.033897, -0.541831, -0.144799, -0.356844, 0.482995, -0.206975, 0.023897, 0.170818, -0.005648, 0.102189, 0.151003, 0.23454, 0.439899, -0.683689, 0.252037, -0.22133, -0.008839], [-0.532109, 0.431933, -2.23856, -0.817313, -0.100469, 0.299227, 0.549829, -1.20754, 1.21602, -0.150371, 0.650811, 0.443917, -1.02869, 0.563719, 1.00698, -0.188, -0.578766, -0.24319, -0.101048, 1.39007, 0.196575, -1.70133, -0.083911, 0.44573, -2.26978, -0.049619, 0.203645, 0.455516, 0.635286, -0.125803, 0.703474, 0.255471, -3.14539, -0.437946, 0.139765, -0.209531, -0.482061, 0.49587, -0.015717, -0.009921, 0.711769, -0.043361, 0.437468, 1.18222, 0.562786, 0.025771, 0.966307, -0.167408, 0.099139, 0.25098], [0.036552, -0.508774, 0.211916, 0.125844, 0.018333, -1.03349, -0.959955, 0.10558, 0.074887, 0.029461, 1.17585, 0.023971, -0.241242, 0.754902, 0.410233, 0.071401, -0.798412, 0.239319, -0.14065, -0.072312, -0.325428, 0.828124, 0.038075, 0.715205, -0.219289, -0.001976, 0.217554, 0.216742, 0.287467, 0.134465, -0.085484, -0.363415, 0.321843, 0.812059, 0.296422, 0.65764, -0.22627, 0.639461, -0.164649, -0.045363, -0.167771, -0.028909, 0.278948, 0.033611, -0.066187, -0.270153, 1.07329, -0.607337, -0.144173, -0.178268], [1.19983, 0.537195, 1.03711, 0.141455, 0.135104, -0.213345, -0.620694, -0.124619, -0.32282, 0.012017, -1.46023, 0.693266, -0.336341, 0.533474, 0.156523, -0.121713, 0.235468, 0.019598, -0.107383, -0.066541, 0.742158, 0.660779, -0.703703, 0.598745, 0.259553, 0.06007, -0.27904, 0.648769, 0.350426, -0.556012, 0.676682, 0.553487, -0.313922, -0.063716, -0.178303, 0.634634, -1.17823, 1.16019, -0.171777, 0.043142, -0.070486, 0.011736, -0.227309, -0.145033, 0.286483, -0.156017, -1.37448, 0.41014, 0.257603, -0.424676], [0.048347, -1.00348, 0.219336, -0.425246, 0.108254, 0.667259, -1.41805, 0.413228, 0.725184, -0.442962, 0.561457, 0.377897, 0.237395, -0.245446, 1.07697, 0.006827, 1.06987, 0.020592, -0.886324, -0.154716, -0.10631, 0.639643, -0.322116, 0.396954, 0.607673, 0.037208, 0.097961, 0.835113, -0.090807, 0.491652, 0.258182, 0.584028, -0.474283, 0.789443, -0.086298, 0.372414, -0.016843, 1.42841, 0.043656, -0.027294, -0.666426, -0.066426, -0.871934, 0.539686, -0.85204, -0.134489, 0.763755, -0.098358, -0.626585, 0.921002], [0.608249, 0.030656, 0.545697, 0.754315, -0.178121, 0.341294, -0.337114, 0.426275, 0.099487, 0.914393, -0.57571, 0.095526, 0.34508, 0.303491, -0.660117, 0.418711, 0.599939, -0.213986, -0.211547, 0.705712, 0.062198, 0.311226, -0.402655, 1.21334, -0.44129, -0.000951, 0.243121, 0.254952, 0.154387, -1.18759, -0.568128, 0.418079, 1.00124, 0.544641, -0.483812, -0.168353, -0.623092, 0.201578, 0.235589, -0.005643, -0.717881, 0.007425, 0.13355, 1.27671, -0.834812, 0.152861, 0.24381, -0.321813, -0.363936, 0.416581], [1.11526, -0.211208, 0.102696, 0.079905, -0.701048, 0.329396, -0.931023, 0.992299, -1.10065, -0.647473, -0.137344, 1.06377, -0.496417, 0.343606, -0.126169, -0.034451, -0.042971, 0.1518, 0.111102, -0.01484, 0.09796, -0.353531, -0.127809, -1.53042, 0.370188, 0.0445, -0.025273, -0.290218, 0.212767, -0.054817, 0.037262, 0.106279, -0.827725, 0.115028, 0.42685, -0.083168, 0.451933, 0.12046, 0.107911, -0.029503, 0.779542, -0.045117, 1.31834, -0.424566, -0.276582, -0.009932, 1.10503, -0.230651, 0.211448, 0.104293], [-0.203786, -0.048454, -0.782604, 0.506255, -0.274328, -1.72308, 0.942071, -2.25346, -0.95186, -1.70225, 0.766149, -0.01355, -0.232813, -0.302983, -0.553998, -0.068889, -0.460224, -0.048873, 0.085416, 0.246803, -0.29089, -0.305043, 0.525585, -0.588414, 0.164098, 0.01782, -0.089443, 0.011472, 0.083474, 0.733431, -0.086252, -0.545052, -0.867399, 0.469184, 0.020893, -0.477806, -0.040696, 1.05019, -0.319853, -0.007631, 0.194825, -0.023443, 0.279571, -0.787731, -0.138186, 0.231075, 1.00335, -0.102679, -0.337091, -0.008863], [-0.012035, -0.37826, 0.441792, -0.233674, 0.042321, -0.529599, -0.031791, 0.396052, -0.863948, 0.099664, -0.106804, 0.507751, 0.242058, -0.147945, 0.177967, -0.108763, -0.403153, 0.331337, 0.183067, 0.206032, -0.373886, 0.066737, 0.013625, -0.930193, 0.928733, -0.010576, 0.251809, 0.094429, 0.034318, -0.054797, 0.352048, -0.013685, 0.373586, 0.768973, -0.163547, 1.09787, 0.242166, -0.050511, 0.057167, 0.005402, -0.365787, 0.046082, -1.041, -0.449986, -0.346038, -0.500213, 0.315257, -0.089004, 0.453261, 0.290606], [0.906161, 0.216096, 0.411543, 0.456123, -0.214003, 0.386929, 0.300416, -0.483176, 0.655666, -0.289506, -0.323177, -0.321791, -0.513362, 0.034168, 1.35472, 0.711886, 0.706151, -0.429461, -0.506394, -0.446291, 0.011315, 0.085053, -0.144843, -0.771433, 0.033741, 0.006149, 0.191393, -0.049968, 0.19151, -1.18458, 0.560386, -0.071069, 0.298276, 0.414999, -0.292145, 0.632591, 0.182839, 0.0315, 0.195799, 0.037576, -0.359351, -0.018443, -0.112644, 0.051018, -0.104439, -0.23911, -1.04799, -0.555512, 0.287159, -0.319912], [1.19121, -0.240198, 0.293945, 0.075084, -0.452145, 0.505912, -0.959776, 0.097346, 0.617183, -0.813584, 0.430622, -1.43588, -0.095118, -0.07194, 0.864233, 1.05048, 0.049444, 0.675078, -0.039104, -0.470061, -0.006351, -0.23756, -0.153584, -0.826095, 0.352854, -0.013562, -0.09725, 0.404989, -0.703133, -0.102721, -0.186687, 0.078109, -0.043192, 0.393774, 0.30322, -0.132865, 0.097052, 0.12646, -0.015384, 0.000211, -0.495203, -0.035212, 0.698753, 1.60068, 0.300149, 0.138759, -0.128672, -0.333163, -0.357823, 0.070115], [-0.973747, 0.370423, -0.914748, 0.22493, -0.1042, 0.284431, -0.039444, -0.4443, 0.177053, 0.368362, -0.344955, 0.702761, 0.284843, -0.761174, -0.595429, -0.25169, 0.410144, 0.301353, 0.067575, 1.14593, -0.320659, 0.142312, 0.001235, -1.27201, 0.121513, -0.009465, 0.481472, -0.345431, 0.884309, 0.244128, -0.292098, -0.376643, 0.173251, 0.345508, -0.285257, 1.2733, -0.359336, 0.173685, -0.230971, -0.006587, -0.078544, -0.014589, -0.344973, -0.458053, 0.152724, -0.488831, 0.262259, 0.19108, 0.189418, 0.416573], [0.347002, 0.290976, 0.031435, -0.139553, -0.7638, 0.42184, -0.256057, 0.435994, -1.01793, 0.169487, -0.230723, 0.758048, 0.03361, 0.970459, 0.25989, 0.091414, 0.7438, 0.274889, 0.373195, 0.708329, -0.201669, -0.360649, -0.433692, -0.969258, -0.781057, 0.047088, 0.713177, -0.41607, 0.264518, -0.18643, -0.526792, 0.466149, 0.095551, 0.832241, 0.173457, 0.35396, 0.359063, -0.571046, 0.263303, -0.04591, -0.443189, -0.014741, -0.285798, -0.603867, -0.801428, -0.338573, -0.932559, -0.242168, -0.321153, -0.036336], [0.056559, 0.182392, 0.293407, -0.210758, 0.113038, 0.166054, 0.013764, 0.094157, -1.15452, -0.551291, 0.558547, 0.841261, 0.503337, 0.614851, 0.013925, -0.030277, 1.35329, -0.026667, -0.150276, 0.285711, -0.33511, 0.079116, -0.033493, 0.666333, -0.159343, 0.042352, 0.171107, -0.133078, -0.14286, 0.305695, 0.418071, 0.025271, -4.15928, 0.146006, -0.294129, -0.448968, -0.522581, 0.642649, -0.197439, 0.022427, 0.745024, 0.043243, -0.326944, 0.334386, -0.352515, -0.362911, -0.235673, 0.051338, 0.347981, -0.162573], [0.235312, -0.097319, -0.326377, 0.059468, -0.485394, 0.106257, 0.224139, -0.144784, 0.294297, 0.193142, -0.85867, -0.126654, -0.269462, -0.795898, 0.510175, 0.004068, -1.15344, -0.039058, -0.19757, 0.396208, -0.185385, 0.234975, 0.051286, -1.51526, -0.105659, -0.020592, -0.382055, 0.306572, 0.274734, 0.221214, -0.064792, 0.158317, -0.308876, -0.214068, -0.06908, 0.270466, 0.294257, 0.315858, 0.157778, -0.022445, 0.301106, 0.025905, -0.181629, -1.06401, 0.107326, -0.249307, 0.051529, 0.238162, -0.011021, -0.118605], [-0.159823, 0.181823, -1.59226, 0.278857, 0.052795, 0.841587, -0.069926, -0.874977, 0.728109, 0.614952, 0.581515, -0.405803, -0.345237, -0.128348, -0.85336, 0.295311, -0.644362, -0.769589, -0.222127, -0.882129, 0.095354, 0.119407, 0.262791, 1.08832, -0.735417, 0.000374, 0.023409, 0.068387, -0.435254, -0.23957, 0.251548, 0.406057, -0.764107, -0.391186, 0.470061, -1.23264, 0.178938, 0.126236, -0.258089, 0.026643, -0.006999, 0.012051, 1.06623, -0.306487, 0.071456, 0.094659, 0.326541, 0.104517, -1.14329, -0.070641], [0.442722, -0.15674, -0.782971, 0.003677, -0.155609, -0.212526, 0.060468, -0.495481, -0.693761, 0.255166, 0.702381, 0.739282, -0.605451, 0.676664, 0.691574, -0.154146, -0.007133, -0.151659, -0.477116, -1.20352, -0.363477, 0.650797, 0.316914, 1.64226, -2.04943, 0.029423, -0.072334, -0.913283, 0.131922, 0.361175, -1.1622, 0.65876, -2.52523, -0.282811, 0.557361, -3.27568, 0.378196, 0.416423, 0.110869, 0.024552, 0.826476, 0.018793, -0.377652, -1.11868, -0.702821, -0.22832, 0.276538, 0.317776, -0.200639, -0.256703], [1.0647, -0.731283, 0.611121, -1.19318, -0.486662, -0.234388, 0.291186, 0.457688, 0.379326, -0.991922, 0.61818, -0.199156, -0.083018, -0.273458, 0.275136, 0.659436, 0.086382, 0.704197, 0.595667, -0.253826, -0.22544, -0.345966, -0.208558, -0.093196, 0.20672, 0.049576, -0.000951, -0.639264, -0.703037, 0.191077, -0.146692, -0.407162, -1.10514, -0.220946, -0.072912, 1.84274, 0.272568, 1.24808, 0.4021, -0.012983, 0.40485, -0.020979, -0.450492, -0.143274, 0.001384, 0.046886, 1.03005, -0.134329, -0.31492, 0.277852], [0.425925, 0.178039, 0.3144, -0.845629, -0.158385, -0.401497, -0.767576, -0.993718, -0.11082, -0.42799, 0.00342, -0.972751, -0.198784, 0.275035, 0.233023, 0.101727, 0.963809, 0.057791, -0.155978, -0.330065, 0.255769, -0.30855, 0.146017, 1.2892, -0.246709, -0.013526, -0.190135, 0.692125, 0.067674, -0.03679, 0.675665, -0.557547, 0.331661, 0.029827, 0.401247, 0.303876, -0.330051, 0.272619, -0.727591, 0.006937, 0.008784, 0.019911, 0.352795, 0.414756, 0.078611, 0.185011, -0.316518, -0.129072, 0.182651, 0.213666], [-0.899207, 0.123508, -0.335461, -0.067235, -0.389384, -0.742816, 0.493024, 0.137976, -0.343227, -0.050065, -0.587461, -0.394852, -0.412819, 1.04669, 0.334413, 0.175364, -0.199171, -0.212099, 0.194948, 0.12466, -0.247643, 0.158748, 1.0767, -0.572428, 0.831309, 0.049117, 0.081392, -0.290983, -0.48455, -0.184784, 0.897707, 0.471936, -0.389584, 0.10619, 0.234751, 0.870704, -0.621636, -1.15594, 0.296157, 0.035055, 0.153706, 0.010069, -0.080723, -1.08216, 0.43636, -0.312607, 0.664247, 0.035861, 0.601781, 0.483409], [0.026657, -0.542039, 1.00796, -0.105192, 0.005396, -0.820454, 0.263016, -0.095397, 0.498278, 0.1441, -0.016857, 0.798695, -0.032084, 0.063052, -0.243312, -0.144204, -0.02049, -0.03037, 0.167517, 0.214536, 0.070615, 0.04738, -0.116488, 0.69964, -0.171481, 0.005392, 0.130362, -0.152231, 0.188071, -0.210126, 0.20511, -0.672161, 0.360032, -0.18149, 0.165133, -2.33993, -0.398523, 0.867723, 0.12366, 0.03422, 0.102528, 0.010395, -0.076201, -0.482342, 0.272491, -0.358883, 1.31557, 0.229114, -0.331929, -0.034898], [-0.39909, -0.123141, -0.598672, 0.353871, -0.171967, -0.158372, -0.892711, 0.206258, -0.01757, 0.068569, 0.075818, 0.017183, -0.18282, 0.108191, -0.34776, -0.118478, -0.657237, -0.269149, -0.134709, -0.29597, -0.046378, 0.003984, 0.463161, 0.068416, 0.359413, 0.041223, 0.317302, -0.107885, -0.252165, -0.124296, 0.473314, -0.086324, -0.096704, 0.287614, 0.147218, -0.299941, 0.150777, 0.081497, -0.022916, -0.018184, 0.648581, -0.008155, 0.104502, 0.044034, -0.151213, -0.090802, 0.53091, -0.110035, 0.2805, 0.005708], [-0.092301, -0.305357, 0.767691, 0.620225, -0.294337, 0.302207, -1.92105, 0.674071, 0.4869, -0.559161, 1.15771, -0.008917, 0.643402, -0.314054, -0.072717, 0.708654, 0.13515, 0.102734, 0.18433, 0.002054, 0.542216, -0.721154, -0.184174, 0.510349, 0.500518, -0.015979, 0.423646, -0.495799, -0.126226, 0.616818, -0.15616, -0.129445, -0.288145, 0.602562, -0.018923, 0.072924, 0.049507, -0.574617, 0.218986, 0.007319, -0.0438, 0.067984, 0.488338, 1.16797, -0.195318, -0.005301, -1.35932, -0.227961, -0.184764, 0.022624], [-1.13484, 0.106948, -0.271876, -0.230047, 0.003587, 0.134287, -0.121783, 0.539894, -0.220527, 0.077473, 0.129054, -0.095104, 0.631804, 0.521281, -0.031829, -0.201376, 0.331538, -0.030552, -0.244922, 0.108096, 0.51201, 0.246096, -0.05414, -1.18733, 0.037747, -0.011351, 0.305833, -0.136626, 0.095941, 0.139462, 0.195552, 0.213823, -0.23899, -0.197024, -0.141917, -0.158229, -0.046671, -0.072413, -0.091005, -0.034991, 0.178072, -0.026233, -0.119756, 0.970901, 0.248411, -0.10912, -0.35591, 0.053232, -0.370457, 0.188713], [-0.095113, -0.092081, -0.019332, 1.43829, 0.218624, -0.215974, -0.69488, -0.042447, 0.649812, -0.004492, 1.16609, 0.289609, 0.666836, 0.220645, -0.258736, 0.291266, -1.46526, 0.293269, 0.117328, 0.519129, -0.365424, 0.481025, 0.46298, 0.456903, 0.131527, -0.012234, 0.084843, -0.883516, -0.053245, -0.571372, -1.21864, 0.229651, -0.152798, 0.724023, 0.246805, 0.519143, -0.198331, -1.44634, -0.054301, -0.053339, 0.450372, 0.023468, -0.605074, -2.23918, -0.151664, 0.171031, -1.38082, -0.304478, 0.713036, -0.498488], [-0.818441, 0.010281, -0.138643, -0.460875, -0.067921, 0.596301, -1.38382, 0.448125, 0.629774, -0.792262, 0.43746, -1.25918, -0.111259, 0.675139, -0.92848, 0.21904, 1.65288, -0.1844, -0.373603, 0.667209, 0.304683, 0.814013, 0.420538, 0.10796, -0.116938, 0.022931, -0.160588, 0.768362, 0.217284, 0.38298, -0.690604, -0.599962, -0.230403, -1.15235, -0.269253, -0.782582, -0.048528, -0.01202, 0.224026, -0.011079, 0.566457, -0.020255, 0.258326, -0.318495, 0.635018, 0.577767, -0.220054, 0.158306, -0.147497, 1.32532], [0.642675, 0.209906, 0.61468, 0.377323, -0.237439, 0.318877, -0.366105, 0.641706, 0.035279, 0.389018, -0.124112, -0.086908, 0.212359, -0.133594, -0.156498, 0.494482, 0.359928, 0.417654, 0.192902, -0.302436, 0.065786, -0.705689, 0.150271, 0.059462, 0.303416, 0.02842, -0.159411, -0.136584, 0.021774, 0.779893, -0.007225, -0.178403, -0.23034, 0.139999, 0.020434, 0.099061, -0.127529, -0.365492, 0.321522, 0.015959, 0.593779, 0.019921, 0.584434, 1.50213, -0.254695, 0.10696, -0.849909, -0.356645, -0.322759, 0.720672], [0.43609, 0.714033, -0.668625, 0.064399, -0.407818, 0.148461, 1.22104, -0.64305, -0.176456, 0.415324, 0.13078, 0.061814, -0.445767, -0.294995, 0.38089, 0.263372, -0.37027, -0.237127, 0.250771, 1.23124, -0.398058, 0.435995, 0.032398, -0.804841, -0.082589, 0.029145, -0.05041, 0.278103, 0.553653, 0.929475, -1.11013, -0.279323, -2.61281, 0.590734, 0.09363, 0.510832, -0.019812, 0.239279, 0.54324, -0.022847, 0.422357, 0.005121, -0.942708, -0.87686, -0.668516, -0.129266, 0.737519, -0.522079, -0.084524, -0.714928], [-0.145434, -0.090784, 0.104227, 0.405461, 0.020274, 0.279589, 0.547912, 0.031219, 0.261481, -0.614852, 0.339834, 0.0344, -0.124971, -0.190108, -0.083793, -0.104602, 0.357689, 0.061655, -0.082375, 0.141636, -0.031746, -0.126235, 0.268791, 1.08434, 0.144127, 0.010171, 0.105445, -0.192989, -0.004079, -0.123336, 0.2339, -0.209959, -0.835603, 0.09404, -0.049314, 0.237663, 0.108903, 0.417082, -0.016075, 0.015868, -0.202786, 0.045959, 0.376307, 0.281699, -0.120437, -0.069151, -0.597554, -0.02145, -0.141458, 0.197789], [0.311263, -0.236334, 0.290617, 0.645377, -0.424654, 0.20576, -2.40251, 1.23677, -0.547483, -1.26452, -1.69078, 0.606911, 1.01591, 0.325317, -0.549813, -0.258957, -0.691334, 0.031865, 0.03408, -0.232175, -0.010261, 0.191074, -0.185646, 0.599795, 1.66899, -0.025912, -0.826956, -0.129416, 0.369976, 0.453041, -0.064052, -0.001758, 0.567318, 0.724421, 0.007419, 0.426791, 0.379242, 0.039802, 0.490398, 0.0145, 0.568782, 0.023247, -0.320068, -1.57467, -0.217431, 0.288107, 0.548611, -0.574414, 0.472748, -0.022786], [1.23405, 0.026042, 0.6889, -0.240105, -0.134995, -0.409597, 0.197208, 0.268453, -0.097822, -0.083237, 0.34764, -0.194125, -0.040997, 0.550024, 0.564965, 0.134031, -0.685698, 0.301839, 0.244458, 0.259544, 0.410673, -0.482362, -0.308501, -0.570754, 0.210739, -0.013898, -0.299235, 0.25694, 0.112115, -0.059242, -0.055382, 0.43111, 0.558831, -0.966279, -0.268931, 0.626748, -0.086343, -0.034295, 0.409528, 0.012541, -0.899996, 0.017486, -0.252048, -0.690644, -0.328391, -0.395901, -0.596464, 0.111489, 0.10599, -0.399491], [0.015127, -0.033562, -0.022987, 0.039984, -0.01349, -0.039435, 0.006404, -0.047224, 0.006719, -0.041523, 0.000187, -0.028396, 0.013257, 0.043235, 0.010219, -0.021692, -0.034927, -0.050136, -0.027599, -0.029084, -0.045256, -0.046174, -0.005032, 0.012322, -0.048204, -0.025479, 0.017627, -0.039873, -0.039203, 0.003387, -0.031119, 0.040461, -0.037142, -0.00633, -0.045438, -0.029863, 0.010348, 0.036137, 0.021564, -0.045897, -0.019906, -0.039932, 0.03882, 0.000313, -0.003122, -0.023111, 0.008021, -0.004472, 0.008199, -0.023967], [-0.908431, 0.005363, 0.041734, -0.948905, 0.717174, 0.112914, 0.925194, -0.13465, -0.251206, -0.013645, 1.11332, 0.812143, 0.995436, 1.01951, 1.13121, -1.04939, -1.16969, -0.201285, -0.54051, 0.08065, -0.496377, -0.580318, 0.725223, 0.1517, 0.255125, 0.023523, 0.007396, 0.951207, -0.875566, -1.12796, 0.624337, 1.38847, -0.116989, -0.089102, -0.209661, -0.248662, -0.012212, -0.578804, -0.308826, -0.028385, -1.39409, -0.018532, 0.988249, -0.630611, -0.421154, -0.358721, 0.8429, 0.55564, 0.604893, -0.072925], [0.379415, -0.483238, -0.003322, 0.371156, -0.181763, 0.118404, -0.208016, -0.17216, 0.059526, -0.554617, -0.221523, -0.081798, 0.172802, 0.127129, -0.093836, 0.411988, 0.625744, -0.248297, 0.2201, 0.049847, -0.003134, -0.209938, -0.146062, 0.484413, -0.224177, 0.010599, 0.358986, 0.047487, -0.168692, -0.274315, -0.439292, 0.132215, -0.346819, -0.105903, -0.064494, -0.307068, 0.218361, 0.237384, 0.340678, -0.017071, -1.15489, -0.043431, -0.062455, -0.125349, -0.467716, -0.130125, -0.063012, -0.136271, 0.011431, 0.254412], [0.128492, 0.404373, -0.079139, -0.234909, 0.110657, 0.111299, -0.205085, -0.514693, -0.220226, -0.069386, 0.016578, -0.074756, 0.088976, -0.206369, 0.076929, -0.241, 0.397947, -0.206597, -0.132577, 0.294027, -0.203831, 0.045161, -0.027183, -0.285172, -0.048146, -0.034199, 0.130411, 0.327339, 0.208436, 0.238665, -0.212412, -0.294316, 0.068206, -0.130128, 0.209395, 0.671002, 0.339791, 0.458507, 0.026774, -0.030133, -0.206493, 0.020177, 0.253119, 0.053749, -0.497914, 0.076075, 1.06438, -0.247446, -0.618067, 0.238479], [0.267655, 0.366374, -0.804445, 0.317387, 0.060632, -0.485271, 0.952243, -0.147017, -0.884354, 0.366929, -0.92521, 0.458222, -0.10685, 0.376759, 0.052857, -0.276546, -0.067962, -0.0458, -0.540682, -0.20412, 0.14585, 0.786508, -0.306588, 1.92985, 0.345859, 0.015249, -0.296731, 0.200582, -0.141231, -0.229786, -0.124833, 0.241212, -0.078527, 0.500264, 0.486346, 0.824345, -0.994475, 2.21389, 0.057295, 0.041089, -0.899604, -0.05225, 0.278147, -0.023384, -0.281406, -0.551768, 1.77042, -0.006944, 0.267413, 0.409919], [-0.250131, -0.20784, 0.963473, -0.2734, -0.118049, 0.232521, -0.168252, -0.349947, 0.139555, -0.168049, 1.00342, -0.573974, 0.010963, 0.091936, 0.803646, 0.412032, 0.527737, 0.290072, -0.004531, -0.11162, -0.091676, -0.393338, 0.474851, 0.844508, 0.760634, -0.028271, 0.400887, 0.04179, -0.0176, -0.487601, 0.953244, 0.40051, -0.287706, -0.211741, -0.569883, -0.312385, -0.113499, -0.201298, 0.337032, -0.000319, -0.256899, 0.055434, -0.5409, 0.28344, 0.022573, -0.086622, -0.664921, 0.111405, 0.098757, 0.044633], [0.670115, -0.066158, -0.072606, -0.044691, 0.114905, -0.070668, 0.98494, -0.086785, 0.610791, 0.637279, -2.25239, -0.194992, -1.02743, 0.218739, -0.939997, 0.028166, -0.539514, -0.196592, 0.040207, 0.545368, 0.092236, -0.746861, 0.359341, 0.605094, 0.460896, -0.025536, -0.990836, 0.383334, 0.109114, 0.732565, -0.733468, 0.783307, 0.404153, 0.310366, 0.402099, -0.126888, 0.329092, -0.293476, -0.458512, -0.045161, -0.626952, -0.003179, 0.19711, -0.655475, -0.726261, -0.057213, -0.48944, -0.215532, 0.256156, 0.298677], [0.183899, 0.106952, -0.054793, -0.0228, 0.077415, -0.414366, -0.12649, -0.069, -0.000129, 0.210167, -0.498473, 0.019649, -0.351184, -0.254697, -0.112756, 0.064973, 0.007985, -0.091507, 0.095015, 0.121081, -0.303289, -0.174387, -0.093069, -0.290859, 0.114745, -0.02063, 0.008329, 0.152707, 0.169608, -0.094669, -0.195926, -0.182205, 0.294102, -0.032509, 0.196509, 0.249853, -0.058836, 0.342412, 0.013599, 0.015381, 0.273494, 0.035185, 0.018778, -0.16652, 0.04002, -0.008494, 0.362017, 0.028332, 0.026429, -0.079037], [0.552102, -0.736291, -1.03204, 0.58766, 0.325188, 0.926622, 0.549052, -1.20558, 0.446095, 0.353906, 1.71447, 0.53784, -0.962245, 0.672875, -0.209047, -0.114766, -0.751127, 0.024866, -0.602366, -0.166458, -0.268263, 0.781469, 0.135471, -0.162804, -0.749241, 0.009501, -0.126914, -0.209915, 0.467464, 0.570464, -0.464, 0.200864, -0.41555, -0.09132, 0.139603, 0.183051, 0.088626, 0.447607, -0.189228, 0.033339, 0.11408, 0.024089, 0.264526, -0.135398, -0.226133, 0.021825, 0.797081, -0.353667, -0.382817, -0.065488], [-0.016759, 0.24706, 0.2092, 0.123428, -0.274858, 0.11213, -0.009741, 0.211008, 0.399103, 0.598398, 0.193688, -0.15278, 0.123598, -0.241752, 0.606995, 0.384175, 0.808014, 0.437592, -0.529009, -0.193213, -0.017654, -0.210491, 0.203888, 0.031243, 0.377265, 0.016631, 0.343706, -0.102866, -0.240957, -0.601436, 0.607616, 0.046166, -1.04153, -0.096949, -0.129623, 0.017396, -1.10137, -0.28942, 0.174882, 0.003887, 0.28435, 0.03162, 0.628127, 0.78096, -0.264885, -0.147986, -0.649884, 0.085688, 0.013108, 0.550947], [0.016043, 0.305146, -0.256783, 0.603872, -0.524634, 0.499847, -1.95416, 0.636068, 0.252902, -0.683785, 1.1834, -1.27854, -0.149941, 0.485429, 0.435967, 0.633476, 0.685517, 0.329366, 0.013323, -0.01259, -0.105905, -0.390532, 0.387511, -0.169953, 0.762474, -0.013967, 0.73226, -0.542398, 0.192045, 0.725901, 0.470423, -0.22239, -0.357826, -0.376368, -0.095608, -0.826135, -0.139093, -0.379766, 0.096344, 0.023845, 0.075345, 0.017657, 0.374433, -0.395708, 0.437751, 0.038596, 0.398832, -0.565108, 0.81318, 0.07629], [-0.637017, -0.058087, -0.609279, 0.526584, 0.093003, 1.40434, -0.493311, -0.720405, 0.804507, 0.111543, 0.480276, -0.047001, -0.563636, 0.372215, -1.11141, 0.244348, -0.144264, -0.823907, -0.098584, -0.57675, 0.26504, 0.22948, 0.490961, 0.493537, -1.07293, -0.01075, 0.246877, 0.236668, -0.816581, 0.134164, -0.381292, -0.16274, -0.250213, -0.069854, 0.176016, -0.50348, -0.0532, 0.163997, 0.1113, 0.032427, 0.375635, 0.02339, 1.38549, 0.831927, -0.016668, 0.526204, 0.184351, 0.014915, -1.19261, -0.291201], [0.365757, 0.127916, -0.403881, 0.612767, 0.174886, -0.234999, 0.530741, 0.037839, 0.176756, 1.1259, -0.163755, 0.162037, 0.197673, 0.013838, -0.719678, -0.261268, -0.126561, -0.044201, -0.20991, 0.639419, 0.156651, 0.307769, -0.188557, 0.202703, 0.046113, -0.000747, 0.21668, 0.472463, 0.072567, -0.575793, 0.333357, 0.507108, -0.395437, 0.053285, -0.632617, 0.753763, -0.989194, -0.014743, -0.076956, 0.015963, 0.928787, 0.006111, 0.11672, 0.806508, -0.102526, 0.238669, -2.13204, 0.43463, -0.250877, 0.342246], [0.223873, -0.247161, 0.28129, 0.828202, 0.256998, 0.358767, -0.192181, -0.070539, 0.278092, -0.255442, -1.06902, -0.25667, 0.118017, 1.10239, 0.023535, 0.135243, 0.596614, -0.068388, 0.417904, 0.639763, -0.847077, -0.165998, -0.525945, -0.355187, -0.934829, 0.017137, 0.873141, -0.102162, 0.322102, 0.798857, 0.595345, 0.603762, 0.172168, -0.169767, -0.141386, 0.21932, -0.042753, 0.868733, 0.0616, 0.035759, 0.244913, -0.023814, -0.107176, 1.23241, -0.333348, -0.548907, -0.419792, 0.264235, -0.235735, -0.166718], [-0.318132, -0.48584, 1.1479, -0.660638, 0.309713, -0.229262, -0.341176, -0.094719, -0.091373, -0.569265, -0.395221, 0.804763, 0.738336, -0.521045, 0.067895, -0.212423, 0.404431, 0.11067, 0.252864, -0.019012, -0.266388, -0.045943, -0.176079, 0.953006, -0.06649, 0.001973, 0.289308, 0.446384, -0.105602, 0.001484, 0.310278, -0.005969, -0.651501, 0.078369, -0.312669, -1.02134, 0.033443, -0.555072, 0.24477, 0.021006, 0.373686, -0.016589, -0.599829, 0.71226, -0.327724, 0.270239, 0.915383, 0.085434, 0.032579, 0.23733], [-0.228913, -0.039049, 0.371262, 0.14694, -0.44518, -0.409211, -2.22823, -0.321003, -0.498433, 0.380607, 1.21023, 0.26753, -0.379863, 0.152171, -1.29092, -0.366922, 0.140548, 0.016358, -0.353453, 0.218365, 0.225803, 0.669938, 0.216145, 1.20964, -0.379448, 0.027868, 0.387711, 0.879091, -0.624395, 0.371414, 0.16537, 0.43699, -2.88781, -0.373821, 0.71472, -0.013486, -0.635013, -0.445189, -0.563793, 0.023855, 0.286975, -0.013506, 0.642509, -0.011481, 0.829646, 0.049066, -0.263341, 0.189282, 0.437329, 0.111981], [-0.200202, 0.419308, -0.222124, 0.315585, 0.162974, 0.213912, -0.661347, 0.015812, 0.164483, -0.169073, 0.393186, 0.216946, 0.135082, 0.045139, 0.03088, -0.029715, 0.278854, 0.022176, 0.010681, -0.14888, 0.390057, 0.080918, 0.08858, 0.324202, 0.096109, -0.012425, 0.055487, -0.141504, -0.115775, -0.306639, 0.491692, 0.249998, 0.328527, 0.203018, 0.027256, 0.084137, -0.055248, -0.065516, -0.084583, 0.003314, 0.299956, -0.002861, 0.223849, -0.069146, 0.060701, -0.083664, 0.117137, 0.085104, -0.036964, -0.208702]], [[-0.194778, -1.23661, 0.108833, 0.287692, -0.115473, -0.306316, 0.03261, 0.444809, 0.249074, -0.133964, -0.204356, 1.1141, -0.284316, 0.197462, -0.561575, 0.200163, 0.600313, -0.814152, -1.73453, -0.257392, -2.86689, 0.329034, -1.05781, 0.618619, -0.121637, -0.235165, 0.358767, -0.06605, -0.137346, 0.193085, 0.178663, -0.334949, 0.055021, 0.04265, 0.044103, -0.374627, 0.114675, -1.25998, -0.212989, -0.223487, 0.066911, -0.653633, -1.00254, -0.043262, -1.1996, -0.224098, 0.107991, 0.378731, -1.09912, -0.108102], [0.019932, 0.246817, -0.148277, -0.109963, -0.101017, 0.030868, -0.02961, 0.065715, 0.093876, 0.1314, 0.13085, 0.126038, 0.161918, 0.10936, 0.069063, -0.077724, -0.164943, 0.11887, 0.10437, -0.127241, 0.164826, 0.087029, 0.128246, -0.053832, 0.282961, -0.003565, 0.036477, -0.018261, -0.087492, -0.096926, 0.134711, -0.055808, 0.121866, 0.020272, -0.049122, 0.223593, -0.148639, -0.141034, 0.033056, -0.067865, 0.002189, 0.121771, -0.216561, -0.102818, 0.113841, -0.080508, -0.022936, 0.09525, 0.059498, 0.342659], [-0.301127, 0.145709, 0.26562, 0.196549, 0.587066, -0.013061, 0.045197, 0.429621, -0.435572, -0.114093, -0.478015, -0.160167, -0.304126, 0.18712, -0.040349, 0.169022, 0.529405, -0.02833, -0.098779, 0.413614, -0.244726, 0.025959, 0.595454, -0.684964, 0.00522, -0.030148, 0.616513, -0.126522, -0.093339, 0.401688, -0.906775, 0.337201, 0.106836, 0.003242, 0.011814, -0.485736, 0.469264, -0.103977, -0.143141, 0.148229, -0.05427, -0.159358, 0.049563, -0.119388, -0.126782, -0.128322, -0.262735, -0.138473, -0.150358, 0.220431], [-0.303171, 0.941019, 0.159851, 0.454481, -0.516307, 0.201251, -0.064008, -0.277677, -0.049401, -0.346756, -0.171731, -0.612872, -0.259132, -0.117288, 0.776029, -0.173143, -0.344368, 0.475916, 0.99086, -0.553397, 0.295516, -0.105425, 0.406149, 0.28399, 0.164816, -0.342751, -0.252107, -0.00421, 0.11104, -0.814957, -0.194978, -0.415288, 0.039509, -0.040835, -0.213731, -0.046678, 0.450681, 0.402896, -0.232794, 0.033264, -1.03548, 0.678675, 0.424116, -0.23738, 0.199051, 0.059702, -0.443027, -0.129856, -0.85371, -0.256088], [-4.67771, 0.43037, 0.047161, 0.521305, -1.14888, -0.166798, 0.078635, -0.260611, 0.025238, 0.96231, 0.501009, -0.548583, 0.163002, -0.19515, 0.14504, -0.535507, -2.67842, 0.146212, -0.269198, -0.016785, -0.409212, -0.041833, -0.894641, -0.187957, 0.060319, -0.423757, -0.202568, -0.25073, 0.136734, -0.707526, 0.130915, -0.817885, -0.225425, 0.009108, 0.283514, -0.88768, 0.150006, -4.40412, 0.047404, 0.070626, -0.781336, -0.074196, -0.036267, -0.422205, 0.058216, 0.116838, -0.082674, 0.005664, 0.345183, -0.51424], [-0.100652, -0.422167, 0.018896, 0.452048, 1.00946, -0.293468, 0.093725, -0.264835, -0.092244, -0.247335, -0.277633, -0.10772, -0.103535, 0.004877, -0.077605, 0.538349, 0.472661, -0.045992, 0.203911, -0.047173, -0.093435, 0.137649, -0.561918, -0.104271, -0.021002, -0.265261, 0.252156, 0.01817, -0.166973, -0.346463, 0.019175, 0.147095, -0.338491, 0.034349, 0.037404, 0.529518, 0.149895, 0.242023, -0.183393, -0.690948, 0.547344, 0.672653, -0.20139, 0.029979, -0.072985, 0.122275, 0.02385, -0.078277, 0.055213, -0.495502], [0.024239, 0.446747, 0.203536, -0.253826, -0.272412, -0.010781, 0.284087, 0.237177, 0.09924, 0.000266, 0.139342, 0.393252, -0.45523, 0.130389, -0.297927, -0.225874, 0.237974, 0.026427, 0.163026, -0.116526, 0.376759, -0.106266, -0.312269, 0.144899, 0.089264, -0.497344, -0.110993, -0.182356, -0.304482, 0.036123, 0.295293, -0.592324, 0.235386, 0.032045, 0.145777, 0.309434, 0.304862, 0.084925, -0.439196, 0.032316, -0.000406, 0.177204, -0.114892, 0.411986, -0.126891, -0.062926, -0.176035, 0.293619, 0.066011, 0.120187], [-0.676329, -0.13212, 0.440093, 0.863076, -0.553328, -0.187493, 0.360437, 0.287368, -0.073655, 0.35882, -0.194873, -0.178395, 0.149533, 0.177543, 0.341425, 0.694047, -0.047147, 0.22059, -0.201775, 0.025328, -1.17851, 0.163679, -0.424482, 0.609565, -0.11531, -0.004, -0.182678, -0.05234, 0.310158, -0.585255, 0.146677, -0.172198, 0.381768, -0.013722, -0.146794, -0.219516, -0.530368, 0.021033, 0.264689, -1.13487, 0.136127, 0.319037, -0.054031, -0.143996, -0.04984, -0.198669, -0.520693, -0.360866, 0.510206, -1.29494], [-0.043724, 0.016766, 0.011152, 0.04527, 0.019979, -0.051563, 0.01443, -0.000944, -0.024347, -0.026249, -0.058574, -0.009145, 0.020773, 0.015073, -0.048497, 0.011111, 0.02087, 0.000302, -0.024684, 0.023327, 0.015651, 0.030027, -0.040105, -0.052157, -0.052157, 0.006455, 0.012706, -0.030873, 0.007212, 0.040572, -0.030515, 0.013689, -0.046593, -0.023292, -0.005477, -0.042943, 0.034427, -0.010552, 0.014133, -0.013142, -0.009043, -0.027756, 0.03398, 0.033272, -0.028375, -0.047412, -0.009235, -0.015736, -0.035132, 0.011123], [-0.221209, -0.990539, -0.001593, -0.385702, -0.62257, -0.187862, 0.125094, -0.193198, 0.087636, 0.061274, 0.347693, 0.313591, 0.389381, 0.102766, -0.135117, -0.042734, -0.3871, -0.215012, -0.229766, -0.132222, 0.272742, 0.02664, 0.279571, 0.278686, -0.335297, -0.052534, 0.129709, 0.017251, -0.158997, -0.12743, 0.145048, -0.006041, -0.105863, -0.024856, -0.120508, -0.022716, -0.487137, -0.295826, 0.074636, -0.130254, -0.2938, -0.0704, -0.078555, 0.020025, -0.108306, 0.074189, 0.183992, -0.008952, 0.168075, -0.08101], [-1.08519, -0.113291, 0.017505, -0.690864, 0.21016, -0.453802, -0.181305, 0.24985, -0.149873, 0.23564, 0.002497, -0.46418, -0.558051, 0.221585, -0.230319, -0.037481, 0.032264, -0.240515, -0.220193, 0.114136, 0.372105, -0.031525, -0.545926, 0.689546, -0.655156, 0.155421, -0.089257, -0.073616, -1.64912, 0.012159, -0.106693, -0.017046, 0.077175, -3.8e-05, 0.161046, -0.349891, -0.187239, 0.019021, 0.052019, -0.145121, 0.463443, -0.282848, -0.051218, 0.268232, 0.122045, -0.225485, -0.151571, 0.253365, -0.683816, -0.059714], [-0.361085, -0.240019, 0.351375, -0.61242, -0.163258, -0.175435, -0.071486, 0.128842, -0.156579, 0.190419, -0.22039, 0.010088, -0.361948, -0.084775, -0.095988, 0.146756, 0.346032, -0.00722, -0.128821, -0.0925, -0.101248, -0.036816, -0.460176, 0.335015, -0.275866, 0.122492, -0.026745, -0.017745, 0.828276, -0.12087, 0.136117, 0.088496, -0.206197, 0.004621, 0.21469, 0.317426, 0.130883, -0.430535, 0.033806, -0.204215, 0.518845, 0.051731, -0.188485, -0.087191, -0.168707, -0.238171, -0.122197, -0.123925, -0.057604, -0.200463], [-0.83824, -1.06116, -0.103536, 0.431067, 0.136546, -0.105088, -0.199268, -0.311255, -0.118669, 0.021023, 0.149383, -0.160237, 0.072084, -0.001697, -0.004247, -0.090743, 0.592937, -0.060354, 0.306942, 0.019216, -0.48567, 0.210025, -0.428959, 0.272972, 0.031365, 0.056485, -0.030707, 0.07278, -0.086016, 0.014596, 0.211625, -0.00384, -0.12041, 0.006712, 0.009083, 0.047646, 0.198049, -1.91648, -0.230331, 0.091828, -0.293428, -0.085707, -0.866499, 0.065063, 0.178012, -0.593302, 0.02603, 0.104813, -0.431034, -0.318071], [0.146134, -0.30906, 0.006914, -0.053993, -0.184252, -0.331997, -0.046062, 0.02036, -0.412949, 0.545964, -0.367289, -0.227786, -0.291399, -0.175187, 0.472999, 0.378991, 0.216455, -0.046707, -0.259415, -0.432883, -0.123576, -0.064541, -0.854086, 0.901498, -3.12119, 0.23197, 0.351307, 0.074129, 0.121555, -0.478697, 0.028016, -0.926579, 0.230925, 0.043552, 0.001434, 0.348652, -0.279932, -0.027724, 0.211133, -1.06391, 0.475157, 0.298788, -0.116618, 0.101131, -0.19381, 0.169934, 0.146684, 0.233433, 0.36212, -0.581452], [-0.128824, 0.090137, 0.140423, 0.09664, -0.042753, -0.096081, 0.157279, -0.024798, 0.0082, -0.345634, -0.222764, -0.473012, 0.003933, 0.07167, -0.024257, 0.082025, -0.358681, -0.093123, 0.058539, 0.326622, 0.108231, -0.17993, 0.521024, 0.20253, -0.139357, -0.060926, 0.213674, -0.016382, -1.78616, -0.172125, 0.199861, 0.073889, -0.236064, 0.038187, 0.05899, -0.061729, -0.180923, 0.174507, -0.000314, -0.246606, 0.370756, 0.04717, 0.464382, -0.295098, -0.058354, -0.125349, 0.109516, -0.288027, 0.03361, 0.201098], [-0.068847, 0.521399, -0.489226, -0.009446, -0.180779, 0.319779, -0.018759, -0.149459, 0.086394, -0.816827, -0.08426, -0.217072, 0.183923, 0.19441, 0.201534, -0.287677, -0.25692, -0.058472, 0.38242, -0.042894, 0.67735, -0.171171, 0.357469, -0.239619, -0.160783, 0.091518, -0.108032, 0.147336, -0.406212, 0.291601, -0.522764, 0.226917, -0.404741, 0.005662, 0.115241, 0.774658, 0.504498, 0.318523, 0.087952, 0.647837, -1.04652, 0.294949, 0.801159, -0.142771, -0.08387, 0.421612, 0.151533, -0.65517, -0.124413, -0.38578], [-0.022976, 0.089304, -0.097835, -1.94899, 0.352821, 0.097607, -0.058087, -0.206863, -0.053223, -0.173546, -0.151056, 0.109319, -0.125748, 0.033152, -0.146302, -0.218839, 0.533133, -0.087632, -0.071403, 0.097472, 0.091484, 0.066032, -0.078878, 0.08475, -0.176144, 0.238881, 0.174478, 0.010944, -0.27158, -0.252885, 0.125081, 0.121943, -0.041749, 0.043493, -0.125311, 0.108031, 0.025177, -0.126679, 0.039927, -0.305589, -0.265591, -0.062909, -0.369241, 0.08759, 0.076398, -0.021694, 0.152073, -0.077225, 0.149608, -0.191115], [-0.017609, 0.112914, -0.555284, -0.110018, 0.542975, -0.411554, 0.153654, -0.162635, -0.146138, 0.341272, 0.19034, 0.295223, 0.123542, 0.114016, 0.092206, 0.478841, 0.61762, -0.49971, -0.132745, 0.158239, -0.149665, -0.07458, 0.0962, 0.254548, -0.08494, 0.384224, 0.204119, -0.293712, 0.276267, 0.475576, -0.28486, -0.206335, 0.03561, -0.046219, 0.078098, 0.739971, -0.17318, -0.260909, 0.039988, 0.141866, -0.030485, -0.244516, -0.628941, -0.310067, 0.270763, -0.095923, -0.590077, -0.460816, 0.262709, 0.298023], [-0.399186, -0.416398, 0.147524, 0.316496, -0.093186, -1.07761, 0.002009, -0.085017, -0.0008, -0.041547, 0.02797, 0.040284, 0.033134, -0.094563, 0.110811, -0.216158, 0.060909, -0.051753, -0.063794, -0.028581, 0.09182, -0.056548, 0.147486, 0.010897, 0.012049, -0.045043, -0.162598, 0.012696, -0.445887, 0.01482, 0.108611, 0.008297, -0.173201, -0.031282, -0.081057, -0.06022, 0.090438, -1.38197, -0.017284, 0.042995, -0.100923, 0.014857, 0.355136, 0.079781, 0.019406, -0.247241, 0.021838, -0.099213, -0.35705, -0.306355], [0.320338, 0.10374, -0.346685, 0.111719, -1.13853, 0.137955, -0.183933, 0.092697, -0.221644, -1.02692, -0.104318, -0.051195, -0.61542, -0.186074, 0.049781, -0.464491, -0.094029, -0.106594, 0.189128, -0.313943, 0.262187, -0.196445, 0.158012, -1.46861, -0.332772, 0.051848, -0.181755, -0.202568, 0.28029, 0.409602, -0.464552, 0.305252, -0.007512, 0.03801, 0.255037, -0.504929, -0.270884, 1.76577, -0.052488, 1.55539, -0.48373, -0.145354, 0.46156, -0.06792, 0.177266, 0.27689, -0.239979, 0.241871, -0.672557, -9.30916], [0.122556, 0.819487, 0.363256, 0.360096, 0.038318, -0.309188, -0.110991, 0.131716, 0.012859, 0.080658, -0.294433, 0.340295, -0.034644, -0.072183, -0.123136, 0.155265, 0.935183, -0.151591, -0.384632, 0.055576, -1.19048, 0.060022, -0.237636, 0.02914, -0.272927, 0.124899, 0.105812, -0.155834, -1.47573, 0.32434, 0.053193, 0.081111, 0.16405, -0.01538, 0.005281, -0.320907, -0.35147, -0.487298, -0.088896, 0.019534, 0.231994, -0.179123, -0.068797, 0.133519, -0.425041, -0.076091, 0.090371, 0.126633, -0.110623, 0.574925], [-0.307386, -0.438724, 0.160159, 0.054052, -0.722764, -0.036468, -0.079011, 0.037262, -0.102151, 0.120451, -0.253806, 0.099026, 0.233754, -0.189101, -0.151954, 0.302022, -0.720818, 0.208051, 0.050694, -0.060948, 0.16598, 0.003053, 0.115985, 0.460554, -0.003481, 0.106634, -0.486338, -0.010467, 0.032194, -0.525965, -0.055374, -0.190323, 0.153126, -0.021193, 0.069333, 0.16462, -0.378768, -0.075797, -0.165608, -0.114393, -0.408169, -0.018454, 0.157462, 0.023714, -0.331369, -0.097928, 0.038602, -0.06581, -0.254353, -0.113981], [-0.280495, -0.592562, -0.479894, 3.94013, 0.374963, -0.727832, -0.489253, -0.519711, 0.70453, -0.255207, 0.482237, -0.316429, 0.599331, 0.254588, -0.024769, -0.998996, -0.074056, -0.12071, -0.051338, 0.099458, 0.680811, -0.281071, -0.033677, -0.068587, 0.21914, -0.061618, -0.617884, 0.476267, -0.964808, 0.408241, 0.216711, 0.474919, 0.106945, -0.007557, -0.527847, -0.297946, -0.893813, 0.217408, 0.53518, -0.216513, -0.649623, -0.098268, -2.58157, -0.157663, 0.349023, -0.969624, 0.355315, -0.054618, -1.06094, 0.034735], [-0.03534, -0.031093, 0.038482, 0.007967, -0.015942, -0.073047, 0.0078, 0.011865, 0.025305, 0.031237, -0.012292, 0.015209, -0.062765, -0.006027, -0.028548, 0.005446, -0.01652, 0.005482, -0.04415, 0.015761, 0.031451, -0.020617, -0.047764, -0.054304, -0.017279, -0.039863, 0.022876, 0.00749, 0.013272, -0.007421, -0.030983, -0.048994, -0.010963, -0.005437, -0.015278, 0.012573, -0.014314, 0.011136, -0.041448, -0.020576, -0.025649, -0.016335, 0.041373, 0.014253, -0.016605, -0.016582, 0.003076, 0.026785, -0.010187, -0.000505], [-0.467386, 0.251349, 0.280279, 0.986541, 0.267818, -0.015198, 0.079497, -0.649092, 0.092508, -0.07633, -0.047584, 0.456806, -0.101841, -0.034938, -0.330698, 0.660656, -0.499946, -0.602303, -0.389238, 0.061172, -2.78195, -0.10162, -0.121348, 0.101955, 0.196687, 0.006423, 0.018697, 0.038849, -1.48577, 0.386977, 0.065445, -0.060113, 0.029883, -0.03206, -0.166361, 0.094458, 0.054185, 0.8774, -0.222393, -0.318728, 0.435112, -0.295597, 0.672221, 0.006003, -0.440852, -0.005699, -0.218376, 0.185157, 0.010365, -0.346063], [-0.576929, -2.03337, 1.03187, 0.231331, -0.473785, -1.25368, 0.075727, -0.16224, -0.264083, 0.256954, -0.003437, 1.44062, -0.734298, -0.063775, 1.01725, 0.694904, 0.348484, -0.460953, 0.182319, 0.419405, -0.125447, -0.051094, 0.800315, 1.05256, 0.057027, -0.543194, -0.954236, 0.133675, -1.91442, -0.40217, 0.662561, 0.280058, -1.06287, 0.005252, -0.160102, 0.398582, 0.551475, -0.777914, -0.841404, 0.30824, 0.670874, 0.460957, 0.917782, -0.88247, 0.002369, 0.69942, -0.261713, 0.576276, 0.765732, 0.457284], [-0.843268, 0.62669, 0.035478, 0.467075, 0.839374, -0.096037, 0.021939, 0.242811, -0.049552, -0.619947, 0.009381, 0.069289, 0.267177, 0.147648, 0.120187, 0.315664, -0.198329, 0.100202, 0.336543, -0.599452, 0.223514, -0.400544, 0.012436, 0.261187, 0.081477, 0.036186, 0.326856, -0.055107, 0.451973, -1.26583, 0.278613, -0.038564, 0.198894, 0.006026, 0.11339, 0.219107, 0.461007, 0.634411, -0.070863, -0.457279, -0.470334, 0.296336, 0.025094, -0.169309, -0.024393, -0.287079, -0.034324, -0.007042, 0.307084, 0.073761], [-0.077971, 0.595653, -0.064903, -0.451776, 0.855657, -0.144377, 0.083844, 0.274639, 0.281281, 0.299076, 0.115352, -0.007664, 0.043369, 0.35409, -0.241277, 0.3935, 0.939928, 0.099648, -0.344519, -0.123636, -0.079824, 0.038649, -0.157909, 0.378144, 0.045355, 0.114678, 0.046328, -0.172972, 0.028504, 0.114047, -0.08165, -0.292986, 0.033151, -0.040541, 0.026215, 0.184699, 0.202855, -0.384956, 0.095735, 0.051624, 0.462747, -0.301158, -0.22313, -0.096978, -0.050122, 0.260481, 0.021955, -0.210547, -0.065887, 0.077593], [-0.141687, -0.284731, 0.174302, 0.22337, -0.090053, 0.227948, 0.22758, -0.006322, -0.618653, 0.147284, -0.265125, 0.180433, -0.075522, 0.350605, 0.075857, -0.030926, -0.66513, 0.118208, 0.048335, 0.230057, -0.345213, 0.082209, 0.034835, 0.277627, -0.084141, -0.299897, 0.237481, -0.007777, -0.707606, 0.922343, 0.008032, 0.046419, 0.171454, 0.022965, -0.132043, 0.127451, 0.340433, -1.71552, -0.225907, 0.365433, 0.083796, -0.225991, 0.239298, -0.098546, -0.015871, 0.068933, 0.034167, 0.473021, 0.462877, -0.659966], [-1.21965, -0.239367, 0.042942, 0.856018, -1.50555, -0.405809, 0.099415, 0.389823, -2.67326, -1.16626, 0.147135, -0.211991, -0.221699, -0.207805, 0.007543, 0.523872, -3.57934, 0.341203, 0.243865, -2.32046, -2.23608, 0.157887, 1.05787, -0.900244, -1.94144, 0.256262, 0.36046, -0.104514, -3.15475, 0.292736, 0.572578, -0.232447, 0.137184, -0.03474, -0.216049, -0.597573, -0.439691, -0.907868, 0.208495, -2.84729, 0.2974, 0.154277, -0.768173, -0.033515, -0.171808, 0.043891, 0.004741, 0.057796, 0.365616, -2.05202], [0.082584, 0.126687, 0.025641, 0.090495, 0.062616, -0.104374, -0.073192, 0.032836, -0.015083, 0.07855, 0.00622, 0.044643, -0.065385, -0.019289, 0.096237, 0.031087, 0.041694, -0.080337, 0.157835, -0.043322, 0.188223, 0.045288, -0.07887, -0.116484, -0.015679, -0.034872, -0.089734, -0.095804, 0.049838, -0.163913, 0.171588, -0.002503, 0.031333, 0.026055, -0.048012, -0.087801, 0.10629, 0.188686, -0.01009, -0.074152, -0.0355, 0.033705, -0.217539, 0.015688, 0.098899, 0.004102, -0.094722, -0.030125, -0.086175, 0.184776], [0.120985, 0.655129, -0.260646, -0.046311, 0.007575, -0.04545, -0.02323, 0.033586, -0.036881, 0.034944, -0.066275, -0.123539, -0.068477, 0.072533, -0.047334, -0.089622, 0.200121, -0.275185, -0.165899, -0.24242, 0.275396, 0.066426, -0.127587, 0.329334, 0.003815, -0.120348, 0.210763, -0.00453, 0.089625, 0.005312, -0.140195, -0.301836, -0.06679, -0.021031, 0.001211, 0.073015, 0.072288, 0.10077, -0.202831, 0.131402, 0.222295, -0.163263, 0.301784, -0.274845, -0.100953, -0.054542, -0.133658, 0.145189, -0.263776, -0.019248], [-0.043379, 0.096588, -0.192134, 0.515219, 0.332145, -0.790651, 0.071028, -0.121521, -0.091988, -0.08751, -0.012772, 0.63904, -0.454754, 0.095172, -0.495641, -0.868688, -0.542394, -0.046484, -0.470337, 0.003916, 0.063916, -0.074654, -0.695522, -0.462296, -0.282201, 0.019855, 0.134284, -0.092714, 0.584046, -0.66458, 0.213568, -0.139756, 0.471596, -0.044203, -0.052717, 0.691328, 0.690975, -0.352382, -0.366296, -0.017832, 0.381568, -0.017878, 0.006361, -0.575126, 0.028607, 0.403418, 0.45735, -0.233406, 0.70495, 0.13424], [0.245438, -0.07164, 0.169825, 0.02083, 1.45789, 0.342735, -0.010434, -0.097327, -0.178475, -0.541688, -0.31817, 0.02294, -0.462143, 0.016256, -0.022266, -0.055686, -0.165351, -0.142154, -0.079932, -0.546477, -0.035808, -0.242459, -0.170645, 0.021719, -0.215683, 0.106551, -0.023142, 0.001201, 0.328248, 0.399409, -0.248462, -0.311603, -0.022757, 0.046809, 0.081614, -0.300911, 0.318894, 0.509888, -0.06037, 0.401447, -0.250602, 0.07981, 0.518843, -0.073542, -0.161844, 0.217976, -0.356622, -0.280251, 0.255561, 0.0384], [-0.083998, -1.21489, 0.131321, 0.421986, 0.857773, -0.635288, -0.077887, -0.132056, -0.05223, -0.171525, -2.7092, -1.08345, -0.565904, -0.910631, 0.381231, -0.025321, -0.054973, -0.186732, -3.68377, 0.31545, 0.558292, 0.524529, 0.770206, 0.399464, -0.339033, -0.271889, 0.768812, -0.036628, -1.5644, -1.01023, 0.189736, -0.372872, 0.075619, 0.015981, -0.025386, -0.052316, 0.05202, -1.46323, 0.244272, -0.450836, 0.328074, 0.232153, -0.749463, -0.126731, 0.779882, -0.139425, -0.096925, 0.248281, -0.652479, 0.014989], [-0.667704, -2.30068, -1.10831, 2.85555, 1.18362, -0.909308, -0.964158, -1.02805, 1.00513, -0.709318, 0.581113, -0.153861, 0.803728, 0.771549, -0.018253, -1.97836, 0.286218, 0.074633, 0.081142, 0.4513, 0.70983, -0.508228, -0.297202, 0.555296, 0.479065, 0.094597, -1.01357, 1.17578, -0.905913, -0.332635, -0.013265, 0.992502, -0.216984, 0.026828, -0.666919, -0.164533, -0.915129, -1.84397, 0.984052, -0.480949, -0.931205, -0.37053, -7.5115, -0.660973, 0.136105, -1.70361, 1.219, -0.221289, -1.66157, 0.051818], [-0.708014, -1.32927, 0.19448, 0.98979, 0.070987, -0.952044, 0.22369, -0.458559, -0.018382, 0.546395, 0.245773, -0.078388, -0.024379, -0.409795, 0.153155, -0.461806, 0.120242, 0.135533, 0.204575, 0.27125, 0.535231, -0.170769, 1.02991, 1.07612, 0.347207, -0.17103, 0.264345, 0.311926, -0.790772, 1.12983, -0.856646, 0.318413, -0.374976, -0.031781, 0.170377, -0.586172, -0.047895, 0.540667, 0.270957, -0.444284, 0.187666, -1.07549, 0.041815, -0.450948, 0.370324, 0.665173, 0.240887, 0.199605, -0.817579, -0.479232], [0.003084, 0.372817, 0.171787, 0.390127, 0.533042, -0.44664, 