{"number_of_layer": 8, "number_of_neurons_each_layer": [5, 50, 50, 50, 50, 50, 50, 5], "weight": [[[0.036543, -0.02367, -0.202514, 0.283006, -0.428196], [-1.40374, -0.207866, -0.046445, 0.186252, -0.150778], [0.010227, -0.141777, 0.163488, -0.042914, 0.023112], [-0.002935, -0.339312, 0.044916, -0.158153, 0.512866], [-0.259381, 0.025953, -0.02697, -0.432468, 0.560277], [-0.018762, 0.396385, 0.139659, 0.056658, -0.026163], [-0.027415, 0.005622, -0.002605, 0.001862, 0.004834], [-0.114522, -0.07883, -0.378408, 0.180413, 0.569152], [0.480344, 0.340097, 0.013242, 0.523921, -0.53326], [0.005276, -0.433021, -0.200741, 0.519207, -0.529559], [0.066856, 0.388581, -0.033143, 0.092913, -0.193159], [-0.86406, 0.006243, 0.000465, 0.088004, -0.002497], [0.910242, 0.017803, 0.002061, 0.125743, -0.13815], [-0.011132, -0.011636, 0.013618, -0.002572, 0.018153], [-0.015599, -0.736836, 0.786828, -0.006743, 0.071705], [0.163628, -0.197687, 0.342228, 0.175521, 0.300891], [0.182537, -0.140389, -0.02398, -0.22913, 0.149777], [-0.435218, -0.006214, -0.640335, -0.037344, 0.430144], [-0.108323, 0.039228, 0.635031, 0.042803, 0.584753], [0.050154, 0.078846, -0.004434, -0.514723, -0.047814], [0.00894, -0.170304, 0.196139, 0.178073, -0.452429], [-0.391759, -0.056985, 0.297537, -0.064095, 0.493369], [-0.024573, 0.433372, -0.024805, 0.490046, -0.598109], [0.031033, 0.072951, 0.154574, 0.450886, -0.268297], [0.624363, -0.175259, 0.00514, 0.509572, -0.374872], [-0.149018, 0.158593, 0.069899, 0.247939, 0.079382], [0.349122, -0.142386, 0.022394, 0.047888, -0.390848], [0.005052, 0.215872, 0.312575, 0.091061, -0.028856], [-0.519283, 0.166344, 0.078232, 0.057152, -0.180276], [-0.014527, 0.467931, -0.082357, 0.021909, 0.041052], [-1.36766, 0.003561, -0.001711, -0.21226, 0.134791], [0.453651, -0.37261, 0.047481, 0.293261, -0.459559], [-0.064545, -0.170234, -0.000165, -0.335278, 0.239715], [-0.34579, 0.000562, -0.001741, 0.186302, 0.169922], [-1.13989, 0.057619, 0.071405, 0.083225, -0.318228], [-0.006614, -0.04481, 0.088296, 0.109669, -0.146334], [-0.01902, -0.459307, -0.082146, 0.297436, -0.170042], [-0.010641, -0.010178, 0.822741, 0.113957, 0.001794], [-0.025361, -0.028167, -0.363568, 0.119826, -0.010083], [-0.412834, -0.133986, 0.043314, -0.069651, 0.072393], [-0.014618, -0.29197, -0.155387, -0.005008, 0.304548], [-0.132087, 0.052473, -0.563999, 0.058639, -0.275754], [0.082827, -0.019311, 0.02676, -0.178406, -0.598358], [0.019263, 0.428859, -0.413845, 0.04275, 0.014182], [0.002279, -0.460266, 0.450818, 0.045111, -0.007082], [-0.162387, -0.01911, 0.051309, -0.36495, -0.022506], [0.067777, -0.36615, 0.003579, 0.024339, -0.017296], [-0.274545, 0.047137, -0.009611, 0.23523, 0.42277], [0.010044, 0.002042, -0.000995, 0.012788, 0.014146], [-0.004224, -0.266514, -0.011852, 0.04582, -0.034243]], [[0.362204, 0.016281, 0.253392, 0.089657, 0.172929, -0.193497, -0.036535, -0.217527, -0.293126, -0.038945, 0.660051, -1.83642, 0.096711, 0.023677, -0.436929, -0.247989, 0.208778, -0.057909, -0.117564, -0.129215, -0.002814, -0.112664, -0.180433, 0.10469, 0.040298, -0.288076, -0.333061, -0.27383, 0.030276, 0.11941, -0.263566, 0.104248, 0.06748, 0.266157, -0.058448, 0.027411, -0.179911, 0.423228, 0.284394, 0.005475, -0.02162, -0.082725, -0.226424, 0.047357, -0.784362, -0.118674, 0.388552, 0.123578, 0.024323, 0.408277], [0.248253, 0.379377, 0.181827, 0.181577, -0.224995, -0.69637, -0.027431, 0.182892, 0.680086, -0.389128, -0.201303, 1.66548, 0.071079, 0.001457, 0.338768, -1.09594, -0.034186, 0.078492, 0.066579, -0.524935, -0.294914, 0.328426, 0.857109, -0.237202, -0.723527, 0.012036, -0.738996, 0.137741, 0.302377, -0.125037, 0.288915, 0.097626, 0.146785, 0.529571, 0.302105, 0.204726, -0.011978, -0.022924, 0.198783, 0.392106, -0.489147, -0.017423, -0.153665, 0.242889, 0.173081, -0.030281, -0.328743, -0.291884, -0.008975, 0.402454], [0.12566, 0.097908, 0.153979, -1.41628, 0.337937, 0.185111, -0.038839, -0.272, -0.354796, -1.12041, 0.320559, -3.12926, 0.054282, 0.051081, -0.15826, 0.82337, 0.600183, 0.063981, -0.426652, -0.049502, 0.7783, -0.020153, -0.838221, 0.111122, 0.036254, 0.637611, 0.08289, -0.36995, -0.504763, 0.575739, -0.288141, -0.338591, 0.287697, -0.085418, -0.018748, 0.675188, -0.161499, 0.368053, 0.459631, -0.006299, 0.336063, 0.187756, 0.91981, -0.611454, -0.296033, 0.068753, 0.85983, -0.215386, 0.024125, 0.319428], [0.411497, -0.259354, -0.509709, -0.01297, 0.105541, -0.61365, -0.007061, 0.351576, -0.151109, -0.302069, 0.668503, 0.352051, 0.141774, -0.002298, 1.61241, 0.421633, 0.589826, 0.600428, -0.501031, 0.58567, -0.391418, -1.01427, -0.07012, -0.423705, 0.077739, 0.24612, 0.050982, 0.212518, -0.261799, 0.381889, 0.760038, 0.038059, 0.44318, 0.221516, -0.371639, -0.567901, -0.466327, -0.59942, 1.07906, -0.461226, 0.143358, -0.909276, -1.34723, 2.5599, 3.29815, 0.07433, 0.141536, 0.164324, -0.028923, -0.334169], [0.18116, 0.270716, 0.300111, 0.017764, 0.087017, -0.098639, -0.008123, 0.206673, -0.272228, 0.004305, -0.180773, -0.178361, -0.207984, -0.00399, -0.409904, -0.025874, -0.219626, 0.534079, -0.219754, -0.243093, 0.451992, -0.200018, -0.47593, 0.215382, 0.03095, 0.256202, 0.358876, -0.468374, 0.058957, 0.339628, -0.212412, 0.410246, -0.233745, -0.093144, 0.02857, 0.68917, 0.046316, 0.198698, 0.152671, 0.053829, -0.224199, 0.029661, 0.370834, -0.302863, -0.623832, 0.073596, 0.019116, -0.220666, -0.032336, 0.066293], [0.330252, -0.059589, -0.42486, -0.65693, -0.076553, 0.579966, -0.017314, 0.864432, 0.907988, -1.3692, -0.172194, -1.68163, 0.106239, 0.053212, -0.358385, -0.130056, -0.332037, -0.269608, 0.252595, -0.158605, 0.187439, -0.594775, -0.555484, -0.065143, -1.34807, -0.601156, -1.31843, 0.27482, 0.219967, -0.103081, 0.611773, 0.384903, 0.655144, -0.079263, 0.352805, -0.128041, 0.643538, 0.222201, 0.079882, -0.516999, 0.075325, -0.184601, 0.095036, -0.822447, -1.24111, -0.124451, -1.24207, -0.646763, -0.00782, 1.00892], [-0.011134, -0.003277, -0.064002, -0.051227, -0.031034, 0.049966, 0.028428, -0.044894, -0.019746, -0.033845, -0.022332, -0.018015, -0.048889, -0.028893, -0.018033, 0.034703, -0.030435, 0.005077, -0.045047, 0.014941, 0.025405, 0.009618, 0.033864, -0.052952, -0.08405, -0.035408, -0.032657, 0.005524, 0.019025, 0.004307, -0.079481, -0.049291, -0.059494, 0.00862, -0.005699, -0.080888, -0.013562, -0.08049, 0.007574, -0.011626, 0.010637, 0.00589, -0.058328, 0.005732, -0.05315, -0.010957, -0.016539, -0.074298, 0.012825, 0.041216], [-0.243869, -0.110483, 0.056301, -2.44987, -0.413591, 0.327693, -0.020827, -0.226863, -0.80521, -0.360819, -0.266365, -0.147395, -0.103128, -0.015333, 0.042378, 0.248268, 0.602374, -0.859315, -0.446046, -0.071632, 0.244492, 0.009079, 0.09807, 0.076216, 0.396478, 0.125128, 0.276898, 0.458906, 0.137135, 0.603101, -0.712047, 0.185634, 0.201089, 0.082114, -0.007949, 0.335505, 0.352081, 0.18806, 0.311007, 0.039352, -0.736199, -0.667345, 0.254037, -0.133084, 0.664453, 0.223785, -1.11404, -0.14885, 0.024006, 0.023369], [0.208684, 0.30384, 0.308511, -0.014916, 0.447671, -0.158719, 0.025117, -0.401524, -0.086113, 0.418819, -1.88396, -0.236765, 0.136391, -0.010446, 0.704248, -0.362597, -0.244064, -0.162511, -0.407582, -0.57605, 0.369198, 0.294176, -0.96029, -0.020931, 0.274517, 0.048814, 0.251887, -0.629667, -0.261748, -0.935369, 0.015956, -0.243604, -0.138048, -0.107137, -0.17779, 0.38905, 0.808853, -0.138785, -0.054945, 0.003511, 0.262587, -0.205893, -0.461464, -0.999165, 1.64577, -0.223343, -0.325522, 0.839932, -0.009406, 0.896565], [-0.000477, 0.23833, 0.282197, -0.050076, 0.091527, 0.423394, 0.029849, -0.788082, -0.023869, 0.056922, 0.286505, 0.85994, 0.20928, 0.001881, 0.297547, 0.053831, -0.010892, 0.184409, -0.628004, 0.05185, -0.196866, -0.870464, -0.07718, -0.408198, -0.134001, 0.031395, -0.109782, -0.651763, 0.070536, 0.05931, 0.128743, -0.101227, 0.372253, -0.474301, 0.08334, -0.031119, 0.080771, 0.395728, -0.232473, 0.579445, -0.297951, 0.685688, 0.068879, -0.021621, 0.245124, 0.460378, -0.176815, -0.049876, -0.01944, -0.065544], [-0.068436, 0.086311, 0.056227, -0.33469, 0.182659, 0.161914, -0.011113, -0.216205, -0.087538, -0.224832, 0.512462, 0.095054, 0.012436, -0.037212, 0.430815, 0.277427, 0.104369, 0.061096, 0.11705, -0.099291, 0.388924, 0.168484, 0.187976, 0.220154, 0.064022, 0.060371, -0.057611, -0.735024, 0.110317, 0.961364, -0.287651, -0.252, -0.136262, -0.006736, 0.000787, -0.200341, -0.150943, 0.623443, -0.400806, -0.362199, -0.163348, 0.074605, -0.069884, 2.53985, 2.73145, 0.077292, 0.25528, -0.107346, 0.029474, -0.323568], [-0.244422, 0.131835, -4.10134, 0.039143, 0.303362, 0.245876, -0.013598, 0.122649, 0.076556, 0.168007, -0.056214, -0.393942, -0.09754, -0.047473, 0.190294, -0.28794, 0.405629, -0.135317, -0.232221, 0.050389, -0.327412, -0.195105, -0.15058, 0.155532, 0.035155, -0.034383, 0.234847, 0.069233, -0.16994, 0.385262, 0.057325, 0.00743, 0.122907, -0.002578, -0.105825, -2.44187, 0.3449, -0.229581, 0.077141, 0.418657, 0.287788, -0.702426, -0.603673, 1.77147, 0.00203, 0.289858, -1.23264, 0.023019, -0.001024, -1.29096], [0.475973, 0.312654, 0.318447, 0.724266, -0.056385, -3.05699, 0.0044, -1.09258, -1.08835, -0.580138, -1.20729, -2.84343, -0.076678, 0.019688, 0.396487, -0.222897, 0.430102, 0.038474, -0.242441, -0.436693, -0.820958, -0.48623, -0.054834, 0.205503, 0.072205, -0.952066, 0.247467, 0.224741, -0.320167, -0.224866, 0.126762, -0.673019, -0.333603, -0.351478, -0.088245, 0.779825, -0.599029, -0.057721, 0.504542, -0.437207, 0.322375, 0.4651, 0.18585, 1.0079, -0.389256, -0.155937, 0.748443, -0.240744, 0.042289, -0.533558], [0.034403, 0.21023, -0.187161, -0.318369, -0.091788, -0.398568, 0.007817, 0.02334, -0.37221, -0.264175, 0.706508, -0.7524, 0.579424, 0.034988, -0.185701, 0.445117, 0.371773, 0.009537, 0.066388, -0.127674, 0.569873, 0.436913, 0.212496, 0.109558, 0.000869, -0.059802, -0.441025, -0.196603, -0.146055, 0.422484, -0.460671, -0.175418, 0.062633, 0.445392, -0.274647, -0.076031, 0.4634, 0.27236, 0.101672, 0.161331, -0.002922, -0.379723, 0.289003, -1.85698, -1.17175, -0.133205, 0.297615, 0.15534, 0.035291, 0.307319], [0.84298, 0.051856, 0.15072, -0.751662, 0.502284, 0.447539, -0.01472, 0.208222, -0.324333, 0.017321, 0.807101, 0.105051, -0.078206, 0.032563, 0.098755, 0.251689, -0.286187, 0.149231, 0.13338, -0.010719, 0.227008, -0.142498, -0.089568, -0.166979, 0.421732, -0.459991, -0.069629, 0.492879, -0.100273, 0.325423, -0.156787, -0.354646, 0.0111, 0.168054, 0.31778, 0.54778, -0.200766, 0.528159, 1.24586, 0.142246, -0.98891, -1.72184, 0.709985, 0.838925, 0.272467, 0.097396, -1.17031, -0.267057, 0.024073, -1.0434], [-0.033854, -0.024003, 0.029683, -0.035156, -0.039214, -5.1e-05, 0.036783, -0.053989, -0.02154, 0.046669, -0.01209, 0.034779, -0.049379, -0.021308, 0.001725, 0.038769, -0.048982, -0.024221, 0.042318, 0.012533, 0.030953, -0.040677, 0.022044, -0.024193, -0.000604, 0.032477, -0.041223, -0.027709, 0.041435, 0.004743, -0.026315, -0.030492, -0.025792, -0.0307, -0.038873, -0.039793, -0.010238, 0.001815, 0.029343, -0.024265, -0.036782, -0.043629, 0.034604, -0.046564, -0.006248, -0.0098, -0.042297, -0.025223, 0.045327, 0.02217], [-0.026665, 0.041166, -0.01568, -0.016194, -0.019437, 0.025818, 0.018995, 0.018034, 0.018635, -0.017612, 0.016643, -0.052856, 0.022268, -0.050115, 0.021296, 0.01799, 0.007556, -0.044373, 0.023475, 0.000498, 0.000797, 0.034194, -0.011791, 0.019511, -0.021264, -0.039066, 0.022221, -0.006573, -0.030308, -0.034959, -0.033114, -0.027486, 0.031714, -0.003985, -0.014358, 0.004068, -0.043069, -0.028849, -0.006686, -0.051989, -0.022999, -0.004971, 0.038206, 0.010853, -0.036417, -0.029779, -0.039706, -0.033003, -0.000801, 0.004453], [-0.092409, -0.003227, 0.423322, -0.025082, 0.034874, -0.474502, 0.028969, 0.054224, -0.013932, 0.161765, -0.386548, -0.112016, 0.016949, -0.024791, -0.150065, -0.018832, -0.091867, -0.018798, 0.041359, 0.084894, 0.3405, 0.038396, -0.062065, -0.13529, 0.042418, -0.038318, 0.017079, 1.10029, 0.016924, -0.416473, -0.148096, 0.012295, 0.047802, -0.029421, -0.032347, -0.280856, 0.115711, -0.447323, 0.250473, 0.012709, -0.090842, -0.143316, -0.183541, -0.867225, -1.01258, 0.031339, -0.046737, 0.056426, -0.040462, -0.177564], [0.056708, -0.159002, 1.8512, -1.24715, 0.864835, 0.155039, -0.046868, 0.055562, -0.106588, 0.275101, -0.070648, -0.012767, -0.028376, 0.019908, -0.006142, -0.049016, 0.129686, -0.130778, -0.193771, 0.147772, -0.021652, 0.004367, 0.221269, 0.093508, 0.137959, 0.10286, 0.305786, -0.406065, 0.065511, 0.075334, -0.061305, -0.958614, 0.17602, -0.108819, 0.38537, 1.75117, -1.12057, -0.733937, 0.50677, -0.560419, -0.151223, 0.058428, 0.931697, 0.681666, -0.042139, 0.260889, 0.106369, 0.320677, -0.027265, -3.2199], [-0.047904, -0.04462, -0.030574, 0.027063, -0.067354, 0.004275, 0.017781, -0.056988, 0.015334, 0.009174, -0.005685, 0.037041, -0.042709, 0.007829, -0.019738, -0.001289, -0.044562, -0.053448, 0.028439, -0.060772, -0.007851, -0.005365, -0.035492, -0.060817, -0.062533, 0.015247, -0.009847, 0.00225, -0.006055, 0.010324, 0.02961, -0.002991, -0.041892, -0.031034, 0.003038, 0.015072, 0.041282, 0.015104, 0.042327, 0.032718, -0.031885, -0.018163, 0.037646, -0.041175, 0.010791, -0.054904, 0.016045, -0.031189, 0.007366, 0.019043], [0.302594, -0.191085, 0.605047, 0.096606, -0.017239, -0.055671, -0.009387, -0.287684, 0.013104, 0.250478, 0.44349, -0.15195, 0.278663, 0.024067, 0.595762, -0.388623, 0.267381, 0.098898, -0.38505, 0.148061, -0.389085, -0.124269, 0.097125, -0.319285, -0.313043, 0.461324, 0.296185, -0.134127, 0.101652, 0.648542, 0.239839, -0.184313, -0.067119, -0.08364, -0.086176, -0.03851, 0.153768, 0.332306, 0.670967, 0.471582, -0.078072, -0.24845, 0.279124, -0.882744, -0.527116, -0.316207, 0.464712, 0.141073, 0.000819, 0.37672], [0.653868, 0.704944, 0.03777, 1.23125, -0.7788, -0.435338, -0.0293, -0.139659, 0.372303, 0.678176, -0.889163, 9.07689, -0.081298, -0.04336, -1.16874, 0.199742, -0.782206, -0.113577, 0.288203, -0.988697, -0.739642, 0.340832, -0.204416, 0.121535, 0.394571, -1.29403, -0.17649, 0.63069, 0.083391, -0.522788, 3.38112, -0.197868, -0.702985, -0.660105, 0.492687, 0.22023, 0.287518, -0.41862, -0.029399, 0.355586, 0.062589, 0.004715, 0.98996, -0.17703, -0.436775, 0.6145, -0.193776, -0.547764, 0.033613, -0.039395], [0.054175, 0.043035, -0.719261, -0.103769, -0.331516, 0.222439, -0.02669, 0.609112, -0.521205, 0.447351, -0.756247, -4.56807, -0.16876, -0.001864, 0.000127, -0.304097, -0.582328, -0.176665, 0.057868, 0.10091, 0.433683, -0.323447, -0.66732, -0.003169, -0.035447, -0.478639, -0.155805, -0.239618, 0.484679, 0.369017, 1.0396, 0.280905, -0.542565, -1.23862, 0.514763, 0.160351, -0.972479, 0.248686, 0.009884, -0.749306, -0.382891, 0.059569, 0.498972, 0.679626, -0.246369, -0.213159, -4.67511, -1.58876, -0.013542, -1.5326], [-0.16185, 0.031956, 0.621168, -0.130691, -0.371917, -1.72502, -0.030716, -0.024799, 0.258516, 0.698043, -1.05942, -1.2903, 0.013452, 0.026274, -0.066527, -0.029814, -0.302913, -0.130072, 0.097902, 0.100438, -0.644055, 0.070097, 0.17251, -0.130596, -0.391104, -0.185305, 0.103934, -0.187157, -0.15902, -1.17746, 0.663279, 0.165875, -0.110516, 0.178627, 0.187555, -0.278984, 0.48548, 0.095133, -0.156797, -0.149795, -0.059736, 0.711733, 0.549981, -0.160156, -0.706899, -0.043687, 0.110488, -0.524959, 0.026086, 0.302174], [-0.374432, 0.158971, 0.18215, -0.235164, 0.11085, 0.183931, -0.019875, -0.199445, 0.188139, -0.283615, 0.505672, 0.234972, 0.220261, -7.2e-05, 0.013315, -0.112705, -0.195266, 0.437019, 0.177685, -0.223199, -0.10551, 0.093814, -0.402847, -0.219043, 0.108543, -0.298669, 0.09608, 0.229654, 0.007912, 0.386562, -0.255112, -0.633368, -0.191768, -0.160116, -0.244366, 0.040946, 0.123183, 0.159557, -1.04439, 0.266947, -0.173672, 0.019055, 0.533376, -1.19125, -0.627313, 0.583029, -0.109055, 0.121733, -0.049498, 0.890285], [0.071088, 1.05156, 0.437547, 0.471753, -0.723229, -2.94754, -0.000128, 0.288043, 0.120352, -0.634507, -1.02114, -1.27379, -0.935, 0.014985, 1.00599, 0.404443, -0.509554, -0.543289, 0.446715, 0.319993, 1.23648, 0.40902, 0.705039, 0.430364, 0.143271, -0.205196, 0.621828, 0.005626, 0.722823, -2.86976, 0.688112, -0.072748, -0.135824, -0.140927, 1.27371, 0.537825, 0.251393, 0.401802, -0.426534, 1.1305, 0.363565, 0.967431, 2.1657, 0.228017, -0.767883, 1.67319, 0.17186, -1.47785, -0.022147, 0.664788], [0.694138, -0.102935, -0.012148, 0.196464, -0.136971, -1.37059, -0.025999, -0.244159, -0.232818, 0.044721, -1.02593, 0.025047, -0.024272, -0.023531, 0.687524, 0.28377, 0.104526, 0.077392, 0.327994, -0.115733, -0.479858, 0.197551, -0.318621, 0.09356, 0.224825, 0.7471, 0.020425, 0.092447, 0.036832, -1.18642, 0.046062, -0.173581, 0.015111, 0.625034, 0.949793, -0.125425, 0.610188, 0.147749, -2.7562, 0.007683, -1.03011, -0.137978, -0.375702, 0.000299, 0.991198, -0.805732, -0.588255, -0.252907, -0.002984, 0.13385], [-0.014659, 0.023845, -0.02406, 0.023887, 0.011415, 0.002125, -0.008043, -0.044606, -0.035657, 0.021569, 0.016877, -0.024556, -0.020383, -0.01979, -0.033994, -0.029886, 0.007988, -0.039922, 0.037217, -0.034375, 0.033461, -0.048992, 0.019283, 0.006524, -0.012434, 0.013069, -0.015338, 0.033218, -0.034721, -0.047887, 0.009621, 0.034995, -0.029338, -0.024062, -0.015679, 0.025308, -0.020402, -0.056142, -0.021231, -0.014844, -0.04526, -0.036929, 0.008637, -0.034066, 0.040918, -0.040963, 0.037046, 0.014002, 0.03612, 0.031594], [-0.140422, -0.234506, 0.55661, 0.16681, -0.175324, -0.388336, -0.002199, -0.162696, 0.292972, 0.066558, 0.376616, 0.435093, 0.075798, 0.01294, -0.267135, -0.559879, -0.107819, -0.048311, 0.17805, 0.012266, -0.67115, -0.346989, -0.040364, 0.087263, 0.114153, 0.122259, 0.194803, -0.092914, -0.16191, 0.048, 0.114776, -0.284824, 0.283362, 0.32122, 0.053771, -0.37001, -0.617673, 0.036255, -0.006887, -0.165374, 0.522884, 0.195374, 0.715362, -0.103234, -2.11856, 0.34353, -0.311278, 0.01159, -0.011085, 0.074746], [0.64028, 0.078785, 0.492346, -0.146597, 0.821398, 0.022419, -0.023036, -0.456173, 0.121128, -1.37272, 0.526984, 0.662899, 0.22863, 0.046736, -0.060591, -0.718686, -0.139346, 0.050214, -0.208458, 0.215959, 0.452805, -0.277074, -0.55402, 0.20752, -0.329089, 0.094375, -0.274573, -0.149882, -0.016955, -0.066138, -0.149506, -0.524312, 0.378666, 0.06504, 0.09614, 0.579295, 0.113453, 0.441188, 0.275017, -0.130782, -0.361195, 0.243657, 0.501387, -0.341062, -0.826603, 0.625879, -3.02153, 0.429882, 0.007224, -2.22046], [-0.005654, -0.013279, -0.054289, -0.009229, -0.035245, 0.019281, -0.051738, 0.029779, -0.066655, 0.009392, -0.049402, -0.036837, -0.030108, -0.05205, -0.014659, -0.065227, -0.050772, 0.018144, -0.08477, -0.025413, -0.027198, -0.040838, -0.055568, -0.0288, 0.024187, -0.043526, -0.0095, -0.033284, -0.007266, -0.005566, -0.036282, 0.001071, -0.059429, 0.015162, -0.022142, -0.021991, -0.056875, -0.011867, -0.040571, -0.026008, 0.039343, -0.017561, 0.005389, 0.000837, -0.0466, -0.038344, -0.023592, -0.020683, -0.004906, -0.014281], [-0.017007, -0.038353, -0.036712, 0.039002, -0.003592, -0.049844, -0.024853, -0.033525, 0.041279, 0.024053, 0.036433, -0.006402, -0.016296, 0.033523, 0.039706, -0.037546, -0.027021, 0.030644, 0.000596, 0.040119, -0.048588, -0.032498, 0.017386, 0.037512, -0.053353, 0.041043, -0.025953, -0.018111, -0.012434, -0.030148, 0.010633, -0.044754, -0.01609, 0.014289, -2.9e-05, -0.03784, -0.020702, 0.005129, -0.016705, -0.001787, -0.00539, -0.02158, -0.045893, 0.016948, 0.001163, -0.003059, 0.005014, -0.045235, -0.024457, -0.034534], [-0.350671, 1.35108, -0.042051, -0.601211, 0.271552, 0.948071, 0.049055, 1.39066, 0.163364, 0.142424, -1.0078, 0.647279, 0.114252, -0.041483, 0.133073, 0.496343, -0.465434, 0.265645, -0.540745, 0.138646, 1.0262, -0.135388, -0.231913, -0.022923, 0.084009, 0.552794, 0.235061, 0.40806, 0.999039, -0.384992, 0.946939, -0.171693, -0.403537, -0.051506, 0.659049, 0.060452, -0.119496, -0.277037, -0.872561, 0.795349, -0.888628, -0.845617, 1.04609, -0.116749, 2.32236, 0.615676, -0.160994, 0.10772, -0.016987, -0.370361], [-0.68166, -0.051104, 0.603355, -0.173057, 0.291079, -0.154227, -0.03011, 0.07559, 0.015664, 0.395268, 0.203807, 0.04464, -0.162525, 0.03316, -1.0555, -0.086553, 0.329832, -0.003552, 0.039703, 0.220326, -0.750033, -0.1582, -0.630893, -0.19582, 0.055384, 0.182242, 0.126284, 0.13394, -0.09634, -0.00754, 0.229007, 0.117396, 0.087128, -0.063077, -0.226686, -0.772246, -0.053074, 0.136993, -0.319104, 0.0112, 0.440216, 0.504451, -0.826316, 0.712866, 2.14501, 0.20587, -0.376479, -0.286, 0.011941, -0.631479], [1.18959, -0.247325, 0.117844, 0.020689, -0.195781, 0.408467, -0.000721, -0.119186, 0.042812, -0.179295, 0.427553, 0.041429, 0.057697, -0.05814, 0.780374, 0.108084, -0.01021, -0.114259, -0.121495, -0.802351, -0.070791, -0.005958, 0.265149, 0.316774, -0.194098, -0.096468, -0.395009, -0.866502, -0.104513, 0.16335, -0.793732, 0.27234, -0.428658, 0.189653, 0.300277, 0.927296, 0.239645, 0.164843, 0.188661, 0.090473, -0.218131, -0.008563, 0.31236, 0.103728, 1.85459, -0.357017, -0.090905, 0.702509, 0.042969, 0.147692], [-0.060654, 0.618051, 0.081787, -0.047626, 0.330679, 0.680269, 0.026126, -0.420591, 0.213197, 1.25849, -0.440051, 0.170797, 0.189075, 0.010702, -0.464028, -0.112184, -0.273557, -0.238324, -0.110234, -1.61892, 0.250024, -0.127809, -0.254395, 0.171178, 0.256707, 0.483294, 0.22372, 0.661809, 0.128431, -0.555058, 0.532433, -0.286425, -0.034561, 0.011195, 0.497026, -0.160383, 0.74112, 0.074063, 0.234736, 0.393366, 0.539535, 0.115441, -0.954699, -0.136095, 0.781796, -0.271246, -0.579881, 1.17484, -0.026225, -0.156819], [-0.316383, -0.17085, -0.056761, -0.562873, 0.265377, 0.030941, -0.017516, -0.070524, 0.02752, 0.240885, 0.331001, 2.06098, -0.37681, -0.034843, 0.059922, -0.38083, -0.138043, 0.143568, 0.144121, -0.582736, 0.208509, 0.319416, -0.0966, 0.145166, 0.489078, -0.09138, -0.142453, -0.174945, 0.040582, 0.170773, 0.872695, -0.398442, 0.251804, 0.40701, 0.101447, -0.627533, -0.392594, 0.18401, -0.421387, 0.386263, 0.041555, -0.155755, -0.429145, 1.32547, -0.513152, -0.360371, 0.471298, 0.215495, -0.027067, 0.131104], [-0.142419, 0.0088, 0.36984, -0.17818, 0.257009, 0.024915, 0.016914, 0.198327, -0.01725, -0.264953, 0.012329, 0.043449, 0.029378, -0.020503, -0.290933, -0.102467, 0.085213, 0.294303, -0.452924, -0.399419, -0.308309, -0.522017, 0.071477, 0.110809, -0.01498, 0.026464, -0.061524, 0.151988, 0.090633, -0.014567, -0.150277, -0.017292, 0.050814, 0.116003, 0.231532, 0.15595, 0.088426, -0.313075, 0.319581, 0.185184, 0.090515, -0.654151, 0.062107, -0.656592, 0.027137, 0.030819, -0.007038, 0.403987, -0.014208, 0.307195], [-0.117012, 0.103974, -5.93906, -0.002924, 0.513721, -0.066653, -0.040969, -0.133432, 0.265003, -1.59791, 0.072999, -1.38026, -0.024472, 0.009982, -1.35864, 0.272588, -0.091637, 0.048649, -0.058072, 0.089308, -0.047817, -0.167002, -0.677793, -0.103197, 0.235886, 0.177576, 0.117053, 0.13727, 0.028018, 0.480947, 0.51378, -0.469016, -0.083765, -0.066702, -0.5175, -2.91444, -1.11484, -0.632866, -0.202239, -0.925865, 0.04139, 0.230737, -1.44431, -1.59635, -0.009528, -0.02463, 1.35597, 0.076775, 0.003518, -0.621453], [-0.112397, 0.337526, -0.158685, 0.008979, 0.46162, 0.289258, -0.005521, -0.950746, -0.369373, -0.275651, 0.987261, 0.67753, -0.043823, -0.025972, -0.357076, -0.194662, -0.366296, -0.315397, -0.052656, -0.150966, -0.106959, 0.39631, 4.8e-05, -0.029311, 0.046348, 0.083479, -0.067978, 0.045268, 0.072915, -0.023562, 0.050092, 0.248761, 0.051308, 0.400668, 0.057151, -0.213023, 0.231441, 0.734043, 0.002564, 0.191361, -0.053752, 1.76728, -0.27131, -0.449183, -0.725006, -0.475045, 0.076508, 0.95538, 0.001689, 0.440196], [0.504184, -0.178213, -0.892186, 0.257642, -0.152658, -0.166603, -0.011429, 0.064117, 0.044226, -0.115315, 0.036207, -0.802815, 0.16618, -0.050029, -0.083478, -0.076241, -0.202133, 0.089708, -0.090067, -0.094728, 0.09959, 0.006554, 0.118493, 0.244725, -0.105513, 0.130028, -0.120568, -0.300997, 0.008596, 0.450729, -0.456211, -0.063217, 0.075485, 0.020145, -0.044326, 1.6573, -0.999171, 0.243187, 0.351457, 1.06543, -0.390572, -0.086166, 0.80647, 1.75813, 0.195024, 1.43589, -1.89228, 0.081849, 0.036842, -1.87991], [-0.024621, -0.00911, 0.011947, 0.001869, -0.02269, -0.045927, 0.00777, -0.015778, 0.026865, 0.01574, 0.010269, -0.060118, -0.050864, -0.00953, -0.024754, -0.006323, 0.013938, 0.0194, -0.058635, 0.022932, -0.007578, -0.035278, 0.035474, -0.032731, 0.002959, -0.00513, -0.012546, -0.046294, -0.032316, -0.025618, -0.039402, -0.033032, -0.00081, 0.028417, -0.021651, 0.041838, 0.03241, -0.024688, -0.069893, -0.006057, 0.034619, -0.034742, -0.039235, -0.037714, 0.012379, 0.006336, 0.007764, -0.018945, -0.040518, -0.036769], [-0.212342, 0.013652, -0.057356, -0.258384, -0.15881, 0.395239, -0.033604, 0.105817, 0.153474, -0.129067, 0.186912, 0.295252, 0.220941, 0.040131, -0.392857, -1.10776, -0.537026, -0.200156, -0.069596, 0.019999, 0.61964, -0.327938, -0.533035, 0.258151, 0.370056, -0.35893, 0.021439, -0.064588, -0.302386, -0.438667, 0.298358, 0.342618, -0.170491, 0.797359, -0.505349, 0.055281, -0.017315, -0.069186, -0.510555, -0.416754, 0.282532, 0.473906, 0.186857, -0.352066, 0.419462, -0.786203, 0.164214, -0.050791, 0.011943, -0.272258], [0.497782, -0.201335, 0.146875, -0.984215, -0.396494, 0.467077, 0.039276, -0.984562, -0.9932, -0.053577, 0.789776, 0.829723, 0.866701, 0.047288, 0.195087, -0.82456, -0.511852, -0.228719, -0.577709, 0.363021, 0.529044, 0.489453, -0.175898, 0.302195, 0.195657, 0.00742, -0.005356, -0.461731, -0.298059, -0.490506, 0.894351, 0.086604, -0.972283, 0.529055, -0.600239, 0.416892, 0.218238, -0.025099, -0.254532, -0.065169, 0.210284, 1.18325, 0.990626, -0.95538, 0.624951, 0.130275, 0.268854, 1.14463, -0.024977, 0.214903], [0.024083, 0.097325, 0.590188, -0.924225, -0.033723, 0.050759, -0.021277, -0.101365, 0.088122, -0.243952, -0.242589, -1.2583, 0.276626, 0.007579, -0.037597, 0.042924, -0.651455, -0.084679, -0.121453, -0.213749, -0.288188, -0.364316, -0.576354, 0.503352, -0.449704, 0.047446, -0.412905, -0.538162, 0.224836, 0.380341, 0.559897, -0.318813, 0.312984, 0.204048, 0.153815, 0.226535, -0.115366, 0.204117, 0.247825, 0.294033, 0.393429, 0.350556, -1.07165, -0.132098, 0.31607, -0.158228, 0.169988, -0.144694, 0.002485, 0.170599], [0.027743, 0.027602, -0.042251, 0.010497, 0.034983, -0.009826, -0.001549, -0.023264, 0.02714, 0.041746, 0.015128, -0.041933, -0.043188, 0.044359, -0.028791, -0.02664, 0.007219, -0.033075, 0.038861, -0.008195, 0.013246, -0.029434, -0.050964, 0.001421, 0.003315, -0.038791, 0.022709, -0.051591, 0.000269, -0.002534, -0.024287, -0.04596, 0.007067, 0.026239, -0.029254, -0.003892, -0.024632, -0.045355, -0.038399, 0.002456, -0.000538, -0.05059, -0.051739, -0.049239, -0.004047, 0.010921, -0.020024, 0.01269, -0.010623, 0.021764], [0.08077, 0.123808, -1.26482, -0.327752, -0.335758, -0.481597, -0.030304, -0.204414, 0.511514, -0.037957, 0.118472, 0.4846, 0.164043, 0.022525, -0.02728, -0.84433, -0.237902, 0.077752, 0.253778, -0.324407, -2.66119, 0.220586, 0.268901, 0.030611, 0.046102, 0.054417, -0.328966, -0.904661, 0.125166, 0.229652, 0.102197, -0.526661, -0.004214, 0.255982, 0.195955, -0.575841, -0.788312, -0.776757, 0.27231, -1.0618, 0.51969, 0.690891, -0.391753, -1.05712, 0.087839, 0.037972, 0.519551, 0.107363, -0.01891, -2.66198], [0.205313, 0.454187, -2.62782, -0.026126, 0.158386, -0.29634, -0.052179, -0.115242, 0.0311, -0.310051, 0.072273, 1.88951, 0.125651, 0.003478, 0.890778, 0.212178, -0.19395, 0.100134, -0.226904, 0.031593, -0.93191, 0.220569, 0.10279, -0.00477, -0.08842, -0.010535, -0.050121, -0.76573, -0.032936, 0.220188, -0.195112, -0.229097, -0.077325, 0.151997, -0.080387, -0.60234, -0.102735, -1.17917, 0.27458, 1.14587, -0.248104, -0.452252, -0.057464, 2.24826, 0.021935, -0.323993, 0.459396, 0.180256, -0.021022, -0.887868], [0.836713, 0.186826, 0.002344, 0.304743, 0.365995, -0.242451, -0.006382, -0.439736, -0.032967, -0.945998, 0.642724, 0.862889, 0.186058, 0.020428, -0.25177, -0.116107, -0.211077, -0.093948, 0.222076, -0.392826, -0.255204, 0.240749, -0.015777, 0.480462, 0.320133, 0.142946, 0.048146, 0.231899, -0.112671, 0.285359, -0.626388, -0.18539, -0.251198, 0.131617, -0.100251, 0.475899, -0.017412, 0.30565, -0.753426, -1.03889, -1.09297, 1.67447, 0.225033, -0.224157, 0.121267, -1.01212, -1.32497, 0.373217, -0.00017, -1.81206], [0.046086, -0.28689, 0.203481, -0.469714, 0.33268, 1.81631, 0.003323, 0.203358, -0.405375, 0.108012, -0.379688, 1.73326, 0.207285, 0.002259, -0.341577, 0.701916, 0.168586, -0.12344, -0.66274, 0.065416, 0.999703, 0.477114, -0.620003, -0.071847, 0.169742, 0.225221, -0.170025, 0.238262, -0.180834, -0.473846, -0.54356, 0.230535, 0.038354, 0.205371, 0.094436, 0.998287, 0.537068, -0.068884, -0.083463, 0.125526, -0.028877, 0.292719, 1.14302, 0.529196, 1.90871, 0.212609, 0.300657, 0.379067, -0.017109, -0.191053]], [[0.837096, 0.717646, -0.094045, -0.524381, -0.202163, 0.478097, -0.020874, 0.41372, 0.300376, -0.143019, -0.560286, 1.25196, -0.037019, -0.0141, -0.061137, -0.022531, 0.020184, -0.753471, 1.37154, 0.000308, 0.564411, -0.043343, -0.052487, -0.332059, 0.523178, -0.056888, 0.774774, -0.019894, 0.166755, 1.07472, 0.053816, -0.029623, -0.239888, -0.29012, 0.74057, 0.015344, -0.405189, 0.35876, 0.838991, 0.241509, 0.498996, -0.01807, -0.680804, -0.677475, 0.213757, 0.048695, 1.10484, 0.104847, 0.31428, -0.914395], [-0.837539, -0.091581, -1.40295, 0.212339, -0.131232, 0.440273, 0.03856, 0.399579, 0.112072, 0.307167, 0.162509, -0.328876, -0.4614, -0.332424, 0.375982, -0.045431, 0.020141, 0.706125, 1.32526, 0.038373, -0.594951, 0.276325, 0.032487, -0.008342, -0.427121, 0.013737, 0.18596, 0.008675, -0.054822, -0.030008, 0.023055, -0.044305, 0.247804, 0.288993, -0.026735, -0.156814, -0.43948, 0.267132, -1.21763, 0.343883, -0.044058, -0.045307, -0.171205, -0.072528, 0.117641, -0.033372, 0.310653, -0.691987, 0.256214, 0.112401], [0.134929, 0.042164, 0.194434, -0.232038, -0.245432, -0.012887, -0.010207, 0.833709, -0.635536, 0.245055, 0.02795, 0.600087, -1.7e-05, -0.4296, -0.113965, 0.019535, 0.035815, -1.07139, -0.068366, -0.012288, -0.137501, 0.103363, 0.306283, -0.373784, -0.033001, -0.028292, -0.208637, 0.000564, 0.103433, 0.282367, -0.053614, 0.02372, 0.003443, 0.575046, 0.175194, -0.031806, -0.256603, 0.102093, -0.238552, -0.167035, -0.002721, 0.010094, -0.07352, -0.076471, -0.312799, 0.050065, 0.24024, 0.38594, -0.032157, 0.355592], [-0.186124, 0.220674, -0.261271, -0.162256, 0.684466, -0.061946, -0.001359, 0.002652, -0.047867, -0.368637, 0.35158, 0.525556, 0.780831, -0.022599, 0.225691, 0.006544, 0.002224, 0.841742, -0.558467, -0.007578, 0.266295, 0.137934, -0.041611, 0.142367, 0.428138, -0.107467, 0.601943, -0.021501, 0.080907, 0.61157, -0.023332, -0.006765, -0.258674, 0.272254, 0.061004, -0.137785, 0.259496, 0.261447, -0.771567, -0.340276, -0.732826, 0.018841, 0.133576, 0.011554, 0.637035, -0.006269, -0.668473, -2.31023, 0.144465, -0.13022], [0.028824, 0.004002, -0.02149, -0.018568, 0.01559, -0.019023, 0.032319, 0.013526, -0.041065, -0.04678, -0.012806, 0.041203, 0.041855, -0.022746, 0.029684, 0.04697, 0.034921, 0.020232, -0.013033, -0.028858, -0.044279, -0.038598, -0.00905, -0.030725, -0.000487, -0.015507, -0.008566, -0.052227, 0.011945, 0.015374, 0.006371, -0.025844, 0.030787, 0.017185, 0.012674, -0.025146, -0.003089, -0.044757, -0.011034, -0.04334, -0.048954, -0.032671, -0.001788, -0.017531, -0.012105, 0.038665, -0.031778, -0.023497, -0.041214, 0.042016], [0.948733, -0.094199, -0.152955, -0.036892, 0.364275, -0.151117, 0.076402, -0.264402, 0.051267, 0.180621, -0.164218, -0.890882, -0.103999, -0.158162, 0.178206, 0.030088, 0.021796, 1.0285, -0.315397, -0.004473, -0.015734, -0.058472, 0.061567, 0.181695, -1.27176, -0.016589, -0.318592, -0.035669, -0.232948, -1.03025, -0.032207, -0.023357, 0.052925, -0.093772, 0.058579, -0.126976, 0.320821, 0.164329, 0.532833, 0.249744, 0.227378, 0.043745, 0.134937, -0.190718, 0.424178, 3.6e-05, 0.386457, -0.003857, 0.051039, 0.314923], [-0.472979, 0.618328, 0.102777, -0.090976, 2.22048, 0.632058, -0.020215, -1.03451, 0.170324, -0.031178, 0.460348, -0.24646, 0.169504, -0.098001, 0.505061, -0.019365, 0.00863, 1.75902, 0.312085, 0.02369, 0.438197, 0.115554, 0.523105, -0.883825, 0.552126, 0.103141, 0.307028, 0.033509, 0.293125, 0.180162, 0.039486, 0.045048, -0.086672, 0.729944, 0.840952, -0.072129, 0.733088, 0.680142, -0.012883, 1.06203, -0.132151, 0.020952, -0.551711, 0.104044, -0.946303, 0.016439, 0.345522, 1.82221, -0.485747, -0.372297], [0.087013, -0.033504, -0.180954, -0.166339, 0.024498, 0.66945, 0.050161, -0.645505, 0.084261, -0.509517, -0.278211, -0.003778, -0.165925, 0.311542, -0.024531, 0.00561, 0.00395, 1.09839, 0.194876, 0.037888, 0.594502, 0.045, 0.271654, -0.174084, 0.090472, -0.022156, -0.250744, 0.043589, -0.359827, 0.183312, 0.03777, -0.020015, -0.054476, 0.155994, 0.620594, -0.325627, -0.10668, 0.412226, 0.149389, 0.378543, 0.637381, -0.016761, -0.047278, -0.006385, 0.054207, 0.049669, 0.261733, -0.141409, -0.151978, -0.23971], [1.51265, -0.83158, 0.211795, 0.281178, 1.00459, 1.81297, 0.054802, 1.61736, 0.556635, -0.387066, 1.04077, -0.462781, 0.462224, -0.629723, 0.830315, 0.005089, -0.001827, 4.86096, -0.072274, -0.043384, -0.26785, 0.155265, -0.479175, -0.227883, -0.466653, -0.110735, 0.883206, 0.032938, 0.738953, 0.646694, 0.005448, 0.039435, -0.370113, 0.654669, -0.292072, 0.302715, -0.317011, 1.2816, -0.309049, -0.256157, 0.902255, 0.005342, 0.131231, -0.131748, 0.290502, 0.014571, 0.039111, 1.59387, -0.939659, 0.248519], [-0.538693, 0.277713, -0.178068, -0.213778, -1.20093, 2.13561, -0.045204, 0.381555, -1.39122, 1.12532, -0.168678, 0.207233, -0.179992, 0.341554, 0.260863, -0.039014, -0.049728, -2.36072, 0.186151, 0.033811, 0.39864, -0.107409, 0.265111, -0.231686, -0.249378, -0.09598, 0.924035, 0.017474, -0.720086, 0.560702, 0.045221, 0.007971, -0.159331, -0.12686, 0.839517, -0.230576, -0.246365, 0.245408, -0.318749, -0.066622, 0.315998, -0.025324, 0.668972, 0.185504, -2.54902, -0.0454, 0.333871, 0.473374, 0.634005, -1.22124], [-0.474303, 0.102732, -0.053714, -0.166175, -0.116288, 0.005355, -0.042435, -0.017062, 0.007241, 0.396741, 0.000699, -0.025429, -0.197313, 0.12288, -0.107618, -0.045242, 0.002731, -1.42398, 0.283002, 0.011087, 0.281206, 0.028243, -0.108534, -0.04086, -0.366601, -0.008055, -0.09844, 0.012959, 0.167492, 0.007527, 0.019816, 0.000382, -0.083251, -0.070799, -0.021183, 0.011407, 0.183319, -0.835387, 0.160125, 0.292521, -0.175087, -0.003239, 0.089038, -0.198293, 0.121958, 0.014592, 0.197782, -0.805076, 0.19969, 0.155114], [-0.024587, -0.009628, -0.063873, 0.166668, 1.05902, 0.443222, -0.047725, -0.972768, -0.054616, -0.027287, 0.072723, 0.584844, -0.139224, 0.100059, -0.855146, -0.029083, -0.001747, -0.002852, 0.649839, 0.0076, 0.159141, -0.15484, -0.329012, 0.249569, 0.521966, 0.083803, 0.604638, -0.017962, -0.340886, -0.021602, -0.020252, 0.001284, 0.087525, -0.164077, 0.141168, 0.092546, 0.143065, -0.306117, 0.55009, -0.413611, -0.683754, 0.039031, -0.0574, 0.393769, -0.594578, -0.028309, -0.194229, 0.806924, -0.392743, -0.330478], [3.39629, -0.713287, 1.38157, -0.710004, 1.44318, 0.79012, 0.008516, 1.24286, -0.014653, 1.84364, 0.609496, 0.820326, 1.16006, 0.571034, -0.028558, 0.023848, 0.03182, 3.89414, -0.089143, -0.024044, -0.380184, 0.369189, 0.062779, 0.054555, -0.389167, 0.090603, 0.708581, -0.05267, 0.928901, -0.733983, 0.00614, -0.035368, -0.197323, 1.35353, 0.441724, -1.22337, -0.067659, 2.28283, -1.49648, 0.409159, -0.123828, -0.011771, 0.239688, -0.249377, -1.72021, -0.018629, 0.613414, 0.881051, -1.31064, 0.249601], [-0.064825, -0.082133, -0.072284, -0.039498, -0.01398, 0.456106, 0.03231, -0.490435, 0.226197, -0.044264, 0.142421, -0.494351, -0.024933, 0.365574, 0.236707, -0.036266, -0.000349, -1.21171, -0.748824, 0.010321, 0.048742, 0.026036, -0.287167, -0.024889, 0.112576, -0.005439, -0.17219, 0.042026, 0.248446, 0.292496, 0.031243, 0.047802, -0.041231, 0.439309, 0.252907, -0.1204, -0.076806, -0.240655, 0.318666, 0.086266, 0.409042, 0.023038, -0.071288, -0.1831, 0.230663, -0.019499, 0.154145, 0.386032, -0.168149, -0.251403], [1.03912, 0.122803, 0.787871, -0.577121, 0.472387, 0.000461, 0.043025, -0.048242, 0.408039, 1.10269, -0.140759, 0.892557, 0.63599, 0.480621, 0.759581, -0.000815, 0.018012, 0.190789, 0.796483, -0.023596, 1.44375, 0.059004, 0.816896, -0.090598, 0.66049, -0.265148, 0.141164, -0.030072, 1.02839, 0.664952, -0.043747, -0.017084, 0.107258, 1.3813, 0.374796, 0.06544, -0.088109, -0.868392, -0.034088, -0.31588, -0.852977, 0.005599, 0.123639, -0.958597, 0.035029, 0.038356, -0.189275, -0.947675, 0.533912, 0.319421], [-1.47866, 1.80233, -1.15678, 0.499767, -1.80329, -1.10784, 0.005637, -1.05199, 0.76875, 0.161376, -0.14269, -0.399581, -0.919915, -0.867369, 0.167351, -0.053657, -0.002945, -1.926, 0.181454, -0.038102, -0.433329, 0.052959, -0.340114, -1.19263, 0.660079, -0.235781, -0.378021, -0.036817, 1.61399, 0.863151, -0.017403, -0.037601, 0.722714, -0.480728, -0.3341, 1.00634, 0.121908, -1.12115, -1.68508, 0.427174, 0.992956, -0.015255, -0.550375, -0.865252, -1.36929, -0.007059, -0.378056, 2.48531, 1.04102, 0.026639], [0.1554, -0.438384, -0.407326, 0.063697, -0.307748, -0.376017, -0.046894, -0.140351, 0.059777, -0.499092, 0.072727, 0.150961, -0.18247, -0.031987, -0.082485, 0.003309, 0.012166, 1.02452, 0.177616, 0.017202, -0.027464, 0.134841, -0.344924, -0.080249, 0.249649, -0.070594, -0.042284, 0.005827, 0.577577, 0.132972, 0.024043, -0.046482, 0.248641, 0.521334, 0.285003, -0.24203, -0.063246, -0.284569, -0.618002, 0.215655, 1.96759, -0.043905, -0.042565, 0.014608, -0.192535, 0.024913, -0.324549, -0.379956, -0.161872, -0.129495], [0.428495, 0.547028, 0.487725, -0.271105, -0.748812, 0.875563, -0.018216, 0.6813, -2.13384, 0.608658, -0.352619, 0.829254, 0.159011, 0.378142, -0.258802, -0.042455, 0.011067, 3.38775, 0.549723, -0.01291, 1.50369, -0.000311, 0.344039, -1.43404, -0.704501, -0.072797, -0.423333, 0.043903, 0.229734, -0.39945, -0.012611, -0.013888, 0.016161, -0.31699, 0.583967, -0.41562, -0.481947, -0.134215, 1.26013, 0.04224, 1.04513, -0.028404, -0.178433, 0.474598, 0.152897, -0.045444, 0.708509, -0.609676, 0.305068, -0.489137], [0.559892, -0.215265, -0.135339, -0.050877, 0.625177, 0.363625, 0.031891, -0.648852, 0.623131, -0.756304, 0.459309, -0.338533, -0.578707, 0.188529, 0.114987, 0.01174, -0.048336, 1.52283, -0.139485, 0.007247, -0.463279, 0.406402, 0.115506, -0.030185, 0.134402, -0.189689, 0.040394, 0.012845, 0.463902, 0.236487, -0.010967, -0.026052, 0.038292, 0.978946, 0.922736, -0.564973, 0.439573, 0.556431, -0.473964, 0.110061, 0.80406, 0.01522, 0.059083, 0.023661, 0.564683, 0.035882, -0.016982, -0.179035, -0.225833, -0.223599], [0.011751, -0.08103, 0.01571, 0.048822, 0.049514, 0.022842, 0.00097, -0.018186, -0.081936, -0.042456, -0.042841, -0.047671, 0.074395, -0.107684, -0.00698, 0.040558, -0.027364, -0.001772, -0.029949, -0.009487, -0.028284, 0.037839, 0.062297, -0.03402, 0.003062, -0.082863, 0.01353, -0.025738, -0.061648, -0.031653, 0.023943, -0.033788, -0.075628, 0.014324, -0.027677, -0.062842, -0.080602, -0.073441, 0.022395, -0.031333, -0.043529, 0.007199, 0.010534, -0.00819, -0.03675, 0.013251, -0.001048, 0.016247, -0.072557, -0.081999], [-0.256454, 1.34339, 0.497283, -0.277094, -0.478647, 0.672314, 0.014569, -0.37063, -0.145786, -0.009979, 0.274779, 0.455184, -0.03718, 0.073634, -0.952784, 0.005435, -0.022463, -1.38277, 0.3093, -0.040478, 0.293133, -0.009306, 0.121728, 0.444439, -0.016403, 0.029305, 0.46101, 0.045654, -0.351121, -0.550059, -0.012413, 0.034545, -0.224087, 0.099058, -1.09658, -0.715748, -0.255432, 0.780302, 0.723396, 0.497314, -0.255456, -0.006019, 0.100266, -0.632639, 0.484828, 0.038723, 0.323781, 0.484377, -0.118967, -0.239658], [-2.1579, -0.604485, -0.898894, 0.607423, 0.865154, -0.170302, 0.04181, 0.130267, -0.196277, -0.087837, 0.097693, 0.405925, 0.244974, -0.101338, 0.328383, 0.031161, 0.028453, -2.28082, 0.468744, 0.038082, -0.187399, 0.145588, -1.13578, -0.426515, -0.160163, 0.309529, -0.180488, 0.001089, -0.621676, 0.210468, 0.013908, -0.025828, -0.088142, -0.800051, 1.84136, 1.01524, -0.641468, -0.713027, 0.057609, -1.10128, 1.12323, -0.022787, 0.146647, 0.766101, -1.09865, -0.030705, 0.123919, 0.596149, 0.033212, -0.218268], [0.406276, -0.461495, -0.39447, 0.02395, 0.062109, 1.2091, 0.000112, 1.03129, -0.285413, 0.421065, -0.139608, 0.715669, 0.591925, 0.27693, 0.76423, 0.026293, 0.022984, -0.195144, -0.778211, 0.015608, 1.67761, -0.341595, -0.064257, 0.376667, -1.25631, 0.207235, -0.761569, -0.036958, -0.696146, 1.22213, 0.04556, 0.03954, -0.322989, -0.636899, 0.424791, -0.239795, 0.017109, -0.038542, 1.16208, 0.486471, 0.421423, 0.037852, 0.130732, -0.840087, 0.136349, 0.038764, 0.989351, 0.531757, -0.123308, -0.424391], [0.547581, -0.045975, -0.017994, -0.503552, -0.617482, 0.444371, -0.015471, 1.05416, 0.064841, 0.273264, -0.18443, -0.890856, 0.063179, -0.081097, 0.552479, -0.039825, -0.008016, 2.37312, 0.112875, -0.011405, 0.300746, 0.037573, 0.097918, -0.446651, 0.315351, -0.305879, 0.028236, -0.01786, 0.450923, 0.376604, 0.022998, 0.005225, 0.021122, 1.41386, -0.26509, -0.046651, -0.255847, 0.38608, -0.402426, -0.15108, 0.775568, 0.023894, -0.151834, -0.081565, 0.61271, -0.012276, 0.052231, 1.01007, 0.067202, 0.348611], [0.060641, 0.145765, -0.025482, -0.247761, 0.684505, -0.127402, -0.002356, 0.618363, 0.428208, -0.067183, 0.063205, -0.02651, 0.062887, 0.854593, -0.909203, 0.001722, 0.03359, 0.064998, 0.020877, 0.020846, -0.12898, -0.335184, 0.399419, 0.565385, -0.522359, 0.212247, -0.117489, 0.000656, -1.082, 0.497289, -0.045424, 0.021238, -0.23673, -0.148244, 0.058754, -0.05741, -0.364734, -1.08885, 0.869828, -0.040987, 0.076148, -0.031705, 0.215082, 0.200121, -0.235836, 0.033935, 1.65213, 0.260043, -0.060508, -0.230694], [-0.128702, -0.242582, -0.059661, 0.59006, 0.416208, -0.155348, -0.009233, 3.11286, 0.243671, 0.266401, -0.649728, 0.252893, 0.177378, -0.957566, -0.088992, -0.05019, 0.002804, -2.04965, -0.878337, -0.051382, -0.014879, -0.152094, -0.545945, -0.153642, 0.128735, 0.01715, -0.660813, 0.011613, 0.19386, 0.848951, -0.016549, 0.001774, 0.095871, -0.052928, 0.196115, 0.084616, -0.049901, -0.351278, -0.740258, 0.524371, 0.579517, -0.018329, 0.164887, -0.382581, 0.331103, -0.001417, 0.359385, 0.273426, 0.737974, 0.218389], [0.178312, -0.199109, 0.025107, 0.127511, -0.013822, -0.160825, -0.029986, 0.06471, 0.022455, 0.355475, -1.22059, -0.099215, 0.53394, -0.180077, -1.19734, 0.012776, -0.021615, 0.060855, 0.127423, 0.008219, 0.998874, 0.137889, -0.119494, -0.335628, -0.039481, -0.082392, -0.142475, -0.01911, 0.915495, -0.66321, -0.048869, 0.039237, 0.242657, 0.32448, -0.048292, -0.104809, -0.143766, 0.687089, 0.215882, -0.557669, -0.823758, -0.037312, -0.184065, -0.612523, -0.909976, 0.027503, -0.113922, -0.402966, -1.62141, 0.119348], [-1.54253, 0.981956, -0.992576, -0.231464, 0.098289, -0.031976, 0.004362, 0.944925, 0.829795, -0.625684, 0.416533, -0.126505, -0.525921, 0.032607, 0.667398, 0.017455, -0.010241, 1.84901, 0.454702, 0.04946, -0.377969, -0.172228, -0.014763, -0.602133, 1.23927, -0.657827, -0.019063, -0.008881, -0.109942, 0.387984, -0.045493, -0.036757, 0.199036, 0.49549, 0.804427, 0.525368, -0.002627, 0.285616, -0.80358, 0.897893, 0.123627, -0.023829, 0.047918, -0.156954, 0.149961, 0.04327, -0.262422, -0.385196, 0.500412, -0.283258], [0.078553, -0.03449, -0.054868, -0.111962, 1.12512, 0.186642, 0.045703, 0.828379, 0.466119, 0.406958, 0.663999, 0.488543, 0.272694, 0.177783, -0.016299, 0.018159, 0.040108, 1.24884, -0.293028, -0.011785, 0.197415, 0.279497, -0.418, 0.178726, 0.002586, 0.037595, -0.505915, 0.002922, -0.167824, -0.021603, 0.008816, -0.015508, -0.213258, 0.008031, 0.22755, -0.438982, 0.21883, 0.397514, 0.350062, 0.479476, -0.630117, 0.044267, -0.082405, 0.269857, 0.300685, 0.016262, -0.003591, -0.152156, -0.168758, 0.621297], [0.026124, 0.009423, 0.034004, -0.033192, -0.021878, -0.023555, 0.022464, 0.041619, -0.063271, -0.011749, -0.048251, -0.002879, 0.057979, -0.039049, 0.003257, 0.018427, 0.040625, -0.026001, -0.015884, -0.039931, -0.022414, -0.053305, -0.01842, -0.012187, 0.007031, 0.04368, 0.001106, -0.024241, 0.024419, 0.049293, -0.015369, -0.0051, -0.068746, -0.055978, 0.059018, -0.088072, -0.047373, -0.027465, -0.010672, -0.015736, -0.023872, -0.021767, -0.010116, -0.011717, 0.029992, 0.043117, 0.038008, 0.055545, 0.025391, -0.064149], [0.859744, -0.67132, -0.63024, -0.071763, -0.179597, 0.414412, -0.008537, -0.173479, 0.13402, 0.364058, 0.171687, 0.126126, -0.826682, 0.119292, -0.047162, 0.037066, -0.017068, -0.671952, 0.025358, -0.002053, 0.636261, 0.066087, -0.648912, -0.494241, -0.305418, 0.017771, -0.022603, 0.004479, -0.427087, 0.29431, -0.045636, 0.042041, 0.472662, 0.355331, 0.237698, -0.305139, 0.08225, -0.374972, 0.755924, 0.989104, 0.093143, -0.01985, 0.440588, 0.068532, -0.08468, -0.016142, 0.123274, -0.187188, -0.472707, -0.460024], [0.474075, 0.435023, 0.079397, 0.188509, -2.07395, -0.339616, -0.052064, 3.36282, 0.541148, 0.49699, -1.8236, -0.915803, 0.002883, 0.602573, -1.345, -0.010845, -0.02659, -1.49338, -0.688151, 0.001132, 0.864226, -0.275697, -1.28506, 0.579045, 0.141397, -0.168639, -1.89771, -0.041481, 0.244703, 0.302184, 0.012886, -0.04622, 0.139876, -0.25218, 0.237567, 0.542893, 0.1349, 0.485938, -0.849981, -0.369932, -0.085667, 0.004537, -0.393139, 0.082823, 0.395678, -0.048886, -1.24193, 0.841593, 0.103289, 0.214939], [0.195777, 0.459974, -0.670041, -0.071581, -0.717529, 1.24305, -0.025108, -0.913092, 0.372211, -0.141914, -0.182088, 0.13101, -0.025588, 0.308477, -0.506084, -0.015444, 0.004532, 1.53808, 0.484182, 0.029577, 0.331722, -0.024148, 0.310354, -0.930163, -0.264541, 0.015284, 0.599798, -0.04105, 0.554928, 0.454376, -0.036826, 0.046861, -0.242911, 0.392268, -0.360618, -0.320607, 0.090857, -0.404991, -0.785689, 0.534297, 0.061386, 0.042294, -0.216128, 0.075673, 0.924088, -0.033379, -0.060187, -0.030681, 0.49478, -0.072319], [0.901542, 0.073023, 0.150582, -0.123037, -0.220807, 0.028493, -0.035761, -0.349471, 0.729401, -1.14262, -0.145144, -0.449225, 0.542143, -0.021585, -0.130635, 0.009417, 0.007229, 1.49864, 0.632532, 0.000352, -0.131728, -0.222085, 0.056169, -0.500532, 0.157851, 0.008785, -0.03104, -0.012072, 0.036999, 0.371885, 0.019526, 0.022248, 0.199236, 1.36543, -0.192522, -0.462627, 0.698917, -0.199816, -0.169057, -0.12031, 0.188064, 0.015381, -1.06693, 0.586498, 0.306709, 0.02702, 0.304603, 0.251414, -0.392733, -0.847252], [0.284721, 0.519275, 0.315451, 0.529312, -0.072239, 1.72338, 0.035007, 1.40959, 1.45723, 0.711178, 0.073059, 0.130203, 0.962913, 0.387843, 1.42997, -0.016885, 0.033094, 2.99182, 0.67594, -0.045214, -0.077795, -0.302899, 0.633649, 0.233055, 0.276946, -0.119248, -1.68951, -0.02476, 0.325307, 2.02561, 0.038924, 0.023308, -0.067341, 0.882159, -0.8907, -0.914387, 0.584388, 0.153661, -1.02415, 0.948057, -1.57097, 0.039603, 0.223642, 0.229784, 0.650133, -0.02234, 1.16409, -0.986818, 1.76717, -0.254507], [0.243684, -0.058348, -0.356716, -0.172825, 0.016421, 0.072116, -0.041299, 0.676994, 0.448239, -0.140821, 0.362675, 0.248197, 0.387851, -0.065788, 0.398179, -0.043773, -0.016935, -1.04903, -0.105448, 0.037848, 0.206389, 0.170009, -0.278809, -0.42324, 0.16899, -0.305835, -0.346048, -0.031284, 0.141644, 0.260804, 0.008411, 0.00296, 0.213891, -0.183429, 0.103068, 0.057868, 0.307554, 0.089015, -0.047975, -0.229295, -0.309566, 0.025377, -0.04839, -0.097938, 0.270907, 0.023038, 0.029892, 0.050052, 0.003412, -0.446742], [-0.821222, 0.198041, 0.445729, 0.242093, 0.105863, 1.02663, -0.019192, -0.407417, 0.510142, -0.207574, 0.374445, 0.074601, 0.679254, -0.798621, 0.060399, -0.00053, -0.009453, -0.168824, -0.388315, -0.035716, 0.346669, -0.288017, 0.244382, 0.199758, -0.102767, 0.132047, -1.16484, -0.028018, -0.492106, -0.841124, 0.047892, -0.037586, 0.184361, -0.998585, -0.964259, -0.289492, -0.294909, -0.14873, 0.31013, 0.138613, -0.705123, 0.041352, -0.566809, -0.790821, 0.198936, 0.007326, -0.190275, -0.80426, 0.187926, 0.102737], [-0.123241, 0.207707, 0.204291, -0.511472, 0.224356, 0.839053, -0.040317, 0.314439, -0.322894, 0.833938, -0.320197, -0.797169, 0.326091, 0.485912, 0.487335, 0.01498, -0.034092, -2.18799, -0.075401, 0.002113, 0.703619, -0.22715, -0.014093, -0.274242, 0.18396, -0.16743, -0.105865, 0.017975, 0.793284, 0.383481, -0.027095, -0.029571, -0.014017, 0.942351, -0.004459, -0.17873, -0.025599, 0.387181, 0.168293, 0.082561, -0.154927, -0.018278, -0.280825, 0.098906, 0.175886, 0.008685, -0.256875, -0.540236, 0.231174, 0.134541], [-0.141063, 0.078347, 0.287072, -0.357076, -0.308317, -0.573629, 0.028969, 0.115791, -0.653765, -0.48342, 0.204791, -0.043939, 0.233572, 0.370109, -0.107326, 0.022267, 0.01176, 0.010018, 0.170812, -0.015047, -0.232858, -0.026134, 0.099961, -0.310461, -0.316027, -0.075346, -0.100015, -0.021348, 0.129158, -0.195144, -0.023131, -0.025068, -0.058877, -0.002767, -0.169076, 0.241472, 0.117699, 0.002651, 0.096271, 0.049071, -0.930882, 0.016907, 0.169857, 0.233641, 0.223395, -0.013369, -0.601081, -1.0239, 0.021465, -0.203486], [0.455449, -0.00368, 0.56067, 0.067406, -0.141101, -0.292795, 0.001833, 0.640773, -0.039389, -0.080015, -0.275084, -0.498646, 0.210989, 0.002884, 0.487818, -0.038794, -0.019681, 1.14652, -0.432096, -0.030231, 0.45428, 0.063246, -0.135002, 0.07425, -0.556588, -0.093514, 0.327368, 0.024554, 0.303388, -1.02538, -0.013004, -0.047805, 0.012025, -0.160267, -0.278578, -0.058314, 0.052141, 0.365919, -0.423913, -0.323459, -0.938589, -0.008292, 0.068397, 0.072616, 0.128855, -0.002138, -0.089493, -0.28053, 0.107039, 0.222911], [0.151612, -0.185873, -0.110386, -0.139754, -0.040351, 0.203336, -0.04331, -0.097694, 0.145842, 0.109717, -0.382549, 0.075214, -0.011544, 0.159053, 0.511215, -0.020813, -0.044707, 0.412202, 0.176023, -0.019462, -0.287403, -0.008346, 0.105855, 0.131385, 0.46073, -0.099508, -0.027059, 0.042629, 0.071271, 0.206294, 0.043682, 0.001734, 0.049181, 0.158095, -0.011883, -0.094024, -0.077132, 0.113624, 0.035645, -0.259282, 0.22248, 0.02252, -0.022569, -0.102934, 0.280738, -0.013117, -0.096544, -0.403356, -0.013466, -0.038117], [-0.261807, -0.583456, -0.22971, 0.299139, 1.04831, 0.514913, 0.002447, -0.47966, 0.235552, 0.072522, -0.072127, 0.107866, -0.347173, -0.076878, -0.592593, 0.019186, -0.035643, 0.159252, -0.41274, -0.033276, -0.603519, -0.019917, -0.930785, 0.068244, -0.365664, 0.189403, 0.173269, -0.017917, -0.579106, -0.323705, 0.011963, 0.037861, 0.106618, 0.221372, 1.05026, 0.239252, 0.324159, 0.90388, 0.494129, 0.280978, 0.424989, 0.038248, 0.43859, -0.070644, -0.329687, 0.043635, 0.337782, -0.467577, -0.032353, -0.001135], [0.032051, -0.337105, 0.285065, 0.19077, -0.068525, 0.220052, 0.059946, 1.02447, -0.261581, 0.531584, -0.32594, 0.476992, 0.183741, 0.127262, -0.479122, 0.005989, 0.009398, 0.318067, -0.403708, -0.030854, 0.61679, 0.133186, 0.227756, 0.280146, 0.272556, 0.141527, 0.11365, 0.015335, -0.377883, -0.019354, 0.003883, -0.001, 0.03129, 0.257131, 0.110105, 0.165034, -0.178908, 0.681804, -0.053501, 0.092201, -1.51853, -0.00982, 0.221014, -0.062232, -0.692947, 0.033923, 0.072866, -0.369837, 0.125155, -0.031589], [0.183017, 0.062267, -0.065388, 0.036554, 0.297769, 0.419588, 0.033225, 0.11482, 0.225183, -0.507389, -0.017483, 0.119019, -0.32994, -0.086117, 0.293002, 0.046011, -0.04589, 0.647885, -0.206693, -0.001973, 0.05735, -0.00229, 0.15641, -0.02267, 0.636294, -0.105437, -0.490735, -0.006087, -0.250857, 0.375853, -0.004145, 0.010039, 0.0478, -0.045946, 0.075012, -0.094675, 0.184069, 0.374802, 0.117654, -0.29493, 0.026177, -0.037605, -0.204075, 0.021232, 0.061808, 0.044494, 0.300577, 0.252117, -0.20637, -0.088664], [-0.142431, 0.530554, 0.152446, -0.105442, 1.0514, -0.156569, -0.02834, -0.586499, 0.217484, -0.671469, -0.304566, -0.268057, -0.882166, 0.008087, 0.629259, 0.023325, 0.044019, 1.55943, 0.153147, -0.027652, -0.849763, 0.191656, -0.437878, 0.04157, 0.719787, -0.242215, 0.661327, 0.015869, -0.010727, 0.201871, -0.025891, 0.034194, -0.026751, 0.10267, -0.424823, 0.074467, 0.168255, 1.0481, -0.094075, 0.517816, 0.129871, 0.042884, 0.426401, 0.262199, -0.105429, 0.040085, -0.148664, 0.788776, 0.569122, 0.660096], [-0.938253, 0.113579, -0.413584, 0.089631, 0.431057, 0.059763, 0.000322, 0.134934, 0.035448, 0.246539, 0.341788, 0.234903, -0.067895, -0.019481, -0.35902, -0.046977, 0.027459, 0.041708, 0.652804, 0.034249, 0.113492, 0.062191, 0.087439, -0.39594, -0.047811, 0.204816, 0.509162, -0.015983, -0.098609, -0.022575, 0.001687, -0.005229, -0.220141, -0.021948, 0.309757, -0.121334, 0.252871, -0.153297, 0.13797, 0.237206, 0.573595, 0.007499, 0.053833, 0.022427, 0.040095, -0.000262, 0.029691, 0.24426, 0.203844, 0.093355], [0.077764, -0.008589, 1.15292, 0.216647, -0.428189, -2.15439, -0.02494, 1.15641, 0.1135, -0.151474, -0.164966, 0.495832, -0.014574, 0.344796, -0.085929, 0.006328, 0.030698, 1.07864, 0.112363, -0.051573, -0.282575, -0.43117, -0.045613, 0.614732, 0.059053, -0.159323, -0.243069, -0.032671, -0.410823, -1.11022, 0.059375, -0.003257, 0.061878, 0.900667, 0.994171, 0.083932, -0.2291, -0.65655, -0.220643, -0.055342, 1.17318, 0.043135, 0.573675, -0.529969, -0.031051, 0.022415, 0.266285, -0.214763, 0.138806, 0.144032], [1.55097, -0.432732, 0.70617, 0.028963, 0.653669, 1.9373, 0.002132, 1.87388, -0.182197, 1.44136, 0.13334, -0.286771, 0.73481, 0.731605, -0.540666, 0.028189, -0.037113, 0.15471, -0.049119, 0.039928, 0.225164, -0.103629, -0.199341, 0.248275, -0.306534, -0.088092, -0.127531, -0.006965, 0.699662, -0.778177, -0.034652, 0.022644, 0.256179, -1.20034, 0.370066, -0.364305, -0.29451, 0.956616, -0.843365, 0.286229, -2.10717, -0.006902, -0.09828, 0.403914, 0.060899, 0.038888, -0.876239, -1.78412, -0.429353, 0.154029], [1.21714, 0.240385, 0.189652, 0.067075, 1.33604, 0.522536, -0.001626, 0.412719, 0.465769, 0.103906, -0.012426, -0.245437, 0.074738, -0.134889, 1.67033, -0.025155, 0.027433, 2.42298, 0.089937, 0.024441, 0.050538, -0.169282, -0.079622, -0.317147, -0.2074, -0.10834, -1.22465, 0.030285, -0.171524, -1.13862, -0.007621, -0.013084, 0.226954, 0.561822, 0.121797, -0.143777, 0.189256, -0.494243, 0.265926, -0.226672, -0.049465, -1.5e-05, -0.114699, 0.086533, 0.807072, 0.000857, 0.645999, 0.425946, -0.485347, 0.1034], [0.324771, -0.225056, 1.23038, -0.344085, 0.013827, 0.832924, 0.004168, 0.911589, -0.223055, 0.51564, -0.063989, 0.604215, 1.13231, 0.32562, 0.610942, -0.043443, -0.037105, 0.341359, 0.177462, 0.034147, 1.16399, -0.01193, 0.38903, -0.229163, -0.084973, -0.225861, -0.225983, 0.016215, -0.208969, 0.536723, -0.022528, -0.015443, -0.301168, -0.378452, -0.379892, 0.391562, 0.089448, -0.081085, -0.040548, -0.077333, -0.261193, 0.015339, -0.028156, -0.211376, 1.29574, -0.014153, -0.33385, -0.293484, 0.465389, -0.121986]], [[0.701743, 0.594447, -0.179715, 0.336848, -0.005809, 0.9946, -0.457372, 0.787018, -0.479902, -0.058783, 0.430532, 0.038581, -0.019538, 0.158826, 0.101185, 0.09548, 0.094325, -0.19599, -0.169989, 0.003178, 0.421898, -0.12713, -0.303732, 0.967986, -0.155392, 0.824857, -0.449581, 0.058328, -0.726143, -0.02414, 0.135816, -0.405441, -0.487896, 0.716167, -0.001205, -0.321822, 0.035101, -0.217424, -0.155391, -0.002682, 0.537006, -1.05767, 0.354553, 0.585489, -0.274648, 0.424485, 0.118301, 0.482661, -0.288258, 1.45853], [0.34858, -0.394289, 1.09637, -0.919233, 0.022907, 0.487481, -0.060395, -0.637114, -0.055464, -0.369863, -0.140702, -0.426324, 0.389942, -0.719709, 0.072858, 0.307771, -0.35408, 0.552995, 0.472515, -0.007053, 0.178127, 0.015769, 1.20415, -0.003138, -0.235601, 0.088787, 0.299547, -0.205251, 1.5028, 0.026037, 0.554755, 0.040519, -0.074263, -0.047011, 0.188266, -0.808573, 0.207784, -1.00973, 0.420011, -1.29286, -0.341527, -2.01792, 0.223123, 0.494249, 0.221478, -0.059652, -0.243741, -0.03949, -0.061791, -0.4073], [-0.399776, 0.312751, -1.2317, 0.822369, 0.012183, -0.560106, 0.070687, -0.347486, 0.009648, -0.507707, 0.081819, 0.048248, -0.344933, 0.054134, 0.400091, -0.094066, 0.103723, -0.79083, -0.09388, -0.033616, 0.743372, -0.173669, -0.838858, 0.04008, 0.744344, 0.281165, -0.254792, -0.054642, 0.369702, -0.023059, 0.656851, 0.142157, -0.840129, 0.442603, -0.088924, 0.730802, 0.196479, -0.155461, -0.186865, 0.259943, 0.494347, 0.021109, 0.114147, 0.5958, 0.078079, 0.449702, -0.039426, -0.332622, -1.32835, 0.443098], [0.174819, -0.100134, 1.01915, -0.019411, 0.044652, 0.18572, -0.021394, -0.238651, 0.720559, 0.416507, -1.74313, 0.676969, 0.927348, -0.30985, -0.28272, 0.368995, 1.44208, 0.340108, 0.462848, -0.021382, 0.936744, -0.346818, -0.130493, 1.94363, 0.446388, -0.356074, -0.072806, 0.077713, 0.77941, 0.0474, 0.085699, -0.15043, -0.28996, -0.524332, -0.709727, 0.359895, 0.233086, 0.509982, -0.759477, 1.30737, 0.074227, 0.499495, -0.507853, -0.092897, -0.200298, 0.032427, 0.30346, -0.159813, -1.10737, 1.7309], [-0.202447, 0.475318, 0.433925, 0.11614, 0.02417, 0.461595, 0.11088, 0.208747, -0.034984, 0.103602, 0.07527, 0.44508, -0.329781, -0.013248, -0.271345, 0.173067, 0.182875, 0.27095, 0.49776, 0.041837, 0.025125, 0.109063, -0.647162, -0.019888, 0.140382, -0.041028, 0.232813, -0.016567, 0.023582, 0.02306, 0.08436, -0.15159, -0.128369, 0.06326, -0.287769, -0.184121, 0.13805, -0.032293, 0.124203, 1.08125, 0.352826, -0.222652, 0.109923, -0.093839, -0.099394, -0.47986, -0.368921, 0.257807, -0.264042, 0.737331], [0.227765, 0.251082, 0.066304, -0.34852, 0.000685, -0.811128, -0.164826, 0.219288, 0.166198, -0.133702, 0.624078, 0.384671, -0.180065, 0.87133, -0.863993, 0.257876, 0.689493, 0.049328, 0.023142, -0.028734, 0.310148, 0.035598, 0.766938, -0.027844, 0.392344, -0.240833, 0.190046, 0.224334, 0.560474, -0.018981, -0.179823, -0.272609, 0.881139, 0.649594, 0.108137, -0.523318, -0.768127, 0.319809, 0.382519, -0.104147, -0.290843, 0.303417, 0.225718, 1.64526, 0.267104, -0.388482, -0.148707, 0.074563, 0.558222, -0.274951], [0.321628, -0.21112, 0.423717, -0.342352, 0.027443, -0.668699, 0.189823, -0.287553, 0.073685, 0.043479, -0.633107, -0.684717, -0.19225, 0.155621, 0.342914, -0.024329, 0.435542, -0.292147, -0.369215, -0.023974, 0.278503, -0.214939, -0.132313, -0.075214, -0.322786, -0.161778, -0.111684, -0.166444, 0.714323, 0.050817, -0.068283, 0.047183, -0.170797, -0.279256, 0.002682, -0.214941, 0.146137, 0.268557, 0.127801, -0.60444, -1.0714, -0.342654, -0.045839, -0.220649, 0.04625, -0.269955, -0.04268, 0.17562, 0.719886, 0.209875], [-0.639225, 0.798589, 1.0559, 0.876207, -0.026425, 2.0225, -0.145433, 2.45696, -0.540947, -0.361121, -0.698654, 0.330349, -0.779706, -0.570068, -0.760326, -0.117467, -0.115542, -0.374767, -0.093553, 0.057299, -0.494278, -0.314367, -0.106784, -0.415903, -1.28776, 0.524836, 0.864759, -0.012277, 0.164894, 0.009099, 0.305463, 0.392202, -0.086658, 1.59128, -0.109851, 0.966882, 0.320367, 0.669984, 0.453551, -1.98919, 0.048765, 0.166091, -0.324894, -0.042848, 0.003831, 0.493741, 0.307158, -1.09965, -1.00469, 0.1092], [-1.33297, -0.076381, 0.853762, 0.223883, 0.003436, 3.39056, -0.841351, 1.16247, -0.534479, -0.092175, -0.08174, -0.012954, 0.642946, -0.580975, -0.810939, 0.284054, -0.100733, -0.433611, 0.58541, -0.029147, 1.78163, 0.494978, 0.864832, 1.13945, 0.869415, 1.05782, 0.992977, -0.963364, -1.0762, -0.007376, 1.34516, -2.74412, 0.181318, 0.365889, 0.800346, 2.6926, 0.756657, 1.79284, 1.4198, -1.89276, 2.51759, -2.21879, -0.70857, 3.39036, -0.05272, 0.302885, 1.0774, -0.094897, 0.905192, -0.585173], [0.562239, -0.292951, 0.403855, 0.608164, -0.008636, 0.47058, 0.003655, -1.35528, -0.031622, -0.030368, 1.41049, 0.425189, 0.882227, 0.022775, -0.06222, -0.16247, -0.266543, 0.580107, 0.558445, 0.040443, -0.408463, -0.180838, 0.590833, 2.0939, 0.411815, -0.196518, -0.400398, 0.191077, -0.059315, -0.045406, 0.484183, -0.067695, -0.675382, -0.894954, -0.836889, -0.523199, -0.359361, -0.321525, -0.660576, -0.498047, 0.978153, 0.184522, 0.371425, 0.116952, 0.010989, -0.209724, 0.121841, 0.8313, 0.472089, 0.532783], [0.035139, 0.02773, -0.016845, -0.048485, 0.011652, -0.009614, -0.00923, -0.019956, -0.045747, -0.019667, -0.010298, -0.041784, 0.037369, -0.027485, -0.013205, 0.007353, -0.017842, -0.028053, -0.029005, -0.024826, -0.018865, -0.041616, -0.037089, 0.023514, 0.018002, 0.023782, -0.026447, -0.058017, -0.033133, -0.046076, 0.047722, 0.034869, -0.015834, 0.005669, -0.006312, -0.017481, 0.007069, -0.015398, 0.031034, -0.035459, 0.034902, 0.00945, -0.051298, -0.014654, -0.042242, -0.008721, 0.001312, -0.046032, 0.000939, -0.03093], [-0.196216, 0.928871, 1.83709, -0.016221, -0.008036, 0.318471, -0.062336, -0.129364, -0.299967, -0.210543, 0.957124, 0.746036, -1.12138, -0.642367, -0.425549, 0.324167, -0.093258, 0.753928, 1.51223, 0.010512, 0.630144, -0.144192, -0.274035, 0.384082, 0.341787, -0.207252, -0.271179, -0.244733, 0.340888, 0.017894, 0.185064, -0.402737, -0.308134, -0.019662, -0.102083, 0.609065, 1.05246, -0.99671, 0.828317, 0.894389, 1.30274, -0.372708, 0.434463, -0.110333, 0.393898, 0.069154, -0.953071, 0.01444, -0.431814, -0.750875], [-0.11858, 0.033213, -0.448009, -0.012453, 0.000127, -0.264666, -0.066415, -0.089102, -0.17579, 0.086529, 0.123948, -0.073687, 0.555274, 0.178556, -0.294516, -0.106536, -0.078031, 0.152856, 0.032868, -0.005073, 0.160498, -0.17478, -0.017215, -0.443889, 0.254803, -0.015001, -0.312107, 0.025836, 0.143347, 0.05204, 0.190625, -0.048353, 0.180961, 0.184842, -0.150275, 0.160151, 0.011063, 0.259578, -0.066082, -0.122431, -0.024017, -0.009032, 0.084951, -0.296031, -0.082059, -0.148425, -0.073954, 0.02874, -0.521923, -0.37869], [0.000662, -0.705572, -0.385309, 0.567492, 0.018775, 0.744867, -0.088356, 0.706636, 0.219459, 0.035068, 0.44986, 0.295686, -0.327083, 0.574626, -0.405006, -0.036941, -0.098878, -0.137733, 0.307683, 0.012473, 0.420751, -0.211366, 0.370202, -0.129057, 0.158723, -0.268779, -0.111184, -0.052954, -0.654621, -0.030098, -0.155198, -0.187397, -0.041463, -0.438335, 0.786327, 0.144409, 0.178173, -0.585147, -0.216781, -0.725906, -0.747259, 0.18366, 0.139953, 0.774657, -0.010256, 0.182012, -0.222078, -1.20161, -0.962504, -0.872224], [0.043829, 0.019764, -0.024416, 0.097674, 0.004963, -0.031583, 0.030401, 0.099998, 0.03918, 0.192059, 0.072406, -0.032556, -0.113422, -0.014927, -0.111105, -0.114766, 0.045201, 0.004595, 0.067723, 0.057789, -0.062813, 0.136662, 0.130755, -0.056864, -0.174812, 0.005738, 0.032905, -0.13874, 0.050911, 0.011771, 0.041482, -0.112817, -0.042633, -0.006574, -0.019131, 0.062254, 0.03981, 0.007158, -0.051518, -0.316, 0.016223, 0.016148, -0.039227, -0.026017, -0.039263, -0.02165, -0.078831, -0.002186, -0.052502, -0.066035], [-0.46103, -0.158156, -0.816657, 0.459541, 0.047324, -0.32015, -0.085625, 1.0811, -0.109921, -0.179262, -0.754315, -0.630787, -0.60165, -0.531393, -0.063872, 0.050138, 0.63302, 0.375223, -0.319465, -0.026781, 0.752456, -0.123517, 0.243341, -0.113222, -0.518806, -0.637931, -0.859304, 0.273462, 0.820119, 0.026214, -0.160962, 0.03815, -0.477629, -0.636059, 0.18815, -0.051252, -0.464964, 0.400993, -0.038577, 0.46942, 0.081096, -0.099384, -0.780043, -0.309103, -0.030949, 0.46719, 0.205711, -0.673085, 1.60524, -0.111111], [-0.299639, -0.130717, -0.361067, 0.15326, -0.014833, 0.243569, -0.153224, -0.215759, -0.478629, -0.755108, 0.394067, 0.130855, 0.78733, 1.36637, -0.809527, -0.191209, -0.620411, -0.665031, 0.903891, -0.031125, 0.644106, 0.273818, 0.110935, -0.369691, 0.418468, -0.311706, -0.073123, -0.289626, -0.321746, 0.003193, -0.437678, 0.269252, -0.139953, -0.102821, 0.265427, 0.083852, 0.385387, -1.14218, -0.963571, -0.805784, 0.530119, 0.077101, 0.01847, -0.131974, 0.396238, 0.639092, 0.169268, 0.004724, 0.524064, -1.56849], [0.317082, 0.307122, 2.03649, -0.307491, 0.021231, 0.665059, -0.813363, 0.894555, 0.700392, 0.189218, -0.218854, -0.010415, 0.72185, 1.2624, 0.226921, 0.107186, 0.767438, 0.382043, -0.119076, 0.091122, 0.007975, 0.001316, 1.34554, 1.28296, 0.868053, -0.365694, 0.136382, -0.195237, 1.01107, -0.002795, -1.2005, -0.059512, 1.33173, 0.757957, -0.371601, -1.06946, -0.596363, 0.193103, 0.744618, 0.925915, 0.473274, 0.445995, 0.186122, 0.936522, 0.322925, 0.132758, 0.188505, 1.90385, -1.1961, 1.22616], [-0.528221, 0.609157, -0.134802, 0.262402, 0.000233, 0.296153, 0.466128, -0.87402, -0.381951, 0.279979, 0.333148, -0.52351, 0.277438, -0.020388, 1.14046, -0.17858, 0.117726, -0.584223, -0.141231, 0.088461, 0.165994, 0.00496, -0.367116, -0.231785, 0.43659, -0.275584, -0.03274, -0.232784, -0.145424, 0.009326, 0.078111, 0.22614, -0.255188, -0.798311, -0.358386, 0.733859, 0.618872, -1.02668, -0.10162, 0.706981, 0.857463, -0.559565, 0.220989, 0.482407, 0.048027, 0.377695, 0.104263, -0.01659, -0.711535, -0.350419], [-2.41469, 0.279986, -0.33251, 1.75777, 0.010431, 0.515534, -0.070914, 1.14636, 0.290346, -0.062244, 0.650944, 0.190394, 0.08847, 0.288644, 0.119899, 0.209748, 0.25766, -0.046246, 0.096348, -0.014935, -0.222133, 0.08952, 0.311293, 0.234525, -0.04498, 0.335827, 0.262739, -0.117653, -0.486407, 0.000954, -0.539382, -0.201821, -0.445475, -0.160196, -0.276592, -3.22396, 0.402411, -0.698918, 0.747052, 1.51073, 1.65157, -0.483719, 0.102566, 1.18261, -0.328853, -0.156715, -0.587719, 0.040019, -0.628389, -1.27856], [0.005636, -0.031126, -0.031435, 0.017289, -0.031115, -0.02139, -0.037598, 0.037444, -0.013402, 0.008142, -0.044602, -0.042075, -0.014204, 0.028511, 0.021315, -0.054373, -0.025322, -0.047936, 0.0334, 0.002396, 0.017859, -0.059278, -0.023728, 0.03195, 0.047053, -0.023186, 0.043639, -0.013247, 0.036861, -0.009402, 0.026774, 0.02454, -0.044369, 0.020534, -0.003291, -0.010714, 0.002139, 0.014333, -0.029096, -0.029167, 0.02, -0.003204, 0.02659, 0.006485, 0.003779, -0.007849, -0.010295, -0.044887, -0.034873, -0.036298], [-0.050831, 0.268422, -1.0041, 0.261373, 0.001293, 1.83307, -0.319871, -0.698115, -0.098415, 0.252506, 1.18976, 0.586098, 0.58587, 0.860893, -0.095714, 0.04184, 0.548842, 0.235077, 0.209218, -0.028366, -0.463634, -0.234305, 0.648626, -2.51339, 1.19611, -0.89998, 0.097951, -0.086079, 0.984462, 0.01602, -1.44684, -0.12654, 0.583149, 0.737071, -0.018544, 0.271441, -0.152905, -0.30421, 0.695137, 0.134594, 0.641559, 0.052783, 0.405929, 0.89567, -0.200113, -0.107865, 0.353381, 1.0118, -0.480822, -0.615235], [-0.144642, 0.178198, 0.210893, -0.196822, 0.003151, 0.315749, -0.188394, -0.236622, -0.017147, 0.054616, 0.302239, 0.082857, -0.201715, -0.225144, -0.027179, -0.040144, 0.180739, 0.173723, -0.158456, -0.056672, -0.010049, -0.097223, 0.086217, 0.147653, 0.087429, 0.10754, -0.07035, 0.045521, -0.243098, 0.036986, -0.08796, -0.061758, -0.038879, -0.292108, 0.303012, -0.039954, -0.021384, 0.026415, 0.375447, -0.02346, 0.453545, -0.223632, 0.047282, -0.166303, 0.072588, -0.257649, -0.122955, -0.197577, 0.004144, -0.381197], [0.385034, -0.427359, 0.663684, 0.056151, 0.038432, -0.06803, -0.104963, 0.091864, 0.187487, 0.167327, 0.809481, 0.195391, 0.062661, -0.197756, -0.15535, 0.05985, 0.080311, 0.131674, 0.199709, 0.06893, -0.989666, -0.036208, 0.615384, -1.4931, 0.688943, 0.091831, -0.809844, -0.371418, 0.08399, 0.010445, -0.126455, -0.01079, -0.20421, -0.363065, 0.13266, 0.027388, -0.085905, 0.196229, -0.594324, -1.0712, -2.21843, 0.078147, -0.001592, 0.551731, 0.298561, 0.044267, 0.342966, 0.120505, -0.478721, -0.176766], [-0.067991, 0.120998, -0.064198, 0.065558, -0.019722, -1.12648, -0.08105, 0.91847, -1.52314, -0.9679, -2.46473, -1.47434, -0.034871, -1.34519, -0.00532, 0.139526, -0.368508, -0.309082, -2.5093, -0.002449, -0.08082, -0.100859, -0.167004, -0.778724, -0.835231, 0.088135, 0.144142, -1.82261, -0.589876, -0.033494, -0.035042, -0.627895, -1.79546, 0.281161, -0.901353, -0.139051, 0.052491, -1.32669, -0.743684, -0.902534, 0.34569, 0.343071, -0.139882, -0.741259, -0.507388, -1.86935, 0.356912, -0.737318, -0.496913, -0.841758], [-1.38456, -0.91772, -0.800429, 0.447661, 0.008207, 0.253895, 0.316925, 1.05816, -0.7944, -0.031952, -0.193285, -1.54375, 0.44966, 0.32637, 0.948553, -0.126758, 0.027082, 0.333631, -0.484797, -0.0207, -0.057216, 0.335485, 0.834181, -1.13787, -0.103079, 0.483958, -0.024006, 0.057587, -5.29084, 0.011304, -1.05811, -0.506805, -0.153554, -0.204075, 0.041933, 1.1048, -0.17129, 0.077441, -0.403486, 0.122155, 0.814089, 0.080996, -0.02652, -1.30376, -0.203732, -1.78293, -0.251606, 0.032609, 1.02605, -1.44894], [-0.078421, 0.263249, 0.371046, -0.142826, -0.016472, -0.166618, -0.21792, 0.538423, -0.338236, 0.041068, 1.12731, 0.26603, 0.547747, 0.485805, -0.245429, 0.027841, 0.13785, 0.345531, -0.410371, 0.104644, 0.20522, -0.048058, 0.110558, 0.957754, 0.057289, 0.425477, 0.435529, -0.414597, -0.243861, -0.033653, -0.02769, 0.018465, -0.498029, 0.599995, 0.563788, 0.71284, 0.047361, -0.127636, -0.244898, -1.28292, 0.235424, 0.18757, 0.101988, 0.535126, 0.317844, -1.96868, -0.3043, 0.318653, -1.59796, 0.817514], [-0.11257, -0.458324, -0.892558, -0.244774, 0.037403, 0.185263, -0.29303, 0.7954, -0.146104, -0.090199, -0.195317, 0.122025, -0.025211, -0.283766, 0.071336, 0.082324, -0.174934, 0.312857, 0.260865, 0.089298, -0.644151, -0.136101, 0.061954, 0.390362, -0.324287, -0.274316, -0.323551, 0.433573, -0.036371, 0.031985, 0.00697, -0.49224, 0.466793, -0.164093, 0.485392, 0.002634, 0.341542, -0.760553, -0.296409, -0.061903, -0.927656, -0.044284, 0.521714, 0.796653, -0.017241, -0.499643, -0.318808, 0.399015, -0.336736, -1.28555], [0.144223, 0.486369, -1.22556, 0.067833, -0.03142, 0.088136, 0.115884, 0.015184, -0.448046, 0.134597, -1.06682, 0.342188, 0.139917, 0.065289, -0.431328, -0.173032, 0.224158, -0.098788, -0.382997, -0.050554, 0.643113, -0.223513, -0.542415, -0.033583, -0.058646, -0.553752, 0.192092, -0.101839, -0.236637, 0.035714, -0.040582, 0.163243, -0.085302, -0.468426, 0.427636, 0.305492, 0.042496, 0.291073, -1.1481, 1.0386, 0.155714, -0.199079, 0.464384, 1.23014, 0.310673, 0.418162, 0.579694, 0.570369, -0.718615, 0.856542], [-0.049651, -0.048069, -0.045579, -0.033933, -0.019676, -0.043212, -0.054184, -0.039344, 0.00416, 0.019363, 0.012103, 0.029155, 0.030326, 0.000834, -0.010583, -0.060112, -0.05634, 0.036695, -0.04884, -0.021427, 0.005213, -0.011215, -0.02913, 0.003021, -0.033734, -0.03183, 0.034597, -0.025202, 0.013805, 0.034952, 0.007628, 0.014507, 0.04025, -0.018757, -0.026911, 0.011622, -0.018009, -0.023072, -0.00245, 0.028484, 0.037126, -0.061583, 7.1e-05, 0.033939, -0.00321, -0.036421, 0.005982, -0.014772, 0.04106, 0.022778], [-0.251665, 1.06182, 0.086047, -0.605939, -0.045219, 1.04174, -0.399281, 0.132247, 0.033146, 0.267126, -1.4609, 0.348162, 0.406073, -0.097604, 1.25129, 0.090198, -0.041207, -0.030651, 0.089774, -0.065061, -0.299472, -0.358034, 0.169447, -0.041216, 0.078362, 0.038909, -0.246789, -0.092755, 0.111488, 0.063739, 0.637722, 0.448515, -0.42381, -0.790786, 0.259948, 0.811517, -0.056037, -0.54386, 0.076034, -1.31448, -0.278464, -0.078654, 0.583589, -2.15314, -0.446414, 0.433076, -0.227882, -0.436052, 0.433908, -0.276024], [-0.206694, -0.635424, -0.919101, 0.42581, -0.028248, 0.847572, -0.387685, -0.267947, -0.712364, -0.024641, -1.30002, 0.005491, -0.049995, -0.18961, -0.614615, -0.139445, -0.888526, -0.249185, -0.386516, -0.036896, -0.641814, 0.290453, 0.221192, -0.146884, -0.456108, 0.062015, 0.08036, -0.136008, -0.408165, -0.051983, 0.125213, 0.181419, -0.444433, 0.025168, 0.311569, 1.23085, -0.262384, 0.184647, 0.015795, -0.312347, 1.49925, -0.216119, 0.307681, -1.12157, 0.74676, 1.48037, 0.20543, 0.604321, 0.184272, 0.052277], [-1.1691, -1.26809, 2.15433, 0.924329, -0.046185, 2.35865, -0.233479, 1.23095, -0.154361, 0.287914, 1.67195, 0.686562, 0.594598, 1.19813, -1.13689, -0.034236, 0.107819, -0.510177, -0.225306, 0.027997, 0.729587, 0.041193, 0.513982, 0.879006, -0.122366, 0.471905, -0.024783, -0.341846, -0.893499, -0.037121, 0.156607, 0.015312, -0.930194, 0.076115, 0.729759, -0.61096, 0.307947, -0.249968, 0.605242, 0.568818, 2.2528, -0.460214, -0.893405, -1.56997, -0.043393, -0.397204, 0.397396, -1.09529, -0.397708, 3.19501], [-0.013431, -0.553034, -1.93804, -0.024625, 0.047323, -0.604267, 0.186527, -0.428362, -0.236435, 0.469025, 0.594969, 0.467206, 0.260827, 0.473919, -0.237022, -0.269972, 0.462027, -0.077465, -0.231391, 0.015566, 0.322039, -0.306973, -0.431213, -1.38979, -0.192828, 0.162507, 0.480625, 0.221355, 0.283707, -0.053064, -0.399035, 0.214897, -0.200809, 0.176954, 0.378334, 0.305738, -0.249538, -0.070914, 0.097132, 0.953185, 0.908133, -0.130897, -0.318595, 0.643153, -0.322715, 0.22253, 0.33329, 0.829191, -1.08644, -0.743084], [1.12662, 1.14114, 1.42666, -1.07903, 0.020124, 0.211594, 0.0984, 1.99023, -0.046711, 0.364101, 0.897787, 1.42139, -1.36459, 0.27708, 0.505139, 0.07924, 1.27591, 0.438753, -0.10591, 0.028885, 0.770861, -0.580928, 0.827836, 1.73783, -0.201666, 0.948432, -1.48932, 0.212839, 0.270419, 0.052669, -0.054258, -0.63472, 1.839, 0.102435, 0.361332, 1.04119, -0.22288, -0.131047, 0.921427, 0.916921, 1.41711, 1.00856, -0.383439, 0.688372, -1.0148, -0.734133, -0.2121, 0.11753, 0.243392, 0.414789], [0.648201, 0.336411, -0.595737, -0.380569, -0.040323, -0.819036, 0.063713, 1.08435, -0.349005, -0.110344, 0.603823, 0.237587, 0.501097, 0.078036, -0.705009, 0.092589, -0.362442, -0.572232, -0.349083, 0.053973, 0.446784, 0.004279, -0.024958, 0.031419, 0.079192, 0.480514, 0.147866, -0.228274, 0.034586, 0.016607, 0.534988, -0.057384, 0.63278, 0.487996, 0.096881, -0.208979, -0.146427, -0.264, 0.150898, -0.545009, -1.16772, 0.614138, 0.315476, 1.48461, 0.351778, 0.086973, -0.084624, -0.359899, 0.29248, -0.394785], [0.124619, -0.200743, -0.497304, 0.061001, -0.045959, 0.256508, 0.232453, 0.435869, 0.09118, 0.09234, -0.597528, -0.435985, 0.099352, -0.668632, -0.17799, -0.117396, -0.17821, -0.565425, 0.131686, -0.044765, -0.02131, 0.170297, -0.420634, -1.38392, 0.56136, -0.192852, -0.087292, 0.037323, -0.290734, 0.027987, -0.528455, -0.628155, -0.101343, -0.617367, 0.107299, -1.16636, -0.224587, -1.38814, -0.256566, -0.089907, -1.9349, -0.71596, -0.017685, -1.06807, 0.213145, 0.081239, 0.190229, 0.110666, -0.346941, -0.376237], [-0.277485, 0.107759, 0.812944, 0.705274, -0.015486, 1.22339, -0.372947, 0.080134, -0.16568, 0.179771, 1.28746, 0.282957, 0.620574, 0.839409, 0.321376, -0.017506, 0.509197, 0.36939, 0.029469, -0.007386, 0.320544, 0.212489, -0.124874, 0.333068, -0.750715, -1.09858, 0.108748, -0.502181, 0.201242, -0.018939, -0.803123, -0.08968, -0.833938, 0.249663, -0.198036, 0.15567, 0.269582, -0.69453, -1.05567, 0.372777, 1.19515, -0.134379, 0.23331, -0.176111, 0.202643, 0.661592, -0.074266, 0.204714, 0.72965, -1.59824], [0.009017, -0.035286, 0.032653, -0.044195, -0.002604, 0.034285, -0.01132, -0.00034, 0.015773, 0.040629, -0.019277, -0.039104, -0.030039, -0.013485, -0.041214, -0.011002, -0.037564, 0.020363, -0.000399, -0.029552, -0.052053, -0.02537, 0.008052, -0.011165, 0.018092, -0.050391, 0.028901, 0.012803, 0.002412, 0.019052, 0.020446, -0.024591, -0.056042, 0.03571, 0.043551, 0.027437, -0.022655, 0.029232, -0.001931, 0.016907, 0.041396, -0.04858, -0.011444, -0.041531, -0.055405, -0.039695, -0.025569, 0.022269, -0.006977, 0.012192], [0.123723, -0.359008, 1.02041, 0.376982, 0.035413, 0.561796, -0.35542, 1.04708, 0.428716, 0.21439, 0.920894, 0.26825, 0.295047, 0.821373, -0.228931, 0.157264, 0.574504, 0.113945, -0.732887, 0.045382, 0.593477, -0.154227, 0.09178, 1.23225, 0.215386, 0.074814, -0.392125, -0.048144, 0.91798, -0.002666, -0.70742, -0.445118, -0.054795, 0.540301, -0.074028, 0.612617, 0.036709, 0.958725, 0.208678, 1.09716, 1.23187, 0.631698, -0.8131, 0.537513, -0.330859, -0.139493, 0.091361, -0.806759, -0.827279, 0.673055], [-0.256401, -0.386364, 0.029929, 0.54004, -0.042736, 0.646034, -0.051759, -0.21487, 0.303631, -0.080415, -0.253721, 0.423359, 0.322519, 0.171829, 0.922375, 0.029026, -0.194106, -0.257104, -0.097714, -0.013414, -0.227865, -0.12819, 0.527825, 0.286916, -0.144379, 0.135584, -0.114131, -0.119539, 0.908826, 0.049874, -0.117314, -0.054569, 0.619294, -0.13529, 0.234947, 0.384851, 0.618962, -1.78374, -0.697753, -0.374667, -0.878491, -0.154184, -0.010088, 1.04976, -0.443428, 0.369135, 0.444512, -0.282525, -0.126493, -0.946913], [0.40688, 0.021076, -0.60114, 1.1088, 0.00214, 0.698509, -0.234803, -0.632869, -0.080361, -0.351697, -0.32754, 0.294662, 0.076523, 0.32705, -0.320374, -0.28655, -0.064648, 0.042061, 0.015385, -0.011651, 0.461902, -0.267901, 0.445078, -0.887562, 0.006791, 0.815834, 0.281045, 0.382766, -0.589322, -0.002564, 0.164993, 0.018133, 0.565807, -0.435384, 0.046149, 0.512991, 0.086744, -0.313415, -0.145421, 0.268619, -1.84418, -0.229455, 0.259468, -0.454771, -0.509778, -0.981193, 0.39533, -0.499687, 0.889121, -0.193192], [0.081067, 0.093778, -0.189769, -0.028433, 0.007482, -0.026019, -0.084672, 0.126693, 0.05355, 0.190108, 0.192447, -0.010047, 0.133039, 0.187551, 0.162635, 0.050494, 0.083231, -0.060845, 0.017332, 0.103288, -0.059532, -0.042747, -0.013305, 0.225477, -0.199054, 0.148534, -0.132031, 0.047393, 0.207171, -0.006935, 0.025056, -0.048674, -0.101036, -0.04777, -0.011667, -0.073598, -0.014165, 0.137931, 0.24574, -0.597018, -0.438767, 0.050001, -0.127936, 0.024863, -0.043054, -0.27947, -0.053262, -0.058938, -0.083523, 0.761942], [1.26392, 1.07925, 2.04557, -0.172626, 0.037191, 2.13917, -0.801282, 1.80242, 0.401287, 0.870324, -0.57667, 0.649034, -0.126996, 1.02186, -0.956434, -0.098443, 0.028158, 0.263586, -0.455309, -0.015051, 0.269002, -0.603884, 0.264806, 1.02561, -0.270355, 2.13402, -0.271402, 0.108719, 0.662651, 0.015406, 1.34879, -0.228776, 0.764584, 0.732014, -0.437847, 1.69237, 0.503522, -0.668298, -1.62408, 1.07788, -0.490278, -2.17931, 0.980067, 0.648519, 0.212748, 0.62469, -2.22555, -0.274593, -0.453719, -1.50705], [0.387641, -0.309763, 0.388937, -0.794577, 0.012947, -0.178752, -0.082534, -0.079144, 0.220587, 0.094699, -0.012251, 0.064407, 0.209209, 0.494911, -0.120292, 0.080297, 0.313052, 0.242549, 0.062158, 0.035836, -0.020796, 0.037902, -0.182128, 0.702479, 0.066782, -0.166747, -0.031247, 0.191028, -0.014852, 0.02261, -0.052168, -0.099227, 0.824922, 0.389682, -0.135396, -0.575948, -0.323718, -0.245799, 0.477782, 1.45716, 0.901575, 0.112118, 0.126833, 1.02398, 0.108903, 0.006153, -0.092415, 1.2718, 0.006643, 0.915024], [0.980116, -1.26846, 2.8134, 0.052621, 0.046349, 1.69665, -0.348727, -0.81441, 1.73682, 0.536713, 0.721923, 1.38905, 2.3701, 1.33018, -0.934234, -0.044469, 2.20592, 0.325501, -0.261969, -0.013602, -1.22306, 0.159505, 2.22625, 2.28358, 1.77348, -0.592808, 0.420235, 0.136322, 1.60388, 0.002815, -1.4958, -0.156577, 1.11944, 0.29032, 0.879008, 1.2096, -0.987539, 2.54955, 1.08492, 0.156456, 1.01176, 0.673135, 0.360269, 1.52324, 1.09116, 0.994099, 0.630886, 3.97209, -2.37937, 3.20616], [-0.010087, -0.021447, -0.055261, 0.004213, 0.022088, -0.032316, -0.00859, 0.035855, -0.047493, -0.021767, -0.003065, -0.032951, 0.033712, 0.020344, -0.031916, -0.031334, -0.039134, -0.01351, -0.06996, -0.030712, -0.02739, -0.046575, 0.015267, 0.020135, -0.004892, -0.038519, -0.009002, 0.024189, 0.011282, -0.013598, 0.000746, -0.006537, -0.018798, 0.016846, 0.014746, 0.028931, -0.012991, 0.046009, 0.003714, -0.054118, -0.053858, -0.025214, 0.03693, -0.03834, -0.049326, -0.04864, -0.046008, -0.040719, -0.047687, -0.027167], [-0.276493, 1.03772, -0.497763, 1.33801, -0.001586, -0.473151, 0.169269, 0.93474, -0.077123, -1.23174, 1.05438, 0.050058, -0.084255, 0.757581, 0.740371, -0.107019, 0.077268, 0.14034, -0.615194, -8.3e-05, 0.060268, -0.642443, 0.60281, -1.32626, 0.547671, 0.776909, 0.310924, -0.130274, 0.042164, -0.038182, -0.117431, -0.361047, -1.04649, -0.082394, 0.227244, 0.009712, 0.087709, -2.49105, 0.089639, -0.224019, -1.39335, 0.337049, -0.041649, 0.180888, -0.41379, -1.17574, 0.294733, 0.28881, -0.30331, -1.66789], [-0.554112, -0.196775, -1.78626, 0.817761, -0.010704, 2.40878, 0.32862, -0.107403, 0.220402, -0.221304, -0.548629, 0.000761, 0.974972, 0.943211, 0.029956, -0.51818, 0.57855, 0.356194, -0.523099, -0.025794, 0.547968, 0.253032, -0.634056, -0.690628, 0.776575, 0.471931, 0.071383, -0.508816, 0.045092, -0.040229, -2.04001, -0.06037, -1.90291, 0.558676, 0.06541, -0.554286, -0.034098, -0.287104, 0.320296, 1.04221, 2.13982, -0.307244, -0.160558, 0.796965, 0.471668, 1.15262, -0.08851, 0.437672, -2.14568, 1.05479], [-0.217854, -0.087767, -0.720698, -0.21592, -0.018364, -0.11512, 0.006345, -0.168338, 0.193593, -0.056678, -0.304891, 0.076539, -0.067856, -0.25097, -0.305419, -0.092308, -0.083885, -0.047415, 0.040519, 0.02239, -0.017783, 0.043654, -0.151081, -0.094142, 0.250131, -0.301143, 0.108167, 0.091901, -0.008619, 0.013722, -0.051458, -0.018549, -0.120797, -0.181678, -0.012989, 0.119727, -0.003637, 0.337934, -0.644482, 0.301463, 0.703922, 0.042763, 0.260581, -0.132752, 0.002565, 0.399308, -0.108254, 0.218089, -0.187838, -0.195994]], [[-0.020459, -1.75871, -1.37621, 0.818473, -0.764455, -0.609504, 0.118629, -0.887997, -1.02536, -1.29155, 0.048598, -1.78797, -0.086645, -0.417138, -0.082352, -2.13634, 0.843317, -0.180827, 0.071311, -1.88809, 0.029238, -0.336661, 0.525805, 0.061276, 0.526988, -0.176562, 0.486927, -0.740414, 0.192472, -0.037729, -0.205049, -0.137029, -0.587334, -1.3429, -1.85012, 0.278709, 0.022481, 1.83384, 0.032149, -1.44732, 0.29185, -0.161739, -0.552878, -2.06219, -0.782816, -0.490851, 0.021859, 0.780806, -1.21493, 1.22593], [0.031462, -0.722721, -0.603056, 0.120859, 0.080571, -0.045941, 0.548407, -0.470504, -0.078411, -0.157706, 0.02045, -0.761485, 0.03088, 0.093065, -0.082881, -0.196664, 0.806827, 0.123494, 0.309026, 0.363051, -0.031447, 0.297696, 0.315921, -0.782431, -0.025893, 0.138484, 0.667371, -0.01523, -0.280914, -0.045147, -0.080683, 0.129531, 0.446981, 0.497727, 0.139675, -0.906562, -0.085697, 0.235878, -0.022766, -0.374262, -1.30371, 0.184389, -0.525901, -1.04661, -0.160195, -0.265333, 0.001632, -0.056301, -0.076257, 0.195465], [-1.01438, 4.31489, 0.702606, -0.376409, 1.23753, 0.380256, 1.7147, -0.155132, 1.0916, 0.82156, 0.011477, 0.166862, 0.050654, 0.677295, -0.035153, -0.049102, -0.596059, -0.306455, 0.318733, 3.03339, -0.032141, -0.037228, 2.02257, -0.246172, 1.40849, -0.270968, 0.644616, -0.153258, -0.260984, -0.000684, -0.563943, 0.080852, 1.74014, 1.45768, -0.129727, 1.03969, 1.44991, 3.43942, -0.030467, 0.901322, 1.24535, 0.960948, 1.23813, 1.03255, 0.836493, -0.476274, 0.051091, 1.7655, 0.01126, 1.75997], [0.018396, -0.042603, 0.024919, 0.016979, -0.020094, 0.009426, 0.000743, -0.003423, 0.033068, 0.009914, -0.047318, 0.038627, 0.011868, -0.039884, 0.024549, -0.034829, -0.053002, 0.004366, -0.022048, 0.033034, -0.035963, -0.001225, 0.003289, -0.000249, -8e-06, 0.018988, -0.004001, 0.035638, -0.033493, 0.035324, -0.027413, -0.007175, -0.04254, -0.019438, -0.027814, 0.008613, 0.014719, 0.016684, -0.009761, 0.041687, 0.017531, -0.028491, 0.014711, 0.017858, -0.063043, -0.025989, -0.014452, 0.041795, 0.025977, -0.005536], [-0.130413, -0.040668, 0.124054, -0.03382, -0.153618, 0.020967, -0.354613, -0.041127, -0.254534, 0.017964, -0.026337, -0.011805, 0.357762, -0.013831, -0.308475, -0.030283, -0.084356, -0.013826, -0.179795, -0.518623, -0.018132, 0.126303, 0.048149, -0.074695, -0.436328, 0.053385, 0.04278, 0.06536, 0.082091, -0.005005, 0.091589, -0.015373, -0.438707, 0.388584, -0.032193, 0.07436, 0.367051, -0.405647, -0.026151, -0.019542, -0.195012, 0.090453, -0.227072, 0.145762, -0.122002, 0.032002, 0.000854, 0.198928, -0.17575, -0.326154], [-0.538809, -0.256634, 1.58136, -0.067786, -1.27138, -0.100072, 1.42179, -1.07047, -0.726986, 0.089344, -0.014784, 0.099556, 0.038913, 0.161642, -0.070298, 0.428222, 0.640418, -0.036956, -0.041526, 1.60703, -0.055086, -0.495266, 1.26641, 0.661017, 1.75488, -0.203021, 0.946699, 0.399083, -0.114717, 0.040273, 0.377041, 0.312411, -0.557284, -0.068348, -0.055954, -0.077104, 0.590069, -0.223064, -0.006646, 0.104398, 0.882657, 0.18001, 0.211132, 0.011061, 0.897665, -0.128694, -0.034696, -0.951799, -2.33629, -1.40185], [0.202863, 2.95603, 0.939886, -0.310586, 0.263013, 0.139441, 2.44981, 0.100093, 0.450356, -0.045135, 0.004688, 0.708069, -0.082218, 0.458471, -0.007923, 1.04936, 0.057921, 0.41565, 0.786379, 2.71822, 0.036908, 0.416498, 2.2815, 1.02785, 2.52719, 0.280361, 1.28411, 1.23575, -0.525118, -0.042899, -0.086171, 0.138481, -1.33571, -0.241253, -0.242263, 0.579338, 1.38793, 2.87884, 0.028484, -0.733146, 1.79943, 0.188217, 1.53459, 1.82202, -0.974623, -0.134079, 0.036456, 2.08522, -1.00901, 1.6124], [0.25599, 0.307076, -0.195403, 0.164894, 0.209774, -0.106799, 0.761936, 0.148317, -0.130929, -0.239548, -0.033678, 0.51782, 0.007422, -0.098246, -0.042301, -0.223611, 0.223073, 0.033075, -0.19761, 0.594334, 0.040344, 0.082058, 0.177626, -0.353392, 0.483989, 0.08912, 0.209784, -0.153319, -0.026929, -0.03103, 0.166949, 0.039515, -0.482724, -1.53018, 0.05139, -0.227781, -0.337965, 0.212922, 0.034243, -0.077223, 0.017657, 0.353556, 0.1566, -0.420672, 0.10706, 0.047266, -0.022918, 0.540002, -0.322221, 0.018738], [0.775399, -0.649685, -0.151464, 0.379294, -0.547946, 0.859816, 0.428922, -0.120809, -0.62054, 0.197303, -0.010884, 0.390884, -0.00405, 0.168977, 0.082314, -0.668675, -0.067933, -0.105204, 0.669977, 0.167079, -0.029532, 0.195099, 0.664542, 0.251418, -0.212586, 0.508205, 0.388876, 0.160248, 0.044767, 0.039077, 0.660204, 0.885921, 0.115759, 0.545448, 0.203863, -0.397606, 0.166697, 0.234583, -0.008286, -0.004435, -0.881818, 0.754071, 0.637315, 0.506552, 0.335578, -0.118534, -0.041458, -0.311124, -0.53191, 0.133305], [0.019278, -0.041163, 0.181532, -0.113054, 0.041292, -0.038249, -0.71468, -0.23343, -1.04195, 0.129733, -0.027974, -0.342623, 0.376984, 0.297588, -0.094651, -0.086248, -0.474514, -0.306743, 0.11735, 0.875698, -0.049331, 0.349316, -0.078964, 0.628817, 1.02197, 0.394094, 0.726874, 0.027406, -0.088308, 0.021295, 0.140363, 0.34374, -0.012177, 0.521701, 0.05884, 0.001166, -0.128199, 1.35103, -0.049114, -0.415968, -0.456903, -0.072868, 0.988005, 0.307382, 0.313117, 0.073524, -0.038478, 0.540312, 0.082805, 0.101822], [-0.340857, 0.596069, 0.48047, -0.054363, 0.010904, 0.080338, -0.033144, -0.743367, -0.448912, -0.050705, -0.016696, -0.116441, -0.112799, -0.317997, -0.201568, -0.352872, -0.165008, 0.204965, -0.362273, 0.325204, -0.024719, 0.141278, -0.087788, 0.018664, 0.51067, 0.172488, -0.085145, 0.100426, 0.011519, -0.047216, 0.088582, 0.195965, 0.160138, -0.162874, -0.048626, -0.022228, 0.659213, 0.11047, 0.010934, -0.029083, -0.073563, -0.139244, 0.037198, 0.532838, -0.322232, -0.033653, -0.005606, 0.179079, -0.111634, -0.172627], [0.208882, 0.086545, -0.136024, -0.018113, -0.02133, -0.065374, -0.347312, -0.537651, -0.460794, 0.01829, -0.00792, 0.01797, -0.126819, -0.249837, 0.097636, 0.244603, -0.045969, 0.03626, -0.032186, 0.116747, -0.008206, 0.149294, -0.41924, -0.058392, -0.078752, 0.106761, 0.170358, 0.150205, -0.143093, 0.023775, 0.107303, 0.142876, 0.081372, 0.141768, 0.069804, -0.042692, 0.189292, -0.102534, 0.046558, -0.293704, -0.346877, 0.308817, -0.061656, 0.052695, -0.090925, -0.037507, 0.008558, -0.115379, -0.054882, -0.040169], [-0.247356, 1.51556, 1.28221, 0.180342, 0.508738, -0.159315, 1.6632, -0.876742, 0.412701, 0.573925, -0.018294, -0.286362, 0.220218, 0.312387, -0.070554, 0.560672, -0.308576, 0.511707, -0.607947, 0.977635, 0.022541, 0.157614, 0.880623, -0.299778, 0.220441, -0.024562, 0.668699, 0.321946, -0.072331, -0.009295, -0.037072, 0.492548, 0.33519, 0.096041, -0.034127, -0.096261, 0.25342, 0.538331, -0.036323, -0.207703, -0.362883, 0.392669, 0.898043, 0.209652, 0.105455, -0.44031, -0.034073, -0.293575, -0.037399, 1.27571], [0.046728, -0.605013, -0.211151, -0.091959, 0.44808, -0.017317, 0.958479, -0.07098, 0.760772, 0.602016, -0.028421, 0.103407, -0.030877, 0.117325, -0.054124, 0.558971, -0.395134, -0.279956, 0.049303, 1.49666, -0.042333, 0.44318, 0.054244, 0.24023, 0.409088, 0.015874, 0.069491, 0.024844, -0.489952, 0.041894, -0.28748, 0.069273, 0.277773, 0.271789, 0.050719, -0.473253, 0.556451, 1.21451, -0.03572, 0.166781, 0.121495, 0.170939, -0.164441, 0.619769, 0.119041, 0.039947, -0.025522, 0.588409, 0.518812, -1.15282], [0.06006, -0.277795, 0.038518, -0.090911, 0.159576, -0.064287, -0.248354, -0.039816, -0.142817, -0.013141, -0.002994, -0.038161, -0.103504, 0.125544, -0.018491, 0.125619, -0.04939, 0.084616, 0.115883, -0.399426, -0.037995, 0.005848, -0.431004, -0.039, 0.336168, 0.042102, 0.021069, 0.128601, 0.200925, -0.010732, 0.122482, -0.074331, -0.044892, 0.15318, 0.022361, -0.085975, -0.10927, -0.264005, 0.036526, -0.006196, -0.244928, 0.286703, 0.171525, 0.106154, -0.176851, -0.004026, -0.021147, -0.029948, -0.203163, -0.282954], [-0.249562, 1.39754, 0.164097, -0.001779, 0.250007, -0.17768, 1.0542, -0.059617, 0.155089, -0.115399, 0.031457, -0.006782, 0.038962, 0.007423, 0.000274, 0.077037, -0.021437, -0.086236, 0.093541, 1.01523, 0.00956, 0.013392, 1.36678, 0.433533, 0.969502, -0.032074, -0.029772, -0.02073, -0.286407, 0.004319, -0.24498, -0.243832, 0.485868, -0.336039, -0.151744, 0.170618, 0.421173, 0.540529, -0.03302, 0.138913, 0.57193, 0.005903, 1.35972, -0.882034, 0.283509, 0.014907, 0.007456, 0.080368, 0.133199, -0.9832], [-0.373905, -0.221022, 0.610954, -0.439312, 0.410215, 0.111941, 0.580523, -0.159933, -0.177997, 0.296392, -0.021614, -0.020716, -0.048666, 0.11816, -0.023701, -0.147434, -0.496416, -0.560157, 0.090091, 1.43319, -0.03551, 0.434613, 0.857747, 0.066787, 0.836605, 0.397192, -0.055324, 9.9e-05, 0.168006, -0.047704, 0.007122, -0.353652, -0.093569, 1.04803, -0.129261, 0.611375, 0.254008, 0.256876, -0.014141, -0.28482, -0.184053, -0.007593, 0.012545, 0.690841, 0.190764, -0.04377, -0.001966, 0.719726, 0.820906, -0.269806], [0.51251, -0.897463, -0.262017, -0.132899, 0.530847, -0.218667, 0.672973, -0.169584, -0.493134, -0.43532, -0.006636, 0.355615, 0.14749, 0.784602, 0.064172, 0.513278, -0.196506, -0.002254, -0.009631, 0.434555, 0.006165, 0.459794, 0.451945, 0.072008, 0.358368, 0.079912, -0.051156, 0.290143, -0.211017, 0.0146, -0.110701, -0.085891, 0.891774, -0.476211, -0.003745, 0.164713, 0.057814, 0.778519, 0.037551, -0.03684, 0.039837, 0.547397, -0.003423, -0.493923, 0.35516, -0.081944, 0.002411, 0.284519, -1.2032, 0.926783], [0.264303, -0.14946, -0.220992, 0.041134, 0.036214, 0.224692, 0.095102, 0.335827, -0.223166, 0.119741, 0.010188, 0.002205, 0.18383, 0.220819, -0.023935, -0.180603, 0.339402, 0.088193, -0.003869, 0.180077, 0.020528, -0.156758, -0.022191, 0.082847, 0.050962, -0.265567, 0.113226, -0.058742, 0.047406, 0.043125, -0.0986, -0.160179, 0.426208, 0.198933, -0.005818, -0.072265, -0.839639, 0.948611, -0.032394, 0.187371, 0.31037, -0.036377, -0.568524, 0.696904, -0.29329, -0.024738, -0.022007, 0.27168, 0.059128, 0.566075], [-0.193462, -0.007447, -0.448428, -0.067779, 0.049743, 0.10272, 0.783851, 0.047136, -0.262728, 0.351778, 0.036621, -0.129742, 0.345934, 0.80145, -0.016938, -1.52602, -0.031563, -0.199893, 0.118963, -0.38374, -0.038284, 0.196989, -0.523705, 0.166465, 0.647162, 0.232586, 0.141405, 0.349259, -0.125201, -0.039719, 0.01709, -0.139103, -0.240556, 0.112895, -0.463703, -0.166442, 0.173742, 0.690946, 0.049137, 0.394815, -0.090608, 0.109091, -1.05416, -0.39192, 0.150862, -0.1736, -0.026973, -0.142429, 0.190799, 0.063122], [-0.122283, -0.354188, 0.119639, 0.016267, -0.419463, -0.029267, -0.666821, -0.242095, -0.466538, 0.380886, -0.017381, -1.39924, 0.089198, -0.020817, -0.084356, 0.112172, 0.584216, 0.072415, -0.128625, -0.769548, -0.028506, -0.661659, 0.407747, -0.1353, -0.505351, -0.091686, -0.00446, 0.190974, -0.084394, -0.033487, 0.164375, 0.014306, -0.091119, 0.025814, 0.02255, -0.652447, -0.746754, -0.910502, 0.001356, 0.333159, -0.678903, 0.214283, -0.459132, -0.504126, -0.278715, -0.094561, -0.030499, 0.075826, -0.023208, -0.504934], [-0.480978, 1.80006, -0.285116, 0.212326, -0.205236, 0.324575, 0.773527, -0.063329, -0.211836, -0.319126, 0.000637, 0.333019, 0.245061, 0.013565, -0.0944, -0.047095, 0.391622, 0.214441, 0.412602, 0.917927, 0.003083, -0.14247, 0.815213, 0.307405, 0.938689, -0.209608, 0.090589, -0.32336, 0.15605, -0.013422, -0.03208, 0.404824, -0.096328, 0.001308, -0.155493, -0.698419, 0.149047, -0.522386, 0.043523, 0.374503, 0.492589, -0.201247, 0.346999, -0.715245, -0.096197, -0.102087, 0.006178, 0.314641, 1.08742, 0.047245], [0.149725, -0.237301, 0.235188, -0.006179, 0.433781, -0.167014, -0.168766, 0.170062, -0.812471, 0.223445, 0.030477, -0.421086, 0.038377, -0.069064, -0.021406, -0.15531, -0.855158, 0.089694, 0.235698, 0.409958, 0.001253, -1.05931, -0.3895, 0.241895, 0.01609, 0.088946, 0.109394, 0.035566, -0.085963, 0.017251, -0.16084, -0.045775, 0.501988, 0.456283, -0.588454, 0.127907, 0.40411, -1.22678, -0.017683, -0.734898, 0.243202, 0.135074, 0.173975, 0.01398, -0.363186, -0.005864, 0.005501, -0.346806, -0.245537, 0.03522], [-0.293636, 0.95819, 0.830792, -0.457904, -0.799059, 0.326707, 0.768493, 0.226181, 0.689505, 0.441956, -0.023607, 0.631414, 0.031259, 1.72946, -0.054398, 1.43322, 0.773685, -0.324842, -0.063086, 2.12391, 0.00912, 0.457657, 1.11623, 1.33545, 2.12446, -0.325583, 0.812902, 0.201238, -0.426199, 0.039783, -0.559185, -0.251993, 0.488981, 0.929462, -0.476778, -0.477454, 1.5433, -1.74918, -0.045006, 0.249466, 1.97079, -0.590034, 1.66137, 0.525145, 0.819591, -0.210582, -0.028328, 1.45613, 0.150995, 1.1385], [-0.076378, -0.365708, -0.312809, -0.107216, -0.100164, 0.289847, -0.494287, -0.19997, -0.310904, -0.541591, -0.021963, -0.048314, 0.029071, 0.090996, -0.140491, 0.296528, 0.416172, 0.112703, -0.11959, -0.572911, 0.038392, -0.170141, -0.589164, -0.127868, 0.534902, -0.121916, -0.135727, 0.334083, -0.050806, -0.044445, 0.082864, -0.155543, 0.207, 0.324631, -0.176498, -0.083475, 0.154754, -2.42568, -0.028494, 0.057303, -0.144409, -0.298732, 0.609377, -0.811859, -0.682375, -0.047114, 0.02094, -0.101234, 0.506915, -0.084373], [-0.236742, 0.916525, 0.406065, 0.147419, -0.571019, -0.332936, 0.249249, 0.349284, 0.384039, -0.856712, -0.02111, -3.02437, -0.117078, -0.232852, -0.015175, 0.172332, 0.630172, 0.065298, -0.082837, -0.520813, 0.044069, -0.389405, -2.09985, 0.449721, 0.198549, -0.015494, -0.309061, 0.068851, -0.126535, 0.006414, -0.328109, -0.150219, 0.064477, 0.311604, -0.245464, -0.181594, 0.772131, 0.549094, -0.017543, 0.227977, 0.509753, -0.040675, -1.10505, 0.437734, 0.315033, 0.033766, 0.02136, -0.007252, 0.149487, 0.324946], [0.057407, 0.573229, 0.082026, 0.386806, 2.08769, -0.74486, 1.7488, -0.025262, 0.284068, -0.163271, -0.02212, -1.12373, 0.112009, 0.46925, -0.042891, 0.10297, 1.16069, -0.637993, -1.0256, 2.13871, -0.007223, 0.638432, -0.66854, 1.76576, 0.613683, 0.585417, 0.782848, 0.385204, 0.113823, -0.010352, -0.159629, 0.300121, -0.653818, -0.884353, 0.132851, -0.517354, 1.12038, -0.559442, -0.020295, 0.7447, 0.260998, 0.846567, 0.329669, 0.568482, 0.689296, -0.416403, 0.022225, 0.677868, 0.691315, 0.269847], [0.025028, 0.346103, 0.147851, -0.199014, -0.043789, 0.081935, 0.311602, -0.552854, -0.36002, 0.400741, -0.017775, 0.15269, -0.06931, -0.135149, -0.035295, 0.045395, -0.74757, -0.102609, -0.198753, 0.105432, -0.03615, 0.125301, -0.223443, 0.054734, 0.423759, -0.142541, -0.330996, -0.064805, -0.280329, -0.027447, 0.016828, 0.343102, -0.129953, 0.407321, 0.115394, -0.525748, 0.149544, 1.28747, -0.019123, -0.109955, 0.195362, 0.014825, 0.870468, -0.318317, -0.09655, -0.043741, 0.03118, -0.40354, 0.218107, -0.237321], [0.849317, -0.55479, 0.046815, -0.063593, -0.072825, 0.174598, 0.441036, -0.84858, -0.220038, 0.196647, -0.017522, -0.024692, 0.180798, 0.179011, -0.033082, -0.00161, -0.144185, -0.019273, -0.05517, 0.834715, 0.026173, 0.352079, -0.3056, -0.045491, 0.04594, 0.081753, 0.379211, 0.717165, -0.026727, -0.051696, 0.672081, -0.10128, 0.179232, 0.346389, -0.117669, -0.228834, -0.33376, -0.435736, 0.001495, -0.043743, -0.539836, 0.701563, -0.359861, 0.424301, -0.163396, -0.088615, -0.012804, 0.310469, 0.350835, 0.05108], [-0.036101, 0.43324, 0.067856, -0.056933, 0.177195, 0.109549, -0.12572, 0.156249, 0.25917, 0.005229, -0.018686, -0.020181, -0.07566, 0.254774, -0.154215, 0.072977, 0.229374, -0.063445, 0.14382, 0.257081, -0.040417, 0.025025, -0.064245, 0.049898, 0.797761, -0.220742, 0.012673, -0.161434, 0.025579, 0.055073, -0.441989, -0.096906, -0.007384, -0.014655, 0.002894, 0.127115, -0.92774, 0.185857, -0.030473, 0.081687, 0.380268, -0.308272, -0.505978, 0.286853, 0.110576, -0.024542, -0.013524, 0.297455, -0.011688, 0.437858], [-0.053515, 0.364504, -0.002349, 0.040516, 0.357735, -0.028363, -0.308492, -0.039442, 0.163823, -0.10153, -0.008881, -0.064073, -0.281224, -0.078857, -0.036199, 0.173322, 0.233472, 0.002226, -0.047332, -0.667602, 0.035665, 0.077567, -0.172462, 0.137194, 0.046547, -0.116253, -0.090824, 0.082644, -0.083744, -0.037704, 0.054164, 0.03606, 0.044419, -0.150641, 0.065899, -0.174659, 0.245684, 0.023194, 0.032924, -0.08053, 0.114706, 0.108914, -0.169817, -0.503327, -0.028563, 0.028798, -0.031351, -1.01622, -0.087934, 0.136539], [0.125114, -0.285819, -0.318255, 0.492264, -0.103592, -1.83163, -0.808823, -1.52498, 0.39457, -1.73761, -0.013024, -0.659566, 0.03731, 0.634114, -0.004771, 0.130631, 0.446647, -0.205557, 0.499524, -1.07437, 0.023969, 0.585801, -1.16874, -0.888481, 0.233088, -0.118588, 0.856968, 1.07661, 0.387484, 0.033327, -0.157404, 0.467497, -1.68929, 0.191527, -0.103356, 0.173759, -0.347663, -1.57627, -0.039622, -0.870853, -0.663905, -0.278805, -1.67017, -1.39285, -1.29596, -1.06901, -0.035278, 0.8005, 0.273928, 1.84279], [0.401731, -0.408367, -1.7923, -0.343426, 0.590656, 0.305626, 0.427323, -0.386056, 0.011284, 0.268063, -0.04368, -0.577001, 0.177367, 0.378869, -0.023853, -1.2896, -1.05146, -1.25596, 0.179647, -0.025485, -0.015463, -0.445539, 1.02497, -0.227673, 0.226415, 0.474624, 0.163169, 0.077041, -0.831184, 0.056705, -0.008888, -0.930329, -1.99511, -0.631238, -0.205807, -0.588452, 0.339175, 0.117663, -0.013827, 0.644355, -0.622498, 0.540882, -1.15664, -0.421034, -3.4665, -2.27635, -0.04723, 0.369837, 0.745972, -0.873778], [0.946255, -0.611897, 0.647468, -0.096147, 1.11033, -1.45096, 0.923173, -0.243052, -1.3042, -1.11768, -0.016243, 0.465473, -0.003729, 1.33533, 0.018766, 0.743731, 1.92043, 0.209944, 0.688914, 1.03605, 0.038239, -0.391989, 2.41991, 1.00293, 1.57531, 0.272195, 0.386424, 0.802464, 0.617434, -0.049483, -0.575263, 0.55232, 0.491243, 0.287016, 1.16138, 0.370254, 0.569275, 1.84942, -0.046646, 2.25789, 1.63098, -0.100188, 1.97103, 0.202967, -0.227948, -0.479407, 0.006876, -0.754572, 0.677958, 1.54786], [0.243001, 0.339118, 0.001906, 0.117159, 0.475188, -0.008626, 0.403161, -0.40889, -2.16332, 0.034922, 0.042695, -0.157008, -0.023888, 0.174642, 0.025299, -0.038178, -0.043036, 0.035309, 0.157779, -0.029846, -0.043997, -0.967666, 0.388759, -0.214222, 0.607037, 0.215494, 0.149917, 0.41333, -0.100769, 0.014018, 0.026572, 0.279497, -0.268661, 0.482093, 0.058832, 0.227733, -0.051635, 0.477232, 0.001329, 0.15071, 0.529741, 0.288061, -0.348062, -1.35329, 0.472044, -0.251525, -0.033217, 0.134368, -0.105105, 0.011024], [0.363822, -0.794566, -0.020905, 0.017187, -0.712897, 0.231367, -0.097205, -0.290439, -0.511369, -0.808144, -0.044993, 0.203553, 0.032392, 0.855468, -0.023673, 0.041253, -0.346138, -0.231617, 0.296229, -1.67515, 0.00508, 0.063547, -0.2455, 0.148828, 0.471727, -0.224411, -0.784695, 0.306774, -0.260943, -0.029032, -0.073423, 0.25037, -0.01095, -0.024512, 0.164687, -0.510216, 0.453341, -0.219236, 0.026325, 0.190139, -0.268063, 0.23812, -0.490324, 0.571901, -0.80804, 0.012713, 0.029786, 0.28573, 0.554496, -0.40259], [0.017981, -0.001355, -0.029327, -0.015979, -0.01133, -0.044475, -0.044241, 0.0083, -0.031479, -0.027266, 0.040803, -0.007143, -0.025484, -0.047651, 0.026397, 0.013953, 0.021204, -0.031564, 0.024026, -0.014828, -0.006991, -0.003392, -0.043491, -0.043969, -0.044411, -0.027807, 0.036414, -4.1e-05, -0.023001, -0.000872, -0.016018, 0.015682, 0.030313, -0.024097, 0.02868, 0.005114, -0.027311, 0.040654, 0.039126, 0.012078, -0.014197, -0.026333, 0.012422, -0.011715, 0.001421, -0.044565, 0.005544, -0.012491, 0.019769, 0.025754], [-0.1697, -0.513785, -0.169168, -0.291603, -2.13537, -0.193789, 0.279886, -0.167382, -0.50722, -1.13097, -0.04925, -0.567421, 0.17937, 0.147905, -0.000653, 0.723231, 0.516253, -0.423426, 0.232317, -2.52699, 0.039733, 0.105913, -0.981562, 0.426589, 0.766572, -0.189946, 0.633227, 0.337188, 0.225838, -0.001572, -0.539021, -0.009291, 0.298338, -0.16279, 0.36383, -0.896943, -1.02727, -1.54246, 0.020402, 0.099987, -0.709225, 0.046063, -0.263841, -1.48047, 0.174407, -0.088311, 0.03174, 0.135129, -0.312828, -0.021455], [0.054693, 