{"number_of_layer": 8, "number_of_neurons_each_layer": [5, 50, 50, 50, 50, 50, 50, 5], "weight": [[[0.031759, -1.73163, -0.087442, 0.246198, 0.170159], [0.204788, 1.54263, -0.144915, 0.342657, -0.420385], [-0.007203, -0.066078, -0.013474, -0.001022, -1.92418], [0.004262, 0.657441, 0.505933, -0.243405, 0.139503], [-2.38069, 0.036443, 0.006251, -0.037234, -0.006215], [-0.101592, -2.10203, -1.68368, 0.528628, -0.322604], [-0.008569, 0.1288, -3.06258, 0.226857, -0.006431], [-0.16213, -0.009515, -0.066687, -0.697469, 0.454756], [-0.001948, -2.45621, -0.256437, 0.396768, -0.269345], [-0.703167, 0.020645, 0.003329, -0.033352, -0.192472], [-0.619844, 0.102498, -0.08921, 0.777859, -0.887706], [0.088273, -0.606744, -1.74252, -0.501028, 0.550622], [0.022516, 1.31116, 0.055468, 0.1804, 0.095296], [0.326263, -1.39139, 0.123378, 0.301085, -0.545245], [-0.12388, 0.059742, 0.049017, 0.136575, 0.03426], [-0.062025, 2.63086, 0.77173, 0.090914, -0.260298], [0.479038, 0.269331, -0.84644, -0.033405, 0.146664], [-2.66136, 0.119223, -0.245131, 0.114503, 0.025279], [-0.11191, 0.231118, -0.1279, -0.837781, 0.903312], [-0.595087, 0.100181, 1.07487, 0.310281, 0.463232], [0.066698, 1.04186, -1.38637, 0.102932, -0.206311], [-0.180886, -0.191682, 0.367809, -0.641283, 0.752682], [0.009864, -0.869041, 1.15434, -0.130129, 0.34846], [0.021729, 0.128442, 0.018911, -1.07978, -0.202482], [-0.005611, -0.728461, -0.139993, 0.177784, 0.329259], [-0.02068, 0.525462, 0.212339, -0.06268, 0.198268], [-0.028277, 0.916147, -1.22178, -0.090805, 0.264168], [0.002609, 1.08946, -1.06754, -0.011773, 0.250136], [0.029199, 0.282137, -0.322542, -0.126966, -0.684722], [-6.3e-05, -1.42837, 1.49373, 0.415997, -0.61134], [-0.022123, 1.1318, -0.266133, 0.075171, -0.659726], [-0.727327, -0.149128, 0.002771, 0.133677, 0.095037], [-0.014303, -0.58423, 0.782375, 0.156485, -0.434127], [0.014716, 0.866103, -1.08741, -0.095997, 0.199876], [0.025555, -0.548825, 1.54026, 0.06156, 0.238038], [-0.032228, -0.421609, -0.323992, -0.228876, -0.113297], [0.016157, 1.84644, 0.255636, 0.225635, -0.105505], [0.060976, 0.877586, -1.40493, 0.020247, 0.783561], [0.055574, -0.434014, -0.0348, -0.167393, 0.204044], [0.437442, 1.05189, -0.768403, -0.156163, 0.314424], [0.057909, 0.223822, 0.138849, -0.186365, 0.171985], [-0.159981, 0.903545, -0.833153, 0.080696, -0.370409], [-0.252766, -1.67361, 2.16148, -0.208214, 0.798023], [-0.287291, 1.0782, -1.80353, -0.115986, 0.38209], [0.141282, 1.93135, -0.217608, 0.388677, -0.518071], [0.107432, 0.256495, -0.330009, -0.461143, 0.423958], [-0.017051, -0.101881, -1.72361, 0.707845, -0.657099], [0.039867, 0.559591, 0.894113, 0.479703, 0.027783], [-0.022522, -1.2727, 1.51476, -0.058211, 0.388037], [2.04429, 0.021259, -0.004828, 0.003084, 0.038755]], [[-0.274312, 0.453244, -0.26459, -0.209235, 0.262021, -0.006824, -0.019273, -0.302871, -0.434269, 0.374813, 0.606781, -0.164066, -0.366329, -0.200209, -0.00245, 0.006398, 0.55346, 0.255258, -0.120655, 0.566855, -0.50845, -0.658648, -0.01522, -0.474349, 0.023076, -0.634321, -0.699678, 1.0432, 0.660976, -0.119919, -0.091158, 0.130008, 0.507275, -0.393132, 0.173094, -0.793119, -0.714824, 0.063532, 0.01155, 0.021928, 0.215136, -0.139338, 0.178261, 0.385188, -0.082758, 0.295069, 0.280843, -0.059965, 0.068492, -1.54697], [0.025736, -0.026702, 0.004221, 0.03619, 0.038162, -0.047299, 0.000992, 0.038513, 0.012266, -0.004579, 0.028093, 0.022573, 0.0054, -0.00991, -0.000591, 0.011604, -0.026122, -0.043206, 0.029912, -0.014141, 0.010773, -0.040531, -0.011815, -0.052128, -0.044696, -0.053702, 0.044924, -0.016331, 0.026676, 0.013845, 0.014246, -0.053482, -0.004618, -0.026181, -0.057151, -0.054689, -0.049398, -0.00441, -0.041339, 0.000506, 0.015705, -0.02368, -0.041185, 0.001746, -0.000697, -0.057322, -0.037554, -0.008317, 0.03523, -0.023557], [0.054156, -0.929572, -1.03635, -1.75234, -1.83707, -0.364713, -3.47448, 0.717576, 0.673666, -0.804945, -0.960829, -0.1571, -1.20104, 0.35074, 0.328205, -3.79261, 0.198746, -0.670497, -0.663242, -0.007442, 0.037232, -0.307617, 1.84669, -2.23216, 0.081318, -1.86278, 0.020026, -0.009452, -0.012711, 1.80262, -0.017505, -0.780906, 0.888429, 0.00507, 0.749418, -1.27719, -0.196199, -0.925027, 0.275989, -0.026293, 0.420569, 0.132053, 1.10097, 0.054307, -0.402671, -0.893362, 0.31422, -1.02056, 0.682975, 0.094844], [-0.009263, -0.013199, -0.018253, -0.003368, -0.005856, 0.033611, -0.008417, -0.041729, -0.056006, -0.036431, 0.013173, -0.0308, 0.012711, 0.034198, -0.057256, 0.009483, 0.006298, 0.01415, 0.022712, -0.042218, 0.003719, -0.030408, 0.049449, -0.033745, -0.028366, -0.057238, -0.031089, 0.008951, -0.049934, -0.014361, 0.019391, -0.000423, 0.012384, -0.028048, -0.039456, 0.019904, -0.006778, -0.054348, -0.02373, -0.016657, -0.008383, 0.024541, 0.040219, 0.021768, -0.0008, 0.026014, -0.023435, 0.03523, -0.011837, -0.007926], [0.019734, -0.027838, -0.001339, -0.030846, -0.028652, 0.00493, -0.052099, -0.042975, -0.008162, 0.007528, -0.04242, -0.037, 0.038189, 0.037199, 0.024345, 0.027485, 0.015293, 0.035198, -0.014607, -0.046181, 0.015547, -0.0011, 0.009447, 0.034095, -0.032475, 0.012067, -0.034258, -0.053002, -0.026587, 0.00718, -0.013011, 0.021782, -0.048332, 0.007863, -0.050049, -0.015189, 0.037754, 0.009129, 0.030411, -0.007652, -0.020571, -0.044933, 0.01027, 0.007748, -0.052083, -0.041271, 0.029802, -0.054259, -0.05256, -0.050751], [-1.03932, 0.195677, 0.266497, -0.022258, -0.268736, -0.620271, -0.657646, -0.091627, -0.078242, 0.273539, 0.068711, 0.243624, 0.10593, 0.806385, -0.353127, 0.163901, -0.631221, 0.927039, 0.121021, -0.065991, 1.0656, -0.111738, -0.845631, 2.23564, -0.375615, -0.136093, -2.3314, -1.90099, -0.285621, 0.312996, 0.645906, -0.323748, -0.644944, -3.57572, 0.783218, 1.42319, 0.184416, 0.116455, 1.47364, -0.332077, -0.251001, 0.357612, -0.346401, -0.204745, 1.24244, 0.209761, 0.082325, 0.043752, -2.4057, 0.061725], [-0.059475, -0.041415, -0.036435, -0.012627, -0.039069, -0.005676, -0.023691, 0.026306, 0.021504, -0.067346, 0.008288, -0.024706, -0.00246, 0.009484, -0.066583, -0.025364, 0.056662, 0.028337, -0.010716, -0.026585, -0.017213, 0.02529, -0.004067, 0.0917, 0.001723, -0.076011, 0.017853, -0.042427, -0.046708, -0.001714, -0.018593, -0.036056, 0.030439, 0.067035, 0.007011, -0.023943, -0.068271, 0.018495, 0.013083, 0.034178, -0.006659, -0.031161, -0.014657, -0.010922, -0.012288, 0.028241, -0.043745, 0.036102, 0.03507, -0.007371], [0.022814, -0.039027, -0.294233, -0.037564, 1.20188, 0.012948, -0.242111, -0.697188, 0.879654, 0.014543, 0.403536, -0.369476, 0.148121, 0.184284, 1.0116, -0.000286, 0.09266, 1.73806, -0.205405, 0.865302, -0.213619, 0.307991, 0.890323, 0.847081, -0.373023, -0.785672, 0.856536, 0.78608, -2.81461, -0.907279, -0.106334, 0.345435, -0.459749, 0.281276, -0.062597, 0.664333, -0.177118, 0.657328, 0.740383, -0.415382, 0.361935, 0.087135, -0.504935, 0.41707, -0.015883, -1.04179, -0.359125, 0.265012, 0.43662, -3.53347], [0.491652, 0.610874, 0.022945, -0.039128, 0.245841, 0.169525, -0.54199, 0.413163, -0.105995, -0.195197, -0.165593, -0.088818, -0.61762, -0.101449, 0.861829, -0.842826, -0.226913, -0.337727, 0.233298, 0.134471, 1.57176, 0.278631, -0.996803, -0.438068, 0.114219, -0.280085, 1.2896, 0.318891, 3.51585, 0.247691, 0.699926, 0.286443, 0.749305, -0.871334, 0.219607, -0.457545, -1.2776, -0.819385, 0.206873, -0.207161, -0.135413, 1.70294, 0.027015, -0.284809, -0.225714, -0.624877, -0.500674, 0.744855, -0.586736, 0.104291], [0.249866, 1.30565, 1.82624, 3.73389, -0.705446, 0.854509, 0.261065, -1.57132, 0.851941, -1.3744, -0.022841, -0.070455, -1.53498, 0.375347, -0.611741, -0.62963, 0.228578, 1.08557, 0.196112, -0.494594, 1.52388, 0.426862, -1.21733, -0.513012, 0.679523, -2.11528, 1.97831, 0.885367, 1.05502, 0.711846, 1.95694, -0.969351, 1.12563, -0.286033, -0.568255, 0.442432, -1.5398, -0.067519, 0.902231, 0.800487, 1.10738, 0.565039, 0.552051, -0.168715, 0.391228, 0.640041, 0.137784, 2.14418, 0.242862, -0.314508], [-0.845997, -0.501931, -0.158747, 0.688746, 0.827614, 0.134864, 0.548595, -0.254902, -0.17993, 0.212844, -0.153797, -0.10689, 0.529856, -0.063873, 0.496303, -0.33389, -0.228661, -0.219494, 0.500196, -0.168155, -0.515916, -0.08721, -0.879658, 0.224497, 0.134378, 0.274885, -0.528585, -0.301811, -0.816503, -2.13892, -0.382553, 0.099828, -0.300592, -1.72477, -1.0078, -0.236236, 0.153463, 0.133485, -0.416936, 0.090325, 0.692326, 0.353388, -1.74517, 0.248599, 0.239409, 0.043429, 0.102922, 0.02993, -0.690035, 0.201308], [0.043025, -0.056028, 0.07444, -2.06286, -0.497151, -0.691333, -3.75955, 0.675451, 0.26421, 0.020705, 0.971932, -0.63936, -1.88233, 0.828514, -0.122192, -3.03972, -0.96406, -0.267326, -0.382963, -0.790036, 0.070204, 0.001445, 4.13375, -0.253638, 0.045233, -1.56232, 0.022461, 0.036199, -0.103774, 1.96505, -1.13608, -0.769192, 1.34497, 0.015481, 0.354585, -0.649784, -2.76846, -1.1249, -0.361161, 0.07944, -1.3535, 4.87997, 0.86463, 0.004117, -0.917156, -1.2361, -0.814764, -0.887547, 2.65581, 0.23026], [-0.479558, 0.651215, 0.274416, 0.000922, -0.063625, -0.296317, 0.319718, -2.30066, 1.36107, -0.105695, -1.09513, 0.181175, 1.03404, 1.33957, 0.746302, 0.397058, -0.825743, 0.808341, -0.157362, 0.158381, -0.596414, -0.063336, -1.8898, -1.54826, -0.525145, 0.180197, -0.413323, 0.077192, -1.9655, 0.997645, 2.42986, -0.659601, -1.18408, -6.66208, 0.461241, 0.146605, 0.283559, 0.537062, -0.209808, -1.69696, 0.78999, -0.167564, -0.922464, -1.13141, 0.16782, 0.052805, 0.329293, 0.344415, -1.36282, 0.386707], [0.047643, -0.043664, 0.011057, 0.000906, -0.036961, 0.001624, -0.063046, -0.063548, -0.024724, -0.046012, 0.004789, -0.031198, 0.038017, -0.017656, -0.020825, -0.010594, -0.003106, -0.057643, -0.006925, -0.032691, -0.043141, -0.046554, -0.011304, 0.004754, -0.051142, 0.042412, 0.013569, -0.022093, 0.010351, -0.018336, -0.059926, -0.013048, 0.011529, 0.020936, -0.007457, 0.040125, -0.034428, 0.009138, -0.024757, 0.010459, 0.016139, -0.013054, -0.00132, 0.003857, -0.061901, -0.053197, -0.058156, -0.004111, 0.024822, -0.046667], [-0.01891, -0.000994, -0.003636, 0.035335, -0.022297, -0.033429, 0.020395, 0.019345, -0.031508, -0.06459, 0.019495, -0.001618, -0.015932, 0.015048, 0.024097, -0.007757, -0.034841, 0.030064, -0.052255, -0.00115, -0.050515, -0.001149, -0.030383, -0.014692, -0.052591, -0.010332, -0.01407, -0.02948, 0.00967, 0.037865, -0.059501, 0.018588, -0.020775, -0.066699, -0.033951, 0.008127, 0.021541, 0.007688, -0.058511, -0.042325, 0.009694, -0.044606, 0.00149, -0.006847, -0.035712, -0.051149, 0.018574, -0.022493, 0.000892, 0.020921], [-0.20159, -0.0305, 0.989869, 0.179579, 1.60502, 0.169261, -0.256771, 0.138062, 0.448711, 1.06801, -1.6468, -0.301261, -0.427856, 1.35083, -0.560771, -0.392215, -0.862364, -0.621727, -0.425459, 0.269733, 1.03306, -0.359423, -0.302407, -0.0846, 0.558334, -0.798522, -0.441174, 0.066321, 2.31964, 0.557922, -0.949382, -0.380052, -0.955894, -3.63345, 0.181161, 0.33276, 0.348661, 0.197926, 1.49968, 0.780464, 0.749026, -0.641226, -1.2385, -1.13619, 0.715619, 0.19123, 0.160381, -0.184771, -1.7204, -0.069867], [-1.1906, -0.187761, -1.17412, -0.222613, 0.239472, -0.180048, 0.046835, 0.148328, -0.959434, 0.188612, -1.39216, -0.046076, -0.467037, -3.54934, 1.18306, 0.049397, -0.255679, -0.462131, 0.943334, 0.08406, -0.664089, 0.444397, -0.728204, 0.428054, -0.436744, -0.390559, -0.213812, 0.133343, 0.3523, 0.91285, 0.478652, -1.51965, -0.918089, -1.11133, 0.85489, 1.90973, 0.491762, -0.426135, 0.470403, -0.955152, -0.160486, 1.01771, -4.98455, 0.620854, 0.818977, 0.062315, -0.161671, 1.61142, -1.60462, 0.662826], [-0.456485, 0.856443, 1.85042, -0.054704, 0.456502, -0.090346, -0.874963, 0.371503, 0.394512, -0.79268, 0.368762, 0.206635, 0.037506, -0.450968, -0.394804, 0.067263, -0.00082, 0.008897, -1.23974, -0.223669, 0.525303, 0.343944, 2.29532, 0.396805, 0.247657, -0.438304, -1.50264, -0.044868, -0.727554, -0.313242, -0.896162, 0.494989, 0.189078, 2.69746, -0.070975, 0.112815, -0.418909, 0.275994, -0.689375, -0.072454, -0.850014, 0.155487, -1.11743, -0.329123, -0.306785, 0.594758, 0.27112, 0.185984, 0.44125, -0.19347], [-0.359118, 0.211101, -0.415577, 0.519001, 0.576083, 0.089132, 0.077404, -0.951297, 1.2953, 0.483728, -0.540178, 0.442448, -0.590126, 0.041792, 0.393306, 1.18682, -0.303735, -1.12761, -3.12398, -0.387546, -0.497081, -1.67975, -4.13668, -0.277591, 0.105641, 0.257945, -0.006106, -1.38405, -0.834905, 0.356785, -0.549309, 0.385539, 0.103713, 0.748026, -1.09847, -0.09904, 1.13204, 0.334977, -0.949835, 0.02187, 0.021157, 0.165866, 0.769202, -0.160915, -0.490348, -0.169564, -0.143015, -0.213863, -1.26016, 0.006267], [-0.04639, 0.020357, 0.017029, -0.04398, 0.020471, 0.041634, 0.025597, -0.033698, -0.052331, -0.047249, 0.01229, -0.030615, 0.020622, -0.022755, 0.003928, 0.003396, -0.003526, -0.022099, -0.029908, 0.036115, 0.032423, 0.014551, 0.00961, 0.001356, 0.006025, 0.008823, -0.041197, -0.040787, -0.048007, 0.012584, -0.030152, -0.012234, -0.050383, -0.022418, -0.06316, 0.014385, 0.016931, -0.031801, -0.036212, -0.00744, 0.029939, -0.05471, -0.02573, -0.049702, -0.053216, 0.022603, -0.030141, -0.044937, 0.01435, 0.019913], [0.008415, 0.020125, -0.030105, -0.01592, -0.027358, -0.021638, -0.029224, -0.007494, -0.039295, -0.031394, -0.034995, -0.054797, -0.02413, 0.006326, -0.04803, -0.044979, -0.045446, -0.016608, 0.035448, -0.016608, 0.045649, 0.000468, 0.002751, 0.028156, 0.036971, 0.012276, 0.041628, 0.044333, 0.022349, -0.055773, -0.03541, 0.02615, -0.044377, 0.034138, -0.045479, -0.04483, -0.052292, -0.010871, -0.014015, 0.035795, 0.039419, 0.026942, 0.032262, -0.031945, -0.03295, -0.048411, 0.034525, -0.034233, 0.020992, -0.020124], [-0.051412, 0.012913, -0.038199, 0.013744, 0.00638, -0.025999, -0.022893, -0.029849, -0.042344, -0.044035, -0.023853, 0.017803, -0.044005, 0.01072, 0.003945, -0.044388, -0.025476, -0.036647, 0.018567, -0.042057, 0.038477, -0.012365, 0.040598, -0.053206, 0.019267, -0.040431, 0.001849, -0.011452, -0.045824, -0.017465, 0.01457, -0.007164, -0.010225, -0.007067, 0.035359, -0.050189, -0.049002, 0.017975, 0.011711, 0.028646, -0.030316, 0.016787, 3.2e-05, 0.024025, 0.02544, -0.001207, -0.013033, 0.023928, 0.031012, -0.015402], [-0.072894, -0.402899, -0.432997, 0.371604, -0.288002, 0.326017, -0.475565, 0.553322, -0.775361, -0.07549, 0.150609, 0.317172, 0.311245, -0.131487, 0.30096, -0.176012, -1.53468, -0.403507, -0.13775, -0.131105, -1.18876, 0.13302, 1.0769, -1.41823, -0.344501, -0.012694, -1.85012, -1.31359, -3.6553, -0.172484, -0.91794, 0.803822, -0.95562, -1.653, -0.521283, 0.546369, -0.213778, -0.054353, 0.550162, 1.34888, 1.75993, 0.041067, -0.955579, -1.37021, -0.113048, 0.696498, 0.290443, 0.619548, -0.626162, 0.364019], [-2.18069, -0.160889, 1.17492, -1.39892, -0.517175, -0.701918, -0.015021, -1.19944, -1.44845, -0.175762, 0.077564, -1.33937, -0.345594, 0.425506, -1.8369, -1.12561, 0.656209, -1.00287, 0.258813, -0.523932, 0.951032, -0.083739, -0.203895, 0.010031, -1.11464, -1.5396, 3.19048, 2.38258, -2.45391, -0.117635, -0.087778, -0.207173, 1.96614, 3.23627, -4.26021, -0.734659, -0.057663, 0.016675, -2.58249, 0.756376, -0.409842, 1.42757, 0.034357, 1.14243, 1.54062, 0.166972, 0.336275, -1.06167, -0.225474, -0.240796], [0.188761, -0.690306, 1.95548, 0.145664, -0.273162, 0.3031, -0.280829, -0.335122, 0.814155, 0.108379, -0.264908, 0.044018, 0.224765, -0.156712, 0.800981, 0.323428, -0.089292, 0.917403, -0.57127, 0.104052, -0.945869, -0.733759, 2.20423, 0.42434, 0.536686, 0.170637, 1.71631, 0.511784, 0.021891, -0.073409, -0.58289, 1.06546, -0.318246, 2.1348, 0.117181, -1.18153, 0.448997, 0.308753, -0.401789, 0.71468, 0.440258, -0.773367, -0.062745, -0.153951, 0.031402, -0.437386, 0.783966, 0.40038, 1.52602, 0.377452], [-0.360477, 0.279735, 0.325113, -0.035603, -0.44564, -0.092405, -0.780429, 0.361228, 0.009703, 0.106819, -0.262385, -0.027221, 0.50532, 0.09343, 0.118104, -0.207072, 0.108198, 0.202915, -0.586645, -0.228008, -0.348188, 0.01441, 0.688693, 0.388035, -0.157403, 0.661823, 0.253688, 1.4745, 3.28551, -0.05544, 0.862222, 0.094846, 0.291823, 0.861512, 0.290744, -0.313691, -0.361522, -0.241347, 0.288096, -0.012221, 0.524592, -2.20928, -0.091376, 0.522141, 0.068778, -0.122466, 0.547359, 0.859029, -0.164332, -0.241557], [0.015757, -0.026634, 0.029219, 0.004989, -0.006123, -0.021691, -0.041512, -0.045575, -0.049378, -0.023939, -0.015016, -0.014382, -0.043652, -0.052223, 0.018487, -0.007214, 0.005666, -0.033114, -0.022765, 0.010777, -0.011235, 0.011913, -0.00329, -0.01628, -0.06228, -0.008871, 0.01599, -0.046974, -0.047421, 0.004933, -0.006461, 0.014242, -0.014953, -0.026658, -0.007783, 0.03722, -0.027195, 0.03097, 0.008862, -0.012378, -0.040965, -0.018556, 0.026076, -0.030804, 0.00476, 0.010125, 0.038904, 0.027398, -0.043242, -0.021938], [0.006488, 0.09297, 0.001524, -0.321824, 0.124959, 0.128229, -0.026794, 0.486634, 0.151701, -0.314176, -0.417531, -0.018025, 0.378439, -0.234897, 0.322379, -0.378719, -0.165578, 0.00987, -0.052824, 0.157634, 0.341792, 0.030226, 0.121134, 0.138058, 0.29264, 0.140448, -0.06607, -0.077262, -0.278474, -0.353499, 0.323925, 0.028211, -0.122712, -0.113844, -0.03281, -0.005498, 0.262366, -0.000671, 0.063795, -0.164827, -0.312503, -0.157909, 0.039191, -0.068177, -0.219347, -0.539879, 0.130794, 0.313859, 0.213782, 0.09913], [-0.035152, -0.021946, 0.034081, 0.025523, 0.014839, 0.023972, -0.038066, -0.027405, 0.004549, -0.050963, 0.011696, 0.040802, 0.03989, 0.033066, -0.058465, 0.016174, -0.03655, 0.038569, 0.034339, -0.01321, 0.025723, 0.013013, 0.035584, -0.005793, -0.044662, -0.01844, -0.026725, 0.013434, -0.055105, -0.038075, 0.012104, 0.019506, 0.016518, -0.035433, -0.0361, -0.043993, 0.003149, -0.043593, 0.037138, 0.029544, -0.047297, -0.024858, 0.029395, 0.027595, -0.004673, -0.040725, -0.059061, -0.038591, 0.007091, -0.013347], [0.011494, 0.03263, -0.030928, 0.011773, 0.004171, 0.026447, -0.049422, -0.0396, -0.008278, 0.03101, -0.03233, -0.010879, -0.037872, 0.027719, 0.03341, -0.046566, -0.031401, -0.04466, -0.005897, -0.050127, -0.006945, -0.036241, -0.032768, -0.034586, 0.004911, 0.037374, 0.004335, -0.013983, -0.0004, 0.010744, 0.042663, -0.012309, -0.022697, 0.018349, 0.019992, -0.043289, -0.025904, -0.007439, 0.031678, -0.007228, 0.024366, -0.038926, -0.024241, -0.036688, -0.045108, -0.021383, -0.039376, 0.023882, -0.041089, -0.012451], [0.338641, -0.500198, -0.207673, 0.276687, -0.492646, -0.251927, 0.135747, 0.026538, -0.095549, 0.306807, 0.338947, -0.040973, -0.047846, 0.026232, 0.275925, 0.025835, 0.057003, -0.169598, -0.110694, 0.010225, -0.648895, 0.14568, 0.344238, 0.351122, -0.451937, 0.219795, -0.54876, -0.567859, 0.176746, -0.814782, -0.027459, -0.856243, 0.655009, 0.201565, 0.384441, -0.096619, -0.20746, -0.054188, 0.243565, 0.747065, 0.392908, 0.480255, 0.238414, 0.431751, -0.211282, 0.159903, 0.141963, 0.230753, -0.741441, -0.56916], [-0.041939, 0.006021, -0.003344, -0.022497, -0.002179, 0.00736, -0.033643, -0.032723, -0.007337, -0.037507, -0.037936, 0.025203, 0.010471, -0.039635, -0.039811, -0.008983, -0.026329, -0.050963, 0.028818, 0.010893, 0.017244, -0.000999, 0.037802, -0.042935, 0.04606, -0.046715, 0.040391, 0.026999, 0.03416, -0.024886, -0.025311, -0.046162, -0.006695, -0.023165, -0.03869, 0.014039, -0.057419, 0.002216, 0.002897, -0.023909, 0.008087, -0.009941, 0.020552, 0.019826, -0.006452, -0.005186, 0.03864, -0.0654, 0.001667, -0.004997], [0.041264, -1.29728, 0.381749, 1.15467, 0.2929, 0.529762, 0.953003, 0.201388, 1.16869, 0.241395, -0.158181, -0.205947, -0.764125, 0.756724, -1.17347, 0.560055, 0.311625, -1.41564, 1.56483, 0.324826, -2.33209, 0.077351, -3.36636, 1.42111, 0.805773, -0.368175, -3.43389, -2.33226, 0.46131, 0.580032, -1.50381, -0.776228, -1.18775, -5.92124, -1.70241, 0.331377, -0.890031, 0.538327, -1.15374, 0.115613, 0.06255, -1.62655, -0.64121, -1.44929, -0.816254, 0.949781, 0.116273, -0.765188, 0.449808, -0.118233], [0.391992, 0.817864, -0.736237, -0.285892, 0.204657, 0.239517, -0.710082, 0.139483, 0.350412, 0.153979, -1.61291, -0.151414, -0.235559, -0.347021, -0.064388, 0.292916, -0.303358, -0.45759, 0.499055, -0.088146, 0.769675, 0.223878, -0.735666, 0.22533, 0.316863, -0.14641, 0.210169, 0.119796, 0.55351, -0.089401, 0.057251, 0.507043, 0.438296, -1.41945, -0.076779, 0.553146, 0.401557, -0.031573, -0.505711, 0.432787, -0.304997, 0.97157, 0.41325, 0.518811, 0.179168, -0.077298, -0.418303, -0.219906, -0.636431, 0.201609], [-0.02172, -0.045566, -0.046154, -0.020909, -0.021105, -0.054742, -0.000968, 0.012879, -0.006066, 0.016764, 0.027053, 0.014648, -0.049222, -0.037607, -0.015498, -0.040183, 0.00859, 0.020258, 0.015724, -0.017359, 0.037859, -0.039721, -0.017418, 0.039214, -0.022314, 0.024178, -0.038862, -0.00559, 0.016383, 0.030954, -0.005635, -0.017243, -0.026221, 0.029766, 0.000487, 0.004557, -0.006318, -0.022068, 0.001775, 0.007787, -0.027965, -0.058217, -0.021047, 0.018552, -0.055853, 0.022585, -0.040895, 0.03522, 0.032673, -0.052478], [-0.311135, -1.19275, 0.834499, 0.591128, 0.106935, -0.05756, 0.152322, -0.288435, -0.055359, -0.533366, 0.535055, -0.102473, 0.339402, -0.940659, 0.691682, -0.201262, -0.481124, 0.157567, 0.109502, -0.116808, -0.245004, -1.01094, -0.187487, 0.113901, -0.175427, 0.951489, 0.538416, 0.818731, 0.086099, 0.455017, 0.691051, -0.157834, 0.486619, 0.408087, -0.233549, 0.830949, -0.166345, 0.235651, 0.46657, -0.322897, 0.697712, 0.394906, -0.481395, -0.489776, -0.353276, -0.216871, 0.316066, -0.018322, 0.548855, -0.185468], [0.309872, -1.06137, 0.71105, -0.870874, 1.80779, -0.993606, 0.274666, 0.288282, -0.266274, 0.907304, -0.003154, -0.176602, -0.023998, -0.192207, 0.40678, -0.118726, 0.359958, 0.682801, 0.179129, 0.604521, 0.011599, 0.286246, 0.012606, -0.164845, -0.250673, -0.760911, 0.149825, -0.152745, -0.985073, -0.358635, 0.516154, 0.189233, 1.72788, 1.32275, 0.645547, -0.761888, 0.16011, 0.294357, -0.943986, -0.013861, -0.235768, 0.378565, 0.735794, 1.18986, -0.200746, 0.05844, 0.659394, 0.054386, -0.212449, -3.22236], [0.008485, 0.036554, -0.015665, -0.010971, -0.015179, -0.05066, -0.039212, -0.033481, 0.013509, -0.033411, -0.001178, -0.008638, 0.033492, -0.053705, 0.004538, 0.013523, 0.012436, 0.019747, -0.004257, -0.054747, -0.001205, -0.036249, 0.04025, -0.032208, -0.041836, -0.002709, 0.040434, -0.022062, 0.023514, 0.018721, 0.023352, -0.035172, 0.009389, -0.045261, -0.01693, -0.00892, -0.030044, -0.022933, 0.015107, -0.034877, 0.002148, 0.040746, -0.049252, -0.054724, -0.048444, -0.054301, -0.014237, -0.009584, -0.020818, -0.028782], [-0.576885, -1.09167, 0.609857, 0.266263, -0.431221, 0.077413, 0.487465, 0.634386, -0.68323, 1.32083, -0.235838, 0.556386, 0.471956, 0.289403, 0.937659, 0.622147, 0.432648, -0.989817, 0.202938, 0.00939, 0.334109, -0.043231, -0.336993, -0.426535, 1.55081, 0.416026, 0.018767, -0.394888, -0.480034, 1.38047, -1.18544, 1.40696, 0.568657, 1.16998, -0.163937, 0.663622, 0.524144, -0.521591, -0.665167, 0.052486, 0.508808, -0.846604, 0.384857, -0.391466, -0.015584, -0.094981, 0.461468, -2.16404, 0.185008, 0.06344], [-0.054131, -0.048274, 0.03345, 0.024583, -0.008799, -0.024564, -0.015418, -0.024354, 0.022819, -0.006262, 0.008252, -0.02022, -0.035365, -0.016636, -0.019147, 0.034367, 0.006732, -0.041194, -0.02529, -0.002665, -0.008998, 0.035203, -9e-06, -0.011162, -0.045132, 0.034469, -0.047981, 0.008163, -0.002242, -0.019242, 0.041504, -0.015154, 0.004881, -0.052639, -0.033484, 0.013377, -0.040655, -0.00351, 0.012298, 0.006752, -0.010284, -0.007452, 0.007831, -0.024851, -0.017153, -0.023331, 0.001243, 0.000917, -0.030241, -0.008851], [0.391378, -0.294451, -3.75459, 1.54936, -1.17842, 1.34691, 0.272605, 0.624759, -1.48431, -0.667699, 0.284518, 0.124187, 0.757767, -0.645883, 0.188096, -0.604809, -1.73354, 2.57982, 0.864732, 0.450673, -1.21771, 0.419065, -4.50993, 0.407726, -0.282901, 0.704154, -5.56354, -1.08342, -1.28999, -1.08551, 0.24487, 0.860787, -1.95361, -6.4354, -0.954131, 2.34613, -0.396011, -0.764787, 0.619252, -0.244543, 1.28092, -0.977154, -1.62792, -2.73654, -1.6448, 0.684865, -1.41219, 0.599573, -2.99165, 0.229829], [-0.484184, 0.851789, -0.516806, -0.595217, 0.935383, -0.966439, 0.688145, 0.955264, -3.61554, -1.59502, -1.22572, -0.115811, 0.299742, 0.175667, 0.890595, 0.777705, 1.3518, -0.541904, 0.572719, -1.14957, -0.566025, 0.28604, 0.218341, 0.002707, -2.5361, 0.177066, -1.45743, 0.814792, 1.49508, 1.10408, 0.832365, 0.62405, 1.22509, -4.01749, 0.612527, 1.46084, 1.07383, 0.036548, 1.13132, -0.442534, -0.813908, -0.446817, 0.277246, -1.75083, 0.060767, -0.048747, 0.752235, -1.24523, -0.118982, -0.384501], [-0.612468, -0.211449, 0.043409, 0.291675, 0.08768, 0.049293, -0.648265, -1.18123, -0.835298, 0.11145, -2.09193, -0.51415, 0.082725, -2.72927, 0.832651, 0.024433, -0.565227, -0.10769, 1.03916, 0.372792, -0.497275, 0.919016, -1.83518, -0.82844, -1.70374, 0.152593, -0.621092, 1.48262, 0.978988, -1.30129, 1.03647, -0.518309, -2.23401, 1.04066, -1.73864, -0.457501, 0.020593, -0.306605, -2.16857, -0.972793, 0.131762, 0.502448, -1.51759, 0.210734, -0.168065, -0.206317, -0.545237, 1.87018, -0.922028, 0.631169], [0.198971, -0.599317, 2.12096, -1.41419, -1.21862, 0.652972, 0.266951, -0.798349, 0.331328, -0.260286, -0.20196, -1.35797, -2.41469, 1.14555, -0.426822, -3.83121, -0.065032, 0.194371, -0.560341, 0.124107, -0.129371, -0.714487, -0.106316, 0.271656, 0.208458, -1.23457, -0.198616, -3.00735, 0.242595, 1.01138, -3.52312, -1.07481, 0.845073, -0.06955, -0.283658, 0.034286, -2.46368, 0.556515, -1.84638, -0.245647, 0.681091, -1.43322, 0.557211, -0.425152, -1.78637, 0.096545, 1.2047, -0.226016, 1.82489, -0.05082], [0.598802, -0.963721, -0.349655, 1.1176, 0.093, 0.5762, 0.205625, -0.006514, 0.868967, -0.416388, -0.17333, 0.445473, -0.168652, 0.3329, -0.519858, 0.212917, 0.349054, 0.101911, 1.0339, -0.235731, -1.06074, 0.661253, 0.13677, 0.22636, -0.068434, 0.479897, -3.30498, -3.33063, -2.99693, 1.12731, 0.02241, -0.59403, -0.614486, -3.95022, -0.735536, 0.555479, -0.261831, 0.196022, -0.13545, -0.301185, 0.832555, -1.27348, -0.355783, -0.622932, -0.822885, 0.830593, -0.062244, 0.404134, -0.035016, 0.132207], [0.291416, 1.27632, -3.89126, 0.016589, -1.52874, 0.387118, -0.290629, -0.707104, -0.290492, 0.042908, -0.796008, 0.083155, 0.879501, -1.1906, -0.215779, -0.451941, 0.409185, 1.95057, 0.705282, 0.549936, -2.20445, 0.701527, -4.27602, -0.604844, 0.362512, 0.943427, 0.793755, -0.124825, -1.64028, -2.42465, 1.39195, -1.68549, -1.94764, 1.984, 0.157895, -0.830002, 1.2135, 0.303705, -0.418655, -0.427528, -0.157674, -1.06973, -1.38106, -1.42997, 1.14071, 0.934971, -0.569405, 0.005689, -3.37117, 0.041663], [0.152036, 0.623348, -3.08634, -0.182146, -0.253844, -0.417105, -2.36275, -0.077699, -1.39007, -0.353199, -0.196433, 0.983814, 1.55412, -1.05309, -0.483574, -1.34062, -0.599056, -0.346459, 1.36842, 0.135319, -3.20624, 2.11837, -5.31248, -0.646149, -0.003617, 0.411741, -3.06005, -2.45175, -0.327076, -2.26877, -0.258512, -0.286187, -0.82062, -6.31948, 0.7747, -0.988049, 1.05909, -0.839357, 0.583331, -0.590053, 0.032858, -0.298121, -1.14159, -1.50244, 1.00035, -0.870757, -1.87424, 1.16205, -4.58043, 0.264699], [-1.26929, 1.42761, -0.21663, -0.142595, -0.750935, -0.380659, -0.500337, 0.020286, -2.00616, -0.348694, -0.139783, -0.088973, 0.777977, -1.52861, 0.800016, 0.087078, -0.356734, 0.45515, -0.169012, 0.397088, 2.08315, 0.051439, -0.752025, -0.281173, -0.297128, 0.312282, 2.65205, 3.14332, 3.0719, -2.00642, 1.104, -1.45403, 0.078514, 3.50622, 1.31074, -0.683227, 0.824461, -0.878895, 0.184468, -0.560225, -0.029679, 0.809648, -0.85877, -0.007161, 1.33175, -0.059573, 0.404473, 1.18873, -2.10986, 0.307307], [-0.144556, 0.37421, -1.61343, -0.701327, -0.447236, 0.593765, 0.505811, -0.545942, 0.069058, -0.402582, -0.134866, 0.620118, 0.199075, 0.639588, 0.588207, 0.266338, -0.235213, 0.350009, 0.085959, -0.130187, -0.410306, -0.15, -1.03141, -2.4016, 0.017484, -0.2999, -0.51465, 1.25561, -1.09047, 0.006918, -0.532451, 0.133303, -1.78111, -1.54051, -1.44867, 0.01218, -0.152971, -0.304912, -0.984164, -0.564727, -1.45745, -1.41288, -0.101387, 0.54059, -0.083753, 0.37662, -0.431556, -0.028916, -0.247296, -0.001196], [0.095261, -0.319858, -0.51215, -0.446647, -3.0878, -0.210576, -0.000731, 0.115985, -0.2369, -0.232345, 0.283103, 0.079045, 0.280589, -0.081763, 0.277623, -0.144259, -0.010121, -1.70128, 0.091967, 0.290288, -0.607491, -0.073609, 0.064343, -0.415892, 0.055647, -0.141034, -0.159436, -0.037943, -0.663464, -0.404454, 0.066085, -0.476752, 0.583038, -0.234489, 0.260731, -0.055055, -0.348927, 0.407365, -0.611005, 0.57988, -0.190376, 0.17482, 0.192513, 0.183183, 0.195665, 0.03689, 0.398347, -0.0516, -0.027779, 1.73343]], [[0.133037, -0.010928, 0.589114, -0.004462, -0.022238, 0.067844, -0.021455, -0.806179, 1.02241, 0.306808, 0.16852, 0.70686, -2.76869, 0.010907, -0.039421, -0.682721, -0.19735, -2.44404, 0.729885, -0.034596, -0.025371, 0.021721, -0.233062, 0.361028, -0.104387, 0.547287, 0.040496, 0.474199, -0.05425, -0.005978, -1.64685, -0.027978, -0.652812, -0.874391, -0.013015, 0.95267, -0.039646, 0.020034, 0.588637, -0.031894, 0.213349, -0.104711, -0.002303, -1.5977, -0.540474, -0.634777, -0.027805, -0.029356, 1.45068, 0.074966], [1.79371, -0.039071, -1.55054, -0.033648, -0.002704, 0.539181, -0.016143, 1.1701, -2.69787, 0.67438, -1.85009, 1.23715, -0.391772, 0.005078, 0.041662, -0.745111, 1.81519, -1.10407, 1.00798, -0.037545, 0.011547, 0.031018, 0.481061, 0.278197, 0.437758, 2.86376, -0.033449, -0.410854, -0.004587, -0.042058, -0.110361, 0.053809, 1.57643, -0.209575, 0.012322, -1.03127, 0.16654, -0.012366, 0.206509, -0.034515, 1.14705, 0.6315, 0.9305, -1.57081, 0.575916, 0.371913, 1.85146, 0.213988, 0.664348, -0.02125], [-0.275767, 0.023048, 0.784869, 0.005501, 0.034119, 0.801456, -0.004838, -0.022176, -0.342959, 0.569623, -1.32672, 1.19394, -0.17492, 0.035468, -0.05171, 1.01027, 0.277763, 0.869303, 1.446, 0.014789, -0.02082, 0.002428, 0.569675, 0.382649, -0.438718, 1.12661, -0.018452, 0.45031, 0.012672, 0.000509, 0.887014, -0.025938, 0.990397, -0.488774, -0.006507, 1.20043, -0.372183, 0.024807, 1.08823, -0.033973, 0.194824, 2.86194, -0.222113, 0.846041, 0.349497, 0.181883, 1.32896, 0.870589, 0.765029, 0.011714], [0.058784, -0.020973, 0.113645, 0.008582, 0.042114, 0.311295, -0.021082, 0.501689, -0.379093, 0.085499, -0.064673, 0.488523, -0.471063, 0.054054, -0.006746, 0.372241, -0.035244, 1.03048, 0.17933, 0.032384, 0.021284, 0.031707, -0.255286, -0.352817, -0.316069, -0.079141, 0.025521, 0.448636, 0.037838, -0.00085, 0.399299, -0.026497, 0.13157, 0.874311, 0.012402, 1.84504, 0.458923, 0.014737, -0.094391, -0.010757, -0.395096, 0.420199, 2.23785, 0.106154, -0.254666, 0.24536, 0.377085, -0.027431, -0.473, -0.207645], [0.494364, -0.017142, 0.940724, 0.019216, -0.021582, -2.16954, -0.044147, -1.39515, -1.98481, 0.607255, -0.594313, 0.340988, -1.45002, -0.042461, -0.026917, -1.66466, -1.75859, -2.54908, -1.10786, -0.01994, -0.036136, -0.049547, -3.87677, -2.31435, -0.028332, -2.64103, -0.026281, -0.029497, -0.023041, 0.031139, -1.81795, -0.015814, 0.191732, -0.907095, -0.018797, -6.20828, 0.288606, -0.030414, 0.790403, 0.04443, 1.80481, 1.9563, 0.034024, -0.761619, -0.498317, -0.916501, 1.66402, -7.64144, -1.13125, 1.27519], [1.48527, 0.018408, -0.149453, 0.024951, -0.031634, 0.245816, 0.001471, 0.789349, 0.982534, -0.023653, 1.7369, -0.906588, -0.450794, 0.035256, 0.040782, 0.665238, 1.028, -0.016359, -0.184833, -0.019245, 0.039632, -0.002332, 0.511244, -3.41922, -0.257346, 0.347703, 0.042106, 0.344191, 0.000465, -0.009417, 1.08306, -0.014904, 0.116525, 0.759932, -0.049605, 0.317237, 0.179522, 0.045559, 1.36003, -0.020454, 0.319543, -0.15117, -0.074717, 0.131824, 0.533806, -0.24747, 0.283736, 0.460396, 0.501768, 0.14224], [0.98622, -0.026504, 0.499701, -0.018573, -0.036243, 0.125134, -0.031297, 1.33941, -0.154342, 0.67148, -0.207494, -0.122439, -0.453501, 0.022337, -0.03852, 0.141717, -0.018178, -0.910438, 0.840152, 0.039498, -0.003479, -0.009904, -1.33392, -1.36844, -0.387287, 1.88823, 0.054169, 0.510465, -0.007867, 0.012484, -3.38418, -0.012747, 0.557362, 0.69047, -0.036721, 1.53184, -0.077028, -0.015043, -0.574111, 0.04034, -1.425, 0.491813, 0.601996, 0.623301, -0.135493, -0.182879, -2.75169, 0.640089, 0.016122, 0.9155], [0.229898, -0.021268, 0.055627, 0.012244, 0.021297, -0.175844, -0.042953, 1.013, 0.115846, -0.138998, -0.10912, 0.020937, -0.16857, -0.011969, -0.025112, -0.260751, 1.56581, 0.317617, 0.022115, -0.018873, 0.006295, -0.023075, -1.19317, 0.077738, -0.079251, 0.418948, -0.00695, 0.278377, 0.027479, 0.027344, -0.516319, -0.005531, 0.221121, 0.244327, -0.001535, 1.15158, 0.365103, 0.003175, 1.23792, -0.024525, -0.078821, 0.055527, 0.151291, -0.340789, 0.38193, 0.270496, 0.189613, -0.221565, 0.404466, -0.397255], [-0.004063, -0.011001, -0.040536, 0.005073, 0.043481, 0.040394, 0.043981, -0.032147, -0.055822, -0.013191, -0.052547, -0.029226, -0.055687, 0.011593, -0.014838, -0.055751, 0.030441, -0.044653, 0.044452, -0.011103, 0.039023, 0.026711, -0.005765, -0.008883, -0.027769, -0.043391, 0.001397, -0.033042, 0.022219, -0.03464, 0.028425, -0.032857, -0.047313, 0.014295, -0.027661, 0.037332, -0.019085, 0.02359, -0.007922, -0.009773, -0.029206, -0.035924, -0.036768, 0.024824, -0.032335, 0.002147, -0.063495, -0.051899, -0.013661, 0.013861], [-1.14224, 0.04131, -0.447238, 0.017264, -0.036513, -0.015667, -0.01809, 0.875695, 1.17519, 0.370771, 0.708839, 0.065074, 0.094509, -0.051833, 0.025607, 0.105202, -0.153648, -0.661945, -0.093492, 0.006378, -0.002552, -0.037881, -0.014612, -0.556367, -0.394655, -0.106238, 0.014726, 0.07679, 0.00466, -0.036238, -0.03372, 0.039608, 0.350924, 0.023919, -0.029858, -2.63343, -0.033153, 0.005379, 0.238763, 0.006488, -0.488913, 0.735288, 0.719776, 0.631962, 0.441554, 0.060994, -0.037623, 1.07462, -1.96972, -0.036291], [0.977043, -0.039696, 0.545752, -0.019016, -0.026172, -0.350293, -0.002372, -0.313469, 0.125047, -0.103073, 1.14169, -0.030352, -0.364811, -0.015751, 0.014917, -0.339419, 1.47868, 0.982588, -0.276279, 0.017445, 0.021397, -0.049618, -0.809533, 0.116886, -0.573248, 1.25433, -0.004627, -0.096266, 0.035834, 0.002896, 0.755007, 0.006531, 0.250356, 1.00491, -0.017516, 1.9314, 0.370084, -0.023676, -0.157883, -0.024742, -0.391243, 0.253078, -0.419802, 0.266998, -0.574089, 0.079375, 0.473435, -0.21618, -0.041047, -0.123997], [0.692158, -0.050973, 0.313453, -0.041284, 0.035262, -0.553171, 0.025759, 0.01171, 0.654743, -0.068086, 0.089243, -0.05678, 0.213693, -0.001178, 0.01143, 0.003391, -0.273907, -0.073485, 0.25247, 0.053011, -0.040509, -0.03526, 0.714847, 0.506683, -0.002432, 0.39083, 0.017519, 0.108946, 0.039031, -0.004055, 0.122452, 0.049895, -0.030225, 0.129481, 0.032637, 0.393132, -0.423723, 0.026317, 0.88873, 0.003572, 0.127307, 0.519401, 0.147261, -0.150371, -0.196124, 0.178708, 0.32322, -0.175302, 0.164698, -0.195232], [0.275572, 0.038523, 0.20486, 0.017954, -0.04742, -0.312114, 0.006342, 0.337206, -0.364472, -0.198125, -0.607664, 0.141292, -0.067621, -0.024286, -0.001185, 0.18784, -0.028562, 0.407292, -0.221647, 0.044333, -0.014068, 0.026048, 0.363508, 0.763434, 0.004116, 0.701619, 0.021917, -0.065388, 0.042625, 0.040845, 0.530267, 0.004746, 0.713984, 0.453722, 0.009319, 0.867342, -0.255315, -0.041215, -2.05096, 0.025774, 0.258566, 0.788918, -2.71306, -0.227744, 0.279902, -0.784762, 0.42835, -0.260469, -0.861701, 0.11968], [-0.290431, -0.037912, -0.172454, 0.005685, -0.002724, -0.097916, 0.032575, 0.054432, 0.178834, 0.167163, 0.408816, -0.017132, -0.274915, -0.008371, 0.051783, -0.048753, 0.278798, 0.060379, 0.561342, -0.014449, 0.016241, -0.025549, -0.280897, 0.04509, 0.041827, 0.586321, -0.02821, -0.412788, -0.02751, -0.04827, 0.521242, -0.039352, -0.442667, -0.122777, 0.009538, -0.22348, 0.168447, 0.036428, 0.42827, -0.018652, 0.087688, -0.842726, 0.14871, -0.083228, -0.018974, -0.052244, 0.034933, -0.036008, 0.368273, -0.013663], [1.55947, 0.017063, 0.342684, -0.016397, 0.035303, 0.004338, 0.012708, -0.318495, -0.109996, 0.044053, 1.58795, 0.218326, -0.169328, 0.007671, -0.016238, -0.97927, -1.66926, 0.448762, 0.794626, -0.018591, 0.04568, -0.037137, 1.0235, -0.119075, 0.241864, -0.772991, 0.025136, -0.430275, 0.022013, 0.025998, 0.095465, 0.0513, 0.229415, -0.412714, 0.01603, 1.54769, 1.52389, -0.019084, -0.805792, -0.014615, 0.171413, -0.74023, -2.27348, 0.813284, -0.928595, -0.246134, 1.35797, -0.129424, 0.878007, -0.855245], [0.201741, -0.038862, 0.708568, 0.033917, 0.023877, 1.53499, -0.001417, 0.418561, -0.338167, 0.669432, -1.07403, -0.394055, -0.23796, -0.034113, -0.056428, 0.218881, -2.7186, -0.276417, 0.576472, 0.039853, -0.039731, -0.022978, 0.299968, -3.65254, 0.542269, 0.285715, -0.023708, 0.344638, 0.023075, 0.023839, -0.923638, 0.008657, -0.052341, 0.835018, -0.004608, -2.39344, -0.297386, 0.03318, -0.781799, -0.019209, 0.43285, 1.72614, -2.81548, 0.631976, -0.057166, -0.850218, 0.575726, 0.164586, -0.512563, -0.008733], [-0.123767, -0.003271, 0.396106, 0.010992, -0.022652, -0.016807, -0.026651, -0.129517, 0.712654, -0.162315, 0.159925, -1.25945, 0.045241, -0.009194, 0.001459, 0.066751, 0.411892, 0.449272, 0.1785, 0.021716, -0.030665, -0.043111, -0.177881, -0.892655, 0.015349, -0.992793, -0.050017, 0.133788, -0.009337, 0.008376, 1.36003, 0.010332, -0.573705, 0.062132, -0.016581, 0.471772, 0.176205, 0.003725, 0.167976, -0.032896, -0.155741, 0.78993, -0.187039, -0.027447, 0.101284, 0.113993, -0.43161, -0.123108, -0.142463, 0.275834], [-1.60771, 0.024568, -0.796652, 0.008475, 0.051057, 0.059768, 0.051739, 0.712016, 0.677313, 0.105259, 0.059909, 0.418674, 0.477447, -0.041339, 0.015704, -0.375596, -0.39747, 1.22953, 0.277365, 0.008044, 0.045663, 0.005391, 0.296922, -0.434734, -0.536733, 0.529477, -0.034499, 0.341774, 0.018439, -0.034827, 0.879097, 0.054482, -0.261918, 0.321309, 0.037777, 0.492468, 0.16601, 0.019541, 0.546996, 0.032156, 0.00692, 1.13177, 0.602914, -0.685979, 0.122105, 0.12432, -0.29005, -0.37586, 0.727257, 0.3494], [0.386967, 0.034403, 0.008529, -0.028368, 0.00282, 0.374399, 0.093721, 0.821618, -1.24217, -2.37048, -0.05791, 0.015704, -0.176784, -0.032139, -0.023266, 0.354594, 0.05229, -0.854834, 0.842655, 0.02916, 0.035853, 0.004322, 0.331607, 0.061559, -0.089083, -3.21845, -0.039189, 0.090432, -0.044694, 0.039863, 1.56946, 0.050788, 0.087624, -0.168797, 0.025187, 0.033883, -0.205249, 0.04779, 0.206303, 0.018642, -0.079048, -0.135964, -0.31632, -0.528232, -0.191535, 0.011354, 0.318549, 0.074817, 0.19512, 0.013023], [-0.775301, -0.002481, -0.153367, 0.012203, -0.014953, -0.628427, -0.018515, 1.4006, 0.012412, -0.286434, -0.555084, -0.375248, 0.719509, 0.036851, 0.049647, -1.11942, -1.8771, -0.523607, -0.330933, -0.031014, 0.044969, -0.042452, 0.920588, -0.326784, 0.663958, -2.17441, 0.01063, -0.180197, -0.004499, 0.01513, -1.11477, 0.007702, 0.302511, -1.56036, 0.037567, -1.8475, 2.15467, -0.036438, -1.74878, 0.020744, 0.016094, -1.4255, -0.1375, 0.230134, 0.112143, 0.138729, 0.193978, 0.175004, -0.252086, -3.6776], [-0.064388, 0.042038, -0.032354, -0.022982, 0.028349, -0.021726, -0.038114, -0.005824, -0.057733, -0.046466, -0.031851, 0.016427, 0.002335, 0.039722, 0.017064, -0.008911, -0.004681, -0.063476, 0.013812, -0.042511, -0.020783, 0.006432, -0.057662, 0.009613, -0.02701, 0.045277, -0.020331, -0.02668, 0.008943, -0.014787, -0.046633, -0.008206, -0.006679, 0.00339, -0.019714, -0.029072, -0.003412, -0.017822, 0.058172, 0.046274, -0.043436, -0.050219, -0.046334, -0.028588, 0.008608, 0.014585, -0.043893, -0.041257, 0.027589, -0.034661], [0.842225, 0.030298, 0.286852, 0.010424, -0.040269, -0.462396, 0.04682, 0.49353, -0.027704, -0.139366, 0.185184, 0.917814, 0.344555, 0.028376, 0.008826, 0.009907, 0.734783, 0.312326, 0.110605, 0.028232, -0.028011, 0.013606, -0.406726, 0.902123, -1.55312, 2.72117, -0.038538, -0.525975, 0.023971, 0.039658, 2.22187, -0.033939, 0.489327, 1.11265, 0.015231, 1.56677, 0.516195, 0.037304, 1.73281, -0.019757, 0.005062, -0.030672, 0.501335, 0.052313, 0.253619, 0.080153, 0.403588, -0.069232, 0.955383, -1.2676], [-1.12364, 0.000613, 2.23867, 0.001305, -0.017891, -0.533583, 0.009347, -0.023164, 0.140697, -0.821988, 0.574223, 1.20635, 0.554525, 0.036898, -0.011239, 0.432856, -3.94482, 1.68804, 1.38233, 0.037808, 0.02511, 0.011596, -1.30755, 1.68789, 0.389607, 0.061234, -0.006862, 0.04608, 0.025536, 0.015608, 0.053099, 0.036495, -1.86861, -1.04837, -0.043455, 2.30649, -0.386084, 0.026707, 1.05643, -0.035338, 0.41812, -0.662333, -2.49737, 2.5522, -0.985152, -0.884526, 0.145307, 2.43935, -1.2924, 0.181915], [0.338059, 0.02417, -0.572018, 0.043222, 0.036291, 0.438421, -0.009406, -0.258283, -0.673625, -0.083577, -0.085206, -0.152821, 0.292349, -0.023686, -0.045737, -0.8088, -0.132707, -0.378997, 0.245865, -0.046106, -0.035611, 0.002772, -0.12269, -0.243866, -0.157421, 0.212659, 0.01854, -0.036915, 0.037815, -0.016437, -0.43986, 0.044437, 0.478727, -0.57755, 0.008126, 0.990943, -0.428064, -0.034323, 0.057527, -0.009082, -1.62767, 0.166994, 0.625952, -0.875321, 0.203406, -0.12298, -0.425558, 0.184032, 0.131213, -0.180996], [1.96788, 0.014572, 0.12548, 0.050821, -0.006673, -0.39072, -0.056428, 2.07073, 0.447722, 0.707274, -0.367608, 1.2468, -0.331807, -0.055149, 0.008635, 0.523989, -2.00573, 1.6, 0.390824, -0.005344, 0.01375, 0.016775, -0.072399, -0.677308, -0.958991, 2.12459, -0.007768, 0.846935, -0.050648, 0.003623, 0.830707, -0.047089, 0.634082, -0.536607, 0.010038, -0.145116, -0.621979, 0.044643, 5.26407, 0.035189, 1.23629, -0.734597, -0.817875, 0.339304, -0.968494, -0.699914, 0.602616, 0.996868, -0.397823, 0.413798], [0.076624, -0.042713, -0.719368, -0.012018, -0.001164, -1.0219, 0.012618, 0.623226, 0.406852, 0.047008, 0.720136, 0.248623, -0.005932, 0.032307, -0.050805, 0.365795, 2.97717, -1.0725, 1.00098, 0.040111, 0.01371, -0.047072, -0.805855, -0.897227, 0.400579, 2.55234, -0.017021, -0.568336, -0.040451, -0.032585, -1.6307, 0.005329, -0.341752, -0.88766, 0.001421, 1.95814, -0.68175, -0.020318, -4.62199, -0.045118, -2.00701, 0.590459, 0.460292, 0.144965, 0.218775, 0.398361, -0.331524, -0.232641, -1.13229, 0.056048], [-0.142603, -0.043924, 0.274916, 0.044999, -0.023472, 0.107549, -0.000414, -0.281491, -0.103716, -0.613384, -1.30518, -0.402108, 0.060671, 0.032674, 0.01446, -1.213, 0.871112, -2.79975, 0.189442, 0.008938, -0.031839, 0.02071, 0.255347, -2.24549, 0.599616, -0.137975, 0.003631, 0.365137, 0.020882, 0.014995, -0.558895, 0.026867, -0.41093, -2.16616, -0.01058, -1.6289, 0.071421, -0.044619, -1.08302, 0.037752, 0.007312, 1.40995, 0.918534, -0.18209, 0.185807, 0.097353, 0.01974, -0.083084, 0.614702, -0.074414], [0.012054, -0.047749, -0.004015, -0.029295, -0.031345, 0.010023, -0.019105, 0.018435, 0.019786, 0.005251, -0.034816, -0.016709, -0.028518, -0.04035, -0.019542, -0.016302, -0.034129, -0.052476, -0.021212, -0.028672, 0.057838, 0.020501, -0.02758, -0.023939, 0.014281, -0.01755, 0.006334, 0.003361, -0.024792, 0.020132, -0.015166, 0.020865, -0.018561, 0.019046, 0.038481, -0.019502, -0.025183, 0.000136, -0.044029, -0.034455, 0.058694, -0.010283, -0.022998, -9.1e-05, -0.055488, -0.056913, -0.026458, -0.041021, -0.05067, -0.000711], [-1.04539, -0.01023, 0.23995, -0.025676, 0.042539, -0.046479, -0.016941, 2.14007, -0.247016, -0.03041, -1.50381, 0.915252, -0.149978, 0.02642, 0.026441, 0.452798, -0.239499, 0.660948, 0.540039, 0.000161, -0.026311, 0.001185, -0.6524, 0.638726, -1.43256, -3.62527, 0.009676, 0.334621, -0.034532, -0.036947, 0.89883, 0.007423, 0.078295, 1.28273, 0.017937, 1.27665, -0.361458, -0.051306, 0.550052, -0.04832, 0.615207, 0.386059, -0.038403, 0.372325, -0.053131, -0.273854, 0.257, 0.14997, 0.913314, 0.282826], [-1.32683, 0.038942, 0.390534, -0.03618, 0.044037, 0.312735, -0.03705, 0.722553, 1.56582, 1.24227, 1.09839, 0.009875, -0.309377, -0.023698, -0.040409, -0.488993, 0.649829, -0.169768, -3.18522, -0.030975, -0.053366, -0.044912, 0.829918, 0.10661, -1.33497, 2.36327, 0.026774, 0.184601, 0.047052, -0.024954, -0.665667, 0.041065, -0.282811, 0.130207, 0.000574, 0.598088, -0.154201, 0.015564, 0.304738, 0.029471, -0.622143, -0.182919, -0.290088, 1.02552, 0.340674, -0.187125, 0.844368, 0.74339, 0.428136, 0.315392], [-1.09879, 0.02543, 1.75589, -0.01869, 0.013503, -0.651463, 0.019682, -3.51786, -0.501854, 0.500723, -0.712615, -0.837642, 0.341269, -0.024393, 0.027412, 0.248336, -1.55242, 1.22666, -0.377446, -0.003952, 0.033974, 0.034213, 0.096105, 0.422197, -0.383543, 0.372721, -0.0236, 0.238993, 0.002606, 0.008568, 1.21315, 0.017512, 0.142781, 0.285712, 0.016939, 0.148553, -0.018878, 0.045424, -3.35063, 0.039417, -0.065255, 0.76266, 0.772676, 0.158704, -0.232463, 0.167852, 0.081041, -0.219669, -0.105639, 0.197377], [-0.027496, 0.040084, 0.266197, 0.054345, 0.02617, 1.01877, -0.073397, 4.44454, -0.335629, -0.856496, -0.059984, 0.281681, 0.330216, 0.031389, 0.000413, -0.33989, -0.109036, -0.265973, 0.867716, 0.032986, -0.036068, 0.023179, -0.515798, 0.702885, 3.06586, -2.39066, 0.020486, 0.05079, 0.007344, -0.020537, 0.267321, 0.030297, -0.7218, -1.35997, -0.042509, -3.35243, 1.4879, -0.038534, 2.44532, 0.020216, -0.099601, 0.123788, -0.064054, 0.897728, 0.644875, 0.199024, 1.17818, 1.62534, 0.557314, -0.218847], [0.00798, 0.022478, 0.020596, -0.013435, -0.036383, 0.00081, -0.022244, 0.003507, -0.029546, -0.059797, -0.042114, -0.023726, 0.019722, 0.006395, -0.048344, -0.042067, 0.025604, 0.02585, -0.052015, 0.047063, 0.040009, 0.005768, -0.046858, 0.011208, 0.009941, -0.001912, -0.045077, 0.046539, 0.001265, 0.017608, 0.034131, 0.030786, -0.009595, 0.0089, 0.005573, -0.00191, -0.034662, 0.011194, 0.040538, -0.030032, -0.005628, -0.010399, -0.014411, -0.031252, 0.021383, 0.016966, -0.029979, -0.055446, 0.005788, -0.029919], [-0.859383, -0.012666, 0.432071, 0.012095, -0.028327, 0.283244, -0.040316, 0.129819, -0.307092, 0.658546, -4.05442, 0.848029, -0.50411, 0.026994, 0.026074, -0.800833, -2.41099, 0.416068, 1.09673, 0.062721, -0.030486, 0.027248, 0.79235, -1.09515, 0.054242, 0.264781, 0.013179, -0.423396, -0.035398, -0.020249, 0.268149, 0.010201, 0.9901, -0.557516, -0.035918, 1.05769, -0.000369, 0.038564, -3.60511, -0.009814, -1.49395, -0.861919, -3.78796, 0.079106, -0.27002, 0.701333, 0.96003, 0.266298, 0.821863, -0.173134], [-0.252266, 0.019366, 1.65649, 0.060629, -0.003344, 1.13889, 0.052075, 0.755332, -1.72433, -0.232895, -1.46056, 0.735142, 0.377419, -0.006804, -0.048352, 1.63657, -0.669131, -0.626812, -0.011686, 0.005083, -0.004552, 0.014146, -0.99317, 1.41956, -0.302915, -1.34124, 0.014829, -0.011286, 0.043048, -0.001079, -0.536015, 0.016003, 2.34644, -1.525, 0.020178, -2.50916, -0.22295, 0.022699, 1.3112, 0.038205, 1.21937, 0.403781, 0.306578, 1.88839, 0.358584, -0.391694, 0.643112, 0.338554, -0.783244, 0.37587], [-1.48204, 0.016699, -0.19249, 0.04002, 0.005029, 0.121252, 0.009001, -0.49567, -0.164553, 0.573833, -0.432573, -0.112507, -0.218086, 0.035289, -0.001964, 0.358248, -1.00118, -0.670276, 0.229053, 0.031737, -0.004116, -0.000261, -0.50135, 0.133824, 0.333638, -2.8634, 0.010768, 0.216658, 0.037966, 0.03303, 0.986673, -0.042152, -0.0385, 0.947425, 0.036214, 0.416073, -0.108993, 0.046059, 0.507482, -0.033916, -0.26663, 0.038589, -0.819351, 0.02807, -0.073546, -0.01094, -0.333139, -1.43167, 0.699404, 0.022622], [0.355098, -0.021323, -0.430926, -0.032273, 0.010429, 0.23144, 0.026298, 0.264316, 0.198969, 0.483143, 2.25924, 0.637702, -0.170234, -0.011436, 0.0124, 0.060901, -1.39605, -0.52417, 0.221023, 0.040386, -0.04276, 0.036452, 0.315993, 0.245219, -0.490141, 3.89144, 0.017736, 0.615052, 0.006495, 0.001949, 0.246731, -0.005059, 0.322451, 1.66017, 0.043371, -1.51673, 0.053473, 0.02767, 1.13196, 0.036047, 0.111325, 1.08895, -0.10989, 0.201284, 0.310437, -0.221275, 0.883742, -0.205177, 1.20339, -0.522396], [1.26937, 0.028213, 2.24483, 0.000996, -0.039623, -1.23634, 0.013656, 0.996795, 0.334878, 0.050204, 0.569478, 1.26364, 0.190881, -0.037243, -0.029773, 0.258593, 0.459674, -1.53199, -0.084929, 0.005676, -0.009072, -0.029941, 0.410416, 1.19794, 0.726038, 2.00193, 0.027213, 0.32293, -0.017851, 0.019809, 0.2715, -0.010881, 1.65962, 2.20968, 0.04906, -3.3402, -0.388517, 0.003673, 0.474852, -0.018852, 0.986354, -1.05613, 2.40791, 1.35527, 1.43907, 0.444743, 1.86943, -0.158357, 3.62694, 0.384268], [-0.447261, 0.036549, 0.309642, -0.035363, 0.021139, -0.03821, 0.004823, 0.211002, 0.144237, -0.533484, 0.447821, -0.361913, 0.07026, 0.025824, -0.044791, -0.155341, 0.315061, -0.755975, 0.103001, 0.013392, 0.016867, -0.00598, 0.129237, -0.262922, -0.135969, 0.690504, -0.023252, -0.068366, 0.032454, 0.000498, 0.036791, 0.007617, -0.090824, 0.32585, -0.011973, -0.899248, 0.484753, -0.008238, -0.424034, -0.009679, -0.002569, 0.029271, -0.082015, 0.241457, -0.190323, -0.034207, 0.097453, -0.089266, 0.39593, -0.037553], [0.802936, -0.049739, 0.387842, -0.016103, 0.043346, 0.324964, -0.022713, 0.254559, 1.11485, 0.073861, 1.09228, -0.509926, -0.329902, -0.009967, -0.017721, -0.240168, -0.773616, -1.07281, 0.295949, 0.034193, -0.040429, -0.036919, 0.567632, -0.261084, 0.296318, 0.889135, 0.006086, 0.22477, 0.027739, 0.004534, 0.494206, 0.033065, 0.55439, 0.430211, 0.036803, -0.217279, 0.009593, -0.018907, 0.517622, -0.01266, -0.575675, 1.70134, -1.0649, -0.079953, -0.487314, -0.54448, 0.673634, 0.191811, 0.676615, 0.074804], [1.4475, -0.012832, 0.522113, 5.2e-05, 0.049323, -0.428698, 0.005095, 0.805945, 0.14492, -0.545346, 0.496483, 0.165062, 0.269346, -0.035672, 0.006491, -0.059549, 0.889588, -0.102543, 0.015097, -0.01192, 0.007482, -0.042993, 0.187568, 0.158235, -0.838184, -0.365217, 0.010464, 0.261831, -0.059943, 0.010512, 0.878597, 0.040693, 0.189535, 0.00711, -0.012967, -0.689315, 0.196896, -0.034402, -0.362002, 0.009502, -0.089351, -0.509129, -0.675504, 0.22915, -0.320711, -0.170553, 0.196775, 0.055863, 0.870257, -0.157415], [1.81331, 0.003893, -0.166372, -0.020466, -0.035724, 0.144625, -0.060557, 0.458135, -0.413933, -0.085602, -0.026076, 0.187808, -0.181826, -0.046276, 0.026795, 0.05187, 0.340461, 0.027743, -0.016192, 0.045399, 0.001917, -0.016639, -0.085924, -0.445909, -0.202874, 1.79061, -0.034051, 0.21578, -0.014844, -0.019506, -1.6049, 0.029632, -0.173121, 0.266715, -0.033309, 0.132612, 0.898504, 0.027041, -2.26607, 0.036846, 0.180712, 1.11271, 0.815214, -0.338736, 0.971253, 0.352577, -0.213574, -0.131945, -0.407345, -3.30049], [-0.159036, -0.027736, 0.666121, 0.040623, 0.04178, 0.116817, 0.016457, 1.2633, -0.839847, 0.589606, -0.187055, 1.53183, -0.544107, 0.006124, -0.02242, 0.714167, 0.961171, 0.216685, -0.665515, -0.0287, 0.01152, -0.046712, 0.600432, 0.703677, -0.488779, 0.455794, -0.04151, 0.072474, 0.040001, -0.024859, -0.003916, 0.026629, 0.523408, -1.61752, 0.042729, 0.429581, -0.031206, -0.021331, 0.468456, 0.022842, 1.33598, -0.346411, -0.281931, 0.724471, -0.005255, 0.115908, 0.311341, 0.471293, 0.011954, 0.485715], [-0.026795, 0.037627, -0.019688, -0.036672, -0.022211, 0.024023, -0.041412, 0.015135, -0.032212, 0.022489, -0.014679, -0.005826, -0.009896, 0.027727, 0.003832, -0.04033, -0.036534, 0.016334, 0.030848, -0.017269, -0.011402, -0.005288, -0.009504, -0.008425, -0.028792, -0.039921, -0.00858, -0.043486, -0.017797, 0.026793, 0.018985, -0.045915, -0.032587, 0.014852, -0.051488, -0.027719, -0.028573, -0.050471, -0.004372, -0.010916, -0.024324, 0.034668, -0.00506, -0.01125, -0.0335, -0.033856, 0.00078, -0.054435, 0.03568, -0.038634], [1.04747, 0.000273, 0.559064, 0.03522, 0.032875, -0.309453, 0.020423, -0.107833, 0.251563, 0.266523, -0.171293, -0.165782, 0.110781, -0.006026, -0.004728, 0.428791, -0.39452, 1.12075, 0.295972, 0.033174, -0.017489, -0.013253, 0.034087, 0.469631, 0.151649, -0.413321, -0.035789, 0.130607, -0.038692, 0.031091, 0.326641, -0.007298, 0.002041, -0.324713, 0.023171, 0.296324, -0.277288, 0.028195, 0.304494, 0.00861, 0.268411, 0.686054, 0.259147, -0.16109, -1.39377, 0.136091, -0.302459, -0.353478, 0.565551, 0.084847], [1.07961, -0.032537, 0.906536, -0.010869, -0.035164, 0.120581, 0.062097, 1.46071, -0.865315, 0.087634, -2.19249, 0.493642, 0.039959, 0.004142, 0.004213, 0.184321, -1.31084, 0.577441, 0.539583, 0.010145, 0.026975, 0.009455, 0.848601, 0.061491, -0.308075, 0.394465, -0.012429, -0.255017, -0.017019, 0.045168, 0.871497, 0.022384, 0.048529, -0.990983, 0.02978, 0.817086, -0.245605, 0.019428, -4.75215, -0.044589, -0.196657, -0.291306, 0.527806, 0.173564, 0.24104, 0.118649, 0.463416, 0.141632, 0.347045, -0.453819], [1.46734, -0.009789, -0.203599, 0.019395, -0.024475, -0.277785, 0.009414, 0.347379, -0.504117, 0.73634, -2.03829, 0.038005, -0.058721, -0.005169, -0.036451, -0.619169, 0.466871, 1.53913, 0.255177, 0.039318, -0.017703, 0.021507, -0.370927, 0.537646, 0.184497, 1.46144, 0.016174, -0.194819, 0.019541, -0.027812, 0.825562, -0.003202, -0.153921, 0.209039, -0.021766, 1.8827, 0.61336, 0.024489, -1.79944, -0.047859, -0.334207, 0.050733, 0.957265, 0.29541, -0.626597, -0.296695, 1.31342, 0.061364, 3.07254, 0.054479], [0.451535, -0.022335, 0.147728, -0.011482, -0.000127, 0.530862, -0.018503, 0.130726, -1.63427, 0.257037, -0.024157, 0.043924, -0.274937, -0.008282, 0.062523, 0.528023, -0.176663, 0.359097, 0.624369, 0.04889, -0.028565, 0.023036, 0.478942, 0.05379, 0.285797, -2.53747, 0.048811, -0.508716, 0.019339, -0.016478, -0.475189, -0.038383, -0.165976, 1.05909, 0.022523, 0.431684, 0.696078, -0.028178, -2.38824, -0.018286, 0.798577, -0.245384, -2.18087, 0.568776, 0.077818, -0.252695, -0.315237, 0.26181, -0.74451, -2.01151], [0.218265, -0.001139, 0.988714, -0.0012, -0.002513, -0.189274, 0.008616, -1.28967, -0.279475, -0.289877, 0.537043, 1.1167, -0.019621, -0.020573, -0.029106, 1.26664, 0.252804, 1.01388, 1.16812, 0.036798, 0.040537, -0.040124, -0.418797, 1.38616, -1.01455, 0.971643, -0.03386, 0.421599, 0.034233, 0.04145, 0.782409, 0.034311, -0.29926, -0.197519, -0.011869, 1.36624, 0.099797, -0.011443, 0.761652, -0.036961, -0.284499, -0.165992, 1.6866, 0.638022, 0.46351, 0.331918, 0.191179, 0.255602, 0.579998, -1.47953], [0.870085, 0.021492, 0.957511, -0.000881, 0.024441, 0.247486, 0.006147, 0.376287, -0.388248, -0.169824, 0.577919, -1.36892, 0.464574, -0.006307, 0.04299, 0.429621, -0.497541, 0.552875, 1.41206, 0.014501, -0.00334, -0.049368, -0.141428, -0.350889, -0.562214, 1.02877, 0.026529, 0.334743, -0.044439, -0.013143, -0.785927, -0.033711, 0.612183, -1.8302, 0.032728, 2.85125, -0.524925, 0.002464, 2.3377, 0.017647, 0.423623, 1.51488, -6.94046, -0.231723, -0.713457, 0.063114, 0.874858, -1.66023, 0.495946, 0.65267]], [[-0.650982, -0.041722, -0.680376, 1.65056, 0.698853, 1.03281, 1.68285, -0.250067, 0.034343, 1.16256, -1.28066, 0.369328, 2.17339, 0.078777, -0.079879, 2.44805, 1.05616, -0.098785, 0.507311, -0.244629, -0.011857, 0.907297, -0.162964, 1.60297, 1.79355, 0.631182, 4.33987, -0.012668, 3.77721, 1.85578, 1.13439, -0.603476, -0.022135, 0.102368, -0.346007, 0.416624, 0.861876, -0.112341, 0.286364, 1.04578, 2.52913, 0.140868, -0.544358, 0.039636, -0.066002, 0.54351, -0.180251, 1.69863, 0.973831, 4.40895], [-4.12443, 0.25516, 2.07694, -1.72722, 0.351302, -1.95878, -0.270042, -1.42235, -0.01484, -3.22939, -0.418277, -2.80216, -0.559016, 1.15347, 0.633382, -0.257096, -1.11824, 0.520576, 0.400579, -0.352963, 0.079685, 0.597775, -0.429721, 1.3645, 0.075715, -1.00438, -0.116601, 0.004127, -1.67817, -0.093131, 2.75437, -0.152457, 0.007845, -0.707189, -0.172345, 0.657442, -0.416391, 0.232946, -1.79613, -1.40616, -1.80802, -0.058289, -0.100139, -0.027873, 0.634892, 0.588718, 0.428103, -1.81256, -1.28491, 0.356441], [1.37089, -1.19098, -1.63017, 0.530735, 0.173317, 0.467204, 0.782737, -1.13273, 0.025418, 0.048513, 0.61705, 0.441222, 2.07312, 0.089786, 0.311153, 0.716218, 0.251169, 0.789081, 1.40139, 0.246437, 0.017598, 0.387704, -0.574615, 2.56619, -0.253712, 0.713713, 0.207937, 0.013466, 0.013838, 0.311412, 1.60439, -0.016257, 0.030799, 0.266886, -0.787811, -0.345853, 0.019265, 0.1355, 1.85607, -0.676829, 0.945555, 0.178001, -0.427064, 0.019279, 0.050733, 3.35732, 0.064646, 0.61498, 0.132864, 0.367088], [5.04845, 0.075719, -0.7047, -0.102115, -0.218314, 3.42987, 2.00558, 0.240131, -0.031228, -1.9379, -0.058464, -0.503585, 3.7908, 0.653339, 0.140306, 1.42463, 0.85613, 1.34805, 2.02725, 0.609023, -0.048309, 0.803066, 0.312514, -0.996083, -0.290459, 1.08812, 1.24875, -0.016581, 1.38469, 0.113096, 3.30098, -0.567169, 0.018681, -0.448428, -0.430038, 0.687536, 2.3673, -0.546187, -0.59685, 0.725591, 0.300476, 0.428361, -1.25025, 0.024333, 1.18255, 2.99239, 0.66439, 1.59465, -0.166173, 0.824208], [4.37632, -0.648866, -0.998573, 1.72081, -2.60984, 2.66823, -0.499114, 2.31282, 0.050845, 1.14494, 2.01552, 0.223789, 2.40791, 4.25194, 0.045309, 1.18864, 0.169648, 0.926031, 2.31789, -0.056284, 0.003716, 0.892841, -0.913057, -1.99389, 1.78747, 1.53926, 1.1392, 0.005922, 1.36407, 1.29559, 1.6545, -0.417943, -0.019626, 0.463144, 0.181442, 2.3377, 0.668541, -0.506664, 1.25568, 2.36483, 1.65578, 0.996979, -2.28373, -0.039827, -0.863087, -0.549333, 0.594921, 1.23295, -0.42766, 2.10146], [-2.41925, -0.090392, 0.12478, -0.247867, 0.476874, -0.436002, -1.11463, -0.076291, 0.03809, 0.264363, 1.04109, -1.51497, -0.777985, -0.83246, 0.884351, -1.37417, 0.188047, -0.762268, -0.963895, -0.610558, -0.012673, -2.43809, 0.150002, -0.659479, 0.02699, -0.582447, 1.60013, 0.033869, -0.106893, -0.066896, 2.27232, -0.15356, -0.05043, -0.577745, -0.007, -1.41286, 0.892888, 0.293908, -0.471616, -0.672678, -2.44134, -1.75042, 0.113452, 0.037184, 1.2421, -1.85136, 0.314488, -1.68891, -0.674317, -1.03214], [4.34508, 0.097512, 0.041279, -0.207212, -0.193375, -1.01857, 0.269269, -0.075651, 0.064585, -0.412003, 0.326307, 0.924865, -0.121952, 0.453485, -0.110616, 0.343627, 0.02294, 0.166073, 0.7411, -0.01698, -0.049907, 0.353186, -0.313901, -0.685089, -0.227971, 0.380436, -1.05624, 0.007078, 0.373404, 0.007164, 0.172099, -0.00975, -0.044381, -0.324125, 0.26394, 1.01846, -0.220899, -0.181334, 0.413927, 0.468321, 1.04568, 0.072285, -0.307783, 0.035525, 0.074191, 0.409496, -0.476696, 0.353214, 0.112692, -0.368244], [-1.17915, -0.591099, 0.228744, -0.407071, 0.132432, 1.98686, -0.168576, 0.301169, 0.039166, 0.295766, 0.581955, -2.39398, 0.592252, 0.28971, -0.552779, -0.985941, -0.687184, 0.630109, 1.73868, 0.087648, 0.01522, -0.178811, -0.025158, -1.24198, 0.301822, 0.801855, 1.09582, 0.040289, -0.662665, 0.02174, 0.278187, -0.004005, -0.053856, 0.149507, -0.173316, 0.874815, 0.489877, -0.151528, -0.581511, -0.180688, -0.215911, -0.223235, 0.278232, -0.048244, -0.355905, 0.228893, -0.035449, -0.208218, 0.871067, 0.337046], [1.5506, -1.56473, 0.847676, -0.970817, -1.74768, 0.485417, -1.53563, 1.39535, -0.017185, 0.797048, 0.818112, 0.213943, 0.328984, 0.133858, -0.545677, -0.600128, 0.699291, -4.62316, -1.40981, 0.258156, -0.046844, -0.27292, 0.740447, 0.505809, 0.609586, -0.728882, 0.570803, 0.02554, -0.100559, -1.53649, -2.69492, -0.530332, 0.036782, 0.922552, -0.130985, 2.08165, -0.561621, -0.537033, 0.516341, 1.60005, 0.261682, 0.970886, -0.148294, 0.030344, -0.266491, -1.13807, 0.307322, 0.734131, -0.433907, 0.949239], [0.451572, 1.0258, 2.43708, 0.804765, 1.65182, -2.50938, 1.46897, 0.047268, -0.01531, -1.62535, -1.33361, -1.89823, -0.842423, -4.76513, -0.688314, -2.82925, -7.24846, -3.86349, -1.45621, 0.676961, -0.046742, -1.86851, -2.09846, -2.05967, -1.60165, 0.657205, -6.22135, 0.023555, -1.03423, 1.6237, 2.8799, 0.927251, -0.002848, 0.070303, 0.417833, 0.024649, -2.12157, 0.129753, -2.78565, 0.985241, -5.9586, -0.118804, 0.485735, 0.032492, -1.67037, 1.27865, -4.24137, -1.08461, 0.924234, -2.16232], [0.396774, 0.381175, -0.149917, 0.154302, -1.46935, -0.414314, -1.10106, -0.103184, -0.035932, -0.289374, -0.049731, 0.49244, 0.640065, 0.576426, 0.031781, 1.25328, -1.30209, 1.19825, 0.104346, -0.430978, -0.008468, 0.560383, 0.13892, 0.534787, -1.40185, 0.007843, 1.42958, -0.017596, -1.01007, -0.081311, -3.18766, -0.109526, 0.034063, 0.753697, 0.285525, -1.45105, -0.771348, 0.082013, 1.89571, -0.882173, -1.25973, -1.58688, -0.418197, 0.046839, 0.049675, -0.357533, -0.009465, -0.278654, 0.351659, 0.413572], [2.22184, -0.063373, -1.05395, 0.287123, 0.375541, 0.988266, 0.281953, 0.247453, 0.053769, 0.174001, 1.44245, 0.775505, 1.53048, 1.49783, -0.260308, -0.786982, 1.86981, 0.305623, 3.51883, 0.808194, 0.007503, 0.124427, -0.727093, -2.52042, 1.4633, 2.50759, 0.323552, 0.00962, 3.14608, 0.092963, 0.779431, -0.411791, -0.016001, -0.598364, -0.455751, -0.284455, 0.339477, -0.5677, 2.07047, 1.83204, 1.41952, 0.994369, -0.491726, -0.011622, 1.17605, 2.10044, 0.06353, 1.26106, 0.547858, 0.645393], [1.68519, 0.437253, 1.69942, -2.50809, -1.72176, -4.57176, 2.29667, -2.06157, 0.02705, 0.446211, -0.602937, -1.53629, -1.90443, 0.135926, -2.17628, 0.08446, -1.06331, 0.488639, -1.43638, -1.09415, -0.019016, 0.024572, 2.06489, -0.592099, -0.716979, 1.82611, 1.1918, -0.027945, -1.82785, -0.121219, 1.50073, 0.321529, 0.017301, 1.60024, -0.275012, -0.462185, -1.07823, 0.838822, -2.46365, -1.51561, -0.523336, 0.105961, 1.03139, -0.031579, -1.64023, -1.55026, 1.52018, -0.307061, -1.24989, 0.660556], [0.581388, -0.556966, -1.63126, 0.780403, 0.34649, 0.665044, -0.356155, 1.52042, 0.031412, -0.646154, 0.497406, -0.379222, 2.1464, 1.02967, 0.74979, 0.718815, 1.70962, -0.073863, 0.341809, -0.35015, 0.046278, -2.29489, -0.596593, -1.83166, 0.681035, 1.19114, -0.472405, -0.039172, -2.41634, 0.773273, -0.974237, -0.342168, 0.012469, -0.360523, -0.331061, 2.15864, 2.08755, -0.477239, 1.79941, 2.6385, 0.363341, 0.253644, 0.928135, 0.013511, 2.10056, -0.974902, 0.391727, 0.239908, -0.726131, 0.086895], [0.025906, -0.023039, -0.048651, -0.014956, -0.032514, -0.043461, -0.042107, -0.036963, -0.015396, -0.043016, -0.033955, 0.046579, -0.045051, -0.027597, -0.045928, -0.020756, 0.002103, 0.023533, 0.00802, -0.015179, 0.000344, -0.024116, -0.026257, -0.004374, 0.044973, 0.038369, 0.00651, -0.027962, -0.033195, -0.001452, 0.008333, -0.050706, 0.011549, -0.020829, 0.029232, -0.024985, -0.035935, -0.056521, -0.038967, 0.019143, -0.019525, 0.016626, 0.006646, -0.008569, -0.040757, -0.03821, 0.0082, -0.054323, 0.015937, 0.037983], [0.331312, 0.243039, -0.353606, -0.269132, -0.675385, 1.09295, 0.332875, 0.426412, -0.015179, -1.30809, 0.097099, 0.623243, 1.51722, -1.06999, 1.17986, -1.83922, 1.62794, 0.743589, -1.63715, -0.299615, 0.028122, 1.1119, 0.452446, -0.756044, -1.14795, -0.874799, -2.93096, -0.008389, 0.049394, 0.753965, -0.395415, -0.183553, 0.030355, -1.70658, -0.921634, 0.544049, 1.06028, 0.517723, -0.247532, 0.667911, 0.415768, -0.17848, -1.92179, -0.040614, 0.549612, 0.13885, 0.866908, -0.715908, -1.17477, 1.37138], [0.012098, 1.21266, 1.39899, -2.5677, 0.556591, -3.26811, 0.091985, -1.10658, 0.028756, -2.03316, -2.30316, -5.35157, -0.899337, -2.67615, -1.82024, -2.46438, 1.238, -0.108002, -2.78323, 0.829047, -0.009761, -1.51088, -3.91037, -0.756751, -0.812734, 0.360607, -5.60833, 0.035955, -0.890168, -0.419848, -5.16802, -1.37348, -0.022249, -1.74097, 0.532237, -4.77356, -3.82924, 0.252645, -3.48381, -4.34453, -2.72946, -1.18515, 0.776308, 0.034366, -3.1599, -1.18955, -4.00547, -0.733615, -0.5421, -2.60903], [0.492424, -0.487773, -0.328121, 1.47735, -2.09416, 1.29015, 2.17416, -0.123681, -0.038147, 1.61075, -0.359702, 1.81309, 2.2821, 2.57039, 0.128582, 2.49784, -0.148952, 0.410515, 0.982515, 0.051761, -0.015042, 0.358064, -0.381653, 1.03326, 2.70526, 1.29639, 3.16443, 0.018238, 2.50463, -0.897439, 2.9825, -0.356914, -0.021439, 0.327673, -0.180815, 2.77615, 0.814767, -0.447956, 1.10258, 0.564955, 0.619638, 0.216706, -0.521682, 0.011782, -0.918393, 2.05751, 0.22604, -0.076693, -0.079713, -4.00431], [-4.28965, -0.472671, 0.117276, -1.17205, -0.407349, 2.36172, 0.617834, -0.90208, -0.016354, -0.377427, -0.178296, 1.03602, 0.525221, 1.07509, 0.187289, -0.867168, 0.676589, -0.086871, -0.747646, -0.450549, 0.001005, 1.53451, -0.353067, 1.4827, -0.21834, 0.022331, 1.60042, -0.02378, -1.3373, 1.02548, -1.15751, 0.151975, 0.044927, 0.313518, 0.189433, 1.75115, 0.605481, -0.441271, 2.06149, -0.313905, 0.060054, 0.190103, -0.570068, -0.026795, 0.234378, 1.4106, -0.303915, 0.088508, -0.233704, 0.311752], [0.314058, -0.083445, -0.070463, 0.083061, -0.402756, -0.566057, 0.2073, 0.034125, 0.024282, -0.415813, 0.429061, 0.313778, -0.226644, -0.606492, -0.025539, -0.207448, -0.553199, 0.098913, 0.772895, -0.086111, -0.042885, -0.682719, -0.014376, -0.504996, -0.440588, -0.75766, -0.403995, 0.026888, 0.882352, 0.341394, -0.534785, 0.056811, 0.03619, -0.188935, -0.100557, 0.388525, -0.081557, 0.232241, 0.32864, -0.849919, -0.416114, 0.074562, -0.035341, 0.015652, -0.155985, -0.582895, 0.03915, -0.326101, 0.153942, -1.40475], [4.54969, 2.01401, 1.37117, -1.09862, -1.10061, -2.49593, -2.71231, -1.76158, 0.032348, -1.26605, -1.69053, 0.88073, -2.21655, -0.684421, -0.611366, -0.541051, -1.31135, -2.03121, -1.78377, -1.71362, -0.049255, -1.04528, 2.35254, -0.256426, -0.908061, 0.67577, -2.9875, -0.042538, 1.05458, -2.18499, -4.73718, 0.490036, 0.020596, -0.397054, 0.094711, 0.03401, -1.50124, 1.33165, -2.5794, -0.258948, -1.51108, -3.81373, -0.20283, 0.02602, -2.22296, 1.11396, -0.820131, -3.5451, 0.112522, -1.24977], [1.43235, -0.295686, -0.780604, 1.07699, 1.01627, 1.78027, 0.099602, 0.401166, -0.015085, -1.04968, 0.06134, -1.67561, 0.922868, 3.42679, 0.615896, 1.59796, 0.034965, 2.35695, -0.497469, -0.717339, -0.010902, 0.363229, -0.128382, 0.762914, 0.093829, 0.407097, -2.93488, 0.003612, 0.214505, 0.081509, -0.661095, -0.134922, -0.029124, -0.018478, 0.571982, 2.92917, 1.17353, -0.483784, -0.407914, 2.58536, 0.176346, -0.309444, 0.058241, -0.045522, -0.218437, -0.374244, 0.2153, 0.019679, -0.424118, -1.26704], [0.959777, 0.152559, 1.99542, -0.628252, -1.30421, -2.61725, -1.40416, -0.385148, 0.008424, -0.725169, -3.18214, 0.005679, -2.90586, -2.33088, -0.383875, 0.188088, -0.250058, -3.01371, 1.03389, 1.10378, -0.002544, 1.62498, 0.220323, 0.291611, -0.797127, 0.044781, -1.61021, 0.018275, -1.38595, -0.739267, -0.91493, 0.550243, -0.020077, -0.294458, 0.276871, -2.29061, -1.40695, 0.073155, -1.97295, -0.392227, -1.63966, 0.3814, 0.909157, -0.015632, -1.89699, 1.14679, -1.10166, 0.957816, 0.77699, -2.52295], [0.829042, 0.379585, -0.724484, 0.814752, -1.5638, -0.543371, -0.577991, 0.001712, 0.004521, 0.024009, 0.374647, 0.357674, 0.874342, 2.61567, -0.197697, 0.09191, 0.120093, 1.14036, -0.421852, -0.180212, -0.007837, -0.456159, -1.62807, -0.025617, -0.850397, -0.477361, -0.021015, 2.8e-05, -0.540182, -0.574, -3.47556, -0.256899, 0.034924, -0.03563, -0.047074, 1.15447, -0.016151, 0.121391, -0.746144, 0.25539, 0.00877, -1.2167, 0.376516, 0.021221, -1.10371, -0.710868, 0.028593, 0.140636, 0.357957, -0.905169], [-0.489082, 0.426296, 0.890777, 0.248219, -3.36836, 0.648644, -2.30984, 0.877114, -0.002847, -1.48682, 1.16331, -0.555462, -2.35124, -1.38974, 0.760256, -1.35528, -0.035166, -0.162555, -2.06319, 2.99115, 0.032402, 1.47417, 0.743436, -2.01479, -0.988219, -0.857521, -0.796589, 0.008947, -2.83573, -0.696326, -1.57841, -0.258342, 0.034073, -0.768232, 0.157389, 1.64985, -0.272654, 0.130897, -0.600765, 1.3967, -0.439276, 1.70527, -0.989717, 0.035383, -0.8411, 1.63114, 0.273441, 1.67792, 1.47886, 1.39246], [1.73505, -0.348609, -1.60602, 0.214376, -0.122715, 1.00945, -0.798602, 1.52012, 0.000388, -0.406126, 1.57424, 0.24399, 2.78396, 1.44092, 0.685587, -0.909455, 0.052054, 1.04556, 0.284156, -0.360626, -0.035512, 0.113073, -0.614425, -1.33903, 1.24065, 0.890717, 0.285815, -0.020533, -1.05387, -0.155845, 1.21559, -0.205489, 0.019279, -0.020499, -0.280346, 0.765555, 0.82273, -0.278377, 2.24301, 0.844744, 0.515239, 1.37565, -0.958127, -0.019556, 0.87523, 0.340782, 0.129496, 1.18548, -0.483103, -0.856226], [0.645933, 0.139278, -0.170117, -0.650513, -0.019598, 1.00079, 0.423562, -0.75163, 0.023049, 0.24982, 0.348665, 0.621846, -0.964988, -0.167644, 0.266331, -0.471787, -0.199407, -0.481761, -1.03513, -0.473424, 0.018598, 0.778051, 0.078816, 0.652116, 0.10569, -0.754371, 0.555977, 0.011475, -0.650248, -0.063239, 1.09919, -0.030687, -0.049037, 0.436967, 0.019291, -0.574633, -0.076269, 0.013356, -2.16339, 0.439137, 0.424356, -0.351662, -0.42287, 0.005444, -0.024376, 0.324564, -0.394314, 0.690589, 0.088519, 0.564619], [-0.701907, 0.057846, 0.009935, 0.001157, 0.040917, -0.391394, -1.90542, 0.117161, -0.031269, -0.558149, 0.206139, 2.40342, -0.459855, -1.55069, 0.038366, -0.128581, -0.377355, 0.272837, -1.66617, 0.587403, -0.037518, -0.449283, -0.110895, -0.806718, 0.283086, -0.629939, -1.30148, 0.026528, -1.08382, -1.51657, 1.50834, 0.364574, 0.016276, -0.282947, -0.094344, 0.086787, -1.12296, 0.352887, -0.34107, -1.4029, -0.782014, 0.355005, -0.030111, -0.002069, -0.472401, -0.880485, 0.102889, 0.452615, -0.581088, 0.69169], [0.262096, -0.059101, 0.73936, 0.175863, -0.144662, -1.88915, -0.88274, -0.714303, -0.017734, -1.04977, -1.6138, 0.124997, -0.28298, -4.50081, 0.139777, -0.538612, 0.204287, -0.919895, 0.786407, 0.139961, 0.02228, -0.955804, -0.221928, 0.474039, 0.282838, -0.538744, 0.216489, 0.002768, -0.100923, -0.66821, 1.07417, 0.441582, -0.021387, -0.511617, 0.287403, 1.59155, -1.2651, -0.119979, -2.27454, -0.242796, -2.79089, 0.04786, -0.067349, -0.032794, -0.376658, -0.863963, 0.036162, -0.264474, 0.227728, -1.28818], [1.67589, -0.36506, -1.32043, 0.18398, -3.35636, 0.670822, -3.09694, 1.13754, 0.038045, 0.239696, 0.728332, -0.439208, 1.04999, -0.185203, 0.620269, 1.87985, 0.987808, -0.006746, -0.923166, -0.334816, 0.004362, 1.4025, -0.945032, -0.431658, 0.898465, 0.242714, 0.049439, -0.000763, -0.791588, -0.794643, 2.15684, -0.080971, 0.035753, -0.349604, -0.698866, -0.23512, 0.852122, -0.227564, 0.249889, 0.390426, 0.476736, 0.026139, -0.772977, 0.016163, 0.343565, 2.63678, -0.098395, 1.2042, 0.49996, 1.13504], [2.87998, 0.205552, 0.850785, 0.747997, -0.113884, 1.07411, -0.272932, 1.56885, -0.009004, -1.66053, -1.3684, 1.31611, -0.87388, -2.49096, -0.033125, 0.868586, 0.776436, -0.521052, -1.12678, 0.694155, 0.014574, -1.4797, 0.34547, -1.22772, -0.71859, -0.961831, -0.696253, -0.048115, -0.613386, -2.2463, -0.769472, 0.014484, 0.021517, -0.088189, 0.733249, -0.042883, -1.05834, -0.489082, -0.431962, 0.128188, -1.13293, -1.96052, 0.565837, 0.001195, -0.985267, -0.200553, -0.693443, -0.987744, 0.517415, -1.24598], [1.17027, 0.1941, -0.509761, -0.319743, -0.035954, -0.11687, 0.094561, 0.001422, 0.019069, 0.351143, -0.040738, 0.273219, -0.039861, -0.170648, -0.038684, -0.03883, -0.248617, 0.250072, -0.26273, 0.063571, 0.047073, 0.164777, 0.135041, 0.429203, 0.790214, -0.501455, 0.785513, -0.014843, 0.72288, -0.232712, -0.829601, -0.151642, 0.035253, -0.319652, 0.104401, -0.35351, 0.596647, -0.089142, 0.368719, -0.307521, -0.233781, -0.288093, 0.062603, -0.022505, -0.095476, 0.219239, 0.191885, -0.454318, -0.056438, 0.218175], [-0.020673, 0.02937, -0.050375, -0.035437, 0.02199, -0.040564, -0.046647, 0.009886, 0.012973, -0.008616, 0.000964, -0.010814, -0.006895, -0.057776, -0.03144, 0.028874, 0.020913, 0.000341, 0.018123, 0.003926, 0.006778, -0.025146, 0.00856, -0.044644, 0.012185, -0.02828, -0.014087, 0.021308, 0.004803, -0.052478, -0.011299, -0.040222, -0.05446, 0.014199, -0.011786, 0.000473, -0.058243, -0.019212, 0.011574, 0.024587, 0.000193, -0.000676, -0.041262, -0.041339, -0.048438, 0.017735, -0.013384, -0.012493, 0.041907, 0.027645], [2.24444, -0.335882, -0.736264, -0.232376, 0.470901, 1.34997, 0.194023, 0.009194, 0.033592, 0.864666, -0.766082, -0.148933, 2.09625, 0.58517, 0.514059, 0.293921, 0.61718, -0.103826, -2.19483, 0.045214, 0.006915, 1.01247, -0.008355, 1.24686, -0.291784, 0.810092, 0.906209, 0.007768, -0.123915, 0.1873, -0.401453, 0.052487, 0.029172, -0.153351, 0.041166, 0.755266, 1.08302, -0.2742, 0.123001, -0.142317, 0.221065, 0.802417, -0.232938, 0.041027, 0.252266, 0.194669, 0.271508, -0.653145, 0.322533, 0.811994], [-2.79157, 1.61589, 1.09199, -0.745765, 0.166165, -3.70178, -0.476194, -0.966228, -0.029425, -0.903767, -1.44292, -0.498957, -5.04432, -2.46663, 0.762096, -1.50479, -0.43301, -0.031347, -1.03564, 0.875501, -0.007626, 0.532054, 1.54537, 0.289245, -1.62477, -0.304848, -3.38311, 0.032339, -0.585163, -0.259269, 0.48784, 0.18264, -0.021212, -0.140414, 1.56375, -2.30971, -2.12171, 0.557381, -3.283, -1.15135, -1.39453, -1.46169, -0.085982, 0.004402, -2.04163, 0.02117, -0.43605, -1.03634, 0.534743, -3.20762], [3.33345, -0.459158, -0.755255, 0.631827, -0.731001, 2.09313, 0.282656, 1.421, -0.025133, 1.33416, 0.213801, 0.395591, 2.18985, 0.551708, -0.615222, 0.242924, 0.850983, 1.26276, 0.906017, -0.157711, -0.013536, 1.42542, -1.4876, 1.36171, 2.60651, 0.298997, 0.600046, 0.026144, -0.840849, -0.582002, 1.28799, -0.123604, 0.041061, -0.36874, 0.162016, -0.224838, 0.705696, -0.033161, 0.938384, 0.859202, -1.17457, 0.315625, -0.374041, -0.024132, 1.11656, 2.68692, -1.72133, -0.292591, 0.022258, 0.959642], [2.26447, -0.275377, -1.01688, 1.23326, 0.539571, 2.40719, 0.377642, 0.557805, -0.021727, 1.95821, 0.976827, 1.2711, 4.27092, -2.91696, -1.46083, 1.58684, 0.380497, 0.191268, 1.28622, -0.330604, 0.010845, 1.32045, 0.217524, -1.18269, 0.410847, -0.730858, 3.24621, 0.002737, -0.224577, -0.712889, 2.61347, -0.629372, 0.003011, 0.161131, -0.213614, 3.23028, 0.704927, -0.460893, 1.51311, 1.10354, -0.072922, 0.462551, -0.078824, 0.048329, 1.66247, 2.37665, 0.533536, 1.82695, -0.148337, 1.51649], [0.596225, -0.769085, -0.549906, 0.051291, -1.04455, 2.21469, 0.620048, -0.540988, 0.027465, 0.314281, 0.628839, 0.969296, 1.07667, 1.01797, -0.519717, -0.121476, 0.659905, -0.069175, 1.39316, -0.066899, -0.017398, 1.18277, -0.178645, 1.59639, -0.084447, 0.546507, 0.723976, 0.048246, -0.051498, -0.005278, -0.58809, -0.079771, -0.002176, 0.461753, 0.081836, 1.85516, -0.224106, -0.223194, 0.113671, 1.00824, -0.25433, 1.09591, -0.058373, 0.034826, -1.05436, 1.74575, 0.0192, -0.671938, 0.452413, 0.575155], [0.791254, -0.167012, -0.987316, -0.068562, 0.431895, -0.283585, -0.270722, 1.92924, 0.004863, 0.433428, 0.565668, 0.780259, 0.509315, 1.51068, -0.747352, 0.499507, 0.206882, 1.251, 0.38141, -0.413109, 0.038777, 0.213123, -0.144893, -2.42972, 0.724033, -0.740748, 1.4771, 0.030734, 0.981876, -0.241164, -1.01874, -0.035889, 0.002833, 0.629715, 0.022047, 1.89797, 0.658152, -0.268293, -0.108318, 0.287883, 1.31169, 0.612306, -0.264954, 0.036084, -0.244959, 2.40216, -0.284519, 0.985414, 0.330076, -0.653789], [7.27731, 0.359723, -2.71009, 1.45618, -0.754094, 4.35641, 1.57143, -0.008257, -0.005432, 2.18328, 0.26668, -0.20704, 0.919605, 0.199073, 0.870806, 0.43248, 0.03024, 2.12597, 1.62822, 0.147875, -0.043076, 0.032523, -0.395191, 0.612889, 1.74911, -0.011532, 2.0813, 0.017415, 5.03989, 1.68676, -0.223712, -1.08912, 0.000607, 0.930758, -0.798298, -1.61601, 1.69232, -1.02075, -0.592003, 1.58192, 2.71537, -0.241976, 0.091603, 0.02952, 1.03833, 1.81158, 1.19309, 1.46768, 0.584891, 3.53873], [1.70015, -0.124902, 0.200288, 0.152672, 0.913584, 0.340325, -0.371154, 2.05291, 0.044687, 0.755161, 0.157976, 0.570265, 0.969029, -1.64877, 0.180264, 0.855207, -0.468806, -0.46735, 2.0421, 0.556397, 0.012175, 0.38503, 0.450884, 1.51852, -2.67387, 1.42936, 0.892722, 0.004269, 0.576027, 1.74327, -0.39095, -0.379164, -0.013885, -0.874044, -0.635221, 2.3649, -1.15012, 0.013077, 0.635102, -0.056698, -0.776175, 0.209458, 0.768279, 0.028226, -1.43689, 1.45348, -0.132275, -0.652597, -1.0739, 3.67992], [-0.893903, -0.152696, -0.205092, -0.890282, -2.00364, 1.03875, -1.32621, -2.14113, 0.002212, 0.812214, -1.41181, -0.42005, 0.441983, 1.30917, 0.385389, -0.570749, -0.049157, 0.48211, -1.25877, -0.809701, 0.038281, 1.03367, -0.071445, 0.873666, -0.18559, 0.237245, -2.18862, -0.033905, 0.057432, 0.042032, -1.34011, 0.172452, 0.013299, -0.174418, 0.346727, -3.45556, 1.11992, -0.126685, -3.45447, 2.56293, -1.33905, 0.232492, -0.110459, -0.009425, 1.47742, 0.953528, -0.429473, 0.23329, 0.741844, -0.1632], [-0.711406, 0.176358, 0.182661, 1.37651, 0.171296, -3.77013, 0.470689, -1.19252, 0.034921, -0.545057, -0.084356, -1.01764, 0.703205, -0.550564, -0.257998, -0.089, -0.070344, -2.1616, -0.246453, 0.327011, -0.038764, 1.25986, -0.482131, 1.16025, -0.996877, 1.01139, 0.454536, -0.000234, -0.764689, 1.13094, 0.315832, -0.518998, 0.002029, 0.078691, -0.018047, 0.724222, -2.41294, 0.107496, -1.11151, 0.15276, -0.245497, -0.086302, -0.896264, -0.042313, 0.890333, 1.23829, -0.300661, 1.02731, 0.997125, -0.964605], [-1.16495, -0.321318, -0.232878, -0.867667, 0.809648, 0.48899, -0.242153, 1.47975, 0.02435, 1.05052, 0.360507, 0.88985, 1.61957, 0.039584, -0.180387, 1.59727, 0.100414, -0.169962, 0.322532, 0.404049, 0.044927, 0.00206, -1.13727, -0.818494, -0.024636, 0.438166, 0.455839, 0.015163, 1.09169, 0.150812, 1.64395, 0.07366, -0.015221, 0.129634, -0.558443, -2.69559, 0.425179, -0.453843, 0.399802, 0.319833, 0.893701, -1.29397, 1.0002, 0.00813, 1.0273, 0.363057, 0.776842, 0.069926, 0.417053, 0.671006], [4.13665, 0.050046, -1.34642, 1.24221, 0.829818, -1.45188, 0.656966, 0.888003, -0.037389, 2.65558, 0.252398, -2.24852, 2.92518, 2.71676, -0.987654, 2.38644, -0.084379, 1.04393, 2.454, 1.50747, 0.067769, 2.13449, 0.016131, 1.21737, 2.50141, 2.72715, 2.70012, 0.031385, 1.93802, -0.063745, -1.17808, -1.33022, -0.0209, -0.26996, 0.52746, 0.497982, -0.234501, -0.493726, 0.385576, 0.483983, 1.36633, 0.507154, -1.40767, 0.035973, 0.936894, 1.15858, 0.619389, 0.516815, 0.52366, -3.14797], [-1.17314, 0.172576, -1.31059, 0.300277, -1.03053, 0.750412, 0.534606, -0.012734, 0.012241, -0.317651, -0.248858, 0.041998, 1.03757, 1.11332, 0.302777, -0.395229, -0.175081, -0.470124, 0.53968, 0.142702, -0.023831, -0.020379, -0.029609, 0.274127, 0.332722, 1.38532, 0.491408, 0.010071, 0.173434, -0.189506, 1.50722, -0.128729, 0.03001, 0.692876, 0.396345, 0.936195, 0.310122, -0.201174, 1.31424, 0.640648, 0.601806, -0.655586, -0.369063, -0.019121, -0.621453, 1.08082, -0.619932, 0.232333, 0.894868, 0.951111], [1.29563, -0.292084, -0.319046, -0.171448, 0.634968, -0.57173, -0.226099, 0.380815, -0.041658, 0.395672, -0.132231, 0.448331, 0.487361, -0.738103, 0.734906, -1.38747, -1.16242, 0.912717, -4.93262, -0.520984, 0.027518, 0.518664, 0.038682, 1.16117, 0.208286, 1.25247, -1.23102, 0.025982, -1.50012, -1.90003, -0.450514, 0.20765, 0.017554, -0.496274, 0.281842, -0.105956, 0.136957, 0.061055, 1.22848, -0.719081, -1.02814, -0.327608, -0.580142, 0.021263, 1.05033, 0.303757, -0.413065, 0.735869, -0.774691, -0.741366], [-0.485544, -0.48778, 0.739305, 0.119273, 0.564944, 0.505106, -0.288435, -0.63508, -0.005224, 0.230368, -0.00965, 0.284249, 0.021743, -0.882583, 0.050951, -4.45779, 0.286754, -0.901804, -0.993359, 0.160678, -0.014993, -0.377201, -0.043444, 1.02306, -4.16839, -0.745453, -2.19448, -0.040777, -0.222141, 0.257391, 3.39364, 0.183447, 0.01193, -0.596744, -0.213009, -1.09955, -0.474961, 0.101982, -0.98728, 0.459385, 0.449575, -0.860569, -0.173171, 0.002011, -0.081804, -0.800228, -0.212828, 0.001794, 0.094815, 0.632344], [-0.938857, 0.307313, -0.638307, 0.665698, -0.194453, 0.62479, 0.371, -0.045371, -0.044709, -0.38989, -0.627483, -0.062853, -0.0266, 1.20711, 0.049295, 0.662953, -0.061067, -0.356698, -0.461248, -0.063754, 0.011707, 0.524044, 0.28186, 0.494609, -0.127683, -0.252304, -1.78619, -0.023014, -2.17412, -0.906487, 0.026267, -0.159153, -0.049653, 0.243377, 0.180458, 0.23147, -0.26509, 0.020961, 0.163652, -0.076582, 0.851666, -0.559105, -0.133219, -0.023227, 0.175753, 0.845707, 0.134143, 0.573985, -0.267262, -0.045343], [-4.40807, 1.35937, 0.454668, -0.415228, 0.532527, 0.239034, 0.448279, -1.35992, 0.008206, -0.405411, 0.294499, 0.46599, 0.23063, -1.00471, -0.592886, -2.56858, -0.063021, -0.477935, -0.77272, -12.3143, -0.015684, -2.58485, 1.76413, 1.1334, 0.376739, 0.344102, 2.07634, -0.020507, 0.620666, -1.5084, 1.2578, -0.118277, -0.05066, 1.61037, 0.137709, 1.4977, 0.107882, 0.208711, -1.07384, -0.052945, 0.443934, -10.931, 0.70945, 0.043554, -0.307361, -5.16853, 0.362119, -7.76565, -0.758247, 0.374978]], [[0.051914, -0.200269, -0.042623, -0.159031, -0.267751, 0.440366, 1.34489, -1.47498, 0.060871, -0.047485, 0.660659, 0.56633, 0.099355, -1.16069, 0.028239, 0.025194, -0.159098, -0.322951, -1.29671, 0.957487, 0.080355, 0.440509, 0.361166, -0.479554, -0.062159, -0.557276, -0.038045, -0.054356, -0.130378, -5.62407, 0.426018, 1.19472, 0.053449, -0.066968, -0.054914, -0.064216, 0.000568, -0.840401, 1.08891, -1.47462, -0.613882, -1.24668, -0.553777, 0.788761, 0.337677, 0.075722, 0.29468, 0.709958, 0.968445, 0.241409], [0.234629, -0.05973, -0.447431, 1.56002, 0.608855, 0.828696, -0.036555, 0.43092, 1.14049, -0.011819, 1.99211, -0.20318, -0.906073, -0.225907, -0.020979, -0.473343, 1.62321, 0.730986, -1.19294, 1.67443, 0.00082, 1.54636, 0.390324, -2.08924, -0.636619, -0.941192, 0.040146, -1.56947, 1.17064, 0.244283, -0.215397, -0.138885, 0.02527, -0.73675, 0.162997, 0.217372, -1.31416, 1.72175, 0.640752, 0.303605, -0.112548, 0.193011, -0.050418, -1.80201, 0.478768, 0.529603, -1.66738, -0.44907, 0.025642, -0.131933], [-0.792953, -0.053898, 0.440294, -0.496973, -0.27196, 0.615132, -0.073099, -1.15949, -0.147599, 0.49744, -1.12964, -0.42802, -0.30443, -0.48504, -0.005499, 0.607207, 0.198786, 0.966528, 0.094271, -1.56385, 0.161906, -0.482761, 0.442221, 1.41331, 0.686739, -1.59702, -2.46111, -0.2893, -0.402657, -3.88468, 0.563007, 0.632492, -0.041811, 0.831695, -0.75039, -0.205412, 0.585854, 0.31099, -1.72229, -2.6805, -1.55836, 0.792807, -2.13623, 0.027142, -0.733606, -0.77887, -0.109083, 0.312345, -2.48067, 0.826788], [0.351216, 0.921482, -3.06941, -0.047449, -0.241958, 0.712236, -1.47326, 0.509278, 0.762347, 0.742393, -0.261301, 0.312286, 0.078703, 0.2058, 0.019841, -0.833524, -0.32734, 1.17176, -3.40969, -0.314103, -0.259559, 0.918995, -0.072083, -0.789702, -0.250995, -0.239598, -0.157677, -0.867371, 0.648934, 0.425797, -0.547417, -0.918524, 0.017925, -0.184461, 0.156339, -0.360305, -0.378013, 0.149898, 0.609986, -0.141097, -0.727958, -1.2866, -1.04718, -2.10338, -0.059547, 0.927774, 3.07658, 0.195767, 1.10977, -0.760739], [-2.66186, 1.24384, -0.539079, 0.335702, -0.131753, -0.279916, 1.12853, -1.51964, 0.695332, 0.969214, 0.685564, 0.122417, 0.011602, 1.28853, -0.018209, 0.675219, 0.925158, -0.849396, 0.575645, 1.08048, 0.50995, -1.07584, -1.16416, 0.816172, 0.45235, -1.9647, 0.316309, 0.377616, -0.107424, -3.27485, 0.509471, 1.70718, 0.010584, -1.30218, -0.858186, 0.232611, 0.306005, 1.21878, -0.44803, 0.342165, 1.03343, -3.05181, -0.717795, 0.294256, 0.979587, 0.678161, 0.370807, 1.55609, 0.83683, -0.529629], [0.161899, -1.00164, 2.45081, 0.78005, -0.588468, -0.296394, 1.39497, -1.34225, 1.1819, -1.37847, 0.294826, -0.260175, -0.408542, 0.230565, 0.02006, -0.294692, -0.114356, 0.966576, 1.76903, 1.57958, 0.303168, 0.930826, 0.263628, -2.6947, -0.317272, -0.747781, 0.456588, 0.034341, 1.41417, -1.89575, -0.226878, 0.212501, 0.035505, 1.00451, 0.126114, 0.645614, -0.739885, 0.051228, 0.364675, 0.614492, 0.975486, -0.459342, 1.3451, 0.837772, -0.529684, 0.012857, 0.576675, 0.020214, 1.85045, 0.13187], [0.792357, -1.08027, -0.995268, 0.27652, -1.92234, 0.328422, 1.15129, -0.62396, -1.10615, -3.62288, -0.753415, -1.13146, -0.007549, 1.19118, 0.029843, 0.28821, -2.33196, 1.51039, -6.974, -0.525726, 0.41886, -1.09895, -0.343697, -7.90122, 0.017974, -1.39403, 0.171342, 0.269027, -0.264274, -8.78389, 0.143011, 2.5253, -0.01894, 1.42152, -0.433734, -0.833581, 0.212278, 1.83612, -3.22967, -6.73611, -0.022624, -0.151358, -3.38634, -1.97023, -1.65264, 0.913262, -0.0491, 0.590626, -2.2713, -0.396953], [0.899432, -0.23826, -1.10374, -0.172744, -0.481043, 0.412001, -2.51964, 1.04829, -0.001325, -0.41274, 1.04824, -0.506958, -0.509318, -0.588392, 0.010076, -0.50805, -1.03656, 1.15646, 0.931808, 1.75594, -0.018733, 0.537314, 1.07315, 0.523173, 0.184169, 0.705052, 2.26296, 0.105995, 0.319563, -0.382294, 0.331765, 0.465293, 0.01443, 0.064066, -0.647059, -0.497911, 0.479461, 0.956916, 0.217324, -0.862018, 0.687555, 2.1707, -0.463116, 2.18711, -0.613657, 0.584218, 0.831626, 1.38103, 2.72216, 0.264943], [-0.096711, 0.199367, 0.255067, -0.114595, -0.571101, -0.631918, -0.161256, 0.174215, -0.000288, 0.183598, 0.406276, 0.097042, 0.025933, -0.361777, 0.022599, -0.179196, 0.197951, -0.511327, -0.85247, 0.257301, 0.023865, -0.717989, 0.043411, 0.342778, 0.016966, -0.997577, 0.801579, -0.259877, 0.122434, 0.588502, -0.070301, 0.113822, 0.042879, -0.114026, 0.095911, 0.010714, 0.403823, 0.231563, 0.213772, -0.35478, 0.110668, 0.206293, -0.106669, 0.32647, -0.076799, -0.326698, 0.612875, -1.14373, 0.685833, -0.074347], [-0.58808, 0.771646, -0.100344, 0.020875, 0.165631, -0.438035, -0.147715, 0.496797, 0.851421, 0.10648, -1.38823, -1.04941, -0.310089, -0.454686, 0.039475, 0.269318, 0.006927, -2.81538, 1.35975, 0.429399, -0.063224, 0.391565, 0.16201, -0.026208, -0.11375, 0.319889, -3.52682, -0.302632, -4.00899, -2.49229, 0.247244, -0.715367, 0.035673, -1.28022, -0.071541, -0.081778, 0.34612, 0.492068, -2.71825, -0.526228, 0.138223, -0.812498, -1.96812, -0.120875, -0.43512, -1.69795, 0.18268, -0.259328, -1.67822, 0.52222], [0.381123, -0.762666, -2.56992, 0.238603, 0.182084, -0.316824, -1.32813, 1.08764, -1.5374, -0.014929, 0.299166, -0.186331, -0.098607, 1.02623, -0.025132, -0.247488, 0.014749, -0.019374, -1.9761, -0.871127, -0.37556, -0.704642, -1.56339, -1.27271, 0.270027, 0.503804, 0.485616, 0.080013, -1.66939, -1.14296, -0.575909, 0.691028, 0.037785, -1.79415, 0.197473, 0.720992, 0.185186, -1.0073, 0.495189, 0.077835, 0.057374, -1.08209, 0.398331, 0.245103, 0.226291, -0.07988, -0.712662, -0.69684, -1.49274, -0.0925], [0.028945, 0.308396, 0.07405, 0.373864, -0.319886, 1.12413, -0.486497, -0.531623, 0.935364, 0.443707, 0.301662, 0.3946, -1.15185, -0.814012, -0.009464, -0.096728, 0.983582, 0.447538, -0.21944, 0.907611, -0.02869, -0.059079, 0.499939, 0.005237, -0.178365, 0.056568, 1.16081, 0.20924, 0.214591, -0.824015, -0.492615, 1.5981, 0.00158, -0.072865, -0.380459, -0.34584, -0.4445, 0.243317, 2.13918, 0.189145, 0.22755, 1.29836, -0.400541, 0.244653, 0.459536, 1.04334, 0.883291, 1.62399, 1.75743, -0.4892], [0.446097, 1.15297, -2.26098, 0.307568, 0.208776, -0.197459, -2.15868, 0.962286, 0.206451, -0.202673, -1.14422, -0.110362, 0.076511, -1.41238, 0.001082, 0.37236, 0.316069, -0.574136, 2.20546, -0.557032, -0.383451, 0.306205, 1.19366, 0.264931, 0.143574, 0.180007, -1.36367, 0.349073, -1.21126, -5.21616, -0.940171, -5.15666, 0.021444, -1.5611, -0.111422, 0.760257, 0.485725, -0.060602, -0.483793, -0.275026, 0.148653, 0.386866, -1.20913, -2.94809, 0.98049, -0.339997, -3.62778, 0.042726, 0.739481, 0.783626], [-0.329968, -1.62819, 1.66059, 0.216111, 0.32946, 0.889478, 3.86181, -0.225901, 2.37161, 0.133839, 1.08872, -1.46973, -0.04738, 0.125832, -0.016497, -0.247564, 1.2312, 0.087912, 2.72738, 1.33168, 0.023405, 0.74134, 0.423118, 1.0029, -0.392486, 0.245531, 1.54707, -0.97175, 0.871307, -4.42808, -0.208779, 4.63457, -0.023774, -0.657045, -0.630811, 0.17135, 0.050354, -1.13662, 1.76797, 0.285986, 1.14325, 0.8608, 2.2819, 0.434213, 0.099401, 1.31793, 1.56467, 1.55824, 3.91222, -0.429813], [-2.45145, -1.73437, 0.129206, -0.271519, 0.555331, 0.468121, -1.46966, 0.936053, 1.02275, 0.787598, 0.174993, 0.354113, -0.090206, -0.087559, 0.047174, 0.301135, -0.91078, 0.009455, -0.437458, 1.33849, -0.045346, -2.23666, -2.06149, -0.005708, -0.230199, -1.27081, 0.715494, -0.28967, 0.777035, -2.60008, 0.375545, -1.14964, -0.005627, -2.04219, 0.263211, 0.480638, -0.979727, -2.02571, -0.32734, 0.029222, -2.06771, -1.13367, -2.80003, 0.744747, 0.070177, -0.449736, -1.16945, 1.32128, -1.9579, 0.421129], [-0.230854, -1.754, 4.19677, -0.886899, -2.10686, 0.373039, -0.901762, -0.253676, 1.65058, 0.170882, 0.809002, -1.14535, 0.263829, -2.71101, -0.026435, -0.126934, 1.49113, -3.96874, -0.21108, 1.49875, -0.023656, -0.182414, 2.21144, -0.112337, -0.088693, -2.29525, 1.26535, -0.124035, 1.12925, -3.2525, 0.363521, -2.08269, -0.020752, 0.089333, -0.045819, -0.998716, -1.14581, -1.9052, -0.962013, -2.17044, 1.86292, -0.663114, -1.06282, -0.812084, 0.173062, -0.769533, 1.20381, -1.11016, -1.26962, 1.92055], [0.617007, -0.310496, -1.15302, 0.391062, 0.088686, 0.54607, -0.58804, 0.473446, 0.38069, -0.294759, -1.74653, -0.266267, 0.128987, -0.012608, 0.033564, 0.130424, 0.256538, -0.637482, 0.961027, 0.683741, -0.360184, -0.441312, 0.951181, -0.691295, -0.177043, -6.19839, -1.21952, -1.03364, 1.5294, 1.38573, -0.437789, -0.914265, 0.007202, 0.443889, 0.14587, 0.585767, -1.3262, -1.03637, 1.34354, -3.14861, 0.100419, 0.276699, -0.193366, 0.197312, -0.275597, 1.22835, -0.845186, 0.008584, 0.441803, 0.116745], [-1.50996, 0.329201, 0.474235, 0.32924, 0.421106, 0.758647, -1.34029, -1.50342, -3.95215, -1.03483, 0.204758, -0.508581, 0.130125, -5.81111, 0.003739, -0.07118, 0.605036, 0.578812, 0.297843, -0.973112, -0.068096, -3.09258, -0.170071, -3.19754, -0.05548, -1.05589, -0.237601, 0.70879, 0.734788, -3.34329, 0.160396, 0.433559, 0.042091, 0.889801, -0.154341, -1.45419, -4.07539, -0.539132, 1.02906, 0.398172, -0.726974, 1.06519, -3.06806, -0.808403, -0.609188, 0.334717, -0.323499, -2.01256, 1.182, -0.412968], [0.417277, 0.470157, -0.304734, 0.254255, -0.064746, 0.699537, 1.27922, -0.292214, 0.979284, -0.599566, 0.180136, 0.060747, 0.171553, -0.359202, -0.0027, 0.522072, -0.404863, 2.01981, 1.14214, 1.17589, -0.214159, 0.624797, 0.497614, -0.058821, 0.327934, -0.227321, 0.133507, 0.672009, -0.847281, -1.03701, 0.373767, -0.378245, 0.04199, 0.638102, -1.05221, -0.349715, 0.190183, 1.84427, 0.945328, -0.048897, 0.072872, 0.743613, -0.27234, 0.271342, -0.076735, 1.9129, 0.392881, 1.52813, 2.21703, -0.147028], [0.902981, 0.775881, 5.10491, -1.60335, -2.09663, 0.344066, 1.71672, 0.539906, 1.43937, 1.55235, 2.21292, -1.16839, 1.25889, -3.65494, -0.018284, 0.156503, 3.31822, 1.10114, 3.19125, -0.521336, 0.613761, 1.49523, 5.81074, 3.25406, 0.423819, -4.64705, 2.82325, 0.182737, 3.52587, -0.152101, 1.71337, 0.540121, 0.008599, 0.841462, -0.673745, -1.54115, -1.86221, -0.605083, -0.420209, -3.80179, 1.59635, 2.5397, -0.328612, 1.66941, -1.59916, -0.311441, 3.63203, 0.989133, 2.0923, 4.10895], [0.223625, -0.380332, 1.43934, 0.119167, -0.034838, -0.437114, 0.241064, -0.817466, -0.280447, -0.024829, -0.401726, -0.285795, -0.038584, -0.513484, 0.032873, -0.280641, 0.471727, -0.221727, 1.69059, 0.445662, 0.072461, -0.260117, 0.189267, -0.686889, -0.05826, -0.450703, -0.377851, 0.326467, 0.400518, -0.824233, 0.437385, -0.435948, 0.018682, 0.47131, 0.044684, 0.044263, -0.413336, -0.373927, 0.823153, 0.080705, 0.148789, 0.263043, 0.155506, 0.679601, -0.103035, 0.040491, 0.024035, 0.047852, 0.120338, -0.103656], [0.287341, -0.140451, 1.88817, 0.277305, 0.014712, -0.534649, 1.56067, 1.0572, 1.62424, -3.43422, 0.717236, -0.039023, -0.367436, -1.61018, 0.022396, 0.820654, -0.970475, -0.761537, 0.783374, 1.0228, -0.103806, 0.434478, 0.953853, 0.083912, -0.102087, -0.405621, 1.11522, -0.159558, -1.62378, -4.30368, 0.721454, 0.389078, 0.02464, 0.227541, -0.323654, -5.61871, -1.05314, -0.645374, -1.29372, 0.090094, 0.13103, -5.86302, -2.5777, -3.5001, -0.557443, 1.04876, -0.740601, 1.21494, -1.4393, 0.347622], [0.243261, -0.649793, -7.20191, -0.686781, -0.16434, -0.325899, -0.114427, -1.10477, -3.31923, 0.108087, -0.291978, 0.41639, 0.127213, -1.01134, 0.027362, 0.257958, 0.044184, -0.557452, -1.85788, -0.939608, -0.167163, -1.61097, -0.395572, 0.131799, 0.012638, 0.061179, 1.39844, -0.093769, 1.3656, -4.3193, -0.075749, 1.13673, 0.005214, -0.255735, 0.059637, 0.367513, 0.457397, -0.580749, 0.698944, -1.32318, -1.39551, -0.426806, 0.467678, -0.141507, -1.73446, 0.012885, -1.94601, -4.82891, -2.30152, 0.213977], [0.652761, -1.05504, -3.84814, 1.73259, -0.599051, 0.229324, -0.564198, -2.03993, -3.09808, -0.901188, -0.824366, -0.582802, -1.08613, -0.351408, 0.018769, -0.814117, -0.826484, 0.430169, -3.8836, 0.257122, -0.587505, -0.061258, 0.163073, -0.012819, -0.77103, 1.40356, -2.99333, -1.38413, -0.240829, -4.54657, 0.086725, -3.78366, 0.041932, -0.507227, 0.093612, 0.793768, -0.560176, 0.625916, -0.653086, -5.58337, -1.38359, -2.54794, 1.95372, -6.55165, 0.92772, 0.185094, -2.38197, -1.48056, -1.64499, 0.860377], [-0.62877, -0.720351, -2.2628, 0.760752, -0.701001, 0.568658, 0.38705, -0.255587, 0.397236, 0.116621, 0.444726, -0.200186, 0.054819, -0.710606, -0.002197, -0.712177, 0.786979, 0.614133, 0.749584, 1.11317, -0.200812, 0.54136, 0.591452, -0.237736, -0.020193, -0.085097, 0.748735, 0.331415, -0.069447, -7.23138, 1.03909, -0.418355, -0.004344, -2.44863, -0.402912, 0.498261, -0.332122, 1.10478, 3.29236, 1.02213, 0.43932, 0.854766, -1.22, 0.093407, -0.135838, 0.721401, 0.607122, 0.461127, 1.25614, 0.002173], [0.292554, 0.064186, 0.73302, -0.159283, -0.668526, -1.59308, 0.583611, 0.737318, -0.018973, -0.174348, 0.271493, -0.011386, 0.069369, -0.611726, -0.036209, 0.183676, 0.36965, 0.446872, 1.13845, 0.825846, -0.117695, 0.425602, -0.556867, 0.678102, 0.13607, -0.514398, -0.017884, -0.103073, 0.414316, -0.007822, 0.792344, 0.307211, 0.008596, -0.286918, -0.075988, -0.059078, 0.133786, -0.715483, 0.268428, -0.433659, 0.805221, 1.90336, -0.255638, 0.499404, -0.393356, 0.113263, 1.13147, -0.209274, 0.175277, -0.662856], [-2.29749, -1.19341, 1.03539, -2.12913, -2.92815, -3.76708, -4.69158, -4.96701, -4.80254, -0.73407, -1.44665, -4.27258, 2.16265, 0.477764, 0.020626, -3.87622, 2.50316, -1.44603, -9.79311, -3.56524, -0.286298, 1.2508, 4.51705, -2.82357, -0.313944, -1.84204, -4.7204, -2.09062, 0.580938, 0.28619, -2.73625, -2.22091, -0.026375, 1.18363, 0.802272, -3.11964, -4.0572, -1.69666, -1.05786, 0.07681, 0.797525, -1.21725, -1.75995, -0.064692, -1.9185, -2.64612, -2.2384, -0.187201, -1.21636, -2.16651], [-1.38364, 0.214014, -4.09091, 0.623618, -0.769398, 0.154183, 1.62279, 1.25029, -1.35177, -0.026625, 0.536268, -0.801668, 0.394286, 0.021798, 0.021012, -0.50662, 0.342223, 0.194322, 2.39925, -3.92085, 0.328173, 1.10585, 0.012221, -1.40002, 0.018267, -0.601944, -1.28491, -0.551495, -2.38014, 1.87124, -0.037101, 0.410915, 0.032769, -0.268127, -0.097267, 0.039658, -0.10757, -0.04272, -1.46339, -0.834221, -0.846382, -1.33855, -0.025356, 1.34861, 0.738152, -1.18227, 1.53267, 0.30142, -1.26878, 0.224992], [-0.244372, -0.942011, -0.849915, -0.113883, -0.199636, 0.196337, 0.20732, 0.047493, -0.361615, 0.101549, 0.844478, 0.316531, -0.192316, -0.117013, -0.044618, -0.404068, 0.384971, -0.161005, 0.298938, -1.01137, -0.094649, 0.753385, -0.756761, 0.188045, -0.191192, -1.11564, 0.35574, -0.099611, -0.106667, 1.28855, -0.294477, 1.91219, -0.015485, -1.41862, 0.276356, 0.173453, -0.128837, 0.844988, -5.32484, 0.286083, 0.334591, -1.16453, -0.142488, -1.4851, -0.508893, -0.907552, -1.32138, 0.19128, -2.15347, 0.156641], [-4.92856, 0.230687, 2.37506, 0.107853, 0.813979, 0.813004, -1.00624, 0.00312, -1.32714, -0.752417, -0.536776, -0.685184, -0.19838, -0.759027, -0.03172, -0.25545, -0.214142, -6.27586, -6.67693, 0.271466, 0.172569, -1.05513, -1.61747, 0.249511, 0.119728, -1.88606, 1.26403, -0.113389, -0.35511, -0.207269, 0.229823, 0.690132, -0.01012, -1.04141, -0.075572, 0.457613, -0.910514, -0.915075, -2.36587, -5.47619, -0.958548, 0.654338, -2.64646, -0.869313, -1.81552, -1.59107, -0.423127, -0.173417, -2.65947, -0.052465], [-0.437612, 0.162187, -0.310504, -0.394755, 0.167468, 0.059728, 0.499477, 0.074905, -0.092808, 0.233225, 0.339826, -0.009695, -0.091357, 0.109275, -0.014186, 0.181221, -0.139853, 0.601756, 0.719346, -0.844182, 0.151978, 0.166261, 0.032976, 0.309099, 0.018012, -0.100789, 0.566051, -0.139383, -0.734174, -0.084219, -0.323906, -0.614663, -0.044007, 0.62967, -0.005674, -0.072402, 0.321718, -0.258162, -0.61004, 0.133284, -0.137826, 0.429932, 0.902369, -0.909749, -0.202792, -0.665917, -1.08253, -0.10419, 0.280833, -0.224982], [1.14962, -0.775511, -3.91116, -3.26376, -1.55255, -1.00861, -8.29701, -2.20342, 1.79527, -0.144571, -0.854935, -2.27522, -0.172488, -1.2922, 0.005455, 0.07179, 0.404762, 1.05616, -3.70061, 4.23759, 0.729109, -3.06483, -1.61222, -1.58457, -0.877102, -5.04688, -3.05969, -0.953124, -3.67982, -0.996733, -4.01551, -1.15457, 0.045667, 0.878015, -0.714578, 0.864322, -0.328829, -1.95845, -2.84739, -2.99542, 0.16311, 2.39882, -0.406962, -2.42268, -0.410679, -5.31114, -2.44436, -0.929814, -3.58355, 0.245041], [-2.29046, 1.66318, 0.927851, -0.458969, -1.51077, 0.177796, -6.26269, -0.181648, 1.91397, 0.318219, 0.134018, -2.17644, -1.05835, -1.76966, -0.02621, -0.412778, -3.79291, -2.07517, 0.744914, 2.39692, 0.019496, 0.709861, -1.65463, 1.1237, 0.208675, -1.88067, 0.790899, -1.50417, -3.63592, -0.504507, -0.883295, -3.45571, 0.022458, 2.12501, -0.016967, -0.001265, -1.68353, -1.20277, 2.18217, -0.468581, 0.641219, -5.38276, 0.474274, -3.52414, -3.6457, -0.24347, -1.06788, 0.728165, 1.85428, 2.65814], [-0.439517, -0.401939, -4.65354, -0.270405, -3.93723, -0.064525, -0.964843, -0.430279, -1.94079, 0.301673, 0.21199, -0.319925, 0.18345, -0.088026, 0.002156, -0.070978, -0.161921, 0.70885, -2.59316, -1.10551, -0.356165, 0.789682, -0.653471, -1.09068, -0.379021, -5.90536, -2.26696, 0.379603, 0.58223, -2.55406, -0.274157, 0.655188, -0.027445, -2.41146, 0.290479, -0.09543, 0.151802, -0.017625, 1.3355, -1.92613, -0.27131, 0.432118, -3.00022, -0.072742, 0.611645, 0.730722, -0.368621, -0.60349, 2.01291, 0.083972], [-0.538022, -3.78284, -5.59422, -0.499422, -3.37232, -1.7969, -2.63251, -2.22473, -7.01809, -0.8025, -1.63968, -2.78447, -0.450211, -2.76751, -0.002937, 0.444418, 0.110521, -7.40463, -8.09484, -4.69054, -0.127905, -1.74789, 3.75064, -1.00851, 1.32403, -10.8826, -2.37339, -0.102044, -7.99619, -4.09112, -1.75782, -6.04308, 0.03812, 0.130608, -1.59431, -1.59861, -2.73368, -4.03081, -4.4452, -5.49106, -0.639109, -2.85942, -4.87067, -7.60012, -6.751, -0.088152, -2.36165, -5.78648, 0.045163, -0.074817], [0.248799, -2.3802, 0.269021, 1.06306, -0.882979, -1.27252, -3.88496, 2.31162, -1.06152, 0.024758, 1.47591, -0.139548, -0.110305, 0.877777, -0.016489, 0.089336, -0.435205, -3.84275, -3.89825, 0.513438, 0.189303, -1.59637, -0.222433, -1.31005, 0.038463, -0.011027, 1.20729, 0.585164, -0.730514, -4.97837, -0.372989, 0.296782, 0.012531, -1.37989, -0.639655, -0.194068, -0.509168, -0.883262, -1.90907, -1.40025, -0.913267, -0.952393, -1.23752, -3.11042, -0.16316, -0.225418, -6.48711, 0.629674, -0.699634, 0.589692], [-0.815446, 1.03125, -0.033901, -0.273839, -1.0224, -0.221312, -0.231535, -1.60418, 2.26417, -0.351616, -0.776774, -0.937367, -0.267774, 0.247849, -0.040767, 0.34998, -0.258998, 1.51215, 1.91898, 2.32754, -0.188283, -0.034511, 0.964715, 0.819827, -0.75449, 0.332623, -0.279679, 0.691614, -0.538446, -2.49607, 0.753562, 1.74887, 0.036134, 1.58369, -0.238519, -0.260236, -0.869128, 0.786668, 2.31001, 0.632954, 1.19188, 0.588698, 1.69341, 2.03707, 0.446628, 1.98748, -0.910195, 1.53434, 4.2825, -0.158912], [-0.087164, 0.263664, 0.558545, 0.56518, -0.563202, 0.86906, -0.450458, -0.292695, -0.636907, 0.550168, 0.349467, -0.341496, -0.370225, 0.002469, 0.015814, 0.34698, 0.111573, 0.732965, -1.24791, -0.590511, -0.275209, -0.667188, -0.264006, -0.129038, -1.017, -1.04586, 0.23013, -0.57089, 0.392943, -0.2843, 0.575949, 1.26693, 0.015959, 0.823553, 0.006997, -0.231825, -0.368705, 1.47989, 0.938766, -0.04085, 0.381365, 0.208034, -2.74633, 1.43703, 0.501228, 2.33169, -1.46005, 1.83871, -1.79461, 0.191986], [0.119362, -0.69882, -0.096001, 0.502764, -0.086797, 0.254915, 1.9128, 1.36169, -0.409533, -0.190568, -0.314982, -0.045755, 0.205958, -0.140517, 0.05564, -0.202924, 0.304991, 0.72191, -0.982833, -0.263847, -0.175639, 0.118862, 0.839902, -0.910782, -0.261454, -0.391536, 0.095872, 0.555136, 1.70877, 0.425047, 0.163474, 0.135056, -0.047923, -4.08492, -0.379643, 0.132035, -0.000515, 0.315314, -0.41449, -0.129126, 0.786313, -1.07017, -0.328902, 0.526655, 0.436413, 0.935237, -0.14347, -0.133395, 0.040756, 0.039746], [-3.66573, -2.98989, -3.01107, -1.63794, -1.75452, 0.078916, -3.65996, -6.17783, 0.25523, -1.87364, -6.92729, 0.356433, -0.936405, -0.269711, 0.031694, 1.75457, 0.322067, -5.77718, 0.110648, 0.378151, 0.224247, -2.87166, 0.308073, 0.492934, 0.250073, -1.15063, -3.30799, -0.824178, -4.24666, -1.64242, -5.84805, -11.7591, 0.016544, -4.07851, -0.71505, 0.475519, 0.890173, -0.67993, -5.76747, 1.61083, -5.60414, 0.347377, -6.566, -3.78109, -7.31797, -1.86931, -0.83334, -4.99111, -9.34789, 0.685211], [-0.174261, -0.277508, -0.374108, 0.015242, -0.236495, 0.385416, 0.472515, 0.137004, -0.370149, -1.29453, -0.071772, -0.192777, -0.211782, -0.673947, -0.019549, 0.078527, 