{"number_of_layer": 8, "number_of_neurons_each_layer": [5, 50, 50, 50, 50, 50, 50, 5], "weight": [[[0.024259, 0.215358, -1.67512, 0.048939, -0.021458], [-2.10531, -0.059108, -0.015555, 0.000564, 0.007297], [-0.033504, -0.217469, 0.65978, 0.278623, -1.67258], [0.004665, -0.097038, -0.10375, -1.31273, 0.438954], [-0.483539, -0.025558, 0.019119, -1.02543, -0.584972], [-0.062217, 0.000418, -0.488697, 0.419286, -0.986861], [-0.005124, 0.002604, 0.000397, -0.377371, -0.563559], [0.291278, -2.15315, 0.408166, -0.073968, -0.075703], [0.187148, 1.46523, -0.426451, 0.178251, -0.222091], [-0.104022, 0.007803, -0.005879, -0.0556, -0.030222], [-0.008495, -0.032037, 0.096553, 0.929161, -1.217], [0.028839, 1.63764, 0.305945, 0.139741, -0.09232], [-1.01467, 0.098988, -0.094155, -0.009252, 0.05355], [0.016843, 0.026967, -0.603252, 0.128582, -0.423074], [0.00093, 0.00173, -0.050055, -0.627401, -0.473236], [-2.07916, -0.001895, 0.08348, -0.004826, 0.014116], [-1.65337, 0.081818, -0.086773, 0.000929, -0.026065], [-0.670972, -0.003435, -0.035182, 0.328944, -0.001599], [-0.004478, 0.436565, -0.549214, -0.114613, -1.60601], [-0.038305, -1.04022, -0.441022, 0.069186, -0.122379], [-0.01101, 0.975297, -0.417488, 0.282709, -0.72655], [0.001135, 0.024649, -0.068829, -1.35747, 0.836513], [-1.02885, 0.022178, -0.001323, -0.005096, -0.126936], [-0.26599, -0.310618, -0.031523, 0.063136, 0.223359], [-0.010155, 1.22174, 0.769491, 0.394843, -0.312782], [0.008603, 0.019546, -0.006734, 0.691859, -0.787064], [0.074299, 0.072053, -0.033998, -0.554855, -1.72414], [0.012716, -0.006252, 1.75622, 0.040337, -0.024547], [-1.58782, -0.030955, 0.070613, 0.006604, -0.070021], [-1.71328, 0.006459, -0.002267, -0.331592, -0.225972], [-0.314796, 0.545465, -0.059196, 0.086613, -0.011358], [0.001018, -0.869717, 0.827865, 0.308639, -0.949028], [-0.798248, -0.187237, 0.171357, 0.064422, 0.110944], [-0.077069, 0.256999, -0.391014, -0.689525, -1.17568], [0.002451, 0.267029, -0.276599, -1.65386, -0.560233], [0.117396, 1.19861, -1.05315, -0.040693, 0.066634], [-0.051564, 0.191389, 0.97396, 0.11993, -0.043091], [-1.82405, 0.009374, -0.006226, -0.011447, -0.195155], [-0.33522, 1.39049, -1.51916, 0.066038, -0.21147], [-0.056072, 0.522486, -1.48803, 0.483245, -1.35786], [-2.02372, 0.073257, -0.115669, -0.012842, 0.006037], [0.010007, 0.735572, -0.837463, 0.035861, -0.27643], [-0.185979, 1.31165, -0.398691, -0.280865, 0.059791], [0.026644, -0.26193, -0.584518, -0.360067, 0.336245], [-0.072279, 0.048596, -1.08391, 0.198335, 0.006809], [-0.401388, -1.07226, 1.20368, -0.051988, -0.401089], [-0.009159, 0.012526, -0.024784, -0.553244, -0.706304], [0.055691, 1.25769, -1.23158, 0.076016, 0.056118], [-0.02108, 0.316848, -0.601792, -0.275798, 0.134227], [-0.006209, -0.071323, 0.115324, -1.58311, -0.569723]], [[0.109954, -0.220712, 0.820342, -1.64149, -0.002732, 1.12845, -1.64301, 0.128164, 0.291186, 0.002171, 0.856528, -0.072352, -0.280303, -1.41776, -4.31384, -0.148348, 0.157232, 0.054158, 0.017861, -0.422829, 0.47015, 1.20963, 0.234638, -0.536328, 0.264196, 0.180363, -0.011448, -0.650892, 0.021578, -0.039274, -0.251773, -0.668688, -0.204415, -0.02193, -0.042222, -0.449444, -0.09094, -0.562288, -0.21178, 1.09057, 0.527711, -0.05871, -0.370647, 0.649356, 0.239996, 0.378344, -0.180705, -0.211996, -1.70812, -0.03041], [-2.01817, 0.329284, -1.24657, 0.525877, 1.37986, 0.7161, -0.049001, 1.26215, 0.438875, -0.025844, -0.376631, -0.586549, -0.190664, 0.529715, -0.124768, -0.160666, -0.124817, 0.23692, 1.96366, -0.299606, 0.854847, -0.104593, 0.225806, -0.003806, -0.686885, 0.259001, -1.2988, 0.665299, 0.108591, 0.425545, -0.573177, 0.409192, -0.006114, 0.436865, 0.774319, -1.42168, 0.123117, 0.309196, -1.91211, -0.227191, -0.415549, 2.66079, 1.23451, -0.349203, -2.33695, 0.583188, -0.779664, -0.045008, -1.37499, -0.888868], [-3.16102, -0.771546, -2.44458, 0.624081, -1.47595, -1.04537, 0.117337, -0.105343, 0.155041, 0.140681, -1.10884, 0.39789, 0.713708, -0.900157, 0.068705, -0.423681, 0.623591, -0.649012, -0.269751, 0.453882, 0.000717, -0.806654, -0.062817, 0.626309, 0.293495, -0.545681, -2.48865, -0.871519, -0.400619, -0.206271, -0.410617, 0.634183, 0.22175, 0.387244, -0.278886, -0.34233, 0.007797, -0.048366, 0.170209, 1.35693, 1.07011, 0.022902, -0.065886, 0.611639, -2.07523, -0.100167, -0.226874, -0.133173, 0.671113, 0.786037], [-0.022782, -0.073847, -0.929041, 0.104813, -2.57127, -1.16308, 1.35758, -0.414552, 0.908025, 0.073036, -0.001148, -0.621964, 0.012045, -1.13929, 0.452251, 1.0611, 0.016511, 0.204959, -1.22618, -0.114835, -0.064246, -0.553868, -0.391192, 0.67027, -0.07327, 0.799857, -3.36042, -0.200338, 0.232211, 0.246511, -0.051705, 0.563213, 0.05331, 0.135561, 1.05981, 0.082529, 0.844359, -0.533964, 0.799166, 1.52697, -0.017382, -1.36026, 1.11616, 0.169442, 1.20717, 0.131234, -1.03606, -1.30597, 0.554247, 0.013733], [-2.10512, 0.024905, 1.45536, -0.091954, 0.020404, -0.880761, 0.80901, -1.31717, -0.63448, 0.188154, 0.604722, 0.388522, -0.111044, -0.374516, 0.280798, 0.255516, -0.385091, -0.300683, -0.283084, 0.882547, 0.304778, -0.068099, 0.365001, 0.313871, 0.162929, 0.008821, 1.0554, -0.187296, 0.368972, 0.175906, 0.922027, -0.796947, -0.115714, 0.735569, -0.252589, 1.02244, 0.665744, -0.156856, -1.44524, 2.71107, -0.411704, -1.69975, -0.446466, 0.502675, 0.269948, -1.0963, 0.127114, -0.732528, 0.014179, 0.739846], [0.340462, 0.519795, 0.182602, 0.654928, 0.921686, -0.20256, 0.170911, -0.551191, -0.001573, 0.137994, 0.290305, 0.006224, -0.033095, 0.321771, -0.112393, 0.413904, -0.242981, -0.147445, 0.20853, 0.149669, -0.001032, -0.563381, 0.340352, 0.311557, 0.326621, 0.033152, 1.36866, -0.530635, 0.345321, -0.442107, 0.619968, -0.767222, 0.353734, 0.087129, -0.586678, -1.20595, -0.163839, -0.075554, -0.277151, 0.005892, -0.955318, -0.026868, 0.332108, -0.143913, -0.302973, 0.169658, 0.227267, 0.176359, -0.508852, -0.464102], [0.222284, 0.434074, -0.231072, -0.492448, 0.981434, -0.224343, 0.135447, -2.72437, 0.385984, -0.005067, 0.314907, 0.59426, 0.019938, 0.172043, 0.181306, -0.618488, 0.685969, -1.30548, 0.198001, -0.017344, 0.259758, -0.592731, -1.37907, -0.820245, 0.207687, 0.738707, -0.025134, 0.538301, 0.091481, 0.487654, -0.058694, -0.38197, 0.273024, -0.221136, 0.195955, -0.468196, -0.189744, -0.820768, -0.029525, -0.184479, 0.265676, 0.009539, 0.145033, -1.31585, 0.286926, -0.514525, -0.095, 0.342763, 0.201073, -0.099489], [0.109508, -0.346354, -0.358467, 0.520498, 1.27442, -0.082176, -1.44495, -0.372008, 0.068447, 0.115282, -0.206431, 1.12542, 0.28027, 0.013794, 0.478356, 0.367577, -0.221023, 0.227719, 0.936878, -0.250098, 0.198334, -1.3399, 0.043603, 0.990771, -0.380854, 0.744033, -0.253314, 0.596869, 0.171411, 0.321869, -0.244219, 0.081864, -0.080327, -1.41361, 0.086898, 0.51974, -0.579336, 0.129649, 0.263411, -0.17481, -0.082923, -0.082469, -1.41367, -0.002327, -0.898472, -0.383435, 0.845034, -0.115437, -1.27774, -0.523655], [0.452322, -0.320285, -1.24346, -0.118475, 0.140596, -0.341252, 0.37641, -0.040716, -0.09007, 0.092034, -0.413022, 0.307001, 0.491755, -0.078577, -0.031051, -0.507593, 0.256181, 0.397013, 0.35579, -0.570211, -0.594433, -0.506225, -0.066563, 0.719997, -0.088675, -0.15911, -2.43992, 1.26114, -0.697759, 1.18952, 0.238945, 0.122633, 0.389612, -0.187992, 0.615343, -0.222681, -0.855251, -0.020239, 0.188947, 0.090205, 0.957315, -0.027107, 1.3902, 0.230105, 0.514418, 0.116845, -0.333964, -0.806592, -0.151934, -0.2471], [0.366663, -0.680439, 2.367, -0.277974, -0.581329, -0.693798, -1.04132, 0.176094, -0.327896, 0.022996, -0.749664, -0.043327, 0.208568, 0.187313, -0.188756, 0.002115, 0.135752, -0.308742, 0.799005, -0.874227, 0.162683, -0.466559, 0.327668, -0.807541, -0.931846, 0.933789, 1.07085, -0.881113, 0.059893, 0.904522, -0.504408, 1.25874, -0.249822, -0.407793, 2.13903, 0.394958, -1.0367, 0.198641, 0.679123, 0.344773, -0.07891, 0.401603, 0.12751, 0.195828, 0.441289, 0.661426, 0.025715, 2.03111, 0.381302, -2.44627], [0.821233, -1.85173, 1.00658, 0.998031, 0.129255, -0.54907, -0.001962, 0.023457, -0.299582, 0.166719, 0.607529, -0.591195, 0.460362, 1.20505, -0.505402, 0.74893, 0.299522, -0.071816, 0.100302, 0.58503, -0.071625, -1.32342, -0.159456, 0.165592, -0.209217, 0.846381, 0.406394, 0.124326, 0.212322, 0.30653, 0.315072, -0.324959, 0.16965, 0.528991, -0.078485, 0.110515, 0.291323, -0.22238, -0.890945, -0.23118, 0.056347, -0.425481, 0.554786, -0.35885, 0.885531, -0.165067, -0.710992, -0.601147, 0.09452, 0.327654], [0.007249, 0.026664, -0.020989, -0.037285, 0.046275, 0.030075, -0.006807, 0.025598, -0.050549, -0.044025, -0.019175, -0.057717, 0.006272, -0.004145, 0.004306, 0.003293, -0.066378, 0.031973, -0.018983, 0.026042, -0.007907, 0.045557, -0.015685, -0.035481, -0.047393, -0.052398, -0.016733, 0.012224, -0.040816, -0.034115, 0.01518, -0.057785, 0.017766, -0.000506, 0.034157, -0.026873, -0.045255, -0.06124, -0.023633, -0.013892, -0.011292, 0.00791, -0.020218, -0.020992, -0.031801, -0.045791, -0.003967, 0.035952, 0.022697, -0.020372], [-0.60936, -1.35152, 1.62384, -0.478556, 0.516942, -0.482325, 0.725535, -0.466131, -0.274934, 0.110332, 0.473878, 0.08001, 0.17288, 0.5849, -1.57358, 0.641726, 0.197452, -0.179193, 0.422125, 0.055683, -0.062771, 0.035575, -0.476823, 0.094659, -0.105662, 0.282142, -0.678344, -0.665148, -0.091367, 1.05918, -0.30969, -1.0544, 0.276734, 1.22191, -0.013473, 0.11507, 0.545405, 0.169379, -0.190023, 0.878045, 0.161254, -0.303477, 0.075785, -0.129534, -1.65902, -0.076993, 0.406096, -0.766228, -0.485536, 0.726617], [0.175336, 0.072609, 0.730906, -0.210904, 1.60253, 0.136053, -1.63831, -0.127287, 0.576825, 0.056519, 0.346691, 0.606745, -0.162941, 0.64534, 0.139002, -0.360056, -0.072079, -0.106677, -0.980173, 0.641073, -0.294267, -1.58741, 0.583614, -0.224466, -1.94477, 0.115532, -0.845729, 0.524438, 0.34733, 0.303706, -0.404371, 0.236302, -0.087963, 0.453233, -0.487049, 0.121575, -0.237403, 0.209028, 0.87636, -0.68447, -0.312997, 0.746214, -0.857653, 0.802195, -0.708869, 0.168801, 0.65876, -1.90674, 0.304999, 0.685301], [0.578502, 0.088207, 1.76552, 0.31911, 1.01079, -0.12085, 0.701044, -0.80424, -0.114666, -0.048585, -0.314231, -0.314469, -0.770658, 0.14293, -0.021792, 0.010971, 0.130244, 0.299952, -0.311545, 0.365674, -0.42288, -0.319799, 0.680119, 0.506095, -0.035096, 0.151939, -1.72512, -0.993581, 0.083356, 0.66483, -0.627641, -0.367177, -0.345753, 0.586281, -0.755898, -0.145323, -1.1873, -0.192054, -0.591269, 0.42153, -0.02931, -1.29808, 1.01659, 2.4e-05, 0.09819, -0.713728, -0.394213, -1.63542, -0.482869, 0.411573], [0.020871, -0.050231, -0.03901, 0.028351, 0.026298, -0.023603, -0.004934, -0.049853, -0.004807, 0.009359, -0.011989, 0.006743, 0.013539, -0.013174, 0.023632, -0.051146, -0.038476, 0.032341, 0.020576, -0.001817, 0.008677, -0.039405, -0.035475, -0.012382, 0.010956, 0.00678, -0.011819, -0.040128, -0.001861, -0.026866, -0.025078, -0.053798, 0.031228, -0.02418, 0.005288, -0.018098, -0.024404, 0.032646, 0.031346, 0.035332, 0.028646, -0.055028, 0.030025, 0.038334, -0.015421, -0.038052, -0.029062, 0.020448, -0.054872, 0.018541], [-0.230195, 4.36646, -0.167845, -0.035262, 0.443144, 0.091542, 0.059345, -0.210318, 0.05945, 0.07188, 0.036824, -0.178894, 0.189418, -0.264118, -0.070174, 2.86943, 1.03388, 0.141936, 0.201838, -0.157026, -0.076304, 0.009308, 0.196296, -0.073608, -0.072301, -0.089323, -0.164354, 0.136801, 0.587634, -2.13635, 0.305268, 0.071794, -0.234452, -0.174823, 0.09128, -0.23829, -0.161165, 0.962716, 0.155872, -0.11663, 2.55817, 0.319858, -0.004673, 0.082657, 0.118399, 0.149035, -0.23475, -0.082932, 0.083554, 0.220418], [0.002502, 0.356527, 0.296601, -0.027282, 0.203432, 0.647482, 0.177941, 0.311995, -0.630805, 0.018852, -3.70549, 0.818288, 0.14357, 0.045536, -0.59245, 0.247368, -0.285375, -0.323593, -0.139609, 0.043437, 0.254839, 0.377411, 0.18418, 0.386579, 0.048884, -1.77091, -0.844337, -1.97749, -0.054168, 0.743751, -0.454974, 0.065281, -0.05351, 0.85289, -0.352151, 0.197064, 0.632349, -0.215156, -0.350604, -0.669171, 0.031566, 0.087263, 0.247148, -0.178357, -0.389731, -0.106383, 0.4719, -1.06783, -0.039958, 0.588537], [0.33786, 0.224385, 2.08329, 0.247217, -0.30342, 0.724937, 0.22679, -1.03243, -0.716998, 0.041469, 0.606854, -0.929819, 0.138124, 0.54669, 0.076687, -0.176488, -0.111824, 0.326332, -0.308023, 0.663619, -1.53225, -0.120317, -0.114625, -0.349661, 0.17473, 0.197378, -0.393592, -0.18826, -0.400759, 0.436717, -0.149375, 0.016249, 0.023556, 0.541069, -0.705181, 0.024779, -1.94386, 0.181773, -1.09572, -0.155427, 0.028325, -0.604656, 0.670626, 0.698448, 0.282131, -0.737806, 0.398212, -1.6681, -0.32786, 0.126972], [0.078065, 0.180219, 0.428673, 2.52529, -0.442566, 0.612815, 1.09514, 0.066791, -0.40906, 0.127647, -0.618385, 0.058462, -0.04778, -0.188204, -0.053871, -0.031173, 0.062146, -0.099579, -0.474129, -0.36351, 0.831454, -5.7549, -0.000832, 0.854026, -0.003061, -0.048738, -2.90191, 0.123044, 0.116522, 0.184487, -0.049378, 0.100722, -0.098909, 0.022664, -0.223354, 0.078879, 0.105399, -0.01373, -0.682585, 1.17829, -0.205751, 0.542458, 0.655597, -0.203167, -1.07964, -0.377952, -1.27427, 0.154817, -0.668112, 0.91713], [-1.08365, -0.317771, 0.105541, 1.55661, -0.404897, 0.700459, 0.139311, -0.294684, -0.031983, 0.222522, 0.909383, -0.660878, -0.017204, -0.246156, -0.460685, 0.156697, -0.049428, -0.063903, 1.62239, 0.976867, 0.420118, -1.1885, 0.229241, -0.93717, -0.249984, 0.054717, 2.25208, -0.069377, -0.140116, 0.274893, 0.084475, 0.246846, -0.11353, -0.157283, 0.267041, 0.075581, 0.986903, 0.153251, -0.004985, 1.25105, -0.023859, -1.0598, 0.847481, 0.045858, 0.262315, -0.031572, 0.426807, 0.148911, -1.09472, 0.590991], [0.158166, 0.860003, 0.805344, -2.67574, -1.45526, -0.440712, -0.043582, -0.079134, -0.618591, 0.155752, 0.285213, -0.687474, -0.401986, 0.583845, 0.568893, 0.008496, 0.158281, 0.240494, -0.817643, 0.811715, -0.969835, 1.01076, 0.289778, 0.229696, 0.07989, 0.469047, 0.163404, -0.545081, 0.358274, -0.617182, 0.351566, 0.467062, -0.677749, 0.548673, 0.071438, 0.339079, 0.568772, -0.417787, -0.225545, 0.463703, -0.382331, 0.152372, 0.345277, -0.55197, -0.802671, -0.434633, 0.274776, 0.163896, 0.366128, 1.05179], [-0.321931, -0.213161, -3.91991, 0.403453, -0.174702, -0.124079, -0.551022, -0.174239, -0.803132, 0.212975, -0.754558, 0.112115, 0.915519, 0.669941, 0.189437, 0.273085, 0.214853, -0.203875, -0.094895, 0.89699, 0.085242, -1.36135, -0.698144, 0.073588, 0.521222, 0.246063, -1.32549, -3.32363, -0.527333, -0.113434, -0.178527, 0.515793, 0.245581, 1.00619, 0.164119, 0.559206, -0.05621, 0.217154, -0.097055, 0.224411, 0.569604, -0.376967, 0.231104, 0.660435, -2.31368, -0.148497, -0.337122, 0.38025, 0.134912, 0.06545], [0.410383, -0.415075, 0.012475, -4.87274, -0.023292, 1.32497, 0.617507, 0.515847, 1.38358, -0.049614, -0.591057, -0.001634, 0.256171, -0.31719, 1.72972, -0.051942, -0.085009, 0.116985, -0.487666, -0.628354, 1.0304, 0.092083, -0.329674, 1.50078, -0.29021, -0.5673, -0.383813, 1.0303, -0.113866, 0.00295, -0.22314, -1.27164, 0.32307, -0.282594, 0.044958, -0.034074, -0.285099, 0.145813, -0.346518, -1.21726, 0.100738, 0.579447, -0.045621, 1.48371, 0.050002, -0.611202, -1.79739, -1.38732, -0.006776, -0.036278], [-0.796461, 1.81474, 0.289888, 0.659738, -1.01136, -0.221443, 0.955976, -1.44107, -0.767742, -0.002406, -7.19481, -0.428988, -0.27311, -0.546627, -0.953367, -0.596718, 0.25143, -0.817864, 0.098703, -0.256125, -0.662291, -0.504559, 0.426319, -0.064389, 0.97773, -3.91588, -2.07076, -1.95454, 0.005434, 0.656486, -0.150015, -0.771899, -0.336073, 0.174691, -1.08154, 0.300338, 1.19581, -0.701676, -0.895406, 0.695862, 0.185228, -1.22763, 0.121628, 0.324233, -1.29003, -0.928563, 0.46517, -3.25826, 0.565437, 2.49398], [-1.39073, 0.035119, -3.24844, 0.234354, 0.724796, 0.037327, 0.658359, 0.366159, 0.01359, 0.136692, -0.474306, 0.030108, 0.01622, -0.272352, -0.393781, 0.084245, 0.231468, 0.182327, -0.580512, -0.409932, -0.183496, -0.792551, 0.561095, 0.535518, -0.165516, -0.013664, -5.25227, -2.80027, -0.107147, -0.129023, 0.284209, 0.065361, 0.194795, 1.01077, -0.31612, 0.204561, 0.750505, 0.121906, -0.033345, -0.306551, 0.127818, 0.428913, 0.533607, -0.929769, -0.587056, -0.270561, -0.88765, -0.809468, -0.088972, 0.222829], [0.226504, -0.197747, -0.300211, 0.551088, -0.03986, -1.24341, 1.35586, 0.082332, 0.094073, 0.030436, -5.21066, -0.129701, -0.053825, 0.102306, -2.17148, 0.161509, 0.086432, -0.217995, 0.016118, -0.229938, -0.137618, -0.358905, 0.119017, 0.110919, 0.130357, 0.92989, 0.022717, 0.033752, -0.277711, -0.004828, 0.246044, -0.09215, 0.020958, -0.015594, -0.014752, -0.245343, 0.14673, 0.358254, 0.066807, 0.371015, -0.094905, 0.145139, -0.185262, 0.02327, -0.134134, -0.117991, -0.406067, -0.326108, 0.235605, -0.019849], [-0.164821, -0.488757, -0.703949, -0.822018, 1.62438, -0.59133, 0.826882, -0.121365, -0.097019, 0.234644, -0.533437, -0.030366, -0.531365, 0.002352, 0.617178, 0.2397, 0.24211, -0.305492, -0.762459, 0.003251, -0.111425, -0.728988, 0.629194, -0.104866, 0.043842, -0.396091, 2.11086, 0.027067, -0.043116, -0.781905, -0.360988, -0.151926, -0.255399, 0.469389, 1.50394, -0.37539, -0.056997, 0.166337, 0.146535, 0.187034, 0.100243, 0.423621, -0.155129, -0.02059, 0.140211, -0.063748, 1.54808, 0.152317, -0.078902, 0.211744], [-0.429772, -0.334151, 0.902413, 0.1719, -0.342884, -1.0832, 1.40633, -0.050615, 0.397956, 0.258514, 0.771686, -0.144133, -0.060268, 0.624588, -0.608096, -0.127175, 0.417415, 0.697247, 0.68668, 0.434768, -0.364829, 0.399882, 0.179574, 0.421264, 0.094011, -0.607884, -2.07819, -0.668011, -0.314842, -2.18664, 0.865384, -1.5093, -0.332356, 1.19464, -1.34757, -0.311811, -0.718399, -0.876107, 0.325555, -0.494782, 0.583052, 0.274519, -0.265743, -0.503804, 0.003238, -0.406222, 0.309961, -0.531905, -0.737149, 2.63788], [0.44926, -0.160933, -0.04164, -0.453321, 0.937359, 0.380124, 0.477318, -1.1774, -0.670441, 0.095413, -0.523289, -0.81233, 0.255788, 0.053576, -0.604245, -0.065232, -0.134352, 0.218879, 0.288259, -0.56435, 0.193378, 0.094703, 0.216738, 0.075705, -0.211743, 0.102604, -0.433398, 0.92091, 0.442229, 0.716703, 0.460802, 0.338552, -0.038276, 0.550019, -0.557862, -0.199245, -0.827601, 0.368856, 0.000761, -0.359504, -0.464226, 0.422166, -0.936473, -0.299569, 0.03736, -0.117295, 0.036108, -0.040175, -0.385162, -0.262217], [0.038336, -0.012166, 0.017016, -0.009499, 0.013811, 0.036323, -0.042367, -0.043597, 0.018814, 0.036721, -0.036206, -0.013636, -0.020669, -0.00439, -0.003169, -0.051666, -0.035037, -0.033998, 0.024641, -0.008931, -0.028364, -0.039095, -0.047656, -0.025573, -0.012752, -0.008641, -0.004837, -0.047601, -0.025583, 0.007962, -0.029201, 0.021729, -0.039996, -0.044723, 0.009676, -0.017792, -0.013849, -0.012212, -0.047707, 0.00075, 0.040819, -0.011605, -0.015724, 0.012754, 0.010694, -0.017634, -0.037378, 0.045674, -0.038405, 0.029406], [-1.042, -0.310615, 0.037756, 0.432454, 0.000856, 0.257506, 0.253305, 0.485138, 0.409058, 0.157339, 0.165923, -0.420069, 0.220891, 1.14283, -0.934508, 0.804797, -0.357606, -0.364176, -0.101458, -0.518394, 1.45186, -0.025862, 0.150804, 0.396322, -0.910016, 0.52464, 3.44136, -0.217424, 0.434617, 0.927518, -0.496412, -0.497992, 0.043101, -0.60845, 0.757738, -1.47652, 1.03855, -0.051992, -0.602785, 1.58013, -0.168176, 0.736586, -0.64663, -0.598183, 0.002497, 0.153261, -0.005021, 1.31006, -1.06209, -0.414177], [0.197335, 0.425189, -0.046489, -0.192915, 3.44613, -0.494781, -0.005613, 0.249985, 0.57857, 0.150567, 0.182396, -0.054611, 0.374804, 0.652268, 0.63128, 1.33561, 0.068123, 1.53985, -0.235771, 0.302658, -0.336651, 1.08688, 0.038883, 0.152509, 0.036887, -0.193189, -0.763143, 0.360599, 0.481243, 2.95134, 0.569098, -0.427716, 0.938728, 0.963131, -0.884825, 0.060097, 0.13021, -0.671939, -0.414307, -0.210143, 0.862113, 0.218535, -0.807633, -0.542672, -0.035677, -0.376354, 0.604206, 0.456106, -0.461755, -0.672599], [0.268048, 0.063161, -0.922949, -0.254447, -1.50626, -0.480371, -0.00032, 0.590184, 0.689273, 0.073103, -0.70309, -0.419913, 0.34413, 0.328091, -1.31195, 0.44503, -0.006274, -1.5526, 1.04026, -0.304218, 0.499762, -0.680071, -0.097699, -0.744775, -0.046405, 0.593623, -1.19177, 0.417483, -0.004677, -1.5853, -0.549991, 0.517003, 0.40841, -2.15288, 0.871996, 0.061539, -0.070734, 0.548784, -0.125952, -0.419137, -0.090037, 0.46132, 0.988205, 0.249624, 0.286024, -0.14038, 0.207125, -2.01077, -0.03719, -0.674731], [0.288956, 0.298548, -0.996566, 0.033417, -1.62254, 0.472869, 1.11783, 0.422764, 1.91871, 0.053039, -0.735338, -0.558298, -0.422879, 0.693573, -0.45861, 0.375217, 0.389244, 0.106043, -0.666792, 0.323767, 3.09082, -5.119, -0.04118, 0.14665, -1.06141, 0.257456, 0.96721, -0.284129, -0.242951, -0.863521, -0.145626, 0.129227, 0.134682, -0.642647, 1.06509, -0.498361, -0.560376, -0.755595, 0.154829, -1.22389, 0.00536, -0.659907, 0.076057, 0.084511, 0.455575, 0.099725, -0.44754, -2.90676, 0.318556, -0.289225], [-0.380643, -0.81409, -0.20233, -0.242665, -0.096078, -0.516335, -0.317049, 0.763812, 0.254549, -0.173698, -0.626816, -0.129497, -0.020523, 0.683371, -0.229161, 0.616261, -0.194993, -0.411113, -0.109016, -0.00339, 0.37114, -0.431168, 0.223095, 0.887554, 0.119561, 0.365523, -0.045747, 0.73863, -0.121417, 0.67307, 0.625193, -0.337958, 0.011871, -0.730803, 1.36691, 0.442274, -0.46341, 0.190968, -0.427752, -0.194951, 0.113707, -0.185522, -0.702548, 0.024902, -0.191438, -0.073778, 0.243934, 2.59646, 0.173865, -0.443982], [0.220632, 0.078513, -0.358676, 0.019532, -1.55952, 0.450719, 0.172672, 0.908755, 0.182318, 0.145007, 0.207197, 0.352607, 0.055357, -0.383705, -0.811058, 0.532447, -0.435445, 0.270115, 0.052772, 0.453587, 0.983324, 0.435155, -0.339677, -0.230893, 0.674935, 0.116119, 2.22161, -0.474553, 0.116336, 0.24288, 0.106331, 0.395974, -0.106282, 1.76856, -0.533069, 0.075964, -0.001538, 0.193725, 0.245007, 0.509712, -0.217084, 1.16288, -1.07254, -0.956434, -0.787061, 0.646493, 0.06654, -2.55382, -1.19519, -0.161886], [0.02296, -0.042979, 0.006034, -0.04501, 0.009571, 0.013863, 0.037852, 0.004537, 0.028336, 0.022421, -0.019071, -0.052692, 0.020912, -0.051811, -0.045435, 0.002498, -0.023128, -0.037522, 0.003175, -0.028745, -0.010693, 0.025606, 0.031591, 0.003371, -0.008487, 0.035059, -0.011764, -0.01648, -0.023741, -0.043265, 0.030596, -0.001845, 0.018495, -0.028448, -0.030785, -0.001787, -0.028821, -0.052392, -0.041014, -0.009116, -0.044691, 0.008229, -0.020781, -0.000574, -0.005157, 0.006645, 0.003936, -0.03343, 0.007935, -0.001947], [-0.174363, 0.579902, 1.79946, -0.362811, 2.93218, -0.823763, -0.19699, 1.24468, 0.618723, 0.247523, 0.015167, 0.59915, 0.121503, -1.1613, 0.213327, -1.22791, 0.444495, -1.37149, 0.566955, 0.761017, 1.44761, 0.653224, 0.014896, -0.403447, 0.513361, -0.267303, 0.378664, -0.492422, -0.144293, 1.15434, 0.899556, 0.772634, 0.965597, -0.855562, 2.51351, 0.13152, -0.31917, 0.488822, -0.506646, 1.2309, 0.022584, -0.23468, 0.154959, -0.335245, 1.53614, 0.077816, -0.080988, -0.322888, 0.478262, -0.894002], [0.226487, -0.318874, 2.91097, 0.519485, -0.883419, -0.159563, -0.297582, -0.477094, 0.160681, -0.036613, -0.211732, 0.160315, -0.291481, 0.566919, -0.400517, 0.04248, 0.238456, 0.083721, -1.18427, -0.023241, -0.601031, -0.476376, 0.386141, 0.062326, -0.629938, 0.174278, -1.41008, -1.21178, -0.123024, 1.08262, 0.510523, 0.2009, 0.148853, 0.454259, 0.376072, 0.505085, -0.666943, -0.10146, 0.304155, 0.206487, 0.160305, -0.553413, -0.335965, -0.18945, -0.072695, -0.834264, 0.475189, -1.78618, 0.368063, -0.36364], [-0.063456, 0.454598, -0.144072, 0.980165, 3.26627, -0.725114, 1.21861, 0.198554, -0.113575, 0.175901, -0.256162, 0.123162, 0.366414, 0.391661, -0.298684, 1.6097, 0.444422, -0.690535, -0.146412, 1.32436, 0.51303, -0.836841, -0.027442, -0.539952, -0.0217, -0.295848, -0.041311, 0.29199, 0.192454, 6.68978, -0.198258, -0.314298, -0.036681, -0.186471, -0.124048, -0.19141, -0.189112, 1.48367, -0.338904, -0.002312, 1.19022, 0.600448, -0.431096, -0.120223, 0.073768, 0.121793, -0.857538, 0.43948, 0.05034, 0.277064], [0.786996, -0.004446, 0.45171, -0.114034, -1.87943, 0.864685, 0.843931, 0.335035, 0.897861, 0.00196, -0.657309, 0.098158, 0.251773, 0.709267, -0.115253, -0.679228, -0.018967, 0.019156, -1.1355, 0.859777, -0.425748, -0.197196, -0.192332, 0.274572, 0.018261, -1.35044, -2.65161, -0.114092, 0.424594, 3.476, 0.275313, 0.699068, 0.328137, 0.661186, 1.21075, -0.646346, -1.19612, 0.058194, -0.109985, -0.515048, -0.13785, 0.596111, -1.56908, 0.426268, -0.210883, -0.574403, -0.635063, 0.168077, -1.0214, -1.02954], [-0.026457, 0.29044, -2.1088, -0.147146, 0.640572, -0.304948, -0.417156, 1.08376, 0.723459, -0.10935, -0.555747, 0.011522, -0.069108, 0.085381, 0.205723, 0.067837, -0.216882, -0.349993, 0.749498, -0.720743, 0.176451, -0.106975, -0.123233, -0.168874, 0.273487, 0.371933, 1.47317, 0.500716, -0.142518, -0.262904, 0.11598, 0.855758, -0.336107, -1.5, 2.45595, 0.595293, 0.128265, 0.480629, -0.01316, -0.437023, -0.242611, -0.08474, 0.381461, -0.055468, 0.340309, -0.083235, 0.837444, 3.38157, -0.277063, -0.911199], [-0.442075, 0.518888, 1.40485, 0.787123, 1.93967, 0.159899, 0.466449, -0.207318, 0.333669, 0.248496, -0.410785, -0.231725, 0.310731, 0.646432, 0.527055, 0.105904, 0.266623, -0.902416, 0.01654, 0.307211, -0.078246, -1.66659, 0.232853, -0.926751, 0.016721, -0.035552, -1.46108, -0.012698, 0.121736, 0.271688, -0.04674, 0.171597, -0.472056, -0.003887, 0.218528, -0.387682, -0.101838, -0.475643, -0.12706, 0.458683, 0.378616, 0.648198, 0.257939, -0.110296, 0.157509, 0.051089, 0.439966, -0.662645, -0.128951, 0.150663], [0.470264, -0.212547, -1.2243, 2.06747, 1.15672, 1.46581, 1.28534, -1.09711, -1.01832, 0.017445, -0.897117, 1.27417, 0.219725, -0.903168, -1.45632, 0.369767, 0.244719, -0.265048, -2.34308, -1.27554, -0.191416, -4.77204, 0.177643, -0.641004, -0.044294, -0.765171, 2.17574, -0.639289, 0.170293, 1.19186, 0.129111, 2.69554, -0.614312, -0.284198, 0.790322, -0.233794, 0.806124, 0.095286, -0.6068, -0.330344, -0.800072, 0.367027, -0.083426, 0.611084, 0.904567, -0.751465, -0.700831, 0.270048, -0.310367, -0.747661], [-0.254268, -0.474431, -0.694643, -0.25035, 1.41619, 0.163882, -0.840036, -0.56434, -0.693212, 0.126958, 0.104387, -0.493036, 0.004949, 0.067835, 0.341701, -0.465276, 0.245532, 0.828542, -0.029405, 0.426989, 0.665185, 0.814932, 0.011466, -0.111456, 0.36932, -0.630802, -1.33787, -0.111824, 0.097555, 0.406381, 1.09862, 0.078609, -0.267314, -1.10545, 1.80136, -0.184302, 0.320209, -0.173606, 1.07845, -0.577934, -0.248124, -0.074607, 0.05602, 0.177013, 0.305782, 0.466491, 0.505366, -0.648254, 0.24635, 0.001096], [-0.395674, 0.955071, -0.520329, -0.510237, -1.85663, -0.133744, 0.59441, -0.224516, -0.348189, 0.047008, 0.173174, -0.137484, 0.725282, -0.437139, -0.098306, 1.81127, 1.8349, -0.412647, 0.530843, -0.188629, 0.21479, 0.475489, 1.34455, 0.899235, 0.201367, -0.148009, -0.135727, -0.084973, 1.28981, 0.621361, 0.690544, 0.309662, 0.570714, -1.16308, 1.26028, 0.036341, 0.042836, 1.18566, 0.870556, -0.139612, 1.61083, -0.015522, 0.893243, 0.306855, 0.415964, 0.348187, -0.157277, -0.815767, 0.069299, -0.318715], [0.094977, 0.784047, -1.02259, -0.096515, 0.506182, 0.072333, 0.221443, 0.339373, 0.057044, 0.23811, -0.609277, 0.140491, -0.344864, -0.71361, 0.114397, -0.204706, 0.229793, -1.12326, 1.51111, -0.100281, -0.500426, 0.007098, 0.323927, 0.123278, 0.250789, -2.80114, 0.240618, -0.108176, 0.09185, -0.32452, 0.364502, 0.35466, -0.254047, 2.48294, -2.18806, -0.239629, 0.268207, -0.409512, -0.340614, 0.407975, -0.178667, 0.088732, -0.840822, -0.157381, 0.386653, 0.087487, 0.1176, -0.346054, -0.473466, 1.69104], [-0.215044, -0.762463, -0.647373, 0.268757, 1.95066, 0.340147, -0.417744, -0.687626, 0.298951, 0.188964, -0.244127, -0.30069, 0.272374, 0.054991, 0.335359, -0.652599, 0.341453, 0.299022, -0.629118, -0.618375, 0.516858, -0.524445, -0.011289, 1.35164, 0.118322, -0.56867, -0.481346, -0.514686, 0.473402, 1.82676, 0.072364, 0.874806, -0.095909, 0.959444, -0.824687, -0.32771, -0.420243, 0.722682, 0.182604, 0.677029, 1.2234, -0.187194, -0.445657, 0.58703, 0.361103, 0.581429, 0.189396, -0.387395, 0.081669, 0.44064], [-0.071069, 4.95785, -0.002636, -0.145396, 0.513471, 0.057547, -0.351052, -0.054642, -0.015857, 0.048019, -0.067913, 0.051457, 0.286237, 0.194705, 0.238531, 2.86623, 0.875487, 0.21511, -0.00585, 0.003362, -0.000886, 0.141118, -0.103687, 0.099255, 0.019876, -0.113631, -0.196724, 0.024018, 0.644119, 0.583399, 0.11834, 0.086753, 0.286229, 0.203868, -0.046202, -0.026231, 0.091563, 0.641393, -0.053775, -0.01832, 2.37579, 0.138084, 0.07475, -0.022249, -0.071536, 0.074912, 0.160063, 0.09902, -0.026547, 0.171427]], [[-0.38577, -0.121951, 1.07133, -0.177492, 0.331354, 0.820553, 0.284974, -0.774203, 0.231504, 0.0156, -0.032559, 0.030694, -0.090768, -0.431465, 0.291176, -0.015453, 0.153387, 0.580129, 0.550305, 0.305872, -1.40312, 0.480194, 1.46199, -0.305786, -0.021703, 0.139473, -0.437796, -0.482429, 0.459321, -1.0429, -0.027529, 1.03457, 0.482928, -0.146013, -0.46972, -1.03484, -2.18839, 0.047128, 0.643921, 0.894923, 0.038186, -0.114631, -0.001958, 0.062312, 0.616625, 1.7068, -0.200484, 1.22085, -0.167206, -0.257601], [-0.474382, -0.913191, 0.59749, 1.14885, -0.49875, 1.32425, -0.394981, -0.000895, 0.241822, 0.259557, 0.204363, 0.002047, -0.174439, -0.40455, -0.033606, -0.008393, 0.498388, 1.998, -0.327558, 0.910219, 1.00033, 1.00449, 1.16324, 0.275368, 0.296324, -0.035951, -1.11772, 0.140981, 0.023263, 1.19591, 0.01532, 0.502028, 0.48525, 0.502737, 0.033394, -0.297294, -0.068846, -0.022988, 0.286521, 0.395855, -0.274581, 0.395241, -0.291073, -0.075567, -0.036348, -0.065144, 0.044681, 1.5087, -0.786133, -0.561264], [-0.542679, 0.342257, -0.099842, 0.018059, -0.118813, 0.490423, 0.403689, 0.041299, 1.0261, -0.273513, 0.128038, -0.009091, -0.477797, 0.529994, 0.227407, 0.046181, -0.489646, -1.15013, -0.188675, 0.013822, 0.353177, -0.553891, -0.912707, -0.089655, 0.075307, -0.884576, -0.010086, -0.529932, -0.368616, 0.015015, -0.044009, -0.312967, -0.215334, -0.371099, -0.023097, 0.323165, -0.036671, -0.034432, -0.159053, -0.122849, -1.05899, 0.380064, -0.074729, 1.1779, -0.278285, 0.290546, -0.072693, -0.969389, 0.174777, 2.21576], [0.34585, 0.028394, 0.232751, -0.078817, -0.247239, 1.38345, -0.14301, 0.193501, 0.542823, 0.359764, -0.280611, 0.039997, 0.719396, 0.589141, 0.066834, -0.041518, 0.685457, -0.108749, -0.56083, 0.617589, -0.449704, -0.133394, -1.14442, -0.731565, -0.375484, -0.339566, -0.866692, -0.598868, -0.45782, 0.207257, 0.000116, -0.314289, 0.282259, -0.697501, 0.403057, 0.35304, 0.1418, 0.02099, -0.020465, 0.358682, -0.009236, 1.03878, 0.542093, 0.475857, -0.261352, 0.331201, 0.380979, 0.456956, -0.165981, -2.39551], [0.151305, -0.781845, -0.515177, 0.27907, -0.342257, 0.956546, 0.938812, 0.023525, 0.465331, -0.1687, -0.409597, 0.039647, -0.3856, -0.087591, -1.70606, -0.034602, -0.168732, -0.04516, -0.686632, 0.878738, -1.13059, 1.10354, 0.469991, 0.784266, -0.685598, 0.257918, -0.755657, -0.035715, -0.419767, -0.490834, 0.009681, 0.453707, 0.45492, 0.398493, -0.030414, -0.422754, -0.674103, -0.022597, 0.226972, 0.586002, -0.105644, -0.393506, 0.302207, 0.717313, -0.325466, 0.365168, -0.093673, 1.83096, -0.357699, 0.048595], [-0.001873, -0.900855, 0.576429, 0.352799, -0.148759, 1.1074, 0.858068, 0.445631, -0.283121, -0.029296, 0.378396, -0.042951, -0.218913, 0.167055, 0.699024, -0.016847, -0.536027, -0.393309, 0.085051, 0.271565, -0.022437, 0.130468, -2.25541, 0.090384, 1.69019, 0.249544, -0.398324, 0.02518, 0.082802, -1.24104, -0.00271, -0.510188, 0.476158, 0.785852, 0.118061, 0.572192, 0.352825, 0.017997, -1.05046, -0.320985, -0.060111, 0.317004, 0.20867, 0.755005, -0.075602, -0.203261, -0.001039, -1.35926, 0.064884, 0.156407], [0.231398, 1.01881, -0.728758, -0.487242, -0.018069, -0.765974, -0.092484, -0.323226, 0.057645, -0.639471, 0.268445, -0.002546, -0.302338, 0.396882, 2.28957, 0.025385, -0.564904, -0.621417, 0.591931, -0.219615, 0.287979, 0.159899, -0.103207, 0.456931, 0.571266, 0.157474, 1.34076, 0.382998, -0.501747, -1.29727, -0.035286, -0.546905, -0.141376, 0.466556, 0.412207, 0.75559, 0.532231, -0.020705, -0.489925, -1.54989, -0.222093, -0.487082, 0.690394, 0.716778, -0.340895, -0.050187, -0.467245, -0.031365, 0.094133, -2.0698], [-0.335664, -0.516048, -0.240782, 0.150615, -0.278429, 0.769078, 0.412126, -0.252824, 0.365868, 1.03065, 0.401382, -0.016413, 0.296664, 0.053802, 0.012951, -0.029842, 0.179791, 0.049626, -0.614944, 0.014199, -0.944593, -0.677438, 0.004319, -0.003942, -0.032184, -0.140195, 1.52857, 0.756729, -0.070229, -1.02784, 0.049222, 0.124414, -0.465344, 0.336588, 0.070179, -0.193193, 0.26996, -0.034685, 0.457902, -0.198792, 0.260418, -0.917377, -1.07664, -0.526992, 0.20712, 0.389191, 0.06858, 0.746111, 0.017638, 1.58599], [-0.168342, 0.019188, -0.042335, -0.408056, -0.607752, -0.381048, -0.365848, -0.379149, 0.545484, -0.099867, -0.254585, 0.031835, -0.51174, 0.254436, -1.04013, -0.013674, 0.608831, -0.244579, 0.35965, 0.817341, 0.892313, 0.788094, -1.87237, -0.51633, -0.336379, 0.299582, 1.33092, 0.068917, 0.041263, -0.484673, -0.017935, 0.03829, -0.606792, -0.250872, 0.185758, 0.386238, 0.556711, 0.024519, -0.292954, -0.698925, 0.441985, -0.586441, 0.325053, 0.239486, -0.309593, 0.19519, -0.680187, 0.077273, -0.088587, -0.229962], [0.83167, -2.00224, -1.17563, -0.227361, -2.54351, 0.992594, -0.418698, 0.500212, 0.582244, -0.493335, 0.049492, 0.04121, -0.14236, 0.794824, -3.00063, -0.009666, 0.185622, -0.78699, -0.484469, -4.12414, -0.98645, 0.376988, 0.654987, -0.237595, -3.68341, 0.407035, -1.94992, -0.27954, 0.540056, -1.3046, -0.025543, 0.321416, 0.505039, 1.11846, -0.479029, -0.367026, 0.383186, 0.013025, 0.64095, 0.662604, -0.38459, 0.893856, 0.759736, 0.616169, -1.19569, -0.460584, -0.403673, 4.09865, 1.22548, -0.060445], [0.098991, -0.139744, -0.674376, 1.01407, 0.108005, -0.915056, -1.17364, -0.980637, -1.16917, -0.565471, -0.119192, -0.005325, -0.317883, -0.191177, 0.16773, -0.021338, -0.255437, -1.19081, -0.086545, 0.749546, 0.90083, -0.352687, 1.0092, 0.042792, -0.404339, 1.97749, 0.616977, 0.930428, 0.779974, -0.699108, 0.008582, 0.187629, 0.181512, -0.184358, 0.170106, 0.333932, -0.113239, -0.021799, 0.342386, -1.14395, 0.088096, -0.992965, -0.8915, -0.519934, 1.05696, 0.114516, 0.165442, -0.658272, 0.342275, 0.15118], [0.170813, -0.891004, -0.44121, 0.850424, -0.15218, -0.118806, 0.02268, -0.016956, -0.24976, -0.166614, -0.774252, 0.002388, 1.23531, 0.162178, -0.156153, 0.006741, -0.014367, 0.816331, 0.209151, 1.22146, 0.364585, -0.250114, 0.394715, -0.999011, -0.411685, -0.294375, -0.074544, 0.461844, -0.037048, -0.258679, 0.004147, -0.507312, 0.315176, 0.073647, 0.090555, 0.376065, -0.480172, 0.01782, 1.17231, 0.743706, -0.282727, -0.164454, -0.450147, 0.29004, 0.701293, 0.114455, -0.243771, 1.15677, 0.523343, 0.222153], [-0.292215, 0.386164, -0.611289, -0.152231, -0.242772, 0.077849, -0.296624, 0.21486, 0.227598, 0.100999, 0.477022, -0.028639, -0.457921, 0.616372, 0.51431, 0.023256, -0.029884, 1.10873, 0.129163, -0.149477, 0.198961, -0.035857, 0.774071, 0.295321, 0.401032, 0.198452, 0.41239, 0.716733, -0.726751, 0.730759, -0.006803, -0.14523, 0.77671, -0.126208, -0.286997, 0.525263, 0.397981, 0.04745, -0.589588, -0.47656, -0.11428, -0.516105, -0.440461, 0.373204, -0.583126, 0.28209, 0.156506, 1.04485, -0.89728, -0.187455], [1.06929, -0.630122, 0.024317, -0.18183, -0.207294, -0.022082, 0.085531, -0.626435, -0.202994, 0.022083, -1.04102, -0.002272, 0.816612, 0.264025, -0.623581, 0.044267, 0.143213, -0.431036, -0.892813, 0.3403, -1.59197, 0.741372, 0.799129, 1.43422, -1.59646, -0.348888, 0.211406, -5.3891, -0.020327, 0.28935, 0.010467, 0.468748, -0.108964, -0.306124, 0.206784, 0.348695, 0.482891, -0.003175, 0.094724, -2.58648, -1.83146, 0.222325, 0.121432, -2.48964, 1.00776, -0.54882, -0.115535, 2.1252, 0.338335, 0.135797], [-0.924271, 1.07299, 0.209976, -0.243276, -0.149498, -0.008288, 0.446745, 0.096019, 0.000755, 0.094387, 0.000107, -0.042719, 0.022187, -0.817711, -0.087659, 0.007227, 0.328642, 0.275098, -0.850381, -0.944813, 0.210584, -0.884378, 0.99789, 0.771684, 0.389278, -0.188641, -0.560245, 0.152355, -0.223835, -0.232071, 0.042006, 0.190732, 0.613546, -0.447407, -0.144779, -0.02129, 0.776164, 0.021088, 0.071399, 0.935187, -0.887189, 0.106809, 0.216762, -0.138183, -0.183494, 0.10896, -0.489097, 0.597951, -0.242255, -0.290224], [-1.287, -2.06915, -1.37429, 1.48294, -0.216394, -0.012638, -0.706515, 0.548473, -1.12334, -0.778332, -0.272713, -0.021385, 0.073757, -0.254443, 0.735225, -0.010722, -0.601864, 1.05279, -0.052071, -1.04718, 0.761458, -0.196114, 0.65578, 1.24913, -0.672807, 0.502501, 0.649769, 0.113718, 0.370762, -0.491147, -0.03231, -0.186235, -0.624813, 0.166457, 0.079377, 0.209717, 0.106347, -0.017657, -0.139827, 0.80203, 0.290887, -2.20733, -0.35362, 0.526529, 0.282245, 0.338368, -0.743671, -0.281175, 0.069409, -0.078451], [0.197907, -0.641645, -0.421378, -0.030636, -0.017337, 0.35198, 0.119237, -0.018792, -0.200914, -0.499205, 0.206782, 0.040803, -0.110985, 0.145768, 0.51361, -0.046257, 0.546464, 0.491954, -0.172403, -1.50274, 0.610958, -0.556254, -0.741921, 0.250837, 0.385312, 0.215026, -0.484042, -0.083259, -0.162516, 0.741936, -0.029109, -0.105503, -0.100864, 0.339272, 0.003209, -0.378937, 0.191629, 0.04118, 0.419183, 0.343303, -1.04195, 0.77375, 0.323362, 0.955791, 0.019304, -0.160759, -0.549903, -0.272163, 0.375029, -3.37414], [-0.408947, 1.12445, 0.141667, 0.608752, -0.103305, 0.489218, 1.04873, -0.300591, -0.468522, -0.016442, -0.008328, 0.031809, 0.202241, -0.579101, 0.192312, 0.02774, 0.029803, 0.843205, 0.371837, 0.605431, 1.23448, 0.296505, 0.369047, 1.53254, -0.088552, 2.0319, 1.2785, 0.338339, 0.301886, 0.863798, -0.040011, -0.447956, -0.366962, -0.445601, 0.268933, -0.4776, -0.205739, -0.011735, 0.322657, -1.31846, 0.535738, 0.19195, 0.390369, -0.228356, 0.102389, -0.797984, 0.048321, -0.060118, -0.91774, 0.947663], [-0.031383, -0.139453, -0.747942, -1.07013, -0.439985, 0.814202, 0.01665, 0.562351, 0.789172, 0.548816, -0.139713, -0.007387, -0.511096, 0.141451, 0.855646, 0.011216, 0.459264, 0.078316, 0.338562, -0.76797, -0.521084, -0.074688, 1.24897, -0.150314, 0.123501, -0.180412, 1.29742, 0.405274, -0.445846, -0.372427, 0.043957, -0.020784, 0.256071, 0.315911, 0.002706, 0.375161, 0.070719, -0.042229, 0.031205, 0.066594, 0.166677, 0.314396, -0.912622, 0.409609, -0.500754, 0.170232, 0.333155, 0.122279, -0.482751, -0.282635], [0.059854, 0.562277, -0.443892, 0.346398, 0.180117, 0.0294, 0.09951, -0.404275, -0.752772, 0.754911, 0.370061, -0.017588, 0.917046, -0.358939, 1.09899, 0.004008, 0.208774, -0.524552, -0.322604, 0.384868, -0.656897, -0.950681, 0.022666, -0.078892, 0.216039, 0.22949, 1.31815, 1.17697, -0.313792, -0.115069, -0.035666, 0.050788, -0.259534, -0.341129, 0.319824, 0.256234, -0.094842, 0.006685, -0.132133, -1.92208, -0.027828, -0.057608, -0.791865, 0.149051, 0.124423, -0.021787, -0.122371, 0.024288, 0.938855, -0.034282], [0.721782, 0.863057, 0.075687, -0.776164, -0.210095, 1.01011, 0.248263, 0.550746, -0.279615, 0.356342, 0.044033, 0.017469, -0.341229, -1.077, 0.155945, -0.019855, -0.083638, -0.129064, -0.357801, -2.28062, -0.395961, -0.043094, 0.496473, -1.06499, -0.051738, 1.13742, 0.46533, 0.478878, 0.095369, -0.0199, -0.031059, -1.0791, 0.065408, 0.303918, 0.208512, -0.1926, -0.335079, 0.036571, 0.109346, 0.00076, 0.074546, 0.12305, -0.722359, 0.807961, -0.090654, 0.120815, -0.285692, -0.199272, 0.238491, 0.295828], [-0.052864, 0.502025, -0.547089, 0.07192, 0.025693, 0.58197, -0.628615, -0.234174, 0.213615, 0.294282, 0.270121, 0.037632, 0.284404, 0.569509, -2.56825, -0.018544, -0.093271, 0.518565, 0.772925, 3.30885, -2.57559, -0.971113, 0.504115, -0.049532, -0.559596, -1.10124, -0.262373, 0.061115, 1.11636, -0.620586, 0.034755, 0.072684, 0.159361, -0.465891, -0.936543, -0.739728, 0.385762, -0.03398, 0.161224, 0.192304, 0.934749, -1.23934, 0.570037, -0.785435, -1.60848, 0.220609, -0.178242, -1.15378, 0.10056, -0.403504], [-1.48933, 0.881564, -1.27933, 0.139841, -1.73649, -0.269963, -0.304901, -1.02774, 0.49061, -0.760055, 0.714377, 0.052233, -0.572185, -0.987545, 0.129792, -0.021586, 0.051896, 0.708837, 0.876729, 1.54706, 1.10528, 1.2009, 1.38419, 1.97322, -0.13696, 0.353423, 1.0732, 0.962583, 0.050013, 0.396952, 0.01328, 1.47765, 0.307891, 0.943022, -0.636996, -0.821495, -0.709311, 0.038351, -1.26013, 0.425364, -0.009496, -1.03798, -0.720515, -0.010532, 0.029568, -0.311342, -0.339115, 0.852991, -0.047318, -0.151493], [0.686511, -1.04684, -0.299029, -0.310635, -0.338759, 0.283604, 0.003019, -0.002729, -0.05597, -0.793648, -0.166767, -0.030753, -0.297296, -0.454184, -0.336605, 0.056763, 0.243712, -0.053915, -0.002905, 0.152282, 0.350156, 0.443903, 0.442903, -0.44934, -0.0735, 0.078529, -0.139707, -0.161287, 0.122765, -0.375535, 0.002633, 0.228692, 0.146937, 0.190078, -0.427792, 0.066746, -0.468643, -0.018481, -0.28473, 0.592436, -0.127769, 0.52268, 0.385136, 0.536388, 0.004037, -0.036636, -0.038686, 0.497732, 0.47839, -0.483225], [0.03206, 0.065013, 0.196295, 0.101773, -0.166921, 0.292647, -0.044432, 0.053071, 0.402014, 0.021307, 0.216133, 0.026401, 0.098172, 0.145144, -0.006614, 0.016117, 1.55691, 0.466795, -0.137277, 0.152953, -0.387529, -0.2827, -0.658838, -0.1035, -0.148941, -0.358549, -0.155457, -0.3252, -0.275473, 0.286863, 0.047407, -0.101303, 0.018887, -0.418274, -0.087174, 0.094149, -0.041717, -0.043706, -0.044907, 0.119406, 0.155925, 0.347668, -0.230528, -0.499883, -0.08454, -0.08532, 0.480678, 0.013964, -0.112563, 1.74659], [-0.742365, -0.509771, -1.11411, -0.120888, -0.825423, -0.435808, -0.445237, -0.0746, 0.342179, -0.227172, 0.038711, -0.035893, 0.307647, -0.437143, -0.715846, -0.021374, 0.07789, -0.652211, 0.510957, 0.761008, 0.773287, 0.586247, -0.056067, 0.486087, -0.010865, -0.019371, 0.24482, 0.345535, -0.262839, 0.974597, 0.017851, 0.364648, 0.226221, 0.190409, -0.624093, -0.031499, 0.167154, -0.031976, -0.61026, 0.090857, 0.170866, -0.627269, -0.411811, 0.39706, -0.213439, 0.089254, -0.217973, 0.747978, -0.027945, -0.772398], [-1.98649, -1.19278, 0.090951, -0.48944, -1.42756, 0.24014, 0.167359, 1.02679, -1.79147, -0.370885, 1.13947, -0.03236, -0.258491, -0.745462, 0.140911, -0.040097, 0.372784, -1.87645, -0.113694, -0.737442, 1.77289, -1.15161, 0.228628, 0.690863, -1.39672, -0.088904, 1.28211, 0.670309, 0.067236, -0.856194, -0.02364, 1.0984, -2.1173, 0.193899, -1.15584, -1.27879, 1.64127, 0.02477, -0.067902, -0.176481, -0.538464, -1.11923, 0.00711, 1.42563, 0.454811, -0.720508, 0.312486, -0.213544, -0.70333, 1.30894], [-0.55177, -0.378588, 0.752833, 0.060677, -0.08889, -0.860942, 1.07156, -0.045088, 0.618573, -0.454754, 0.722231, 0.054841, -0.163813, -0.365924, 0.50251, 0.030188, -0.200079, 0.616687, -0.120186, -0.056793, -1.21409, 0.188582, -1.96469, 0.265363, -0.161864, -0.477392, 0.042353, -0.570623, -0.737661, -0.235104, -0.017338, 0.691312, 0.731303, -1.07555, -0.18528, -0.073426, -0.447285, -0.007281, -0.039838, -0.231171, -0.21271, 0.594435, 0.385498, 0.835389, -0.045055, 0.309761, 0.052952, 0.260702, -0.087911, 0.235502], [0.169174, -0.194773, -0.21559, -0.475579, -0.648452, 1.02689, 0.514518, 0.685675, 0.618879, -0.155652, -0.383675, 0.038534, 0.053686, -0.430928, -0.715314, -0.039307, 0.015132, 1.92815, -0.21022, -0.29238, 0.036343, 0.899884, 0.407204, 0.132705, -0.168199, -0.078284, -1.63956, -0.029125, 0.16901, -0.479115, -0.033515, 0.596337, 0.576881, 0.827934, -0.635285, -1.00983, 0.07637, 0.046416, 0.46117, 1.20115, 0.231292, -0.438989, -0.941114, 0.659743, 0.50543, 0.446807, -0.309742, 1.02067, -0.092052, -0.198065], [-0.345272, 0.699282, -0.246618, 0.119054, -0.609955, -0.482375, 0.55839, -0.212522, 0.365354, -0.412339, 0.234437, -0.030961, -0.017579, 0.323449, -0.095086, 0.014924, 0.052388, 0.090283, -0.019095, 0.502581, 0.114256, -0.621048, -0.048592, -0.043903, 0.028132, -0.222484, 0.32068, -0.008761, -0.043971, 0.48842, 0.021118, 0.045736, -0.188088, -0.496224, -0.506955, 0.384734, -0.267355, 0.00626, 0.451474, -0.094903, 0.545862, -0.137447, -0.22206, -0.774338, 0.024218, -0.186102, 0.542056, 0.459896, -0.23561, -0.933806], [0.047587, -0.003567, -0.004952, -0.015118, -0.019432, -0.040613, 0.013752, -0.031269, 0.011308, 0.007974, -0.039816, 0.023, -0.030083, -0.01297, -0.045424, -0.045145, 0.009565, -0.022656, -0.039768, 0.00149, 0.039417, -0.015343, -0.026831, 0.033382, 0.020987, 0.008596, 0.038705, -0.021591, 0.014496, 0.000467, -0.044018, -0.047548, 0.012674, -0.018529, 0.007681, -0.000712, -0.0259, -0.01261, -0.049882, 0.021566, 0.012986, -0.041801, -0.008894, 0.009934, 0.037292, -0.000536, -0.030626, 0.004334, -0.015564, 7e-06], [-0.385479, 0.009511, -0.310022, -0.138791, -0.08712, 0.704631, 0.169812, -0.124395, 0.276734, -0.223761, -0.171227, -0.016506, -0.354867, -0.120793, -0.428047, 0.043781, -0.488899, -0.001513, -0.195057, 0.391309, 0.597892, 0.165941, -0.252514, 0.209958, 0.18401, -0.136313, 0.520469, -0.378637, 0.164819, 0.471521, -0.011567, 0.273933, -0.413555, -0.035699, 0.012842, -0.132793, 0.321119, 0.015792, 0.192485, 0.612304, 0.228045, -0.414715, -0.090124, -0.308651, -0.041284, 0.234795, 0.319156, 0.305482, 0.080807, 0.95639], [0.691434, 0.484614, 0.196552, -0.313528, 0.04169, -0.403893, 0.42052, -0.04819, -1.61051, -0.473879, -0.17245, 0.002064, 0.344608, -0.067103, 0.269959, -0.041298, -0.466478, -0.072267, -0.052281, -0.801718, 0.704129, -0.300972, 1.12845, -0.102574, -0.170669, 0.928829, 0.246689, 0.467876, 0.174689, 0.169557, 0.03652, -0.525902, 0.018783, -0.138373, 0.146237, 0.195359, -0.34306, 0.001695, 0.399498, 0.101025, 0.846165, 0.37274, 0.542664, 0.517212, 0.046014, -0.451411, 0.271428, 0.051809, 0.206833, -1.25903], [0.315861, 0.038079, -0.372203, 0.215515, -0.405392, 0.680898, 0.269898, -0.1294, 0.101022, 0.597954, -0.925377, -0.02913, 0.255282, 0.063146, -0.153403, -0.028815, -0.120774, 0.32768, 0.117204, 2.35115, 0.048123, 0.832286, 0.639949, -0.320507, 0.60287, 0.123504, -0.84216, -0.62141, -0.206213, -0.006012, 0.004673, -0.329481, 0.574014, -0.523294, 0.962732, 0.99292, 1.17047, -0.015645, 0.926452, 0.07712, -0.000236, -0.952169, 0.585645, 1.42481, -0.047089, 0.501654, -0.166533, 0.562148, -0.71456, 0.317197], [-0.121546, 0.850281, 0.105694, 0.288548, -0.274208, 0.54199, -0.70725, 0.109765, 0.272326, -0.384286, 0.154603, 0.026868, -0.127174, -0.109681, -0.482846, -0.009368, -0.069514, 0.002702, -0.223132, 0.412536, 0.043751, 0.067375, -0.546817, 0.147919, 0.159424, -0.081025, -0.574468, 0.204527, -0.166769, 0.750301, -0.010254, 0.211316, 0.407554, -0.13519, -0.19389, 0.116477, 0.077167, 0.035577, 0.378801, 0.490594, 0.409282, -0.069384, -0.128893, 0.206467, -0.054843, -0.038936, 1.08628, 1.30212, 0.150401, 2.52485], [0.588912, -2.90258, -0.241496, 0.612853, -0.19022, -0.410933, 0.440379, -0.177255, -0.951826, -0.383144, 0.232067, -0.014383, -0.998567, -1.3814, 0.153887, -0.042659, -0.175614, 1.48807, 0.590467, -3.55385, 1.54458, -0.726802, 1.53149, -0.093826, 1.73381, -0.019562, -0.707092, 0.333503, 1.52313, 0.679205, 0.050614, -0.691715, 0.912063, 0.646159, -0.285309, 0.59415, -2.06708, -0.046335, -0.44821, -1.09986, 0.354197, 1.68288, -1.49988, -0.952408, 1.73826, 0.145039, -0.519603, -2.70473, 0.512682, 0.116755], [-0.624352, -0.687649, -0.120113, 0.09695, -0.462906, -0.592933, -0.203358, -0.123234, 0.282232, -0.128208, 0.056594, 0.009353, -0.452909, -0.489653, 0.487377, 0.002896, -0.009739, 2.23023, 0.971457, 0.009868, 1.42326, 0.663415, 0.91195, 0.235285, -0.267265, 0.085899, -0.200252, -0.095659, 0.633184, 0.359549, 0.053419, 0.703189, -0.860077, 0.162629, -0.30483, 0.445125, -0.009922, -0.03637, 0.91786, -0.216616, 0.440038, -0.86417, -0.49846, -0.533043, 0.150187, -0.387775, 0.078157, 0.427958, 0.232787, -0.20202], [-0.010517, -0.730697, -0.338382, -0.110472, -0.387167, 0.940872, 0.139971, 0.009988, 0.217877, -0.358502, 0.023735, 0.00436, -0.095492, -0.050753, -0.479713, 0.016868, -0.078968, 0.599502, -0.084753, -0.184906, 0.220658, 0.374288, 0.292446, 0.623545, 0.356, 0.311509, 0.307444, 0.069954, 0.366489, 0.79066, -0.012103, 0.24968, -0.175454, 0.233472, -0.156304, -0.27749, -0.433793, -0.021197, -0.176797, 0.47177, 0.053074, -0.212013, -0.489767, 0.518554, -0.113473, 0.019959, 0.994043, -0.035793, 0.635855, -0.656643], [-0.422463, 3.11893, 0.031062, -0.051208, -0.27732, 0.086305, 0.100582, -0.022385, -0.202059, 0.708074, -0.06869, -0.021305, 0.43983, -1.43585, -0.695879, 0.034146, -0.115537, 0.849834, -0.379168, -1.1871, 0.459027, 0.013742, -0.056888, 1.44239, -0.238112, 0.750582, 0.680338, 1.11899, 0.005271, -0.621904, -0.00828, 0.020524, 0.203805, 0.236507, -0.840583, -0.497882, -0.368023, -0.002343, -0.469089, 1.09113, 0.349084, -0.320293, -0.74461, -0.156463, 0.836556, -0.669013, -0.187732, 0.255056, -0.051158, -0.074408], [0.736359, 1.05442, -0.027613, 0.138768, 0.272114, -0.203769, 0.165109, -0.280305, 0.026868, 0.199236, -0.299388, -0.015639, 0.431039, 0.051752, -0.317251, -0.001051, -0.093555, -0.812644, 0.145664, 0.375849, -0.858452, 0.454323, 0.276957, 0.14601, -0.476994, -0.017821, 0.266399, 0.079266, -0.126526, 0.165761, -0.046449, -0.15538, -0.359785, -0.169912, 0.053222, -0.120237, -0.387696, -0.022168, -0.588612, -0.487188, 0.233942, -0.589199, 0.286575, -0.408955, -0.083912, -0.375403, 0.146869, 0.903475, -0.344669, -0.064447], [-0.193584, 0.699211, -0.650488, -0.243264, -0.511983, 0.751263, 0.007664, -0.398951, 0.53273, -0.604026, 0.008929, 0.016697, -0.088139, 0.211225, 3.23628, 0.019796, -0.356146, -0.550083, -0.079767, 0.916687, 0.123379, -0.09285, -0.63388, 0.178109, 0.198609, -0.204593, 1.10192, -0.337877, -0.618423, 0.206309, 0.007595, 0.21582, -0.379906, -0.650346, -0.082072, -0.140827, 0.254868, -0.008859, 0.23851, -0.444218, 0.335188, 1.00121, 1.0728, -0.074728, -0.187171, -0.419207, 0.595669, 1.26312, -0.519451, 0.159082], [-0.023221, -0.00116, -0.030916, -0.033053, -0.041424, -0.036818, -0.035323, 0.012104, -0.053055, -0.035514, -0.040733, 0.008576, 0.001213, -0.043672, 0.021832, 0.0441, -0.016342, 0.008569, -0.039009, -0.008039, 0.002015, -0.002298, -0.028855, -0.038426, 0.03778, 0.039566, 0.033468, 0.028169, -0.026623, 0.028974, -0.006314, -0.038879, -0.010883, -0.062782, -0.000233, -0.039611, -0.026678, -0.029509, -0.036126, -0.047517, -0.032404, 0.040488, -0.046127, -0.024445, 0.026083, -0.007948, 0.034067, -0.006384, -0.009821, -0.023249], [-0.5522, -0.326108, 0.176307, 0.409227, -0.472301, 1.36696, -0.264524, 0.287498, 0.666027, 0.058333, 0.067639, 0.029635, 0.002277, 0.177039, -0.504295, 0.023595, -1.37624, 0.800192, -0.518099, 0.121594, 0.766555, 0.078761, -0.452657, 0.130612, 0.275318, -0.057365, -0.763024, 0.325557, 0.181685, 0.769846, 0.047614, 0.290737, -0.110535, -0.017946, -0.186944, -0.472337, 0.045315, -0.00334, 0.361847, 0.489765, -0.22466, 0.448339, -0.044553, 0.344436, -0.126227, 0.517702, -0.192419, 1.11395, -0.117687, -1.81696], [-0.473211, 0.045541, -0.128926, -0.806445, 0.301521, -0.206674, -0.076176, -0.038652, -0.105468, 0.396476, -0.180898, 0.00573, 0.265257, 0.37306, 0.632228, 0.048885, -1.21361, -0.758785, -0.160144, -0.143284, -1.07491, 0.150765, -0.648638, -0.614881, -0.292509, -0.11154, 0.241945, -0.188672, -0.343407, -0.560195, 0.04868, -0.097643, -0.003112, -0.360936, 0.528954, 0.54035, 0.322973, 0.005079, 0.24088, -0.561941, 0.107532, -0.49901, 0.038978, 0.014101, -0.028624, -0.147559, 0.855874, 0.416428, -0.149396, 0.138637], [-2.2318, -0.158346, 1.10683, -0.131333, -0.370836, -0.55412, 0.150569, 1.01002, -1.55883, -0.062302, 0.458825, 0.030859, -0.789202, -0.712258, 0.150635, -0.03359, 0.019499, 0.223261, 0.398147, 0.534269, 0.799703, -0.105966, 0.1157, 0.087722, -0.181369, -0.451693, -0.719482, -13.8228, -0.10518, -0.526697, 0.021025, 1.20258, 0.168576, -0.908008, -0.484926, -2.51564, 1.1313, 0.012773, 0.412184, -0.178766, -0.193119, -1.04644, 0.254415, 0.621223, 0.409569, 0.241331, 0.019887, -7.7387, -0.19285, -0.346646], [-0.898317, 0.588979, 0.176839, 1.15772, 0.086427, 0.377565, 1.38158, -0.297591, 0.118429, 0.489662, -0.80643, 0.015638, -0.082109, -0.956232, -0.075897, -1.7e-05, -0.21573, 0.006917, 0.885782, -0.688903, -0.117837, -1.73178, 0.498034, -1.9148, -0.345622, 0.322042, 0.375323, -0.093062, 0.945221, -0.728516, 0.032667, 0.420628, 0.660317, -0.144513, -0.071649, -0.86517, -0.683681, 0.038507, 0.126662, 0.079817, 0.342496, 0.655886, -0.140969, 0.31551, 1.14102, 0.128628, 0.12924, 0.678988, -0.933085, 0.354476], [-0.19699, -0.818788, -0.020236, -0.233913, -0.490238, 0.279968, 0.355035, -0.448055, -0.205678, -0.268248, -0.2516, -0.003097, 0.281873, 0.00039, -0.813608, 0.046018, 1.45031, 0.113913, -0.41405, -0.135745, 1.24139, 0.42695, 1.04056, -0.023941, -0.253442, 0.606973, 0.191688, 0.48384, 0.052846, 0.733335, -0.042228, 0.254664, 0.096693, 0.150937, -0.373018, -0.741045, -0.119181, -0.025545, 0.339058, 0.418764, 1.04224, 0.366704, 0.041209, 0.335066, -0.179404, -0.187569, 0.581881, 0.731974, -0.281602, -1.18364], [0.318995, 0.602152, 0.872876, -0.061986, 1.33194, -0.671018, -0.001848, 1.23212, -0.144634, 0.752844, -0.45525, -0.006208, 0.648315, -0.774892, -0.570272, 0.009264, 0.00275, -0.45318, -0.168702, -2.09915, 0.29115, -0.871487, 0.127429, -0.732627, 0.986204, -0.128817, -2.00488, 0.453515, 0.387761, 0.038225, -0.022722, -1.01125, 0.397742, 0.69121, -0.414838, -0.751127, 0.007836, -0.031266, 0.509038, -0.283871, -0.120054, -0.160213, -0.963788, -0.021854, 0.296885, 0.078756, -0.126073, 1.33563, -0.121765, -0.024153], [-0.297517, -1.72898, 0.201963, -0.220876, 0.526214, -1.21694, -0.000561, -0.366128, -0.135318, 0.108259, -0.641958, 0.026936, 0.394206, -0.370491, -0.198566, 0.013147, 0.079348, 0.296886, 0.097992, -0.552431, 0.257387, -0.162151, 0.141861, 1.0828, -0.667932, 0.12801, 0.141546, 0.095597, 0.121659, 0.150526, -0.036568, -0.355984, -0.562832, 0.222641, 0.191703, -0.403517, 0.083516, -0.016235, -0.266489, -1.2538, 0.594637, -0.630503, -0.549974, -0.668743, 0.09766, -0.031539, -0.343671, -1.15428, 0.442543, -0.27138], [-0.242881, -0.969761, -0.154464, 0.459525, -0.330539, 0.082114, 0.143907, 0.145691, 0.390955, 0.061151, -0.372899, 0.036817, 0.14497, -0.122023, 0.086455, -0.010287, 0.015138, 0.494195, 0.34312, -0.211107, 0.582341, -0.343798, -0.425889, 1.00131, -0.469725, -0.254724, 0.224182, 0.276865, 0.341134, -0.136181, -0.018787, -0.128729, 0.466201, -0.002854, -0.587112, 0.317439, -0.088049, 0.011147, 0.555981, 0.30889, -0.150956, 0.18273, -0.556258, 0.101047, 0.044071, -0.282132, -0.001442, 1.56922, -0.056395, -0.651696]], [[-2.68845, -0.311658, -0.412302, -0.406799, -2.66052, -0.05587, 0.157082, -0.007494, -0.010934, 0.183127, -1.13542, 0.150235, 0.349291, -0.296259, -0.403205, 2.16085, -1.1554, 0.125044, -0.280037, 0.352667, -0.189551, -0.049024, 0.26449, 0.221363, 1.44528, 0.495537, 0.114242, -0.397357, -0.455481, 0.010662, -0.028014, 0.727664, 0.530436, 0.214993, -0.292092, -2.7799, -0.401521, -0.338042, -0.307975, -0.18754, 0.148539, 0.043799, -0.82438, 0.252854, -0.085786, 1.02316, 0.427687, 0.145227, -4.89556, 0.047923], [0.148507, 0.04549, 0.013321, -0.030575, 0.026283, -0.057561, -0.05585, 0.041059, -0.136963, -0.024919, -0.110098, 0.102096, 0.094177, -0.087893, -0.372901, 0.24506, -0.261019, -0.038338, 0.145935, -0.009677, -0.048539, -0.019925, -0.180214, -0.167427, 0.570736, 0.152194, -0.094231, 0.043111, 0.185337, 0.124446, -0.044539, 0.204582, -0.213639, -0.111841, 0.204076, -0.092845, -0.188435, 0.167117, -0.113336, 0.006278, -0.221474, -0.026777, -0.163785, -0.101377, 0.171936, 0.215223, 0.097321, -0.149672, -0.491814, 0.1093], [0.118639, 0.653747, 1.11479, -0.524549, 0.28449, 0.370236, -1.31562, -0.22869, 0.621343, 0.175694, 0.006471, 0.981779, 0.270348, 0.402315, 0.248215, -0.771706, -1.88919, -0.156805, -0.087459, 0.608092, 0.774561, 0.076215, -0.786348, 0.76785, 0.076771, 0.679275, -0.11938, 0.675331, 0.255557, 0.665301, 0.001758, 0.315524, 0.235365, -0.565199, -0.430258, -0.764016, 0.077305, 0.19072, -0.355948, 0.830201, 0.295942, -0.00786, -0.849699, 0.176585, 0.591457, -0.420673, -0.247752, -0.744456, -2.84331, 0.619529], [-0.053138, -0.254593, 0.39279, -0.460172, -1.21727, 0.351103, 0.075348, -0.729828, -0.181464, 0.349157, 0.25515, -0.872171, 0.022945, -1.11006, 1.06002, -0.879593, -0.455433, 0.199815, -0.753457, 0.431294, 0.847401, 0.008596, 0.204791, 0.271745, 0.479946, -0.751929, -0.168653, -0.143999, 0.477971, 0.056853, 0.043257, -0.679159, -0.430921, 0.159593, -0.362029, 0.16939, -0.232849, 0.417676, -0.393944, 0.167803, -0.352497, -0.02321, 0.177858, 0.186866, 0.561613, -2.40754, 0.637271, -0.921805, 1.08281, -0.368808], [0.113852, -0.151429, 0.041234, -0.450665, 0.453527, 0.411746, -0.36775, -0.274001, -0.396837, 0.264111, 0.819038, -0.197496, -0.374408, 0.247892, -0.652016, 0.158797, 0.249615, 0.05617, -0.394332, -0.028628, 0.156271, 0.27237, -0.18355, -0.430224, 0.154017, -0.313159, 0.077904, -1.03318, -0.206734, -0.451268, -0.003488, -0.827171, -0.289418, 0.147316, -0.278351, -0.717989, -0.031078, 0.379122, 0.146601, 0.26297, 0.19079, -0.008679, 0.273976, 0.632682, 0.804601, -0.394884, 0.692292, 0.166499, 0.724702, -0.000785], [-0.416296, 0.203344, 0.229187, 0.407788, -0.273761, 0.389539, -0.177651, 0.013939, 0.026281, 0.237352, 0.930115, 0.090818, 0.229341, -0.365916, -0.163776, -0.974423, -0.540352, -0.858612, -0.307841, -0.611902, -0.302382, 0.18403, 1.00703, 0.042835, 0.146607, -0.590588, -0.202586, 0.092979, 0.078146, -0.225404, 0.023339, -1.14457, 0.777086, 0.544149, 0.983906, 0.590914, -0.157381, 0.194712, 0.556151, -0.535024, 0.540389, -0.002118, -2.66979, 0.994008, 1.39537, -1.38498, -0.206698, 0.70779, -0.650768, 0.496556], [-0.04412, -0.021546, -0.042967, -0.022919, 0.034375, -0.013249, -0.040816, -0.045141, -0.009854, -0.035906, -0.004602, -0.013419, -0.010454, -0.047939, -0.005754, -0.025926, -0.029796, -0.028189, -0.032954, -0.049465, 0.028064, -0.038616, -0.035644, -0.023267, -0.053188, -0.017685, -0.019832, 0.021768, -0.012365, -0.030014, -0.041017, 0.034834, -0.037972, -0.019532, 0.020164, -0.012653, -0.009181, 0.016065, 0.006412, -0.032917, 0.013256, 0.043782, -0.026353, 0.030442, -0.023972, 0.036247, 0.015831, -0.013872, 0.007444, 0.020626], [-0.189316, -0.07035, -0.132965, -0.247044, 0.291157, 0.344072, 0.212666, -0.266708, -0.566844, 0.059527, 0.183366, -0.367051, 0.108225, 0.115166, -0.362219, 0.159404, -0.215223, -0.517403, 0.022916, 0.317122, -0.07606, -0.077723, -0.617543, 0.892404, 1.02103, -0.294698, 0.058458, 0.580459, -0.695158, 0.830775, 0.017924, -0.093362, 0.24832, -0.210101, -0.731914, 0.067615, 0.607259, 0.308673, -0.044293, 0.56326, 0.24635, 0.018527, 0.237329, 0.19266, -2.20302, 0.737212, -0.139994, -0.022564, -0.667146, 0.00472], [-0.103841, 0.091658, -0.24544, -0.0315, -0.293344, 0.480131, -0.58679, 0.087244, 0.177985, -0.047283, 0.714002, -0.489028, 0.060585, -0.750871, -0.52393, 0.266546, -0.104799, -0.212019, -0.905725, 0.062272, -0.854877, 0.072659, -0.275279, -0.056079, -0.653251, -0.450211, -0.450625, -0.306333, -0.033131, 0.596137, 0.020356, -0.172447, -0.759333, 0.362772, 0.231124, 0.077116, -0.362022, 0.689852, 0.702291, 0.085837, -0.105663, -0.041575, -0.155155, 0.333745, 0.957503, -0.211518, 0.122843, 0.124736, 1.84083, -0.063148], [0.19767, -0.429397, -0.244265, 0.152868, 0.633917, -0.079887, 0.415793, -0.253513, 0.141916, 0.232534, 0.169015, 0.234038, -0.464319, 0.030695, 0.376574, -0.315, 0.277105, 0.58692, 0.745717, -0.34052, 0.662704, -0.143635, 0.038949, -0.143808, 0.358766, -0.913449, -0.705386, -0.511686, 0.583566, 1.26619, 0.020465, 0.268804, 0.123343, -0.128889, -0.41606, -0.308085, 0.056838, -0.156514, -0.173188, -0.098467, -0.341515, -0.024663, 0.057377, 0.211274, -0.975718, -0.302251, -0.085146, -0.255638, 0.136925, 0.612774], [0.009768, 0.159748, 0.622789, -0.543699, -0.707255, -0.004572, -0.314023, -0.160238, -0.228752, -0.387944, 0.891023, -0.629752, -0.941413, -0.447745, 0.295602, 0.896223, 0.430453, 0.694934, -1.51356, 0.162791, 0.028047, 0.0974, -0.554192, -0.526848, 0.247037, -0.17631, -0.274335, -1.23556, 0.593582, -0.392768, -0.021792, -1.1679, 0.017115, 0.331473, -0.554736, -0.211781, -0.831931, 0.090033, 0.564286, 0.219572, -0.36119, -0.030245, 0.353279, 0.410819, 0.930705, 0.013485, 0.385608, 0.126659, 0.404777, -0.103333], [0.062114, 0.047839, -0.23429, 0.147214, 0.281409, 0.289722, -0.442387, -0.369645, 0.835526, -0.227485, -0.167594, 0.440426, 0.209627, 0.662579, 0.209584, 0.50886, 0.608051, -0.045559, -0.035325, 0.136219, -0.627718, 0.211136, -0.319878, 0.297642, -0.370719, 0.418161, -0.440622, -0.034375, -0.148523, 0.352041, -0.015526, -0.05093, 0.163411, -0.390142, 0.087368, -0.008544, -0.136555, 0.536818, -0.208551, 0.51667, 0.239272, 0.04112, -0.036655, 0.485121, 0.586408, 0.154481, -0.091856, -0.17485, -0.157742, 0.321631], [-0.205045, -0.493944, 0.975267, -0.498937, 0.923126, 0.141926, 0.306606, -0.404968, -0.008708, 0.068364, 0.933127, -0.212941, 0.170582, -0.996156, -0.311484, -0.167637, -0.281933, -0.058286, 0.530274, 0.184817, 0.627165, 0.426961, -0.061516, 0.475499, -0.911695, 0.325283, 0.176003, -0.313466, 0.164528, -0.471819, -0.038312, 1.05593, -0.130037, 0.085346, 0.161899, 0.155026, -0.177625, -0.623475, -0.020243, 0.080825, 0.406495, -0.029652, -0.168597, 0.822581, 0.271429, -0.115896, 0.318346, 0.256903, 1.19832, 0.02591], [0.122632, -0.037165, -0.246388, 0.435939, -0.927119, -0.491434, 0.383307, 0.184552, -0.188351, 0.152242, -0.684114, -0.860648, -0.403095, -0.587983, 0.191802, 1.11077, -0.323032, 0.840018, 0.167793, 0.291527, -0.756157, 0.329443, -1.52722, -0.845881, 0.154938, -0.252094, 0.040887, -0.451571, 0.293534, -0.109526, 0.020023, -0.179058, -0.090597, 0.201422, -0.007973, -0.930905, -0.904891, 0.302943, 0.851685, -0.113271, -0.758335, -0.016577, 0.236705, -0.049743, 1.13801, 0.076966, 0.090165, 0.427624, -0.153107, -0.12487], [-0.293035, -0.107533, 0.096839, 0.574813, 0.095522, 0.150432, -0.168882, 0.102078, 0.001523, -0.007587, 0.026517, 0.130239, 0.187916, 0.596177, -0.01976, 0.675939, -0.475665, -0.370713, 0.00304, -0.153612, -0.776287, 0.212425, 1.12532, 0.728557, 0.204791, -0.473015, 0.072594, 0.111091, -0.248193, 0.070433, 0.039544, 0.025933, 0.010718, 0.261757, -0.038291, 0.550242, -0.037228, -0.171463, 0.310684, -0.301154, 0.268144, 0.030332, -0.296976, 0.501711, 0.119034, -0.535878, -0.308281, 0.637642, -0.666425, 0.034634], [-0.016231, 0.018498, 0.052369, -0.021209, -0.001783, 0.019998, -0.017004, 0.013455, 0.03792, 0.022879, -0.030902, 0.001426, 0.011153, 0.003018, -0.026852, 0.047777, -0.027104, -0.021177, 0.007449, -0.071278, 0.013524, -0.046799, -0.019296, -0.030399, -0.011608, -0.070758, 0.001358, 0.019813, -0.00402, -0.025938, 0.034555, 0.00895, 0.010059, -0.074322, 0.021393, -0.00533, -0.027387, 0.017415, -0.008694, 0.021068, -0.049229, 0.001567, -0.046998, -0.054856, -0.018827, 0.045102, -0.048042, -0.004231, 0.01008, -0.003761], [-0.138217, -0.238911, -0.320552, -0.140252, 0.112921, 0.283538, -0.66038, -0.337306, 0.77012, -0.284432, -0.514317, 0.623512, 0.577485, 0.111431, -0.317187, 1.16995, -1.24909, 0.653282, -0.58468, 0.58353, 0.66255, 0.279692, -0.106104, 0.414422, 0.041453, 0.053495, -0.102901, -0.061752, -0.050688, -0.747293, -0.041272, -0.32221, -0.180511, -0.148169, 0.231636, -0.044459, -0.097079, 0.385657, 0.446938, -0.456338, 0.248403, -0.015129, -0.197833, 0.18486, -0.585425, 0.358994, 1.05726, -0.225262, -1.54374, 0.429149], [-0.159106, -0.021198, 0.332642, 0.013782, 0.723377, 0.373098, -1.74278, -0.037558, 2.59166, 0.55175, -0.307145, 0.359455, 0.166479, -0.7974, 1.12397, 0.562773, -3.59686, 0.078589, -0.224145, 0.5393, -0.20675, 0.416825, 0.445753, 0.046605, 0.534203, -0.460333, 0.413869, -1.83433, -1.45467, 0.473333, -0.018899, -0.500352, 0.426271, -0.25681, 0.247624, -0.396443, -0.015843, 0.100547, 0.055761, -2.08641, 0.364728, 0.047331, -0.609405, -0.861458, 0.489784, -0.702795, -0.260437, 0.403222, -0.093232, 0.234148], [0.058236, 0.043616, -9.29625, -0.034903, -0.443387, -0.09076, 0.05124, -0.248352, 0.562654, 0.185096, 0.298132, 0.372111, 0.382289, 0.03156, 0.72173, 0.253593, -0.636094, -0.082565, 0.643868, 0.132361, 0.692416, 0.43912, 0.047359, 0.741107, -0.506338, 0.03988, -1.51373, -1.90014, 0.004302, -0.587482, 0.023842, 0.052551, -0.263371, -0.531792, -0.290005, -0.095814, -0.377169, -0.084298, -0.039306, -1.36194, 0.547021, 0.023325, -0.074271, 0.408532, 1.89041, 0.379919, 0.219211, 0.108236, 1.39725, 0.098633], [-0.196921, -0.123007, 0.060282, -0.164697, 0.001092, 0.553481, -0.763984, -0.381075, 0.581115, 0.018421, 0.663361, -0.066154, -0.075472, 0.530585, 0.161915, 0.482773, 0.493508, 0.231902, -0.795313, -0.576319, 0.170362, 0.181608, -0.073793, 0.719587, -1.63741, 0.007805, 0.02057, 1.2655, -0.002117, -1.1591, 0.039074, 0.823779, 0.202644, -0.112724, -0.064385, 0.222861, 0.617732, 0.060997, -0.024646, 0.288306, 0.104327, -0.019914, 0.222295, 0.086114, -0.86868, -0.832515, -0.28908, 0.151963, 0.031212, -0.292836], [-0.137182, 0.150765, 2.95705, -0.062157, 0.318952, 0.310466, 0.214696, 1.068, 0.953315, 0.232404, -0.658322, 0.227072, -0.317951, -1.12912, 0.948488, 0.686104, 0.153233, 0.022558, 2.36144, 0.028449, -0.423717, 0.449282, 0.193206, 0.39254, -8.91763, -0.310825, 0.0152, 0.512062, -0.308271, -2.37386, -0.046861, -0.897478, -0.266871, 0.332048, -1.06384, -0.055167, 0.227661, -1.23474, 0.184518, 0.114573, -0.140852, 0.025722, -0.502657, -0.279413, -0.078627, 0.319983, 0.234613, 0.584771, 0.216308, 0.213968], [-0.52037, -0.113175, 2.18399, -0.524675, 1.51282, 0.042346, 0.154862, 0.24627, 0.536136, -0.292682, 0.095188, -0.369879, -1.05593, 0.995209, 0.902639, -1.94087, -0.341437, 0.71192, -0.380926, -0.270473, -0.580588, 0.738052, 0.157022, 0.720434, -0.455998, -0.632, -0.300463, 0.12725, 0.515447, -0.395654, -0.02454, 0.052477, 0.300369, -0.629148, 0.144869, 0.592169, -0.353343, -0.029093, 0.09044, -0.181994, -0.637979, 0.010895, -0.095847, 0.634703, 0.591053, -0.017043, 0.647162, -0.205377, -0.774028, 0.129979], [0.071245, 0.060124, 0.219942, -0.160551, -0.491472, -0.128053, -0.018758, 0.052801, 0.055459, 0.143085, -0.50183, -0.522114, 0.010824, -0.268693, -0.539464, 0.106323, 0.239316, 0.363364, 0.179233, 0.317199, 0.15353, 0.095465, -0.747053, -0.523877, -0.266503, 0.209199, 0.088651, 0.315379, -0.064738, -0.431618, -0.001858, 0.159286, -0.138586, 0.070002, 0.152617, -0.271596, -0.197706, -0.064026, 0.38766, 0.164034, -0.305033, -0.003764, 0.076332, 0.101435, 0.046378, 0.347296, 0.150106, -0.140933, -0.30529, 0.243047], [-0.130885, -0.316141, -0.247078, 0.000816, 0.414526, -0.272923, -0.224137, 0.02244, 0.560932, -0.378584, 0.865934, 0.838859, 0.004005, 0.935573, 0.120615, 0.422244, 0.885017, 0.632848, 0.677872, -0.146097, -0.334712, 0.067439, 0.177876, 1.133, 0.547742, 0.38944, 0.087145, 0.425158, 0.168568, 0.317065, 0.039276, -0.126465, 0.546116, -0.016002, 0.13445, -0.883388, -0.109014, -0.272817, -0.334934, 0.142138, -0.185752, 0.023027, 0.218629, 0.369041, 0.36264, -0.610614, -1.90544, 0.10523, 0.390988, 0.031054], [-0.319385, -0.024051, 0.452594, 0.231807, -0.504372, 0.187781, -0.085555, -0.056243, 0.251441, 0.187982, 0.603041, 0.11762, 0.145546, -0.011335, -0.212399, -1.07368, -0.216574, -0.3056, -0.294327, -0.250991, -0.143397, 0.287539, 0.629939, 0.476941, -0.75398, -0.203614, 0.104713, 0.39142, -0.037989, -0.278169, 0.040726, -0.668941, 0.278868, 0.349507, 0.392808, 0.538279, 0.042902, 0.016032, 0.479297, -0.150974, 0.353944, 0.019926, -0.785353, 0.908059, 0.473302, -0.607118, -0.38168, 0.547192, -0.671723, 0.117023], [-0.263175, -0.207352, -1.11117, 0.231149, 0.169671, 0.918987, 0.309128, -1.20542, -1.24077, 1.45968, -0.435378, 0.808196, -1.16483, -3.56274, -1.84147, -1.63672, -0.778025, -0.25096, 2.41588, 0.461487, 1.05979, 0.144876, -2.19101, -1.09314, -1.44902, 0.03504, 1.53737, -0.246998, 0.553134, -1.18267, -0.034775, 2.15546, 0.817194, 0.590522, -0.512059, -1.40009, -1.49195, -1.32281, -1.01755, -0.465173, 1.22178, 0.051298, 0.411416, -1.0093, -1.15074, 1.47907, 0.400635, 0.195397, 3.6565, -0.339319], [-0.760862, -0.44911, -0.035975, -0.265842, -3.47696, 0.042357, -0.29218, 0.271151, 0.737034, 0.345168, -0.544478, 0.366554, 0.676378, 0.391224, -1.9781, 1.46588, 1.11956, 0.870305, -1.10812, -0.09208, 0.797252, -0.024091, 0.181941, 0.467674, -1.10724, -1.24012, -0.200764, -2.10207, -0.43839, 0.315315, 0.042013, -0.477503, -0.19966, -0.264715, 0.431359, 0.110497, -0.169426, 0.178262, 0.308675, -2.06237, 0.187016, -0.046897, -0.331006, 0.090777, -0.048109, -0.149225, 0.239651, -0.015696, -5.68461, 1.09085], [0.312929, 0.158484, -0.089471, 0.376557, -0.256286, -0.181038, 0.052213, 0.129494, -0.159603, 0.037061, -0.102526, -0.013738, -0.134682, -0.161051, -0.551082, 0.429022, -0.121811, 0.413864, 0.047081, -0.055739, -0.217466, -0.045189, -0.086047, 0.055761, -0.722871, 0.060588, -0.06625, -0.142267, -0.090312, 0.140131, 0.026447, -0.018148, -0.150951, -0.155941, 0.176426, -0.150896, -0.128388, 0.33937, 0.036517, -0.117074, -0.251055, -0.042739, -0.000793, -0.029806, 0.316126, 0.410171, 0.049193, -0.052314, 0.168412, 0.043748], [-0.079403, 0.136158, 0.37323, 0.085662, 0.725047, 0.461121, -0.665484, 0.166104, 0.267253, 0.21912, 0.771684, -0.621581, 0.451023, -0.162125, -0.090182, 0.14195, -0.651827, 0.395784, -1.89919, 0.942194, 0.005902, 0.127002, -0.300773, 0.367699, -0.17911, -0.071106, 0.046255, -0.004507, 0.224608, -0.65123, -0.019653, -0.08573, -0.214757, -0.780455, -0.182024, -0.134023, 0.031558, -0.347692, 0.246811, 0.485115, -0.287309, 0.014926, -0.189939, 0.251926, 0.38313, -0.070667, 0.211276, -0.274962, -1.01125, -0.136825], [-0.382093, -0.546979, -0.70394, -0.113747, 0.869909, 0.263072, -0.220064, 0.071543, 0.297709, 0.099093, 0.694144, 0.11512, -0.293083, -0.128607, -0.69712, 0.785812, 0.010075, 0.515661, 0.313906, 0.229535, -0.369006, 0.1275, 0.411666, 0.263917, 0.939614, 0.089702, 0.109491, 0.09895, 0.084559, -0.053637, 0.018042, 0.493743, -0.168039, 0.207571, -0.113644, 0.785275, 0.260734, -0.306724, 0.284127, 0.084041, 0.040226, -0.003433, 0.415999, 0.449477, -0.662398, 0.414548, 0.470827, 0.210676, 0.320129, -0.522839], [-0.419225, -0.476497, 0.865309, 0.232864, 0.268602, 0.016988, 0.068676, -0.117156, 0.330871, 0.237765, 0.106182, -0.061078, 0.512415, 0.046621, 0.727978, -0.109116, -0.203539, -0.545853, -0.223078, -0.142647, -0.049758, 0.382637, 0.871603, 0.430403, -0.600922, -0.220395, 0.5572, 0.840582, -0.595162, -0.799116, -0.028493, 0.706347, 0.847835, 0.513067, -0.901712, 0.59445, 0.39153, -0.765574, 0.440085, 0.333874, 0.449242, 0.017231, 0.732403, -0.110411, -0.624599, -0.495895, -0.868532, 0.719267, -0.951003, -0.10416], [0.17863, 0.07706, -0.206776, -0.227329, 0.029037, -0.017893, -0.251529, 0.0575, 0.239684, -0.133811, -0.201148, -0.074718, -0.155116, 0.135214, -0.400525, 0.109049, 0.171018, 0.592227, 0.015333, 0.49869, 0.521309, -0.238218, -0.854159, -0.350403, 0.086723, 0.395619, -0.627292, -0.412497, 0.20517, -0.158625, 0.021877, -0.040627, -0.636501, -0.471023, 0.529195, -0.354286, -0.089106, 0.135932, -0.268945, -0.199809, -0.306923, 0.018139, -0.157716, -0.384797, 0.264438, 0.378425, 1.02808, -0.679121, 0.094382, -0.02033], [-0.102111, -0.286181, -0.424203, 0.376753, -0.132378, 0.196806, 0.171797, -0.661754, -0.365017, 0.321805, -0.588452, -0.325381, -0.290152, 0.840973, -0.01459, 0.383157, 0.026844, -0.19879, -0.31707, 0.142502, -0.010922, 0.022197, 0.431109, 0.163715, -1.03774, -0.33897, -0.157097, -0.409683, -0.377343, -0.521029, 0.013758, 0.095821, -0.661805, 0.069557, 0.132055, 0.321402, 0.348817, 0.201837, -0.023518, 0.274029, 0.248246, 0.034299, -0.366027, 0.167908, -0.019317, 1.21632, 0.951912, 0.11555, -0.926856, 0.216711], [0.057554, 0.248149, 0.728135, -0.441202, -0.349718, 0.181702, -0.29462, 0.069847, 0.310304, -0.012742, 0.620749, 0.259509, 0.258018, 0.041334, -1.14817, 0.82278, 0.393686, 0.664655, -0.588074, 0.298141, 0.617523, -0.056185, -0.496389, 0.529587, -2.53978, 0.249803, -0.045534, 0.176417, 0.180317, 0.126725, 0.032532, 0.08775, -0.142721, -0.18511, 0.225172, -0.255741, -0.092028, 0.191501, 0.072005, -0.098502, -0.030075, 0.031257, 0.231944, 0.244021, -0.163555, -0.341778, -0.128694, -0.296737, 0.44457, 0.018925], [-0.425135, -0.633378, -0.458096, -0.007847, 0.5021, 0.319787, 0.530213, -0.820195, 0.726536, 0.39259, 0.735642, 0.073057, -0.314429, 0.769704, 0.391682, -0.520736, 0.521682, -0.903295, -0.337233, -0.31124, 0.253478, 0.296711, 1.24881, -0.171681, -0.338768, -0.423719, 0.198302, -0.004552, -0.38617, -0.047802, -0.046278, -0.718127, 0.308457, 0.672198, -0.884093, 0.871525, 0.347252, -0.694206, 0.725561, 0.354378, 0.626393, -0.000694, 0.42815, 1.07781, 0.003176, -0.967404, -0.099596, 0.924716, -0.092476, -0.042539], [-0.233182, 0.04347, 0.576995, 0.40221, 0.120708, -0.056201, -0.01904, 0.527474, -0.301386, 0.153916, 0.216344, -0.391881, 0.056251, 0.060223, 0.230395, 0.426468, 0.394156, 0.579374, 0.222347, 0.017643, 0.219369, 0.277333, -0.13629, 0.181866, -1.20511, 0.553406, 0.222359, 1.21707, -0.264573, -0.13705, 0.037724, -0.324552, 0.509699, 0.140965, 0.502935, 0.494339, 0.003116, 0.420633, 0.045199, 0.183239, -0.116952, 0.042657, -0.271916, -0.327527, -0.618456, 0.159951, -0.435663, 0.228644, -0.223432, -0.332078], [-0.348469, -0.196414, -0.724482, 0.090683, 0.143309, -0.144307, 0.097568, 0.057352, 0.586536, 0.178043, 0.759181, 0.439371, 0.401179, 0.303433, 0.769512, 1.10118, -0.716635, 0.381568, -0.536948, 0.05896, 0.423656, -0.294533, -0.77525, 0.221501, -1.00521, -0.459187, -0.344424, 0.464697, 0.492768, 0.572027, -0.031399, 0.560899, -0.151639, -0.072716, 0.020533, 0.106699, 0.070586, 0.360567, -0.155369, -0.955575, 0.027239, -0.01467, 0.13555, -0.118571, -0.241255, -0.214559, 0.600356, 0.028499, 0.501028, -0.33102], [0.092439, -0.255458, -0.305496, -0.313014, 0.070093, -0.197621, -0.102909, -0.058339, -0.137124, -0.128065, -0.355103, 0.30917, -0.174877, 0.04877, -0.284637, -0.654181, 0.045458, 0.884246, -0.250092, 0.182457, 0.044597, -0.253251, -0.501933, -0.263529, -0.716586, 0.322778, -0.062092, 0.046682, 0.371641, -0.143118, -0.025598, -0.595441, 0.147598, -0.023989, 0.168751, -0.252466, -0.022241, 0.239024, 0.00935, -0.038449, -0.076826, 0.013211, 0.317922, -0.365935, -0.518673, 0.023917, 0.532003, -0.280925, -0.767144, -0.060564], [0.437776, -0.127952, -2.47722, 0.35196, 0.1183, 0.192753, -0.072546, -0.136213, -0.05467, 0.270508, 0.180737, 0.130317, -1.92471, 1.16157, -0.049747, 0.288782, 0.662562, 0.643699, -1.36785, -0.311972, 0.200288, 0.16107, -0.037559, 0.191042, 0.133163, -0.256785, 0.13044, 0.481098, 0.114028, -0.610071, -0.022241, 0.868436, 0.190982, -0.367483, -0.366527, -0.326336, 0.26574, -0.161916, -0.233494, -0.370875, -0.363937, 0.006425, -0.536862, 0.484463, -0.234512, 0.110375, 0.277889, -0.219667, 0.048188, 0.356708], [-0.047727, -0.040191, 0.000502, 0.017044, -0.009307, -0.003162, 0.007178, 0.037454, -0.030319, 0.026876, -0.044523, -0.031802, -0.014319, 0.013112, -0.035151, -0.033039, -0.014402, -0.010793, -0.029962, 0.031308, 0.035687, -0.04388, -0.01126, 0.001312, -0.024652, 0.015551, -0.005292, -0.00901, 0.025537, -0.019087, -0.007106, 0.001267, -0.029273, -0.034418, -0.013788, 0.00864, 0.012169, 0.026321, -0.000302, -0.046969, -0.013886, 0.010249, -0.044337, -0.044887, -0.031096, 0.007801, 0.006487, -0.020746, -0.011882, -0.003773], [0.484532, -0.320407, -0.753572, 0.936475, -2.44615, -0.537245, -0.439564, 0.297499, -0.014905, -0.165962, 1.34694, -2.13566, -1.44784, -0.72946, -0.311696, -1.73462, 0.860599, 1.82946, 0.912795, -0.556526, -1.06367, 0.867007, -1.93459, -2.11406, -1.16171, -0.68721, 0.206225, -1.43521, 1.08958, 1.09851, 0.042691, -2.90162, 0.036529, 0.493734, -0.924087, -0.928862, -1.36289, -0.371042, 1.86831, 0.838088, -0.253751, 0.024476, 0.419205, 0.558641, 2.59027, -0.064241, -0.309242, 1.40347, 0.697597, -1.38845], [-0.750995, 0.041901, -0.772713, -0.084142, 0.593814, -0.142314, 0.043864, 0.322159, -0.192233, -0.096004, 0.337047, -0.118124, -0.04159, 0.358596, -1.0387, 1.12133, -0.042162, -0.069616, 0.656486, 0.248129, 0.559042, 0.18447, -0.407657, 0.227386, -0.047868, 0.12368, 0.100099, -2.34212, -0.244959, 0.233956, 0.033317, -0.01124, 0.018246, -0.006092, -0.14376, -0.066182, 0.38439, -0.10682, 0.600848, -0.304158, -0.207558, 0.059542, 0.09392, 0.084488, -0.010923, 0.577897, 0.359332, 0.014639, 1.13945, -0.36675], [-0.842389, 0.249643, -10.0289, 0.275484, 1.90447, -0.074799, -0.407416, -0.052926, 2.67348, 0.484516, 0.059477, 0.529034, 0.756082, -0.802695, 1.55333, -0.278617, 0.815429, -1.23109, 0.154485, -0.908063, 0.773974, 0.350433, -1.2659, -0.231222, 0.247111, 0.151516, 0.486623, -5.20847, 1.05997, 0.531747, -0.042624, 0.821023, 0.676644, -0.339486, -0.199325, 0.922635, -0.403923, 0.16963, -0.69953, 0.934625, -0.18791, 0.043497, -0.673106, 0.794519, 0.468176, -0.141032, -0.153081, -0.125665, 0.240043, 0.200721], [0.025964, 0.197432, -0.254344, 0.307229, 0.006761, -0.19237, 0.23316, -0.18808, -0.112391, 0.013136, -0.196441, -0.240008, -0.315286, 0.194415, 0.07457, -0.016312, 0.019581, -0.010894, 0.01292, -0.203996, 0.537198, -0.248291, 0.071909, -0.640549, 0.277255, 0.043705, -0.052873, -0.191114, -0.080053, 0.226669, 0.019313, -0.183496, 0.524531, -0.058888, 0.011653, -0.013565, 0.035482, 0.157091, 0.061733, 0.016395, -0.0245, -0.00931, -0.046278, 0.20166, 0.233827, -0.529788, -0.270985, 0.021724, -0.761122, 0.092055], [-0.787759, -0.217719, -0.156653, -0.299353, 0.144784, 0.731616, -0.407048, -0.203004, 0.011103, 0.127597, -0.824372, -0.366901, 0.51974, 1.19395, 0.49624, -0.672591, 0.399746, 0.376464, -0.20487, 0.049759, 1.76431, -0.21158, 0.02678, -0.650334, -0.20613, 0.270314, 0.113021, 0.332208, -0.240599, -0.708795, 0.028343, 0.08282, -0.916536, 0.217612, -0.372394, -0.616846, 0.012056, -0.142028, 0.311144, 0.496708, 0.018224, 0.023939, 0.317669, 0.050836, -0.096952, -0.132748, 1.01461, -0.378402, 0.672687, 0.652973], [0.166424, -0.235544, -0.463754, -0.377717, -0.352129, 0.133842, 0.040228, 0.040538, -0.411397, -0.145303, 0.314474, -0.141582, 0.070172, -0.44702, 0.244354, -0.986959, 0.158455, -0.508741, -0.082291, 0.025469, 0.089843, 0.013915, 0.133598, 0.17337, 0.148371, -0.157002, -0.398863, -0.325617, 0.140141, -0.264334, 0.022163, -0.762273, 0.535311, 0.127302, 0.403507, -0.206001, -0.147028, 0.068109, -0.081444, -0.013992, 0.141478, 0.029547, 0.411446, 0.217307, 0.738118, -0.4734, 0.084102, -0.023049, 0.715836, 0.1602], [0.050665, 0.310121, 0.206879, -0.530454, 0.906434, 0.243214, 0.329068, -0.24073, 0.143544, -0.062969, -0.380049, 1.03028, 0.070979, 0.327583, 0.749495, -0.231414, 0.084083, -0.467426, -0.015231, 0.039157, 1.09662, -0.31576, 0.471704, 0.242802, 0.013671, 0.513024, 0.002957, 0.269236, -0.010835, 0.649543, 0.012397, 0.125002, 0.268289, -0.370125, -0.06865, -0.016423, 0.456954, -0.229058, -0.848699, 0.009245, 0.399192, 0.021728, -0.220061, 0.060004, -0.807211, -0.148847, 0.052205, -0.619015, 0.435431, 0.076673], [-0.201366, 0.060634, -0.215708, -0.135825, 0.26906, -0.056267, -0.003053, -0.005225, -0.215796, -0.063434, -0.290377, 0.12816, -0.365733, 0.042992, 0.258699, -0.338476, -0.25801, 0.045395, 0.08959, 0.066572, -0.071782, -0.269561, -0.231242, -0.023865, 0.732693, 0.281072, 0.207217, -0.760571, 0.22894, 0.286657, 0.023404, 0.072748, -0.032707, 0.040292, -0.031868, -0.027946, 0.01775, 0.213372, -0.175361, -0.219284, 0.032061, 0.010414, 0.363488, -0.095007, -0.519129, 0.077764, 0.094256, -0.007021, 0.424067, -0.529998], [-0.350279, -0.419877, -0.424886, 0.779277, -0.574833, 0.020451, 0.210073, 0.208815, -0.306153, 0.886397, 0.697394, -1.07556, -0.042821, -0.237742, -0.40734, -1.44919, 0.017601, -0.008224, -0.32094, -0.088036, -0.684314, 0.476765, -0.128972, -0.564764, -0.047573, -1.08756, 0.226005, -0.073961, 0.06198, 0.077441, -0.02126, 0.323087, 0.001427, 0.672624, 0.157138, 1.07547, -0.509786, -0.132301, 1.15254, 0.314718, -0.390195, 0.036972, -0.200313, 0.155245, 0.747965, -0.236755, -0.104136, 0.993246, -0.052564, -0.455612], [-0.298193, 0.093109, -0.377982, 0.392017, -1.09172, -0.010794, -0.451887, -0.159757, 0.615595, 0.376666, 0.116146, 0.25697, 0.104647, -0.164205, -0.714508, -0.384338, 0.435799, -0.00537, -0.275529, 0.328433, 0.492898, -0.228936, 0.085556, 0.15165, 0.740128, 0.174529, -0.251932, 0.132074, 0.012553, 0.629804, -0.006136, 0.725067, 0.422465, -0.139854, -0.711293, -0.119663, -0.256392, 0.154999, -0.37039, 0.048253, -0.01112, 0.020158, -0.064122, 0.015125, -4.12939, 1.02534, 0.175682, 0.169817, -0.267884, 0.146639]], [[0.80067, -1.78095, 0.521429, 0.929711, 0.020313, 0.980173, 0.006668, -0.021151, -1.13066, -0.820263, -1.219, -1.80262, 0.932854, 0.547242, 0.232711, -0.007876, 0.30975, -0.929653, 0.221517, 0.055225, 0.869585, 1.12616, -0.670445, -1.7419, 0.806021, -0.492349, -0.607227, -1.82519, 0.009225, 0.066604, -1.42993, -0.598978, -0.784663, 0.644358, -1.34289, 0.348416, 1.06267, 0.503782, -0.266041, -0.036398, -0.259689, -2.08997, -0.187849, -0.174153, 1.61439, -0.779412, 0.011444, -1.23536, 0.010494, 0.294793], [0.665486, -0.207763, -0.076516, 0.343971, -0.400315, 0.122219, 0.022531, 0.046014, -0.834896, 0.046503, 0.241085, 0.142832, 0.158202, -0.151863, 0.406986, -0.071314, -0.157159, 0.606298, 0.390956, -1.21927, -2.18132, 0.023227, -0.17769, 0.712772, 0.018869, 0.019488, 0.192324, 0.159856, -0.125404, -0.163653, 0.105375, 0.445453, -0.119504, 0.067923, -0.220122, 0.37422, -0.211251, 0.538992, 0.514139, 0.027086, -0.140685, 0.959104, 0.590864, -0.619412, 0.198808, 0.459486, -0.145329, -0.472805, 0.070416, -0.019493], [-2.95792, 0.220897, -0.008241, 0.055007, -1.01419, 0.176372, 0.028946, -0.471091, 0.322436, -0.377166, 0.457784, -0.031313, 0.661842, -0.125068, -0.237276, 0.009904, 0.129523, -0.25768, -8.1982, -0.373123, -0.152351, -1.74686, 0.845505, -1.62283, 0.200021, -3.84397, 0.680588, 0.249838, 1.32759, -0.155541, -0.280509, -0.531022, 0.144756, 0.105428, -0.201185, -0.147759, 0.160655, -0.055211, -0.291568, -0.027827, -0.105102, -2.65004, -3.37452, -0.031533, 0.947355, -1.55239, 0.069797, 0.320532, -0.05078, -0.797099], [-0.456392, 0.102473, -0.050734, -0.07547, -0.23945, -0.058423, 0.012192, 0.091378, 0.167971, 0.023799, -0.016093, 0.137865, -0.198327, -0.168646, -0.234038, -0.011333, 0.00365, -0.471232, -0.425343, -0.191955, -0.361663, 0.15956, -0.019666, -0.528603, 0.427548, -0.17445, -0.219069, 0.610629, 0.034488, -0.260888, -0.135914, -0.019618, 0.079307, 0.185141, -0.041096, 0.060361, -0.007468, -0.225121, 0.36673, 0.028039, -0.041243, -0.28815, -0.083324, -0.165056, 0.043906, 0.182492, -0.169033, 0.269506, -0.04843, 0.09628], [-1.37309, 0.088532, 0.438576, -0.132786, 0.157923, 0.156071, -0.030322, -0.084548, -0.444996, 0.548611, 0.781508, 0.197181, -0.23487, -0.490676, -0.191447, 0.012103, 0.21506, 0.66651, 0.746406, -0.103887, 0.218155, -0.057767, 0.545669, 0.264041, -0.343387, -0.264119, 0.331057, -0.65088, 0.580621, -0.66962, -0.015578, -0.583596, -0.5538, -0.300456, 0.204616, 0.062346, 0.019249, 0.47948, -0.034694, 0.035016, -0.296271, 0.253858, 0.165375, -0.249687, 0.06884, 0.091945, 0.191799, 0.544265, -0.305071, -0.09116], [-5.1621, -1.06962, 0.31214, 0.070945, -0.088391, 0.114716, 0.012355, -0.849298, -0.495826, -0.336365, -1.37138, 1.05007, -2.65947, -0.251909, -1.26553, -0.039953, -0.180214, 0.952413, -0.233908, 0.599731, -2.42484, 0.237433, 0.289071, -0.265551, -0.079417, 0.649222, 0.539319, 0.751741, -2.33282, 0.010142, 0.156961, -0.145505, 0.164439, -1.13238, -0.071688, 0.276933, 0.66296, -1.10706, -0.118541, -0.013387, -0.184283, 0.146215, 1.12412, 0.119166, -0.910333, -0.071582, -0.862746, 0.261068, -0.110591, -0.734856], [-1.99039, -0.813315, 0.085577, -0.848224, 0.785509, -0.593756, 0.016358, -1.75875, -0.148136, 0.900326, -0.249461, -0.60362, -0.744639, -0.751698, 0.508004, 0.006376, -0.036911, 1.46395, -1.1087, -0.69998, -8.1054, 0.381575, 0.764939, -0.931077, -0.663587, -0.011938, -0.746936, -0.148522, 1.36122, -0.252227, 0.0924, -0.071287, -0.27824, -0.375162, 0.092156, 0.444671, 0.071915, 0.253626, -0.233335, 0.041164, 0.194926, -0.668147, 0.554265, 0.267116, -1.00055, -0.145152, -1.01294, 0.927852, -0.198206, -0.465137], [0.322343, -0.915931, 0.060456, 0.120153, -0.09568, -0.43378, 0.022868, -0.002322, -0.028519, -0.018366, -0.285971, 0.146942, 0.562831, -0.01477, 0.615556, 0.039856, 0.006124, -0.396997, -0.283767, 0.470392, -1.13612, -0.130937, 0.302764, 0.208699, -0.776791, -0.486311, 0.534979, 0.185414, 0.477596, 0.046189, -0.39133, -0.576769, -0.272716, -0.824558, -0.223438, -0.194376, 0.018167, -0.182505, -0.164234, -0.007687, -0.08054, 2.04718, 0.735637, -0.177045, 0.141445, 0.068511, 0.164776, -0.2889, 0.236863, -0.109849], [0.3651, -0.003326, -0.529991, -0.17945, 0.296226, 0.152283, -0.030063, 0.52242, 0.311883, 0.624826, 0.313005, -0.713187, -0.000291, -0.453832, -0.088992, 0.033899, 0.206365, -0.357562, -0.25903, -0.390644, -2.16184, -0.182668, -0.239764, 0.681356, 0.726146, -0.449956, 0.241899, 0.156348, 0.301246, -0.42327, 0.1173, 0.141121, -0.047547, 0.051724, -0.327282, -0.298961, 0.06304, 0.235625, -0.444149, -0.002575, 0.127253, -1.52005, 0.015398, 0.141377, -0.579817, -0.281323, -0.006815, -1.53761, -0.050339, -0.831155], [0.226787, 0.193021, -0.362204, 0.01611, -0.05022, 0.02037, -0.00293, -0.125145, 0.084933, 0.382019, 0.059258, 0.032295, 0.021397, 0.146311, -0.021028, 0.024937, 0.077902, 0.062995, 0.124075, 0.049837, -0.053015, -0.177663, 0.049628, 0.205028, -0.423128, -0.025319, -0.246784, 0.184652, 0.090058, 0.108105, 0.029793, -0.132512, 0.229335, -0.168947, 0.095978, -0.01945, -0.058635, -0.146224, -0.13417, 0.023374, 0.008878, -0.248426, -0.008708, 0.003918, -0.123196, 0.084761, 0.088825, 0.057399, 0.143303, 0.097251], [0.259153, -0.053527, -0.138168, -0.233715, 0.140202, -0.016654, 0.006445, 0.090353, -0.02131, 0.265458, -0.050593, -0.021308, 0.4214, -0.102749, 0.54182, -0.002758, 0.145117, -0.029305, 0.020046, -0.213032, 0.676463, -0.066152, 0.087169, 0.023759, -0.142263, -0.137816, 0.320574, 0.065149, 0.024844, -0.194292, -0.426132, -0.098711, 0.111598, 0.118476, -0.413628, 0.422075, 0.052031, -0.097671, -0.173014, 0.016977, -0.095873, 0.428912, 0.179315, 0.210033, 0.124578, -0.023319, -0.04805, -0.070267, 0.009849, -0.103231], [-0.994447, -0.045091, 0.130905, 0.109163, -0.124775, 1.06385, 0.0252, -0.025701, -0.123889, -0.468893, -0.071298, -0.455638, -0.090378, 0.342221, -0.129113, -0.033126, -0.015046, -0.200724, -0.059883, -0.105009, -2.29636, 0.043564, -0.111538, -0.1072, -0.946057, 0.080486, 0.534072, -0.137916, 0.38526, 0.121345, -0.136562, -0.706786, -0.33998, 0.947954, -0.289222, 0.010268, 0.04747, 0.077974, 0.143752, 0.049282, -0.024968, 0.021141, -0.303187, -0.382785, 0.703558, -0.623372, -0.003162, -0.202298, -0.03117, 0.096921], [0.021294, -0.025182, -0.050392, 0.015858, -0.06164, -0.024451, 0.043582, 0.011444, 0.018529, 0.0356, -0.075583, -0.012023, 0.005489, 0.023475, -0.031335, -0.026441, -0.048007, 0.031591, 0.00887, -0.046908, 0.021429, -0.030533, -0.032541, -0.041973, -0.042098, 0.030843, 0.01226, -0.046749, 0.017313, -0.060566, -0.03845, -0.040955, -0.03616, -0.021276, -0.026855, -0.006756, -0.047741, -0.00924, -0.007684, 0.014593, 0.009029, -0.007687, 0.000805, 0.046895, 0.02403, -0.046601, 0.019255, -0.040968, 0.031109, -0.049205], [0.192118, -0.053544, -0.185688, 0.426589, -0.099396, -0.048195, 0.037441, -0.013748, -0.025814, -0.243482, -0.437389, 0.151398, 0.319166, -0.702788, 0.036974, -0.001412, 0.006241, -0.271721, 0.08069, 0.266272, -0.302618, 0.141869, -0.61944, 0.455411, -0.068377, 0.279285, 0.115498, -0.073923, -0.439735, 0.326757, 0.002542, -0.009435, 0.05676, -0.045924, -0.254392, -0.134003, 0.093164, -0.030863, 0.128424, -0.012689, 0.124684, 0.000324, 0.09909, 0.338866, 0.306341, 0.114651, 0.085503, -0.357271, 0.003502, -0.342996], [-0.235384, 0.060951, 0.192678, 0.169026, 0.138581, -0.12491, 0.01911, 0.090817, -0.680589, 0.345412, 0.099575, 0.358165, 0.377068, -0.354563, -0.184773, 0.016152, 0.125225, -0.683386, -0.396019, 0.056816, 0.36124, 0.330548, 0.359347, 0.077156, 0.185136, -0.244348, 0.293996, 0.01579, 0.108684, -0.05084, -0.083818, -0.09438, -0.295236, 0.276614, -0.177758, 0.265088, -0.482375, 0.062598, 0.378112, -0.03946, -0.509672, 0.2186, -0.209916, 0.299253, 0.080793, 0.408419, -0.334705, 0.596255, -0.486276, 0.116538], [0.041088, -0.246984, -0.140673, -0.148964, 0.100254, -0.187925, 0.010949, 0.060315, -0.028277, -0.008804, -0.11743, -0.014193, 0.330094, 0.028427, 0.268224, 0.023489, 0.168432, -0.372929, -0.165597, 0.15265, 0.18254, -0.142781, -0.189691, -0.080576, 0.487134, -0.089826, -0.590443, -0.023936, 0.051323, 0.008268, -0.355409, -0.300795, 0.021307, -0.286302, -0.354387, 0.111552, 0.052947, -0.00327, -0.141833, -0.003429, -0.090433, 0.146876, 0.091289, 0.355795, 0.130742, 0.274758, 0.082273, -0.265821, 0.069664, -0.024937], [-0.69932, 0.862031, -0.43512, 1.22246, -0.129463, -0.082962, 0.022593, 0.040146, 0.146657, -0.077045, 0.989287, 0.109259, -1.48668, -0.030252, -0.286838, 0.004473, -0.337989, 0.202883, -0.170677, -0.405414, 0.804809, 0.464643, -0.116198, 0.238598, 1.62225, -0.882375, -0.290177, 0.733935, -2.19132, -0.393416, 0.168371, -0.510121, -1.04376, -0.038152, -0.743784, 0.207353, -0.002065, -1.49921, 0.675397, -0.027602, -0.42152, 0.955405, -0.562644, 0.417731, -0.277978, -0.150281, -0.056107, 0.408257, -0.286353, 0.489255], [-0.250923, -0.238361, 0.341246, -0.040163, 0.1346, 0.026007, 0.047841, -0.61243, -0.026797, -0.059341, 0.369503, 0.242264, 0.313819, -0.087923, -0.136833, -0.006226, 0.164586, 0.048027, 0.404785, -0.194851, -0.533822, -0.12578, 0.408941, -0.241589, 0.282831, -0.0492, 0.17375, -0.246794, -0.201405, -0.037218, 0.08543, -0.049189, -0.245956, 0.089616, -0.146031, -0.045141, 0.098156, -0.026582, 0.197561, 0.042785, -0.171359, -0.273079, -0.279764, 0.352354, -0.054295, -0.087983, -1.12815, 0.173244, -0.005164, -0.079482], [0.02365, -0.743177, 0.103178, 0.132165, -1.1005, -0.333774, -0.012107, -0.149699, 0.550842, 0.438559, 0.255652, 0.287737, -0.72911, 0.339612, -0.064355, -0.012909, -0.818529, 0.028487, 0.31519, -0.055124, -0.680789, -3.28097, 0.340612, -0.208471, -2.5038, 0.33453, 0.011402, 0.436022, 0.294751, -0.14019, -0.247637, -1.77455, -0.977756, -0.269016, 0.093478, 0.137235, -0.089493, -0.281492, -0.422654, 0.028634, -0.262785, -2.0616, -1.78326, -0.282324, 0.010512, 0.187927, -0.150198, 0.35188, -0.31658, 0.059155], [0.564545, -0.528234, -0.475079, -0.389451, 0.34053, -0.162627, 0.01278, 0.01719, -0.77164, 0.253548, 0.812238, -0.437058, 0.037453, -0.466482, -0.246902, 0.016381, 0.612139, -1.74171, -0.214874, -1.30171, -4.28171, 0.046754, 0.930467, -0.455017, 1.2469, -0.2852, -1.52394, -0.89368, -1.27827, 0.157415, 0.158342, -0.860671, -0.361635, 0.316024, -0.344452, -0.106095, 0.316406, -0.253258, -1.16231, -0.00847, 0.107877, -1.16132, -0.493766, -0.3127, -0.557164, -0.04622, 0.185362, 0.420175, 0.167973, 0.462277], [0.681148, 0.389644, -0.144037, -0.323166, -0.285616, 0.007134, -0.025187, 0.196112, 0.293743, -0.201221, -0.075851, -0.002222, 1.34084, 0.101828, 0.310086, 0.024305, 0.007088, -0.41455, -0.036248, 0.266508, 1.69514, 0.27875, -0.162323, -1.26489, 0.11243, -0.291545, -0.373693, 0.507344, 0.621903, -0.098277, -2.35579, -0.01747, 0.142939, -0.373294, -0.420015, 0.173479, -0.016539, 0.009349, -0.084669, -0.042412, -0.110385, -0.228988, 0.208425, 0.297569, 0.263711, -0.158035, 0.053543, -0.058633, -0.097992, 0.165506], [0.067428, -0.056029, 0.203881, -0.065232, 0.100699, -0.025504, -0.014497, -0.142263, -0.184419, 0.031262, -0.182867, 0.019868, 0.15441, 0.014341, -0.086636, -0.011227, 0.334826, -0.088243, -0.160615, -0.126629, 0.007393, 0.089434, -0.042701, -0.095251, 0.086082, -0.064602, 0.294347, 0.288731, -0.062415, 0.104059, 0.016215, -0.04214, 0.026571, 0.150161, -0.228617, 0.12736, 0.112336, -0.027812, -0.068964, 0.031098, -0.059182, -0.064906, 0.085195, 0.02836, -0.125684, 0.426317, -0.026053, 0.009354, 0.011694, -0.276146], [0.080704, 0.001984, -0.204348, -3.49358, -0.35474, -1.51309, 0.015956, 0.491387, 0.117078, 0.538365, -0.024633, 0.399861, 0.934536, -3.58431, 0.151547, -0.057713, 0.053939, -0.230824, 1.58058, 0.528992, -3.28869, 0.252037, -0.581996, 2.12644, 0.137459, 0.618672, 0.103144, 0.156071, 1.16383, 0.003954, -0.42811, -0.742372, -0.74869, -0.88068, -0.04699, 0.076191, -0.14578, 0.457793, -1.32211, -0.030528, 0.080758, 1.82804, -0.571365, -0.081045, 1.0865, -0.978253, 0.197932, 0.587296, -0.366726, -0.571091], [-0.347804, -0.064276, 0.238997, -0.19751, -0.018373, -0.013628, -0.01017, -1.46789, -0.473456, -0.099324, -0.196791, 0.340549, -0.698833, -2.20842, -0.775727, 0.022355, -0.092255, 0.184169, 1.69481, 0.160054, -0.523358, 0.213415, 0.102166, 1.04663, 0.624987, -0.085925, -0.282492, 0.149744, 0.126244, -0.16573, 0.38972, 0.437287, -0.343558, -0.135283, -0.290619, -0.006334, 0.278954, 0.073905, 0.58606, 0.005744, -2.01504, 0.711977, -0.709938, 0.816449, 0.232637, 0.249781, -0.913946, 0.136783, -1.8477, 0.023913], [0.180961, 0.199502, -0.206067, 0.21734, -0.192, 0.515557, -0.001712, 0.577648, 0.222656, -0.978473, -0.24019, 0.276745, -0.417502, -0.066448, -0.568913, -0.020701, 0.067839, 0.264637, 0.639115, -0.679411, 0.522119, 0.293822, -0.47837, 0.240877, -1.07015, -0.196408, -0.560964, -1.4189, -0.429368, 0.112793, -0.082405, -0.464676, -0.216152, 0.273481, -0.04884, 0.112635, -0.338901, 0.001004, 0.889164, 0.016385, 0.021739, 0.755324, -0.525429, 0.339698, 0.42086, 0.176658, -0.050241, 0.089151, -0.280958, -0.941399], [0.06496, -0.123954, 0.155173, 0.134209, 0.09715, -0.042316, -0.035494, 0.039436, -0.017803, 0.184928, -0.036533, 0.121292, -0.019801, -0.072321, -0.143597, -0.018022, 0.047393, -0.586867, 0.033522, -0.052349, 0.005212, -0.090402, 0.039229, 0.134865, 0.021227, -0.089452, 0.169023, -0.076421, 0.070349, 0.068081, -0.069293, -0.391858, -0.132089, -0.03972, -0.09654, 0.086006, -0.160377, 0.04481, 0.231723, -0.008243, -0.155741, 0.081945, 0.056796, 0.11939, 0.04374, 0.214943, -0.134979, 0.299533, -0.129834, 0.110188], [-0.750254, -0.786439, 0.160539, -0.560723, 0.420597, -0.135396, 0.014348, -1.0938, 0.427023, -0.607084, -0.323374, -0.141191, 0.299711, 0.868457, -0.287136, 0.026845, 0.095418, -0.145504, -0.976072, -0.583365, 0.436205, -0.14172, 0.547063, -1.20852, 0.660134, -0.10738, -1.34598, -0.936479, 0.765525, 0.059775, -0.165981, 0.189301, -0.139967, -0.062763, -0.283733, 0.286145, 0.032281, -0.027544, -0.462868, 0.008252, -0.417833, -0.907314, -0.369162, -0.015043, -0.275842, 0.080764, -1.68003, 0.344115, -0.616274, -0.096194], [-0.009798, -0.898398, 0.032452, -0.41161, 0.455789, -0.839903, 0.012861, -0.797807, 0.336446, 0.23518, -0.644719, -0.128058, -3.37896, -0.111563, 0.278887, 0.012067, -0.795783, 0.325261, -0.33868, -0.819815, -0.80668, -1.02091, 1.27891, -0.302245, 0.48724, -0.651396, 0.074206, 0.33633, -1.35645, -0.185184, -0.229686, -0.298472, -0.617085, -0.089389, 0.10692, 0.620451, 0.066884, -0.796652, -0.185458, -0.017094, 0.139629, 0.987765, 0.010936, -0.282961, -0.457155, 0.601751, -0.25888, -1.24306, -0.69438, -0.107483], [0.043472, 0.754994, -0.104541, -0.430972, 0.138605, 0.663668, -0.039473, -0.011551, 0.099124, -0.165145, -0.149271, 0.033519, 0.303824, 0.10783, -0.469802, 0.001386, -0.159232, 0.523415, -0.207636, -0.430037, 0.472224, -1.02601, -0.616886, -3.04499, -0.40284, -0.172558, -0.550925, -0.391409, -0.315615, 0.391886, -0.49945, -0.119676, 0.479003, 0.178558, -0.245864, 0.397849, -0.160082, 0.017069, 0.253266, -0.001081, -0.074135, -0.224676, 0.072292, -0.020641, -0.095073, 0.582139, 0.009056, -0.034447, 0.05025, 0.080025], [0.076099, 0.936051, 0.228869, -0.346196, 0.044183, -0.713718, -0.016249, 0.10449, 0.118401, 0.238572, -0.164858, 0.220951, 0.15334, -0.177701, 0.357644, 0.002635, -0.0541, 0.057814, 0.223786, 0.060657, -3.72431, 0.093921, 0.315683, 0.047405, 0.412165, -0.05799, -0.252135, 0.026959, 0.201715, -0.161736, -0.259716, 0.216396, 0.045414, -0.023001, -0.318199, 0.102024, -0.022076, 0.209719, 0.383594, -0.028032, -0.06377, 0.608235, 0.348832, 0.336216, 0.011161, 0.350219, -0.034151, 0.208188, -0.041551, 0.081898], [-0.608111, -0.096412, 0.200817, -0.13711, 0.037748, -0.166163, -0.015538, -0.37443, -0.191102, 0.178558, 0.089362, 0.263404, -0.125198, -0.269494, -0.32975, -0.037626, 0.219549, -0.001265, 0.157782, -0.076692, -0.300716, -0.122374, 0.334112, -0.122132, 0.08221, -0.051742, 0.093696, 0.235353, 0.316794, -0.032704, -0.059326, -0.180486, -0.052081, -0.139739, -0.27838, 0.145209, 0.08425, -0.064245, 0.2084, 0.036571, -0.194557, 0.22418, -0.003223, 0.129393, -0.02131, 0.504919, -0.37845, 0.27156, -0.300868, 0.104726], [0.043942, -0.339724, -0.247571, -0.049388, 0.040598, 0.013172, -0.053523, -0.082097, 0.015359, -0.089257, -0.106333, 0.075098, 0.38705, -0.063224, 0.08413, -0.050336, 0.06553, 0.054541, -0.230996, 0.205582, -0.988373, 0.054333, -0.097456, -0.294838, -0.167624, -0.007378, -0.438135, -0.003435, 0.135295, -0.068701, 0.021869, 0.058146, 0.048232, -0.199807, -0.129312, 0.019513, 0.003654, -0.04908, 0.152152, 0.025069, 0.004209, -0.262932, -0.294083, 0.418271, 0.076232, -0.066418, -0.106726, 0.147831, -0.063719, -0.522906], [-0.695212, -2.50971, -0.196724, 0.226084, 0.089513, 0.033465, -0.02248, 0.254024, -0.615068, -1.07026, 0.16445, -0.245404, -0.357751, -0.169423, 0.242338, 0.042838, 0.367577, 0.496781, 0.487997, -0.167648, 0.490469, -0.574875, -0.2844, 0.282234, -0.123007, 0.037049, 0.00278, -1.74894, 0.514134, -1.22447, -0.172641, -0.285259, 0.118244, 0.605394, 0.253876, -0.303078, 0.412527, 0.318557, 0.295871, -0.01147, -0.078487, 0.624962, -1.42862, -0.710321, 0.374265, 0.237185, -0.392223, -0.261597, -0.332837, -1.5539], [-0.795229, 0.194377, 0.145939, -0.031346, -0.003583, 0.11918, 0.008249, 0.121953, 0.236622, -0.068338, -0.967277, 0.033726, -0.061235, 0.032636, -0.576362, -0.014419, -0.097929, -0.01183, 0.021255, -0.433334, 0.661834, 0.41351, -0.512558, -0.316937, 0.162629, -0.110318, 0.674457, -0.112103, -1.02778, -0.427092, -0.034289, -0.103491, 0.117524, -0.167042, -0.190969, 0.086803, 0.437588, -0.035075, 0.126238, -0.037835, 0.093386, -0.095102, 0.197673, 0.137433, 0.0574, 0.079024, -0.550963, 0.123863, -0.247783, 0.090182], [-0.206866, 0.251245, -0.215347, -0.055586, 0.004102, 0.355254, -0.009825, 0.162715, 0.028959, -0.207568, 0.034431, -0.083641, 0.028377, -0.068355, -0.001405, -0.019598, 0.075572, 0.138739, 0.114547, -0.052577, -0.509518, -0.015658, -0.038186, 0.138411, -0.012858, -0.060548, 0.940665, 0.21725, 0.38219, -0.04485, -0.154734, 0.262192, 0.101141, -0.307479, -0.108706, 0.12988, -0.097903, 0.077883, -0.00208, 0.033864, -0.013343, -0.176326, 0.092782, 0.064043, 0.066866, -0.180964, 0.008613, 0.00922, 0.055218, 0.172154], [-0.222229, 0.279789, 0.17296, 0.021645, 0.1218, -0.104503, -0.02163, -0.11659, 0.107199, -0.280137, -0.007107, 0.067661, 0.149965, 0.14251, -0.098874, 0.041122, 0.085454, -0.032322, 0.244911, 0.106808, 0.064885, 0.048774, 0.101851, 0.166201, 0.363016, -0.030485, 0.654016, -0.252404, -0.09485, 0.151382, 0.053677, -0.514683, 0.003881, 0.007085, -0.257938, 0.070076, -0.062641, -0.100421, -0.364139, 0.002615, -0.095697, -0.125031, -0.133024, 0.383057, 0.00685, 0.41674, -0.202518, 0.379942, -0.011394, 0.06089], [-0.048395, 0.033304, -0.002764, 0.005617, -0.05101, 0.00042, 0.031511, 0.010553, -0.035813, 0.011286, -0.053394, -0.047961, -0.025087, -0.036069, 0.007181, 0.021406, -0.045762, 0.02018, -0.019555, -0.011156, 0.018783, 0.003402, 0.000498, 0.039757, -0.001491, -0.005552, -0.014958, -0.016802, 0.036795, 0.016071, -0.051914, -0.017389, -0.015231, -0.019821, -0.036644, -0.01598, -0.028563, -0.037705, 0.013268, -0.015746, -0.033229, 0.01237, 0.028922, -0.047139, 0.049243, -0.044641, -0.012814, -0.03229, -0.0589, -0.012795], [-0.173098, -0.22002, -0.296475, -0.111032, 0.097083, 0.264466, -0.009539, -0.0766, 0.039358, -0.086288, -0.186007, -0.004057, 0.01699, -0.152306, -0.362142, -0.015961, 0.290659, 0.301703, -0.422447, -0.025419, 0.200714, 0.111922, 0.097302, -0.173348, -0.020624, -0.005773, -0.163317, 0.164431, 0.104473, 0.047954, -0.357228, 0.080431, -0.119269, -0.029436, 0.029219, -0.009092, 0.163336, 0.232093, -0.292777, 0.0355, -0.050218, -0.553742, -0.322218, -0.196193, -0.035639, 0.546723, -0.232736, -0.25708, -0.157007, -0.137279], [-0.288661, -0.020942, -0.022607, -0.183978, 0.068526, 0.050943, 