{"number_of_layer": 8, "number_of_neurons_each_layer": [5, 50, 50, 50, 50, 50, 50, 5], "weight": [[[0.008766, -0.195839, -0.768201, -0.316726, 0.216877], [-0.029739, 0.870108, -0.237032, -0.403549, -0.434696], [0.021495, -0.078584, 0.121503, 0.793447, -0.926096], [-0.022038, -0.08557, 0.10328, 0.64232, -0.648112], [0.074137, -1.47883, -0.13845, 0.308309, -0.544794], [0.088217, 1.21099, -1.38618, 0.278092, -0.37304], [-0.015411, 0.330284, -0.19808, -1.27317, -0.795018], [-1.06114, -0.023809, -0.009219, -0.290451, 0.008149], [-0.011712, -0.369105, 0.940785, 0.057605, -0.598175], [-1.64359, -0.014443, 0.017476, -0.049445, 0.096617], [0.002125, 0.001411, 0.000467, 0.00583, 0.00014], [-0.032536, 1.15473, 0.920167, 0.688718, -0.502695], [-0.469433, -0.085638, 0.175428, -0.104633, -0.229818], [0.056646, 1.09845, -1.10816, 0.029981, -1.41422], [0.008215, -0.13645, -1.71025, -0.008363, -0.009961], [-1.4714, 0.057929, -0.085138, 0.018414, 0.007025], [-1.48927, 0.064742, -0.077327, 0.041211, -0.189844], [-0.611732, 0.157377, -0.643196, -0.444584, 0.345056], [-0.028622, -0.934837, -1.09729, 0.67031, -0.308242], [-0.444146, -0.004929, -0.01614, -0.89487, -0.467808], [-0.822296, 0.218042, -0.144015, 0.09412, -0.008778], [-0.134567, -0.203231, 0.354483, -0.403496, -1.04403], [-0.023778, -0.05351, -0.48849, 0.357084, -0.857541], [0.05332, -1.20425, 1.5021, -0.093706, 0.582317], [-0.061686, 0.597902, -0.629215, -0.106125, -1.47699], [-0.97911, 0.442266, 0.015465, -0.229768, -0.720305], [-0.769416, -0.240021, 0.146707, 0.028071, 0.034581], [0.006365, -0.261511, 0.223119, -1.10018, 0.626429], [-0.0085, 0.350994, -0.373907, -1.15068, -0.8186], [-0.140555, 1.8929, -1.65011, 0.057453, 0.323332], [-0.055911, 0.015438, 0.842489, -0.035875, 0.046202], [-1.52377, -0.081571, 0.079295, -0.005772, -0.004431], [-0.123047, 0.880306, -1.04157, 0.035138, -0.620273], [0.059003, -0.022155, 0.864671, 0.048037, -0.096986], [-0.299685, -0.910538, 1.00354, -0.058705, -0.256869], [0.749159, -0.013987, 0.02474, 0.284717, -0.615255], [0.011021, 1.26483, -1.35735, 0.092098, 0.098115], [-0.04995, 1.49026, 0.045906, 0.231723, -0.006323], [-1.72467, 0.098029, -0.024441, 0.028385, -0.049618], [-1.0424, -0.29514, 0.321732, 0.119413, -0.010196], [0.00382, 0.840537, -0.869434, 0.09986, -0.014164], [0.093206, 1.5899, -0.01461, 0.155906, -0.248674], [-0.145598, -0.088549, -0.079313, 0.761487, 0.21899], [0.008712, 0.306966, 0.079247, -0.423148, 0.097588], [-0.009404, -0.118621, 0.131868, -0.735048, -0.133551], [-0.04783, 0.033379, 0.00143, -0.244057, -1.87071], [-1.90297, -0.013913, 0.003019, -0.005956, 0.011778], [-0.031258, 0.423027, 0.105228, -1.48047, 0.190835], [0.123683, -2.43994, 0.91004, 0.074036, -0.319861], [0.38625, 0.001016, 0.004298, -0.827912, -1.16899]], [[1.10957, 0.44067, 0.451863, -1.26756, 0.444251, -0.020777, 0.442676, 0.560292, -0.326611, 1.36736, 0.041576, -0.197694, 0.072473, -0.087284, 0.160496, 0.000621, -0.170946, 0.554349, 0.059512, -1.36855, -0.12131, 0.461141, -0.249619, -0.987263, -0.508597, 1.94828, -0.777441, 0.27526, -0.204262, 0.847349, -0.110472, 0.452318, -0.629244, 0.160403, 1.4773, 0.124947, -1.97627, 0.33916, 0.236985, -0.675886, 0.078945, 0.186939, -0.876054, 0.625259, -0.096559, -1.47524, -1.66167, -1.35241, -0.507568, 0.19752], [-0.855688, 1.02261, 1.11372, 0.542093, 0.214538, 0.992387, -0.151581, 0.098704, -0.793004, -0.407183, 0.008505, -0.86937, 0.200273, 2.28343, -1.58186, -0.441605, 0.276309, 0.202538, -0.053137, -1.06938, -0.437348, 0.524542, -0.096893, 0.220218, 0.837326, -0.859814, -0.098966, -0.64714, -0.251456, -0.217758, 0.182486, 0.401048, 0.743241, 0.248177, 0.122758, -0.175729, 1.47823, -1.30716, -0.436345, -0.196427, -3.38123, -1.70489, 0.354603, 0.200462, -0.655025, -0.10032, 0.432557, -0.306393, 0.797627, 0.372199], [0.673027, -0.224642, -0.767489, -0.744439, 0.591819, -1.95534, 0.497251, -0.310694, -0.795382, 0.770536, -0.027, 0.818531, 0.36624, 0.102104, -1.43067, 0.768638, 0.088373, 0.023503, 3.12485, 0.737139, -0.082235, -1.48351, -0.590507, 0.582947, 0.131373, -0.430631, -0.184462, 0.010847, -0.003643, 1.04894, 0.493524, -0.052727, -0.041782, -0.062858, 0.515081, -0.082438, -2.20925, 1.21812, 0.24424, -0.136107, 0.12676, 0.509147, -1.33667, 0.410899, -0.089033, -0.305895, 0.769495, -0.173167, 0.686019, -0.166271], [-0.774076, -0.863613, 0.680299, 0.075339, -0.28318, -0.767822, -0.002637, -0.478929, 2.51104, 0.056522, -0.028526, -0.840986, -0.608699, 0.596356, 0.217105, 0.553627, 0.15772, -0.19541, -0.793878, 0.91327, 0.28192, 1.87871, -1.04347, 0.603825, 1.21542, -0.465123, 0.336838, -2.50119, -0.022458, 0.12021, 0.780718, -0.058584, 1.41258, -0.083807, 0.586987, 0.199475, -0.001554, -0.026108, -0.586633, -0.640198, -0.093005, -0.047137, 0.246293, -1.35208, -0.606253, 2.19663, 1.5498, -0.979523, -0.516965, 0.309952], [0.02297, -0.038302, -0.011044, -0.038685, -0.028129, 0.033769, -0.030563, 0.004765, 0.026499, -0.040621, -0.016127, -0.052064, -0.034042, -0.053232, 0.019662, 0.014388, 1.9e-05, -0.001515, -0.00337, -0.002561, -0.008976, -0.037028, -0.048497, 0.031526, 0.010706, 0.02046, 0.00838, -0.047037, -0.014953, 0.007643, -0.017386, -0.046568, 0.021733, 0.010412, -0.032906, -0.025855, -0.021199, -0.022176, 0.010737, -0.037723, 0.009553, -0.011774, -0.047868, -0.055433, -0.020696, -0.031409, -0.021304, 0.039379, -0.05477, -0.02078], [1.47747, 0.975101, -0.951836, -1.11574, 0.226433, -0.682055, 0.779455, 0.115197, -0.982163, 0.065095, -0.004563, 1.03452, 0.094423, -0.403189, -1.13484, -0.035592, -0.08803, 0.282731, -0.031393, -0.294546, 0.009287, -0.029166, -0.017876, -1.70042, -0.601959, 0.728016, -0.053111, 0.001978, 0.067561, -1.06682, -0.071469, -0.077313, -0.717675, 0.459038, -0.95328, -0.065931, -0.707457, 0.075491, 0.186831, -0.344835, -0.130695, -0.360077, 0.482873, 0.218766, 0.780568, -5.23686, -0.295127, -0.863583, -1.67808, 0.049744], [0.907718, 0.673189, -1.58259, -0.650916, 0.375276, 0.751534, 0.622568, 0.298005, 1.27561, 0.173545, 0.037681, 0.421961, -0.32801, -0.941629, -0.211759, -0.190309, -0.042423, 0.16405, -0.133077, 0.859364, -0.066303, -0.461022, -0.147425, 0.461942, -0.57218, 0.727658, 0.163002, -0.737636, 0.438124, 0.118002, -1.01808, 0.044944, 0.499784, -0.476828, 0.529126, -0.085613, -1.00541, -0.261182, -1.09517, -0.046031, 0.13181, -0.092305, -0.945724, 1.65133, -1.38033, -0.881603, 0.911839, -0.633891, 0.402844, -0.010659], [0.51777, -0.366896, -0.080515, -1.19668, 0.116615, 0.265451, -0.057399, -0.216125, -0.405848, -0.352677, -0.005658, 0.760454, -0.208179, -0.187326, 0.56922, 0.174195, -0.124769, -0.076743, 1.17117, 0.090735, 0.376273, -0.703619, -0.082923, -1.07857, 0.008131, -0.719797, -0.087333, 0.306983, 0.287258, -1.6682, 0.846168, 0.064538, -0.712603, 0.505405, -1.26727, -0.115315, -2.08878, 0.535652, -0.142454, 0.089854, 0.129446, 0.491925, 0.611807, 0.853776, 0.427928, 0.317609, 1.1742, 0.289158, 0.292485, 0.776608], [-0.380208, -0.339468, -0.144448, 1.80062, -0.176661, 0.306962, 0.239941, 0.338126, -0.621526, 0.575552, 0.005593, -0.336839, 0.301542, -0.70384, 0.296764, -0.435069, 0.328725, -0.05271, -0.041179, -0.017068, 0.052131, -0.77368, 0.689378, 0.348766, 0.667329, 0.77256, 0.162157, 0.150304, -0.448965, -0.586965, 0.496609, -0.020372, 1.30113, -0.090546, 0.718254, 0.011076, 0.574126, 0.971022, -0.189735, -0.153783, -0.391496, -0.620297, -1.20443, -0.619387, -0.61212, 3.28583, -0.47789, 0.322862, -0.293042, 0.084393], [-0.192206, 0.120691, 0.400534, -0.672129, 0.889987, 0.680266, 0.1214, 0.347414, -3.16557, 0.183464, 0.02815, -0.016715, 0.198708, -1.01892, 0.150012, -0.583362, 0.168511, -0.052237, 0.043152, 0.867027, 0.084874, -0.466781, 0.418712, -0.331847, -0.80417, -0.203519, -0.064617, 0.538267, 0.578572, -0.935976, -2.83678, 0.048852, -0.20283, -3.54737, -0.934894, 0.015452, -2.34732, -0.216482, -0.429764, -0.410042, -0.465075, -0.914192, 0.33508, 0.19226, 0.660147, -1.84384, -0.004443, 1.66237, -1.11984, 0.164582], [-0.267682, -0.974865, -0.314667, 0.245372, 0.221288, -0.140392, 0.187297, -0.192453, -0.331676, -0.965941, 0.006853, -0.000838, 0.428156, 1.71262, -0.999908, 0.175424, -0.262534, -0.073817, -0.357551, 1.127, -0.057163, 0.070633, 0.095959, 0.935519, 0.912437, 3.12925, -0.033521, -0.387368, 0.003058, 0.060156, -0.945628, 0.130647, -0.358364, -0.344053, 0.109395, -0.022095, -0.157907, -0.446194, 1.48144, -0.05092, -2.22475, -3.57464, 0.254887, -0.039369, -0.525452, -2.0234, 0.859754, 1.51127, 0.715164, 0.405155], [-0.109321, -0.112954, 0.225408, -0.174343, 0.153511, 0.179748, 0.009279, 0.311041, -0.030413, 2.27092, 0.032502, 0.126755, 0.085653, 0.135665, -0.012228, 0.804442, 0.816681, -0.01388, 0.056257, 0.71592, 0.203926, -0.058059, -0.041368, 0.040433, 0.079549, 0.213178, 0.379288, -0.037559, 0.077216, -0.071333, 0.006712, 1.06012, 0.07929, -0.01266, 0.038746, -0.112457, 0.044636, -0.136871, 2.18779, 0.322492, -0.256487, 0.10031, 0.175826, 0.096698, -0.113893, -0.491519, 4.53219, 0.081323, -0.111156, -1.40537], [-0.038402, -1.30926, 0.009706, -0.228871, 0.823421, 0.087941, 0.066625, -0.021646, 0.797277, -0.121789, -0.002456, -0.076858, -0.306107, 0.321397, -0.678839, -0.122368, -0.074513, 0.318261, 0.0224, 0.306844, -0.01711, 0.081179, 1.29169, 1.35738, -0.496623, -1.41185, 0.119506, -1.02786, 0.838785, -0.108452, -0.033767, 0.089541, 0.633831, 0.869231, 0.113214, -0.000973, 1.26016, -0.882652, 0.12853, -0.001055, -0.908996, -1.15304, -0.272028, -1.10742, -0.710528, 1.22979, 0.292253, 3.54457, -0.055463, 0.330604], [-0.241776, -1.11534, 0.478576, 0.181123, 0.588843, 0.105904, -0.056002, 0.729556, 0.172666, 1.7663, -0.012141, -0.268582, -0.618875, -0.031064, -0.392476, -0.480251, -0.392111, -0.185367, 0.290653, 1.0333, -0.495036, -0.797923, -0.430021, -0.279643, 0.601544, 0.025955, -0.879389, -0.373375, 0.646847, 0.235851, -0.686571, -0.429206, 0.201976, 1.23525, 0.131566, 0.683306, 0.144284, -0.054014, -0.0998, -0.438581, -0.70888, 0.372938, 0.448773, 1.19439, -0.122749, -0.394039, -0.375077, -0.179983, -0.404712, 0.22572], [0.208578, 0.868332, 0.574574, -0.568756, 0.359025, 0.227888, -0.144691, 0.816904, 0.028754, 0.480422, 0.009512, -0.444062, 0.198887, 0.09255, 0.294225, 0.3104, 0.456558, 0.358329, 0.55374, 0.974104, 0.176298, 0.062254, 0.309493, -0.048314, 0.443595, 2.03807, 0.498877, -0.998582, 0.228999, -0.038092, 0.000133, 0.922522, 0.05898, 0.276644, 0.066641, -0.278788, 0.576974, 0.00157, -2.02194, 0.282137, -0.796983, -0.45861, -0.368309, 0.251373, -0.579711, 2.019, 1.35396, 0.475218, 0.022727, 0.628897], [-0.043481, 0.01926, -0.129344, 0.043295, 0.054535, -0.179407, 0.005929, -0.0256, 0.161526, -0.022315, -0.026827, 0.022674, 0.008761, 0.064691, -0.229092, 0.01753, -0.042256, 0.005875, 0.002457, 0.093018, 0.079267, 0.130358, -0.014677, -0.175174, 0.114286, 0.131039, 0.02771, 0.064381, 0.015146, 0.140883, -0.018116, -0.034168, 0.094449, -0.15584, 0.092435, -0.193215, -0.140357, -0.051686, 0.054329, 0.019408, -0.217897, -0.108478, -0.037473, -0.148123, -0.013003, 0.003707, 0.037907, 0.080274, -0.210183, 0.026982], [0.087419, -0.335806, 0.568761, 1.31958, -1.02218, 0.647587, -0.496024, -0.665837, 1.15105, -0.098583, -0.036305, -0.301199, 1.1674, -0.156164, -0.026042, 0.467848, 0.476673, 0.067332, -0.251255, -0.606384, 0.554683, -0.134806, 0.239822, 1.23473, 0.190503, -0.108283, 0.655754, -0.299101, 0.084776, 0.80447, 0.36018, 0.61445, -0.103706, -1.13699, -0.392937, 0.16074, -0.145288, 0.59359, -0.548246, -0.165798, 0.445826, 0.260036, 0.061645, 0.606152, 0.298071, 1.17934, -1.22493, 0.730023, 0.081323, 0.479173], [-0.025892, 0.555772, 0.005988, 0.168263, -0.085411, 0.037962, 0.410636, -0.469647, -0.609816, 0.829626, -0.025477, -0.224408, 1.33374, -0.339463, 0.482154, 0.905119, -1.22078, 0.955609, 0.083136, 0.915566, 0.195396, 0.55119, -0.00274, -0.091679, -0.472495, -0.845964, 0.912397, -0.671127, 0.136766, 0.525563, 0.448909, 1.02681, -0.220996, -0.497174, 0.101322, 0.219977, -0.231242, 0.309614, -0.968242, -0.050619, 0.187293, 0.133876, 0.234941, -0.136984, 0.603067, -1.35786, 1.64602, 0.806286, -0.013476, -1.00754], [-0.239424, -0.256771, 0.513336, 0.348178, -0.390297, 0.159721, -0.115322, 0.154408, 0.660913, 0.068533, -0.017814, -0.242697, 0.043391, -0.067843, -0.299197, 1.3666, 0.783878, 0.292628, -0.336117, -1.66059, 0.581755, -0.644139, -0.022439, -0.325134, 0.425152, -0.538942, 0.355078, -0.01572, -0.208198, 0.069102, 0.515587, 1.2686, 0.360236, 0.212829, 0.460887, -0.255318, -0.196886, -0.050035, 3.0197, -0.150541, 0.480031, -0.224227, 0.002933, 0.226119, -0.134763, 0.356154, 3.84972, -0.705302, -0.472971, -0.287111], [-0.773872, -0.179057, -0.007093, 0.129264, 0.555021, 0.08721, 0.117103, 1.10683, 0.014606, -0.935649, -0.007572, -0.040835, 0.439629, -0.015307, -0.065069, 0.479252, 1.21768, 0.977808, -0.11214, -0.618119, 0.452174, -0.190462, -0.719686, -0.56694, -0.093055, 0.214404, 0.693137, 0.368398, 0.281707, 0.412391, -0.132518, 1.20374, 0.846529, -0.865963, 0.681688, -0.411775, -0.519403, 0.257817, -1.2642, 0.299191, -0.270601, -0.298903, 0.061739, 0.677995, 0.196981, -0.885331, 0.435478, 0.282296, -0.254813, -1.05259], [0.468259, 0.894455, -0.094601, 1.4512, 0.234469, 0.792901, 1.04314, -0.260329, 1.73548, 1.14909, -0.034422, -1.3567, -0.067637, -0.135226, 0.560544, -0.508261, 0.517133, -0.419348, 0.400737, 1.61592, -0.804348, -0.361316, -0.165953, -1.59317, 0.025141, 0.151155, -0.245339, 0.409772, -0.944656, -0.749438, -0.793989, 0.326829, -1.13595, -1.46476, 0.250272, 0.877773, 1.53757, -0.140973, -0.779882, 0.145264, 0.22658, 0.641667, -0.326894, 1.27042, 0.450866, 0.51574, -0.567518, 1.80644, -0.611557, 0.085843], [0.005144, -0.064909, 0.081061, -0.260688, -0.216707, 0.149521, 0.276528, 0.423875, -0.446522, -1.47579, -0.019385, 0.193966, 0.264493, 0.050071, -0.070004, 0.68356, 0.818169, -0.033829, -0.190445, 0.728065, 0.260727, 0.1781, 0.497386, 0.176211, 0.166866, -0.442564, -0.258897, -0.256784, 0.110597, 0.019751, 0.210816, 0.685343, -0.542378, 0.362143, -0.373213, -1.86804, -0.180245, -0.196233, 0.399329, -0.048603, 0.2673, 0.019242, -0.850372, -0.174627, 0.378453, -1.62352, 0.209409, 0.491721, 0.348945, 1.79937], [0.001054, -0.045485, -0.023079, 0.036316, -0.031106, -0.028551, 0.004968, -0.031851, 0.03277, -0.002607, -0.022893, -0.027579, -0.053267, -0.00509, -0.002915, 0.020977, -0.041801, 0.019692, -0.002801, 0.002122, -0.012407, 0.028396, 0.020398, -0.012581, -0.010932, -0.032355, 0.010233, -0.025352, -0.051094, -0.032409, -0.008226, 0.006887, -0.001238, 0.014226, -0.032474, -0.004624, -0.052071, -0.03085, -0.007198, 0.038639, -0.030013, 0.032875, 0.005496, 0.010803, 0.000145, -0.006783, -0.049692, 0.031801, -0.002393, -0.04062], [0.273615, -0.51175, -0.063703, -0.348329, 0.019434, 0.709621, -0.86755, 0.055611, 1.176, 1.16255, -0.009418, 0.156302, 0.035642, -0.614478, -0.075497, -0.000289, 0.408546, 0.736919, 0.416392, -1.38444, -0.239848, -0.762543, 0.682079, -0.654733, 0.464195, 0.185472, 0.614489, 0.260256, 0.109919, -1.24313, 0.535946, 0.371743, 0.381419, 0.165735, -1.47107, 0.328826, -1.6976, 0.27834, -1.17558, -0.165909, 0.00948, 0.626847, -0.157866, 0.3846, -0.418747, 0.779172, 1.05071, 0.12702, 0.054146, 0.567359], [-0.14412, 0.304543, 0.248138, -0.281681, -0.341612, 0.859204, 0.002752, 0.012804, -0.063165, -0.628364, 0.006608, -0.312069, 0.266053, 0.701668, -1.05374, -0.248926, 0.378055, -0.448642, 0.478274, 0.4236, -0.011718, -0.014277, 6.8e-05, -0.382227, 0.414552, -1.31343, 0.196663, -0.02835, 0.00778, 0.109008, 0.175307, 0.172659, -0.963343, -0.171641, 0.492711, -0.050355, 0.416855, -0.475722, -0.271584, 0.322077, -0.493238, 0.03355, -0.024174, 0.245279, -0.545484, 0.331364, 1.17231, -0.067442, -0.755901, -0.255325], [-0.014733, -0.002796, 0.011637, -0.028401, -0.058931, -0.029341, 0.026453, -0.030324, -0.03612, -0.037434, 0.018123, 0.0042, 0.020298, 0.001499, -0.001609, 0.016049, -0.040508, -0.022879, -0.021925, 0.035659, 0.013898, -0.05176, -0.037649, 0.025454, 0.006674, 0.033035, -0.025659, 0.000751, 0.030368, 0.030411, 2.9e-05, 0.030461, -0.002955, -0.040293, 0.021235, -0.038869, -0.029753, -0.038011, -0.003215, -0.016437, -0.031946, 0.035314, 0.030977, -0.022496, 0.017082, 0.000867, -0.009586, -0.053433, -0.026118, 0.011176], [-0.181579, 1.02864, 0.184754, 0.186705, -0.004526, 0.024772, 0.028673, 0.771644, 0.615219, -3.25306, -0.013863, -0.123009, -0.662015, -0.139859, -1.76463, -0.742043, -0.452651, -0.638694, 0.310116, -0.717819, -0.837281, -0.485878, -0.318865, -0.034647, -0.00435, 0.753906, 0.366498, -0.588083, -0.121762, 0.303273, -0.681271, -0.192866, 0.101661, 1.44873, 0.424941, -0.03837, 1.66514, -0.75825, -0.990651, -0.629685, 1.01078, 0.066428, -0.467585, 0.258229, -0.291943, 0.53767, -2.7566, 0.642201, -0.598747, 0.05308], [-0.075683, 0.568563, -0.384054, 0.643654, 0.024776, 0.460092, 0.053421, -0.004404, 1.34379, -0.079216, -0.034074, -0.041529, -0.108767, -0.107221, -0.880939, -0.301997, -0.112971, 0.286858, -0.181408, -0.134923, 0.337189, 0.454403, -0.095251, -0.234452, 0.614644, -0.186081, 0.228359, -0.083342, -0.14237, -1.60107, -0.2419, -0.051365, 0.324139, 0.45851, -0.055181, 0.037211, 1.16823, -0.175396, 0.835952, 0.546025, 0.507158, -0.24053, 0.147874, -0.129323, 0.097212, 1.53777, -0.540689, -0.169697, -0.495545, -0.107568], [0.099177, 0.43557, -0.902381, -0.01937, 0.139325, 0.293333, -0.313897, 0.206552, -0.369314, 0.462321, -0.013348, 0.686018, 0.161107, -0.324245, -1.40052, 0.733773, 0.0213, -0.279695, 0.205274, 0.661793, 0.407344, 0.512964, 0.550779, 0.057672, 0.093499, -1.74203, 0.200143, -0.345617, -0.202152, 0.090253, -2.50707, 0.824308, -0.04352, -1.00456, -0.273795, -1.27065, -0.352768, 0.257054, -0.282282, 0.575803, -0.442352, -0.184472, 0.388828, -0.22065, 0.486703, -3.50479, 1.03333, -0.519604, 0.131257, 0.341698], [-0.195161, 0.305185, -0.060973, -1.52579, 0.538801, 0.055534, -0.412339, -0.163045, 0.79537, -0.394275, -0.009512, 0.582132, -0.547577, 0.06153, -0.23898, -0.021887, -0.032886, 0.093418, -0.129168, -1.76066, 0.446465, 0.509987, 0.821643, -0.223133, -0.101164, -0.162408, 0.777161, -0.604593, 0.000149, 0.098368, 0.324245, 0.081515, 0.294298, 0.989563, -0.332326, -0.27624, -1.14962, -0.448773, 0.465962, 0.238095, 0.482683, -0.337095, 0.7586, -0.348708, -0.754602, -0.22195, -0.909093, 0.173449, 0.179737, 0.12574], [0.03921, 0.216514, -0.691997, 0.143632, 0.427525, -0.103276, -0.235652, 0.720322, 0.118817, 0.83037, -0.029343, 0.192214, 0.822623, 0.260575, 0.310905, -0.201355, 0.525501, 0.193801, -0.125057, 2.30194, -0.241942, 1.17547, 0.001739, -0.496977, -0.043052, 0.561212, -0.227911, -0.807179, -0.091454, -0.214586, 0.472172, 0.128982, 0.752396, 0.96253, 0.094658, -0.380933, 0.065643, -0.495759, 1.08835, 0.19596, 0.205953, 0.338584, -0.413003, -0.396332, 0.287824, 0.833061, 0.30233, 0.550063, 0.107611, -0.742134], [-0.287602, -0.131017, 0.078122, 1.56341, -0.934619, -0.373663, 0.267955, -0.021404, -0.313087, -0.26097, 0.02777, -0.072593, 0.062308, 0.303737, -0.188884, 0.174869, 0.18269, 0.099617, -1.22087, -1.94313, -0.063403, 0.740801, -0.209179, -0.012364, -0.259038, 0.587704, -0.493175, -0.570827, 0.237203, 0.904025, 1.11828, -0.107858, 0.232883, 1.5139, -0.573816, 0.124392, 4.05919, 0.380724, 0.626374, 0.31281, 0.21879, -0.395492, -0.736525, -0.365875, -0.795175, 1.06367, -0.342876, -1.21336, -1.75311, -0.470423], [-0.016702, -0.014795, 0.009608, 0.021939, -0.050137, -0.074345, 0.013825, -0.042071, 0.009988, 0.006655, 0.038954, -0.0271, -0.008813, 0.004706, -0.002151, 0.009075, 0.020154, -0.041074, -0.032254, -0.022084, -0.014904, 0.011401, -0.027954, -0.06557, -0.050548, 0.022727, 0.002645, 0.01729, 0.021037, -0.069958, -0.034395, 0.021791, 0.02108, -0.059393, 0.040577, -0.035246, -0.011298, -0.032012, -0.006374, -0.006618, 0.019635, -0.026199, -0.061745, 0.024067, -0.008324, 0.010219, 0.025283, 0.01561, -0.016446, 0.001805], [-0.182113, 0.135971, 0.167199, 0.392256, -0.032125, 1.08023, 0.510859, 0.008111, -0.173673, 1.39972, 0.026846, -0.486143, 0.387594, -0.286467, -1.05226, 0.135642, -0.354047, -0.208305, -0.275096, 0.901961, 0.32007, 0.319592, -0.232907, -0.154944, -0.46566, 1.01723, 0.713228, -0.370357, 0.045494, -0.179489, -1.49659, 0.141455, -0.048346, -0.177711, -0.394135, -0.50452, -0.407438, 0.116049, -0.093813, -0.103809, 0.23034, 0.092916, 0.147509, 0.170039, 0.173203, -3.04077, 0.114713, -1.60481, 0.017234, -1.46708], [-1.45185, 0.198178, 1.81488, 0.208022, -0.083048, 0.463573, -0.547392, 0.202888, -0.337567, 0.756921, -0.015299, 0.334724, 0.082281, -0.046298, 0.41478, -0.549682, 0.022171, -0.02158, -0.451493, -1.63912, -0.531468, -0.400065, -0.348692, 0.494476, -0.381728, 0.050946, 0.01966, 0.973658, -0.074695, 0.179125, -1.05624, 0.310116, 0.9809, -0.542155, 0.238475, 0.19209, 0.441801, 0.165615, 0.921599, -0.383052, 0.309612, -0.474243, 0.508488, -0.684491, 0.799423, -0.139688, -0.783622, 0.247512, 0.531576, 0.366822], [-1.04036, 0.499401, -0.634957, 0.222838, -0.223439, -0.132385, 1.32813, 0.445145, -1.19687, -1.16264, 0.036354, -0.03754, 0.449769, 0.24589, 0.640193, -0.136717, 0.438534, -0.131749, 0.053119, 2.1061, 0.218058, -0.003543, -0.61074, -1.03593, 0.081253, 0.182292, -0.484407, -0.564534, -0.401394, -0.313149, -0.300221, -0.001428, 0.198503, 0.956845, 0.657934, 0.054316, -0.60321, 0.551748, 0.501459, -0.066119, 0.403742, -0.12918, -0.894509, -1.106, 1.34255, 0.57803, 0.058892, -1.1137, 0.394145, -1.24354], [-0.96046, -1.22439, -1.00359, -1.30396, 1.26494, 0.262823, -0.713366, 0.606508, 0.755833, -0.75401, -0.014682, 0.173731, 0.397623, 0.00372, -2.30397, 0.207224, -0.353535, -0.099003, -0.527853, -0.414513, 0.339629, 0.657647, 0.419799, 0.089555, 0.426559, 0.635599, -0.508739, -0.254394, 0.11303, 0.82228, 0.101287, -0.47248, 0.177554, 1.49973, 0.694657, 0.363911, 0.168053, -0.098516, -0.236131, -0.000832, 0.360113, 0.503358, 0.109504, 0.420391, 0.413776, -0.863251, 0.36343, -0.251879, -0.502024, 0.409623], [0.174058, -0.144146, -2.14691, 1.19299, 0.133038, -0.666629, 1.13078, 0.401402, 0.127518, 0.763164, -0.040315, 0.03867, -0.376668, 0.079192, 0.316868, -0.254567, 0.143668, -0.076522, 0.007192, -0.643913, 0.059763, 0.909831, 0.773395, -0.290634, -0.747908, 0.048781, -0.119002, 1.0065, -1.7564, 0.384788, -0.202532, -0.155284, 0.278729, -0.689292, 0.596056, 0.067043, -0.200187, 0.510934, 0.401001, -0.224787, 0.125139, -0.099723, -0.807602, 0.357935, 1.17844, -1.82819, -0.84182, 0.62387, -0.210875, 0.255845], [-0.256304, -1.24858, -0.227896, 0.274406, 0.009576, -0.973803, -0.00413, 0.362023, 0.916703, -0.144497, -0.048665, -0.295681, -0.253191, 1.48758, 0.406478, -0.200709, -0.14707, 0.04108, 0.926392, 0.899605, 0.059973, -0.232701, -1.80155, -0.082111, -0.091053, -1.90212, -0.298507, 0.295692, -0.031979, -0.016547, 0.405629, 0.618454, -0.011684, -0.764213, 0.031934, 0.049535, 0.933105, -0.292303, -0.338835, 1.16591, 0.230266, -0.301844, -0.275568, 0.890838, 0.500751, 2.48764, 0.36559, -1.65778, -0.024219, 0.07516], [-0.716617, -0.333175, -0.639936, -0.826987, -0.783972, -0.200062, -0.122885, -0.03436, -6.5937, -0.338364, -0.017074, 0.021254, -0.912633, -0.028352, -0.128074, 0.457132, 1.27218, 0.10615, -0.137231, 0.5823, -0.222171, -0.332986, 1.04886, -0.544996, -0.141676, -0.131863, -0.15793, -1.42318, 0.582745, -0.765152, -3.68407, -0.310055, -0.073993, -2.50977, 0.238986, -0.469424, -0.498047, 0.601688, 0.159604, 0.127458, -1.36181, 0.188365, 0.878054, 1.42482, -0.341984, -12.5944, -0.048621, -0.641142, -0.115123, -0.082594], [-0.632926, -0.553099, 0.053105, 0.912013, -0.042748, 0.376571, -0.736381, 0.041258, 0.613686, 0.18509, 0.041432, -0.457038, -0.252398, -0.242649, -0.599223, -0.191789, 0.196385, -0.177778, -0.643416, 0.281181, -0.011941, 0.206476, 0.102999, 1.37698, 1.17255, -0.150569, 0.33109, -0.164075, -0.425583, 0.392962, 0.430756, -0.04957, 0.751787, 0.445081, 0.733035, -0.115522, -2.1156, -0.884187, 0.307233, 0.054571, 1.38779, 1.02237, -0.657567, -0.582641, -0.293334, 2.21584, -0.250923, -0.172482, 1.0952, 0.269821], [0.633803, -0.118863, -0.180266, -0.075129, -0.068394, 0.846407, -0.654914, -0.233165, -1.77112, -0.306009, 0.039911, 0.273073, 0.092961, 0.161185, -0.502081, 0.293263, -0.28152, 0.251807, -0.013453, 0.148939, -0.232199, -0.213541, -0.323039, -0.61865, 1.31699, -0.532365, 0.133446, 0.441067, -0.216053, -0.353493, 0.8289, 0.711186, -0.122238, 0.094481, 0.44006, 0.156266, -0.009524, -0.241569, -0.793392, 0.336653, -1.473, 0.289008, 0.145921, 0.09043, 0.117728, -1.36139, 0.352249, 0.15652, -0.188697, 0.68686], [-0.681433, 0.789486, 0.963274, 1.12284, -0.076288, 0.370766, -1.05851, -0.095429, 0.034451, -0.312018, 0.007949, -1.04815, 0.416351, -0.912806, 0.204158, 0.005615, -0.018646, -0.533061, 0.461762, 1.56345, 0.237089, -0.475738, -0.394893, -0.055352, 1.64595, -2.03742, -0.151464, -1.46481, -0.185432, 0.099199, 0.606724, -0.024149, 0.789094, 0.634529, 0.353909, 0.073841, -0.208501, -0.153833, 0.476101, -0.180954, -0.128525, -0.432514, -0.641802, -0.250643, -0.318143, 1.91023, -0.053162, -2.42623, -0.661078, 0.143663], [0.124524, 0.006186, -0.157599, 0.090567, 0.009486, -0.008999, -0.095423, 0.152793, 0.014041, 1.34432, 0.016193, -0.00909, 0.076968, 0.01001, 0.067699, 1.08912, 0.621868, -0.113239, -0.045252, 3.04069, 0.218505, 0.06876, -0.095386, -0.000337, -0.052116, 0.357227, -0.081409, 0.119926, -0.056288, -0.152376, -0.043507, 0.371961, 0.106556, -0.072047, 0.208372, -0.178222, 0.083021, 0.119181, 1.62554, -0.064568, -0.042774, -0.065, 0.141531, 0.136849, 0.005753, 0.315783, 7.62593, 0.057412, 0.10548, -1.61891], [-0.248554, -0.318674, -0.336102, 0.103117, 0.69642, 2.36296, -0.985588, 0.023353, -0.299608, 0.386185, 0.045387, -0.702732, -0.213222, -1.2086, -0.408758, 0.452136, -0.766637, -0.355453, 0.193319, -0.587342, -0.011355, -0.012014, 1.23094, -0.243589, 1.06949, 0.899842, 0.486246, 0.13999, 0.043187, -0.561004, 0.069315, 0.268709, 0.990346, -0.175433, -0.481106, -0.302963, -1.71499, -0.080854, 0.009265, -0.28393, -0.750885, 0.928239, -0.249651, -0.494657, -0.20181, -0.3797, 0.145582, 0.287498, 0.631685, 0.373405], [-0.57153, 0.196623, -0.974823, -0.042827, -0.100016, -0.653826, -0.201384, 0.607165, -0.64424, 0.360695, 0.033858, 0.429754, 0.097009, 0.469903, -0.70782, -0.273509, -0.488722, 0.4593, 0.329368, -0.0578, 1.41096, 0.56435, 0.599429, 0.435289, -0.121699, -0.936807, 0.021002, -0.550901, -0.425857, 0.346265, -4.86021, 0.315087, -0.543239, -4.06896, -0.71475, -2.12495, -0.201992, -0.536133, -0.160455, 0.791507, 0.101736, 0.179909, 0.859235, -0.076564, 1.42277, -3.65106, 0.108931, 0.476909, 0.48628, -0.233046], [-0.903633, 0.23032, 0.663607, -0.042464, -0.134171, 0.50277, 0.408807, -0.092758, -1.35871, 1.73205, 0.021107, -0.413807, 0.612944, -0.07192, 0.956739, -0.297761, 0.013198, -0.297495, -0.158139, -1.0916, -0.050494, 0.310028, -0.849177, 0.078429, 0.084924, 0.211417, -0.438268, 0.18883, 0.008194, 0.810156, 0.581482, -0.344212, -0.232992, 0.712456, 0.033136, 0.317717, -0.094666, -0.511239, -0.797843, 0.284418, 0.408383, -0.206128, -0.105524, 1.06879, -0.466132, -0.362346, -0.012504, -0.75761, 0.191896, -0.019645], [-0.137477, 0.274359, 0.555715, 0.177241, -0.798953, 0.931257, -0.343288, 0.733816, -0.135681, 0.496452, -0.027116, 0.096427, 0.074874, 0.357588, -1.20348, -0.39111, -0.213897, -0.34275, -0.245904, -0.735964, 0.053639, -0.915901, -0.288167, -0.097736, 0.468422, 0.35974, -0.151353, -0.048351, -0.247831, 0.799672, 0.749484, 0.261665, 0.098643, 0.899934, -0.299831, 0.074914, 1.45646, 0.903595, -0.499496, 0.148583, 0.280908, 0.374181, -0.585921, -1.16356, 0.136679, 1.02545, -0.623964, -0.55509, -0.976472, 0.394442], [0.006425, 0.031913, -0.00811, -0.040272, -0.019007, -0.017927, 0.006065, -0.04346, -0.022882, -0.017045, -0.04133, -0.050899, -0.044713, 0.008608, 0.017271, 0.01258, -0.005547, -0.008347, 0.002477, 0.041395, -0.03512, -0.030006, 0.015025, 0.03148, -0.05134, -0.007431, -0.011922, -0.012837, -0.03163, 0.018641, -0.001217, -0.015472, 0.021319, 0.035664, 0.00374, -0.03807, -0.005804, -0.028949, -0.011525, -0.017011, -0.005106, -0.001565, -0.034726, 0.000432, -0.044472, -0.049653, -0.040522, -0.00885, -0.04421, 0.018481], [0.697227, 0.523458, -1.15282, 1.46152, -0.046947, -0.811205, -0.747566, -0.463662, 0.467783, 1.72218, 0.046575, -0.82817, 0.184989, -0.092101, 0.634352, 0.234725, 0.300507, -0.896621, -0.294453, 1.83571, 1.15594, -0.207308, 0.440806, 0.629859, 0.553916, 1.20993, 0.639006, -0.812187, -0.443584, 0.124978, 0.835908, 0.091728, 0.480384, 0.484806, 0.108806, 0.060616, 1.04498, 0.523598, -1.49729, -0.120876, -0.499363, -1.00554, 0.413579, -0.739175, 0.4314, 0.386126, -0.717283, 0.420873, -0.872133, 0.025317]], [[-0.074327, 0.16316, 0.326876, 0.059501, -0.012392, 0.199394, -0.848214, -0.266163, 0.228782, -0.00833, -0.286561, -0.129027, -0.085697, -0.069665, 0.224793, 0.098685, -0.062834, -0.00681, -0.101513, 0.362148, 0.082512, -0.041016, -0.044918, -0.308042, 0.294816, -0.035635, -0.201891, 0.122009, 0.253688, 0.471382, 0.364627, 0.230681, 0.034651, 0.205132, -0.159247, -0.094634, 0.092085, -0.578433, 0.465642, 1.06712, -0.090584, -0.755983, 0.01171, 0.297874, 0.411188, -0.151686, -0.290806, -0.145259, -0.031113, -0.545866], [0.567329, -0.575839, -0.07946, 0.441146, -0.039345, -0.403105, 0.343377, -0.561998, 0.502026, -0.215664, -0.097945, -0.234079, -0.161396, -0.352435, 0.237961, -0.000382, -0.375219, 0.059775, 0.529773, 0.4495, -0.231044, 0.965029, 0.000987, -0.333121, 0.804215, 0.039164, -0.336815, 0.423553, -1.11224, 0.288829, 0.47811, -0.155424, -0.039898, 0.186804, 0.094714, 0.460624, 0.326105, 0.526117, -0.014943, -0.332457, -0.499065, -0.151529, -0.056547, 0.387201, 0.149063, -0.10991, -0.109854, -0.069351, -0.023901, -0.12624], [0.01755, 0.025478, -0.079508, 0.021603, -0.045626, -0.01738, -0.015837, 8.9e-05, 0.010282, 0.002863, -0.002565, 0.023539, -0.004186, -0.05205, 0.007361, -0.00553, -0.047786, -0.024015, -0.003543, 0.013542, -0.022662, 0.006596, -0.03813, -0.04602, -0.058006, -0.039969, -0.036439, 0.011358, 0.006734, -0.06375, -0.011673, -0.000779, -0.05494, -0.000834, 0.025989, 0.008792, -0.065912, -0.044633, -0.046428, 0.022919, -0.040184, -0.029515, 0.032859, 0.011642, 0.003741, -0.055547, 0.010952, -0.038752, -0.043577, -0.06461], [1.12029, -0.597462, -0.104745, 0.972227, -0.018269, -0.641, 0.082149, -0.422708, -0.07341, -0.09007, -0.300741, -1.30247, -0.228366, 1.43817, 0.242761, 0.113756, -0.189708, 0.557213, 0.006688, 0.179426, 0.111962, 0.045822, 0.034324, -0.974242, 0.472157, -0.03058, 0.005212, 0.724717, 0.19561, 0.675766, -0.417269, -0.948463, -0.001486, 0.955706, 0.660397, 0.026932, 0.058813, 0.116125, 0.555317, -0.29836, -0.728736, 0.831296, -0.139912, 0.130218, 0.268561, 0.113039, -0.482304, 0.161037, 0.021818, 0.310319], [-2.58868, -0.21362, 0.263878, -0.17636, 0.019912, 0.290071, -0.302019, 0.063098, 0.246427, 0.151163, -0.151515, -0.531659, 0.187366, 0.274498, 0.696691, 0.105922, 0.143172, -0.16197, 0.132148, -0.278383, -0.043883, 0.743106, 0.029755, 0.04471, 0.329294, 0.045824, 1.28687, 0.066654, 1.22263, -0.920729, -0.157853, -0.183018, 0.000642, -1.26991, 0.055396, -0.071564, -0.13631, 0.532975, 0.09714, -0.937152, 0.465942, -0.212693, -0.489075, 0.502054, -0.167148, -3.33782, 0.245161, -0.158196, 0.007143, 0.249752], [-0.841445, 0.717076, -1.04046, 0.33808, -0.045544, -1.74478, 1.57548, -0.242706, -0.738552, -1.46848, -0.207801, 0.023766, -1.25534, -0.089679, 0.019337, -0.019206, 1.27179, 0.444435, -0.106637, -0.713451, -0.169011, -0.171851, 0.01555, 0.215805, 0.349749, -0.005263, -0.467985, 1.37776, -0.264302, -0.019918, 0.268901, 1.36012, -0.007034, -0.158372, 0.622333, 0.352728, -0.731899, 1.95195, 1.18299, 0.462778, 0.722332, 0.572067, -2.3561, 0.128723, 1.48662, -0.086592, -0.071544, 0.63705, 0.037226, -0.607263], [-0.963215, 0.393837, 0.139503, 0.188863, -0.017289, -0.808388, -0.479732, 0.209242, 0.427937, 0.236933, -0.810294, -0.391468, 0.069301, -0.235016, -0.351742, -0.045609, -0.192656, -0.762063, -0.075273, -0.152621, 0.206055, 0.094814, 0.020809, -0.092286, -0.146843, 0.004107, 0.402082, -0.157355, -1.54507, -0.298132, 0.596818, -0.541274, -0.00343, 0.603645, -0.606377, -0.978838, 0.547888, -1.51122, -0.166517, -0.29878, 0.04236, 0.184563, 0.582845, 0.341676, -0.2875, -1.22153, -0.281454, 0.338762, -0.020548, -0.171825], [0.005171, -0.053312, 0.016265, 0.109605, -0.010179, -0.10553, 0.028897, -0.133876, -0.024144, 0.049324, 0.041166, -0.065802, 0.049932, -0.271584, 0.052719, 0.053904, -0.046489, 0.030248, -0.073273, -0.01331, -0.212332, 0.039433, 0.041439, -0.073932, -0.00142, 0.01476, 0.021207, 0.014699, 0.0522, -0.00155, 0.102052, -0.083485, -0.027517, 0.063194, -0.089756, 0.019429, 0.020679, 0.043228, -0.026047, 0.014212, -0.063177, -0.022669, -0.016412, -0.030698, 0.057653, 0.056087, -0.19572, 0.039963, 0.02206, 0.008587], [1.09071, -1.55483, 1.27111, -0.431797, -0.050882, 0.482094, -0.586126, 1.44748, 1.63092, -1.00113, 0.068811, 0.080487, -0.89791, -0.76947, -0.283926, -0.016216, -0.91816, -1.08617, 0.443882, -0.555818, 0.191991, -0.458744, 0.045717, 0.444513, -1.24904, 0.024028, 0.170396, -0.731705, 0.63349, 1.16296, 0.245693, 0.757044, 0.007897, -1.05868, -1.12607, -0.071361, 0.719783, -0.488393, -3.87441, -0.029827, -0.81876, -0.351679, 0.050536, -0.222316, -0.402895, 0.046793, -1.71629, -0.09589, -0.001975, -0.75547], [-0.227656, 0.057829, -0.003061, 0.152209, -0.000674, -0.163553, -0.311782, 0.03697, -0.274957, -0.012531, 0.2804, -0.058165, 0.114619, 0.153682, -0.290745, -0.003816, -0.186305, 0.026926, -0.03822, -0.140268, -0.086834, 0.042098, -0.035419, 0.01951, 0.019932, 0.003888, 0.123762, 0.105787, -0.166256, 0.156968, 0.06092, 0.039955, -0.005943, -0.019724, -1.63709, 0.020834, 0.447761, -0.255822, 0.246526, 0.066384, -0.055693, -0.024406, -0.276711, -0.05267, -0.045939, -0.034077, -0.003425, -0.166566, 0.038438, 0.06152], [-1.01122, -0.229161, 0.215191, 0.133332, -0.012841, -0.788877, 1.04908, 0.029188, -0.186736, -0.208262, -0.306025, 1.58097, -0.100681, -0.165365, -0.092885, 0.045868, 0.309441, -0.139847, -0.290827, 0.486733, 0.022087, 0.109848, -0.032642, 0.044084, -0.158151, 0.015693, 0.052419, 0.584958, 0.000944, -0.616114, 0.010461, -0.082765, -0.003152, 0.592541, -0.222884, -0.152788, 0.02245, -0.337712, 0.307405, -0.220025, -0.337132, 0.343082, 0.376877, 0.199015, 0.090692, -0.316328, -0.443457, -0.208642, -0.020702, -0.119012], [0.386125, 0.24982, 0.176375, -0.9339, -0.000193, 0.250683, 0.790425, -0.158619, 0.232, 0.349448, 0.305712, -0.115601, 0.238205, 0.836456, 1.41432, -0.042959, -0.980278, 0.860572, 0.754274, 0.188427, -1.5232, 1.44298, -0.015447, -0.368064, 0.600004, 0.008639, -6.86941, -0.200453, -0.346201, -1.30953, 0.656607, 0.260549, -0.005184, 1.13368, 0.642893, -2.20068, -1.21511, -9.11208, -0.81741, 1.77501, 0.949764, 0.394235, -1.15058, -0.712671, 0.004, 0.101255, 0.27272, -0.475531, 0.031066, -0.14633], [-0.291451, 0.669901, -0.257636, -1.28539, 0.013377, 0.812955, -0.109446, -0.189513, -1.27454, -0.052855, -0.117069, -0.13976, 0.330529, 0.630064, -1.2066, 0.01627, 0.015153, -0.054169, 0.326374, 0.313854, 0.029649, -0.299559, -0.022565, -0.436885, 0.481849, -0.00139, 0.437107, 0.012997, 0.034181, -0.459525, -0.057298, -2.04576, -0.033183, 1.20489, -0.754194, 0.475708, -1.26774, 0.044928, 0.254802, -0.360863, -0.490093, 0.30996, 1.12592, -0.016152, 0.777721, 0.293752, 0.230479, -0.299602, 0.032365, -0.16373], [-1.14645, -0.702632, -0.228617, -1.15993, -0.045826, 0.831553, -0.184328, 1.28915, -0.73784, 0.699825, 0.105308, -0.047062, -0.995734, -0.680795, 0.203061, 0.314918, -0.096769, 0.184983, -0.09321, 0.167315, 0.070882, 0.498095, -0.025209, 0.235769, -0.260894, 0.025772, -0.365687, -0.30239, -0.621647, -1.1757, -0.070425, -0.111946, -0.029899, -0.279741, 0.208394, -0.748278, 0.001716, -0.090003, -0.307266, -1.05378, 3.06919, -0.153278, 0.36551, -0.019367, -0.898284, 0.512305, -0.084186, 0.127529, -0.012536, 0.088054], [-0.025926, 0.32893, -0.107234, 0.469333, -0.012158, 0.868594, -0.69355, 1.0089, -0.442331, 0.146625, -0.113958, 1.90207, 0.407952, -0.180307, -0.214538, 0.070532, -0.13437, 0.260724, -0.309295, -0.094702, 0.115898, -0.1943, 0.02819, 0.236689, -0.937714, -0.037393, 0.408752, 0.072546, -1.13804, -0.232465, -0.763908, 0.52018, 0.046918, -0.142218, 0.052211, 0.593509, -0.843113, 0.035389, -0.162379, -0.410847, 0.937203, -1.17296, -0.156805, 0.254025, -0.063386, 0.174304, 0.090857, 0.23604, 0.020573, 0.129655], [-1.23959, 0.710168, -0.386513, -1.19788, 0.034557, -0.277118, 0.222749, 0.315903, 0.105855, 0.398077, -0.612009, 0.075103, -1.63746, -0.164033, -0.118372, 0.05294, -0.427164, 0.444726, 0.595343, 0.014222, -0.475639, 0.213262, 0.038585, -0.339448, -0.18883, -0.014722, 1.23052, -0.122209, 0.14545, -0.433666, -0.248309, -0.19139, 0.025311, 0.069438, 0.244736, 0.0911, -0.256099, 0.891167, -1.70967, 0.054122, 0.716097, 1.07233, -20.116699, -0.445029, -0.403293, -0.103443, 1.06423, 0.498918, -0.021653, -0.846907], [-0.05023, -0.114044, 0.022459, -0.141344, -0.041149, 0.047122, 0.307095, 0.003572, 0.028203, 0.065549, -0.047028, 4.58721, -0.083263, 0.285376, -0.017077, 0.038459, 0.169929, -0.483165, -0.911267, -0.139595, -0.16344, -0.399971, -0.029065, -0.193289, -0.470786, 0.014837, -0.167338, 0.248223, -0.034152, -0.149412, -0.009267, -0.059184, -0.010926, -0.31857, 0.125196, 0.075603, -0.141846, 0.153475, 0.070869, -0.179535, 0.194361, -0.062237, -0.110774, -4.33042, -0.012883, 0.006252, 0.252729, 0.036902, -0.002262, 0.15435], [0.059366, 0.32461, 1.30799, 0.066973, -0.019563, 1.09046, 1.93213, -0.006747, -0.312188, -0.00281, -0.769352, -0.030668, 0.925456, 0.360546, -0.247005, 0.003082, -0.61528, 0.103938, 0.590766, -0.646507, -0.288154, 0.702204, -0.040467, -0.009137, 0.425816, -0.017774, 0.495738, 0.449508, 1.96103, -0.697212, 0.290617, 0.527349, -0.039319, 2.50564, 0.958036, 0.147511, 2.50607, 1.35055, -4.82003, 0.422318, -0.088044, 2.05386, 0.013551, -0.367968, -2.00737, -0.32529, -1.32768, -0.03476, 0.009413, 0.587209], [0.999162, -0.62156, 0.091188, 0.098485, 0.048301, -0.785591, 0.985055, 0.374755, -0.340097, -0.215534, -1.48928, -0.236125, 0.74004, -0.617082, 0.628931, 0.048758, 0.300421, -1.67998, 0.46268, -0.150664, 0.120054, 0.650051, 0.012057, 0.055477, 0.442268, 0.026654, -4.67555, 0.25709, 0.851141, -1.0239, -0.161908, -0.254781, -0.020715, 0.587697, -0.316766, -0.480336, 0.279335, -0.794359, 0.141058, -0.641315, -0.338283, 0.475835, 0.555491, 0.031714, 0.292143, 0.154841, -1.03388, 0.085443, -0.033644, -0.176657], [-0.084529, -0.097494, -0.114513, -0.495684, -0.03348, 0.286832, -0.381247, -0.076286, 0.070482, -0.095998, 1.40954, -0.235942, -0.02982, 0.76296, -0.352378, -0.0027, 0.605793, -0.704901, -0.486725, -0.15616, 0.141101, -0.243952, -0.007572, 0.583737, -0.246673, 0.042711, -0.225324, -0.464894, -1.40922, 0.559994, -0.516164, 0.22701, 0.041213, -0.157001, 0.047324, 0.928746, -0.570725, 0.80811, -0.403491, 0.186554, 0.403266, -0.315319, -0.047881, 0.751744, -0.469786, -0.498947, -0.447593, 0.040195, -0.037811, 0.115266], [0.566237, -0.236595, -1.3466, 0.703845, 0.042444, -0.479394, 0.342942, -0.343581, -0.383243, -0.336864, -0.656138, 0.268879, 0.30129, 0.259384, -0.301152, 0.087588, 0.628772, 0.32073, 0.353744, -0.383828, -0.135411, 0.390509, 0.003121, 0.292173, 1.22383, -0.031668, -1.03643, -0.263195, -0.046574, -0.25638, 0.001868, -1.11535, 0.009804, -0.031568, 0.304708, 0.286672, -0.308753, 0.178264, -0.408648, 0.576226, -0.737866, 0.540567, -1.21062, -0.328252, 0.468503, -0.497015, 0.120495, -0.067822, 0.047013, 0.077394], [0.022254, -0.038599, -0.021431, 0.003552, -0.023672, 0.009094, 0.040128, -0.045991, -0.052763, -0.020658, 0.001447, 0.001486, 0.003033, -0.00557, 0.008764, -0.012724, -0.038038, -0.03656, -0.032415, 0.029059, -0.003467, -0.007953, -0.030317, -0.006448, -0.047879, 0.002688, -0.042985, 0.001445, -0.045208, -0.011897, 0.005609, -0.04262, -0.037695, 0.00212, -0.027488, 0.023104, -0.030134, 0.010571, -0.037689, 0.031763, -0.004582, 0.019118, -0.028545, -0.040748, -0.005359, 0.027349, -0.021918, -0.018647, 0.014259, -0.039485], [-0.561173, 0.436629, -0.136594, -0.625285, -0.046325, -0.153323, 0.436806, 0.363901, 0.217494, -0.680154, 0.433579, 0.084361, -0.311146, -0.525795, -0.242329, 0.071237, -0.26245, 0.909995, 0.309307, 0.200829, -0.17622, 0.163523, 0.034542, 0.671266, 0.943359, -0.022566, 0.208131, 0.029492, 0.133816, 0.182246, 0.310526, 0.913095, -0.037413, -0.191424, 0.312549, -0.065169, -0.507712, 1.21307, -0.099159, -0.624671, 0.788705, 0.609513, -0.885009, 0.243975, 0.085027, -0.793874, 0.626979, -0.249693, -0.036716, 0.6766], [0.46544, 0.006169, 0.13004, -0.612426, 0.026988, -0.025604, 0.432447, 0.110205, -0.772726, 0.65052, -0.072226, -0.118188, -0.534127, 0.254425, 0.20303, 0.032291, -0.61917, 0.549903, -0.318199, -0.179256, -1.25572, -6.70781, -0.04757, 0.675587, 0.970646, 0.005627, -0.129492, 0.638882, 1.35165, 0.313262, -2.28125, 0.561073, 0.010392, 0.213567, 1.1473, 0.745771, -3.11728, 0.622906, -1.75224, -0.562238, -0.278898, -0.106254, -0.35037, 0.045265, 0.271627, -0.087736, 0.242256, -0.614576, 0.044193, -0.551026], [-1.85104, -4.44698, -0.626458, 0.825361, 0.036284, 0.867976, 0.683941, 0.713778, 0.254508, -0.887654, -6.96004, 0.257933, -0.851149, 0.582225, -1.1684, 0.003518, 1.11651, 0.02382, -1.41232, -0.040449, -0.593068, 0.863911, -0.034459, 1.07624, 1.82608, 0.01594, 0.124993, 0.012746, 0.062487, -0.920766, 0.488763, 0.814388, -0.046845, 0.176344, 0.225139, -0.555855, -1.37606, -7.52427, 0.92364, 0.192773, -1.27049, -0.847933, -0.950142, 0.063948, 0.991691, 1.52832, 0.857357, -0.123534, -0.008724, -0.24262], [1.93476, 2.24287, 0.710347, -0.573484, 0.009796, -2.07234, -2.03234, -1.00222, 0.431757, 1.44967, -0.696584, 0.016102, 1.58268, 0.294506, -0.019899, -0.043421, -1.375, -0.238981, 0.322053, -0.057584, 0.313425, -0.238904, -0.033822, -7e-06, -0.09819, 0.034998, -2.8186, -1.51681, -0.900793, 0.881361, 0.119422, -3.62536, 0.016228, 0.942099, 0.157926, 0.482945, 0.395184, -2.21997, -1.34379, -0.067787, 0.347688, 0.465235, 1.52185, -0.210061, -1.87391, -0.03251, 0.932573, -1.28136, -0.010786, 0.280168], [-0.351198, -0.074588, -0.661576, 0.683296, 0.035128, 0.427118, 0.511694, -0.79624, 0.238579, -0.144535, -1.69527, -0.626475, -0.481634, 0.014353, -0.16833, 0.088125, 0.181867, -0.06925, 0.589981, -0.484106, -0.299756, 0.243906, -0.030102, 0.634953, 0.21342, 0.03796, 0.061426, 0.534166, -0.054019, 0.346811, 0.016591, -0.356695, 0.019676, -0.177383, -0.061462, 0.330948, 0.334247, 0.634569, 0.091988, 0.066192, -1.14889, 0.48119, -0.133794, -0.322668, 0.044598, 0.056391, 0.843314, 0.350476, 0.010979, -0.254347], [0.66459, 0.612932, 0.175844, 0.038523, -0.045677, -0.626849, -0.498706, -0.195863, 0.210308, 0.228119, -0.549357, -0.261997, 0.372137, 0.129004, -0.307733, 0.107213, 0.203296, 0.013796, 0.1362, -0.066493, 0.31046, -0.250341, 0.031852, 0.346318, -0.103433, 0.017097, -0.630818, -0.255293, -0.002805, 0.830908, 0.319759, -0.015216, 0.019177, 0.060509, -0.216588, 0.017727, -0.27281, -0.701065, -0.295307, -0.252704, -0.764832, 1.03984, 0.958369, 0.221364, -0.21136, 0.284755, -0.044854, -0.981212, 0.015352, 0.187604], [0.170309, 0.205348, 0.149699, -0.35756, -0.050527, 0.210352, 0.917528, 0.161178, -0.124137, -0.518294, -0.480224, 0.213581, 0.540579, 0.504457, 0.133767, -0.00991, -0.299624, 0.50404, 0.096741, -0.214666, 0.178281, -0.395198, 0.023247, 0.181406, 0.253238, 0.044131, -0.401142, -0.51259, 0.19612, -0.080817, 0.07413, 0.514455, -0.005023, 0.35597, 0.52097, 0.44547, 0.417729, 1.19887, 0.334683, -1.04594, 0.986549, 0.39624, -0.636196, -0.256839, 0.147097, -0.08554, -0.033745, -0.411879, 0.033594, 0.477434], [0.043422, -0.017835, 0.020883, 0.136936, 0.044861, -0.131076, -0.000726, -0.09635, -0.00236, 0.013568, 0.072797, 0.007942, 0.042692, -0.226382, 0.048485, 0.08441, -0.058043, 0.01079, -0.031704, 0.008507, -0.146894, 0.068891, 0.006272, -0.080573, 0.001157, -0.053724, 0.018376, 0.044981, 0.024981, 0.027975, 0.027816, -0.046489, 0.026854, 0.057661, -0.179634, 0.065256, 0.004371, 0.013334, 0.024058, 0.028356, -0.127528, 0.005498, -0.050257, -0.003604, 0.01743, 0.075499, -0.1275, 0.006435, 0.025658, -0.019376], [0.163339, -7.81678, 0.640469, -0.296657, 0.037635, 0.03951, -0.055294, 0.152119, 0.089624, 0.964735, -0.064452, -0.02931, -3.75945, 0.240278, -0.58149, -0.039128, -0.560919, -0.473965, -0.151331, 0.370826, -0.083264, -0.094197, 0.032585, -0.161249, -2.37649, -0.022528, -0.719275, -1.76746, 0.167209, -1.48441, -0.625817, -2.75158, -0.009029, 1.2765, -1.69314, -0.419224, 1.09177, -1.97013, 1.07361, -0.269793, -1.70185, -1.07622, -1.16951, 0.117703, -1.48735, -0.339677, -0.7651, 0.182688, 0.010722, -0.844096], [-0.397596, -1.29716, -0.616788, -0.117186, 0.01857, 1.50079, -1.49972, 0.324371, 0.509933, -0.147542, -1.10256, 0.079179, -0.323359, -0.174945, 0.678565, 0.024565, -1.52768, 0.013566, -1.62509, 0.729613, 0.695546, 0.256889, 0.045068, 0.070446, -0.490855, -0.013192, 3.68547, -0.826592, -0.408832, -0.944008, -0.465548, -1.65154, -0.041217, -1.0026, -0.628617, -1.26722, -2.17859, -2.98912, -1.52981, 0.883653, -2.98053, -2.44075, 0.758935, -0.783781, 1.16612, -0.142882, -0.345619, -0.429015, 0.010447, 0.34179], [-5.5568, -0.033256, 0.261408, 0.099288, 0.03208, 0.275331, 0.065109, -0.47041, -0.10691, 0.225435, 0.603651, 0.402948, 0.46279, -0.130605, 0.749103, 0.039231, 0.119149, -0.399936, -0.417456, -0.169543, 0.444523, 0.718851, -0.027021, 0.31315, -0.567492, -0.048869, 0.336935, -0.117265, 0.270059, -0.847914, -0.081479, 0.326611, 0.016641, 1.33331, -0.386473, -0.129122, -1.08676, -3.33676, 0.624312, 0.762809, 1.15425, -0.128078, 0.200475, 0.210668, -0.512234, -0.029173, 0.056027, 0.178235, -0.021171, -0.469121], [-0.686185, -0.822725, -0.082832, 0.85687, -0.030566, -0.118869, -0.096121, -0.192878, -0.410417, 0.08838, 1.06052, -0.374549, 0.168554, -0.589633, -0.543651, 0.065568, 0.788696, 0.084175, 0.053086, -0.355398, 0.059682, 0.203722, 0.013432, -0.099629, -0.691925, -0.007095, -0.783243, 0.470969, -0.564216, 0.130637, 0.321873, -1.78523, -0.031725, 0.334563, -0.066382, -0.086541, 0.183472, 0.944431, 0.470943, -0.943793, -2.23391, 0.924027, -0.881073, 0.259962, 0.877002, 0.24282, 0.447094, -0.001454, -0.036201, -0.353672], [1.01865, -0.423491, 0.112133, 0.534336, 0.023859, 0.481804, -0.061017, 0.214899, 0.519586, -0.241465, -0.292498, 0.010942, 0.073118, -0.20815, -0.606815, -0.011047, 0.031224, 1.04517, 0.07357, 0.305029, -0.144489, -0.37257, -0.026403, -0.828287, 0.239249, 0.039223, 0.163761, 0.220139, -0.860598, 0.603162, -0.459289, -0.165783, 0.008998, -0.915139, -0.239521, -0.173368, 0.120693, -0.018312, 0.266992, -0.354929, -0.50111, 0.090217, -0.0112, 0.331931, 0.285601, -0.10976, -0.067052, -0.146895, 0.023846, 0.132556], [0.937572, 0.630046, -0.394813, -0.23432, 0.000385, -0.185244, 1.12888, 0.702475, 0.36878, -0.042065, -0.93974, -0.338602, -0.020733, 0.468213, -0.175081, -0.063789, -0.472759, -0.015062, 1.03346, -0.793201, -0.204215, 0.264316, 0.034241, 0.46179, 1.34048, 0.033462, -0.867403, -0.11485, 0.455149, 0.102245, 0.359521, 0.603929, 0.022684, 0.442671, 0.936032, 0.759294, -0.811295, 0.185577, -0.050069, 0.187017, 1.23628, -0.674755, -0.845961, -0.829079, -0.246958, -0.196314, 0.471376, -0.493737, 0.020836, 0.610301], [-0.082328, -0.591465, -1.48689, -0.464818, -0.008351, -1.69625, -2.16056, 0.832462, 0.422404, -0.416195, -2.16226, -0.141663, 2.07996, -0.850428, 1.2786, -0.03023, -1.81601, 0.853997, 0.021079, 0.607352, 1.08331, -1.45516, 0.049126, -0.414484, -0.280841, -0.018718, 0.283553, 0.063381, -0.463866, 0.6818, 0.255796, -3.95865, -0.011549, -0.764774, 1.16549, -1.29435, -1.46817, -0.130394, 0.671057, -1.18834, -0.483297, -1.17483, -0.740426, -0.277736, 1.30336, 0.805431, 0.166224, -1.53439, 0.006556, 0.168679], [-3.25654, 0.150963, -0.429114, -0.290106, 0.046542, -0.516895, -1.59906, 0.022281, -0.179385, -0.091044, -0.00897, 1.26563, 0.584776, 0.298774, 1.00182, 0.030268, -0.436577, -0.744324, -0.307459, -0.397518, -0.179184, 0.985223, -0.047375, 0.822023, -0.329976, -0.015264, -0.40676, -0.29517, -1.24501, -0.969177, 0.45722, 0.456317, 0.049698, 0.732616, -0.166471, 0.101573, -0.308419, -2.93589, -0.151357, -1.25025, 0.438788, -1.2897, -0.347964, 0.475059, 0.177772, -0.093349, -0.694247, 0.420116, -0.021145, -0.325598], [-0.983005, 0.136787, 0.10434, 0.50846, 0.003885, -0.001468, 0.164849, 0.25939, -1.89711, -0.026134, -0.343797, -0.102694, -0.084142, 0.126966, 0.027029, 0.042652, 0.429694, 0.295769, -0.578931, 0.180823, -0.396387, 0.125301, -0.037377, -0.516369, 0.539768, -0.00023, 0.417955, -0.100426, 0.749388, -0.695848, 0.694678, -0.419243, -0.008158, 0.384489, 0.751874, 0.050889, -0.578865, 0.359747, 0.207889, 0.181951, -0.08555, 1.5458, 0.354721, 0.28947, -0.053564, 0.366321, 0.576987, -0.312126, 0.031845, 0.03314], [-0.089937, -0.192793, -0.008459, -3.18793, -0.017314, -0.601482, -2.4736, -1.21781, 0.188479, -8.86363, -0.403416, 0.476368, 0.87849, 0.433258, -0.841782, -0.038344, 0.283101, -0.071258, -1.68098, 0.154348, -1.182, 0.954638, -0.006338, -2.96618, -1.41712, -0.025987, 0.983578, 1.13035, 0.004999, 0.194586, 0.008101, 0.049377, -0.039296, -1.3798, -1.16019, -0.000708, 0.170357, -1.25763, -3.54797, 1.13789, -0.159293, 0.168793, 0.819998, 0.516559, -1.10794, 0.088759, 1.54562, 0.624431, -0.049723, -0.062283], [-0.308956, -0.030882, -0.015387, -0.132156, -0.011666, -0.890089, 0.493115, -0.495612, 0.257923, -0.49207, -0.052862, 1.40922, -0.391849, 0.485199, -0.281434, 0.102563, -0.0186, 0.841098, 0.57799, 0.113426, 0.182906, -0.10012, -0.031595, 0.076984, 0.175763, -0.00795, -0.425227, -0.39614, -1.09285, 0.135137, -0.175292, -0.583666, -0.025549, -0.140072, -0.494196, -0.024973, -0.049988, -0.109958, -0.134723, 0.229387, -0.246199, 0.21084, -0.364438, -0.340608, 0.07295, 1.32516, 0.326147, 0.102177, -0.032856, -0.567436], [1.92299, -0.104907, -0.171606, -0.40697, -0.008559, 0.32084, -0.688699, -0.440409, -0.45504, -0.071153, -0.554375, 0.659189, 0.055523, -0.327953, 0.871228, 0.075913, 0.07824, 0.621081, -0.353591, -0.231101, 0.057275, 1.34286, 0.02274, 0.444524, 0.567773, -0.030755, -2.42557, -0.161235, 0.202862, 0.594436, -0.270241, -0.833716, -0.056552, -1.11361, 0.258579, 0.675191, 0.899636, -1.34628, 0.046978, 0.595504, 0.335103, -0.21649, -0.14265, 0.147673, 0.128352, -0.357984, -0.657261, 0.107588, -0.012936, -0.147246], [-0.34175, 0.121248, 0.030892, 0.733801, -0.007376, 0.050097, 0.133278, 0.411298, -0.066588, 0.021972, 0.647306, -0.784511, -0.147551, -0.479397, -0.568897, 0.025654, 0.117994, 0.180268, -0.173617, 0.456368, 0.105792, -0.659345, 0.024114, -0.09358, 0.080301, 0.007763, -0.492944, 0.268576, -0.765652, -0.758572, 0.354923, -0.299924, -0.0043, 0.225013, -0.073991, -0.258068, 0.522148, 0.088424, 0.281948, -0.640437, -0.293702, -0.193954, 0.622498, 1.37807, -0.033193, -0.091613, 0.17451, 0.175323, 0.040732, -0.131318], [-0.417582, -0.55288, 0.782479, -0.014684, 0.038587, 0.575592, 0.24576, 0.262315, 0.114903, -0.586729, 2.13878, -0.296297, -1.12405, 0.727025, -0.255018, 0.07948, 0.107252, -0.580154, 0.237367, -0.024949, -0.107507, -0.033851, 0.025764, 0.258538, 0.322438, -0.019915, -0.567565, 0.635022, 0.118746, -0.580671, 0.733999, 0.378105, 0.020436, 0.851909, 0.481914, -0.523327, -0.646561, -0.201177, 0.261447, -0.215193, 0.149225, -0.430195, -0.082691, -0.125559, -0.605974, -0.214697, 0.399283, 0.271687, -0.026414, -0.193061], [-0.092203, 0.024489, 0.038487, 0.174672, -0.032227, -0.063664, 0.116133, 0.121879, 0.068205, -0.001642, 0.163829, -1.07989, -0.057023, 0.053841, 0.057948, -0.040079, 0.042708, -0.167601, -0.19379, 0.360432, 0.027509, 0.072896, 0.028858, 0.01883, -0.020273, 0.045265, -0.319957, 0.266686, -0.000502, 0.135711, -0.10766, -0.034907, -0.066411, 0.116693, 0.074025, 0.054743, -0.092446, 0.074134, 0.060086, -0.118691, 0.034979, 0.184733, -0.002255, -0.975575, -0.006552, 0.031929, 0.081092, 0.032922, -0.00814, 0.117282], [-0.314741, 0.171207, -0.262474, 0.22881, 0.025707, 0.580067, 0.086032, 0.703938, 0.085063, 0.292815, 0.43838, -1.1571, 0.479122, 0.176525, -0.359864, 0.157154, -0.551001, 0.29623, -0.204585, -0.602063, 0.213799, 0.748891, 0.003985, 0.342719, -0.155325, 0.030606, 0.471297, -0.30988, -0.50053, -0.009093, 0.120239, 0.749716, -0.041705, 0.195501, -0.214766, 0.653734, -0.011962, 0.246701, 0.005277, 0.357278, 0.100287, -1.01646, -0.372669, 0.464198, 0.505119, 0.266817, 0.438199, 0.270807, -0.001316, -0.273945], [0.83645, -0.050125, 0.146901, 0.328484, 0.03556, -0.108853, -0.184553, -0.211223, -0.091853, 0.001407, -0.106109, -0.374619, 0.16373, 0.666749, -0.028238, 0.069961, 0.217972, -0.32264, 0.270081, 0.434542, -0.135877, 1.0804, 0.043256, -0.158835, 0.318204, 0.002694, -0.571022, -0.499713, 0.916314, -0.225455, 0.604826, -0.567425, -0.035931, 0.610142, -0.047261, 0.066297, -0.061274, -0.773944, -0.519122, -0.295078, -0.571832, 0.334246, -0.172097, 0.703028, -0.311707, 0.049659, -0.17526, -0.066261, -0.008074, 0.156471], [0.043496, 0.621146, 0.54803, -0.790575, -0.027684, -0.725063, -0.496549, -1.09762, 0.674674, -0.023846, -0.85107, -0.695707, 0.160436, -0.232211, -0.155593, 0.011998, -0.275471, 0.301446, 0.044343, -0.410053, -0.54312, 0.1941, -0.029455, 1.01801, 1.43414, 0.01934, 0.870557, -0.037003, 0.586126, 0.101841, 0.53627, 0.67269, -0.033508, -0.312728, 0.117708, -0.226958, 0.424416, 0.291556, 0.189088, -0.524577, 0.237589, 0.421457, -0.932128, -0.282096, -0.092923, -0.556839, 0.575842, -0.285488, -0.022612, 0.470997], [0.867593, -0.211235, 0.276086, 1.64814, -0.029042, -0.434655, -1.55862, 0.134908, 0.409192, 0.232637, 0.686874, -0.090251, -0.173001, -0.116469, 0.290195, 0.089063, -0.907719, -0.95686, 0.233545, -0.087663, 0.29408, -0.172058, -0.024653, -0.586421, -0.18886, -0.032868, -0.947756, -0.397523, 1.13825, 0.325021, 0.051707, -1.21391, 0.046489, 1.0133, -0.330454, 0.164344, 0.34929, -1.98872, -0.448412, -0.349637, -0.398338, -0.95213, 0.520292, 0.003598, -0.119685, -0.512825, -0.699149, 1.15706, -0.041148, -0.652585], [-0.157191, 0.08244, 0.065216, 0.310342, 0.023704, -0.369541, 0.488505, 0.045537, -0.259982, 0.302285, 0.352593, 0.325872, -0.114164, -0.392328, 0.29847, -0.029407, 0.090692, -0.008648, 0.142027, 0.101414, -0.087304, -0.238602, -0.018184, 0.154933, -0.07509, 0.038175, 0.049142, 0.509121, -0.919097, 0.1713, -0.320988, -0.169892, -0.022582, -0.323224, 0.255804, 0.154659, -0.208284, 0.185545, -0.317894, -0.118342, 0.011684, 0.565544, 0.210877, 1.11868, -0.076049, 0.02772, 0.137049, 0.083001, 0.022675, 0.444685]], [[-0.253005, -0.447744, 0.034977, 0.450522, -0.321862, 0.311422, -0.975866, 0.018704, 0.898311, -0.136611, 0.446141, 1.26168, -0.368834, -0.107789, -0.177927, -0.514825, -0.107084, -0.080451, -0.457699, -0.35252, -0.38875, -0.047699, -0.563877, 0.272812, 0.127225, -0.862878, -0.447229, 0.51059, -1.66169, 0.015589, -0.108899, 0.45954, 0.984972, 0.521209, 0.366257, -2.65408, -0.647487, 0.226669, 0.766868, 1.38142, -0.557732, -1.24005, -0.202056, -0.155059, -0.830745, 0.281473, 0.509327, -1.1721, 0.396599, -0.749884], [0.075745, 0.119441, 0.007687, -0.487187, -0.278655, -0.025689, 0.646508, -0.000699, -0.015332, 0.242235, -0.183071, -0.524438, -0.294087, 0.358481, -0.183277, 0.056618, 0.075331, -0.244474, 0.715792, -0.113986, 0.439852, 0.033271, 0.20083, -1.94341, -0.310725, -0.063633, 0.137679, -0.0945, 0.000444, 0.022731, 0.076252, -0.166019, 0.005885, -1.14732, -0.362874, 0.011473, 0.101435, -0.395338, -0.632049, 0.138552, -0.321526, -0.066219, -0.119454, 0.044209, 0.174844, -0.010207, -0.052363, 0.079761, -0.206293, 0.161748], [-0.545536, -0.542563, -0.03837, -0.048705, -8.15073, 0.425031, -0.344229, -0.049237, 0.467188, -0.175339, 0.6449, -0.666869, 0.4001, 0.095329, -0.290963, -0.148254, 0.4166, 0.023675, 0.181207, -0.24239, -0.507591, 0.011911, 0.11875, 0.729935, 0.069176, 0.346674, -0.050346, -0.455116, 0.031917, -0.019156, -0.20758, -0.079097, -0.364109, -0.911735, -0.051873, 0.063779, 0.230333, 1.027, -0.228916, -0.009686, -0.364228, -0.118635, 0.380056, -0.38139, 0.702497, 0.076293, 0.00666, -0.325644, -0.203434, -0.589659], [0.172315, 0.56024, 0.040608, 0.908279, -0.893723, -0.891747, -0.411904, -0.020836, -0.14858, -0.024951, 0.268107, 0.008637, -0.447059, 0.042905, 0.089886, 1.07872, 0.604809, 0.051066, -0.110699, -0.491186, -0.375157, 0.022473, -1.64386, 0.279847, -0.281519, -0.206868, -0.786488, 1.35762, 0.255221, 0.009597, 0.774975, 0.179638, 1.28643, 0.013715, -1.72915, 0.417833, -0.231362, -0.006212, -0.835978, -0.01935, 0.199955, -0.577374, -1.39754, -1.12044, 0.499854, 0.352237, -0.008085, 1.18627, -0.611407, -0.973925], [-1.05152, -0.147593, -0.03625, -0.212855, 1.30529, -2.28632, -1.58866, -0.010565, 0.108499, -0.153063, 0.121034, -0.110841, 0.144603, 1.1423, -0.179468, 0.989916, -0.099932, -0.929633, 0.813553, 1.21035, 0.141722, 0.031194, 0.087084, -1.06324, 0.096171, 0.074652, -0.492716, -1.24613, 1.86774, 0.024254, -1.17737, 1.0138, -4.56573, -0.724253, -0.307696, -0.072553, -2.61515, 0.039441, -0.465933, 0.818928, -0.502135, -0.379851, 1.29939, -0.001261, -0.229533, -0.740535, 0.815482, -0.070972, 0.735111, -1.30139], [-0.137507, 0.252794, -0.020439, 0.311295, 0.792202, -0.843171, -0.040905, 0.099812, -0.76233, -0.257547, 0.224921, 1.08097, -0.084832, -0.317212, -0.404333, -0.254805, 0.621006, 0.162908, -0.882333, 0.245953, -0.293385, 0.052665, 0.584324, 0.258487, 0.026426, -0.720176, -0.386302, -0.003095, 0.11229, 0.141407, -0.009442, -0.248291, 0.616469, 0.478767, -0.363962, 0.394892, -0.188803, -0.637487, 0.332408, 0.009272, 0.107027, -1.01358, -0.302802, -0.218918, 0.226886, 0.18621, -0.088904, -0.271957, 0.245229, -0.03518], [0.445941, 0.842709, 0.00302, 0.075519, -0.717678, -0.138704, 1.31919, 0.006714, 0.612071, 0.129491, -1.19389, -0.1578, -0.090177, -0.772905, -0.327143, 0.502748, 0.656991, 0.976277, -1.45997, 0.942125, -0.070041, 0.051926, -0.705721, 1.61582, -0.091505, 0.123044, 0.183225, -0.724439, 0.15948, 0.001738, -0.11595, -0.047674, -2.0317, 1.39213, -0.440314, -1.02406, 0.517894, 1.704, 0.471653, 0.180568, 0.621053, -3.18033, -0.55244, -0.622018, 0.04332, -0.611503, -0.528186, 1.30573, 0.149508, 1.0561], [0.053046, -0.000377, 0.029174, 0.448032, -1.23127, -3.02003, 0.742522, 0.138941, -1.28183, -0.686283, -0.063652, 1.52307, -0.532165, -1.33312, 0.040359, 0.093602, -0.694961, 0.053461, 0.262795, 0.518846, 0.724434, -0.048797, 0.417112, 0.09699, -2.55227, -0.538277, -0.478005, -0.212813, -0.225812, 0.141459, -1.04458, -0.013701, 0.858764, 0.943454, -0.189555, -0.368367, -0.27003, -0.333453, 0.656204, 0.793627, 0.649201, 0.748364, 0.41599, 0.040355, 0.429032, -0.417011, -0.330542, 0.08993, -0.115648, 0.175991], [-0.573578, 0.061394, -0.000236, -0.86993, -0.113359, -0.613343, -0.808376, 0.039834, 0.042682, 0.070016, 0.193612, -0.865876, 0.071552, 0.596341, 0.129804, -0.254518, -0.195044, 0.127795, -0.400612, -1.50916, -0.001197, -0.027375, -0.468671, -0.262118, -0.160107, -0.844142, -0.613445, 0.721147, 0.165495, -0.048187, -0.544788, -0.17517, 0.34302, -0.470237, -0.698273, 0.044475, -0.002533, 0.094668, -0.0318, -1.66569, 0.235767, 0.101005, -0.995981, -1.2058, -0.392625, 1.425, -0.916656, -2.22576, 0.92531, 0.196083], [0.36746, -0.058972, 0.006824, -0.305311, -1.75187, 1.06271, 0.426549, -0.063231, 0.983613, 0.35092, -0.203048, 0.128087, 0.357299, 0.797942, 0.351981, 0.332269, -0.26015, -0.360797, 1.11962, 0.405636, -0.483745, 0.028808, 0.527553, -0.078978, 0.217968, 0.013732, -0.532435, -0.073995, 0.670031, -0.001527, 0.501057, -0.234085, -0.478938, -0.623555, -0.102612, -1.1442, 0.348626, 1.0224, -0.456619, -0.07689, 0.021547, 0.440888, 0.162496, -0.662761, 0.188214, -0.189069, -0.003852, -0.411676, -0.468352, -0.226365], [0.542458, -0.221994, -0.048447, -0.03479, 0.702451, -0.054002, 0.026374, 0.151441, -0.198263, 0.055726, -0.457383, -0.326816, 0.651393, -0.429745, 0.364866, 0.306226, -4.04305, -0.158558, 0.559062, 1.0085, -0.013773, -0.010728, 0.012099, -0.384928, -0.32487, -0.04583, -0.086375, -0.708294, 0.022133, 0.093623, -0.239107, -0.14138, 0.384516, 0.005979, -0.356589, -0.208352, -0.036643, 0.008747, -0.22848, -0.024134, -0.392382, 0.565769, 0.190664, -0.030653, 0.329914, 0.130323, 0.57429, -0.181841, 0.394944, -0.743568], [0.031653, -0.157279, 0.052815, -0.296416, -0.019459, -0.264338, 1.01528, -0.077344, -0.217816, -0.089781, 0.004548, 0.543752, 0.615123, 0.1077, 0.062864, -1.0316, 0.10353, 0.229873, -0.890486, 0.309747, 0.031833, 0.026051, 1.0828, 0.165085, 0.217042, -0.538231, 0.402826, -0.668656, 0.232504, -0.033106, 0.276258, -0.39367, -0.069253, -0.315857, 0.015324, -0.171897, 0.081687, 0.063098, 0.370396, -0.102099, -0.152778, 0.006096, -0.106971, 0.164013, 0.459362, 0.021157, -0.172657, -0.580481, 1.08016, -0.04714], [0.062761, -0.370439, 0.043602, -0.472105, 0.919966, -0.580852, -0.362189, -0.02333, -0.355441, 0.30391, 0.177698, -0.35968, -0.222667, 0.252032, -0.293716, 0.548537, 0.331744, -0.173389, 0.046013, 0.388221, -0.103937, -0.043775, -0.419383, 0.402107, -0.078408, -0.098144, -0.157975, 0.419126, 0.421218, -0.002134, -0.354124, 0.088071, -0.612298, -0.732515, 0.170407, -0.239422, 0.006451, -0.349781, -0.275625, -0.198431, 0.19159, 0.203722, 0.443776, -0.074002, -0.28924, 0.118751, 0.133656, 0.112477, 0.568794, -0.876121], [0.245648, 0.780029, 0.028831, -0.188109, 1.19533, 0.032032, -0.060076, 0.017805, 0.059155, -0.018482, 0.152263, 0.387354, 0.261064, -0.085351, -0.114348, -0.041908, -0.848956, -0.01199, 0.159391, 0.259105, -0.206703, 0.013384, -0.4025, 0.302869, -0.098773, -0.084781, -0.26248, -0.168208, 0.258814, 0.093944, -0.282813, 0.291076, 0.151136, 0.00213, -0.513136, 0.126644, 0.022109, -0.257849, 0.195038, 0.066596, 0.057533, -0.216889, 0.312398, -0.04308, 0.167039, 0.466118, 0.686497, -0.138594, -0.102471, 0.055232], [0.283382, 0.887984, -0.012869, 0.448364, -0.243185, -0.358382, -1.60951, 0.102586, 0.118223, 0.292697, -0.666886, 1.33761, 1.91372, -0.307139, 0.302592, 0.355929, -0.113632, 0.291045, -1.74716, 1.78543, 0.01227, 0.041496, 0.023134, 1.01928, 0.597815, -0.747582, 0.080288, -0.18419, -0.035404, 0.111836, -10.2834, -0.430289, -0.135802, -1.54479, -1.53233, 0.670039, 1.2573, -0.64988, 0.007554, -0.753393, 0.02487, 0.335285, -0.898108, -0.192871, -0.579215, -1.26713, -0.498836, -0.881449, 1.44225, -0.217465], [-0.030677, 0.212601, 0.011895, -0.43304, 0.335549, 0.089966, -0.535387, -0.000396, 0.101007, 0.033452, 0.521574, -0.046187, -0.065313, 0.176579, 0.087572, -0.269606, -0.58298, -0.043631, -0.168866, 0.094214, -0.176277, 0.049706, 0.18471, 0.51493, 0.360099, 0.104743, 0.260123, -0.1559, 0.129135, -0.027866, 0.317758, -0.310377, -0.852032, -0.505074, -0.362371, -0.246729, 0.208914, -0.768128, -0.184538, -0.161802, -0.040187, 0.640371, 0.076157, -0.225583, 1.03759, -0.172886, 0.148763, -0.171505, -0.14494, -0.594688], [0.010382, 0.127908, -0.00809, -0.250343, 0.886571, -0.842364, 0.558663, 0.126596, 0.083382, -0.092985, -0.176427, 3.18378, -0.741231, -0.714821, 0.609458, 0.047904, -0.097266, 0.074948, 0.742229, 0.44712, 1.61017, 0.032428, -0.461785, -1.50045, 1.37494, -1.01872, -0.260863, -0.130239, -1.23829, 0.155401, 0.293443, -0.222116, 1.02706, 1.03881, 0.227597, 0.225177, -0.402912, -0.003786, 0.243058, 0.465501, 0.218085, 0.358606, 0.138663, 0.480916, 0.188039, -1.01589, 0.054034, 0.587082, 0.262759, -0.066731], [0.277123, -0.203597, -0.043445, -0.673178, -5.46496, -0.809935, -0.328412, -0.033391, -1.95823, 0.198477, -0.016356, -0.272356, -1.83779, -0.354605, -0.766713, 0.596404, 0.040518, -0.478989, -1.93885, 1.4466, 1.08744, 0.044036, -0.789475, -0.539636, 0.434359, -0.081831, -2.8997, 0.004442, 1.27345, -0.02953, -0.338221, -0.697032, -2.43409, -0.391523, -0.220663, -0.30053, 0.313361, 0.422296, -0.202124, -2.03116, 0.839223, -0.661006, -1.11495, -0.811644, 1.03724, 1.11261, -0.170453, -0.380078, 0.31535, 0.247137], [0.000581, -0.335857, 0.012596, -0.683159, 0.115048, 0.480079, 0.250309, -0.006126, 0.240133, 0.412093, -0.637161, -0.453478, -0.109835, 0.386772, -0.186472, 0.238716, -0.355563, -0.52832, 0.408731, 0.045042, -0.395268, 0.006402, -0.241047, -0.816519, -0.029524, 0.387994, -0.252877, -0.687458, 0.694477, -0.029319, 0.281276, 0.092976, -0.606862, -0.772755, -0.961071, -0.447496, 0.412889, -0.77824, -0.455877, 0.064099, -0.421724, -0.269166, -0.291912, 0.220292, 2.14463, 0.758802, -0.111959, -0.240703, 0.447861, -0.743091], [0.070806, 0.126226, -0.003006, 0.188355, 0.417426, -0.268536, -0.051432, 0.14949, -0.107823, 0.14074, -0.301826, 0.381012, -0.354669, 0.365819, -0.708319, 0.454399, -0.251006, -0.097139, 0.390652, -0.2249, -0.234736, -0.039241, -0.2862, -0.154784, -0.213938, 0.008714, 0.107249, 0.362136, -0.446827, 0.163951, -0.12628, -0.122263, -0.279475, -0.26486, -0.040109, 0.676216, -0.131603, -0.094989, 0.003683, -0.022045, -0.197717, -0.582015, -0.077399, -0.631173, -0.25201, -0.212438, 0.296755, 0.008836, -0.720293, 0.017046], [0.035497, -0.882798, 0.005237, -0.105312, -0.59464, -0.121623, 0.059062, 0.000229, -0.077628, 0.219037, -0.407287, 0.863954, -0.639927, -0.37764, 0.041729, -0.224515, 0.459861, -0.190452, 1.72355, -0.561137, -0.086314, -0.014145, 0.005073, 0.66603, -0.236308, -0.045831, 0.319249, -0.078427, 0.005651, 0.04128, -0.111651, 0.220144, 0.24055, -0.132477, 0.701066, -0.064926, -0.317232, -1.24099, 0.604631, -0.237775, 0.175426, 1.30206, 0.790619, 0.029766, 0.259162, -0.332033, -0.332714, 0.337834, 0.145984, -0.008262], [1.44321, -0.182344, 0.062109, 0.588629, 0.032362, 0.40676, -0.397397, 0.013193, 0.10373, 0.239133, -0.440268, 0.302445, 0.124811, 0.214021, 0.899665, 0.143486, 1.79215, -0.375571, -0.02437, -0.754843, 0.252327, -0.035989, -0.081593, 0.910957, 0.024915, -0.245813, -0.449198, 0.133589, 0.763821, 0.068733, -0.27682, 0.023333, -0.149497, 0.184103, -1.45116, -0.62677, 0.087079, 1.305, -0.66581, -1.21824, -0.298003, 0.130382, 0.357279, 0.048991, -1.06493, 0.045597, 0.39274, -0.107717, 0.59115, -0.146894], [0.209364, -0.489772, -0.007744, -0.198718, 1.19946, -0.2201, -0.512843, -0.052427, -0.05224, -0.064301, 0.361914, 0.428171, -0.913884, 0.41251, -0.377902, -0.033886, -2.62873, -0.013086, -0.428777, 0.170486, -0.907107, -0.013208, -0.647633, -1.08995, 0.269134, 0.174296, 0.800377, -0.336715, 0.252551, 0.041083, -0.280648, 0.199909, -0.776306, -0.060966, 0.469893, 0.298694, 0.216455, -0.826511, -0.882746, -0.141372, -0.012341, -0.409308, 0.194355, 0.066707, 0.275351, 0.225133, 0.40136, 0.539408, 0.454723, 0.200347], [0.194336, -0.373769, 0.029986, 0.182875, -0.325109, -0.532997, -0.236179, 0.043882, -0.182491, -0.483925, 0.187104, 0.384161, -0.121339, -0.063126, -0.451612, 0.04246, 0.271537, 0.097535, -0.062374, 0.573646, -0.435794, -0.000394, 0.169094, 0.824653, 0.359022, -0.307638, 0.171742, -0.427177, -0.162401, 0.065735, 0.027405, 0.209191, -0.133232, -0.046842, 0.452238, 0.08414, -0.047752, -0.001813, 0.036879, -0.234239, 0.299013, 0.009574, -0.232515, -0.636877, 0.63579, 0.194781, 0.548055, 0.533598, 0.707023, 0.362548], [0.403587, 0.130429, 0.010152, 0.245586, -1.22782, 0.458134, 0.221117, 0.130925, -0.410712, -0.047801, -0.410551, -0.046978, -0.329218, -0.331387, 0.011426, 0.547324, 0.722364, 0.147499, 1.49992, -0.593096, 0.05989, 0.038174, 0.3497, -1.44101, -0.396365, 0.231026, -0.906892, 0.032683, -0.071582, 0.16999, -1.26083, 0.806867, -0.954568, 0.842255, -0.314078, 0.135913, -0.083605, 0.258716, 0.121155, 0.477463, 0.190489, -1.34254, 0.042223, 0.340021, 0.080203, -0.687684, 0.422283, -0.631782, 0.219546, -0.013084], [-0.135362, 0.053894, -0.014248, 0.028378, -0.506778, -0.022199, 0.057969, 0.086342, -0.007038, -0.098808, -0.10889, -0.027624, 0.027062, 0.01942, -0.099385, 0.021538, -1.51236, 0.022736, -0.054268, 0.071125, 0.117548, -0.047682, -0.01493, -0.257423, 0.037472, 0.016705, 0.022442, 0.025316, -0.100982, 0.086781, 0.019374, 0.006656, -0.007191, -0.202418, 0.034578, -0.029339, -0.02154, -0.105801, 0.156193, -0.012177, -0.011347, -0.011268, -0.087513, 0.016788, 1.36444, 0.011227, -0.190109, 0.057359, -0.029381, -0.161726], [-1.35333, -1.09801, 0.012408, 0.002772, -1.9281, 0.321855, -0.647817, 0.0173, 0.189234, 0.028526, -1.12987, -1.23085, 0.073523, 0.31394, -0.29393, -0.091021, -0.293156, -0.304349, 3.24604, 0.000918, -0.279762, -0.050431, 0.393885, 0.228725, -0.844709, 0.390704, -0.016375, -0.510891, -0.337408, 0.002297, 0.501153, -0.302069, -0.791533, -0.008099, 0.555253, -0.363731, 0.27987, 0.719205, -0.348159, 0.050003, -0.157267, -0.809539, -0.379496, 0.105099, 0.71364, -0.08219, -1.07494, 0.140333, 0.289551, -0.162668], [0.410831, 0.250327, 0.034892, 0.262545, -0.272943, -0.40269, 0.274863, 0.034558, -0.247926, -0.277117, -0.36939, 0.741173, -0.236701, -0.104022, -0.065071, -1.01, -1.85772, 0.212375, -0.774069, 0.260293, -0.638954, -0.014401, -0.494693, 0.644441, 0.239149, -0.272857, -0.510982, 0.05497, 0.033885, 0.038191, -0.557281, -0.164463, -0.659296, -0.229072, -0.391687, -0.19746, 0.277499, -0.754996, -0.400815, -0.95752, 0.272812, -0.714723, -0.287729, -1.01011, 0.093905, 0.54858, 0.165046, 0.580502, -0.368745, 0.005103], [-0.077149, -0.177098, -0.002193, -0.282385, 0.811027, 0.327768, -0.177899, 0.010556, 0.139692, 0.153162, -0.096983, 0.00869, -0.025268, 0.21399, 0.023456, 0.145487, -1.24808, -0.136655, -0.402845, 0.297419, 0.1332, 0.032562, -0.100869, -0.138661, 0.342284, 0.191749, -0.351399, -0.204724, 0.418023, -0.021946, 0.052207, 0.235606, -0.500267, -0.063874, -0.075684, -0.379255, 0.155727, -0.482044, 0.006025, -0.289453, -0.140524, -0.254894, -0.332051, -0.143243, 1.85899, 0.325256, -0.056107, -0.04289, 0.476087, -0.724403], [0.610997, -0.199968, 0.022321, 1.73552, -2.92291, 0.44551, -0.019551, 0.04659, 0.591278, 0.117617, 0.557662, 0.188066, 0.916825, 0.309692, 0.42206, 0.594154, -1.50679, 0.034438, 1.08666, -0.343804, 1.54173, 0.041498, -0.343734, 1.62557, 1.26388, 0.269549, 0.064418, -0.121051, 0.596626, -0.04264, -0.780569, 0.618914, -1.01826, 0.274815, -0.400631, -0.169836, -0.366175, 1.34416, -3.31934, -0.412807, -0.558388, -0.133374, 0.637221, -0.519649, -0.657817, -0.787888, 0.486049, 0.182127, 0.316765, -0.622488], [1.00984, 0.133096, -0.030836, 0.369907, -1.19045, 0.114413, -0.253804, 0.046882, -0.067389, -0.678973, -0.048656, 0.373916, 0.194235, 0.258981, -0.011465, 0.23367, -4.75576, -0.163678, 0.129555, 0.195982, -0.169966, 0.030466, -0.291191, -0.225603, 0.03785, -0.15376, -0.053669, 0.099589, 0.273398, 0.041681, -0.081487, -0.021182, 0.381612, -0.140737, -1.0512, -0.186495, 0.005142, 0.297334, -0.416227, 0.148871, -0.322665, 0.283194, 0.077708, 0.20768, -0.425171, 0.700511, 0.578353, 0.079012, 0.209266, -0.06137], [-0.051334, -0.030278, 0.028836, 0.018499, 0.034918, -0.05015, -0.048121, -0.052634, 0.030496, 0.007803, -0.050551, 0.034326, -0.045024, -0.030018, 0.000578, -0.024054, -0.00688, -0.007939, 0.046903, -0.021979, 0.031661, -0.000521, -0.031725, 0.006353, 0.037371, -0.065866, -0.030277, -0.008822, 0.026105, -0.001684, -0.013366, -0.032284, 0.029033, 0.022575, 0.025666, 0.008954, 0.025518, 0.013248, -0.046241, -0.048023, -0.024145, 0.03388, -0.012298, 0.022714, -0.008913, -0.043312, -0.018946, 0.013517, -0.02845, 0.025193], [0.479958, 0.007006, -0.019931, 0.145311, 0.793128, -0.038219, 0.391131, 0.113761, 0.056303, 0.123886, 0.006054, 0.100427, -0.766603, 0.381853, -0.615107, 0.237416, 0.185773, -0.370547, 0.365693, -0.219938, 0.601467, 0.021276, 0.220552, 0.128073, -0.042128, 0.025738, -0.260663, 0.359274, 0.036655, 0.096248, -0.190594, -0.104077, -0.485446, 0.730632, 0.341192, -0.334926, -0.236872, -0.466798, -0.82456, 0.018635, -0.344525, -0.235707, -0.402962, 0.347042, -0.255746, 0.37782, -0.090357, 0.046635, -0.128032, -0.095242], [-0.186896, -0.021545, 0.003134, -0.022502, -0.147962, 0.144807, -0.250791, 0.033217, 0.054285, 0.05965, -0.248915, 0.001481, -0.113632, 0.221323, -0.222538, -0.137422, -0.08344, 0.07214, 0.208834, 0.015521, 0.02639, -0.031, 0.215114, -0.160923, -0.148609, 0.061882, 0.072382, 0.030149, -0.288034, 0.016067, 0.344903, -0.249731, -0.467586, -0.200291, 0.059446, -0.153317, -0.043961, 0.078844, 0.106956, -0.035143, 0.040624, -0.02447, -0.085033, -0.094759, -0.133754, 0.15486, 0.104306, -0.115915, 0.00536, 0.249039], [0.209852, -0.339922, 0.048881, 0.348348, -1.16375, -0.392629, -0.28701, 0.038928, -0.477475, 0.195713, 0.147707, -0.258995, -0.330239, 0.211246, 0.530886, -0.337587, 0.739668, 0.122648, -0.298144, -0.190144, 0.469768, -0.011408, 0.010717, -0.284112, -0.102042, 0.108826, -0.024474, 0.144654, 0.007748, 0.011142, -0.811927, 0.049148, 0.344388, 0.353744, -0.866656, -0.251054, -0.120845, 1.05222, -0.445687, -0.124276, 0.650697, -0.700179, -0.462986, 0.446345, 0.16567, 0.31681, 0.126973, 0.150426, 0.21464, -0.632528], [0.284454, -0.428105, -0.033464, -0.747455, -0.28428, 0.696564, -0.643516, -0.026177, 0.243384, 0.097744, -0.198989, 0.184752, 0.215625, 0.666541, -0.104331, 0.319717, -0.170978, -0.541735, 0.491843, 0.276745, -0.483768, -0.02916, -0.480411, -0.066042, 0.188245, 0.58029, -0.097195, -0.218039, 0.840018, -0.030669, 0.032252, 0.401436, -0.502919, -0.738045, -0.61479, -0.810258, 0.384456, -0.155722, -0.884984, 0.033572, -0.732824, -0.219836, -0.070514, 0.695264, 1.66402, 1.03011, -0.544265, 0.100848, 0.648271, -1.25728], [-0.013273, 0.011707, -0.018809, -0.012895, 0.00986, -0.019957, 0.038412, -0.052679, -0.03693, 0.028921, -0.050367, 0.008056, -0.051033, 0.013778, 0.01644, 0.01886, -0.042204, 0.022167, -0.001237, -0.042796, 0.033321, 0.031616, -0.046913, 0.017414, 0.031538, -0.042507, -0.011269, -0.040128, 0.020447, -0.00909, 0.034403, -0.049795, 0.02401, -0.053348, 0.00418, -0.036541, -0.041269, 0.033036, 4.3e-05, 0.034029, 0.022455, -0.055977, -0.022053, 0.004565, -0.016634, -0.015168, -0.043646, -0.025697, -0.032575, -0.013308], [-0.436878, -0.151113, 0.01477, -0.082122, -0.554372, 0.020741, 0.493003, -0.062034, 0.010167, 0.121593, 0.0934, 0.260297, 0.198383, -0.121109, -0.0978, 0.01675, -3.03012, -0.137292, -0.21249, 0.083491, 0.236472, 0.022056, -0.101678, -0.191958, -0.575682, 0.026648, -0.210205, 0.001204, 0.198901, -0.050015, -0.427706, -0.842612, 0.018767, 0.027236, 0.005797, 0.032834, -0.126643, 0.115283, -0.217852, 0.34316, -0.017578, 0.06287, -0.215869, 0.325904, 1.51463, -0.222639, -0.0908, -0.208877, 0.178687, -0.659448], [0.130986, -0.18144, -0.047845, -0.344747, -1.75448, -0.174194, 0.623191, 0.151198, -0.02122, 0.117738, -0.288969, -0.061267, -0.082195, -0.01577, -0.260425, -0.171475, -0.327144, -0.215603, 0.100457, 0.031612, 0.00135, -0.009926, -0.081203, -0.386184, -0.013978, -0.205586, 0.273754, -0.485038, 0.443671, 0.138828, 0.007829, -0.132069, -0.37375, 0.000951, -0.096249, -0.246295, 0.134435, 0.06068, -0.009022, 0.259775, 0.304472, 0.56932, -0.410148, 0.065347, 0.917118, -0.004161, 0.409393, 0.054845, -0.1107, 0.795889], [0.526424, 0.193979, 0.010103, 0.131073, -0.668996, 0.092475, 0.69511, 0.047568, 0.116168, -0.027206, -0.102479, 0.42459, 0.521713, 0.273658, -0.737424, 0.032868, 0.200949, -0.180843, 0.16813, 0.026292, -0.041454, -0.023911, 0.477761, 0.335724, -0.104296, -0.078617, -0.341645, 0.060824, -0.587016, 0.143209, 0.251465, -0.164564, -1.20694, 0.001208, 0.137671, -0.018412, -0.025432, 0.015604, -0.102989, 0.629162, -0.241494, -0.10931, -0.079111, -0.182354, -0.12309, -0.112673, -0.009078, -0.562903, -0.624714, 0.08405], [-0.218215, 0.316175, -0.058524, -0.037381, 0.172609, -0.126124, 0.057575, 0.096273, -0.012478, -0.154398, 0.157735, -0.026325, 0.022255, -0.115378, 0.068921, -0.120617, -0.800366, 0.128006, 0.180817, -0.075939, 0.125378, 0.042847, 0.071206, 0.142015, 0.004647, -0.098464, -0.095548, 0.098534, -0.122134, 0.152374, -0.105924, -0.067934, 0.088932, 0.121303, 0.24304, 0.126293, -0.129115, 0.276708, 0.223132, 0.061024, 0.07872, 0.118523, 0.085282, -0.086288, 0.535204, -0.331929, 0.119895, 0.019312, -0.191456, 0.02163], [0.482386, -0.106304, 0.038303, -0.315094, 0.506295, -0.389137, 0.701028, 0.107332, -0.150833, 0.419029, 0.188239, 0.423818, -0.246889, -0.129589, 0.425435, 0.527897, 0.384018, -0.285898, 0.575024, -0.060915, -0.228128, -0.039357, -0.017766, 0.479448, 0.358315, -0.124324, 0.185887, -0.4657, 0.50887, 0.087415, -0.288254, 0.085852, 0.06314, 0.361524, 0.405473, -0.036871, 0.017362, -1.09289, -0.007709, -0.551332, -0.136396, -0.273065, 0.115616, -0.434546, 0.368583, -0.394432, 0.607736, -0.255782, -0.303352, -0.57246], [0.070535, -0.159737, -0.012308, 0.478029, -1.8077, -0.217835, -1.61546, -0.04571, -0.697018, 0.126225, 0.043729, -0.768422, -1.39296, 0.419852, -0.105075, 2.18519, -0.486174, -1.49506, 1.14017, 0.179334, 0.248534, -0.018585, 0.314235, 0.531602, -0.088778, 1.00577, -1.16644, 0.713023, -0.638035, -0.009207, -1.23801, 0.320635, -0.760393, 0.096658, -0.06007, 0.12589, 0.071436, -0.680607, -1.68459, 0.062901, -0.185858, -0.55539, -0.181398, -0.415922, -1.25783, 0.49921, 0.017929, -0.027946, 0.145554, -0.769684], [-0.077083, -0.065048, 0.005739, -0.019902, -0.02157, -0.008689, 0.005058, -0.037967, 0.033118, -0.017159, -0.066922, 0.026318, -0.011529, -0.034638, 0.010489, -0.041212, 0.021144, 0.025464, 0.031326, 0.00134, -0.032725, 0.026305, 0.003526, 0.040261, -0.048476, -0.04661, 0.004565, -0.022621, 0.015247, -0.0138, 0.026261, -0.031304, 0.004629, -0.014491, 0.023183, 0.008988, 0.023371, -0.013845, -0.011846, -0.030163, 0.014374, -0.039641, -0.002662, -0.0424, -0.042553, -0.035167, -0.049533, 0.00591, -0.053092, -0.000158], [0.030166, 0.282229, -0.006297, -0.250699, -0.718213, -0.350908, -0.017287, 0.042325, -0.501441, 0.030771, 0.177327, 0.368702, 0.039013, -0.079456, -0.143829, -0.433658, 0.339793, 0.02454, 0.214094, -0.101098, 0.285045, 0.028593, -0.189318, -0.245674, 0.01251, -0.249171, 0.26006, -0.075305, -0.362765, 0.083225, -0.217311, -0.169399, -0.215085, -0.334082, 0.114094, 0.286923, 0.001467, -0.425385, 0.13459, -0.198436, 0.069366, 0.285802, -0.088564, 0.122853, 0.268042, -0.093028, -0.162313, 0.20838, 0.299065, 0.251653], [0.089838, 0.024203, -0.026547, -0.198139, -1.29542, 0.139891, -0.558627, 0.024073, 0.240216, 0.142711, -0.006292, 0.230863, 0.416902, 0.290241, 0.347011, 0.028789, -0.118177, -0.17891, 0.337854, 0.298444, -0.512429, 0.044286, 0.116532, -0.250527, 0.345985, 0.233128, 0.020913, -0.362386, 0.216924, -0.017247, -0.159451, 0.497157, -0.462112, -0.528623, 0.337612, -0.289596, 0.377802, -1.61618, -0.207834, 0.103222, 0.036701, -0.066979, 0.240422, 0.099191, -0.153452, 0.081017, -0.066591, 0.230392, -0.022962, 0.690908], [-0.098774, -0.071369, 0.024814, -0.52814, -3.08803, -0.128614, 1.78706, -0.003772, -4.6465, 0.258032, -0.140177, 1.88158, -1.38558, 0.408538, 0.673056, 0.149014, -0.07818, 1.3282, 1.28196, 0.977613, 0.23738, 0.009693, -0.014597, -0.309161, 0.459012, -0.500988, 0.232885, -0.069854, -0.911337, -0.040416, -1.28731, 0.109435, 0.089991, -1.58447, 0.428997, 0.139657, 0.380034, -7.22998, 1.10227, 0.774412, 0.097483, 0.553059, -0.815567, -0.726525, -0.043585, -0.045258, -0.527583, 0.105893, 1.02751, -0.158007], [-0.280379, 0.042955, 0.042653, 0.28247, -0.646342, -0.490005, 0.830412, 0.079768, -0.456965, -0.561987, -0.21712, -0.234123, -0.184671, -0.274207, -0.314949, -0.951977, 0.068672, 0.07207, -0.434293, -0.025363, 0.288213, 0.035155, 0.322882, 0.295194, -0.022678, -0.664749, 0.794342, -0.359437, -0.578262, 0.080542, 0.524825, -0.239611, -0.266263, -0.004394, -0.296306, -0.166261, -0.525338, 0.566293, 0.7147, -0.318258, 0.265779, -0.670753, -0.159198, 0.331837, 0.036605, 0.563513, -0.254983, 0.114217, 0.471713, 0.211832], [-0.938835, -1.64997, -0.030289, 0.528929, -0.466695, 0.477716, -0.634298, 0.006225, 0.046094, 0.166074, -0.294645, -0.307378, -0.57411, 0.2711, 0.480635, 0.366372, -0.867584, 0.160178, 0.08402, 0.137085, 0.280387, -0.006838, 0.133192, 0.668903, 0.559326, 0.457638, -0.140345, -0.660233, 0.345836, 0.050389, -0.315725, 0.006148, -0.389743, -1.1007, 0.359154, -0.483034, 0.473038, -0.4368, -1.0531, -0.20094, -0.24609, 0.478817, -0.189233, -0.128292, 0.428678, -0.004755, -1.5452, 0.007724, 0.469361, -0.348179], [1.24859, -0.787709, 0.009382, 0.967814, -0.011532, -0.159522, 0.017451, 0.047856, 0.207198, 0.071401, -1.2333, -0.853932, 1.16737, 0.567745, -0.020378, -2.27364, 0.156832, -0.520575, -0.638056, 1.02918, 0.701291, 0.005532, -0.661399, 0.288326, 0.418193, -0.18718, -0.247339, 0.49763, 0.121445, -0.012669, -3.24368, 0.021522, -1.86771, 0.811465, -0.023291, 1.42692, 0.48911, -5.02872, 2.42078, 0.603993, -0.494311, -2.40705, -1.04191, 0.69947, -0.74435, -1.50069, 0.191048, -0.117417, 0.435909, 1.04867]], [[0.743641, -1.60644, -2.26695, -3.46791, -2.76363, 0.273266, -1.87146, -0.745734, -0.727522, -0.236981, -1.38524, 0.039384, -1.62416, -0.065928, 0.199839, -1.18812, -1.865, 0.406015, 0.471774, -1.45528, -0.711685, 1.32785, -6.28523, 0.640888, -1.11105, -0.285634, 1.05497, -0.925105, -1.47205, -3.12847, -1.87282, -0.007599, 0.425444, 0.121209, 2.04314, -0.575868, 0.002874, -0.045437, 0.338329, 0.207587, 0.552137, -2.68969, -0.741031, 0.068782, -0.927746, -0.015733, 1.20661, 0.468413, 0.831842, -0.086749], [0.779028, -2.16816, 0.401868, -0.116692, 0.071079, -0.321974, -0.112974, -0.077465, -0.385376, -0.152266, -0.207883, 0.119382, -0.225101, -0.902725, -0.041574, -1.50794, 0.005607, 0.240111, -0.108185, -0.231841, 0.096009, -2.68311, -1.66114, 0.209196, -0.938916, 0.34319, -0.099557, -4.97565, 0.337225, -0.497268, 0.678656, -0.004408, 0.17859, 0.804896, -2.99861, -0.250222, -0.003412, -0.615118, 0.100413, 0.437198, 0.632185, -0.07211, 0.101946, 0.051062, -0.183658, 0.138146, 0.750561, -0.048411, -0.145431, 0.244337], [-0.023762, -0.030461, -0.002593, -0.001172, -0.036477, 0.01087, -0.008832, 0.010123, -0.016618, -0.001564, -0.035185, 0.028102, -0.049317, -0.058444, 0.024562, 0.003152, -0.023742, -0.047555, -0.037333, -0.045696, -0.028608, 0.031226, -0.034053, -0.031421, 0.039947, -0.009125, 0.009892, 0.032272, -0.038525, -0.028706, -0.009603, -0.037121, 0.017512, 0.006988, -0.023607, -0.044098, -0.041926, 0.037329, -0.05638, -0.037875, -0.040816, -0.008485, 0.027886, 0.003374, 0.005966, -0.035047, 0.049545, 0.012885, -0.006373, -0.032066], [0.380268, -0.539554, 0.185381, 0.130186, 0.269433, -0.184866, -0.077477, -0.249411, 0.330563, 0.299044, 0.309155, 0.195403, -0.180836, 0.230805, 0.123839, -0.207295, 0.229728, 0.044235, -0.04096, -0.082219, -0.317875, -0.296056, 0.062626, -0.187698, -0.326621, -0.119733, 0.148636, 0.205629, -0.264733, -0.168366, -0.064019, 0.03579, 0.099087, 0.047527, 0.283787, 0.395947, -0.012138, -0.102193, -0.117279, 0.043824, -0.126546, -0.279431, 0.288337, -0.016334, -0.2604, 0.098928, -0.074828, 0.20635, 0.053597, -0.179114], [0.042147, -0.006915, -0.021556, -0.043077, 0.027751, -0.007365, 0.018708, 0.033505, -0.022997, -0.0147, -0.0003, 0.009569, 0.021218, -0.047, 0.022363, 0.012455, -0.011391, -0.001882, -0.038009, -0.044417, -0.028745, -0.025898, -0.050847, -0.04487, -0.037844, -0.053917, -0.025716, -0.037771, -0.017307, -0.010461, -0.016588, 0.003627, 0.012286, -0.060848, 0.039003, -0.044604, -0.025955, 0.036514, -0.011765, 0.025691, 0.001006, 0.040373, 0.014196, 0.043504, 0.001549, -0.016311, 0.002163, -0.033682, 0.041523, 0.005406], [0.83692, -1.00101, -3.11808, 0.580504, -1.12601, 0.986949, 0.814504, 0.35598, 0.022451, -0.058584, -0.309824, -0.823338, 1.70184, -0.615094, -1.3118, 0.355294, 0.390256, 0.578694, 0.524111, 0.14056, -1.04154, 0.713407, -0.156546, -0.944689, -1.90816, -0.694279, 1.86681, -0.467617, -1.61117, -2.95613, 1.04714, 0.026308, -2.23767, 0.182161, -0.184322, -0.751359, 0.027904, 1.10102, -0.592105, -0.400862, -1.49479, -4.14922, -0.522251, 0.006879, 0.0117, 0.047994, 0.244373, -1.38542, 1.85199, 2.28541], [-0.440591, 0.233022, 0.102614, -0.259611, 0.094647, 0.21983, 0.204294, 0.008808, -0.649322, -0.002935, 0.280786, 0.459692, -0.120646, -0.221304, -0.100458, 0.272003, -0.009225, 0.08256, 0.266235, 0.018171, 0.29261, -0.291704, 0.047592, 0.129272, 0.149337, 0.159393, -0.053487, -0.044935, -0.510466, 0.10062, 0.083767, 0.016018, -0.245382, -0.568809, 0.196707, -0.463684, -0.024115, 0.069079, 0.099823, 0.186793, -0.025312, 0.004604, 0.079064, -0.00205, 0.225283, -0.147762, -0.05961, 0.072759, 0.024589, 0.21585], [-0.456685, -0.068778, 0.541528, -0.352181, -0.076897, -0.085377, -0.14796, -0.032869, 0.834815, -0.376194, 0.061217, -0.658885, 0.076978, 0.230709, -0.06606, 0.298496, 0.077646, -0.040675, 0.029272, -0.725243, 0.327199, -0.79235, -0.022954, 0.054991, -0.547466, -0.174482, -0.462547, 0.309818, 0.273346, 0.023676, -0.098242, 0.047468, -0.08791, -0.472354, 0.031548, 0.066294, -0.028668, -0.30382, -0.305325, 0.009707, 0.339147, 0.399125, -0.034207, 0.002245, 0.186614, -0.798079, 0.609963, 0.2139, 0.304437, -0.740357], [0.006495, 0.001939, -0.053057, -0.023006, 0.017259, -0.044224, -0.017703, -0.004389, 0.045803, -0.043618, 0.033717, -0.009712, -0.032836, -0.022478, -0.04379, -0.013629, 0.015872, 0.040775, 0.041093, -0.022881, -0.004297, -0.036835, -0.019778, 0.031831, -0.015165, -0.018751, -0.054084, 0.036591, -0.04776, 0.027308, -0.049915, -0.042535, 0.026936, 0.026278, -0.01308, -0.046804, -0.046623, -0.051769, -0.032416, 0.015166, -0.007903, -0.044634, -0.037325, -0.042169, -0.009994, -0.022809, 0.011253, -0.049415, 0.04887, 0.036877], [-0.911015, 0.25089, 0.256369, 0.202112, -0.480728, 0.194599, -5.88681, -0.117405, 0.417058, -0.109136, 0.566236, -0.014062, -0.180648, -0.096453, 0.277476, 0.282974, 0.113422, 0.26923, -0.22014, 0.378112, 0.293731, -0.059786, -0.837658, -0.385008, 0.453032, -0.142255, 0.582848, 0.236644, 0.767508, -0.064227, -0.176567, 0.01454, -0.016262, -2.53776, -0.454885, -0.001972, -0.033951, -0.037345, 0.028036, 0.878767, -0.392749, 0.158337, -0.17361, -0.003856, 0.433599, -0.534414, 0.251861, 0.089149, -0.38296, -0.259212], [0.073993, -0.344208, -0.339357, -0.417451, 0.046196, -0.188388, 0.081745, -0.229817, 0.060705, 0.153609, -0.314397, 0.1575, 0.124464, -0.276134, 0.11624, -0.315546, -0.058585, 0.078648, -0.904499, -0.182213, -0.063144, -0.098505, 0.242605, 0.024289, -0.225181, -0.637706, 0.104362, -0.140358, -3.66317, 0.033727, -0.204591, 0.010386, 0.000611, 0.16052, -0.015137, -0.263993, 0.047444, 0.437359, -0.06159, 0.084637, -0.003312, 0.101445, 0.144424, -0.02507, -0.087258, 0.159325, 0.095111, 0.310251, -0.032591, -0.154553], [-0.237221, 0.525032, 0.189212, -0.314269, -0.113795, 0.038794, 0.341679, 0.719401, -0.523582, -0.006405, -0.096941, 0.101376, -1.22666, 0.081703, 0.032024, 0.241594, 0.219633, 0.054686, -0.001093, -0.012127, 0.40108, 0.238842, 0.280181, 0.203322, -0.062333, 0.310874, 0.158303, 0.135776, 0.251133, 0.368725, -0.019882, -0.029409, -0.274717, 0.075646, -0.129848, 0.02282, -0.021932, -0.152259, 0.139491, 0.162591, -0.873293, 0.251068, -0.140322, 0.048746, 0.308996, 0.03991, -0.183078, 0.183333, 0.21497, 0.037771], [-0.028103, -0.104705, 0.157379, -0.090095, -0.159865, 0.163657, 0.107599, -0.245835, -0.347591, 0.066863, 0.126541, -0.065366, 1.76264, 0.037094, -0.024401, -0.225012, -0.118376, -0.071764, -0.444013, -0.121375, 0.048348, 0.262634, 0.102305, -0.175975, -0.236826, 0.334275, 0.132071, -0.237502, -0.794674, 0.027431, 0.045111, 0.022391, 0.17881, 0.657743, -0.98641, -0.375412, -0.028544, -0.136471, 0.153211, -0.080336, 0.283676, 0.275655, 0.108841, 0.004575, 0.154892, 0.071588, 0.348681, -0.068451, -1.19869, -0.135283], [-1.29106, 0.535692, -0.297532, 0.045685, -2.88107, 0.165806, 0.405205, 1.00181, 0.090934, 0.653923, 1.99856, -1.52312, 3.6635, 0.231775, -0.560993, -0.481575, -0.029874, -1.216, -0.243636, 0.020852, 1.50184, -1.84885, 0.682273, 0.218921, -1.7589, -0.528875, -1.481, -2.23615, -2.71284, 1.06065, -1.52781, -0.041722, -0.421072, 0.806529, 0.453998, 0.478434, 0.036788, -0.147425, 0.736575, -0.5458, 0.456278, -1.18094, 0.168291, 0.019884, 1.11431, -1.30807, 1.43028, 0.413972, -0.009607, 0.076279], [1.05644, -0.851012, -3.36864, 0.965652, -0.724687, -0.011234, 0.730273, 0.019337, -0.119165, -0.182867, -1.69269, -0.353342, -4.87915, -0.792853, -1.6214, 0.024092, 0.937988, -0.170314, 0.711455, -2.68046, -0.449922, -0.827481, 1.66263, -2.07897, 0.82178, -0.016195, 1.32201, -1.47339, -0.987694, 0.328566, 1.01379, -0.026872, -0.515072, 0.049912, -0.926211, 0.154042, 0.002026, 0.189219, -0.798632, -1.29561, -4.5126, -3.04774, 0.332653, 0.00426, -2.52613, -0.312384, 0.05255, -2.87395, 0.286885, 1.44776], [-8.56973, 1.25113, -0.049279, 1.2321, -2.66391, 0.243914, -1.02717, 0.600572, -8.21813, -0.754607, 0.16465, -0.98439, -2.75157, -0.704569, 0.279877, 0.241338, -3.46244, 0.664236, -0.981437, -0.101213, -0.580584, 0.723291, -3.70765, 0.307051, 1.42935, -0.466355, -5.76444, -2.95295, 1.96648, 1.23246, 0.586824, -0.014764, -2.35896, -3.56635, 0.060669, 0.472376, -0.001803, -0.579793, 1.84889, -0.521764, 1.00909, -6.97213, -0.215685, 0.017324, -0.888832, -0.400553, 0.087794, -0.924533, 0.590185, -4.38105], [1.31404, 0.249315, -0.126386, 0.500165, 0.077154, -0.819933, -3.57926, -3.3062, 0.371741, 0.006646, -1.83291, -0.202523, -1.82674, -1.5483, 0.158902, -0.556285, -0.171197, 0.18423, -0.274414, 1.15973, -2.37881, -1.67851, 0.150818, 1.31733, 0.077751, -5.31591, -0.610729, -0.103556, -0.488299, -0.787689, -0.355397, -0.009378, -0.672732, 0.16698, -0.681288, 0.452335, -0.007337, -2.32744, 0.550208, -1.07745, -2.41523, -1.25108, -0.162989, 0.006821, 0.423465, 0.171744, -0.65008, -1.33338, 0.804949, 0.332696], [0.041607, 0.109415, -0.086375, -0.099886, -0.017716, 0.176177, 0.021316, 0.141281, -0.024352, 0.023858, 0.310545, -0.008022, 0.447369, -0.00358, -0.035779, 0.056142, -0.031269, 0.090634, -0.184043, -0.004717, 0.214534, -0.355137, 0.136766, -0.065352, -0.035583, 0.766419, 0.01031, -0.118481, -0.773795, -0.026674, -0.009329, -0.008037, 0.021454, -0.024207, 0.042932, -0.027152, -0.006885, -0.298833, -0.007129, -0.056334, -0.053045, -0.393756, 0.005916, 0.025491, 0.117915, -0.006003, 0.063188, -0.078689, -0.001842, 0.024708], [-0.009985, -0.010468, 0.097034, -0.010822, 0.006492, -0.001451, -0.012483, -0.093207, -0.11473, 0.033463, 0.047212, 0.118367, -0.321257, 0.420856, 0.034936, 0.173258, 0.122081, -0.04845, -0.081464, -0.14477, -0.222131, -0.009977, 0.003806, 0.094954, -0.216038, 0.181028, -0.047433, -0.313001, 0.125335, -0.015117, 0.248557, -0.037224, -0.030883, -0.188171, -0.059294, -0.0851, -0.010372, -0.222011, 0.033471, 0.060948, 0.291697, 0.063167, 0.09057, 0.058269, -0.036414, -0.266991, -0.025512, -0.030167, 0.087932, 0.024171], [-0.029694, 0.301465, -0.071317, 0.050501, -0.268496, 0.066604, 0.105528, 0.163342, -0.444157, -0.223222, -0.152742, -0.166653, 0.171274, 0.159089, -0.194618, 0.175992, -0.090209, -0.165289, -0.244345, -0.0547, 0.199845, -0.302332, -0.250607, 0.146957, 0.134538, 0.262362, 0.243496, 0.028841, 0.110503, 0.210606, 0.00779, -0.043006, 0.012259, -0.384446, -0.142513, -0.032777, -0.009626, -0.081299, 0.113629, -0.185342, -0.260691, 0.104645, -0.157805, 0.046674, 0.21417, -0.343912, 0.36426, -0.283153, 0.005083, 0.131747], [-0.176428, 0.165882, -0.015213, -0.085093, 0.069241, 0.055128, 0.030001, -0.02972, -0.02036, 0.087795, 0.061756, 0.252644, 0.018651, -0.092219, 0.028736, -0.064768, 0.094264, 0.125758, 0.163316, -0.199484, 0.131142, -0.232009, 0.236969, 0.084099, 0.007579, 0.208579, 0.03442, 0.116799, -0.18495, 0.039552, 0.015697, 0.012622, -0.209053, 0.385197, 0.084989, -0.030011, 0.034731, -0.089212, 0.092872, 0.090425, 0.150439, 0.24022, -0.086579, 0.030437, -0.034827, -0.082292, -0.094572, 0.139929, 0.08484, -0.072045], [-0.794458, -0.373287, 0.048565, -0.237716, 0.331439, -0.654446, -0.37017, -0.057354, 0.244786, 0.564265, 0.407011, 0.172063, -1.15494, 0.128069, 0.165638, -0.228258, 0.264594, -0.007231, 0.637011, -0.782002, 0.793512, -0.111335, 0.294568, 0.584908, 0.131272, -0.936724, -0.705256, 1.38078, -1.37402, -0.359845, 0.668147, -0.046009, -0.345633, -0.890681, -1.13367, 0.393153, 0.012195, -0.014042, -0.725745, -0.821318, -2.85019, 0.027891, 0.191476, 0.035113, -0.655225, 0.016259, -1.06525, -0.184463, 0.133013, -0.400124], [0.110576, -0.070158, 0.079256, -0.067104, -0.010644, -0.073697, -0.087117, -0.202872, 0.053541, 0.07455, -0.064646, -0.018401, -0.298103, -0.022925, 0.134956, 0.014043, 0.056555, 0.178456, -0.037845, -0.029273, -0.114349, -0.090592, -0.036306, -0.090855, -0.090707, 0.041749, -0.048611, -0.305844, 0.129613, 0.014706, -0.036497, -0.018451, 0.127416, 0.341093, 0.052409, 0.01035, 0.033128, -0.101986, 0.146691, 0.137168, 0.368327, 0.202332, 0.121911, -0.011263, -0.119017, 0.26087, -0.047219, 0.004129, -0.164762, -0.081379], [0.474275, 0.331357, 0.271138, 0.297147, 0.053433, 0.196607, 0.208079, 0.464349, -0.022458, 0.060275, 0.064598, 0.190459, -0.236331, -0.282646, -0.081363, 0.205737, 0.09759, -0.132053, 0.360276, 0.133886, 0.253126, -0.09011, 0.350891, -0.021624, 0.091057, 0.209411, -0.181136, 0.107353, -0.029317, 0.160659, 0.207207, 0.009079, -0.16752, -0.049398, 0.326679, -0.206965, -0.027391, -0.150478, -0.240915, -0.120655, 0.129498, -0.077641, 0.016238, 0.016368, 0.347517, 0.287499, -0.040282, 0.101541, 0.14409, 0.213534], [-0.748966, 0.112297, 0.024651, -0.244026, -0.769601, 0.047112, 0.044728, 0.197565, 0.4517, 0.051652, -0.180257, 0.253076, 0.040223, -0.309674, -0.239305, -0.186735, 0.037632, 0.202304, 0.330586, -0.544672, 0.37077, -0.307425, -5.00406, 0.165809, 0.542269, 0.528977, -2.90806, -0.434423, 0.100417, -0.239024, 0.542986, -0.03299, 0.084383, -0.448053, 0.688124, -0.152184, 0.00049, 0.033643, -1.1393, 0.461507, 0.526019, 0.474783, -0.004848, -0.003139, 0.311798, -0.708292, 0.376761, -0.297389, -4.86085, -0.011136], [-0.015526, -0.553206, 0.72129, -0.236731, 0.088203, -0.988925, 0.316819, 0.132291, 0.019732, 0.502764, 0.404504, -0.066234, 0.077198, -0.802718, -0.060369, -0.276171, 0.398162, 0.121569, 0.48906, -0.911337, -0.282877, -0.353421, 0.056417, -0.034148, 0.218735, -5.67671, -0.735316, 0.941526, -2.83061, 0.150603, 1.22002, 0.031753, -0.545262, -0.167478, 1.5218, -0.580087, 0.018205, 0.687021, -0.245594, -0.703375, -1.4538, 0.380143, 0.121743, 0.018839, -0.318236, 0.454764, -0.323629, 0.908561, -0.608196, -0.046882], [-0.246519, 0.202052, 0.30345, 0.059349, -0.026021, 0.407313, -0.22081, -0.348622, 0.232055, -0.097077, 0.092808, -0.208673, -0.8862, -0.038108, 0.194385, 0.020626, 0.236296, 0.037193, 0.000617, -0.35989, 0.363486, -0.445248, 0.60446, -0.216342, 0.090753, 0.113984, 0.717476, -0.146741, -0.286517, -0.242565, 0.190592, 0.056375, 0.064713, 0.293544, -0.018792, -0.220359, 0.01156, -0.005538, 0.281401, 0.106116, 0.162842, 0.171616, -0.00557, -0.00865, 0.345595, -0.047245, 0.171411, -0.278935, -0.644288, -0.229361], [-0.067691, 0.921215, -0.466144, -0.518255, -0.781673, 1.06205, 0.525681, 0.973089, -0.248667, -0.667549, 0.407848, -0.766847, 1.50842, 0.106962, -0.619294, -0.091513, -0.258832, 0.205721, 0.004635, -0.149869, 0.803378, 0.224806, 0.513961, -0.35464, -0.038156, -0.027446, -0.551886, 1.17066, -0.836401, 0.579511, -0.022313, -0.015869, -0.453522, 0.543338, -0.724885, 0.012419, -0.041265, 0.177187, 0.257994, -0.515573, -0.537086, 0.646368, -2.65293, -0.04139, 0.786317, -0.041115, -0.775423, -0.945941, 1.15333, 0.368778], [-0.175456, -0.536623, 1.1998, -0.041749, 0.459666, -1.02266, 0.175206, 1.13048, 1.23711, -0.02923, -0.096149, 0.727737, -0.30693, 0.393996, 0.616097, -0.192537, 0.420369, -0.162796, 0.355333, -0.195206, 0.612976, -1.20717, -5.02205, -0.174632, -0.345947, -1.09735, -0.122442, -0.412006, -0.34349, -0.157693, -3.86842, 0.030023, 0.044782, -0.667194, -0.902632, 0.781994, -0.034754, -0.30529, -0.395245, 0.33226, -2.9703, 0.644948, 0.406005, -0.008885, -1.43587, -0.50526, -0.272247, 0.213371, -0.042211, -0.048086], [-0.724372, -0.316759, 0.318578, -0.621305, -0.134429, 1.47197, -0.084895, 0.813865, -1.11343, -0.321044, -1.69443, -0.73558, 0.587568, -0.293982, -0.476362, 0.732905, 0.817995, 0.24752, -0.214014, -1.27164, -0.158543, -5.64297, -0.201906, -1.20528, -1.0855, -0.308684, -7.72399, -0.771324, -3.82438, -1.14322, 0.115638, 0.00215, -0.417236, 1.06612, -0.741695, 0.17281, 0.009498, -0.137387, 0.75929, -0.421495, 0.321183, 0.176559, -2.87516, -0.042321, -0.530129, -0.431992, -1.73939, -0.069485, -3.67052, 0.745701], [0.162925, 0.191988, 0.054543, -0.069129, -0.007433, -0.111657, 0.02195, 0.121858, -0.089615, -0.050367, -0.143315, -0.3703, 0.16541, 0.079907, -0.053579, 0.021355, -0.415297, -0.032803, -0.114844, 0.027141, -0.0348, -0.02154, -0.169676, 0.010658, 0.140349, 0.099264, 0.068838, 0.312906, 0.065825, 0.018262, 0.049403, 0.006387, 0.098693, -0.035089, -0.006701, 0.092837, -0.027526, -0.041795, -0.064777, -0.011954, -0.122557, 0.221643, -0.038323, -0.048423, 0.089968, -0.089805, -0.005158, -0.539725, -0.000337, -0.04681], [-0.235426, 0.318731, -0.52296, -0.050636, 0.033694, -0.052041, 0.003728, 0.081276, -0.074863, 0.08685, 0.004011, -0.278929, -1.55262, -0.264668, 0.089511, -0.290166, 0.273077, 0.21115, 0.085437, 0.072577, -1.9225, 0.321524, 0.218299, 0.172716, -0.003189, 0.193506, 0.150176, -0.012203, 0.546783, 0.246566, -0.050846, 0.003742, -0.195981, -0.055387, 0.264217, -0.428524, -0.029663, 0.205529, -0.109349, -0.570526, -0.906928, 0.264204, -0.059427, 0.016125, -0.007954, 0.125907, 0.006476, 0.21706, -0.463537, -1.13441], [-0.190022, 0.292848, 0.100991, -0.185287, -0.445192, 0.294849, 0.025585, 0.198504, -0.126769, -0.067431, 0.03959, 0.009608, 1.05215, 0.031179, -0.110024, 0.204478, 0.097177, -0.112346, 0.21894, 0.129687, 0.142112, -0.151563, 0.327432, 0.007796, 0.090713, 0.296553, -0.485174, 0.055016, 0.046807, 0.117439, -0.017598, 0.032457, -0.023455, -0.32483, 0.028533, -0.292546, -0.014481, -0.152191, -0.019762, 0.011877, 0.182819, 0.139748, -0.364973, -0.026294, 0.334958, -0.231856, 0.208606, -0.034915, -0.250966, 0.123785], [0.019331, 0.265434, 0.317162, -0.175854, -0.100128, -0.239929, -0.104598, 0.166949, -0.210577, -0.083056, -0.476079, -0.854888, -1.07045, 0.174289, -0.194883, 0.010701, -0.273898, 0.159484, -0.151851, 0.464806, 0.453721, 0.116259, -0.213684, 0.054205, -0.170025, 0.143292, -2.47846, -0.304586, -0.197686, -0.175877, -0.109282, -0.039161, -0.178428, -0.112193, -1.33936, -0.435518, -0.034981, -0.10107, 0.423581, -0.250369, -0.414843, -0.244828, -0.194741, 0.038478, 0.291058, -0.302828, 0.657127, -0.835551, -0.247029, 0.202748], [0.222333, -0.838401, -0.153457, 0.82705, -0.29809, 0.145128, -0.224938, 0.225946, -0.787947, -0.295399, 0.545268, 0.64476, 0.796044, 0.321677, -0.106507, -0.252239, 0.08677, 0.018638, -0.235925, -0.708926, -0.022117, 0.008644, 0.477919, 0.550764, 0.200608, -0.342513, -0.319687, -0.740675, -0.47687, -0.116395, -0.25682, 0.031067, 0.363929, 0.172931, -0.345608, 0.20814, -0.011793, 0.560307, -0.297278, 0.357139, -1.07639, -0.395032, 0.099655, -0.00372, 0.005526, 0.188383, -0.621593, -0.528073, 0.198289, 0.252019], [0.605733, -0.116916, -1.50629, 0.319345, 0.127733, -0.426819, 0.451476, -0.762056, 0.265278, 0.138911, -0.760644, -0.178469, 1.62877, 0.171305, 0.166177, 0.274394, -0.003556, -0.890164, 0.718144, 0.20905, 1.19879, -0.090743, -0.004929, -0.945208, 0.2377, 0.047127, 1.1786, 2.18558, -0.56821, 0.042471, -0.206194, 0.010785, -0.54014, 0.633576, 0.706442, -0.168594, -0.045375, -0.069271, -0.919475, -0.106397, 0.250656, 1.34197, 0.432014, -0.036054, 1.55034, -0.435338, -0.038676, 0.273932, 0.738142, 0.088415], [0.633619, 0.064879, 0.641778, 0.122515, -0.095956, 0.00347, 0.156107, -0.796093, -0.172344, -0.108574, -0.485244, -0.799833, -1.49753, 0.270177, -0.323844, 0.082312, 0.085749, -0.2516, 0.085773, 0.733678, 0.145396, -0.214592, -0.332898, -0.322429, 0.344673, -0.409876, -0.449751, 0.923872, -0.381899, 0.38321, -0.136453, 0.006266, -0.1736, -0.765699, 0.646619, -0.070976, 0.041901, 0.374546, 0.948545, -0.243812, -0.316371, 0.545567, -0.219598, -0.011021, -0.644707, 0.406309, 1.45821, 0.684105, -1.33005, 0.285901], [-0.128146, -0.138008, 0.010176, 0.069072, -2.21544, 0.45815, -0.095924, 0.293606, -0.416306, -0.468195, 0.248102, -1.16044, -0.134522, -0.239491, -0.173842, -0.017499, -0.057794, 0.165414, -0.116528, 0.309686, 0.464854, 0.280347, 0.424585, -0.061824, 0.333249, 0.601228, 0.458325, -0.897964, -0.187672, 0.181723, 0.2392, -0.027594, 0.463328, 0.220464, -0.040264, 0.097222, 0.009709, -0.479449, 0.135683, -0.263111, 0.543647, -0.701799, -0.764955, -0.005273, 0.464552, -0.192558, 0.560707, -0.789169, -0.753238, 0.031711], [-0.039153, -0.039112, 0.004009, 0.01195, -0.050119, -0.029823, 