{"number_of_layer": 8, "number_of_neurons_each_layer": [5, 50, 50, 50, 50, 50, 50, 5], "weight": [[[-0.426116, -1.36682, 1.82537, -0.359894, 0.781783], [0.01419, -1.74668, 2.10078, 0.199607, -0.625995], [0.236925, -0.387744, 0.335238, -0.070833, -0.872241], [0.189836, 1.80645, 0.228501, 1.39699, -1.70341], [3.36428, -0.009598, -0.02829, -0.001824, -0.003217], [-0.001166, -1.30479, -0.646313, 0.384975, -0.172187], [0.059504, -1.04445, 1.15267, -0.049138, 0.274068], [-0.088526, -0.600468, -0.168808, 0.320975, -0.19985], [-0.360641, 0.723289, -1.27592, 0.036522, -0.009161], [0.017435, -0.377868, -0.115205, 0.397747, -0.457395], [0.119381, -1.40394, 1.73194, 0.214848, -0.5308], [0.510919, -0.014574, 0.07272, -0.272957, -0.58318], [0.089224, -0.091242, -0.536878, -0.193087, 0.259249], [-0.106965, 0.292023, -0.281651, -0.379942, 0.351947], [0.313856, -0.841286, -0.235311, 0.013129, 0.096103], [-0.008079, -0.000564, -0.007124, 0.001851, 0.006155], [0.142517, 0.099776, -0.234522, 0.064116, 0.017371], [0.120767, -0.621179, 0.840395, -0.096676, 0.738722], [-0.120072, -0.251172, 2.6124, 0.154528, 0.378212], [0.171677, 2.17068, -0.949588, 0.292661, 0.130445], [-0.118201, 0.905917, 0.061321, -0.508156, 0.641137], [0.198566, -1.69141, 0.635503, 0.444259, -0.64184], [-0.083575, 0.020183, 0.131306, -0.465076, -0.093159], [-0.008896, 1.47801, -1.7606, -0.273348, 0.685236], [-0.99453, 0.223245, 0.078055, -0.009293, -0.256348], [0.006386, -0.191506, 0.514769, -0.852697, 0.848115], [-0.297726, -0.242926, 0.274442, 0.999968, -1.1845], [-0.048498, 0.898421, 0.947518, 0.280254, -0.086438], [-0.01785, -0.184101, -0.222805, 0.117964, 0.154774], [0.033323, 1.36975, -1.6105, -0.107663, 0.495742], [0.98863, 0.416651, 0.006793, 0.268351, 0.181104], [0.000499, 0.357345, 1.12966, -0.224096, 0.202364], [0.056334, 0.365707, 0.477882, -0.373783, 0.145331], [0.085237, -1.11661, -0.296353, 0.385203, -0.172235], [0.001016, 0.971395, 0.792908, 0.348388, -0.210291], [0.002507, 1.24018, -1.09202, -0.273149, 0.162231], [-0.135747, -0.901627, -0.581315, -0.278672, 0.223302], [-0.014951, 0.016501, 0.000874, 0.008299, 0.010825], [0.129122, -1.53063, 1.5018, 0.11217, 0.243414], [0.10337, 0.058216, -0.071302, -0.15957, -2.17338], [-0.010897, 0.013687, 0.002, -0.001924, -0.001666], [0.300335, 1.40717, -0.85673, 0.227232, -0.162827], [0.019964, -2.69606, 0.983252, 0.515997, -0.76219], [0.020673, -0.476237, -0.122935, -0.166794, -0.02558], [-0.037232, -1.68642, -0.03425, 0.046205, -0.703736], [0.091931, 1.05597, -1.07173, -0.341911, 0.411172], [0.355212, 1.22531, 0.438395, 0.765531, -0.377483], [-2.08839, -0.033861, 0.00264, 0.326788, 0.19074], [0.014666, 0.575711, -0.750375, 1.29255, -1.5435], [-0.197753, 2.14334, -2.00387, 0.077485, -0.612016]], [[-0.025728, -0.023652, 0.005332, -0.004796, -0.043558, -0.024969, -0.014811, 0.000334, -0.055089, 0.035681, -0.016338, 0.030133, -0.025592, -0.000175, 0.044319, -0.021929, -0.014949, 0.017814, 0.007721, -0.027014, -0.046169, 0.025135, -0.036194, -0.056186, -0.017896, -0.057012, -0.057425, -0.050056, -0.025691, 0.027076, -0.015389, -0.009497, -0.040027, -0.051035, -0.016099, 0.00188, -0.048157, 0.007337, -0.013148, -0.049524, 0.016944, -0.017805, 0.03656, 0.002799, 0.036292, -0.015784, -0.007079, -0.012064, 0.031639, 0.023708], [-0.218614, 0.911912, -0.84065, -0.191406, -0.027515, -0.717804, 2.22887, 0.054468, -0.136135, 1.22709, 1.12116, -0.398822, -4.32472, 1.31661, -0.249738, 0.033342, -2.696, 0.517701, 0.284631, -2.49039, -1.48678, 1.3057, -1.01538, -0.113392, -0.860383, 0.164189, -2.45024, -0.599888, -0.655457, -0.063591, -0.060749, -2.41051, -1.18908, 0.352026, -0.322535, -9.52107, -1.47902, -0.043514, 1.01652, 0.390305, 0.030937, -0.027808, 0.542248, -1.57047, -0.563086, -0.030098, -0.772958, -0.279747, 0.413284, -0.04883], [-1.24761, -3.76502, 0.228054, 0.484981, -0.09496, -0.214886, -0.004823, -1.42252, -0.240014, -0.577037, -0.387157, 0.9012, -0.054188, 0.12661, -0.014838, 0.031252, -0.007196, -1.01879, -0.286248, -0.198213, -1.05835, 0.050582, 0.503439, -0.081083, -0.182306, 1.70427, 0.276436, -0.755162, -0.205155, 0.022626, -0.604663, -0.414774, 1.51849, -0.377182, -0.968095, 0.372761, 0.02276, -0.008362, 0.032389, 0.085965, 0.023222, 0.295857, -6.87449, 0.362839, -6.14322, 0.180236, 0.107394, -0.355305, 0.085259, 0.416041], [0.181947, 0.013391, 0.103495, -0.096243, 0.008696, 0.939933, -0.633676, -0.180077, -1.17958, -1.68241, -0.089324, -0.161418, 0.518808, 0.653232, -0.057263, 0.02903, 0.145386, -0.133834, -0.138091, -0.482874, 0.073287, 0.153897, 0.001373, -1.60221, 0.116977, 0.226952, -1.18551, -0.049016, 0.703996, -1.29455, 0.234296, 0.295583, 0.513513, -0.038281, 1.22411, -1.28774, 0.753411, 0.03239, -0.484612, -0.367858, -0.045273, -0.134693, 0.280383, 0.292483, 0.383694, -0.096633, -0.106955, -0.16891, -0.097569, 0.625205], [0.028576, 0.020354, 0.038925, -0.023654, -0.006367, -0.015454, 0.037029, -0.026641, 0.020152, 0.042616, -0.048245, 0.02347, -0.003016, -0.025593, 0.001004, -0.039401, -0.044673, -0.042341, -0.026308, -0.001152, -0.044755, -0.039362, 0.001852, -0.014743, -0.035166, -0.02255, -0.023248, -0.021197, -0.006314, 0.032505, -0.036275, -0.022889, -0.016063, -0.04693, -0.015973, 0.021953, 0.006087, 0.023982, -0.027316, -0.020606, -0.049369, 0.011672, -0.011777, -0.028772, -0.046562, -0.030308, -0.039181, 0.022904, -0.028288, 0.014031], [0.493017, 0.014335, 0.245149, -0.107882, -1.95085, 0.168048, 0.285775, 0.117999, 0.540144, -0.310951, 0.438126, 0.151776, 1.34173, -0.123517, -0.449784, -0.025841, -0.199643, 0.010208, -0.139773, 0.147925, -0.269643, -0.384435, 0.111361, 0.306792, 0.804705, 0.185627, 0.039012, -0.3578, 0.041698, 0.296584, -0.733394, -0.026033, 0.154698, 0.154683, -0.316917, -0.226008, 0.109207, 0.022126, -0.113578, -0.184804, 0.030203, -1.00608, 0.152615, -0.544608, 0.040387, -0.702331, 0.043318, 0.862143, 0.21835, -0.164736], [-0.051621, 0.024602, 0.005197, 0.007241, -0.047338, 0.025179, 0.019945, 0.034344, 0.008007, 0.041487, -0.018445, -0.043537, 0.015183, 0.022836, -0.034742, -0.037911, -0.046919, 0.040349, 0.040984, -0.012539, -0.027929, -0.038098, -0.005453, 0.000296, 0.021092, -0.045087, -0.027131, -0.051108, -0.026341, -0.035926, -0.014743, 0.03305, -0.023386, -0.057287, -0.020211, -0.046722, 0.027097, -0.012315, -0.022375, -0.013651, 0.010486, 0.010529, -0.015292, 0.02543, -0.050974, -0.048381, 0.00338, -0.005564, -0.028327, 0.035851], [-0.005283, 0.024954, 0.020973, -0.048076, -0.030941, 0.039187, -0.006274, 0.023572, 0.040004, -0.019887, 0.000226, 0.013843, -0.04172, -0.004291, -0.040675, -0.014594, -0.025433, -0.005157, -0.005756, -0.00644, -0.067288, 0.030864, -0.037401, -0.021942, -0.005649, -0.061064, -0.033232, 0.014992, -0.041337, -0.004766, -0.05789, -0.035198, -0.038589, -0.051592, 0.019467, 0.021493, -0.069541, -0.035831, 0.025162, -0.036642, 0.036211, 0.044631, 0.032639, -0.021963, -0.048005, -0.025459, -0.017247, -0.008875, 0.013061, 0.030106], [-0.898927, 0.004729, 0.522706, 0.623907, 0.142219, 0.786602, -1.48794, 0.49128, -2.17655, 0.281461, -0.329406, -0.143633, -0.465748, -0.220217, 0.144516, -0.051143, -0.113122, 0.351922, -0.070447, -0.561738, -0.599853, -1.02209, 0.01306, -1.46225, 0.177485, -0.124472, -0.121973, -0.043039, 0.642517, -0.981604, -0.246051, -0.575903, 0.460478, 0.527176, 1.04021, 0.223835, 0.51463, 0.04351, -1.06927, -1.68283, 0.03529, 0.187504, 0.302498, -0.104112, -0.765211, -0.057351, -0.37095, 0.091585, -0.726989, -0.458983], [-0.058062, -0.077951, -0.031693, -0.034601, 0.023703, -0.028922, -0.026749, 0.000446, -0.036635, -0.026911, -0.046134, 0.023461, -0.036013, -0.003326, 0.009786, -0.045193, 0.020352, -0.008172, 0.02957, -0.060479, -0.019066, -0.029476, -0.058874, -0.044501, 0.01747, -0.021311, -0.006484, -0.04134, 0.025943, 0.040207, -0.018878, -0.009335, 0.01598, -0.059347, -0.04717, -0.004998, -0.034542, -0.013736, -0.075036, 0.010091, 0.001482, 0.034987, 0.00982, -0.058499, 0.012356, -0.05827, -0.021134, 0.017423, -0.005449, -0.047235], [-1.94415, 0.108152, 1.3586, 0.03122, 0.00309, -0.167468, 3.89657, -1.30883, 0.551658, -0.402315, 0.526558, -0.806038, -4.57137, -2.37311, 0.06651, -0.020718, -0.148914, -0.896568, 0.467112, 0.44885, -1.68308, -0.410364, 0.803518, 0.700237, -1.46089, -0.319608, -1.08754, -0.327656, -0.287844, -0.291775, 0.352467, -1.15292, 0.769056, 0.036552, 0.861723, 0.055834, -1.06786, 0.019499, -0.917678, -1.19898, -0.020652, -0.207864, -0.239039, 0.942427, 1.53247, -4.16183, 0.265229, -0.477628, 0.350585, 0.452674], [-0.018313, 0.320378, -0.115505, -0.093048, -0.164447, 0.480443, -0.048889, -0.076753, 0.457989, -0.815251, 0.031455, -0.182253, 0.577106, -0.15579, -0.219907, -0.023077, 0.344513, -0.16367, -0.473365, -0.490897, -0.932829, 0.696761, 0.032576, -0.426647, 0.678254, 0.589487, -0.653831, -0.658782, 1.34226, 0.891403, 0.460309, 0.640799, 0.091273, 0.138055, -0.006281, 0.374024, 0.145911, -0.02388, 0.3771, 1.00651, -0.052209, -0.703559, 0.103762, -0.124165, -0.046526, 0.257205, -0.204245, 0.026263, 0.116313, 0.283628], [0.15909, -0.18838, 0.641448, -0.029534, 0.119719, 0.220659, 0.51048, 0.894634, -0.098358, -0.185679, -0.0406, 0.645929, 0.621616, -0.157488, -0.485417, -0.00914, -0.19437, 0.27474, 0.005832, -0.241775, -0.216323, 0.317239, 0.204999, -0.221947, 0.409354, -0.380617, 0.076057, 0.578883, -0.330752, 0.886849, -0.818042, 0.437303, -0.284698, 0.105596, 0.187023, 0.0653, -0.096875, -0.011085, 0.2181, 0.368294, -0.022365, 0.860314, -0.138437, 0.229273, -0.991697, -0.054981, -0.29009, -0.001097, 0.207045, -0.175226], [0.037488, -0.054816, -0.009867, -0.024554, -0.033958, -0.005109, -0.014954, 0.011277, -0.043261, 0.012058, -0.01397, 0.019452, -0.022677, -0.029545, -0.056562, -0.022134, 0.005876, -0.047233, 0.00996, -0.037388, -0.029251, -0.020736, -0.010545, -0.034125, 0.026141, -0.029846, -0.004993, 0.035389, -0.051674, -0.008748, -0.032115, 0.036973, 0.018213, 0.036333, -0.04258, -0.045891, -0.001695, 0.022226, -0.048039, -0.03897, 0.020613, -0.011541, -0.020703, 0.031668, 0.007278, -0.000686, -0.042798, -0.034116, 0.03754, -0.040546], [-0.668513, -0.263481, 0.375073, -0.377028, -0.056244, -0.598853, 2.11848, 0.015622, 0.226724, -0.203557, -0.237466, 0.206427, 0.000852, -0.011567, -0.226258, 0.01613, 0.222341, 0.152059, 0.120787, -0.261488, -0.167539, -0.025811, -0.467315, -0.509366, 0.07625, 0.076353, 0.044208, -0.704559, 0.550282, 0.235639, 0.065333, 0.064196, 1.16646, 0.039998, 0.222018, -0.166754, -0.260518, -0.018982, -0.662188, 0.745152, 0.044115, 0.439434, 0.474698, -0.326409, -0.181479, 1.80077, -0.185967, 0.30336, 0.730206, -0.309409], [0.356083, -0.166289, -0.330672, 0.171554, -0.560877, 0.217132, 0.454068, 0.269823, 0.350188, 0.810512, 1.12174, -1.85371, 0.931311, 0.202704, -0.651971, 0.029233, 0.550383, -0.335565, 0.509629, 0.349096, -0.328448, -0.534995, 0.363329, 0.789053, -0.055239, 0.211419, -0.000764, -0.572605, 0.02813, -0.391765, 0.186953, 0.739373, -1.19322, -0.193607, -0.771292, 0.287132, 0.277789, 0.030345, -0.740141, -0.964613, -0.014207, -1.24935, -0.042737, -1.11523, 0.649113, 0.640596, 0.343844, -1.02042, -0.209031, 0.468517], [-0.887987, -0.550376, 1.25381, -1.92264, 0.089741, 1.28857, 0.386286, 0.8537, -0.80353, 0.840659, 0.255623, -0.868299, -1.08809, 1.54181, -0.152854, 0.012229, 0.095984, 0.409991, 0.383845, -0.574188, 0.868968, 0.993326, -1.71355, -0.29463, -1.07725, 0.099243, -0.188672, -1.01254, 0.475092, 0.725338, 0.76068, 0.904287, -1.69016, 1.44969, -1.17612, -0.645589, -0.993996, 0.004177, -1.73099, 0.489594, -0.027771, 1.73963, 0.337638, -1.01134, 0.218539, -2.14946, 0.179774, 0.309288, 0.173184, 0.249349], [0.02872, 0.0288, 0.026094, -0.045329, -0.005703, -0.039029, -0.004909, -0.048835, -0.023263, 0.025512, -0.051036, -0.042624, 0.028376, 0.00692, 0.008919, 0.014967, -0.03136, 0.001507, -0.007669, 0.030814, -0.021665, -0.036375, -0.042379, -0.028954, 0.006175, 0.02516, -0.05068, -0.026802, -0.023969, -0.002434, -0.010707, 0.035398, -0.059614, -0.009584, -0.013152, -0.006439, -0.014368, -0.043086, -0.026878, 0.035992, -0.047445, 0.03144, 0.008609, -0.008771, -0.035105, -0.004127, -0.018199, 0.020581, -0.000791, 0.028908], [-1.02549, 0.150753, -0.154348, -1.33095, -0.056936, -0.57198, 0.279489, 0.904894, -0.793351, 2.07543, -1.38123, -0.034785, 0.823562, 0.349375, 1.1721, 0.0259, 0.152336, 0.152933, 0.107739, -0.128092, 0.412569, 0.894551, -0.041273, -1.07238, -0.568532, 1.48682, 0.869444, -0.812789, -0.089098, -1.90273, 0.133435, 1.98995, 1.09333, 1.40278, 0.23728, 0.753611, 0.637317, -0.038166, 0.25062, -1.63409, 0.021792, -1.18544, 0.729782, -0.632815, -1.61789, -2.98806, -0.085039, -0.521259, -0.458435, -0.776997], [-2.27228, -3.3266, -1.14085, 2.37977, 0.131295, -1.86394, -4.74115, -3.18604, 0.301468, -2.82724, -0.190541, 0.059389, -1.04167, -0.661619, -1.88743, -0.019193, -0.813247, 1.20872, 1.26041, -1.60428, -0.107739, -2.3111, 0.079723, -2.39026, 0.576918, 1.10188, -0.627542, 1.45959, -0.698206, 1.32288, 0.401732, -0.125618, -1.15238, -1.69601, 2.06209, -2.47841, 0.182957, 0.000616, -4.37963, 0.347165, -0.005807, -0.618551, -1.27022, -1.12715, -12.2147, -3.74374, 0.041919, -0.036616, -0.068178, 1.18132], [0.005672, 2.31214, 1.04188, -1.0785, 0.014859, 0.848571, 0.377018, 0.867987, -0.167617, 1.57278, -0.409157, -0.329723, 1.20327, 0.757628, 0.864911, -0.037657, 0.009752, -0.150882, -1.23859, -0.609628, 1.46916, 0.773507, -0.537592, -1.50927, -0.36373, -0.311264, -0.115235, -1.55002, 1.44276, -2.46965, 0.381472, 0.582017, 1.7509, 1.64051, 0.052946, 1.02609, 0.802246, -0.013399, 1.22871, -0.409523, 0.042546, -1.01171, 1.27743, 0.534427, 2.45295, -0.241838, -0.385475, -0.103593, 0.198291, -1.44173], [0.021874, 0.030358, -0.013218, -0.024384, -0.048091, -0.009048, -0.043669, -0.041463, 0.001289, -0.008447, 0.010175, -0.002361, -0.016835, -0.029399, 0.024387, 0.006005, 0.000709, 0.000779, -0.015131, -0.038248, -0.053929, -0.048945, 0.005545, -0.01068, -0.015643, -0.047622, 0.022216, 0.014692, 0.008773, -0.033181, -0.034232, -0.01428, -0.013484, -0.040955, -0.00141, 0.015695, -0.023765, -0.038968, 0.025791, 0.021634, -0.012764, -0.044572, -0.013743, -0.027018, -0.006276, -0.036892, -0.023806, 0.003741, 0.028869, 0.006604], [0.33909, -0.16938, 0.56501, 0.008483, -0.074711, 0.370272, 0.224526, 0.0765, 0.034036, 0.037851, -0.267713, 0.055234, -0.100566, 0.11117, -0.007585, 0.038769, -0.191761, 0.049186, -0.044464, -0.207631, -0.50015, 0.049969, 0.420328, -0.057424, 0.115088, 0.083995, -0.145549, -0.281406, 0.018247, -0.071814, 0.038752, -0.335688, -0.172403, 0.174095, -0.037441, -0.118235, 0.048002, 0.031609, 0.092274, -0.290575, -0.047202, 0.078336, 0.080421, -0.016495, 0.36052, -0.608427, -0.86011, 0.259659, -0.014019, 0.411975], [-0.199987, 0.027475, 0.868621, -0.350053, -0.166134, 0.643934, -0.782989, 0.543567, -1.4198, -0.66041, 0.072496, 0.047406, 0.478484, 0.237829, 0.095527, -0.028849, -0.021324, -0.24561, 0.259883, 0.403755, 0.599252, -0.165023, -0.34417, 0.084312, 0.461055, 0.592992, 0.334239, 0.196569, -0.278131, -0.416152, -0.2918, 0.355169, 0.503225, 0.48646, 1.54081, 0.284538, 0.47361, -0.022825, -0.056855, -0.988694, 0.009582, -0.696932, -0.267247, 0.629476, 0.432635, -0.156455, 0.261976, -0.241156, -0.139131, 0.379031], [0.564797, 1.33635, 0.245347, 0.059715, -0.118893, -1.36996, 3.57272, -0.491175, 0.122699, -0.020503, 0.808012, -0.017277, -0.138318, 0.109192, 0.049873, 0.004394, -0.160063, 0.076602, -0.474233, -0.123738, -0.240067, 0.187567, 0.353011, 0.570307, -0.273449, -0.044375, -0.187019, -0.521631, -0.448079, 1.37104, -0.2344, -0.45256, -1.34123, -0.574799, -1.86209, 0.241475, -1.13385, 0.000464, 2.72035, 2.01967, -0.024644, 2.08925, 0.385397, -0.106406, 0.028259, 0.911045, -0.355712, -0.331723, 0.638205, 0.209462], [0.502401, 0.260652, -0.085995, 0.012043, 0.121619, 0.3664, -0.24959, 0.735966, -0.457906, 1.0468, 0.504591, 0.911819, -0.745202, 1.01492, -0.343027, 0.006219, 0.326127, 0.239554, 0.186213, 0.033712, 0.313295, -0.783608, 0.785634, 1.10305, 2.50873, -0.371808, 0.163023, 0.386692, -0.160978, -0.097899, -1.92917, -0.390385, -0.639673, 0.397206, -0.629038, 0.395233, 0.247945, -0.03368, -0.048754, 0.863012, 0.041455, -0.126794, -0.674091, 1.0044, 0.597904, -0.298315, 0.072019, 1.62389, -0.087454, 0.142422], [-1.6352, -1.99862, 0.265507, 0.898045, 0.105921, 2.7681, -3.5818, -0.658056, -1.04929, 1.53181, -1.7012, -0.013968, 1.1456, -0.743782, 0.347493, -0.013202, -0.106715, 0.699727, 0.030378, -0.409361, 0.500291, -0.814148, 1.13816, -0.476956, 0.258575, 0.056825, -0.366258, 1.75243, 0.252282, 0.638168, 0.005242, 1.68427, 1.68389, 0.173396, 3.05825, -0.687236, 2.18308, -0.025628, -3.77911, 0.123928, -0.023318, 0.78764, -0.559539, 1.20623, 0.02381, 0.416482, 0.715701, 0.187817, -0.737717, -0.379647], [0.01174, 0.005, 0.014955, -0.043755, -0.023565, 0.003767, 0.016146, 0.018716, 0.01042, -0.04495, -0.002292, 0.022722, -0.02726, 0.044009, -0.043795, 0.041878, -0.037083, 0.017971, -0.012152, -0.03792, -0.03698, -0.036869, 0.026547, -0.025139, -0.025413, -0.017974, -0.003638, 0.012776, -0.001971, 0.027127, -0.026396, 0.01559, 0.001405, -0.016839, -0.00029, -0.010187, 0.019786, -0.030364, -0.019163, -0.006652, -0.050637, -0.015093, -0.027612, -0.052353, 0.024596, -0.020934, 0.000852, -0.026191, 0.007847, 0.003047], [-1.31177, 0.512831, 0.767398, -0.208452, -0.172548, 1.28918, -1.92097, 0.46189, 0.24917, -0.607468, -0.785284, -1.4297, -0.32457, -2.51831, 0.970914, 0.030202, -1.14209, -0.317074, -1.43835, 0.619221, -0.153863, 0.405214, -2.13429, -2.33992, -1.26564, -1.80709, -0.279684, 0.834568, 0.312488, -0.04614, -0.616648, 1.64548, 0.00029, 1.09646, 0.00312, -2.27768, 0.174483, 0.008689, -0.389346, 1.42664, 0.022662, 0.075958, 0.701761, -0.126551, 0.716534, 0.019285, 0.592908, -0.92648, -0.368165, -0.656115], [0.197984, -0.137075, -0.091198, -0.104324, -3.0122, 0.004633, -0.830029, -0.326131, 0.162557, -0.070018, 0.547012, 0.556732, -0.309127, 0.017973, 0.114175, -0.045468, 0.122966, 0.211206, -0.181433, -0.011452, 0.209721, -0.195767, 0.242268, 0.089285, -0.180224, -0.306501, 0.270196, 0.168749, 0.062538, -0.378046, -0.2306, -0.151859, -0.022352, 0.14326, -0.005158, 0.250489, -0.05373, -0.020024, 0.15388, 0.226893, 0.019591, -0.072436, -0.220446, 0.483731, 0.057436, -0.223914, -0.057342, -0.251572, -0.034019, 0.065811], [0.190482, 0.136881, 0.045038, -0.521081, -0.355777, -0.338529, -0.556249, 0.479434, 0.127633, 0.822327, 0.287414, -0.120388, 0.219416, -0.544815, -0.86129, 0.036452, 0.095571, 0.157596, -0.20282, -0.101205, 0.240763, -0.464204, -0.226282, 0.084909, 0.253271, 0.218635, 0.529496, 0.118816, 0.938377, 0.080016, -0.032529, 0.166249, -0.643578, -0.220065, -0.232663, 0.119816, 0.025711, -0.010571, -0.085987, -0.516572, 0.008476, -0.715328, 0.098117, -0.760023, 0.762237, 0.250861, -0.321125, -0.085153, 0.230256, 0.046706], [0.007172, -0.005844, -0.004714, -0.022381, -0.034604, -0.02163, -0.026281, 0.024266, -0.001792, 0.032152, -0.060683, 0.038917, -0.05897, 0.031106, -0.000116, -0.050372, -0.028121, 0.007667, 0.011836, 0.008992, -0.019821, -0.014031, -0.028475, -0.052684, 0.00633, -0.001363, -0.044158, -0.01338, -0.033137, 0.0352, 0.008885, -0.020707, 0.000831, 0.033163, -0.024612, 0.029159, 0.003802, 0.015399, 0.031204, -0.059205, 0.011332, 0.032054, -0.066266, -0.023367, 0.014172, -0.032254, 0.005404, -0.023787, -0.011586, -0.02751], [-0.060105, 0.034185, 0.018318, 0.032731, 0.007862, -0.002978, -0.014303, 0.010952, 0.02102, -0.026266, -0.019854, 0.022764, 0.018498, -0.021948, 0.014267, 0.027371, -0.038584, 0.019162, 0.004043, -0.019005, -0.030915, -0.02123, -0.06243, -0.059956, 0.018122, -0.027999, -0.036266, -0.012173, -0.061974, -0.038914, -0.015651, -0.02813, -0.037195, 0.040837, -0.035263, -0.006304, -0.01773, -0.038454, 0.009571, -0.051343, 0.033872, 0.034127, -0.027693, 0.022292, -0.030361, -0.042489, 0.024424, -0.042722, -0.035946, 0.003417], [-0.568488, -0.44874, 2.22244, 1.11069, 0.405298, -0.203596, 0.885333, -1.71332, 0.008166, 0.062558, 0.366233, 1.05086, 0.824899, 1.70977, -0.404916, -0.012267, -0.135936, 0.086512, 0.458963, 0.575907, 0.281505, -0.762461, -0.121874, -1.41289, -0.086692, 0.481851, -0.60864, 0.405153, -1.17655, -0.036775, -0.309656, -0.655696, -0.173369, 0.081174, -0.301468, 1.18501, -0.447811, -0.017291, 0.218936, 0.206505, 0.041834, -1.16486, 0.172157, 0.303636, -0.740693, -0.110109, -0.386292, 0.195682, 0.43053, -0.35044], [-0.048515, -0.047155, -0.042773, -0.000461, -0.02661, 0.023916, -0.018773, 0.00732, -0.039695, 0.020761, -0.036525, 0.011342, 0.005656, -0.009812, 0.014271, -0.019434, -0.041203, 0.039888, 0.033929, -0.002556, 0.0024, -0.058041, -0.008892, 0.004712, 0.012673, -0.046489, 0.024465, -0.052867, 0.004797, 0.013941, 0.019526, 0.001562, 0.02861, 0.002669, -0.007631, -0.046556, -0.042614, -0.043622, -0.044805, -0.007915, -0.054368, 0.039565, -0.031722, -0.025577, -0.044924, -0.044456, -0.046165, -0.019422, 0.008531, -0.030561], [0.03818, -0.020694, -0.055809, 0.007642, -0.000483, -0.044383, -0.019061, -0.02652, -0.025377, 0.009521, -0.027528, -0.05358, 0.00091, -0.025255, -0.024884, -0.043562, -0.042531, 0.009838, -0.00377, -0.011319, -0.024307, 0.021374, -0.022977, -0.014104, 0.016267, -0.036736, -0.043524, -0.018621, 0.035859, -0.049921, 0.002549, 0.006016, 0.001931, -0.023455, 0.026085, -0.051761, 0.04443, 0.028046, 0.024939, -0.009749, -0.000494, -0.047436, -0.048425, 0.019706, 0.016464, 0.029558, 0.029949, 0.014287, -0.043534, -0.020266], [-0.020803, -0.018968, -0.059777, -0.011506, 0.016478, 0.013705, -0.022772, 0.015584, -0.050575, 0.016455, 0.004991, -0.001479, -0.013845, -0.038672, 0.017878, 0.027536, 0.008856, 0.019454, 0.019617, -0.046666, -0.042634, -0.011997, -0.039891, -0.001878, 0.015582, 0.020002, -0.003397, -0.000114, 0.022054, 0.010588, -0.066313, 0.000486, 0.009533, -0.036999, -0.00409, -0.000697, -0.011594, -0.019758, -0.034082, -0.042663, 0.0404, 0.032446, 0.005727, -0.003643, -0.051448, 0.013806, 0.028629, -0.035931, -0.037537, -0.051249], [0.007858, 0.044327, -0.039519, -0.069091, -0.040162, 0.033798, -0.048936, -0.01666, 0.041834, -0.010977, -0.034584, -0.026846, -0.040206, -0.045355, -0.042957, -0.052639, 0.031559, 0.034652, -0.004899, -0.009718, 0.019764, -0.017472, 0.008478, -0.028979, -0.047749, -0.024204, 0.022509, 0.035995, -0.027211, -0.050748, 0.026221, -0.048864, -0.040984, 0.02768, -0.008198, -0.016849, -0.004244, 0.017197, 0.006207, -0.043405, -0.04399, 0.037524, -0.039499, 0.032635, -0.012529, -0.000511, 0.027324, -0.020629, -0.049368, 0.006347], [0.401254, 0.279494, 0.748806, -0.563421, 0.124558, 0.560432, -0.141024, 0.227296, -0.525907, 2.14834, -0.563311, 0.566627, 0.562461, 0.87109, -0.360943, 0.017929, 0.328896, -1.28468, 0.172357, 0.291823, 0.06525, 0.914598, 0.307901, -0.523197, 0.312124, -0.281975, 0.112194, 0.113934, 0.398129, -0.304958, 0.298157, 0.049541, 0.568469, -0.96788, 0.094926, -0.969172, 0.420836, -0.028032, -0.144731, 0.295283, 0.005902, 0.059159, 0.146843, -0.544983, 0.073645, -0.344034, -0.710421, -0.963147, -1.34688, -0.202092], [-0.163596, -0.038557, -0.376541, -0.006388, -0.004703, -0.9755, -0.302985, -0.120211, -0.732882, -0.051893, -0.111532, -0.013412, -0.27775, -0.619946, 0.245364, -0.028698, -0.473959, 0.32162, 0.333558, -0.952634, -0.146546, 0.21139, -0.019821, 0.006915, 0.057277, 0.274089, -0.396096, -0.055758, 0.130364, -0.005367, -0.208558, -0.370596, 0.065895, -0.190436, 0.378694, -1.12847, -0.039697, 0.007609, -0.627647, -1.44373, -0.0021, 0.091699, 0.225213, 0.799905, 0.012938, 0.269888, 0.000588, 0.31163, 0.136727, -0.144931], [-1.50689, 0.531863, 1.04448, 0.065829, 0.261798, -1.16721, -3.89456, -0.661575, -0.99127, 0.446841, -1.92099, -0.143716, -1.16721, 0.828353, 0.206493, -0.027591, -0.296827, -0.036464, 0.403466, -0.060281, 0.559395, 1.04646, 0.293052, -0.219288, -0.142489, 0.577655, -0.370445, -0.013049, -0.098371, -1.37078, -0.060553, 0.07139, -0.52294, 0.750478, 0.200297, -0.152777, 0.518255, -0.031978, -2.59451, -3.3236, -0.038056, -1.56612, -0.242287, 0.703787, 0.322074, -2.12654, -0.087157, 0.387691, -0.073938, -0.97751], [-1.10338, -0.061518, -0.767001, -1.3994, -0.111061, -0.12758, 0.096159, -0.226892, -0.137889, -1.0884, -0.643976, 0.511616, -1.2436, -1.23624, -0.181403, 0.023141, -0.586996, -0.212373, 0.677068, -0.110163, -0.484947, 0.037507, 0.272008, 0.458967, -0.226351, 0.987938, -0.223649, 0.310929, -0.949527, -0.621633, 0.076822, 0.403384, -0.431802, -0.013048, -0.378993, -0.534596, 0.603292, 0.018894, -0.329104, 0.549409, -0.000219, 0.471417, -0.078243, 0.568009, 0.673912, -2.35879, 0.655022, 0.257655, 0.338474, -0.386431], [0.595133, -0.150721, 0.080279, 0.167304, -1.43521, -0.575227, -1.9135, 0.01846, 0.593432, 0.67308, 0.783197, 0.025964, 0.452744, 0.141831, 0.297948, -0.041479, -0.229389, 0.133965, -0.106526, 0.104074, 0.00126, -0.474928, -0.012528, -0.100956, -0.60854, -0.02722, -0.093095, 0.064432, -0.372332, -0.402674, 0.490599, -0.288804, 0.301188, -0.100852, -0.234375, 0.27385, -0.071548, -0.021138, -0.184866, -1.63337, -0.035463, -0.61781, -0.165273, 0.11223, 0.1267, -0.12415, 0.317328, 0.140233, -0.112024, 0.116639], [-2.49639, -0.331035, -0.058827, 0.112556, 0.299268, 0.495213, 0.022445, 0.931044, -0.076072, 2.27374, -0.081614, 0.092452, 0.23034, 0.316434, -0.018882, 0.007767, 0.146228, -0.132193, 0.023176, 0.084596, 0.755128, 0.823508, 0.412943, 0.014047, 0.70292, -0.177427, -0.424485, 0.62024, 1.83092, 0.553606, -0.444385, 1.07682, 1.20219, -0.5812, 1.12718, 0.064796, 0.587842, -0.043293, -2.72241, -0.703572, -0.042531, -0.297675, -0.367545, 0.207131, 0.771083, 0.602722, -0.650655, 0.181533, -0.696239, 1.04558], [0.37706, 0.005774, 0.490774, -0.270099, -19.9624, -0.018969, -0.562227, 0.392669, 0.419986, 0.601189, 0.591727, -0.229127, 0.651934, 0.678413, 0.269488, 0.013796, 0.446056, 0.362336, -0.025696, 0.019714, -0.307772, 0.203549, -0.271649, 0.349838, -0.81518, 0.129318, 0.545761, 0.098965, 0.150252, -0.187218, 0.910253, 0.618087, -0.113756, -0.07162, -0.751719, 0.405477, 0.012981, 0.004282, -0.224565, 0.378183, 0.043111, -0.468841, -0.308471, 0.077652, 0.04181, 0.032824, -0.309034, -0.86436, 0.337951, -0.202257], [-0.012108, 0.025869, 0.021903, -0.062138, -0.032846, 0.027336, 0.018279, -0.029874, 0.013203, -0.022846, -0.018169, -0.036211, -0.056228, 0.024723, -0.015704, -0.005727, -0.068147, -0.023439, -0.020542, 0.020418, 0.010981, 0.021819, 0.001319, -0.00228, -0.056522, -0.040173, 0.024408, 0.030519, -0.04792, 0.004264, -0.032032, -0.052112, -0.03919, -0.018116, -0.052886, 0.027753, -0.026261, -0.00189, 0.01936, 0.000839, 0.019901, 0.013276, 0.015816, -0.044203, 0.03139, 0.024048, -0.014205, 0.002598, -0.038113, -0.030591], [-0.568811, -0.574039, 1.059, 0.12043, -0.344801, 0.667762, -0.506993, -0.023329, -0.175498, 0.663714, 0.051691, 1.32079, 0.587422, -0.087376, -1.74817, 0.023506, 0.132167, 0.122813, -0.020162, -0.124675, -0.918647, -0.551732, -0.15735, 0.20124, -0.944097, -0.377025, 0.549733, 0.08519, -0.06799, 1.35397, -0.541424, 0.533656, 0.839558, -0.335116, -0.053349, 0.287171, 0.308471, -0.025082, 0.505499, 0.729282, 0.004387, -0.382306, 0.450309, 0.951726, 0.020705, 0.485847, -0.056482, -0.066843, 0.271555, 0.191754], [0.015386, -0.315182, 1.01545, 1.22308, -0.12613, -1.78458, -0.031854, -3.22923, 0.713745, -1.58056, 0.787637, 0.166439, -0.125029, 0.074031, -2.12178, 0.044692, 0.185617, -0.653138, -0.803737, 0.650343, -1.81499, 0.06091, -0.891179, 1.78269, -0.968413, -1.94346, -0.008608, -0.575552, -2.08936, 3.70143, -0.00875, -4.07967, -3.74575, -2.02771, -2.28249, 0.400279, -3.60279, 0.00164, 0.531646, -0.077058, 0.012174, 2.22962, -0.597888, -0.727424, -4.62708, 4.04212, 0.222802, -0.680344, 0.889044, 1.74953], [-0.784615, -0.979148, 1.01939, 1.3527, 0.4067, -0.923257, 2.1695, -3.36751, -0.042214, -1.85876, -0.921532, -0.678311, -1.98314, -0.120565, 0.128781, -0.013807, -0.032014, -1.26867, 0.404421, -0.084482, -1.5092, 0.70594, 1.0345, -1.87982, 1.296, -0.13247, -1.07518, 1.53446, -0.455098, -2.87362, 0.725711, 0.983426, -0.992915, -0.051197, 1.1676, -0.162559, 0.501885, -0.051011, -0.145787, 1.19208, -0.037232, -2.49131, 0.068845, -0.278116, -1.11703, -13.7698, -0.263881, -0.958283, 1.24828, -0.394323], [-0.150458, 0.102663, 2.70785, 0.182447, 0.34888, 0.266757, 1.83748, 0.24391, 0.468914, 0.153591, 0.222866, -0.200981, 0.13459, 1.2085, 0.302321, -0.010606, 0.254473, 0.10535, -0.320003, -0.251303, -0.606811, -0.131177, -0.032212, 0.473366, 1.07214, -0.60887, -0.227807, -0.266566, 0.667286, 0.640801, -0.452032, 0.176337, 0.831382, 0.015107, 0.223244, 0.091878, -0.224615, 0.011178, 1.43758, 1.61223, -0.0152, -0.232088, 0.387333, 0.189998, -2.61859, 0.325043, -0.201062, -0.627219, 0.455492, 0.221422]], [[-0.035974, -1.89991, -1.36236, -0.378191, 0.043564, -1.42318, -0.000672, -0.042997, -0.849422, -0.008215, -4.27583, -1.67019, 1.30687, 0.002742, -0.769265, -1.30098, -0.299916, 0.00185, -2.38595, -1.04644, -3.25727, -0.046946, 0.160457, -3.6108, -1.82606, -1.13804, -2.15746, 0.004773, -0.031559, 2.14416, -3.05158, 0.038403, 0.001629, -0.032217, 0.012374, 0.001934, 0.028528, -0.013173, -0.984221, 2.44371, -2.10116, -2.5621, -3.3243, -5.97497, 0.913486, -0.000616, 2.6007, 0.332605, 0.867684, -0.684845], [-0.003475, -0.107289, 1.68111, 0.594974, 0.009643, 0.304864, 0.002994, -0.043831, 0.612265, -0.025305, -0.121483, -0.740738, 0.344282, -0.012396, 0.290893, 0.675699, 0.099369, -0.03542, -0.514779, 0.487321, -0.10778, -0.014031, 0.244034, -0.199065, -0.388589, 0.669631, -0.15301, 0.006125, 0.481122, 0.668738, 0.304505, -0.023145, -0.010513, -0.514765, 0.014743, -0.051489, 0.001172, 0.043139, -0.295203, 0.593595, -0.018053, 0.568866, -1.56713, 0.485926, 0.535542, -0.025105, -0.356859, -0.016086, 0.028845, 0.188339], [-0.00662, 1.67822, 0.378142, 2.88595, 0.030388, 0.091796, -0.026722, 0.044831, -1.17479, -0.036079, -0.553576, 0.483195, 2.24139, 0.043433, 0.654676, 0.267834, -0.738199, 0.027779, -0.280157, 1.32536, 0.230664, 0.023808, 0.241649, -0.086798, 0.670435, -0.471981, -0.796956, -0.035198, -0.183339, 0.988677, -0.044173, -0.002083, 0.032772, -0.12031, -0.025802, -0.029328, 0.020515, -0.029255, -1.62885, -2.7093, 0.206439, 0.258117, -1.98573, 0.25789, 2.34964, 0.027771, 0.79473, 0.48899, -0.340817, -1.62455], [0.032968, -0.568933, -0.098334, 1.84921, -0.014151, 0.520958, 0.02201, -0.040207, 0.564105, -0.004715, -1.0808, -0.051654, -0.417112, -0.047042, -0.207338, 0.290479, 0.225522, 0.029476, -0.312916, -0.659878, -0.416453, 0.010391, 0.217548, 0.07034, -0.129474, 1.08666, -0.111933, -0.014241, 2.23603, -0.110549, 0.464978, 0.063403, -0.02143, 0.13757, -0.019565, 0.038513, -0.028688, -0.043268, -0.209071, 0.958556, -0.286909, 0.73534, 0.646229, 0.697564, -3.00743, 0.049413, -0.462865, -0.057542, 0.29931, 0.928845], [-0.025356, -0.495395, 0.112916, 0.524686, -0.047321, 0.251501, 0.019275, -0.04341, 0.334329, -0.027244, -0.220488, 0.473014, 1.43947, 0.005969, -0.597522, 0.205588, 0.112332, -0.013514, 0.450009, -1.14934, 0.158009, 0.01042, 0.421368, -0.352158, 0.059535, -0.18585, -0.579233, -0.036664, 0.655191, 0.242164, -0.427416, -0.02764, 0.021782, -0.091069, 0.036749, 0.045481, 0.009664, 0.038211, -0.218112, -1.02129, 0.197214, 0.362624, 0.071171, 0.429693, -0.684943, -0.042956, -0.380476, 0.107686, 0.204639, -0.084483], [-0.027438, 0.91344, -0.921513, 2.14565, -0.039747, -0.409519, -0.010152, -0.00041, -1.13, 0.001259, 1.19393, 1.51168, 2.49694, -0.03384, -0.425372, 0.734554, -0.937839, -0.000169, -0.279948, -0.119487, -0.128722, 0.034369, 1.00988, 2.53544, -0.034638, 0.151395, -1.56728, 0.022408, 0.780488, 1.03644, 2.62585, -0.020703, -0.031157, 0.497702, -0.045996, 0.025105, -0.005408, -0.03554, 1.36262, 1.96431, 1.70811, 0.71731, 0.804658, -0.823773, -0.423726, 0.010475, 1.35967, -0.656097, -0.211068, 0.81733], [-0.037923, -0.557898, -1.66441, 0.693527, 0.007001, -0.294878, -0.026408, -0.003641, 1.02724, -0.008895, 0.758599, 0.436671, -4.42305, 0.031058, -0.04576, 0.336493, -0.199338, 0.049723, 0.321564, 0.104793, -0.221487, -0.030173, -0.256057, -1.38692, 0.118212, -0.192942, 0.315258, -0.012559, -0.932125, 0.583056, -1.39632, 0.058577, 0.020042, -0.102267, 0.010466, -0.005648, -0.005195, 0.007239, -0.938379, 1.19077, 0.254481, 0.639185, -1.11725, 0.251143, 0.28983, 0.011951, 1.06372, 0.158991, 0.025082, 1.94795], [0.045465, 0.280173, 1.8091, 1.46084, 0.028004, -2.13723, 0.034217, 0.049877, 1.68004, 0.009831, 0.021732, 0.178166, 2.01199, -0.025341, 0.186363, 0.196626, -0.072999, -0.004494, -0.25732, 0.020675, -0.373136, -0.031331, -0.576423, 0.632413, 0.967718, 0.550294, 0.340851, -0.030974, -0.554694, 3.16166, 0.639005, 0.02676, 0.030058, -0.140238, -0.002942, -0.016211, 0.030488, 0.000514, 0.821658, -2.63365, 1.29575, -0.340104, -0.544655, 0.205806, 0.027149, 0.012692, -1.14559, 0.029679, 0.023671, -0.036415], [-0.044098, 0.771406, 1.2168, 1.1148, 0.01492, 0.434711, 0.001873, -0.020537, -0.434057, 0.039954, 3.67494, 0.074265, -0.057415, -0.013149, -0.207284, -0.220558, -0.713758, -0.011337, 1.206, 0.243423, -0.236331, 0.011682, -0.262918, -2.06385, -0.902233, 0.683268, -0.679422, 0.01914, 0.950163, 1.18748, 0.295382, 0.016337, 0.034393, -0.421543, 0.039931, 0.026481, -0.000591, -0.016601, -0.175778, 0.190736, -0.287581, 1.05492, 0.835265, 1.04359, 0.060608, 0.018165, 1.91046, -0.401173, 0.138658, 1.85722], [-0.049998, -0.136667, -1.19363, -3.90154, -0.020307, -1.17134, -0.011643, 0.03199, -0.063114, -0.065767, 0.0735, -1.09729, 0.183946, -0.008713, -1.99613, 0.269126, 0.165212, 0.015704, 0.096868, 0.333131, 0.488877, 0.034304, 0.157476, -0.728361, -0.098094, -1.94053, 0.430239, 0.024492, -0.584498, -1.8415, -0.2837, 0.01907, 0.029338, -0.50284, 0.002379, -0.003493, 0.035904, -0.03708, -3.02891, 0.727491, -1.07568, -0.823866, 0.480205, -0.312326, 1.81121, -0.022166, -0.030404, 0.274179, -0.103881, -0.723448], [-0.000919, 0.156316, -0.237006, 0.711193, -0.022473, -0.007755, -0.007782, -0.001549, 0.637088, -0.04193, 2.12364, 0.073078, -4.45084, 0.012621, 1.67997, -0.456532, -0.676106, 0.039513, -0.837653, -0.075772, 0.136163, -0.014641, 0.07854, 1.08598, -2.78467, -0.512442, 0.38176, 0.043695, 0.943866, 1.05952, 0.622376, -0.053041, 0.037644, 0.115783, 0.023824, -0.015925, -0.026625, -0.007695, 1.15264, 0.977438, 0.040467, -0.402486, 1.15929, 1.15409, 0.373925, -0.00547, 0.966163, -1.91787, -0.401381, 0.49339], [-0.011242, 0.481813, 3.18009, 2.73269, -0.012374, 0.266523, 0.010402, -0.002565, -1.61129, 0.010696, 0.954938, -0.428353, 2.88683, 0.009727, 1.13692, 0.573687, -0.626589, 0.016506, 0.228169, 0.663873, -0.186567, -0.017252, -0.026005, 2.01544, -0.767533, 0.297454, -0.130724, -0.033004, -0.607232, 1.42208, 0.038899, 0.055042, -0.006149, -1.22734, 0.002932, 0.055977, -0.003848, -0.000351, 1.22379, 0.829705, -0.984497, -0.039554, 1.70429, 1.17472, 2.18867, -0.01748, 0.86908, 0.025251, -0.628148, 0.309871], [0.020383, -0.243033, 0.980795, -0.422422, -0.024173, -0.387218, -0.049422, -0.003868, -0.072632, -0.038386, 0.273301, -0.684678, 0.693372, -0.003126, 0.645474, 0.409062, -0.044081, -0.003434, -0.399182, -0.053086, 0.248528, 0.003613, -0.125553, 1.89945, 0.249492, 0.633563, -0.367686, -0.011874, 0.494704, -1.09142, -0.74304, 0.033636, 0.033832, -0.25229, 0.028821, 0.040655, 0.025867, 0.036183, 0.262532, 0.950135, -0.300156, 0.161235, -0.30613, -3.88292, -0.61939, -0.030827, 0.327294, -0.132182, -0.015388, -1.41042], [0.006076, 1.39644, 1.03114, -1.56092, -0.024669, 0.615119, 0.024211, -0.001021, 2.21486, 0.008342, -0.270549, 0.64679, 0.938065, 0.037843, 0.807519, -0.506228, -0.202203, -0.01822, -1.07346, -0.192257, -3.59016, 0.026109, 0.109166, 0.37805, -0.208669, 0.256832, 0.523863, 0.003518, 0.032366, 0.95954, 0.150188, -0.016151, -0.010789, -0.153619, -0.044762, 0.014999, 0.050225, 0.010325, -1.00045, -1.63516, -0.407909, 0.841659, -0.141587, 0.380747, -0.499646, 0.001868, -0.150045, 0.110404, -0.268231, 1.06119], [-0.004329, 1.54413, 0.344532, -0.132159, -0.035406, 1.82526, -0.020542, 0.042031, -1.37395, 0.048852, 0.690004, -0.102436, 0.492056, -0.036657, 1.74129, -1.18385, -0.196891, -0.044828, 0.027346, 0.395782, -0.292709, 0.009088, -0.088779, 1.02962, 0.582652, 0.480307, 0.011704, -0.040904, -1.36971, 1.52792, -0.593691, -0.020786, -0.009454, -0.495228, 0.001169, -0.015839, 0.010542, -0.000915, 1.27168, 0.427108, 0.840826, -0.990542, 0.379673, 1.07169, 0.339456, 0.002877, 0.277317, 0.381287, -0.068722, -2.82911], [-0.022883, -2.63419, 1.44989, -0.069578, 0.040428, -0.038597, -0.005097, 0.015184, -4.64618, -0.002925, 0.760992, 1.2249, -0.678641, 0.027676, -0.338037, -0.253122, 0.053265, 0.033942, -0.575865, -1.12261, -0.170511, -0.031676, -0.154992, 1.22477, 0.336959, 0.133564, -0.49449, -0.047331, 0.019016, -0.348931, -1.94172, -0.016596, 0.006367, 0.412886, 0.008888, 0.0442, -0.0421, 0.010276, -0.275365, -7.67273, -0.419127, 0.142121, -0.387701, -0.268882, -3.21764, -0.049281, -0.234552, 0.621998, -0.184206, -0.429727], [0.041892, -1.74956, -0.315272, 0.811147, 0.012009, 0.898899, 0.004114, -0.004457, -0.608946, -0.017577, -0.271261, -1.79736, -0.988782, -0.02515, -0.545613, -0.289361, 0.664248, 0.027544, 0.30531, -0.303158, 0.165355, 0.039696, 0.378947, -1.4868, -0.772658, 1.62178, -0.054974, 0.017464, -0.57457, -2.328, 1.20297, 0.03118, -0.06607, 0.468739, 0.032966, 0.045218, 0.010289, 0.031392, -0.97497, -2.51947, -0.436816, -0.068779, -1.23003, 0.977792, -1.89978, -0.024765, -2.31607, -0.028552, 0.028459, 2.80198], [0.002754, 0.344196, -0.301038, 2.20738, 0.017607, -0.806517, -0.011769, 0.046278, 1.16472, 0.052735, -1.22498, 1.19288, 1.01782, -0.035949, 0.449343, -0.836419, -1.09147, 0.027974, -0.061423, -0.392296, -0.198803, 0.01857, -0.314373, -1.44834, 0.283212, 0.364053, 0.236055, 0.023153, 1.59479, 1.01405, 1.73062, 0.032768, -0.017209, -0.022488, 0.007935, -0.020168, 0.042167, -0.010324, 0.430062, 2.02587, 0.72049, -0.556273, 1.05489, -0.828972, -0.429886, -0.036976, 0.495875, 0.280977, 0.064874, 0.248805], [-0.037918, 0.687185, 0.013946, 0.016382, -0.034509, 0.160295, -0.044594, -0.000718, 1.57045, -0.042107, 0.355049, -0.472569, -0.359488, -0.040282, -5.10433, -0.610462, 0.274002, 0.015912, 0.347971, -0.643061, 0.033556, -0.018524, -0.135495, -1.32064, 0.302644, -0.371866, -1.17134, -0.003767, 1.1707, 0.507549, -1.41791, 0.025379, -0.010231, -0.479076, -0.04224, -0.031127, -0.049206, 0.008663, 0.753374, -0.652227, -0.142356, 0.111316, 0.420774, 1.19752, -0.699908, 0.044088, -0.113549, 0.254001, 0.123521, 0.394865], [0.026809, 1.54421, 3.35278, 1.13623, -0.003203, -0.635255, -0.005485, 0.005757, -0.185773, 0.031385, 2.22299, -0.529406, 0.104142, 0.011705, 0.259129, -0.210132, -0.681825, 0.04063, 0.820157, -0.267136, 0.028727, -0.024621, 0.416747, 0.320775, -6.01911, 0.486715, -0.239567, -0.040288, 0.321123, 1.38118, 0.05932, -0.007936, -0.03826, 0.153689, 0.039285, 0.02933, 0.038962, -0.028507, 1.326, 1.02492, -0.858765, 1.35816, 2.13178, 2.0923, 0.527717, -0.0456, -3.38456, -1.75122, -0.158247, 0.73379], [-0.048128, 0.237138, -0.657395, 0.487882, -0.042252, -0.312241, -0.000918, -0.015427, 0.930959, -0.046372, -2.17925, -1.41339, 3.40718, 0.047019, -1.8913, -0.435768, -0.46362, 0.003371, 1.00269, 0.958184, 0.597336, -0.036879, 0.864089, -0.262417, 0.685625, -0.42453, -0.138014, -0.028293, 1.03146, 1.17249, -0.395892, -0.00086, 0.010981, 1.21251, 0.047099, 0.046808, -0.012982, 0.04399, 3.54229, -1.26674, 0.358202, 2.52837, -0.13815, -2.77967, -0.443656, -0.018321, -3.7549, -0.159566, 0.121659, -1.2837], [0.050387, 2.31881, 2.68023, 2.04704, 0.046615, 1.03126, 0.031895, 0.035424, -0.723572, -0.017725, 0.895357, 0.855048, -1.56763, -0.009545, -0.825195, -0.295353, -0.935186, -0.035442, 1.20401, 0.463979, 0.978736, -0.015556, 0.663784, 1.91724, 1.19616, 1.77144, 1.17301, 0.005, 3.68409, 0.733422, 2.16067, 0.007003, 0.014333, -0.050613, 0.025548, -0.002026, -0.010384, 0.002558, 0.310655, -0.955318, 0.299845, -0.976939, 1.17747, 1.22921, 0.353405, -0.020938, -0.54796, 1.48438, -0.155225, -0.472013], [-0.026293, -0.789084, 2.60191, -2.64107, -0.002744, 0.570071, 0.000511, -0.051511, -0.39018, -0.021674, -0.097256, 1.4281, -0.256179, -0.037482, -2.01213, -1.0716, 0.59935, 0.027697, 0.33442, -0.154874, 0.194348, 0.044514, -0.1901, 0.115416, 1.51064, -0.509751, 0.837829, 0.008768, 0.800251, -2.16713, -2.05663, -0.019526, 0.009169, -0.275857, 0.033208, -0.042665, -0.009373, -0.022632, 0.430314, -2.62489, 0.12589, 0.54412, -1.17579, -1.6215, -0.657384, -0.029617, 0.831214, -0.018539, 0.133461, 0.978655], [-0.039577, 0.157823, 0.030822, 0.255821, -0.037153, 0.262729, 0.050019, -0.010606, 0.236729, -0.034406, -0.054612, -0.528422, -1.3894, -0.020401, -0.363502, 0.199153, -0.217973, 0.002495, -0.013019, -0.085351, 0.015904, -0.034615, -0.136959, 0.595423, -0.545149, -0.023861, -0.505266, -0.00558, 0.05081, -0.364141, 0.586299, 0.024572, 0.031388, 0.085025, -0.012658, -0.014642, -0.011867, -0.021226, 0.330008, 1.07352, 0.043985, 0.07625, 0.338004, 0.244568, 0.095795, -0.019577, -0.027984, -0.048665, -0.064531, 0.645361], [-0.020405, 0.506909, -0.233143, 0.180031, 0.028355, -0.127598, 0.002073, 0.032808, 0.280809, 0.014371, -0.604378, 0.282796, -0.15482, 0.022835, 1.16285, 0.456639, -0.697142, -0.021065, -0.030421, -0.05523, 0.012556, 0.016908, 0.402161, 0.35477, -0.161727, -0.88131, -0.507108, -0.0264, 0.875827, 1.09133, -0.485465, -0.021495, -0.032681, -0.100592, 0.034833, -3.5e-05, -0.012609, -0.000165, 0.31616, 0.131946, 0.139805, 0.127214, 0.423789, -0.141768, 0.536723, -0.011002, -0.542677, -0.077891, 0.252547, 0.432141], [-0.013335, 0.9372, 0.349677, 4.22409, -0.027086, 1.38005, -0.003727, 0.037887, -0.524607, -0.024769, 1.93882, -0.009251, 1.03575, -0.043162, 1.08286, 0.139104, 0.053072, 0.031724, -0.274341, 0.324304, -0.861111, 0.008811, 0.074802, 0.247347, -0.247597, -0.046877, -0.00415, -0.034138, 1.45619, 1.85152, 0.610761, -0.032699, -0.027458, -0.654045, -0.035612, -0.024265, -0.03614, -0.006795, 1.53648, -0.670486, -0.4287, -0.305799, -0.450967, 0.359462, 1.13946, 0.002131, 0.351741, -0.116157, -0.165262, 1.39], [-0.001114, -2.88404, 1.75869, -0.010148, -0.011233, -0.111454, 0.033014, 0.042961, -4.29819, -0.025265, -0.758768, -2.94679, -2.27698, -0.021704, -1.47933, -0.45594, -2.50506, -0.051177, -5.04721, -0.273022, -7.37588, 0.028393, -0.376832, 2.22901, -0.761846, -0.608452, 0.287651, 0.011887, 0.028845, -1.18955, -3.02636, 0.039786, -0.039284, 0.735033, -0.031824, 0.014569, 0.036886, 0.025329, 1.09749, -2.89181, -2.32916, -0.057384, -0.606857, 0.355655, -3.214, 0.025912, 0.142325, -0.393645, 1.4989, 1.7431], [0.05307, -3.71603, 1.57537, 1.74706, -0.023956, -0.170939, -0.047, 0.021328, 0.469906, -0.000847, 0.225815, -1.29502, 1.5226, 0.030247, -0.351827, 0.607397, 0.034777, -0.018256, -0.682274, -0.778476, 0.213915, -0.024265, -0.179059, -4.79325, -1.19098, -0.483186, 0.216283, -0.048237, 0.509147, -2.95415, 0.886006, 0.038831, 0.038169, -0.51995, -0.043492, 0.030913, 0.002955, -0.035865, -0.000213, -1.98375, 0.586739, 0.718054, 0.397105, -0.990487, -0.004617, -0.022349, -0.797898, 0.186811, 0.420262, -1.04431], [0.028575, 0.026894, 0.089145, 3.24761, 0.042367, 0.036647, -0.009094, -0.013489, 0.988655, 0.001259, -1.32595, 1.15589, 0.264879, -0.042941, 0.157118, 0.080698, 0.135768, 0.004692, -0.049493, 0.77756, -0.380802, 0.041446, 0.214687, 0.116845, 0.285458, 0.616403, -0.57575, -0.040145, -0.116816, 1.16181, -0.137633, 0.012947, -0.041257, -1.17873, -0.01812, 0.034959, 0.037731, -0.010488, 1.60188, -0.828425, 0.817315, 0.825431, 1.28833, -0.516247, 0.250932, 0.054517, -0.647819, -0.546922, 0.240814, -0.88252], [0.02305, -0.292664, -1.30329, -3.38191, 0.044433, -0.681707, -0.036954, -0.033319, -0.635224, 0.038379, -1.28583, -0.555015, 1.64091, 0.040546, 1.88356, -1.40699, -0.730324, 0.03847, 0.951287, -0.673961, 0.947277, 0.009621, -0.467078, 0.729237, 0.695152, -0.892052, 0.667317, -0.031905, -1.96924, 0.597809, -1.90999, 0.039883, -0.051868, 0.414432, 0.020833, -0.009656, -0.038531, -0.025532, -0.397529, 0.606821, -0.213013, -0.230522, -2.01994, -3.69226, 0.916976, -0.037158, 1.68356, 0.126525, 0.354731, 0.365064], [0.020228, -0.157501, -0.270255, -0.246735, -0.004742, -0.716691, -0.018544, 0.005108, -0.795882, 0.010182, 1.1694, 1.24902, -0.959391, -0.023976, -3.13357, 0.461204, -0.737844, -0.060088, 0.710398, 0.193973, -0.586914, 0.028296, 0.507647, -1.15451, 1.71472, -0.4119, 1.37024, 0.009694, 0.557779, -4.99491, -0.199084, -0.055733, 0.04096, -0.04695, -0.025724, -0.043933, -0.005905, 0.027041, -1.28283, -0.206556, 1.3001, 1.05893, -1.07295, -0.433295, -0.7739, -0.001933, -0.851193, -0.490564, 0.040748, -0.375861], [-0.057848, 0.037329, 0.331368, 0.668294, 0.006132, -0.530092, -0.015531, 0.010413, 0.640993, -0.020801, 0.325764, 0.589171, -0.31778, -0.025521, 0.758076, 0.208832, -0.152728, -0.042135, 0.153165, 0.109221, -0.195369, -0.0052, -0.050746, -0.011635, 0.406737, 0.032078, 0.05771, 0.008524, 0.0463, 1.05802, -0.002826, -0.035274, -0.026333, -0.079957, -0.035181, -0.03639, 0.04424, 0.006223, 1.60289, -0.788782, -0.214276, -0.43431, 0.583349, -0.32832, -0.527691, -0.023033, -0.535538, 0.061596, -0.368211, -0.233973], [-0.005571, 0.005713, -0.174779, -1.72864, -0.017593, 1.00729, -0.036493, 0.019927, 1.36629, -0.006865, 0.972916, 0.457174, -1.62892, 0.028282, -2.95862, 0.31406, 0.32648, -0.022997, 0.256667, 0.98277, 0.633004, -0.019322, 0.394959, -0.28447, 0.137106, 2.66729, 0.339466, 0.049712, 1.5075, -5.19568, 0.529296, 0.032897, -0.044313, 0.566659, 0.027152, -0.042037, -0.003634, -0.012188, 0.896197, -1.93113, -0.011646, -0.884, -0.927316, -3.97251, -2.17148, 0.027089, -1.46479, 0.724621, 0.244412, -1.0614], [-0.012071, -0.668467, -0.428205, 0.581445, -0.034253, 0.04173, -0.006755, -0.013807, 0.267417, 0.021771, 0.089563, 0.413852, 0.129484, -0.006508, -0.455188, 0.076374, 0.129605, 0.006375, -0.115914, -0.362133, -0.302874, -0.045604, -0.049936, 0.000382, -0.338247, -0.275953, -0.383841, 0.042096, 0.65101, 0.215893, 0.764041, -0.006382, -0.034884, 0.211672, -0.044273, 0.009806, 0.015986, 0.020822, -0.264148, 1.07947, -0.145636, 0.224883, 0.535135, 0.24973, 0.144687, 0.009656, 0.037467, -0.494293, -0.022124, 0.036513], [-0.032768, -0.062509, 0.566841, -1.05752, -0.024912, -1.03491, -0.014992, -0.050228, 0.505778, -0.0192, -1.13625, 0.625315, -1.37769, 0.012343, -0.395581, 0.011622, 0.42245, 0.002631, 1.11135, 0.107256, 1.01149, 0.017641, -0.152799, -0.777497, 0.980702, 0.472689, 0.464605, 0.030452, 2.07695, -2.37735, 1.20245, 0.005835, -0.014361, -0.187171, -0.031554, -0.01003, 0.001717, -0.006481, 0.672096, 0.933977, -0.147685, 0.09071, -1.62119, 0.008299, -1.26032, -0.023544, -1.40914, 1.30243, 0.243512, -1.48844], [0.010346, 0.059707, -0.857376, 0.005067, 0.015418, -0.394926, -0.017335, -0.003108, 1.31113, 0.001574, -0.449287, -1.44861, -1.65377, -0.041209, -1.92326, 0.287395, -1.71362, -0.054241, -0.613478, 0.215271, -6.77446, -0.043967, -0.181983, -0.694108, -0.474604, -0.170495, 0.305582, -0.011517, -0.024361, -1.76958, 0.109728, -0.023596, 0.025403, -0.208822, 0.00788, -0.027192, 0.023206, -0.02492, -1.22201, -1.06748, -0.706569, -0.57393, -0.244574, 0.542953, -0.288505, 0.024386, 0.881448, 0.486645, 0.648929, 1.12128], [-0.021262, -0.858628, -0.129368, -0.043485, 0.048337, 0.052393, -0.008782, -0.048052, 0.525032, 0.002648, -0.469076, 0.067399, -2.10896, 0.003152, -0.657581, 0.134076, 0.497965, -0.001687, -1.3189, 0.13599, -0.582165, 0.045266, -0.337386, -0.196493, -0.210036, -0.33369, -0.306309, -0.0143, 0.001622, -3.05181, -0.127668, 0.021664, 0.012019, -0.465145, 0.039853, 0.020036, -0.038382, -0.050257, -0.539783, -0.411377, -0.022686, 1.61061, -1.00043, 1.52059, -0.459951, 0.018986, 0.906975, 0.586617, 0.449759, -1.47417], [-0.032799, 0.235387, -0.984695, 0.525023, 0.046215, -0.054014, 0.016132, -0.014709, 0.996726, 0.025606, 0.055052, 0.308374, -0.185342, 0.024243, 0.009288, 0.231116, 0.201573, -0.007027, -0.369461, -0.252416, -0.257542, 0.017289, -0.495775, -0.026537, 0.038782, 0.00762, 0.205567, -0.029359, 0.577413, -0.429487, 1.028, -0.023982, 0.052038, 0.315361, -0.037043, 0.040198, 0.014362, -0.022007, -0.368047, 0.035176, 0.035679, 0.141616, 0.036309, -0.311969, -0.889036, -0.039631, -0.431425, -0.207994, 0.018612, 0.619925], [0.035095, 0.71019, 0.681859, 0.55109, 0.029905, -0.021171, 0.025297, -0.016366, -0.054935, 0.016376, 0.420514, 0.230173, -5.11205, -0.02979, 0.505897, -0.456108, -0.498226, -0.001634, 0.055767, -1.45032, 0.36792, -0.023766, 0.071845, 0.038525, -0.842028, 0.023057, 0.21414, 0.041809, -0.167825, -1.67287, 0.609848, 0.006872, -0.038697, 0.620129, -0.003735, 0.019824, -0.0401, -0.01686, 0.424407, -3.05118, -0.788079, -0.991259, -0.158333, -0.617214, -0.236539, 0.002882, 0.118815, -0.297193, -0.208992, 0.945137], [-0.045522, -0.224285, -0.523019, -3.61377, 0.00374, -0.771372, -0.020093, -0.042953, -1.0071, 0.016842, 1.20056, -0.26358, -0.942732, 0.014055, 0.517607, 0.928374, 0.178798, -0.008981, -0.081277, 0.993269, 1.0891, -0.033443, -0.206409, 0.363835, 0.803811, -0.466795, 0.185957, 0.00425, -0.918801, -1.90586, 1.56465, 0.025485, -0.003411, -0.020249, -0.022429, -0.049443, -0.003569, 0.018307, -0.996495, -1.72164, 0.327473, -0.439783, -0.067061, 0.32725, -2.18492, -0.016042, -1.01702, 0.437793, -0.202972, -0.320217], [-0.046572, -0.059945, -1.80959, -2.40219, -0.035813, 0.199039, 0.029245, 0.011567, -1.80998, 0.002618, -0.952079, -0.745553, 2.03644, 0.005128, -0.994425, 0.336714, 1.10407, -0.016973, -0.516938, 0.467095, 0.690226, 0.003502, -0.306675, 0.112304, -1.43275, -0.771874, -0.497624, 0.014794, -2.03011, 1.11276, -0.727905, 0.029267, 0.016366, -0.415557, -0.007455, 0.01466, -0.04189, 0.036701, -1.36843, -0.155063, -1.40624, -0.230547, -1.45261, -1.19306, -0.351825, 0.034186, -1.46997, 0.826513, 0.850369, 3.02861], [0.002895, 0.487272, 0.494345, 0.157712, -0.039204, 0.103856, 0.032667, 0.005836, -1.67897, -0.001984, -3.26674, 0.462704, -0.386055, 0.049034, -1.01192, 0.089272, -0.473168, 0.024244, 0.247591, 0.264846, 0.507056, 0.037487, 0.03027, -0.484093, -0.44226, -0.255667, -0.314138, 0.003577, 0.05191, 2.17635, 0.205953, 0.031681, -0.038777, 0.396603, 0.016995, 0.03289, -0.018939, -0.018922, 0.686452, 0.879072, -0.451077, 0.372065, -0.151748, 0.753793, 0.253536, -0.009657, -0.427334, -0.054542, -0.095393, 0.603148], [-0.047524, -0.875224, 0.378673, -0.419931, -0.005777, 0.112511, 0.039056, -0.043434, -0.231101, 0.020282, 0.497509, -0.003949, 0.251755, -0.017214, 0.679658, -0.301013, 0.496414, 0.026062, 0.536689, 0.214238, -0.153689, 0.006505, -0.095178, -0.327155, 0.45205, 0.596844, -0.649436, 0.028994, 1.50527, -3.12058, -0.325173, 0.0511, -0.015634, -0.20365, -0.008415, 0.006094, 0.011475, 0.00235, -2.11124, 1.24128, -0.133712, -0.742383, 0.596839, -0.499353, 0.55425, -0.01383, 0.105126, -0.050265, 0.43633, -0.279897], [-0.023028, 0.300842, 1.52153, 2.42545, -0.030914, 0.334028, 0.003653, 0.017429, 1.20912, -0.048181, 0.332641, 0.648097, 0.012368, 0.028691, 1.39054, -0.120377, -1.42374, -0.039502, 0.529902, 0.463328, -0.008524, 0.034578, 0.198561, -0.259539, 0.433772, -0.363003, -0.198176, -0.043012, -0.190572, 1.46489, 2.78335, 0.010549, 0.006959, -0.460321, 0.016825, -0.047298, 0.026766, 0.044507, -0.466979, 1.73898, -0.380156, -0.057258, -1.16942, -2.78708, -0.563468, -0.043034, -0.472181, 0.304307, 0.812168, 1.47676], [0.020144, 0.044836, 0.061256, 0.229805, -0.01032, 0.556728, -0.030336, -0.042461, -0.324561, -0.039484, -0.586734, -0.598185, 0.593006, -0.023182, 0.145975, 0.036727, 0.06997, 0.009552, 0.08085, 0.146974, -0.215602, -0.039842, -0.072846, 0.000371, -0.364179, 0.351275, -0.119808, 0.03732, 0.251226, -0.39204, 0.497607, -0.020415, -0.034082, -0.053902, 0.00745, 0.008541, 0.006206, -0.032145, 0.150413, 0.492777, -0.228879, -0.243829, 0.895617, 0.162861, 0.150444, -0.032583, -0.507291, -0.074258, -0.193203, 0.420525], [-0.03993, -0.160791, -1.64534, -0.072892, -0.024192, -0.183461, 0.051754, 0.028149, 0.255716, -0.000299, 0.483936, -0.670528, 0.396284, -0.017028, 0.729914, -0.143572, 0.246801, -0.02586, -0.053764, -0.32532, -0.20947, -0.01252, -0.505278, -0.242933, 0.391098, -0.600526, 0.085273, 0.021592, 0.673447, -2.55758, 1.53233, 0.030849, -0.027981, -0.32816, 0.038576, -0.039686, 0.019613, 0.003993, -0.254687, -1.93827, 0.888582, -0.370178, 0.66459, -0.650194, 0.64748, 0.046219, 1.6003, -0.34246, 0.247622, 0.76179], [-0.026834, 0.736618, -1.39178, -1.67731, 0.019202, 0.250213, -0.0061, -0.038378, -1.1057, 0.027935, 0.398493, 0.111965, 0.931143, -0.04509, 0.500499, 0.128659, 0.118096, 0.03056, 0.126204, 0.019903, 0.112481, 0.029677, -0.53645, 0.77387, 0.89126, -1.17602, 0.628185, -0.039495, 0.579338, -0.908915, -1.5871, -0.007396, 0.023229, -0.259017, 0.044797, 0.013815, -0.002077, -0.038143, -1.32542, -0.696877, -1.46039, -0.574376, 0.201254, -1.97957, -1.81632, 0.001628, -1.14182, 0.274444, 0.249355, 0.114392], [0.013723, -0.298759, 0.145307, -0.669253, -0.018202, 1.29391, -0.016251, -0.032653, -1.46647, 0.034946, 0.160369, 0.084163, -0.141604, 0.0355, 0.56521, 1.35785, -0.142198, -0.041647, 0.889626, 0.668989, -0.106094, -0.020214, 0.451685, 0.845492, -0.349641, -0.421348, -0.662, 0.016859, 0.87112, -0.909013, 0.538334, -0.013116, 0.013584, -0.879968, 0.005976, 0.034462, 0.009659, -0.013296, -1.16982, 0.974506, -0.557184, -0.72776, 0.768749, 0.125121, 0.897144, 0.00908, -0.138386, 0.16488, 0.15288, 1.08081], [-0.014143, -2.47554, 1.91489, -2.78759, 0.027488, -0.892649, 0.043094, 0.038821, -0.782266, -0.017199, 0.727373, -0.370487, -2.43241, 0.008082, 0.80766, 0.0047, 0.469044, -0.010135, 0.081775, 0.623081, 1.02074, -0.016587, -0.515687, -1.02383, 0.574041, 0.329522, -0.396235, 0.022727, 0.782273, -0.10203, -0.804627, -0.012947, 0.015564, 0.418618, 0.035129, -0.03812, -0.000873, -0.031227, -1.5785, -1.51751, -0.108943, -0.331377, 0.43054, 0.676162, -0.615932, -0.017628, 0.059351, 0.355619, -0.069316, 1.57961], [0.022275, -0.176603, -0.75262, 1.0094, 0.013833, 0.287991, -0.005317, 0.010906, -0.206835, 0.025762, -0.027398, 0.355128, -1.7324, -0.01656, -0.198373, 0.120975, -0.517838, -0.027429, -0.123095, -0.680727, 0.025863, 0.028692, 0.323742, -0.05569, -0.685104, -0.10295, 0.241375, 0.026141, -0.100173, 0.050253, 0.593374, -0.032919, 0.03599, 0.170106, -0.02396, 0.032582, -0.008035, -0.035837, -0.130706, -0.261515, -1.05537, -0.2976, 0.47897, 0.068613, 0.15226, -0.016353, 0.519579, -0.017333, -1.07297, 0.103981]], [[-1.2647, -0.453085, 0.24176, -0.265307, 0.9846, 1.50366, 1.78124, -1.33614, 1.56163, 1.69551, -1.32606, 0.33218, 1.35932, 1.31704, 1.79604, 0.589258, -0.913848, -0.683592, -1.58579, -0.763534, -0.166433, -0.770358, 0.007394, 1.57991, 1.17569, -1.86191, 0.649294, -2.733, -1.77395, 0.218153, 0.43927, 1.02583, 0.41414, 0.787488, 0.416091, 1.88268, 1.05691, 2.72597, 2.69565, 0.933568, 0.087283, 1.82305, -1.76948, 1.58115, 2.97471, -2.02654, 0.099515, -0.801785, -0.410881, -0.261832], [-0.108303, 0.126108, -0.262487, 0.314924, 0.236337, -1.40802, 1.27538, 0.128733, -0.069016, 0.240777, -0.822226, -0.003133, -0.719135, 0.04555, -0.294961, 0.494784, 0.472424, 1.70865, 1.27077, 0.397645, 0.037633, 0.015473, 0.353776, 0.103787, -0.584824, 0.770842, 0.067181, 1.52846, -1.60902, 0.472374, -0.600797, 0.37627, 0.012563, -0.409807, -0.152408, 0.463247, 1.16591, 1.16448, 0.995985, 0.963937, -0.094768, -2.07867, 1.90047, 0.445363, 0.896384, 0.266949, -0.472137, -0.159993, -1.68101, 0.376701], [0.307948, -0.489621, -0.216738, -0.366308, -2.48286, -0.201006, -0.396585, -2.34202, -0.403241, -1.93165, -0.960323, -0.475862, -1.45106, 0.151751, 0.623088, 2.27449, -0.253139, -1.06151, -1.41703, 1.08431, 0.144169, 0.369571, 0.700155, -1.38633, 0.537934, -0.619359, 1.17736, -0.191322, -1.73292, 0.354702, 0.475196, 0.185317, 0.693159, -0.696103, 0.938289, -0.554724, 1.58946, -1.73084, 1.78404, 0.914707, -0.070565, -2.47765, -0.281021, -0.139616, -0.631397, 0.338533, 1.30225, -0.440672, 0.005932, -1.04713], [0.022977, 0.340115, -0.276744, -0.019839, 2.82846, 0.770556, -0.288609, -0.779862, -0.423494, -0.695192, 0.426273, -0.067267, -0.77963, 0.15763, 0.397323, -0.464779, 0.048347, -0.455559, 0.177539, 1.19012, -0.05586, -0.351346, -0.157824, 0.114189, 0.228949, 0.437619, -0.559364, -1.51652, 1.64025, -0.30934, -0.836647, 0.785183, 0.491925, 1.05452, 0.095544, -0.841894, -0.289777, 2.51104, 0.362439, 0.034212, -0.117083, 0.395488, -0.506726, 0.87987, 1.4301, 0.092042, 0.305499, 1.4605, 0.011054, -0.112875], [-0.38682, -0.080532, 0.078521, -0.294157, -0.031496, -0.131408, -0.170556, -1.88865, 0.072104, -0.084322, -1.21218, 0.137613, -1.96252, 2.47083, -3.18573, 1.57659, 0.759615, -0.788463, 1.77724, -2.23671, 0.478132, 0.005059, 0.157469, -0.071968, 0.860318, -0.012739, 0.646652, -1.74371, -2.66395, 0.276986, -0.379298, 0.248904, -0.314642, 2.23232, 0.033184, 2.37991, -0.637543, 0.598927, 1.58754, -0.552575, 0.110404, 3.27476, -0.700693, -1.59188, 0.638938, -0.904787, 0.805044, -1.71234, 0.865867, 0.422862], [-0.015297, -0.044232, -0.045396, 0.003029, 0.021404, -0.000838, 0.042378, -0.041444, 0.023397, -0.022809, -0.039837, 0.018812, -0.007625, 0.014049, -0.027125, -0.003393, 0.034755, 0.022583, 0.047895, 0.056244, -0.052413, -0.055376, -0.02098, -0.05117, 0.042869, -0.056316, 0.00382, 0.005075, -0.014093, 0.031627, -0.016013, 0.019509, -0.014914, -0.040485, 0.011195, -0.025906, -0.031867, -0.019179, 0.04119, -0.020868, -0.047668, 0.046566, -0.00448, 0.031491, 0.008397, -0.077342, -0.007155, 0.000773, 0.041045, 0.007143], [0.046857, -2.4918, -0.959729, 0.477978, -1.6512, -6.62816, -1.04993, -7.44019, 0.399905, 2.03371, -0.781361, -0.26981, -3.99029, -1.00843, -1.39846, 0.125377, -0.322044, -1.90274, -1.38928, -7.26991, -0.337807, -0.375745, 0.321957, 0.264014, 0.134115, -1.08773, -0.013109, -1.37047, 1.83689, 0.057708, -0.368559, 0.893505, 0.712175, 0.554545, 0.42333, -0.351323, -0.088192, 1.78401, -1.7983, 0.539783, 0.617986, 1.59276, 1.29633, -1.82223, -1.95586, -2.1065, -0.515295, 1.13111, 0.950424, 1.05465], [0.667037, 0.116936, -0.575276, 0.478261, 1.43616, -1.21307, 0.204769, -0.420237, -0.077946, -0.689875, -0.190762, 1.34834, 0.242048, 0.627338, -0.801487, -1.63132, 0.123668, -0.866229, -2.67659, 0.826, -0.787799, -0.601896, -0.240576, 1.99658, 0.824134, -0.038565, 0.307445, 1.60582, 2.72021, -0.459507, 0.401681, -0.075693, 0.210466, 1.92209, 0.164827, -2.27359, 0.664013, 0.947106, 0.513765, -0.560539, -0.152059, -1.17778, -0.159143, -0.357727, 0.642361, 0.109992, 0.832229, 0.193288, 0.051068, -0.088561], [1.28689, 0.604425, 0.572856, -1.53396, -2.12831, 0.087769, 3.47119, 2.38107, 0.172117, 3.09176, 1.20842, -0.752469, 1.22045, 1.16052, 1.11622, 4.12136, 1.25735, 2.3767, 3.83642, 0.738327, 1.31094, 2.08813, 2.40699, 0.489868, -0.00965, 0.051128, 2.60006, 0.262957, 0.420942, 1.67929, 1.35587, 1.32336, 0.073131, 0.455102, 1.23679, 3.36241, 6.52822, -0.750962, 2.53544, 2.33325, 3.55964, 0.053778, 3.2061, 2.95888, 0.608105, 3.52931, 2.74345, -0.292625, 2.75628, 1.30923], [0.502753, -0.757931, 0.578459, 0.951184, 3.20234, 1.20306, -2.75918, 0.966453, -0.589012, 2.07292, 0.472948, 1.43957, 1.93471, -0.970424, 0.307678, 2.2908, 1.20546, 1.46551, 1.98091, 2.38104, -0.833552, -0.893357, -0.185032, 2.50237, 0.771429, 1.23746, 1.50297, 3.37765, 1.32081, -2.83065, -1.78599, 0.061364, -0.858704, 3.23024, -1.0176, -1.88259, -0.991462, 2.51661, 1.52109, 0.09988, -0.250988, -3.53828, 1.51444, 3.09413, 1.33451, 0.175061, -1.06633, 1.04163, -3.69444, 0.155792], [-0.00841, -0.010933, -0.052855, 0.006156, -0.015329, 0.000738, 0.003504, -0.032107, -0.010883, 0.034421, -0.025116, -0.045802, 0.045338, -0.02242, 0.028464, 0.019782, 0.014806, 0.001197, -0.053231, 0.02505, -0.020602, -0.001176, -0.050966, -0.051327, -0.045237, 0.000296, 0.018235, 0.002209, 0.009741, -0.001438, 0.014285, -0.02335, -0.042529, 0.016736, -0.040547, 0.007365, -0.04006, -0.035245, -0.00879, -0.050137, -0.019662, -0.036128, -0.037402, -0.001355, 0.01738, -0.013831, -0.044109, -0.01126, 0.005029, 0.019507], [-0.14645, 1.08099, -0.417214, 0.112038, -3.79349, 0.32929, -2.9605, 0.818351, -0.039572, 1.01506, 0.498568, -1.39927, -0.055485, 0.962273, -0.910544, 2.82789, 1.5985, -0.599015, 0.165687, -0.246441, 0.60803, 0.306528, -0.492273, -3.01481, -0.392808, 0.664714, 1.4585, -3.77735, -3.96741, -0.120128, 0.500997, -4.52929, 0.040098, 0.664253, 0.33668, -1.36871, -2.60619, 3.61806, 0.990546, -2.94201, 0.397734, 1.38395, -2.4706, 1.63352, 0.856415, -0.298779, -0.972104, 0.025758, 0.470903, -0.364819], [-0.221957, 0.078522, 0.299774, 1.05003, -2.69365, 1.18668, 0.815547, 0.056051, 0.284755, 1.02911, 0.265792, 0.454543, -2.07404, 0.157744, 0.228334, 0.301504, 0.194212, -0.122912, 1.43752, 1.15193, -0.181768, -0.160149, 0.338693, 1.20433, 0.157491, 0.092539, -0.293794, -0.586494, 2.21124, 0.3838, 0.059605, 1.3505, -0.118138, -0.001257, -0.685316, -0.471164, -1.23127, 1.83439, -0.689598, -0.352297, 0.088857, -0.907229, 0.788867, 0.125586, 1.50502, 0.221632, 0.033957, 0.526697, -0.834049, -0.146616], [0.704185, -0.142743, 0.531161, -1.28181, -3.09412, 0.533445, 1.11217, 0.269018, 0.268255, -0.045873, 1.42375, -0.531919, 1.87022, 1.01251, 0.247881, -1.18683, -0.252075, -0.040454, 2.65314, 0.567135, -0.139979, -0.110814, -0.865804, 0.156874, -0.963038, 0.207987, 0.646355, 1.09906, 1.33436, -1.35408, -0.385691, 2.3802, -0.018378, -0.102562, -0.386641, -0.89779, 0.974779, -0.012133, -0.97717, 0.240309, 0.251062, -0.735783, 0.513343, 1.6197, 2.63989, 0.640382, -0.278628, 0.036077, -1.13417, -0.197838], [-0.070125, 0.268119, 0.309471, -0.48041, -2.14457, -1.18731, 3.36533, -0.038989, 0.11721, 0.52629, 0.638701, -0.493287, 2.22236, 1.53858, 0.268944, 1.1576, -0.614877, 1.30932, 2.20482, -3.19354, 0.005116, -0.460806, 0.412427, 0.36485, 1.00176, -0.589264, 0.122454, 2.31763, -0.131361, -0.073813, -0.430456, 2.08952, 0.200565, -1.72957, -0.770165, 0.422898, 0.028286, -1.83081, 1.44029, -0.683092, 0.253624, 2.31168, 1.18971, 0.952035, 0.80952, 0.205331, 0.620129, 0.916455, -0.198682, 0.669895], [-0.052541, -0.065369, -0.464271, -0.159086, 0.071477, -0.350206, -0.196796, 0.892477, -0.639081, -0.289501, 0.448642, -0.093736, 0.109834, -0.914279, 1.36714, -0.547057, 0.51737, 0.436682, -0.135447, -1.01615, 0.093316, -0.059127, 0.39898, -0.072556, 0.044097, -0.44303, -0.218324, 0.640506, -1.48659, -0.218963, -0.09367, 1.08605, -0.343978, 0.917697, 0.069165, 0.930825, -1.43427, -0.867658, 0.351339, 0.446007, 0.35788, -0.757728, -0.442181, 0.111668, 0.008078, 0.193203, -0.158126, -0.395297, 0.232775, 0.019726], [0.482529, 0.922148, 0.884277, 1.56102, 1.13988, 2.52868, 1.50829, 0.134169, -0.54607, 0.118727, 0.878303, 0.366854, -0.022664, -0.232991, 0.051521, -0.79074, -0.444096, 1.56729, 1.6845, 2.2812, -0.24886, -0.502113, 0.135135, 2.90773, 0.517868, 0.584033, -0.066472, 0.479935, 1.65746, -0.006817, -0.55136, 0.931851, -0.6224, 0.595307, -0.990714, -0.361713, -1.56137, 2.14915, 0.106263, -1.27753, -0.275888, 0.367749, 1.11699, 0.795426, 1.3465, 0.015388, 0.060247, 1.22324, -1.55868, 0.366429], [-0.535199, 0.699309, -0.465574, -0.391348, -0.312829, -2.885, -0.773876, 0.041219, -0.868625, -0.240269, 0.175429, 0.001078, 0.368506, -0.783299, -0.03127, -1.78723, -0.405412, -0.007474, 0.75633, 0.075265, -0.047734, 0.166992, 0.053143, -1.82801, -1.63694, 0.197055, 0.34729, -0.417363, -0.526181, 0.270354, 0.549197, 0.386895, -0.189541, -1.16126, 0.454952, -0.056646, -3.2143, -1.81985, -1.62143, -1.21867, 0.109774, -0.120288, 0.368558, 0.349038, -1.63114, -1.30861, 1.35528, -0.018329, -0.085466, -0.674146], [0.44732, 0.533088, 0.334376, -0.455744, 0.380852, 0.51707, 1.69959, 1.29903, -0.039504, 0.577251, -0.432013, 0.047505, 1.62699, 0.002537, -0.040367, 0.764707, 0.168759, -1.30684, 1.01793, -1.06097, -0.312672, 0.21146, 0.326935, 0.607936, 0.26886, -0.329906, -0.607469, 0.704745, -0.294732, 0.553729, -0.007628, -0.615641, 0.136407, 0.976736, -0.186833, -1.05325, 0.29474, -3.3995, -0.051416, 0.552917, 0.279485, 0.955977, 1.60912, -0.487405, 0.128437, -1.57618, -0.053032, -0.479691, -0.396994, -1.36465], [0.205429, 0.477133, 0.610363, 1.04379, -0.004493, 1.36614, 0.098891, 0.986087, 0.173705, -0.251808, 0.333454, 0.480595, -1.95716, 0.570144, -1.17081, 0.060483, -0.198478, -0.279545, -1.56218, 0.054619, -0.207724, -0.489354, 0.377109, 0.729384, -0.689526, 0.386775, 0.56569, -0.993282, -1.53859, -0.387793, -0.055847, 1.32643, -0.496891, 0.890644, -0.204367, -0.306184, -1.22418, -0.326252, 0.532181, 0.004295, -0.045014, 1.56706, 1.46608, 0.751449, 1.36942, 0.053938, -0.171915, -0.059535, -0.750679, -0.075666], [-0.000426, -0.034945, -0.039153, 0.023026, -0.0485, -0.028867, -0.052886, -0.031399, 0.002957, -0.039085, 0.031433, -0.010242, -0.042025, -0.056267, -0.033015, -0.020242, 0.021465, -0.041508, -0.003243, -0.050957, -0.037036, -0.058913, -0.004066, -0.014412, -0.032622, 0.031015, -0.01185, -0.000923, 0.025482, 0.001134, -0.05694, 0.002031, -0.047323, -0.01114, 0.008198, 0.044048, 0.020913, 0.015834, 0.023603, -0.015092, 0.000911, 0.011437, 0.025999, -0.008654, 0.03008, -0.052212, 0.019777, -0.065035, -0.050857, 0.016316], [0.339339, -0.589204, 0.704246, 0.819885, 0.715346, -0.580189, 1.34942, -0.283448, -0.161235, 0.245779, 0.406238, 0.177867, -0.69603, 0.739934, -2.00265, -0.297316, 0.628663, 1.34752, 0.655178, 0.803843, -0.077445, -0.218716, -0.402393, 0.586351, -1.36219, 0.104112, 0.339417, 0.120064, -0.185052, -1.56877, 0.457521, 0.268531, -0.286865, -1.45119, 0.182436, 0.013287, 0.374177, -0.153759, 1.68189, 0.195384, -0.344328, 1.5329, -0.174694, 0.945768, -0.568341, 0.19683, 0.809628, 0.606571, -0.64244, -0.167191], [0.19217, -0.414289, -0.262388, -0.229188, 0.029733, -3.60669, 1.15745, -0.578703, -0.150064, -0.045672, 0.479745, -0.535335, -0.461686, 1.55248, 0.631447, 0.06635, -0.352968, -0.126658, 1.06651, -0.657428, -0.236234, -0.3342, 0.166687, -0.521275, 0.597325, -0.443828, 0.014829, 1.33383, -0.14088, -0.479834, -0.340167, -0.413719, -0.112976, 0.617456, 0.05988, -1.68359, -0.739727, -0.052318, -0.17983, -1.15066, 0.566854, 1.4416, 0.701746, -0.17997, -10.2331, 0.540212, 0.328851, -0.154906, 0.163055, 0.828839], [-0.537816, 0.304623, 0.980378, 0.823439, 0.241198, 0.067947, 0.749952, -0.319867, 0.259064, 0.137837, -0.053435, 0.66171, 1.09855, -0.846345, 0.070463, 1.04816, -1.2804, 0.358697, -2.43057, 0.106455, -0.315425, -0.032768, 0.298669, -1.01634, 0.248069, -0.448945, -0.034355, 0.820013, 0.536327, -0.159268, 0.386554, 0.451473, -0.166905, -0.799267, -0.706789, 0.822864, -0.148248, 1.11849, 1.85274, 0.051223, 0.810041, 0.455214, -0.587811, 0.323646, -0.781234, 0.469188, 0.164264, -0.371007, 0.31806, 0.817628], [-0.425989, -0.430753, 1.59827, -0.160187, 2.45972, 1.3993, 1.96559, 0.436301, -0.99187, 1.56438, 1.32361, -0.516806, 3.1722, 2.97141, 0.366083, 2.39836, 0.874711, 1.05402, 2.74687, 3.62745, -0.333164, -1.56625, -0.196593, -0.689048, -0.611381, 0.629051, 0.822166, -0.707589, -1.81231, 0.034686, -1.06217, 0.764075, 0.885309, 0.648032, -0.236053, -0.524914, 2.35573, 2.45315, 2.64576, 1.23039, -1.08377, 5.06293, 1.2356, 0.753139, 1.45068, 0.380924, -0.264198, 0.218742, -0.277505, 0.625475], [-0.528128, -0.599756, -0.459548, -0.670698, 2.58187, 0.25397, 2.74625, 0.976567, 0.317283, 0.074473, 0.160827, -0.540475, 1.02549, 0.240894, 0.604543, -0.908146, -7.41668, -0.30953, -4.58728, -0.16076, 0.137852, -0.064987, -0.540843, 1.42329, 0.103198, 0.075379, 0.383643, 1.12381, 0.418667, 0.657781, -0.344481, 2.40343, -0.63384, 0.206566, -1.7943, 0.128981, 1.32004, 0.399761, 0.213163, 0.349468, 0.473109, 1.14672, 0.317502, -0.040826, 1.39143, 0.068353, 0.304335, 0.549674, 0.384775, 0.784689], [0.208093, 0.249498, -0.68366, -0.509791, -0.827096, 0.148082, 0.577174, 0.096671, 0.337784, 0.593047, 0.677903, -0.178696, 0.336379, -1.09027, 0.211474, -4.30899, 0.222611, -0.184031, -0.661347, 0.338008, 0.050999, 0.093185, 0.215664, 0.665825, -0.234686, -0.103146, -1.37865, -0.066066, 0.113493, -0.116325, -0.324513, -0.654147, 0.028713, 1.5672, 0.138165, 0.382828, -0.45499, -0.326331, 0.447159, -0.312186, 0.166489, -0.956951, 0.207378, 0.632371, 0.138304, 0.092539, -0.444887, -0.016489, -0.045407, -0.182084], [-0.180778, 0.581542, -0.558945, -0.112934, -0.292707, 1.11469, -0.548959, -2.54411, 0.366245, 0.523347, 0.484236, 0.692677, 0.876871, 0.402134, -2.30299, 0.669038, 0.84151, 0.118346, 0.150855, 1.33127, -0.162439, -0.302053, -0.299011, 2.04396, -2.81671, -0.444007, -0.483011, 0.640389, 0.451582, 0.522132, 0.666353, -0.136639, 0.102316, 0.764568, 0.315592, -4.33054, -6.63547, -1.04276, -0.711332, -0.255034, -0.39754, 0.108956, -0.38799, 1.647, 0.181621, -2.16977, -0.510727, -0.875766, 0.184465, 1.19129], [-0.204, 0.765898, -0.831273, 0.608848, 1.2356, 0.516256, 0.355478, 1.19086, 0.354754, -0.636326, -1.36843, 0.408708, -0.121355, 0.760117, 0.200852, 0.220974, -0.473654, 0.125513, 0.112314, 1.7, -0.015593, -0.772712, 0.115642, -0.703515, -0.235998, -0.198081, 0.30539, 0.855134, 0.622871, -0.061453, 0.170801, 1.56353, 0.061613, 0.458275, 0.075343, -0.659129, 0.056518, 0.161465, 0.041961, -1.34649, -0.106284, 2.19066, -0.226957, 0.147616, -1.93223, 0.454184, 0.293168, 0.71728, 0.649828, 0.95536], [-0.112124, 0.249684, 0.325866, 0.360357, 0.793354, 0.148099, 0.323632, 0.737853, 0.264008, -0.437311, 0.060507, 0.204249, 1.22435, 1.60646, 0.353845, 0.969295, 0.209253, -0.475279, -1.23447, 1.67175, 0.06996, -0.666548, 0.204039, 0.729156, 1.31332, 0.67928, 0.413439, 0.695484, 0.646281, 0.054724, -0.799094, 0.260799, 0.297032, -0.783775, 0.154758, 1.01544, 0.822586, -0.849612, 0.306853, -0.183595, -0.502578, 1.22217, 1.32864, -1.27441, -2.00959, -0.856808, -0.457966, -0.372778, -0.119022, 0.690264], [-0.203774, 0.099058, 0.051901, 0.312928, 0.984423, 1.90762, 1.26097, -0.99224, 0.915333, -2.11046, -0.678869, 0.153862, 0.872015, 0.137584, 0.196969, 0.350566, 0.813813, 1.33457, -0.975348, 1.01131, -0.276986, -0.530891, 0.165069, 1.22107, -0.232208, 0.711806, 0.411354, 1.09037, 1.74844, 0.081285, -0.250431, 2.40708, 0.118313, 0.087193, -1.05752, -1.36746, -1.03134, 1.51542, 0.471541, -0.802777, -1.15172, 1.89811, -1.07584, -0.256966, 0.620107, -0.300921, -0.377552, 0.578242, -0.635135, 0.407009], [-0.365471, -0.274277, 0.263832, 0.594898, 1.59835, 1.22414, 0.672062, 1.18612, -0.811126, -0.845592, -0.342332, 0.410223, 3.72616, 1.71911, 2.22346, 1.62646, 1.14882, -0.411606, 1.68038, 0.875699, -0.154332, -1.05207, -1.16217, 1.91116, -3.9867, -2.26185, -0.230019, 0.552261, 3.07514, 0.548585, -0.067851, 1.47717, -0.538328, 0.386429, 0.013077, 1.13186, 0.260901, 0.857183, 0.932934, -0.675854, -0.072903, 1.87044, 1.73962, -3.89964, 3.14485, -2.54948, -0.924977, 0.235005, 1.01216, -0.074462], [0.459083, 1.57556, -0.277949, -0.505118, 0.486545, 2.36653, 0.881136, -1.55428, 2.14976, 0.04057, 1.29233, -1.09821, 0.515908, 1.6555, -0.602286, -2.34661, 0.824462, -2.56556, -0.322487, -1.24338, -0.51424, 0.535218, -1.41325, -1.69454, 0.276003, 1.23449, -1.66102, -1.22122, -1.17193, -1.77192, -1.46266, -2.37424, -1.30809, -1.17965, 0.033265, 0.444926, 1.12369, -1.29331, 1.91602, 1.94411, 0.827722, -5.02975, 1.77144, -1.75484, -0.942405, -0.812602, -0.041536, -0.08854, -0.069262, 0.314523], [-0.396893, 0.303752, 0.307544, -0.313884, 0.754998, -3.10822, 1.16513, -0.041631, -0.332326, 0.826219, 0.104401, -0.57925, -2.82297, -0.462011, 0.477891, 1.56293, -0.337446, 1.85091, 1.57818, 1.38724, 0.273452, -0.431397, 0.252264, 0.003537, -0.509451, -0.537279, 0.745224, -0.189887, 1.80895, -1.17482, 0.250447, 0.759178, -0.33216, 0.409328, -0.438925, -0.385748, -0.091306, 0.770831, -1.53883, 0.202534, -0.418091, 0.723003, 1.25715, -0.070483, 0.528718, 0.111045, -0.122836, -0.40433, 0.448716, -1.20809], [0.443215, -0.125134, 0.184308, -0.480487, 1.18064, 1.03786, 0.273733, 0.746832, 0.242298, -0.20464, -0.805734, 0.314248, 0.257439, -1.22188, 0.26888, 1.3715, -0.543482, 0.164475, 0.537165, -0.224154, 0.147487, -0.068971, 0.117424, 0.463786, 0.240089, 0.352112, 0.687823, 1.11462, 0.944903, 0.269583, -0.083572, 0.220458, -0.620572, 0.216637, -0.338396, 0.946845, -1.51439, 0.897079, 0.807378, 0.258166, -1.67537, -0.094874, 0.368187, -2.72878, 0.870687, -0.350954, 0.235059, -0.553151, 0.46257, 1.1989], [0.120096, -0.365437, -0.575497, -0.503573, -0.752883, -1.44635, -1.30235, -0.366615, 0.726094, 0.45797, -0.714418, 0.46195, -0.357254, 0.472564, -0.166111, 0.845762, -0.305983, -0.539785, -0.318495, -0.736924, 0.145585, 0.219732, -0.255293, -0.049009, 0.295364, -0.436236, -0.075293, 0.662187, -0.560391, -0.290256, 0.397927, -1.17332, -0.023364, -1.23555, 0.380556, -0.765674, 1.19795, 0.432324, -0.059428, -0.402444, 0.533054, 0.866707, 0.105387, 1.29261, 0.415939, 0.143773, 0.214478, 0.256415, 0.04525, 0.421411], [-0.086998, 0.631071, -0.161227, -0.232215, -2.87662, 0.237029, 0.647084, 0.510763, 0.48138, -2.02623, 0.451917, -0.124865, -0.829633, -0.013693, 0.987289, -2.34454, -0.11756, 0.128372, 1.43691, -1.24105, -0.112413, 0.641305, 0.972622, -1.32519, -0.740149, -0.382436, 0.05718, 1.03011, 1.99493, 0.441072, -0.366774, -0.608036, 0.688074, -0.047973, 0.0365, 0.661238, 0.539878, -3.9232, 0.400745, 0.192595, 0.320441, -0.876289, 0.428503, 0.545669, 1.22789, 0.393343, -0.466872, -1.07818, 0.990484, 0.318596], [-0.228758, -0.086893, -0.57178, 0.9626, 0.590907, -1.05695, -0.359937, 0.893358, 0.007427, 0.377919, 0.155408, -1.18242, -2.10028, 0.446625, -2.23872, 0.006872, -0.542687, -0.46598, -0.50349, -0.860741, -0.214748, -0.342851, 0.843711, -1.10551, -0.968141, -0.748995, 0.055206, -0.878037, -2.58234, 1.27602, -0.251047, -0.811923, -0.757481, 0.13258, -0.345689, -1.95616, 0.897429, 1.95885, -1.03128, 0.639621, 0.011121, -5.24699, 1.07512, 0.832787, -0.283557, -0.490558, -1.21508, -0.855663, -0.514525, -0.202133], [0.548817, 0.607049, 0.672004, -0.661994, -0.3442, 0.970294, 1.23358, -0.330606, 1.05567, 0.854148, 1.6889, -0.41673, -0.636968, -0.384219, 0.52669, 1.04419, 0.853632, 0.402915, 1.32051, -0.39416, -0.273259, -0.266487, -0.186135, 2.15894, 0.893532, -0.466214, 1.0599, -1.045, 1.83422, -1.31307, -0.365634, 0.643211, 0.689958, 1.5789, -0.160259, -0.816039, 2.6805, 0.548073, 1.13082, -0.804494, 0.046948, 1.55468, 1.25365, -3.00418, -0.265579, 0.718742, -2.09897, -1.05896, 0.039094, -0.54869], [-0.160742, -0.490138, 1.16542, 1.33769, 3.37929, -0.243147, -1.69582, 0.908578, -0.258229, 0.414646, 0.322629, 0.742852, 0.752786, 1.17636, 1.41039, -0.117794, 0.499893, 1.37471, -1.38411, 2.09033, -0.469682, -0.702104, -0.14934, 1.08612, 0.216612, 0.854033, -1.07824, -0.829045, 5.49299, 0.305955, -0.411454, -1.62854, 0.382268, 1.30418, -0.079157, 0.67608, -0.883081, 2.02868, -0.278317, -1.20426, 0.188271, -0.367454, -0.350322, -0.21055, 0.645667, 0.158456, -0.819087, 0.917416, -1.12607, -0.498303], [0.910533, -0.444163, 0.848638, 0.205655, -0.108881, 1.90569, 2.10234, 3.13703, 0.234105, 2.04099, 1.35298, -0.77965, 2.78603, 1.11111, -1.29713, 1.20766, 1.26982, 2.11527, -2.40233, 1.3419, -0.390891, -1.1029, -2.0857, 1.06195, -0.710624, 2.03453, 0.499698, 3.38077, -0.320942, 0.928177, 0.104654, 3.767, -0.158645, -1.88879, -0.634546, 0.052367, 2.04359, 1.2071, 2.86683, 0.489094, -0.471472, 0.899404, 4.00363, 0.741319, 1.01127, -0.143855, -0.091336, 0.193142, -0.908469, -0.942649], [-0.872091, 0.400272, -0.417216, 0.345583, 2.56935, 3.29104, 0.858658, 0.078804, -0.157676, -0.013997, -0.986203, -1.06327, 1.21771, -5.66596, 1.33957, 1.42625, 0.599599, 0.8756, 2.62138, 1.28119, -0.36843, -0.459241, 0.049026, -0.709556, -1.21137, 0.022046, 0.363679, 2.05453, -0.27864, 0.167444, 0.91783, -2.3803, 0.019539, -1.58984, -0.071664, 0.710727, 0.066762, 1.21875, 0.612306, -0.012082, -0.488283, 1.05547, -1.32382, 0.555072, 4.34135, 0.189695, 1.12699, 0.595271, 1.02515, -0.16685], [0.615985, 0.935347, 0.249999, -0.179526, -4.64714, 0.337652, -2.93056, -0.238119, -0.395288, -0.935039, 0.228925, -0.776929, 0.931793, -0.344176, -1.12897, 1.34237, 0.387263, 2.58947, -9.25667, -0.030581, -0.19748, 0.259708, -0.381972, -0.992666, 0.122162, 0.926638, 0.197196, -0.757174, -1.52279, -0.751695, 0.246637, -2.38735, -0.383573, 1.62257, -0.456769, -0.510827, 0.941516, -0.204821, -0.082067, -0.422189, 0.306361, 0.671993, -2.47615, -1.3166, 0.091261, 0.619642, 0.693647, -1.18926, -0.795986, 0.104073], [-0.408005, -0.214058, -0.593842, -1.1114, -0.132568, 1.34712, 0.613734, -1.0601, 0.616757, -0.457115, 0.405062, -0.239399, 1.55361, 0.132273, -0.317508, 1.4592, 0.282493, -0.118447, 0.190008, 0.049431, -0.243068, -0.121074, -0.000285, -0.528947, 0.665388, -0.559155, -0.407682, -1.00405, 0.373963, -0.176195, 0.261438, 0.147743, 0.06771, -0.207176, 0.393048, 0.829226, 1.09159, 0.181486, -0.905613, -0.240901, 0.09338, 0.216288, 0.765836, -0.622347, 0.5881, 1.00174, 0.017333, 0.704547, -0.007396, 0.743701], [0.006336, 0.311352, 0.902195, 1.01406, 0.860905, 2.10379, -1.45726, 1.84637, 1.55627, -0.744258, -0.05433, 0.351163, 2.27366, 0.323043, 0.835041, 1.65427, 1.09705, 0.558704, 4.09999, 1.17475, -0.124282, -0.726771, -1.57936, 2.03387, 1.51233, -1.26064, 1.24238, 1.12602, 2.64112, -0.661756, 0.833656, 3.10191, -0.605398, 0.178415, -0.595322, -0.850676, -1.69205, -0.81865, 1.85227, -0.350939, -0.555682, -0.421065, 0.163697, 2.24115, 2.3715, -3.91, 0.175549, -0.031346, 0.77177, 1.19087], [1.2103, 1.8184, -0.770108, -1.84381, -0.848151, -2.97966, -2.09212, 1.22865, -0.050915, 0.304083, 0.656632, -1.21396, 0.116687, -1.51661, -2.7461, -3.452, -1.66547, -4.06665, 0.871422, 0.236022, 0.172594, 0.601558, 0.548444, 1.72074, 0.276249, -0.182377, -3.73207, -1.6735, -0.260849, 0.480483, -1.24051, -1.81962, -0.300131, -3.33395, -0.560419, -2.33702, -1.78997, -0.753371, -3.06657, 0.607315, 0.572003, 0.071045, -0.009133, -1.12927, -1.20721, 0.694977, -1.62439, 0.459628, 0.184461, -0.719037], [-0.050956, 0.027481, -0.029538, 0.004397, 0.030993, -0.051675, -0.034015, -0.016513, -0.041353, 0.027732, 0.002593, 0.018357, -0.029465, -0.039912, 0.004714, 0.021676, -0.044534, -0.032162, -0.02682, -0.050116, -0.018372, -0.043218, -0.038997, -0.020115, 0.042378, -0.017925, 0.028094, -0.002745, 0.001311, -0.032474, -0.04431, -0.027423, -0.016911, -0.022072, -0.041482, -0.005585, -0.016121, 0.038719, 0.01409, -0.028881, -0.046237, -0.029763, -0.02279, -0.041329, 0.018145, -0.04222, 0.038086, -0.021615, 0.046098, 0.035337], [0.48867, 0.397754, 0.409398, -0.098865, 0.384527, 0.498958, 1.20701, 0.305174, -0.22194, 0.654353, 0.479572, -0.451414, 0.672763, -0.142988, -0.400984, -1.59142, 0.586819, 0.09125, 2.28525, -0.83282, 0.102236, 0.243839, -0.34995, -1.61426, -0.475315, -0.313071, -2.1665, 0.673377, 1.80819, 0.963865, -0.4599, 0.129701, -0.314734, -0.08583, -0.358234, 0.133353, 0.115776, -1.78872, -1.02948, 0.118693, -0.304883, -1.11803, 0.569161, -0.031781, -1.96843, 0.226338, -0.246102, 0.164127, 0.318216, -0.315147], [-0.78573, -3.22682, 1.36701, 0.170948, -0.297211, -1.21607, 0.30978, -1.35376, -1.15532, -1.89966, -1.97167, -0.474926, 0.811316, -0.897262, -0.457236, -0.145501, 0.273022, -0.528461, -2.49869, -2.03484, 0.110516, 0.796637, 0.865473, -3.41676, -1.14352, -0.908243, -1.33153, 1.18407, -0.735595, 0.192962, 0.462106, -0.856554, 0.575159, -2.67622, 0.373793, 1.58238, -5.18498, -3.06625, 0.672927, -2.05365, -0.900157, -1.04433, 0.956673, 0.523924, -3.60364, -1.90262, 1.529, -0.612652, 0.327077, -1.24835], [0.644534, 0.185755, 0.717957, -3.84959, -0.855529, -0.360061, -4.54456, 0.767192, -0.706356, 0.365109, 0.030412, -0.316075, 3.58531, -0.552948, -0.737778, 0.673664, -0.213084, 2.43293, -1.53889, -3.74901, 0.697627, 1.21923, 0.005007, -0.727706, 0.09162, -0.361667, 0.17982, -2.6972, -0.69651, 0.110908, -0.431562, 0.816796, -1.24773, -5.15748, 0.221692, 1.25082, 0.614879, -2.64769, -1.66838, 0.672916, 1.28787, -1.08774, -0.580349, -1.4884, -3.63109, 1.32671, 0.006503, -0.060189, 1.43726, 0.185955]], [[1.43112, 4.31301, -0.301041, -0.605254, 0.320094, -0.031721, 1.37374, -4.86013, -0.920163, -1.64619, 0.037077, 1.31094, 2.25752, 0.304059, 0.880832, 2.40299, 0.019692, -0.679549, -1.17627, -1.54233, 0.007456, 2.35344, 1.95514, -0.256025, 1.62532, -0.59479, 3.0106, 1.65058, 2.18032, -1.14437, -0.542448, -0.056769, -0.245443, 3.69616, -0.691522, 1.35579, 1.02104, 1.74792, 2.50789, -0.574834, -3.04771, 0.067748, -0.450876, 5.05651, 1.18493, 2.5475, 0.037259, 0.025188, 2.45308, 0.390095], [0.375541, -1.00134, -0.493168, -0.535149, -0.081944, -0.024243, -0.172832, -2.01816, 0.523452, -2.45396, 0.015793, 0.463404, -1.42426, -6.13992, -4.28411, 1.5685, -1.13004, -3.87854, -1.73203, -1.58984, -0.019469, -0.835688, 0.937317, -1.14801, -2.8622, -2.59055, -1.32438, 1.889, -0.55322, 0.481685, 1.44046, -0.085869, -0.807697, -2.74562, 1.0133, -1.22921, -1.14319, -1.53232, 1.5713, -0.746488, -5.06944, 0.172506, -0.750965, -0.357661, -2.62213, 0.213876, 0.042677, -0.090362, 1.68298, -0.465945], [-1.05433, -1.45399, -0.248167, -0.276648, -0.146764, 0.033715, 1.18733, -0.406442, -0.272846, -0.402211, -0.043963, 0.399221, 1.3189, 0.213478, -0.892199, 0.159029, 0.048298, -0.82216, 1.18645, 0.111801, -0.020136, 1.91306, 2.07595, 0.533435, 0.135415, 1.25716, -0.553555, -0.393184, -1.53994, 0.972832, 0.283635, -0.172163, 0.188071, 2.9551, -0.532452, 0.090228, 0.453125, 0.258604, -0.363336, -0.455931, 0.071511, 0.261768, 0.551592, 1.78964, 0.161119, 1.21592, -0.04255, -0.193654, -0.357986, 0.194884], [0.03668, -0.028857, 0.006012, -0.027567, -0.023101, 0.028314, 0.015515, -0.006421, -0.006461, -0.036367, -0.015504, -0.032701, -0.058285, -0.043561, -0.030359, -0.023704, -0.009559, -0.027825, -0.03547, -0.012273, 0.010785, 0.005212, 0.041551, 0.02172, 0.018773, -0.012986, -0.046096, 0.02743, -0.041632, -0.050932, 0.026753, 0.020196, 0.014517, 0.040105, 0.028072, -0.029294, -0.04819, 0.026786, -0.008242, -0.00671, 0.023663, 0.021511, -0.035002, 0.008023, 0.011781, -0.045142, -0.05029, -0.00372, 0.033595, -0.039481], [0.91469, 4.69983, 0.029723, -5.1931, -1.65702, -0.051987, 2.98272, -2.21397, 1.27426, -3.75424, 0.008284, 2.3221, -6.85765, -4.75191, -1.83898, -0.762838, -3.54298, -0.040597, 1.11045, -1.7034, -0.068391, -1.69744, -5.11911, 3.34521, -0.762356, -6.68231, -3.24378, 0.996496, -3.42275, 1.38786, -1.64985, -5.31552, 1.56783, -0.126951, 0.300037, -2.66352, 0.577961, 1.82514, -1.55316, -3.75532, -0.218726, -1.02326, -2.55658, 1.09269, -2.62615, 2.4104, -0.037075, -1.2738, 2.53268, 0.655084], [0.496835, -3.20558, 0.209267, -0.121703, -0.08267, -0.0255, -0.046671, -0.410526, -0.087461, -6.23006, 0.005383, 0.503734, 0.801143, 0.830936, -3.55007, 1.09462, -0.017238, -3.47682, 1.68778, 0.065106, 0.010793, 0.005543, -2.40633, -0.696298, -2.56562, -1.26349, 0.447752, 0.039733, -1.53062, 0.044766, -0.989248, 0.074525, 0.627763, 0.689348, -0.224957, -1.1538, -0.03399, -0.371123, -0.712386, -0.924592, -1.21474, -0.715907, -0.32747, 1.32614, -0.907558, -0.210121, 0.047024, 0.433511, -0.534272, -0.16323], [-1.99274, 0.867363, -0.645997, -0.234737, 1.05508, -0.007128, -0.190058, -2.64529, -0.054897, -0.376856, -0.036082, 0.25914, 0.14621, 0.367758, 0.564164, 1.07701, 0.338142, -3.20702, -0.204685, 0.246962, -0.030189, -1.05481, 1.12267, -0.521493, 1.48399, -0.33883, -0.143307, -1.73456, 0.291422, 0.231959, -0.653756, -2.30267, 1.0349, -1.05985, -0.673254, 0.097195, 0.299942, 1.43188, -1.92529, -0.180769, -0.238849, -1.45497, -1.22677, 0.072962, -0.920065, -0.098403, -0.018443, -0.968966, 0.713281, 0.481144], [-0.011999, 0.357741, -0.316217, 0.069918, -0.251312, 0.049959, 0.36967, 0.437432, -0.011305, -0.081719, 0.031217, 0.150834, -0.230101, -0.190676, 0.28357, -0.033375, 0.045589, 0.221744, 0.044731, -0.396244, -0.021223, -0.197677, -0.301812, 0.280591, 0.222307, -0.06065, -0.14207, -0.359256, 0.438173, -0.163891, -0.493573, -0.242914, -0.352188, -0.17116, -0.066641, 0.000213, -0.07688, -0.218365, 0.162532, -0.118214, -0.110926, 0.421289, 0.027952, -0.661037, -0.043695, -0.53601, 0.02716, 0.19645, 0.040009, 0.141249], [-2.2054, -1.54507, 0.235671, -0.680451, -2.71754, -0.031216, -2.82901, -3.22473, 0.616441, -4.56153, 0.019746, 0.606904, -1.68921, -0.509465, 0.647287, -0.88157, 0.184298, -0.705644, -4.1386, -2.77259, 0.019595, -2.24734, 1.41616, -4.87388, -5.43835, -2.04042, -1.32197, -1.43969, -1.68228, -1.82792, -1.69099, -2.18002, -3.81864, -0.317402, -4.19236, 0.400587, -2.07979, -2.00599, 0.252308, -1.00333, -3.60217, -3.43485, -3.35879, 1.04273, -3.73505, -0.871636, -0.018554, 1.54545, -2.20623, -0.404052], [0.020886, -0.600033, 0.345976, -4.80122, 1.05722, -0.034428, -1.82906, -2.05727, 0.359214, -0.151824, -0.006459, -0.109503, -0.069131, -0.553343, 0.805543, -1.23336, -0.859197, 0.49068, 5.06183, -0.306285, 0.025505, -3.18298, -1.95366, 1.37051, 1.83203, -2.43211, -0.204526, -2.03787, 0.76676, -4.1976, -2.5169, 2.44084, 1.00767, -1.93165, -0.090016, -1.21949, -2.63835, -1.23698, 1.0344, -4.52283, -3.50728, -0.51581, -0.862584, -4.37138, -1.29396, 5.19159, 0.002496, -2.93744, -2.80131, -2.25577], [-0.509354, -0.27801, 1.6245, 1.49401, -1.45314, -0.006588, -0.753158, -0.646832, 1.49991, 0.364423, 0.003727, -0.020489, 2.4237, 0.197235, -4.88253, 0.773379, -0.170332, -2.628, -1.58001, -0.108706, 0.031091, 1.9124, -1.39101, -1.46225, -0.03319, -1.56692, -2.15018, -1.94892, -1.68212, -4.73316, 0.119972, -0.111522, 2.00936, 0.111042, -0.295946, 0.544791, -0.886899, 1.695, -3.26724, -1.75305, -1.44173, -0.474752, -0.187233, -0.853621, -0.094489, -0.678468, 0.012367, -0.056098, -0.55762, -0.739582], [-1.86781, 0.13534, 0.779298, 0.224872, -1.92361, -0.03568, 0.007699, -0.469261, -0.012378, 0.383, -0.050812, 0.52391, -0.121289, -0.56397, -1.00933, -0.657566, -0.311325, -1.64069, 0.623071, 0.127885, -0.032591, -0.990264, 1.40543, -0.621603, -6.90653, -0.044358, 0.717566, 0.770388, -0.27456, -2.23467, -2.84339, 1.52093, 0.277373, -0.562102, 1.17453, 0.296879, 0.918718, 1.33353, 0.07912, 0.366334, -10.757, -0.331444, 0.591822, -1.04966, -1.58679, -0.134011, -0.033884, -0.347791, -0.478804, -0.43266], [-0.111525, -2.46561, -1.64105, 0.302366, 0.035429, -0.029379, -0.351741, -1.66172, 0.139154, -3.43191, 0.000101, 0.700908, 0.431611, -5.00096, -5.5301, 0.375882, -0.90331, -3.60795, 1.10617, 0.553811, -0.014668, -1.92348, -4.01237, -8.31866, 0.072528, 0.606872, 1.07916, 1.43057, -0.161595, -1.3827, -1.77613, 0.84892, -4.64397, -2.30278, 0.423634, -1.9074, -0.586249, -3.71082, -5.46289, -1.68402, -0.117939, -1.90641, 1.60193, -5.34698, -1.55097, -0.307607, 0.032182, -2.18755, -0.316223, -0.038366], [-2.5137, -1.17675, -0.381757, -1.35602, -1.00701, 0.022115, 1.73016, 1.41762, 0.494894, -4.80069, 0.041487, -0.591208, -1.7785, 1.56442, 1.72133, 0.157462, -0.671942, 0.03288, -3.27926, -2.34366, -0.004618, 0.981481, 0.07158, -1.57452, -0.676928, -0.344584, -3.32466, 0.100088, -2.48112, 0.349678, -3.14082, 0.724438, -0.090601, -2.34032, -0.861807, -0.321315, -0.15477, 0.188696, 0.519987, -0.667458, -1.28834, 0.643209, 0.061221, -6.90769, -0.571885, 1.52489, -0.039667, -0.346949, -0.297447, -0.482164], [0.311257, 2.0439, 0.418549, -0.743829, 0.967157, -0.046156, 1.27397, -0.422723, -0.543472, -5.98142, 0.045822, 0.375474, -0.835339, 3.50606, 1.77936, 2.41808, -0.280234, 2.52087, -1.88022, 0.717697, -0.035147, -0.494652, -0.772305, -0.758656, -1.36927, 0.228585, 2.25945, -0.395541, 1.51937, -0.304446, -1.83887, -0.528999, -1.8055, 1.12521, 1.08383, 0.672214, -0.365854, 0.724, -1.47263, 0.526248, 1.33087, 1.59201, 1.10528, 0.562669, -0.079632, 2.07856, 0.02598, 0.601389, 1.48614, 0.14984], [0.241857, -0.368705, 0.31783, -1.48734, -0.941279, 0.029265, -1.58597, -0.251915, 0.110581, -1.86319, 0.019136, 0.20854, 0.358101, -0.779052, 0.50238, 0.533218, -0.735461, -0.899276, -0.876377, -0.314234, -0.028491, 0.499276, -5.85579, -0.826683, 0.312557, -0.228629, -2.21045, 0.247666, -0.167481, 0.468473, -0.500113, -1.13703, -3.94077, -0.767887, 0.142579, -0.233999, -0.424875, -1.19145, -0.858372, 0.131259, -0.059456, -0.488332, -0.586845, -5.42373, -0.550549, 0.053754, -0.038766, 0.146759, -0.839508, -0.146071], [-0.289582, -0.441833, 0.819811, -0.059442, -0.196877, -0.032165, 1.4357, -3.91743, 0.00141, -2.57971, 0.005786, -0.520656, 0.399576, -3.87402, -0.150542, 0.920589, -0.461503, -0.87022, -0.003596, 0.92653, 0.009682, -0.517762, -0.497288, -0.759455, -3.28813, 0.110795, 0.077322, 0.844737, -1.43194, 0.315914, -1.53607, -0.788002, -2.67503, -0.335565, -1.04616, 0.097026, 0.850653, -1.24447, -0.413545, -0.564862, -2.19634, 0.920636, 1.57096, -4.68263, -2.69576, -0.045321, -0.033793, 0.422641, -1.77646, -0.434273], [-0.288582, -1.70637, -4.91283, -0.291567, 0.975205, 0.016342, -1.31695, -1.58584, 0.051416, 0.238976, 0.016386, 0.176043, 0.1948, 0.377485, -0.245538, -5.39158, 0.169415, -1.2812, 1.43397, -0.839717, -0.019395, 0.37907, -0.754603, 1.08283, -0.842979, -1.1097, 0.632814, 0.107481, -0.948851, 0.099471, -1.30893, -0.264583, 0.908482, -4.13254, 0.472389, -0.096055, -1.19641, -0.332077, 2.61681, -0.013264, -0.025801, -0.080551, -0.988439, 1.5611, 0.653161, 0.774514, -0.015879, -0.122988, -2.08016, -0.526384], [-0.098035, -1.75634, 0.14443, -0.096905, -0.440865, -0.009668, -0.505308, -2.9362, 0.117953, -0.045247, 0.041901, 0.176386, -1.31714, -0.967087, 0.374723, 0.122358, -0.28259, 0.16212, -1.00937, 1.19978, 0.008022, -0.256744, 0.252099, 0.428905, -0.005726, -1.0954, -0.746916, -0.32188, -0.39343, 0.368037, -0.913505, -1.41061, -0.242165, 1.13358, 0.476044, -0.140544, -0.21695, 0.202862, -0.909176, -0.341488, -0.594021, -0.343236, -0.625014, -2.25354, -2.02482, -2.81193, 0.02976, -0.107411, -0.406076, -0.140612], [-0.471918, -0.282686, 0.154126, 0.082138, 0.564859, 0.050328, 0.224378, -3.34949, -0.31244, -0.117383, 0.000244, 0.237988, 0.964643, -0.860771, -0.317415, -0.098974, -0.046714, -1.41376, -3.06392, 0.591001, -0.055274, 0.186906, 1.80116, -3.01537, 1.295, 0.42359, 1.00886, 1.13372, 0.64117, 0.156553, -1.60635, -0.86078, 0.418651, 0.937302, 0.365133, 0.757232, -0.181958, -0.12764, 0.437519, -0.020847, -5.05471, 0.681694, 0.859822, -0.027925, -0.682601, -0.105111, -0.018794, 0.195781, 1.53189, 0.371364], [-0.991781, -0.457647, 1.6394, 0.336669, 0.465985, -0.020286, 0.238029, -1.19825, -0.74852, 1.21319, -0.014875, -0.15861, 0.630539, 1.54846, 2.82474, 2.85669, 0.311156, 0.760463, 2.62052, 0.047324, 0.026487, -0.072732, 1.8481, 2.04618, -2.25055, 0.142394, 2.00826, 2.7258, 1.73273, 1.20424, -2.96728, 0.683651, -0.106726, 1.31859, 1.75366, 2.46377, -0.723982, 0.057385, 1.29433, 0.417847, -7.17973, -0.715836, 1.36855, 2.33064, -2.37541, -0.513541, 0.025037, 1.80241, 0.005415, -0.930477], [0.387966, -0.281104, 0.245981, 0.201726, 0.091727, 0.043169, -0.662501, -1.33598, 0.104944, -0.188135, -0.038759, -0.411499, 0.807489, 0.08549, -0.86545, -1.05945, -0.385646, -1.59343, -0.398654, 0.233586, -0.008401, -0.225171, 0.229102, 0.211104, 0.877832, 0.049611, 1.0725, 0.424841, 0.826414, -1.14322, -2.177, 0.870514, 0.352636, 0.104057, -0.023653, -0.032238, -0.861694, 0.13641, -0.362013, 0.283922, 0.41143, -0.359002, -0.472748, -0.801115, 0.403437, -0.13286, 0.01955, 0.533697, 0.055517, -0.259398], [-1.08514, -0.462614, -0.567422, 0.168026, 0.229873, 0.01943, -0.053827, -1.44258, 0.041194, -6.26473, -0.039795, -0.572542, 0.188556, -0.381468, -0.692982, -0.279404, -0.085796, -2.13461, 0.093543, -0.713225, 0.016661, -1.21168, 1.88831, -2.80169, -1.5196, -0.853496, -2.17878, 0.794401, 0.67344, -0.193734, -3.25177, -0.261388, -5.62649, -2.541, 0.874321, 0.19102, -0.043406, 0.80614, -2.09314, -0.960589, -0.814552, -0.974064, 1.27199, -0.814964, -0.109524, -0.258917, -0.020699, -0.940091, -0.800652, 0.014784], [-0.150613, 0.986506, 0.128723, 0.1914, 1.02888, 0.038496, -0.785765, 0.329386, -0.4703, -1.03911, 0.041588, -0.140014, 0.025206, -0.402885, 2.63845, 3.04045, -0.526336, 1.48525, -1.35061, 1.02327, 0.052567, 0.3906, 1.0958, 0.173554, 1.46919, -0.933242, -2.5517, -2.33646, -0.165218, 0.016608, 1.30709, 0.967421, 0.407981, 0.430145, 0.734062, -2.79583, 0.565144, -0.568374, 0.778053, -0.133412, -0.627275, 1.0424, 2.06266, 2.07539, 0.369135, 2.1261, -0.049308, 0.516049, -0.673539, -0.94562], [0.586439, -1.09283, 0.576615, 0.645338, 0.96239, -0.049576, 0.876156, 2.51002, -0.670464, -2.92322, 0.01213, -1.13825, 0.309576, 2.79152, 0.9916, 2.15539, -0.162515, 2.75468, -0.792875, 1.253, -0.008606, 0.324507, 4.28709, 2.05395, -0.467539, -2.13849, 0.505657, 3.05426, 0.060566, 0.896352, -2.09637, 0.219218, -0.84786, 2.59489, -0.939619, -0.389584, 0.451151, 2.22913, 0.471914, -0.069667, -1.28698, -0.83039, 2.70737, 0.532162, 1.1314, 0.550853, 0.026449, -0.00695, 2.24081, 0.89019], [2.0549, 2.32782, 0.604465, -2.67468, -0.767335, -0.032007, -0.635181, 1.7725, 0.327296, 1.79272, -0.049207, 0.375516, -1.94925, 0.232062, -0.680507, -1.28417, -0.621307, 0.693483, -0.624941, -0.777186, -0.015259, -0.592431, -0.442473, -0.228163, 0.086251, -1.413, -2.75048, -1.1264, -0.542547, 1.11348, -1.17435, -2.49688, 0.829492, 0.327511, -0.51079, -0.056668, -0.365982, -0.374821, -0.830787, -1.11595, -1.59813, -1.11242, -1.32983, -0.030251, -1.48969, 0.580072, -0.018891, -0.779931, 1.54431, 0.560578], [-1.48451, -0.477428, -0.888927, -1.48728, 0.96198, 0.028804, 0.720321, -0.621773, 0.307503, -0.503835, 0.007503, 0.088213, -1.61257, -1.38786, -1.29545, -4.25668, -1.12128, -6.18574, -1.53582, 0.759567, -0.051923, -2.59676, 1.92357, 0.760849, -1.43185, -3.14699, -0.464648, 0.139828, -0.022405, -0.904489, -1.43912, 1.31978, -4.1843, -2.19444, -0.153742, -0.648466, -1.57043, -0.260582, -0.220323, -0.341289, 0.565352, -2.48482, -1.50395, -3.9876, -2.41404, -2.46609, -0.037873, -0.955898, 1.53487, 0.383489], [-0.520468, 0.234806, 0.147558, 0.120681, 0.049661, -0.008835, -0.153151, 0.471061, -0.057492, -2.26166, -0.042009, -0.217367, 0.562356, 0.563483, -2.50687, 0.074738, -0.393326, 1.52955, 0.689348, -0.511825, 0.011749, 0.144963, 0.522016, -0.005315, -0.54038, -5.04562, 1.19449, 0.248414, -0.132234, 0.466302, -0.181416, -0.736998, -0.357624, -0.452912, 0.432917, -0.286499, -0.300879, 0.869166, -0.962946, -0.345132, -2.18421, 0.502206, 0.356678, 0.048495, -1.54209, 0.269099, -0.015358, -0.284468, -0.175259, 0.099062], [-0.026719, -0.026334, -0.019217, -0.029753, 0.034672, 0.025245, 0.033726, 0.006565, -0.012693, -0.047913, 0.010796, -0.016495, -0.035222, -0.048585, 0.040826, -0.037867, -0.004418, -0.043857, 0.022236, -0.018195, 0.037639, -0.034555, -0.023161, -0.026263, 0.030169, 0.028477, -0.021735, -0.006539, -0.012296, 0.033637, -0.03789, -0.013289, 0.020459, 0.023685, 0.003619, -0.026754, -0.035732, 0.035843, -0.020467, -0.052623, -0.038942, 0.017774, -0.044805, 4.2e-05, -0.046509, -0.032021, 0.009995, -0.011653, -0.018332, -0.034203], [0.391694, 4.79405, 0.69832, -2.12739, -2.96585, 0.015776, -0.328056, 3.6037, 1.00488, -0.386574, -0.011238, 1.62993, -2.65632, 1.35616, 1.46758, -2.4025, -2.26269, 3.15891, 0.765577, -3.29636, -0.006505, 0.980418, -4.15216, 1.60119, -2.1163, -3.28275, -2.38779, -3.5006, -1.47104, -2.06961, -6.0431, -2.17803, -0.337751, 0.795075, -0.856842, -2.23834, -1.47024, 0.507104, 0.273022, -3.62574, -2.21385, 0.729617, -1.4143, 1.23247, -1.20633, 1.29372, 0.031206, 0.027728, 4.5209, 0.526373], [0.572645, 3.1281, 1.69774, 1.2875, 0.03821, -0.003493, 1.96471, -3.97449, -1.14218, -0.001092, 0.000831, -0.723255, 1.08011, 0.309565, 2.19825, 3.26401, -0.084116, 2.18394, -0.225101, 1.82197, 0.014886, 1.99149, 1.65625, 2.79396, 2.4701, 3.65781, 1.53769, 3.79663, 0.081972, 1.78055, -5.82569, 0.130541, 2.29987, 2.98849, 0.316257, 1.12302, -0.606534, -0.138347, -0.636353, 0.363784, -2.06083, 2.199, 1.86673, 1.35671, -1.13684, 1.11838, -0.044599, 0.239409, 2.32394, 1.43417], [3.3418, 4.65085, 1.27637, 1.83449, 0.807559, 0.017108, 4.36738, 0.631077, -1.67907, -2.54441, -0.054105, 0.088753, 3.4827, 5.42433, 2.21402, 4.34419, -3.16859, 3.59069, 0.855663, -0.972842, 0.043365, 0.545713, 1.759, 4.78238, -2.58309, 4.9907, 3.64305, 2.07498, 2.98455, 0.731126, 0.991586, -1.11546, 0.936212, 2.60453, 1.7625, 1.6421, -1.52665, 4.18547, 5.0702, -0.45894, 0.802871, 3.65511, 0.872504, 4.56457, -5.07969, 1.33863, 0.002371, 2.66451, 0.882043, 0.767603], [1.73118, 2.54148, 1.84469, -0.438924, 1.25017, 0.011295, 0.081308, -0.732811, -0.778325, -11.0073, -0.003236, -0.174567, 2.5774, 4.03897, 1.79968, -0.854, -0.620874, 0.518424, -3.4814, -1.49031, -0.046782, 2.54357, 3.46262, -0.49074, -4.16373, 1.25441, 3.20375, -0.809222, 1.20791, 0.012639, 0.312739, 1.18492, -1.51074, 2.69302, 0.921497, 0.873952, -0.818391, 1.47463, -0.233327, 0.482243, 0.904757, 2.79096, 1.7555, 0.906013, 0.216097, 3.54674, -0.014983, -1.23751, 2.31488, -0.326325], [1.15001, -0.513461, 0.249841, -0.052927, 0.259444, -0.009774, 5.1087, -7.03827, -1.57206, -6.73634, 0.02491, 1.58378, 0.249441, 3.61465, 5.67936, 1.38021, -0.855312, 1.66466, 1.35049, 0.608296, -0.029276, 0.305486, 0.722329, 0.17439, -2.90412, -5.62525, 0.819034, 2.05681, -0.58059, 0.361178, -0.957986, 2.18661, -1.20372, 1.71948, -0.728295, 2.50769, 1.32221, 3.50959, -0.693612, 2.17401, -1.37248, 3.29204, 0.464359, 4.78456, 0.637671, 1.10653, 0.045813, 0.538844, 3.43955, 2.371], [0.011495, 2.77051, 0.797941, 0.788007, -0.346993, 0.045632, -0.805715, -0.875726, -0.447083, -0.371856, -0.029171, 0.818244, 1.3214, -0.386578, 1.51371, 1.31564, 0.158696, -1.31587, 4.0321, -1.51705, -0.023736, 1.13931, 2.75468, 0.577234, -0.066435, 0.188333, 2.41199, 0.168417, 1.37241, 1.106, -0.429024, -0.748453, 0.128511, -0.177308, 0.508484, 1.28485, -0.229283, 0.295401, 0.181945, -0.514149, -2.04114, 0.191885, -0.547351, 0.520231, 0.2831, -0.266939, -0.020733, -0.498361, -0.423036, 0.087738], [1.05502, -1.41659, 0.020238, -0.252819, 0.295069, 0.014778, -0.616045, -1.01332, 0.198198, 0.324504, -0.020824, 0.484935, -0.031543, -3.65664, -1.3078, -0.410636, -0.570452, -2.72239, -0.847262, -0.370201, -0.007905, -1.28743, 0.668673, -1.44907, -0.797724, -0.657156, -5.35915, 0.493574, 1.26809, -0.013443, 0.124886, -0.686613, 1.26606, 0.884173, -0.472879, -2.38468, -0.625309, -1.03887, 0.810842, 0.357437, 0.664936, 1.56797, 0.746541, 0.520756, -0.318398, 1.0593, -0.032927, -0.260501, -0.753436, -0.189521], [0.654713, 0.119414, 0.293281, 0.240747, -0.245457, 0.029076, 0.115587, 0.257066, -0.082592, -0.333401, 0.018424, 0.148829, 0.25635, 0.477716, 0.600106, -0.112411, 0.156137, -0.268108, 0.988615, -0.555731, -0.049121, -0.059561, 0.328251, -0.217464, -0.216216, -0.547124, 0.092179, 0.199177, 0.056131, -0.273237, -0.277369, 0.114347, 0.056739, -0.379793, 0.388551, -0.101253, -0.063837, -0.124356, 0.411036, -0.057534, -0.215027, 0.045263, 0.167631, 0.141115, 0.03379, 0.195906, -0.044609, -0.074286, 0.197387, -0.320195], [-2.63674, -1.65968, 0.384609, 0.730491, 0.184212, -0.043963, 0.586389, 2.28791, -0.226035, -1.53905, -0.011807, -0.154336, -0.47919, 1.01863, -0.163869, 0.021789, -0.94957, -0.683618, -5.1855, 1.14505, 0.013025, -0.294164, -2.70314, 0.674177, -4.30154, -2.98722, -0.306572, 0.69293, 0.431976, -0.012466, -0.540857, 0.866827, 0.290223, 0.16317, 0.198812, 0.584458, 0.416098, 0.242636, -0.493525, 0.217848, -1.52474, -0.209069, 1.55213, -0.583665, -0.308163, -2.04937, 0.006504, 0.205033, -2.85375, -0.097178], [0.727102, -1.46601, -0.700108, 0.223929, -0.037531, 0.027764, -1.34096, -4.54961, -0.077208, -2.64585, -0.009807, -0.344024, -0.933056, -1.01119, -4.10077, -0.425768, 0.893489, -2.35511, -0.396268, 0.744022, 0.006525, -1.23913, -2.37421, 0.607095, -0.050597, -2.70542, -1.2785, 0.8389, -0.186921, 1.34557, -0.577745, -1.11727, 0.987413, -0.454402, -0.600542, -0.687358, 0.724774, -0.838664, 0.112646, -1.53708, -2.46786, 0.140718, 1.36701, -7.10742, -3.39918, 0.312868, 0.045778, -0.002741, 1.28874, 0.094702], [0.037918, 1.53077, -0.024045, 0.452136, 0.405682, -0.016804, 0.694439, 0.431054, 0.056095, -0.410159, 0.036694, -0.252463, 0.154104, 0.749351, -0.032231, 0.10607, 0.208673, -0.268178, -0.29515, -0.736857, 0.050789, -0.566194, 2.18997, 1.27375, 0.896545, 0.806681, -0.736084, 0.487402, 0.371953, -1.61703, -0.28255, 0.204485, 0.648219, -1.59022, 0.259482, 1.03314, -0.358591, -0.745629, 0.288088, 0.234439, 0.02474, -0.83042, 0.125217, 2.13211, 0.084355, -0.677076, 0.049252, 0.490729, 1.22305, -0.270001], [-1.10253, -1.32505, 0.646916, 0.701966, 0.199189, -0.02184, 0.388278, -0.529962, -0.237677, -1.6655, -0.00301, -0.187545, 0.776886, 3.13045, -0.193173, 1.45495, -1.3305, -5.70171, 2.48267, -0.879399, -0.009589, 