{"number_of_layer": 8, "number_of_neurons_each_layer": [5, 50, 50, 50, 50, 50, 50, 5], "weight": [[[0.111378, 0.768636, -0.772985, -0.120954, -1.40338], [0.081351, 0.570178, 0.378011, -0.276275, 0.210988], [-1.64787, -0.005316, 0.03473, 0.000919, 0.013446], [0.203635, 1.45211, -1.51488, 0.087552, -0.023869], [-0.059475, 1.24291, 0.083725, 0.054987, 0.01561], [0.011277, -0.101444, 0.119138, -0.585726, 0.638396], [-0.293109, -0.421386, -0.115811, 0.273573, -0.064238], [0.009705, 0.022817, -0.059437, -0.850478, -0.933233], [0.018731, 0.00682, -2.8e-05, 0.003812, 0.003865], [-0.480381, 0.356287, 0.081107, 0.066827, 0.01088], [0.055164, 0.501563, 0.091498, -0.179824, -0.070283], [0.060724, -0.05683, 1.30944, 0.07316, -0.10487], [-0.032417, 0.001533, 0.013916, -0.576997, -1.3201], [-0.000358, -0.02889, 0.118207, -1.42227, 0.807703], [-0.855954, -0.053659, 0.065192, 0.005456, -0.011594], [0.012101, 0.117481, 0.606473, -0.702966, 0.116108], [0.028313, 0.055487, -0.505534, 0.497697, -0.825754], [-0.616714, 0.113807, -0.094506, -0.366463, 0.165329], [-1.17582, 0.114632, -0.06766, -0.292518, -0.580479], [-1.44687, -0.000211, 0.034722, 0.00674, -0.007094], [-0.006366, 0.002419, -0.002497, 0.003262, 0.005719], [0.007207, 1.16114, 0.0171, 0.175279, -0.126919], [-0.048986, -0.031055, 0.115255, 0.059572, -2.07332], [-1.29566, 0.075094, -0.084545, 0.32273, -0.402464], [-0.716644, 0.288854, -0.39699, 0.108008, -0.055003], [-1.21018, 0.003957, 0.030349, 0.009544, -0.424553], [-0.005119, -0.047993, 0.019478, -0.744644, -0.11883], [0.02741, -1.21783, 0.924655, -0.015187, 0.03935], [0.044359, 1.97144, 0.006052, 0.04974, -0.073682], [-1.43877, 0.004399, -0.022419, -0.216962, -0.05833], [0.319803, 0.89121, -0.819987, -0.031139, 0.133079], [-0.394753, 0.000167, 0.631319, -0.011101, -0.001471], [0.053826, 0.925753, 0.039802, -0.352922, 0.007056], [-1.43757, 0.050473, 0.0073, -0.193739, -0.314945], [0.048352, -0.060029, -1.06528, -1.00544, 0.254872], [0.010977, 0.009774, 0.00139, 0.001831, -0.000363], [-1.7633, 0.01494, -0.003804, 0.005617, 0.010839], [0.003705, 0.210067, -0.182208, -2.03607, 0.418857], [0.057447, -0.940802, -1.02574, 0.0341, -0.07191], [-0.793893, 0.035006, -0.005435, -0.901275, -0.498337], [-0.004656, -0.075549, 0.117327, -0.051979, -1.12809], [-0.04308, 0.669337, -0.458021, 0.045878, -0.152005], [0.35015, -1.0593, 0.94596, -0.058586, -0.043202], [0.197501, 0.053357, -0.036153, -0.734863, -1.05212], [-0.355047, 0.027355, 0.024233, -0.174592, -0.098298], [-0.185251, 0.293698, -0.705299, -0.048295, 0.432736], [-0.007111, 0.094464, -1.80906, -0.007977, 0.024235], [0.004496, 0.326725, -0.359596, -1.11852, -0.869933], [-1.28149, -0.033882, 0.049886, -0.000992, 0.003466], [0.003024, 0.039668, -0.045829, -1.35891, 0.623767]], [[0.821782, 0.002006, -0.239278, 0.438174, -0.0323, 1.64948, -0.114661, 0.411091, -0.027123, -0.624882, -0.290977, 0.59636, 0.531197, -1.00023, -0.067466, -0.41017, 1.8578, -0.028799, 0.049047, -0.556489, -0.044766, 0.532931, -0.516366, 0.234942, -0.049659, 0.562497, -1.11631, 0.354313, -0.229429, 0.476255, -0.277221, 0.302139, -0.084478, -0.211297, -0.561576, -0.051268, 0.608035, -0.864342, 0.063854, -0.822451, 0.69538, -0.307385, -0.343563, -0.412561, -0.519292, 0.928477, -0.23996, 1.18421, -0.125227, 0.21638], [0.015687, -0.008818, -0.019761, 0.024598, -0.042662, 0.009112, -0.044861, 0.015937, -0.011765, -0.041196, -0.005253, -0.024017, 0.01665, -0.052217, -0.052604, -0.029483, -0.023203, 0.046845, -0.031459, -0.030909, -0.03589, -0.032392, 0.015618, 0.024396, -0.029736, 0.001539, -0.039703, -0.032056, -0.043389, -0.048631, 0.000617, -0.012328, -0.046458, -0.022402, -0.055433, -0.009436, -0.016319, 0.031714, -0.030158, -0.002677, 0.004809, 0.012966, -0.042243, -0.010066, 0.022207, 0.03075, 0.031119, -0.021985, -0.005774, -0.009522], [0.934388, 0.182588, -0.122047, 0.126342, -0.83981, -2.12676, 0.045404, -0.691512, -0.042423, 0.17909, -0.513825, -0.184012, 1.40978, -0.381364, 0.414347, -0.192407, -0.297559, 0.390267, 0.544226, -0.207683, 0.012582, -0.711395, -0.60622, -0.161399, 0.775842, 0.230322, 0.266912, -1.37493, -0.302911, 0.044918, -0.448724, -0.924728, 0.093552, 0.461067, 0.191749, -0.007184, -2.07805, -1.43847, 0.117729, 1.62133, 0.071278, -0.50998, 0.677358, -0.455033, 0.456083, 0.48853, -0.257343, 0.212954, -0.172484, -0.554447], [0.049575, -0.050335, 0.274377, -0.209079, 0.181859, -0.006097, 0.190431, 0.404506, 0.003403, -0.038097, 0.125069, -0.035731, 0.820602, -0.187619, 0.272125, 0.021784, -0.095796, 0.294636, 0.889163, 0.253989, -0.025417, -0.159068, 0.091352, -0.150039, 0.192619, 0.387234, 0.459961, -0.850363, 0.15549, 0.538079, -0.40837, -0.077034, -0.790386, 0.895578, 0.313224, 0.034465, -2.28538, 0.267608, 0.109411, 2.22395, 0.391877, 0.022861, -0.338712, -0.363353, 0.475071, 0.414837, -0.660436, 0.281645, 0.275105, 0.117679], [0.124546, 0.064451, 1.81703, -0.19964, 0.225874, 0.017839, 0.215768, -0.288857, -0.014495, 0.405338, -0.2909, -0.287599, -1.84426, -0.080595, 0.100369, 0.015417, 0.023611, 0.141534, 0.709005, 0.762455, 0.004098, -0.126986, 0.155785, 0.041595, -0.328591, -0.05593, -0.03642, 0.381478, -0.071593, -0.315964, 0.039574, -0.018416, -0.751706, 0.231868, -0.111531, 0.007653, 4.75358, 0.171665, -0.197099, -1.6592, 0.100222, 0.242423, 0.038934, -0.712563, 0.256468, 0.21526, 0.192556, -0.046876, 0.860438, 0.029796], [0.100125, -0.238533, 0.036781, -0.37662, -0.18913, 0.945637, 0.184278, -0.047595, -0.021059, -0.191842, -0.45424, -0.660945, -0.061439, -13.4357, 0.172975, -0.037648, 0.513873, 0.033489, -0.025033, -0.018063, 0.041802, 0.12848, -0.056529, -0.833344, -0.298355, 1.01688, -6.88525, 0.388508, 0.003474, -0.498087, 0.345399, -0.133097, -0.347987, 0.012893, -0.382612, -0.044062, -0.035772, 0.007646, -0.118336, 0.014046, -12.0374, 0.275126, -0.459398, -0.01581, 0.511825, -0.42414, -0.095238, -0.006245, 0.065909, 1.5629], [-0.393375, -0.399383, -0.06583, -0.391266, -0.125581, -0.096347, -0.051311, 0.583564, -0.034849, -0.011547, 0.512693, 0.170073, 0.743948, -1.86715, -0.135432, -0.065532, 0.283397, 0.361538, -0.010267, 0.186543, -0.026219, 0.010882, -0.826128, 0.440458, -0.170853, 0.020382, -1.12426, 0.036961, 0.025195, -0.468449, -0.037933, -0.229472, -0.108955, -0.265172, 0.599822, 0.016689, 0.517883, -1.10479, -0.017959, 0.442213, 0.945422, -0.503098, -0.14035, -0.152999, 0.435198, 0.1117, -0.560207, 0.451814, -0.024497, -0.3372], [0.24922, -0.013928, -0.202445, -0.016352, 1.47944, -0.13012, 0.137696, 0.158878, 0.054735, 0.277028, -0.023875, 0.173679, -0.338627, -0.64702, -0.010058, -0.44519, -0.254601, -0.163614, -0.081311, -0.198947, -0.039593, 0.553704, 0.461484, -0.47662, -0.234818, -0.031279, -0.052159, 0.43107, 1.33304, -0.12364, 0.236338, -0.137427, -0.909167, 0.166175, 0.661677, 0.001763, -0.531807, 0.112462, -0.028789, -0.124497, 0.115029, -0.290394, -0.238935, 0.376834, 0.093473, -0.102115, -0.259917, -0.246096, 0.218587, 0.618284], [0.702352, 0.008868, 0.896664, 0.540879, 0.04995, 0.601758, 0.176241, 0.249816, 0.001451, 0.612385, -0.057029, -0.224079, 1.55437, 0.004536, 0.124852, -0.609796, 0.614633, -0.08155, -0.269159, 0.320017, -0.035255, -0.517147, 1.06851, -0.718064, -0.408271, -0.137075, -0.148591, -0.339373, -0.001896, -0.371967, -1.39145, 0.611911, 1.21166, 0.649087, -0.154202, 0.043886, -0.668284, -0.127449, -0.201415, 0.386825, 0.167275, -0.298067, 0.57799, 0.229011, 0.291865, -0.090196, -0.064601, -0.092574, 0.446508, -0.146149], [-0.384681, -0.483279, -0.018289, 0.249884, -0.370545, 1.1432, 0.024504, -0.661033, 0.029405, 0.301526, 0.205143, -0.092637, 3.1775, -0.060981, -0.173453, 0.322406, -0.308027, -0.106506, -0.020714, 0.186625, 0.027289, -0.24602, -0.549624, -0.7438, 0.030191, 0.597813, -0.689223, -1.00256, -0.329769, -0.306235, 0.032368, 0.169686, -0.470339, 0.226637, 0.433888, 0.011739, -0.074144, -11.2793, -0.380818, -3.44194, 0.105819, 0.591445, 0.206021, 0.15444, 0.275748, 0.816403, -1.19094, 0.285153, -0.127193, -0.505756], [-0.249495, -0.592637, 0.749205, -0.75592, 0.299899, -0.741444, -0.204079, -0.751782, -0.03219, 0.509242, 0.190467, -2.07225, 1.38765, -0.650085, 0.048769, -0.415984, -0.684299, 0.398846, 1.76526, 0.317581, -0.00234, 0.829225, -2.7174, 0.225694, -0.024554, 0.080438, -0.213066, 1.14338, -0.240417, -0.83561, 0.113223, -2.26328, 0.536982, -0.049617, 0.207932, -0.007016, 1.09604, 0.24165, -0.208159, -0.070155, 0.441177, -0.999288, 0.105122, 0.740798, -0.136871, -0.059565, -0.418597, -0.129729, -0.021888, 0.247681], [-0.084208, -0.028531, 2.1624, 0.081608, 0.077189, -0.003788, 0.038417, 0.310434, -0.009636, 0.162103, -0.250992, -0.021495, 0.752659, 0.002811, 0.227876, -0.195561, -0.015678, 0.225652, 0.405278, 1.25096, -0.026836, -0.004708, -0.03385, 0.168962, 0.263597, -0.191582, -0.076543, 0.09594, -0.038568, 0.226023, -0.405264, 0.286083, 0.579695, -0.067049, -0.06994, 0.024313, 5.23992, 0.023422, -0.130288, -0.686771, 0.007307, -0.093926, -0.226262, 0.400814, -0.191432, -0.037642, 0.317438, -0.081154, 0.682903, 0.05245], [0.044482, 0.002909, 1.83738, 0.083929, 0.067906, -0.121082, -0.08258, 1.36443, 0.035177, -0.155049, -0.233031, -0.19506, -0.997174, 0.049653, -0.060114, 0.113492, 0.08743, -0.164676, -0.231603, 1.31538, -0.028559, 0.093747, 0.077901, -0.371823, 0.204896, 0.260192, -0.218314, 0.086105, -0.00307, 1.37139, -0.178939, 0.321688, -0.098907, 0.069062, 0.021137, 0.021599, 4.72294, -0.018569, 0.053084, 2.68603, -0.060749, -0.014557, -0.036932, 0.260675, 0.386595, 0.041866, -0.041712, 0.022529, 0.428048, -0.020478], [-0.075275, -0.496974, 0.083, 0.355049, -0.126084, -1.40702, -0.352117, -0.762131, -0.037157, 0.06391, 0.788205, 0.018715, -0.784103, -3.23845, -0.018442, -0.00135, 0.266689, -0.213099, -0.628017, -0.030702, 0.015029, 0.002161, -2.71978, -0.021683, 0.123098, 0.080744, 0.125777, -0.057065, 0.088969, 0.026474, -0.11827, -0.002898, -0.443375, 0.091956, 0.763861, -0.014892, -0.118341, -0.424129, 0.029066, -0.980139, -1.15524, -1.06154, 0.308858, 0.52035, 0.540375, 0.149019, -0.374006, 0.383053, -0.059119, 3.10282], [-0.030121, 1.29395, -0.724332, -0.395726, -2.62423, 0.579441, 0.597387, 0.253519, -0.028938, -1.19708, 0.210667, -0.371378, 2.33286, -0.003275, 0.227114, -0.421863, 0.684062, -0.199434, -0.690386, -0.212827, 0.041047, -0.934697, 0.427882, -1.18896, 0.119582, -0.20759, -1.67561, -0.500353, -1.31711, 0.193173, 0.022452, 0.160692, 0.00459, 0.479245, 0.773984, 0.003852, -2.77183, -2.13809, 0.93406, 0.11787, 0.815968, -0.271676, 0.568893, 0.679833, -0.193995, 0.507555, -0.479511, 0.520943, -0.811444, -0.309535], [0.020681, -0.004449, -0.013733, -0.047235, -0.026505, -0.047646, 0.016558, 0.037899, 0.027457, 0.007052, -0.037669, -0.001836, -0.015544, -0.034894, 0.023479, -0.042941, 0.009464, 0.022041, -0.032808, 0.009621, -0.021121, 0.03194, -0.035271, -0.048258, 0.007059, 0.018779, 0.022921, -0.010664, -0.015246, -0.038922, -0.038518, -0.038006, 0.001209, -0.016813, -0.046006, 0.01482, -0.031803, 0.044638, 0.025238, 0.012179, -0.013024, -0.001458, -0.000515, -0.044081, -0.043714, -0.044694, -0.018103, -0.031614, -0.016186, -0.011778], [-0.199341, -0.348187, -0.197061, -0.140235, 0.335672, -0.125393, 0.578118, 0.108664, 0.034947, 0.815101, -0.795508, 0.308541, -0.854665, -0.043156, 0.461461, -0.080845, -0.176513, -0.006358, 0.281498, 0.476653, 0.004925, -0.015933, -1.10552, -0.237579, 0.464188, -1.21665, 0.165357, -1.20392, 0.225563, -0.836316, -0.521193, 1.3749, -0.218613, 0.133018, -0.217816, -0.045034, -1.10466, 0.756397, -0.10075, 0.231657, -0.176356, -0.432825, -0.33588, -0.711307, -0.166423, -0.096052, 0.413152, -0.056405, 0.466442, 0.347777], [-0.104682, -0.236507, 1.9326, -0.020779, -0.106718, -0.152388, 0.382299, 0.313968, -0.03151, 0.437557, -0.449165, 0.072488, 1.30956, 0.045036, -0.245379, -0.042753, 0.320154, -0.031448, 0.501285, 0.986087, 0.023807, -0.236798, -0.079227, 0.740031, 0.218668, 0.008236, 0.222456, 0.017995, 0.221311, 0.604188, 0.005074, 0.385657, -0.31416, 0.795851, -0.035867, -0.052273, 6.56085, -0.030487, 0.008344, 1.11459, -0.226311, 0.004882, -0.042418, 0.163553, -0.609559, 0.011998, -0.188286, -0.120548, 0.218609, 0.152773], [0.06531, 0.086844, 1.1639, 0.017608, 0.281489, -0.477131, 0.001699, 0.438382, 0.05458, -0.429947, -0.300226, 0.193078, 3.80908, -0.33311, 0.118122, -0.197593, -1.35655, 0.413408, -0.530239, 0.609366, -0.010867, 0.017348, -5.25528, 1.6991, 1.12378, -1.20862, 0.113775, -3.54309, 0.445958, 0.778194, 0.274577, -8.32556, -0.568363, 0.493256, 0.802307, 0.02004, 0.287294, -0.953427, -0.257798, 0.678074, 0.310195, -0.134577, -0.075067, 0.456106, -0.091597, 0.030954, -1.09099, -0.192428, 0.408095, 0.65377], [0.015726, -0.382371, 0.253686, 0.215636, -0.425965, -0.143929, 0.082439, 2.05381, -0.019042, -0.595306, -1.88093, 0.149852, 0.247444, -0.584661, 0.0871, 2.06918, 0.652523, 1.17795, 0.461585, 0.038446, 0.032052, 1.56125, 0.712717, 0.528164, 0.355849, -0.492074, -0.522588, -0.078948, -0.157955, -0.097022, -0.228073, 1.03265, -6.93564, -0.119465, 0.397005, 0.045824, -0.729826, 0.423395, -0.258507, -0.335572, -0.186989, 0.204652, -0.059869, -1.7421, -0.557073, -0.393026, -0.207744, 0.390713, -0.055299, -0.523938], [-0.172474, 0.543037, 2.15919, 0.533685, -0.179185, -0.367952, 0.973133, 0.298729, 0.026318, 0.093748, 0.503614, 0.471148, -2.25052, -0.052072, -0.101417, -0.421416, -0.639592, 0.116732, -0.013702, 1.23212, -0.008917, -0.283707, -0.477488, 0.954117, 0.084613, -0.44206, 1.11681, 0.044272, 0.185029, 0.11004, 0.235344, -0.006949, -0.239297, 0.512627, 1.54942, -0.03081, 2.7277, 0.583094, 0.046659, -1.51338, -0.13258, 0.437671, -1.01326, 0.532086, -0.171292, 0.581425, -1.27879, 0.006713, 0.073689, -0.228173], [-0.085407, 0.397552, -0.477415, -0.00262, 0.283838, -0.153061, 1.03552, 0.118621, 0.042946, -0.310706, 0.556171, 0.368915, 0.868295, -0.447948, -0.172672, -0.119978, 0.572781, 0.677725, -0.950911, -0.157363, -0.033867, 0.358196, 1.24304, 0.157559, 0.503709, 0.091524, 0.836398, 0.243592, -0.58093, 0.332547, 0.013016, -0.079536, 0.793516, -0.141229, 0.262901, -0.008786, 1.20589, -1.92628, 0.071143, 0.318072, -1.60049, 0.310399, 0.321819, -0.98567, -0.702784, -0.479443, -0.15216, 0.674616, -0.209358, 0.224866], [1.17985, 0.124832, 0.275965, 0.430687, -0.958756, 0.465298, 0.997455, 0.820526, -0.03821, -0.029246, -0.551384, 0.46107, -1.71506, 0.46891, 0.339973, 0.382649, -0.402509, 0.468099, 0.638199, 0.46465, -0.009833, -0.665816, -0.83683, 0.538837, 2.13963, -0.343615, 0.331835, 2.1153, 0.433696, 0.175404, -2.19766, -0.294494, 0.320472, 0.414648, 0.175955, -0.033976, -0.330105, 0.205757, -0.451914, 0.266095, -0.490623, 1.91319, 1.35039, -1.17882, 0.056849, -0.122421, -0.653039, -0.14017, 0.612835, -0.39976], [-0.508656, 0.144069, 0.180439, 0.298063, 0.314278, -0.001273, 0.888055, 0.677069, -0.037143, 0.553982, 0.202046, -0.338466, -1.20928, -0.801182, 0.010135, -0.700236, 0.011504, 0.119655, -0.01513, 0.431504, 0.010717, 0.086714, -2.64372, -1.48162, 0.708929, 0.037481, -0.005483, 0.37432, 0.286819, -0.121991, 0.036103, 0.041553, -0.351341, -0.135738, -0.922937, 0.018098, 0.23956, -0.947145, 1.30933, 2.40428, 0.234617, 0.254095, -0.184801, 0.398612, -0.199759, 0.452268, -3.26205, -0.121133, 0.251517, 0.19646], [-0.73845, -0.329306, 0.222183, 0.538337, -0.16741, -0.309285, 0.66003, -0.436154, 0.038617, -0.150962, 0.030879, -0.136859, -0.848087, 0.269752, -0.251625, 0.529963, 0.453681, 0.315442, 0.383308, 0.167142, 0.033691, -0.366331, -0.243358, -0.109595, -0.40971, -0.580223, 0.616148, 0.920338, 0.574432, -0.161772, 0.8769, 0.374913, -0.266046, -0.427096, -0.337113, 0.038805, 2.09084, 0.63311, 0.089903, -0.438163, -0.056965, -0.929595, 0.961851, -0.139402, -0.176574, 0.295538, 0.599552, 0.130888, -0.173987, -0.008375], [-0.003735, -0.024987, -0.042516, -0.045174, -0.03815, 0.018923, 0.024894, 0.002652, 0.026249, 0.037092, -0.048094, -0.024503, -0.048733, -0.01462, -0.043006, 0.053206, -0.020711, -0.023054, -0.022716, 0.031113, 0.035635, -0.018036, 0.020014, 0.033679, -0.024353, -0.019207, 0.042082, -0.012111, -0.001965, 0.003095, -0.024436, -0.033852, 0.040536, 0.004255, -0.011449, 0.01642, -0.012949, -0.048254, -0.046745, 0.020255, -0.035637, -0.026013, -0.032164, 0.013869, 0.013705, 0.04374, -0.024072, 0.017494, 0.010668, 0.023511], [0.618726, -0.339419, 0.14902, 1.76795, 0.403721, -0.814424, -0.204345, -0.362232, 0.001263, -0.149989, 0.203024, -2.07778, -0.537388, -0.347963, 0.160039, 0.127708, -0.762183, 0.421204, 0.1978, 0.043657, -0.03597, 0.285383, -2.00548, 0.378501, 0.194581, -0.240584, 0.315745, 0.053208, 0.189763, 0.134748, 0.748141, -0.164793, 0.250683, -0.065725, 0.1745, 0.053159, 0.146321, 0.15798, -0.577069, 0.441746, 0.042449, 0.33313, -1.64484, -0.791381, -0.458872, -0.12586, 0.090617, -0.427849, 0.12003, 0.638884], [0.246513, -0.515261, 0.394745, -0.752806, 0.126997, -1.16424, -0.059591, -1.52747, -0.038738, 0.293929, -0.780005, -0.81543, 0.653515, 0.886598, 0.222354, 1.28462, 1.18251, -0.548984, 0.195311, 0.010922, 0.034951, 0.596841, 0.058883, 0.08403, 0.652541, -0.383229, 1.16571, -0.152561, 0.080164, -0.256072, -0.404545, 0.52432, -1.70082, 0.031864, 0.262422, -0.006792, 0.155128, -2.15899, -0.424291, 0.186326, -0.921131, 0.482388, 0.462923, 0.009331, -0.59967, -0.120636, -0.286226, 0.978477, -0.02478, -0.380454], [0.025407, 0.008522, -0.011623, 0.001243, 0.036457, -0.015166, -0.000743, -0.039905, -0.001019, -0.043098, -0.047438, -0.009659, 0.011766, 0.023158, -0.032951, 0.034714, -0.033652, -0.019965, -0.047272, -0.029667, 0.015548, -0.050068, 0.028996, 0.009591, 0.029759, -0.014344, 0.027515, -0.0203, -0.027697, -0.038546, 0.032211, 0.034706, 0.038038, -0.021809, -0.021513, -0.01553, -0.003527, -0.04308, -0.042205, 0.020853, 0.006388, -0.010634, -0.026201, -0.04157, -0.02616, -0.050303, 0.035674, -0.028762, 0.04174, -0.020659], [0.582392, -0.103217, 0.921325, 0.209456, -0.541481, -0.088781, -0.492805, -0.20624, 0.028402, 0.888083, 0.510956, 0.203992, 0.658414, -0.563017, 0.028687, 0.358962, 0.665941, -1.12873, 0.049989, -0.089252, -0.025679, -0.972822, -0.189948, 0.180245, 0.800176, -0.152975, -0.081553, 0.09704, -0.895552, 0.06266, -0.707445, 0.207495, -0.030354, 0.280611, 0.323485, -0.03139, -0.797865, -0.505446, -0.171283, -0.185955, 0.458453, -0.256477, 0.20023, 0.323259, -0.602487, -0.258082, 0.035427, -0.115085, -0.354084, -0.040545], [0.761949, 0.021792, 1.69392, -0.001597, -0.947458, 0.156601, 0.080565, -0.716988, 0.024536, 1.82775, 0.24484, -0.858658, 3.04166, -0.03735, 0.044198, 0.045762, -0.306715, 0.48647, -0.510061, 0.702301, -0.000549, -0.169746, -1.07078, 0.888062, -0.00061, -0.949952, 0.443981, 0.966229, -0.422362, 0.615169, -0.817696, 0.151608, -0.515546, 0.169927, -0.174711, -0.024739, 2.9592, -0.305269, 0.212485, 1.41335, 0.26414, 0.487509, 0.126363, 0.037133, -0.01247, 0.026661, -0.094188, 0.302181, 0.464774, 0.03178], [-0.023126, 0.022506, -0.005276, 0.010074, -0.000682, 0.013138, -0.009081, -0.021613, -0.030935, 0.017723, 0.030566, -0.054667, 0.017112, -0.043085, -0.034181, 0.02423, -0.033107, 0.028673, 0.037002, 0.023511, -0.023565, 0.018748, -0.035072, -0.022687, -0.040113, -0.023607, -0.04054, -0.019375, 0.011564, 0.007543, -0.047449, 0.020207, -0.043779, 0.001215, -0.029821, -0.05002, -0.014099, -0.008211, 0.013654, -0.016067, 0.03791, 0.00827, -0.008254, -0.021045, -0.05305, -0.020451, -0.020808, 0.000954, -0.053482, 0.026557], [-0.044454, -0.044243, 0.012482, -0.046479, -0.024898, -0.043895, -0.036303, -0.006164, 0.000543, -0.053671, -0.022792, 0.008847, -0.021315, 0.027265, -0.052061, 0.014581, -0.002106, -0.046171, 0.022862, -0.029623, 0.012198, 0.017518, 0.039012, -0.030122, 0.015982, 0.013781, -0.00788, -0.018083, 0.008349, 0.022118, 0.025056, 0.027686, 0.003423, -0.021625, -0.000543, 0.016992, -0.045708, 0.019235, -0.048595, -0.024968, 0.018952, -0.009971, -0.04647, 0.005621, 0.042989, 0.007577, 0.02164, -0.00386, -0.02332, 0.011953], [0.037996, -0.108993, -0.010652, -0.233357, 0.004692, -0.093154, 0.041512, 0.101494, 0.04051, 0.018376, -0.067372, -0.007021, 0.076605, -0.0036, 0.001256, 0.107008, -0.097345, -0.020544, 0.135781, -0.023975, 0.010585, -0.021746, 0.068414, 0.015412, -0.049981, 0.052564, -0.106581, 0.051823, -0.116034, 0.029365, -0.116535, 0.061263, 0.161612, 0.087547, 0.053251, 0.001727, -0.039087, -0.062926, 0.021411, 0.192231, 0.061238, -0.030836, -0.186367, 0.011751, 0.029406, 0.074508, -0.062655, 0.064025, 0.039796, -0.005567], [-0.730591, -0.473033, 0.133295, 0.017128, -0.277476, 0.466194, 0.931997, 0.447796, -0.010294, 0.022414, 0.530124, -1.59045, -3.4427, 0.352408, 0.050279, 1.03176, 0.142455, 0.236116, 0.358197, -0.067952, -0.029063, -0.777704, -1.36035, -0.127783, 0.115226, -0.852752, 1.5494, -1.05292, 0.085399, 0.039443, 0.114541, -1.16275, -0.421028, 0.226177, -0.400825, 0.056745, -0.35041, 0.535428, 0.236841, 0.081684, -0.699139, 0.142443, -0.233854, -0.146244, 0.150859, 0.118196, -1.27148, 0.1635, 0.534212, -0.375003], [-0.04982, 0.101319, 0.593405, -0.321079, -0.297451, -0.740122, 0.68793, 0.492174, 0.046921, -0.206168, 0.045366, -0.440921, 0.238219, -0.591035, -0.032939, -0.548504, -0.424551, -0.40459, 0.781668, 0.28498, 0.055076, -0.29623, -1.40976, 0.492437, 0.351381, 0.858629, 0.683687, 0.145825, 0.420106, -0.143991, 0.614996, 0.093663, -0.407207, 0.588778, 2.00847, 0.054504, 2.18546, -1.01934, -0.904661, 0.931803, -0.224743, -1.31373, 0.06819, 0.387168, -0.262153, -0.107371, -0.47853, -0.389416, 0.196306, 0.106452], [0.002842, -0.053465, -0.044521, 0.035758, -0.017765, 0.010004, 0.000809, -0.000413, 0.036119, 0.015406, -0.036343, -0.005063, 0.018332, -0.040139, -0.032347, 0.033807, -0.036169, 0.041805, -0.032478, 0.002113, -0.048266, -0.041417, -0.029616, -0.034884, 0.004377, -0.014537, -0.036635, -0.05094, -0.010089, -0.043153, 0.026619, -0.010067, -0.013596, -0.002087, 0.029581, 0.023497, -0.020363, -0.02212, 0.036215, -0.028164, 0.032423, -0.006467, -0.050983, 0.038972, 0.006833, -0.022675, -0.027036, -0.045625, 0.042435, 0.001767], [0.204367, 0.191386, 0.626403, -0.199259, -0.230861, -0.18536, 0.905489, -0.169794, -0.038133, -0.099729, 0.301367, -0.919038, 0.659773, -0.507014, 0.284663, -0.175608, 0.18175, -0.064001, -0.080634, 0.24371, 0.051753, -0.617722, 1.86036, -0.585834, 0.012023, -0.03194, 0.017191, 0.479446, 0.248692, -0.701564, 0.068012, -1.00332, -0.844196, 0.40012, 0.296111, -0.006731, -1.05805, -0.751703, 0.215278, 1.04751, -0.084569, -0.365945, -0.213483, -0.207571, -0.34136, -0.10044, -0.483397, 0.382155, 0.389681, 0.192975], [-0.200507, 0.316388, -1.29461, 0.268554, -0.602687, -3.2204, 0.300775, -0.238137, -0.034667, -0.933796, -0.675826, -0.038639, 1.10828, -2.02483, -0.206645, -0.342122, 0.015962, -0.608598, -0.060323, 0.092179, -0.042483, 0.219124, 0.930542, -0.366646, -0.683707, 0.767906, 0.028816, -1.38193, 0.619904, 0.82335, 0.044961, 0.47826, -1.22217, 0.015527, -0.654428, -0.007851, -0.241161, 0.492386, 0.785955, 0.138984, -0.189813, 1.10233, -0.036704, 0.358167, 0.482195, -0.359768, -1.11226, 0.645263, -0.197801, 0.139778], [-0.51529, -0.223839, 0.275602, 0.532193, 0.297769, -0.636874, 0.432197, -0.029877, 0.025235, -0.181856, 0.410317, -0.337588, -0.458733, -0.243596, 0.310729, -0.1123, 0.241194, 0.310582, 0.210225, 0.466224, 0.015421, -0.303423, 1.38082, -0.026709, 0.360491, -0.159308, 0.089106, 1.33929, -0.027484, 0.196051, 1.00003, 0.207051, 0.195082, -0.003579, 0.096935, 0.002424, 0.233462, -0.125233, -0.67712, 0.852876, 0.19026, 0.225696, -1.39848, -0.132088, 0.22713, 0.635539, 0.413336, -0.190758, 0.481744, 0.361794], [-0.563504, 1.0591, 0.136459, 0.32148, -0.373836, 1.33564, 0.116745, -0.803892, -0.0389, 0.11182, 0.738895, -0.577203, 0.85763, -0.549537, -0.046082, 0.354465, 1.58248, -0.112401, -0.460077, -0.139108, -0.021481, -0.526643, -0.716406, 0.597374, -0.364502, 0.121583, 0.388334, 0.161112, -0.126858, -0.017178, -0.009754, -0.124589, -0.364679, -0.159665, 0.150024, -0.02124, -0.104886, -1.67079, 0.103507, 0.707535, -1.10341, -0.841545, -0.36391, -0.071196, 0.41872, 0.703735, -0.735596, 1.0761, -0.01608, 0.050382], [0.804887, -0.052808, -0.070919, -0.15563, 0.357169, -0.138269, -0.378645, 0.193479, 0.011057, -0.203634, 0.124335, -0.267542, 2.24158, 0.294359, -0.200068, -0.340161, 0.135803, -1.23823, -0.382937, 0.251602, -0.044867, 0.09539, 0.472623, -0.086766, 0.535334, -0.817226, 0.509075, -1.61088, 1.00179, -0.7517, -0.066266, -0.106768, -1.89874, 0.177718, 0.350934, -0.027219, -0.164212, -1.38619, 0.070803, -1.47509, 0.691221, 0.096958, 0.258138, 0.486947, -0.672267, -0.561078, -0.501731, -0.117519, 0.056013, -0.706844], [0.130082, -0.058083, 1.84051, 0.159844, -0.595943, 0.320586, -0.489921, 0.460337, 0.012088, -0.228675, -0.220892, -0.049025, 3.32164, 0.096683, -0.37665, 0.423195, -0.764453, -0.172259, 0.480918, 1.63699, -0.004676, 0.312679, 0.51907, 0.21842, 0.511502, -0.031318, -0.363984, -0.848109, 0.124866, 0.54952, 0.013351, 0.011147, 0.48251, 0.445491, -0.237251, -0.030866, 0.863774, 0.558079, 0.164349, 1.634, -0.355755, 0.567096, 0.258601, 1.26299, -0.610573, -0.450369, 0.034161, 0.236166, 0.442443, 0.25282], [0.260444, -0.0942, 0.171596, 1.78008, -5.24435, 0.415843, -0.231507, -0.259468, 0.013966, -0.923519, -1.03146, 0.2492, 0.927604, 0.003934, 0.13752, -0.133695, 0.097603, 0.285863, -0.902039, 0.26429, 0.049578, 1.20842, 1.18312, -0.523097, 0.234602, 0.41416, 0.284744, -0.104297, -0.227283, -0.229999, -0.264375, 0.070281, 0.111968, 0.770301, 0.122556, -0.015558, -0.40707, 0.292551, 0.084703, 1.45489, 0.389968, -0.322114, -0.174139, -0.023766, 0.253272, -0.091606, -0.086531, -0.280986, 0.19379, -0.42573], [0.036261, -0.125456, 2.0287, -0.302741, -0.140867, -0.027788, 0.134063, -0.386063, 0.018246, 0.336317, 0.174931, -0.011257, -1.98352, 0.045706, 0.656697, 0.156317, -0.006905, 0.320437, 0.153688, 1.72118, -0.036614, -0.099921, -0.250797, -0.12101, 0.272274, 0.557214, 0.05405, -0.680849, 0.070794, 0.487386, -0.151114, -0.107285, 0.237846, 0.48615, 0.129442, -0.004517, 1.42022, -0.044092, 0.068318, -0.919471, -0.148143, -0.114696, -0.290556, -0.103609, 0.228437, -0.126265, -0.106757, 0.021653, 1.31652, -0.025819], [-0.041471, 0.02439, 0.032588, -0.02882, 0.029567, -0.034874, 0.0146, -0.001617, 0.025911, 0.018277, -0.056577, -0.029752, 0.010892, 0.008901, -0.019749, -0.03052, -0.050531, -0.034403, 0.002753, 0.026304, -0.022777, 0.004508, -0.03466, -0.010256, 0.028751, -0.0014, -0.023142, -0.047889, -0.042522, -0.018594, 0.019932, -0.0353, 0.038753, 0.027085, -0.027101, -0.017834, -0.001817, -0.031588, -0.037632, 0.04447, 0.016067, -0.024683, -0.009902, -0.002531, 0.028695, -0.061232, -0.027477, 0.004202, 0.005473, -0.017455], [-0.084084, 0.598853, 0.987219, 0.043901, -0.709273, -0.406068, 1.18654, -0.852321, -0.003835, -0.585729, 1.3768, -1.19829, -0.384046, 0.02171, 0.05772, 0.68728, -0.939115, -0.875543, 0.135656, 1.03273, 0.045166, -0.257247, 1.46371, 0.724032, 0.230158, 0.319959, -1.3659, -0.098612, -0.124838, 0.040583, -0.217938, -0.244547, 0.456828, 0.894347, 0.712098, 0.007309, 0.771761, -1.44023, -0.162461, 2.26831, 1.92525, -0.055612, -0.67849, -1.46052, -0.91458, 1.50213, 0.242931, -0.176127, 0.891493, -0.004341], [0.06354, -0.141382, -0.259825, -0.819429, -0.120143, 0.137338, 0.859915, 0.322541, 0.014898, -0.2236, -0.023152, -0.44379, 1.70337, -0.681166, 0.343033, 0.005986, -1.11699, -0.022383, 0.504445, 0.045028, 0.004099, -0.013186, -5.02223, 0.032011, -0.346297, -0.355667, 0.045862, -0.355111, 0.244849, 0.139501, 0.496313, -0.297976, 0.038645, -0.047226, 1.58762, 0.025504, -0.526057, 0.306444, -1.02329, 0.361015, 0.211675, -0.730704, -0.199091, -0.459739, -0.044441, -0.566483, -1.08937, 0.153894, -0.157111, 0.875194], [0.096483, 0.202459, -0.637844, -1.39879, -0.307123, -0.288395, -0.51636, 0.156649, 0.011288, -0.320556, 0.026198, -2.37979, -1.14666, 0.256907, -0.029678, 0.985704, -0.156117, 0.134444, -0.83773, 0.133901, 0.005968, 0.024618, -1.96166, 0.36928, 0.458557, -0.460677, 0.456224, 0.037809, 0.022939, 0.341545, 0.080805, 0.109736, 0.61321, 0.281615, -0.923008, -0.03481, -0.383623, -0.021404, -0.116454, 0.364632, -0.527427, -0.32474, 0.212039, -0.559085, 0.252492, 0.174567, 0.832393, 0.134439, 0.046569, -0.114247], [0.070912, 0.894721, 0.054789, -0.521865, 0.204998, -0.469196, 0.0016, 0.302915, -0.032944, -0.257946, -0.776278, 0.380207, -0.22415, -0.570678, -0.657381, -0.029973, -0.100935, -0.001112, -0.716124, 0.135832, -0.034726, -0.817153, 0.034269, 0.914485, -0.156696, -0.04127, 0.19083, -0.698482, -0.837429, 0.817415, -0.183635, -0.277767, 0.410044, -0.629912, 0.316896, -0.013358, 1.16322, 0.937067, 0.523522, 0.471867, 0.014197, -0.053854, -0.197639, -1.22792, 0.156568, -0.030773, 0.098037, 0.418153, -0.40065, 0.128575]], [[0.26916, 0.040298, 0.110457, -0.300791, 0.251084, 0.100846, 0.21539, -1.23382, 0.629061, -0.161688, 1.79902, 0.706272, -0.394595, 0.578088, 0.963944, -0.000804, -0.198912, 0.229883, 3.15159, -0.017682, 1.75457, 0.31575, 0.56004, -0.564128, 0.323949, 0.031343, -0.310361, 0.307368, -0.035944, 0.72849, -0.588137, -0.037425, -0.039793, -0.001872, -0.29857, 0.581065, -0.014927, -0.234462, 1.01093, 0.054052, -0.83064, -0.195724, 1.0129, -1.29247, 0.20191, 0.011568, -0.306547, -0.674294, -0.583354, 1.21467], [0.144168, -0.001336, 1.02273, -0.457359, -0.152013, 3.88507, 0.580686, -0.666359, -0.738771, 0.088228, 0.73463, 0.396741, -0.269094, 1.79416, -0.211338, -0.021284, 0.262364, 0.334665, 0.208793, 0.913193, 0.164639, 0.554507, 0.274069, -0.294705, -0.183557, 0.005693, -0.754829, -0.302612, 0.037648, 1.03062, 0.029537, -0.025494, 0.042715, -0.025198, -0.56587, 0.437035, 0.029603, 0.336269, 0.836364, -0.310259, -0.909553, -0.286949, 0.883441, 2.35995, 0.129862, 0.010714, 0.192491, 0.600031, -0.336339, -0.667466], [-0.155086, 0.035004, -1.01864, 0.066943, -0.051173, -0.758975, 0.398065, 0.811588, 0.173605, 0.45631, 0.346941, -0.126937, 0.228074, 0.468578, -0.373942, 0.030641, 0.062426, 0.841633, -0.108979, 0.489968, -0.25749, -0.427129, 0.125931, -0.801069, 0.485007, 0.036169, 0.393438, 0.481884, 0.010655, -1.23988, -0.864651, 0.003966, -0.034286, 0.044128, -1.0349, 0.487792, 0.007102, -0.618088, 0.809525, 0.804576, -0.098521, 0.425602, 0.338661, 1.9363, -0.139752, 0.007605, 0.128758, -0.573972, -0.131135, 0.346315], [0.011161, 0.047538, -0.005937, 0.310385, -0.522321, 0.026986, 0.044241, -0.050717, 0.067564, -0.098753, -0.077793, -1.35386, -0.450498, -0.039753, 0.017723, -0.012014, 0.286816, -1.35105, 0.023839, 0.232076, -0.103932, 0.042317, 0.094747, -0.063056, -0.179803, -0.013888, -0.015701, -0.006813, 0.031912, -0.108907, -0.036384, 0.020392, -0.021797, 0.025052, 0.039972, 0.019751, 0.042734, -0.016616, 0.172185, 0.154906, 0.027775, -0.016192, -0.006496, -0.158991, -0.445984, 0.005613, 0.082732, -0.02509, 0.023882, 0.136532], [0.294061, -0.022353, -0.324099, 0.702998, -0.242125, -0.013205, 0.232982, -0.285203, 0.398292, 0.122718, 0.533092, 1.16402, 0.994962, -0.006899, -0.071253, 0.023708, -0.610221, 2.00801, -0.493823, -0.772301, 0.155408, -0.118209, 0.112742, -0.314109, -0.095366, 0.00821, -0.12066, 0.155221, 0.004738, -0.956912, 0.223655, 0.004859, 0.039342, 0.047993, -0.180931, 0.416962, -0.012507, -0.051976, -0.203543, 0.356851, -0.263972, -0.30689, 0.561016, -0.146494, 0.65278, 0.022344, -0.442517, 0.216257, -0.241915, 0.119812], [1.71683, -1.5e-05, -0.796612, 0.599621, -0.29563, -4.78531, -0.090322, -0.098863, -0.041682, -0.584398, -3.10891, -2.4499, -0.040117, -0.406535, 0.320562, -0.03405, 0.22865, 2.53681, -1.12761, -2.65557, -1.59077, 0.354461, 0.323746, -0.706882, 1.04193, -0.031373, -1.61195, -1.40019, -0.010907, -1.44536, 0.065746, 0.000203, -0.046542, 0.008712, -0.549254, 0.496039, 0.046993, -0.969565, 0.728631, -0.825557, -1.27036, -1.29197, -0.906502, -1.03994, -0.171355, 0.034317, -0.587369, -1.09347, -0.260449, -4.36481], [0.140729, 0.030116, 0.08626, -0.087315, -0.228053, -0.23855, 0.724115, -0.187954, -0.381362, -0.182531, 0.531113, 1.0927, 0.196838, 0.189154, -0.308752, -0.019245, -0.091574, -2.91749, 0.253404, 0.042765, -0.069502, -0.385445, -0.03433, -0.164896, 0.121864, -0.037539, 0.022703, 0.060047, 0.015021, 0.400438, -0.173624, -0.034855, -0.047267, -0.04874, 0.065257, -0.314093, -0.028284, -0.018247, -0.064865, 0.114283, 0.422179, -0.048893, 0.217007, 1.8548, 0.116243, -0.039352, 0.171926, 0.157689, -0.322627, -0.009519], [-0.31198, -0.028209, 0.354701, 0.064745, 0.288833, -0.1539, -0.091082, -0.029987, 0.455146, -0.051263, -0.379885, -3.12669, 0.418679, 0.0379, 0.194897, 0.046793, 0.326586, -1.41266, 0.172763, -2.03192, 0.501746, 0.150773, 0.269114, -0.112646, -0.446034, -0.035623, 0.12991, 0.007089, 0.004931, 0.191026, 0.026602, -0.025217, 0.032167, 0.054803, 0.1969, -0.051203, 0.020255, -0.313697, -0.289838, 0.424786, -0.299801, -0.135411, -0.220994, -0.06321, 0.082497, 0.021783, -0.149863, -0.085563, 0.177669, 0.114877], [0.273578, 0.010758, 0.18171, -0.483112, 0.194973, 0.172834, 0.577129, -1.21272, -0.014707, -0.757787, -0.151814, -2.26068, 0.335926, -0.391923, -0.816535, -0.043754, -0.345064, 1.61925, -1.06427, -0.881037, -3.47024, -0.14394, 0.157354, 0.393613, 0.059714, -0.045106, -0.600524, -0.403737, 0.034541, 0.855524, 0.27777, 0.041643, 0.028976, 0.004496, -0.592556, -0.642259, -0.02601, 0.273073, 0.785597, -0.262206, 0.328106, 0.055051, -0.896423, 0.681456, 0.440705, -0.023015, 0.180147, 0.703131, 0.296964, 0.845801], [-1.15889, 0.041693, -1.37292, 0.092038, -0.368497, 0.639504, -2.9552, -0.218377, -1.5787, -1.07416, -1.5477, -1.69537, -0.356861, -0.306731, 0.147533, -0.028589, 0.948957, 0.022782, -1.46717, -0.052455, -0.801669, -0.354249, -0.841229, -3.01757, 0.630257, -0.038999, -0.160462, -1.31566, -0.048467, 1.70526, 0.962813, -0.02175, 0.046236, 0.007521, 0.4251, 0.167209, -0.041434, -0.152849, -5.96051, -1.34074, -0.542215, -1.90548, 1.62789, -0.694752, 0.425116, -0.022643, -0.111022, 0.968364, -0.197667, 0.243428], [-0.097105, -0.027403, 0.230016, 0.019936, 0.161483, 0.016176, -0.649756, 0.444033, -0.07108, -0.506126, 0.079304, -1.98624, 0.829151, 1.25115, -0.082851, 0.022413, -0.374108, -0.976943, 0.656963, 0.417626, -0.507751, 0.906195, 0.377283, 0.831341, -0.780218, -0.046115, -0.327132, 0.942548, 0.033384, 2.2195, -0.282162, 0.007437, -0.009279, 0.098719, -1.22164, -0.237615, 0.003176, -1.09278, 1.17419, 0.53374, -0.911532, 0.336023, 0.033878, 0.299954, -0.38593, 0.048363, -0.191437, -0.509824, -3.41251, -1.22229], [-0.043713, -0.028304, 0.017506, -0.048461, 0.011447, -0.006452, -0.006781, -0.065964, 0.030184, 0.033078, -0.075629, 0.042289, -0.013925, -0.042195, -0.019892, -0.021726, 0.005635, 0.023547, 0.008044, -0.050158, 0.020772, 0.007387, -0.037787, -0.025062, -0.071263, 0.042244, -0.001897, -0.040769, 0.013527, 0.001811, -0.048346, -0.013032, -0.033298, -0.021188, -0.045278, -0.03303, 0.019441, 0.021658, -0.039692, 0.00893, 0.014247, -0.014474, -0.032138, 0.029451, 0.022225, 0.012796, -0.035741, -0.020977, -0.012211, -0.034742], [0.424191, 0.00643, 1.00002, -0.108034, 0.240406, 0.636014, 0.192572, -0.341114, -0.107427, 0.171354, 0.167385, -0.409133, 0.02544, 0.110707, 0.164299, -0.043667, -0.033583, -0.161335, 0.361177, -0.004496, 0.323101, -0.20288, 0.03978, 0.18535, -0.730596, -0.022669, -0.128231, 0.041205, -0.007832, 0.090839, 0.073291, 0.048036, -0.011734, 0.051787, 0.205087, 0.454542, -0.009693, 0.520362, -0.250781, -0.037206, -0.09557, 0.063203, 1.23319, -0.136063, -0.015169, 0.049474, -0.673661, 0.146512, -0.745986, 0.083217], [-0.218689, 0.016321, -0.676545, 0.464341, 0.5294, -0.515424, -0.412783, 0.574018, 0.285976, 0.092475, 0.008093, -1.15609, -0.580637, 0.065573, 0.020777, 0.015995, -0.295712, 0.35272, 0.146039, -0.403043, -0.575089, -0.327185, 0.807765, 0.021752, -0.058487, -0.044148, 0.219205, 0.099152, 0.000823, 0.768875, -0.397299, -0.006379, -0.042543, 0.076392, -0.29954, -0.066699, 0.028208, 0.493189, 0.104918, 0.528874, 0.025947, 0.117359, 0.527796, -1.77188, -0.022331, -0.005673, -0.335318, -0.648553, -0.362111, -0.020015], [-0.533416, 0.034176, 0.052633, 0.058148, 0.143653, -0.30415, -0.164241, -0.138488, -0.467471, -0.170474, 0.166334, -2.30943, -0.386742, -0.218029, 0.093856, 0.010259, 0.314653, 0.280604, 0.156807, -0.908121, 0.316138, -0.077447, 0.998659, -0.216653, -0.45247, -0.006259, 0.182779, 0.00718, 0.003114, -0.012653, 0.643075, 0.008734, -0.047529, 0.113938, -0.05939, 0.055268, 0.018617, 0.097507, 0.173795, 1.17848, -0.031379, -0.26915, -0.710542, 0.648851, 0.168858, -0.007394, 0.027871, -0.299593, -0.127517, -0.320804], [0.014724, -0.036603, 0.419015, -0.07738, -0.63803, -0.843703, 0.826813, -1.32175, 0.412737, 0.280099, -1.19591, 1.33081, -0.118826, 0.624551, -0.068031, -0.01011, -0.254863, -0.854844, -0.235784, -3.18528, 0.002542, 0.318198, 0.861083, 0.135772, 0.202213, -0.032754, -0.592729, 0.019615, 0.017889, -0.294676, 1.01723, 0.013382, -0.016558, -0.034385, -0.320935, -0.374523, -0.028952, 0.000201, 0.059765, 0.400569, -0.724333, 0.01209, -0.320083, -0.531298, -0.909592, 0.034995, 0.629535, -0.706031, 0.212359, 0.015658], [-0.356977, -0.01195, 1.30019, -0.05504, 0.377051, 0.16744, -1.3625, 0.580284, -0.723223, -0.604746, 0.705641, 1.37189, -0.289594, -0.12013, 0.155, 0.042218, -0.626128, 1.90864, 0.429494, 1.29018, 0.195634, -0.080692, -0.156808, 0.34042, -0.5237, 0.034559, -0.004713, -0.257325, -0.024994, 1.48213, 0.622311, -0.015861, 0.02632, 0.088767, 1.1258, -0.367853, 0.001616, 0.313609, -0.705361, -0.251254, 0.386326, 0.320152, 2.4775, 2.00215, 0.237564, -0.008143, -0.563146, 0.075889, -0.408931, 0.163649], [0.41906, -0.01364, 0.377934, -0.034992, -0.421978, -0.313928, 0.06702, -0.09384, 0.282228, 0.012901, 0.532361, 0.791769, -0.10004, 0.465838, -0.196604, -0.025282, -0.280486, 1.94703, 0.117616, 0.706149, -0.114911, 0.322427, -0.086695, -0.028139, 0.001581, 0.029298, 0.318531, 0.514916, 0.042473, 0.339346, -0.056325, -0.00333, 0.013462, -0.029171, -0.034314, -0.298699, -0.013032, 0.066298, 0.238303, -0.027919, -0.598664, 0.171176, -0.612978, -0.799767, -0.072025, -0.001562, 0.140496, 0.023125, -0.05017, 0.506085], [-1.05882, 0.025588, 0.093709, -0.042408, 0.250865, -1.5501, -2.07881, 0.049586, -0.897796, 3.24247, 0.234812, 0.479619, -0.196115, 0.767733, -1.43976, -0.028527, -0.387601, -4.72308, 0.238604, 5.18145, -0.069718, -0.151067, 0.248904, 0.416885, -0.095755, -0.01283, 0.727556, -0.008143, -0.051248, -1.33956, 1.60401, 0.024697, 0.031897, -0.050594, 0.106902, -1.30691, -0.017908, 0.099728, 0.320467, 0.063583, 0.022125, -0.086266, -1.59978, -0.394275, -0.398689, -0.049299, -1.3405, -0.081479, 0.546063, 0.553993], [0.470243, -0.014958, -1.26553, -0.190349, -0.390406, 0.363327, -0.516947, -0.056885, -0.134255, -0.640731, -0.542344, 4.08446, 0.051794, -0.390783, -0.014029, 0.042392, 0.194736, -1.87323, -0.017011, 1.2563, 0.880577, -0.570411, 0.176002, -0.234343, 0.108602, 0.030695, -0.294548, -0.210926, 0.036972, 1.48124, -0.070709, -0.006716, 0.050905, 0.10497, -0.309097, 0.232314, 0.055649, 1.38732, 0.086209, -0.006812, 0.58133, 0.265781, -0.704388, -0.256749, 0.383225, 0.028657, -0.509867, -0.956138, -0.120737, 0.13636], [-0.048502, 0.050065, -0.015339, -0.022082, -0.024287, 0.025647, -0.051893, -0.053162, 0.031552, -0.042716, 0.002912, 0.03939, 0.002868, 0.015737, -0.006073, 0.04689, 0.005245, -0.044326, 0.013346, -0.010355, -0.048253, 0.013519, -0.014887, 0.038263, -0.058147, -0.016475, -0.010527, 0.021311, -0.019119, -0.015488, 0.045756, 0.01642, 0.021731, -0.034081, 0.004819, -0.038298, 0.031204, -0.009722, 0.000324, 0.023565, 0.017618, -0.012726, 0.043807, -0.017384, -0.041283, -0.017597, -0.036642, 0.003871, 0.032048, -0.042888], [0.811723, 0.047597, -1.29215, 0.706284, 1.07419, 0.733811, -0.307372, 0.152588, -0.03574, -0.666964, 0.704625, 1.78861, 0.467642, -0.137252, 0.05762, 0.003758, -0.195487, -2.03935, 0.430761, -0.192074, 1.31403, 0.39123, 0.92076, 1.47084, -1.06251, 0.03842, -0.076084, 0.794082, -0.05111, 0.689137, -0.426613, 0.006498, -0.024139, 0.116268, 0.051511, 0.469358, 0.024254, -0.461534, -0.227788, 0.294148, 0.748238, -0.443862, 1.02149, 1.2144, -0.66151, -0.023911, 0.191804, 0.121868, 1.45688, 0.059465], [-1.94756, -0.020249, 0.4742, -0.34659, -0.119092, -0.143468, -0.164336, 0.531256, 0.277997, 0.366617, 0.674142, 0.937123, -0.063405, 0.682649, -0.569199, 0.005016, -0.418553, -1.386, -0.193899, 2.10542, 0.569542, -0.390097, 0.119512, 0.468464, 0.189762, 0.003208, -0.807248, -0.342607, 0.038651, 0.648432, -0.089471, -0.017508, 0.033618, 0.031968, -0.043285, -1.07355, 0.012711, 0.667987, -0.288908, -0.367949, 0.19677, -0.026783, -0.35209, -4.30425, -0.442695, -0.029724, 0.468863, 0.441924, 0.245937, -0.878637], [0.193067, 0.019658, -0.429581, -0.003007, 0.595073, -0.047975, -0.063717, 0.097686, 0.424664, -0.365478, -0.732157, 1.8546, 0.377843, 0.16931, -0.13541, -0.007036, 0.882979, 2.30867, -0.186381, -0.994323, -0.261175, 0.261256, 0.140637, -0.507494, -0.086319, -0.025846, -0.081083, -0.0005, 0.019149, -0.452345, 0.135463, 0.027182, 0.004804, -0.018142, -0.182618, -0.149388, -0.039162, -0.494193, 0.099504, 0.125473, 0.060861, 0.348289, 0.403218, -1.78397, 0.92764, 0.032214, 0.483622, -0.180978, -0.013632, 0.178885], [0.048882, 0.033482, 0.400713, -0.167048, -0.081187, -0.399947, -0.014244, 0.399672, 0.156809, 0.537028, -0.326199, 3.04223, 0.135588, 0.28314, -0.282394, -0.019104, -0.353614, 1.13675, -0.336529, 1.306, -0.086039, -0.464328, 0.779965, -0.418737, -0.070547, 0.041614, 0.10834, -0.145836, -0.006452, -1.63299, 0.161985, -0.013117, 0.010446, 0.075728, 0.145055, 1.09975, 0.042083, 0.2375, -0.369163, 0.841234, 0.012262, 0.174753, 0.299153, 1.97283, -0.06002, -0.029967, -0.308899, -0.518136, 0.038134, 0.020314], [-0.192849, 0.017032, 0.18563, -0.143481, 0.072257, -0.199608, -0.710967, -0.412126, 0.136711, 0.185527, 0.359034, -2.71226, 0.418719, 0.368378, -0.033943, 0.015501, -0.101497, 3.13249, 0.41266, -0.023091, -0.595675, -0.395817, 0.050725, -0.087903, -0.381549, -0.009628, 0.257233, 0.004849, -0.001001, 0.830607, -0.739186, -0.038692, -0.028126, 0.121634, -0.289041, 0.033148, -0.032883, -0.123679, 0.034524, 0.130306, 0.35467, -0.033399, 0.491018, -1.28675, 0.16132, -0.035696, -0.116548, 0.345989, 0.271264, 0.454823], [1.20845, -0.025072, 0.700711, -0.048445, 0.51089, 0.166012, 0.36036, 0.384475, -0.451609, 0.100324, 0.121743, -0.597777, 0.017165, -3.60403, 0.134867, 0.002926, 0.074615, 1.41625, 1.0942, 0.118786, 0.083779, 0.118658, 0.309643, -0.023575, -0.629225, -0.005802, -0.29709, -0.579371, -0.047514, 0.661349, -0.327842, -0.04669, 0.039392, 0.035167, -0.483099, 0.540215, -0.047328, -0.16311, -0.303632, -0.495867, -0.624034, -0.064845, 0.781707, -0.209653, -0.109907, 0.046443, -0.541875, 0.166561, -2.06311, -0.32363], [0.219872, 0.044631, 0.339797, -0.348211, 0.003862, -2.08923, 0.477852, -0.095988, 0.101868, -0.399556, -0.112942, 0.431275, 0.031031, -0.976042, -0.14399, -0.046732, -0.036636, 0.418186, 0.681791, 0.473425, -0.474322, -0.410927, -0.313198, 0.750663, -0.115461, 0.018651, -0.125159, -0.43622, -0.003306, 0.857797, -0.319603, -0.033267, -0.032318, 0.002462, 0.262133, 0.105494, 0.029469, 0.53341, 0.316793, -0.095732, 0.237201, -0.11971, 0.276354, -0.832757, 0.007916, -0.020764, 0.098817, -0.29153, -0.116846, 0.678834], [0.010828, 0.041328, 0.464049, 0.038575, -0.350178, -0.082244, 0.386308, -0.046903, 0.364918, 0.21151, 0.787649, -1.34822, 0.84728, -0.00308, 0.264521, 0.035394, -0.054802, 0.446689, 1.09226, 1.39826, -0.241791, -0.212644, 0.25108, 0.76823, -0.335913, 0.03164, 0.278929, 0.17996, 0.000614, 0.766261, -0.977758, -0.013802, -0.032922, 0.086065, 0.184041, 0.970014, 0.059614, 0.317456, 0.611044, 0.063663, 0.024174, -0.367481, 0.745125, 2.48234, 0.401826, 0.013937, -0.58228, -0.382051, 0.688414, 0.673213], [0.701439, 0.003704, 0.273613, 0.096726, -0.329735, -0.204078, -0.142279, -0.182761, 0.345583, -0.307568, 0.562897, -2.54835, 0.297203, 1.14547, -0.391417, -0.028577, -0.059884, -1.60777, 0.324949, -0.478089, -0.13986, -0.068976, 0.025664, -0.173226, 0.079449, -0.002, 0.225514, 0.369282, -0.046511, -0.653108, 0.496135, -0.009599, 0.009234, 0.011906, 0.093781, 0.107282, 0.019222, -0.062369, 0.021409, -0.343607, -0.485336, 0.441365, -0.803901, -1.18843, 0.022071, -0.013667, 0.155841, 0.244176, 0.433896, -0.170634], [0.253112, 0.024492, 0.478615, 0.338304, -0.090423, -0.045275, 0.208965, -0.08526, -0.028405, -0.665976, 0.307036, -1.33667, -0.04279, 0.552161, -0.245779, -0.024546, -0.702547, 0.324385, 0.111063, -0.171157, -0.225881, -0.478077, 0.081376, 0.083733, -0.241107, -0.011526, -0.149566, 0.33686, -0.00036, 0.220602, -0.277345, 0.022404, -0.020448, 0.007157, -0.280997, 0.048775, 0.022501, -0.113984, 0.071378, 0.070887, -0.380172, 0.253231, 0.334685, -1.10137, -0.039229, -0.033358, 0.130311, 0.060523, -0.158491, -0.167757], [-0.26201, 0.02482, 0.31682, -0.152958, -0.534595, -0.863928, 0.548541, -0.205316, -0.249497, 0.758693, -0.212738, -0.425151, 0.451148, 0.098146, -0.205192, -0.002865, 0.18858, -0.788984, -1.46899, 0.498506, -0.36352, 0.721726, 0.406411, -0.405134, 0.368596, 0.045943, 0.96947, -0.468847, 0.05548, -0.260854, 0.184159, 0.048865, -0.040029, 0.100803, -0.101592, 0.153536, -0.027005, -0.154979, -0.309229, -0.233794, -0.478824, 0.690999, 0.803683, -1.42957, 0.325947, -0.023199, -0.192153, -0.054634, -0.653829, 0.572982], [1.99898, -0.008026, 0.918328, 0.264156, -0.047938, 0.210312, 0.150352, 1.04292, -0.517945, 0.669596, 0.017795, -0.03051, 0.3774, -0.697366, 0.038516, 0.026266, 0.126107, -0.640998, -0.381112, 1.1852, -0.736478, 0.463587, -0.446268, 1.15641, -0.241299, 0.042429, -0.547454, 0.158235, -0.01385, -0.082535, 0.942664, -0.021943, -0.040269, 0.10758, -0.012674, 0.80591, 0.013261, -0.413093, -0.128184, -0.739257, 0.364709, 0.620483, 0.428483, 0.241567, 0.356389, 0.02463, -0.421162, 0.839524, -1.04588, 0.375286], [0.566798, -0.015415, 0.385468, -0.345835, 0.171658, 0.569693, 0.106661, -0.08312, 0.452397, 0.88603, 0.62358, 2.48274, 0.632382, 0.419753, 0.37563, -0.000967, -0.515256, -4.81069, -0.472756, -0.500409, 0.330734, -0.465316, 0.417561, 1.27781, -0.065772, 0.038571, 0.11347, -0.274975, -0.045931, -0.436909, 0.195711, -0.022636, -0.044112, -0.021078, -0.166925, 0.261358, 0.012756, 0.477489, -0.652172, 0.397335, -0.01461, 0.121283, -3.54466, 0.978763, -0.66482, 0.042791, -0.930045, 0.765282, 1.34003, -1.38643], [-1.51261, -0.012652, 0.22386, 0.059446, -0.600283, 3.67411, 1.01479, 0.371318, -0.08127, -0.260662, 0.332823, 0.23367, 0.384433, -0.346772, 0.054072, 0.026737, 0.654001, -0.881333, -0.191005, -0.445943, -0.057735, 0.050697, 0.371781, -0.947526, -0.321269, 0.021758, -2.25277, -0.132062, 0.036128, 0.744496, -0.516721, -0.005507, 0.017224, -0.053944, -7.06394, 0.452687, 0.018933, -0.031078, -0.254241, 0.22645, 0.391156, 0.080411, -0.292225, 0.884052, -0.239087, -0.010937, 0.708965, -0.556407, -0.26749, -2.34417], [0.448335, 0.042127, 0.162158, 0.092186, -0.416273, -0.084237, -0.156123, -0.14439, 0.582283, -0.210539, 0.255107, 0.694074, -0.095315, -0.027558, 0.030786, -0.000188, -0.638972, -0.066168, -0.02707, -1.79231, 0.256994, -0.253731, -0.565864, 0.239004, 0.385777, 0.020693, 0.050814, 1.49145, 0.037475, 0.878337, 0.354603, -0.018942, 0.026118, 0.010288, 0.185217, -0.052934, -0.044154, -0.123112, 0.312008, 0.304006, 0.475819, -0.181238, -0.733283, 1.07181, 0.155594, -0.023658, -0.086752, -0.040758, 0.237987, 0.111695], [-0.001047, -0.034544, -0.124828, 0.662042, -0.053369, -0.667412, 0.292, 0.079936, 0.206129, -0.371042, 0.019848, 0.016988, 0.342513, 0.236778, 0.363769, -0.028258, -0.616511, -0.527066, 0.072272, -0.372185, 0.188443, -0.049355, 0.456497, -0.475234, 0.211925, -0.00934, 0.325927, 0.573511, 0.009026, 0.454477, -0.441639, -0.029072, -0.029034, 0.113708, -0.397907, 0.210535, 0.017299, -0.683145, 0.01927, 0.182646, -0.104089, -0.441444, 0.011281, 0.376166, -0.490874, 0.000505, -0.074932, -0.058399, -0.142691, 0.450701], [0.217024, 0.007803, 1.02676, 0.303365, 1.04539, 0.065967, -0.2102, -0.658461, -0.031024, -0.508809, 0.942551, 0.973094, 0.37826, 0.229148, 0.387798, -0.003131, 0.203925, 1.26844, 0.944147, 0.883051, -0.74661, -0.016295, -0.175711, 0.232595, 0.15608, 0.000295, 0.066848, -0.239225, -0.03321, 0.215757, -0.321465, -0.031855, 0.020037, 0.142059, 0.019399, -0.100187, 0.022992, 0.774773, 0.435541, -0.241223, -0.018168, 0.029873, 0.536391, 2.96672, 0.08132, 0.031157, -0.161308, -0.962222, 0.58227, 0.088505], [0.472338, -0.044204, 0.773924, -0.213614, 0.074835, -1.575, 0.153742, 0.058943, 0.054391, -0.41689, 0.603863, -1.05759, -0.109514, -0.653171, -0.072384, 0.004852, -0.439688, -0.000322, 0.498112, -4.93863, -0.253005, -0.832985, -0.348219, -0.09951, -0.949126, 0.038194, -0.055489, -0.812613, -0.041722, 0.863163, -0.209419, -0.031387, -0.023179, -0.038828, 0.27196, -0.985987, -0.038035, 0.453648, -0.147951, 0.004254, -0.820205, 0.610854, 0.760174, 2.21223, -0.012543, -0.002964, 0.046552, -0.196769, 0.65923, -0.138436], [0.826483, -0.013512, 0.064214, -0.145254, 0.254249, -0.165132, 0.778763, -0.056703, 0.436153, 0.360529, -0.091621, -1.77034, 1.29579, 0.127854, -0.169379, -0.031612, -0.341315, 4.77226, -0.662983, 1.62071, 0.009812, -0.214386, 0.277588, -0.4308, -0.31241, -0.010141, -0.210713, 0.04606, -0.017453, 1.41498, 0.160484, -0.018337, 0.020109, 0.078355, -0.169744, -0.26382, 0.040713, 0.106402, 1.10173, 0.474611, -0.09537, 0.130992, 0.014059, -0.215494, 0.372584, 0.06185, 0.084627, 0.333614, 0.006949, 0.072652], [-0.607317, -0.009408, 0.769395, 0.206347, 0.173493, -0.644046, 0.197786, -0.036451, -0.327175, 0.89306, 0.21131, 0.729483, 0.394899, 0.511144, 0.286259, -0.021874, 0.034712, 1.49272, 0.091991, 0.343073, 0.400587, -0.32233, 1.07261, -0.492335, -0.53879, -0.00635, 0.491704, 0.386907, -0.039931, 0.008171, -0.003247, -0.02128, -0.047877, 0.087139, -0.135177, -0.507813, 0.035029, -0.44676, -0.141654, 0.898457, -0.118533, 0.168321, -0.448412, 0.287799, -0.6225, 0.016864, 0.059104, -0.021028, -0.283868, -0.177577], [-0.213194, -0.041868, -0.168547, -0.124119, -0.324424, -0.196572, 0.49814, -0.246446, 0.689001, 0.080947, 0.128713, -2.58351, -0.346864, 0.076767, -0.07168, -0.001811, 0.094295, -0.624782, -0.21787, 0.728454, 0.021853, -0.18945, 0.404006, -0.212826, -0.459046, 0.040309, 0.257686, 0.172753, 0.023901, -0.451734, 0.000966, 0.035743, 0.026538, 0.102134, -0.367266, 0.790826, 0.006358, -0.029086, -0.021951, 0.599876, -0.138082, -0.481708, 0.117019, -1.20597, 0.263229, 0.034059, -0.239897, -0.186882, -0.017537, -0.131741], [-0.083227, 0.037373, 0.338695, -0.137149, 0.192928, -0.843194, 0.980822, 0.359111, -0.02462, 0.506441, -0.08556, -0.758622, 0.034957, 0.330104, 0.364883, -0.005133, -0.12368, -0.222542, -0.073187, 0.161306, -0.209929, -0.468201, 1.08538, -0.778275, 0.288658, 0.013256, 0.604523, 0.133204, 0.010703, 0.645318, -0.748421, 0.014886, 0.034175, -0.004385, -0.693334, 0.755585, 0.037401, -0.016379, 0.247779, 0.569544, -0.185582, 0.131957, 0.043381, 2.1397, -0.04525, 0.016136, -0.449213, -0.469443, -0.465428, -0.065971], [-0.916259, -0.016683, -1.08602, -0.098915, 0.135439, -0.886564, 0.650741, 0.069211, -0.051398, 1.07739, 0.111072, 0.339013, 0.104301, 0.703897, -2.5309, 0.022025, -0.157054, -0.38488, -0.04072, 1.26365, 0.07933, -0.577858, -0.219032, -0.32388, -0.177428, 0.015998, 1.34511, 0.798045, 0.043461, -0.501089, -0.056115, -0.007313, -0.02971, -0.045612, -0.103988, 1.88598, 0.026678, -0.09512, 0.158822, 0.73055, -0.114018, -0.869323, 0.319447, -0.121855, -0.342986, 0.001208, -0.1612, -1.03781, -0.486951, 0.02394], [-0.04151, 0.018077, 0.005603, 0.014668, -0.005663, -0.0172, -0.010405, -0.031722, -0.014765, -0.014585, 0.004768, 0.0367, -0.05789, 0.002646, -0.001776, 0.011532, -0.010645, -0.005002, -0.048806, -0.02921, 0.035648, 0.003605, -0.001798, -0.034797, 0.008462, -0.003548, -0.006488, 0.028861, -0.012657, -0.046827, -0.001912, -0.037713, 0.048255, 0.014548, -0.057247, -0.047835, -0.033656, -0.002537, -0.014041, 0.014631, -0.044268, 0.016731, -0.021506, -0.046317, -0.00579, 0.00908, -0.042199, 0.022914, -0.012838, 0.00783], [-0.271624, -0.033045, -0.668904, 0.073508, -0.406969, -0.355568, -0.002154, -0.064551, 0.40806, 0.855948, -0.050169, 1.66845, -0.304211, 0.077368, 0.075735, -0.032083, 0.439801, -2.65589, 0.44707, -0.741852, 0.01935, -0.20976, 0.470537, 0.240391, 0.171758, -0.008545, 0.439089, 0.178926, -0.02696, 0.132992, 0.426119, 0.003653, -0.018051, 0.064956, -0.173482, 1.05706, -0.028298, -0.430371, 0.052172, 0.67387, 0.022861, -0.201203, 0.502734, 0.700754, 0.271616, -0.019785, -0.212576, -0.07803, 0.047844, 0.344057], [-1.33539, -0.030891, 0.096685, -0.289353, -0.313481, -2.32134, 0.895029, -1.42497, 0.551553, 0.945858, -1.78396, -0.091625, 0.134907, 0.914878, -0.268273, 0.042858, -0.128641, -1.6505, -0.174849, -1.96209, -0.074158, 0.234201, 1.31598, -0.342729, -0.293273, -0.009234, -0.568076, -0.124153, 0.030276, -0.581355, 0.360889, -0.033226, -0.009054, -0.040825, -0.364263, 0.390081, -0.009924, -0.410579, 0.580561, 0.959228, -1.05342, 0.257054, 1.53019, -1.78077, -0.500975, 0.037337, 0.659635, -0.75258, -0.291443, 0.509921], [0.027972, 0.042383, -0.313549, -0.322976, 0.593025, -0.098048, 0.532435, 0.313089, 0.887046, -0.047842, 0.756881, 2.50335, 0.539887, 0.42637, -0.160993, -0.045454, 0.018285, 0.819262, -0.705812, 0.009364, -1.13905, -0.300459, 0.380455, 0.020565, -0.139339, 0.03245, -0.224587, 0.408189, -0.03296, -1.53074, -0.575349, 0.048017, -0.014318, 0.092288, -0.22866, 0.149001, -0.003037, -0.108955, 0.315263, 0.684348, -0.317897, 0.012335, 0.470213, -1.41413, 0.001209, 0.023807, -0.546951, -0.302501, 0.103095, 0.23148], [0.411429, -0.00284, 0.043697, 0.07041, -0.016207, 0.228643, 0.318438, -0.71009, 0.180284, 0.397923, 0.896608, -0.073972, 0.454578, -0.35727, -0.244964, 0.047117, -0.392693, 0.871966, -0.156765, -0.523135, 0.160342, 0.349677, -0.089313, 1.02737, -1.23735, -0.025624, -0.697667, -0.031668, -0.020038, 0.862382, -0.76884, -0.022611, -0.045444, -0.058887, 0.138186, 0.023796, 0.004738, 0.084525, 0.081307, 0.50307, -0.2035, 0.287912, 0.364561, -4.46454, 0.341122, -0.022708, -0.272639, -0.258587, -0.411783, 0.213827], [0.348388, 0.031771, 0.657055, -0.276306, -0.296771, 0.719345, -2.40855, -0.459393, 1.21774, 0.195148, 0.98478, -0.607089, -0.686937, -3.10453, 1.47866, -0.000199, -1.11558, -1.0646, 0.799912, -1.42901, -1.72633, 0.546042, -0.431102, -0.721754, -1.23244, -0.000382, 0.150895, -2.83328, 0.020192, 2.74208, 0.016785, -0.021795, 0.041516, 0.036455, -1.09747, -0.778216, -0.001328, 0.965517, -0.918569, 0.814399, 0.4908, 0.393945, -0.172673, -1.78816, 0.687356, -0.020573, -1.41679, -1.97765, -1.52181, -1.49778]], [[-0.169979, -0.354828, 0.551086, -0.421993, 0.225437, 0.282494, 0.528042, -0.535572, 0.756147, -0.0697, -0.49357, -0.037101, 0.526459, 0.550056, 0.064241, -0.92759, -0.033207, -0.049523, 1.2238, 0.23706, -0.029537, 0.085388, 1.5339, -0.713965, 0.248887, 0.578732, 0.239683, 1.46087, 0.026419, 0.683014, -0.636828, -0.865377, -0.535919, -0.758333, -0.456476, 0.282313, -0.060622, 0.477789, -0.419926, -0.458176, -0.082049, -0.364553, -0.055555, -0.397615, -0.039734, 0.08426, 0.074621, 0.540508, -0.174088, 0.147588], [0.886485, -1.23031, 0.796054, -3.87513, -0.068801, 0.188453, -1.50682, -0.56407, 0.324195, 0.159427, 0.925891, 0.006804, -0.127439, -0.318845, 0.502177, 0.489507, 0.061998, -0.721388, -0.104588, -0.287489, -0.028829, -0.556119, -3.14243, -0.112981, 0.279657, -0.582598, -0.989088, -0.078824, 0.536747, -0.319671, -0.121406, 0.578906, 0.079995, -0.564193, -0.242649, 0.066112, 0.456627, 0.595479, -0.220276, 0.273464, 0.105447, -0.627201, 0.48216, 0.186085, 0.004396, -0.460569, -0.150567, -0.110524, -0.357705, -0.13223], [-0.248485, -0.442088, 0.393782, -0.606708, -0.608564, 0.447561, -0.244399, 0.249728, 0.280592, -0.093737, 0.223638, -0.018187, 0.518332, 0.171816, 0.006298, -0.835985, -0.18848, 0.110844, -2.46066, -0.010704, 0.04626, 0.017096, 0.872614, -0.136464, -0.516883, 0.153201, -0.053008, -0.51965, 0.077443, 0.785957, 0.028857, -0.326232, 0.29391, -0.176795, -0.071156, -0.308734, 0.6995, -0.000395, 0.260348, -0.119498, -0.055319, 0.758246, -0.381904, 0.003308, 0.015075, 0.115413, 0.221729, 0.011952, 0.367824, -0.120506], [-0.187435, -0.216299, 0.18674, 0.682278, 0.20306, -0.907721, 0.065304, 0.185293, -0.136817, -0.150635, -0.59858, 0.0247, -0.3458, 0.118784, 0.62581, -0.758511, 0.244734, -0.232717, -0.051153, 0.209323, -0.029222, -0.319647, 0.165408, 0.119654, -0.15163, 0.421716, -0.282633, 1.32362, 0.103176, 0.297213, -0.091201, -0.311753, -0.13039, 0.704347, 0.023, 0.114537, 0.037771, 0.13773, -0.144313, -0.311878, -0.096252, -0.52865, -0.322725, -0.023218, 0.002394, -0.098917, 0.754455, 0.5529, -0.785527, 0.061098], [-0.101546, 0.064206, -0.135104, -1.68313, 0.055159, 0.007771, 0.134613, 0.033819, -0.283707, 0.020866, -0.06108, -0.013153, 0.087331, 0.087977, 0.054751, -0.01499, 0.136915, 0.007578, -0.054281, -0.068911, 0.005333, 0.092356, 0.212934, 0.485167, -0.052433, -0.302777, 0.013921, -0.341815, 0.083393, 0.032596, -0.057325, -0.025371, -0.096399, 0.04761, -0.093094, -0.16694, -0.157287, 0.050242, 0.067686, 0.406758, -0.159326, 0.21253, -0.134334, 0.110398, 0.036355, 0.215212, -0.039191, -0.073895, 0.328695, -0.024028], [0.688647, -0.543272, 0.421631, -0.59276, -0.299379, 0.480399, -0.279869, -0.347266, 0.567802, -0.036153, -1.06748, 0.006889, 0.7915, 0.190963, 0.395559, 0.012445, -0.389532, -0.211223, -0.125919, -0.212272, 0.029941, -0.184252, -0.452608, -0.482955, 0.661231, -0.297421, -0.843314, 0.403773, 0.270037, -0.019982, -0.307601, 0.273283, -0.310201, -0.133091, -0.653189, 1.01462, -0.03415, -0.339707, 0.204684, 0.375373, 0.675161, 0.399175, 0.161282, 0.584116, -0.023447, 0.099132, 0.743056, 0.356828, 0.24805, -0.20661], [-0.077635, 0.033468, 0.058959, 0.613202, -0.010745, -0.110366, -0.29399, -0.439396, 0.402926, -0.035379, -0.082221, 0.045046, -0.219613, 0.446998, -0.176749, -0.048595, -0.078228, 0.330755, 0.589304, -0.137396, -0.049247, -0.588362, -0.040409, -1.11392, -0.257106, 0.080401, 0.010366, -0.596849, -0.672221, -0.064755, -0.091771, 0.293341, 0.197554, 0.614438, -0.024349, -0.131125, 0.411567, 0.244795, 0.180782, -0.127587, -0.466273, 0.336341, 0.257245, -0.068885, 0.00307, -0.291482, 0.14005, 0.153035, 0.521205, 0.034057], [0.264257, -0.077064, 0.69627, -0.368808, -0.223573, 0.19226, -0.130322, -0.413204, 0.067366, 0.513871, -1.0111, -0.035838, 0.730094, 0.173031, 0.372498, 0.215861, -0.152579, 0.0604, 0.140677, -0.265134, 0.026894, -0.180825, -0.307865, -0.144313, 0.022602, -0.068463, -0.837884, 0.094386, 0.253942, 0.134171, 0.096449, 0.065904, 0.140261, -0.921534, -0.507182, 0.971775, -0.00555, -0.599464, -0.026939, 0.259262, 0.50147, -0.250275, 0.688767, 0.720612, -0.041986, 0.223473, 1.77121, 0.221376, 0.011297, -0.038771], [-0.350108, 0.091746, -0.206596, 0.159443, 0.074106, 0.106816, 0.24656, -0.196815, 0.053691, 0.001791, 0.053753, 0.029301, -0.031032, 0.134548, 0.228551, 0.049372, -0.152257, 0.341637, -1.20127, 0.196468, 0.026481, -0.327726, -0.496334, -0.351073, -0.091093, 0.216551, -0.224539, -0.903144, -0.016157, -0.295754, 0.225258, 0.130309, 0.312903, 0.065712, 0.41304, 0.004911, -0.250285, -0.063151, 0.074929, 0.507122, 0.107197, 0.01585, -0.341592, 0.269325, 0.032149, 0.001159, 0.243531, 0.104253, -0.460475, 0.099152], [-0.135775, 0.108913, 0.073077, 0.214799, 0.900933, -0.668455, -0.808307, 0.065668, 0.140951, -0.060878, 0.253898, -0.000786, -0.03726, 0.496714, 0.154142, 0.747567, -0.201477, -0.124276, -0.043958, -0.105136, 0.010135, -0.022607, 0.184744, -0.524966, 0.00745, 0.375337, 0.144552, 0.223529, 0.088357, 0.436228, 0.166294, 0.318554, 0.082251, -0.152002, 0.544355, -0.152533, -0.173308, -0.097089, 0.022939, -0.16205, -0.065543, -0.163595, -0.409012, -0.803631, -0.006977, -0.042391, -0.227089, -0.334592, -0.075194, 0.063479], [0.713431, -1.54358, -3.02542, -0.938091, -1.0106, 2.24843, 1.00144, 0.32601, -1.74561, -0.823801, -2.09222, 0.005934, 0.099978, -1.14609, 0.41246, -0.955774, 0.631414, 1.01227, -0.745061, 0.164389, -0.025202, 2.84545, -1.80351, -1.39727, -0.317605, -0.455769, -0.239211, -2.15653, 0.734811, -1.78706, -1.95042, -1.58437, -1.45488, -0.21913, -0.874629, -0.95817, 0.329975, 1.02536, -0.096308, 1.1726, -1.80599, 0.15726, 0.143507, -0.092511, -0.02416, -1.39998, 2.26545, -1.71667, -1.577, 0.379464], [-0.187419, -0.307995, 0.053247, -1.17113, -0.142103, -0.146583, 0.639088, 0.682922, 0.94235, 0.151557, -0.424056, 0.017, -0.434381, -0.112792, 0.338334, -0.455631, -0.255091, -0.05816, 0.182202, -0.192693, -0.011141, 0.337895, -0.381201, 0.542895, -0.154251, 0.297413, -0.030942, -0.371448, -0.096288, 0.024634, -0.218887, 0.212659, -0.067921, -0.057437, 0.147437, 0.343402, -0.118508, 0.232857, -0.304861, 0.229623, -0.129855, -0.033817, 0.394677, 0.02119, 0.007866, -0.404634, 0.272443, -0.134757, -0.093267, -0.091883], [-0.134749, -1.08849, 0.673781, 0.790112, -0.596421, -0.026061, -0.12224, -0.352485, 0.368147, -0.247527, -0.73255, -0.004805, 1.77727, 0.376624, 0.121451, 0.460192, -0.078396, 0.32916, -0.259118, -0.278787, -0.046159, -0.776312, 1.33085, -1.36975, 0.109439, -0.802177, -1.52213, 0.693198, -0.021155, -0.381472, -1.15633, 0.653616, -0.567105, -0.150972, 0.487787, 0.898919, 0.645865, -0.287703, 0.593545, -0.032554, 0.152407, -0.099185, 0.553837, -0.047331, 0.044834, 0.240431, 0.610765, -0.205668, -1.07326, -0.143331], [-0.186536, 0.362121, -0.247405, -0.110088, 0.179794, 0.374822, 0.357927, 0.463456, -0.587493, 0.084748, -0.168969, -0.045108, -0.1695, 0.060346, -0.055168, 0.349424, -0.053543, 0.189989, 0.370135, 0.0141, -0.020293, 0.677681, -0.07716, 0.082127, -0.029358, 0.418531, 0.207787, 0.451892, -0.047035, 0.585504, -0.17401, 0.283043, -0.074374, 0.115569, 0.216413, 0.005044, 0.024167, -0.072511, 0.000317, -0.036242, 0.404693, 0.274289, -0.56256, -0.239286, 0.035722, -0.083591, -0.963801, 0.357182, -0.650941, 0.017216], [0.588951, -1.94112, 0.421689, -2.49166, -0.164424, 0.193863, -0.508158, -0.968106, -0.881152, 0.219405, 0.298351, -0.049033, 0.242572, 0.081919, -1.84813, 0.366053, 0.35013, -1.83146, -1.10856, -0.125744, 0.044073, -0.422874, -0.422116, 0.21673, -1.04034, 0.000231, 0.433244, -0.505593, 0.391866, -1.19944, -0.153653, -1.30715, 0.371255, -0.41508, 0.797185, -1.32273, 0.1898, 0.680955, -0.985069, 0.196564, -0.153281, -2.09317, 0.384664, 0.063542, 0.02736, -1.0833, 1.517, -1.70571, -1.07864, 0.074933], [-0.433877, -0.284762, -0.192027, 0.228771, -0.078188, 0.793633, -0.470144, -0.162421, -0.642458, 0.269196, 0.055434, 0.029673, 0.657311, 0.791227, 0.023617, 0.614477, -0.331836, 0.277728, -0.268919, -0.079778, -0.004029, 0.115697, -1.15387, -0.650349, 0.187649, 0.553065, -0.162601, -1.34339, -0.093978, -0.546937, -0.303136, -0.015479, 0.496545, -0.489929, 0.272694, 0.438861, 0.062817, -0.657597, 0.459706, 0.211653, -0.277533, -0.540673, 0.027885, -0.066231, -0.048664, 0.210394, -0.472663, 0.549081, -0.681144, -0.183408], [0.106404, -0.964011, -2.79508, 0.33584, 0.090786, -0.371897, 0.188284, -0.250825, 0.829382, 0.043937, 0.918172, 0.047203, -0.084135, -0.675711, 0.501593, -1.6303, 0.574705, 0.821143, -0.228663, 0.434888, 0.008547, 0.3035, -0.875384, -0.567764, -0.254261, 0.264456, -0.417575, -0.214584, 0.303378, -0.43136, -0.213428, -0.925426, -0.859868, -0.150748, 1.12863, -1.73803, -0.249712, 0.474719, -0.732412, 0.240256, -0.004263, -0.529987, -1.20216, -3.22598, -0.028123, -0.440058, -1.04674, 0.048274, -0.450547, 0.6476], [-0.132471, 0.636111, 0.569006, -0.14784, 0.081381, -1.98959, -0.655228, -0.703976, 2.7561, 0.330027, 0.452151, -0.044842, -1.02689, 0.065974, 0.08053, 0.343112, -0.041249, -0.643769, -0.600368, -0.349203, -0.037646, 0.945197, 1.12558, -0.139814, 0.15454, 0.104941, 0.268957, -2.00176, -0.477581, 0.446693, -0.05225, -0.372702, 0.668111, 1.51633, -0.467878, -0.049445, 0.560128, -0.178396, 0.018314, -0.362388, 0.148661, -0.644832, 0.213707, -0.316197, 0.030209, 0.515974, -0.712365, 0.317844, -0.058853, -0.389127], [-0.061269, -0.200292, -0.202249, -0.664788, 0.091477, -0.026297, -0.120604, 0.158508, 0.146776, -0.094199, -0.224204, -0.01923, -0.000924, 0.268411, 0.134558, -0.294893, 0.059558, -0.297125, -0.533567, -0.010904, -0.029944, 0.193987, -0.273336, 0.15435, -0.078386, -0.190814, -0.116441, -0.57888, 0.084719, -0.002185, 0.12124, -0.0124, 0.05915, -0.142556, -0.122874, -0.073907, -0.171058, 0.048505, -0.039575, 0.308827, -0.02054, 0.486396, -0.209977, 0.11467, -0.014908, -0.041825, 0.112345, -0.084532, 0.269527, -0.04417], [0.4938, -0.20472, 0.238735, 1.49792, 0.342878, -0.142065, -0.692538, -0.654182, 0.820776, 0.532505, 0.197173, 0.0149, -0.066576, -0.06127, -0.077325, -1.03, 0.355181, 0.555981, -0.61126, 0.075944, 0.009909, -0.557969, -1.03029, 0.083516, -0.911563, 0.423827, 0.405405, 0.023682, 0.466358, -1.19767, 0.543215, -0.792374, 0.124542, 0.45658, 0.262689, -0.739789, -0.104906, -0.347642, 0.071338, -0.644451, -0.856439, -1.20489, -1.30299, 1.05326, -0.012962, -1.10885, -0.001769, -0.753933, -1.22704, -0.026047], [0.247017, -0.487213, -0.427204, -0.066951, 0.063554, -0.044694, 0.564489, 0.127327, 0.461522, -0.08777, -0.417936, 0.002846, 0.526514, 0.176433, 0.059812, -0.598449, -0.040468, -0.307295, -0.102203, -0.350993, -0.007822, -0.363107, -0.097657, -0.081, 0.389196, 0.3318, -0.694989, 0.650401, -0.137315, -0.153719, 0.570729, -0.125685, -0.204278, 0.085405, 1.03306, 0.304951, 0.393312, -0.088788, 0.317418, -0.271539, 0.401507, -0.478701, -0.681515, -0.746436, -0.001159, 0.259459, 0.077734, -0.06306, -0.121305, 0.054957], [0.976879, 1.05414, -0.076831, -0.274667, 0.072695, 1.17408, -0.892227, -0.786285, 0.966923, 0.042082, 0.242838, -0.008686, -0.472205, -0.393288, 0.303824, 0.183798, 0.776272, -0.870797, -1.05028, 0.776379, 0.012914, -0.111854, 0.183028, -0.197221, 0.287417, 0.247986, 0.139776, -2.54438, 0.193909, -0.072533, -0.417643, -0.782468, 0.346928, -0.108696, -0.82003, -0.286624, 0.661282, -0.359305, -0.62175, -0.232467, -0.568841, -0.300405, -0.736205, 0.560547, -0.001842, 0.193723, -1.15714, -0.728408, -1.02147, 0.215108], [0.086809, -0.165776, 0.554658, 0.389749, 0.03049, -0.238533, 0.087858, 0.106746, -0.290999, 0.101521, -0.245413, 0.033197, 0.457101, 0.016362, -0.420376, -0.528389, 0.082338, 0.400533, -0.305731, -0.139609, 0.010158, -0.081693, 0.471001, 0.463274, 0.139315, -0.19176, 0.239171, -0.777232, 0.206267, 0.065902, -0.056655, -0.22841, -0.251824, -0.317272, 0.027123, -0.600727, 0.052115, 0.009885, 0.12957, 0.092562, -0.170701, -0.063388, -0.552536, -0.291598, -0.037882, 0.475002, 0.428221, -0.526292, -0.161068, -0.274675], [0.678832, 0.440429, 0.526224, -0.945075, -0.398076, 0.85567, 0.283091, 0.178844, -0.686627, 0.033505, 0.521808, -0.010841, 0.02992, -0.006292, 0.246233, 0.111038, -0.115851, 0.443827, -2.62988, -0.291608, 0.002125, -0.504806, -0.923838, -0.016388, -0.131686, 0.544772, 0.213355, 0.27425, -0.192771, -1.46066, 0.454134, -0.575026, -0.125924, -1.49071, -0.266642, -0.027948, 0.307053, -0.242942, 0.305995, 0.281134, 0.152706, -0.063557, 0.476087, -0.431241, -0.002491, -0.462127, -0.928824, -0.264861, 0.086206, -0.238134], [-0.30557, 0.215885, 0.367383, -0.002904, -0.081414, 0.290646, -0.036658, -0.033916, -0.564647, 0.20208, 0.102275, 0.040332, -0.349539, 0.421119, -0.543517, -3.12672, -0.37556, -0.016647, -0.858694, -0.129086, 0.00959, 0.065949, -0.282685, 0.363107, -0.102177, 0.159322, 0.585657, -1.91536, -0.068338, 0.148788, 0.425073, -0.137285, 0.553682, 0.230337, 0.082755, -0.166686, -0.128174, -0.545165, 0.484608, 0.184389, -0.380826, -0.217616, -0.45653, -0.364196, 0.030171, -0.144057, -1.19508, 0.074013, 0.290088, -0.039327], [0.181766, -0.404824, -1.38966, -0.653095, 0.043978, -0.058454, 0.08629, -0.435512, 0.008477, 0.154461, -0.4694, -0.023692, 0.344264, -0.273808, 0.042122, -1.27772, 0.053156, -0.094236, 0.766067, 0.463019, -0.038174, 0.059387, -0.259641, -1.57938, -0.745035, 0.205817, 0.103895, 0.755579, -0.172152, -0.491778, -0.514965, 0.030467, -0.758213, 0.442856, 1.73712, -1.04168, 0.400417, 0.579852, -0.843549, 0.988522, 0.472193, 0.513178, -0.858223, 0.853817, 0.001928, -0.491502, -1.51852, -0.180727, 0.371555, -0.049817], [0.119383, -0.131698, -1.17691, -0.16102, 0.186358, -0.164993, 0.223001, -0.276224, -0.484374, 0.14506, 2.34056, -0.014828, -0.631368, -0.938991, 0.443836, -0.288833, 0.329183, -0.241897, -1.01471, -0.420445, 0.038998, 0.000695, 0.369624, 0.529909, -0.113779, 0.210582, 0.109369, -0.323374, 0.476013, 0.082466, 0.368769, 0.08966, -0.175452, 0.054838, 0.992883, -0.063546, 0.318434, -0.166237, -0.368926, -0.27597, -0.730324, -0.420577, -0.454997, -2.35679, -0.034281, 0.046494, -2.93423, -0.128753, -0.679443, 0.714484], [0.176593, -0.755289, -0.243894, -0.26537, 0.640381, 0.190497, 1.19169, 1.00282, 1.59257, -0.085839, 0.534389, 0.004954, 0.515138, -0.149697, 0.446241, -0.31866, -0.00798, 0.594737, 0.844298, 0.213178, 0.011418, -0.378043, 0.723731, -0.219622, -0.022531, 0.066141, -0.178141, -0.124778, 0.493901, 0.117658, -0.179546, 0.074583, -0.237909, 0.78453, 0.568127, -0.367893, 0.012109, -0.09879, -0.294697, -0.645274, -0.232498, 0.047608, -0.456835, -0.821396, -0.04327, 0.355082, -0.269996, -0.415381, -0.705686, 0.01984], [-0.69238, 1.11481, -0.797345, 0.249821, 0.587121, -0.488298, -0.527006, 0.575807, 0.180851, 0.206255, 0.868117, 0.033843, -0.845658, -0.753326, -0.507821, -1.60354, 0.413427, -1.02833, -1.24557, 0.687787, -0.00927, 0.379514, -0.668906, 0.477803, -0.778184, 0.590189, 0.821995, 0.602785, -0.21574, 0.146223, 0.324765, -0.569882, 0.361847, 0.554363, -0.367803, -0.886324, -0.341186, -0.095805, -0.470965, -0.67846, -0.310622, -0.288005, -0.211794, -2.39369, -0.028817, -0.40893, -1.61733, -0.224026, -0.818591, 0.166176], [-0.089918, 0.439478, 0.036529, 0.074856, -0.557304, -0.042322, 0.341708, 0.115549, 0.121217, 0.343185, 0.676417, -0.049931, 0.042891, -0.066621, -0.34069, 0.217602, -0.008119, -0.18318, 0.083788, -0.284126, -0.006764, 0.09074, 0.285817, 0.131842, -0.040629, -0.391599, -0.018461, 0.334893, -0.043267, 0.197291, 0.276248, 0.157334, -0.302344, -0.114202, 0.595403, -0.474804, -0.224025, 0.223663, 0.54076, -0.347916, 0.003164, -0.515393, 0.16322, 0.591422, 0.00859, -0.316216, 0.124755, -0.33254, 0.0961, -0.055138], [-0.421251, -0.066045, -0.40981, 1.08218, -0.095368, 0.067949, 0.957897, 0.423126, 0.216073, -0.155146, 0.541069, -0.059856, 0.001847, -0.04903, 0.087068, 0.611601, 0.30693, 0.359221, -0.525587, 0.019706, 0.000558, -0.48079, 1.21666, 0.57134, 0.038406, -0.164824, 0.454539, -0.918675, 0.134874, 0.189529, -0.008887, -0.357536, -0.115106, -0.108973, -0.466662, -0.382302, 0.092412, -0.185468, -0.171798, 0.130483, -0.197318, 0.15917, 0.155465, -0.527379, 0.010452, 0.49921, -0.822962, -0.042252, 0.983659, -0.321762], [-0.116083, -0.25347, -1.33775, 0.462928, 0.110946, 0.641196, 0.163205, -0.266137, 0.43921, 0.590326, 0.963137, 0.033326, 0.070478, -0.376499, 0.218691, -0.254915, -0.171301, 0.214654, 1.68238, 0.423365, 0.025117, 0.545163, -0.050844, 0.127273, 0.000966, 0.268353, -0.245815, -0.457707, 0.172488, -0.008249, 0.389135, -0.080514, -0.076289, 0.295943, 0.378934, 0.033462, -0.757792, -0.34697, 0.158941, 0.433217, 0.6056, 0.395058, -0.295675, 0.587327, 0.040401, -0.248507, -0.151098, 0.333707, 0.253566, 0.011808], [0.655655, 1.28176, -0.473306, 1.12509, -0.160351, -0.048958, -0.157632, -0.262779, -0.283584, -0.341934, -4.79385, 0.022629, -0.214815, -0.25337, 0.116546, 0.600244, 0.162219, -0.399336, -1.48064, 0.111606, -0.000191, 0.618084, -0.244746, 0.254635, 0.441711, 0.181115, 0.28962, -1.17463, -0.004002, 0.565462, -0.662154, 0.450088, -0.256154, 0.064422, 0.315474, 0.929495, 0.153809, -0.037465, -0.195523, -0.234815, 0.876007, 0.910674, -1.21885, -0.776672, 0.033472, -0.140457, -1.80182, 0.700373, 0.817546, 0.103387], [-0.734077, 0.332938, -0.373818, 0.044877, -0.392951, 0.660113, -1.02653, -0.599802, -0.427236, 0.154137, 0.299615, -0.024719, -0.348867, -0.492375, -0.589008, -1.44404, 0.915639, 0.481764, -1.73988, -0.657316, 0.037942, 0.18074, 0.890204, -0.110126, 0.117993, -2.51176, -0.492895, -2.71258, 0.855551, -1.01738, 0.398674, -1.82713, 0.577565, -0.394863, -1.83162, -1.06803, -0.906338, -0.454941, 0.077206, 0.004783, 0.779508, -1.21378, -0.514658, -2.00356, 0.01158, -1.35403, -2.96989, -0.19933, -0.491754, 1.08715], [0.030625, 0.000451, -0.0446, -0.015202, 0.013968, 0.017234, -0.015392, 0.035321, 0.044575, -0.000813, -0.003006, -0.014866, 0.025154, 0.025835, 0.022108, -0.040683, -0.006586, -0.044418, -0.005248, -0.047409, -0.032199, -0.014072, -0.023571, -0.045347, -0.018227, -0.050397, -0.038919, 0.030337, -0.040013, -0.003709, 0.019166, -0.038313, -0.018246, 0.01453, 0.040364, 0.043836, -0.030522, -0.017719, -0.048023, -0.024679, -0.049229, -0.003267, 0.004916, 0.005401, 0.031198, 0.017881, 0.023083, -0.055915, 0.00421, -0.002798], [-0.12855, -0.103721, -0.103208, 0.272328, -0.260379, -0.134531, -0.215528, 0.835092, -0.013632, -0.054575, -0.128275, -0.035994, -0.052056, -0.341811, 0.240744, -1.26698, 0.03055, -0.432289, -0.057919, 0.013319, 0.021743, 0.627863, 0.43897, 0.248783, 0.084582, 0.120721, 0.069114, -0.58428, 0.014318, 0.448265, -0.418509, 0.111676, -0.176709, 0.097162, -0.462056, -0.289323, -0.216973, 0.092261, 0.029412, 0.212935, -0.117416, 0.083778, -0.176449, -0.041931, 0.00389, 0.065013, 0.437224, 0.477597, 0.383741, -0.260781], [-0.028899, 0.547317, 0.01096, -0.254343, 0.437177, -0.031716, -0.054192, -0.052306, -0.302803, 0.06082, -0.174297, -0.040841, 0.395538, -0.187111, 0.024618, 0.015352, -0.35284, 0.187595, 0.755342, 0.12327, -0.032649, 0.531696, 0.40165, 0.560572, -0.090772, 0.231866, 0.176735, 0.482962, -0.042125, 0.293823, 0.416761, -0.017859, -0.233215, -0.004278, 0.036974, -0.007397, -0.114569, -0.148205, 0.122734, 0.03807, 0.315631, 0.348592, -0.260875, -0.236636, 0.007626, 0.060262, -0.456261, -0.125465, -0.463307, 0.202801], [-0.488521, 0.528479, 0.405527, 0.764134, 0.023995, 0.638101, 0.347916, 0.532491, 0.350041, -0.230849, -0.489019, -0.036668, -0.664102, 0.336434, -0.246592, 0.585366, 0.067903, 0.638999, 1.56608, -0.475153, 0.011251, 0.118135, -0.206083, -0.204543, -0.657363, 1.23894, 0.096511, 0.214568, 0.406535, -0.496125, -0.695541, 0.125016, 0.216149, 0.60938, -0.203361, -0.338432, 0.654016, -0.191267, 0.315546, -0.073009, -0.180389, 0.048239, 0.559522, 0.341598, 0.008569, -0.658644, 0.480905, 0.109451, 0.545419, 0.344729], [-0.071481, -0.563762, 0.268555, -0.194787, 0.192846, -0.331122, -0.998063, -0.22421, -0.662355, -0.121482, -0.765099, 0.015546, 0.029203, 0.345865, 0.689471, 0.204435, -0.015779, -0.406974, -0.376928, -0.327161, -0.007715, -0.236654, 1.48086, -0.566908, 0.034856, 0.063636, -0.474428, -0.222503, 0.225124, 0.683512, 0.18537, -0.246871, 0.181808, 0.558444, 0.156355, -0.016178, -0.026793, 0.113135, 1.02618, -0.143242, -0.41284, -0.420877, -1.76011, -0.598745, 0.02098, 0.65628, -1.69535, 0.269264, -1.05808, 0.608549], [-0.154479, 0.146406, 0.275385, -0.910922, 0.358813, -0.013212, 0.192181, -0.520136, -0.112192, 0.160278, 0.37702, 0.026346, 0.427194, -0.165015, 0.008683, -0.082506, 0.284142, 0.034471, 0.382865, 0.071573, 0.006401, -0.195056, 0.093353, 0.545011, -0.110632, 0.115415, 0.176652, 0.642195, 0.086002, 0.51591, -0.081237, -0.020242, -0.088684, -0.039938, 0.317998, -0.062254, 0.302204, 0.168708, -0.053708, 0.014031, 0.048898, -0.964099, -0.021204, 0.695896, -0.020672, -0.03199, 0.649569, 0.02668, -0.669833, 0.096008], [-0.414611, 0.573406, 0.14703, 1.21529, -1.68358, 0.589733, 0.641637, 0.406376, -3.76173, 0.423076, -2.03871, 0.022342, 0.323479, -1.03831, 0.652083, 1.41253, 0.405192, 0.143531, -1.64444, 0.680794, -0.04011, 0.315692, 0.995804, -0.045098, -0.200946, 1.33631, -1.21444, 0.192802, 0.245103, 0.891851, 0.034475, -0.490488, 0.017995, -0.296528, -1.07125, 0.032844, 1.5553, -0.235235, 0.07499, -0.379117, -1.10217, 0.859976, 0.724931, 1.08578, -0.03115, -1.41486, 0.219476, 0.232119, 1.65001, 0.091079], [0.38186, 0.468179, 0.173905, -0.400733, -1.68889, 0.062556, 2.11027, -0.102635, -2.3435, 0.099327, 0.91105, -0.015149, 1.255, -0.471221, -0.13386, -3.21894, 0.57557, -0.116447, 0.718026, -0.378918, 0.022293, -0.788556, 0.603685, 0.345122, -0.33073, 0.415486, -0.099486, 1.12717, -1.29806, 2.34257, -0.725796, 0.348285, 0.147122, -2.85849, 0.60378, -0.440763, 0.910417, -1.32485, 0.275029, -0.041281, -0.312561, 0.485026, 0.327881, 0.03091, 0.024557, 0.574688, 0.93976, -0.106498, -0.19551, 0.574911], [-0.253451, -0.179369, -0.210354, 0.096175, 1.23687, 0.380851, 0.208743, 0.190759, 0.301856, -0.00773, -0.448073, -0.035116, 0.308865, 0.566537, 0.303544, -0.599821, 0.048433, 0.298836, -0.184623, -0.083621, 0.022395, 0.663754, 0.0765, -0.010025, -0.034376, 0.038797, -0.119318, -0.483914, 0.361987, 0.218915, -0.280156, 0.092582, -0.009959, -0.119244, 0.117329, -0.210807, 0.023443, 0.037278, -0.054104, 0.174524, 0.118407, -0.142504, -0.30005, -0.329599, -0.01261, 0.017111, -0.279079, -0.111742, -0.098364, -0.129751], [-0.24848, -0.314072, -0.242902, 0.950278, 0.632048, 0.729819, 0.534697, -0.028767, 0.295098, -0.028602, -0.527662, 0.057885, 0.969081, 1.00684, 0.153117, -1.06031, 0.324268, 0.336576, -0.173045, 0.022899, 0.005006, 0.274415, -0.244532, -0.370941, -0.037351, -0.286599, -0.434386, -1.13484, 0.517996, -0.588528, -0.634793, -0.095772, 0.072892, 0.115442, -0.227389, -0.038907, 0.791584, 0.166065, -0.098188, 0.025802, 0.191156, -0.215946, -0.364332, -0.159807, -0.026109, -0.748779, 0.01421, -0.231118, -0.367052, -0.086444], [-0.523024, -1.2658, 0.087698, 1.13777, -1.73519, -0.438881, 0.839643, -2.28903, -0.030645, -0.553231, 0.581541, -0.019045, 0.970529, -0.744666, 0.10161, 1.74959, -0.262228, 1.11115, -2.08575, 0.485152, -0.008803, 2.97535, 1.64929, 0.719779, -0.661237, 0.425554, 0.071613, -0.048157, 0.207479, 0.046032, -0.163747, -0.756422, 0.315612, -0.588504, -0.597188, 0.420883, -0.408467, 0.487949, -0.893479, -1.36216, -0.790892, 0.774048, 0.595762, -1.64069, 0.020499, -1.34079, -0.991299, 0.056198, 0.40009, 0.591336], [-0.972877, 0.735539, -1.07234, -0.189433, 0.268045, -0.637721, -0.195898, 0.715868, -0.412937, 0.23928, 0.536688, 0.029153, 0.97749, 0.491999, -0.029895, -0.920192, -0.200098, 0.149798, 1.44393, 0.019472, 0.039466, 0.06447, -0.710526, 0.14848, 0.383257, -0.257269, 1.0751, 0.277086, -0.417515, 0.306606, -0.356389, -0.143107, -0.221848, 0.864844, -0.276823, 1.05464, 1.02115, 0.043485, 0.637592, -0.092565, -0.393767, 0.246982, 0.496442, -0.001261, 0.005788, -0.435688, -0.014622, -0.627742, -0.227791, -0.287788], [0.04249, 0.076469, -0.160009, -0.127744, 0.46113, 0.171784, -0.212004, -0.05663, 0.643123, -0.056943, 0.092129, 0.02901, 0.604919, 0.077497, 0.565479, -1.15928, 0.097564, -0.895821, -0.23936, -0.196916, 0.004803, -0.39908, -0.408971, -0.142425, -0.348114, 0.171284, -0.218424, -0.737929, 0.193966, 0.276722, -0.158091, 0.02337, -0.035962, 0.360846, -0.405382, 0.162297, -0.069786, -0.450581, -0.388357, 0.240635, 0.083819, -0.432324, -0.256365, -0.323184, -0.045679, 0.074662, 0.118761, 0.285445, -0.968687, -0.014831], [0.567361, -1.13229, -0.800308, 0.597597, -0.239423, 1.49946, 0.137647, -0.435665, -0.927643, 0.08282, -2.4432, -0.017024, 0.230088, -0.721912, -1.2052, -0.395938, 0.492899, 0.276126, -0.764077, 0.121969, -0.013929, -0.402162, 0.995166, -0.591416, -0.736853, 0.3011, -0.773168, -0.707688, 0.857441, 0.338592, -0.318577, -1.16475, -0.225066, -0.829542, -0.955142, -0.817691, 0.067675, 0.333882, -0.564164, -0.313328, 0.06697, 0.176588, 0.494843, -5.33234, -0.044127, -0.145882, 1.22091, -1.42102, -1.27768, 0.647732], [1.1066, -0.98527, -0.958864, -0.93619, -3.31725, 1.16379, -1.74671, -3.05361, -0.590961, -0.287731, -0.291724, 0.040743, -1.57299, 0.959394, -0.964842, -0.07186, -0.297402, 0.231409, -1.0058, 1.27685, -0.035537, -2.62406, 1.88447, -0.473058, -1.58944, -2.65486, -0.296622, -0.806847, 0.223119, 0.943847, -0.730305, -0.44695, 0.815513, -2.64077, -2.61049, -1.3398, -1.48365, 0.573266, -1.33761, 0.014702, -0.742102, 0.741072, 0.675012, -1.73229, 0.013438, -0.998692, -1.08874, -2.34393, 0.608826, 0.057148], [-0.017287, -0.03507, 0.007264, -0.024154, 0.0375, 0.04175, 0.025828, -0.022702, 0.017236, -0.002709, -0.026137, 0.016347, 0.032214, -0.004295, 0.034355, 0.003117, 0.037458, 0.014696, -0.012327, -0.011428, 0.007611, 0.028356, -6e-05, -0.036548, 0.009027, -0.021459, 0.017135, -0.044462, -0.058047, 0.044421, -0.042045, -0.051489, -0.054227, 0.035436, 0.025578, 0.009566, -0.00674, -0.018611, 0.02166, -0.046184, 0.004191, 0.011441, -0.037935, 0.010789, -0.049792, -0.034142, -0.046991, -0.012971, -0.044151, 0.015447]], [[0.030827, 0.070384, 0.023432, 0.324558, 0.602833, -0.16245, -1.35406, -0.031025, -0.135625, -0.108989, -0.066725, 0.199475, 0.394464, 0.338342, 0.178231, -0.382877, -0.101894, 0.050167, 0.237282, -0.266449, 0.243589, 0.125954, -0.094116, -0.018127, -0.181264, -0.164062, 0.0123, -0.05311, -0.167994, 0.096955, 0.129729, 0.081184, 0.077072, -0.106238, -0.039095, 0.159565, 0.221972, -0.157998, 0.092939, -0.091251, 0.064511, -0.014758, 0.011196, -0.092023, 0.28004, -0.030483, 0.069536, -0.357067, 0.08862, -0.033212], [0.013327, -0.142918, 0.166882, -0.09373, -0.724673, 0.685432, 0.041915, -0.24672, 0.085994, -0.109164, -1.24028, -0.941877, 0.617091, -0.206104, 0.314251, 0.962481, -0.635785, -0.451832, -0.324007, 0.384554, 0.613125, 0.289279, 0.122638, 0.139006, 0.729797, -0.612285, 0.058639, -0.140899, 0.218202, 0.076662, -0.264113, -0.11074, -0.060063, -0.012424, -0.005348, -0.512065, -0.626384, -0.1858, -0.479208, -0.070912, 1.16703, -0.293441, 0.281052, -0.154389, -0.762513, -0.047853, 0.12607, -0.324152, 0.045475, 0.035864], [-0.199285, -0.030913, -0.229352, -0.198197, -0.526996, -0.267382, -0.610843, -1.04752, 0.664431, -0.703081, -0.283563, -0.519392, 0.056617, 0.233804, 0.12876, 0.055525, -0.72576, 0.727225, 0.232525, 0.221288, 0.438866, -0.720797, 0.295934, -0.748617, -1.13679, -0.107301, -1.29929, -0.006907, -0.659297, 0.174613, 0.124875, 0.215328, 0.476283, 0.187967, 0.003559, -0.347005, 0.107137, 0.215723, 0.173896, -0.31918, -0.225028, -0.80542, 0.735536, -0.005518, 0.800251, 0.043848, -0.061712, -0.128296, -0.450568, -0.007458], [-0.038948, -0.267677, 0.333064, 0.183346, -0.302539, -0.770206, -0.695281, -0.278663, 0.108073, -0.20473, -0.969633, -0.081066, -0.271621, 0.413954, 0.453122, -0.996522, -0.405886, 0.362568, 1.21656, 0.300197, 0.566816, -0.232791, 0.17999, -0.340258, -1.0872, -0.366411, -0.814586, -0.09589, -0.518541, -0.317983, 0.206445, 0.387769, 0.444839, -0.375869, 0.047294, 0.021785, 0.362221, -0.060448, 0.409258, -0.551426, -0.550254, -0.863075, 0.111375, 0.014161, -0.255018, -0.011706, -0.010046, -0.155775, -7.03905, 0.035686], [-0.081528, 0.129763, -0.09864, 0.199046, 0.857651, -0.044111, 0.150925, -0.116203, -0.123412, 0.037662, -0.023344, 0.011888, 0.037871, 0.103839, 0.116404, -0.010413, -0.080096, 0.034985, -0.340466, -0.094721, 0.132555, 0.144222, -0.049349, 0.000499, -0.205558, -0.135816, -0.145229, -0.083443, -0.090153, -0.123045, 0.024147, 0.000826, 0.082899, -0.070183, -0.027194, -0.107123, -0.054748, 0.037295, 0.000791, -0.059502, 0.011812, -0.033323, 0.21561, -0.055091, -0.059605, -0.00916, 0.251542, 0.017839, -0.256778, 0.020582], [-0.057898, -0.163305, -0.025682, 0.012441, -0.628573, -0.217711, -0.005582, 0.013598, 0.004994, -0.151606, -0.065543, -0.188674, -0.051435, 0.162037, -0.147498, -0.139487, -0.077409, 0.021197, 0.358357, -0.033016, 0.042596, 0.046235, 0.148855, -0.009094, -0.238811, -0.041633, -0.241852, -0.019926, -0.140763, 0.183268, 0.029873, 0.146885, 0.153675, -0.038308, 0.031614, -0.183396, -0.051617, -0.018647, 0.05707, 0.086884, 0.004997, -0.068424, 0.25974, -0.081801, -0.052035, 0.004176, -0.025447, -0.076037, -0.051601, 0.041888], [-0.778242, -0.129871, 0.067017, 0.029098, -0.005001, -1.04276, -0.443838, 0.926627, -0.868285, -0.175284, -0.740581, -0.12066, -0.153646, -0.06139, -0.800084, -0.864391, 0.995403, -0.453599, 0.268544, -0.276684, -0.737635, -0.711586, -0.290842, 0.202106, -2.68628, 0.636732, -0.662465, -0.421548, -0.157262, 0.169891, 0.515984, 0.119054, -0.261284, -0.891383, -0.019272, -0.134087, -0.344844, 0.204868, 0.349201, 0.154882, -1.03402, -0.084966, 0.111094, 0.13667, 0.646048, 0.06585, 0.180044, 0.5181, -0.173551, -0.05024], [-0.078689, 0.458452, 0.21536, -1.15217, -0.500123, -0.546788, -0.304409, 0.792664, -0.482588, -0.145694, -0.151894, -0.730974, -0.270155, -0.957965, -0.231048, -0.902845, 0.576029, -0.159554, -0.576916, -0.244986, -0.498425, -0.050171, -0.13319, 0.175158, -0.194901, 0.58658, 0.114766, 0.252755, 0.633926, -0.185058, -0.187369, -0.137912, -0.266283, -0.147915, -0.007854, -0.269649, 0.04048, 0.26305, 0.350399, 0.057932, -0.058904, 0.204242, -0.322248, 0.63353, -0.147343, 0.098294, -0.182461, 0.160685, -0.048597, -0.011221], [-0.012505, -0.184275, 0.080087, 0.134122, -0.467225, 0.062487, -0.115965, 0.04021, -0.27859, -0.079127, -0.063788, 0.141404, 0.079716, 0.165005, 0.032088, 0.116882, 0.163041, -0.253233, 0.169217, 0.121225, -0.155287, -0.278376, 0.272692, 0.066842, 0.158517, -0.004992, 0.047068, -0.044913, -0.100705, 0.018729, 0.017816, -0.0518, -0.024687, 0.091384, 0.003983, 0.026892, 0.064866, -0.057612, -0.199781, -0.184421, -0.330021, 0.127759, -0.082769, 0.160379, -0.009148, -0.001586, -0.100243, 0.08177, -0.016667, -0.009948], [-0.216909, 0.085484, 0.162404, -0.09329, -0.004211, 0.029343, -1.06192, -0.295055, 0.151903, 0.308737, -0.04769, -0.333222, -0.762547, -0.146532, 0.208541, -0.057675, -0.246539, -0.069091, -0.145799, -0.215523, -0.181471, 0.003569, -0.030576, -0.243867, -0.298168, -0.155452, -0.376594, 0.025461, -0.122779, -0.507869, 0.028715, 0.050841, 0.267867, 0.125553, 0.03739, -0.130912, -0.163117, 0.035763, -0.073493, 0.35871, -0.332028, -0.954671, 0.337576, 0.190001, 0.170546, 0.124044, 0.153849, -0.126321, -0.162541, -0.009227], [-0.209271, -0.330016, 0.022734, 0.253197, -0.354367, 0.127687, 0.343909, -0.01952, 0.093197, -0.26675, -0.008718, 0.137117, -0.273646, -0.121427, -0.320187, -0.248537, -0.0118, -2.03247, 0.179977, -0.110001, 0.317351, -0.150635, -0.016431, 0.029859, 0.247014, 0.119421, 0.340859, 0.038677, 0.057068, -0.182603, -0.097456, 0.020623, -0.128876, -0.112845, -0.024362, 0.03538, 0.125095, -0.081655, 0.18244, 0.215508, 0.330823, -0.284974, 0.184413, 0.046709, 0.032709, -0.196613, -0.27201, -0.141481, -0.255445, -0.032975], [-0.080308, -0.452915, 0.096863, -0.151891, 0.551754, -0.131797, -0.33823, -0.135477, -0.037324, 0.268861, -0.109952, 0.172292, 0.005077, -0.022629, 0.13196, -0.109625, -0.064751, 0.075153, -0.545797, -0.122238, 0.346703, -0.228985, -0.050729, -0.178308, 0.01366, -0.06904, 0.10361, -0.331886, -0.157159, -0.063693, -0.103195, 0.104863, 0.091701, -0.007838, 0.004256, 0.537947, 0.141066, -0.097135, 0.070832, -0.370667, 0.163255, -0.25522, -0.184661, 0.43366, -0.206686, 0.058645, -0.040666, 0.040475, -0.029207, 0.029567], [-2.56625, 1.5744, -2.13236, -1.44482, -2.56657, -0.255749, -0.492528, -0.025572, 0.47613, -3.28865, -0.345719, 0.170535, -0.430737, -3.94461, 0.209372, -1.91274, 0.294049, -2.52792, -0.044183, 0.288872, -9.66288, -3.49487, 1.3752, -0.074058, -4.69827, -0.253766, 0.994613, 0.855133, -4.06287, 0.393207, -3.87753, -2.59501, 0.895026, 1.47431, -0.010828, -0.728929, -0.558069, -1.1609, 0.779762, -0.283766, -3.80229, -3.86558, 1.10346, 0.30912, 0.880165, -2.77591, -1.59575, 0.080823, -1.33471, 0.045094], [-0.021017, -0.399073, 0.222456, -0.316907, 0.565155, 0.191417, 0.133479, -0.172108, -0.487455, 0.358274, -0.040558, 0.107526, 0.002939, -0.841122, -1.14378, 0.171365, 0.224556, -0.190787, -0.186452, 0.101289, -0.741761, 0.074934, -0.08308, 0.290168, -0.116766, -0.047064, 0.772257, -0.143213, 0.044068, -0.44208, -0.562699, 0.176329, -0.181038, 0.10616, 0.042358, 0.569232, -0.233256, 0.339143, -0.085857, -0.011002, -0.294887, 0.063425, -0.132958, 0.215456, 0.105931, -0.127485, -0.231963, 0.050406, -0.104739, 0.050691], [0.897556, -0.093881, 0.068689, -1.43957, 0.888118, -0.088392, 0.615557, -0.648528, 0.929617, -0.22777, -0.707873, -0.81052, 0.908586, 0.488263, 1.19324, 0.047269, 0.222787, -0.484221, 0.318035, -0.098681, 1.42819, -0.702954, 0.169038, 0.852658, -0.052221, 0.203295, 0.432469, -0.19155, -0.282901, 0.074138, -0.837052, -0.161493, 0.249917, 0.649618, -0.010634, 0.966667, 0.580164, -0.220231, 0.093926, -1.14074, 0.746307, 0.70409, 0.412401, -0.541154, -0.191364, 0.330207, -0.598941, 0.721532, -0.08611, -0.031426], [-0.547331, 0.218905, -0.398715, -0.157122, -0.233384, -0.30067, 0.550804, 0.139531, -0.774027, 0.020163, -0.311473, 0.091752, -0.345204, 0.532299, 0.616959, 0.241491, 0.013235, 0.207415, 0.244187, -0.144754, 0.161887, 0.310714, 0.243549, -0.37757, -0.213609, -0.184911, 0.257122, -0.040269, -0.444597, -0.558552, 0.223678, -0.116778, -0.701909, -0.224993, -0.002771, -0.411544, 0.432241, -0.27252, -0.099563, -0.422002, 0.236415, 0.274436, -0.178911, 0.328462, 0.553239, 0.048429, 0.310823, 0.090226, -6.20521, 0.032065], [-0.046456, 0.091506, 0.096794, 0.211996, 0.111754, -0.297392, -0.241908, 0.085269, -0.047016, 0.148039, -0.214035, 0.272549, -0.212288, 0.041164, -0.161122, -0.330439, 0.002301, -0.084926, 0.290137, -0.158807, -0.118713, 0.227397, 0.219537, -0.43967, -0.286217, 0.161103, -0.059693, 0.07151, -0.162133, -0.023587, 0.032169, 0.095256, 0.294027, 0.017453, -0.023398, 0.573028, 0.319361, 0.013968, -0.021481, -0.133796, -0.110698, 0.076091, 0.020351, 0.019873, 0.136944, 0.082438, -0.079787, -0.015838, -0.077308, -0.021303], [-0.304613, 0.036964, -0.40343, -0.078739, -0.059599, -0.23864, 0.146725, -0.335533, -0.085054, 0.01905, -0.437556, 0.517264, 0.226815, -0.463331, 0.740571, 0.228004, -0.276628, 0.558804, -0.765422, 0.443004, -0.214305, -0.261423, 0.610792, -0.563328, -1.07882, 0.227363, -0.334304, -0.245108, -0.616736, 0.044496, -0.187864, 0.710865, -0.125077, 0.035561, 0.033722, -1.31954, -0.164692, 0.310864, 0.064443, -0.065986, 0.446396, -0.002255, 0.102254, 0.142483, 0.116406, 0.344786, -0.035216, 0.096109, -0.03214, -0.005671], [-0.058221, -0.269171, -0.371811, 0.31, -0.084111, -0.530774, 0.06965, 0.115321, -0.183078, -0.323104, -0.186363, -0.051677, -0.218764, -0.107299, 0.014053, -0.213805, -0.057806, -0.694579, 0.153727, -0.110648, 0.635979, -0.821843, 0.100554, -0.207864, -0.455827, -0.170164, -0.250635, -0.079216, -0.2433, -1.1871, 0.034665, 0.237997, 0.189813, -0.307432, -0.032507, -0.042077, 0.264229, -0.006193, 0.099372, -0.253491, 0.292875, -0.15507, 0.687816, -0.311304, -0.123298, -0.0076, 0.085294, 0.128339, -0.01508, -0.025928], [-0.109553, 0.471122, -0.229766, 0.054915, -0.499122, -0.202502, -0.093926, 0.050636, -0.160166, -0.247233, -0.205446, -0.00197, 0.180868, 0.438988, 0.515402, -0.115914, -0.315557, -0.257264, -0.190317, -0.14828, 0.635752, -0.393114, -0.122841, -0.12663, -0.036593, -0.223564, 0.125158, -0.183902, -0.408257, 0.417773, 0.40828, -0.015403, 0.29146, 0.061786, 0.049955, 0.011352, 0.253954, -0.296745, 0.044113, 0.061346, -1.14038, -0.580194, 0.143439, 0.00811, 0.780464, 0.020433, 0.395914, 0.044949, -1.76123, -0.022373], [-0.025242, 0.257431, -0.079264, -0.308542, 0.976085, 0.236629, -0.269228, 0.124018, 0.327039, 0.417505, -0.049645, -0.809014, 0.279823, -0.481838, 0.102332, 0.354408, 0.003262, -0.157802, -2.15996, 0.12734, -0.848517, 0.117477, -0.058493, -0.223566, 0.447183, 0.536091, -0.050699, -0.299641, 0.459417, 1.04116, -0.295477, -0.123606, -0.061224, -0.168469, 0.019468, -1.04314, -0.974608, 0.030002, 0.064962, -0.945815, -0.364076, -0.043976, -0.616733, 0.327574, 0.049199, 0.08709, -0.085984, 0.295419, 0.213562, -0.027799], [0.066587, 0.14612, -0.050044, -0.070885, 0.454257, 0.179704, -0.001593, 0.158695, 0.034878, -0.043455, 0.120221, 0.135516, -0.287417, 0.176272, 0.261797, -0.259351, 0.261452, -0.20035, -0.515316, -0.351907, -0.215303, 0.21171, 0.088171, 0.030868, 0.514551, 0.079447, 0.482235, -0.002803, -0.079081, -0.045557, -0.271612, 0.043319, -0.310658, 0.242333, 0.037662, -0.461376, -0.341423, 0.041091, 0.046345, 0.162534, 0.05298, -0.192997, 0.106707, -0.126488, 0.369988, 0.095677, 0.291721, 0.084387, -0.314638, -0.01088], [-0.596432, 0.437073, -0.502207, -0.105954, -0.3846, -0.675174, -0.777801, -0.200636, -1.05149, 0.200692, -0.252631, 0.427551, 0.314217, -0.094255, -0.215959, 0.096483, 0.283089, 0.238662, -0.138084, -0.714541, -0.010219, -0.138617, -0.059214, 0.006054, -2.89369, 0.102738, -0.254616, 0.008197, 0.309, -0.157446, -0.681136, 0.362595, -0.370243, -0.326868, -0.015858, -0.245424, 0.131802, -0.543522, 0.386547, 0.276185, -1.24027, 0.382717, -0.585072, 0.891167, -0.099399, -0.166209, -0.70641, 0.121718, -0.257651, 0.032507], [0.048668, -0.017849, -0.008699, 0.205104, 0.51656, 0.000735, -0.609815, -0.040765, 0.024612, -0.011921, -0.020479, 0.1549, -0.05461, 0.102957, -0.056116, -0.115044, -0.048962, 0.05974, 0.209331, -0.086155, 0.093017, 0.057401, -0.006482, -0.037605, -0.045705, -0.006804, 0.041009, -0.001048, -0.03684, -0.356248, 0.051729, -0.068297, -0.039904, -0.029362, 0.02383, 0.008645, 0.17525, -0.055625, -0.03613, 0.072784, -0.257496, -0.099252, -0.009127, 0.000304, 0.064566, 0.005542, 0.015828, -0.038551, -0.200099, -0.017181], [0.301503, -0.506471, 0.098059, -0.045458, -0.40336, 0.320396, 0.146749, 0.32424, -0.666912, 0.742452, -0.764684, 0.07833, -0.498177, -1.37502, -0.51329, 0.692997, -0.490439, 0.153019, -0.41342, -0.727002, 0.135724, 0.085453, -1.03036, -0.541886, -0.249544, 0.438615, 1.05277, 0.31136, -1.24454, -0.310319, -0.15707, -0.058356, 0.49132, 0.191673, 0.005986, -0.132317, -0.136074, -0.976211, -0.154306, -0.06403, -0.283652, -0.098004, -2.06341, 0.188888, -0.329524, -0.570188, 2.33994, -0.040403, 0.894206, 0.021101], [-0.006308, -0.029893, -0.039005, -0.042342, 0.017772, -0.035974, -0.046214, -0.017322, -0.00445, -0.03839, -0.016923, 0.014849, -0.010371, -0.013846, -0.046843, -0.024427, -0.024318, -0.015106, -0.051974, -0.007132, -0.048051, -0.031497, 0.001317, 0.011651, -0.000535, 0.035257, -0.007985, -6.3e-05, 0.012829, 0.031062, -0.049615, -0.03454, -0.032149, -0.021622, 0.030763, 0.014827, -0.003499, -0.04145, 0.04068, -0.01389, -0.018866, 0.017749, -0.056348, -0.031822, 0.031243, 0.014954, -0.027171, -0.034343, -0.004985, -0.037215], [-0.054659, 0.09661, -0.040433, 0.051532, -0.010892, 0.010367, 0.245769, 0.191168, -0.251689, 0.080141, -0.076424, 0.103743, 0.228696, -0.007413, -0.135466, 0.091852, 0.250258, -0.033688, -0.046543, 0.083963, -0.130331, 0.004702, -0.028249, 0.184831, 0.20638, 0.408617, 0.154168, -0.029895, 0.197669, 0.763654, 0.017893, 0.036163, -0.165206, -0.108724, -0.05607, 0.277512, -0.022424, 0.038197, -0.001509, 0.052817, 0.030009, -0.089235, -0.05787, -0.07789, 0.191307, -0.09488, -0.077959, 0.116516, 0.219089, -0.01911], [-0.413465, 0.231274, 0.362872, 0.587829, 0.621145, 0.249066, -0.172044, -0.299516, -0.057017, 0.417259, -0.039691, -0.13631, -0.034885, -0.253736, -0.220392, -0.16399, -0.098265, -0.114958, -0.239385, -0.210199, 0.267549, -0.033679, 0.242522, 0.237493, -0.016733, -0.364436, 0.340609, -0.094821, -0.037107, 0.093084, -0.045752, -0.12165, 0.056692, -0.002635, -0.036566, -0.053657, -0.076692, -0.03446, -0.238963, -0.715016, 0.410657, 0.256071, 0.123494, 0.290098, -0.06786, -0.148764, 0.025255, -0.112568, -0.024568, -0.010929], [-0.726638, 0.922607, -0.217863, -0.359264, -0.36961, -0.133258, 0.525064, -0.627807, 0.431018, 1.12778, 0.267571, 0.349941, 0.291082, 0.28961, -0.603107, -0.831136, 0.073761, 1.22598, -0.768526, -0.062179, -0.301764, 0.728433, 0.475279, -0.346265, -1.21867, -0.26941, 0.016576, 0.665857, -0.75605, -0.062043, 0.57937, 0.950375, 0.382892, 0.068494, -0.007177, -0.560525, -0.166583, -0.025008, -0.778844, 0.055816, 0.035622, 0.147396, -0.714479, -0.319991, -0.149423, 0.439442, 1.24447, 0.583348, -0.20651, -0.045815], [-3.92221, -0.02135, 0.017575, -0.035644, 0.036535, -2.49887, 1.25155, -2.92011, -3.637, -3.09689, -1.3644, -0.03291, 0.743222, -4.47572, 0.097926, -1.02137, -1.83617, -0.014313, -1.80443, -0.986576, 0.586527, -4.88117, -2.0212, -0.56398, -1.90078, 1.607, -5.44813, -0.693923, 0.572702, 0.152701, -2.1391, 0.015115, -0.899191, -0.027729, 0.004238, -0.024271, -0.486823, -0.880012, -3.67022, -7.40283, -4.32709, -2.91923, -3.00324, 0.531735, -0.546898, -2.99147, 0.047399, 0.318291, -2.67733, -0.014598], [-0.42528, -0.110779, 0.074962, -0.010728, 0.01328, -0.07473, 0.527806, -0.085697, -0.012278, 0.276854, -0.03198, -1.47035, -1.63651, -0.47187, 0.163924, -0.258354, -0.011093, -0.059364, -0.184127, -0.006661, -0.883317, -0.113001, 0.010759, 0.164933, 0.009966, -0.053186, -0.345477, 0.048244, -0.700215, 0.025006, -0.429536, -0.080585, 0.501793, 0.183579, -0.0379, 1.26338, -0.321458, 0.03407, -0.103093, 0.646164, -0.046073, 0.042508, 0.105618, 0.458733, 0.025481, -0.031972, -0.161651, -0.16014, 0.053751, -0.029367], [-0.820212, -0.358175, -0.878222, -1.86411, 1.01596, 0.563038, -0.351987, -1.43787, -2.25172, -0.042009, 0.577584, -0.046317, -3.21765, 0.160474, 0.220356, -0.158653, -0.381303, 1.05653, -0.114975, 1.136, 0.32769, -1.28872, 0.398028, 0.793357, -0.057157, -0.501026, 0.231948, 1.76694, -0.411756, 0.184649, -0.252283, -2.41471, -1.09786, 0.225008, -0.033457, -0.453887, -0.866318, -0.371313, -0.355669, 0.766539, -3.12121, 0.247387, -1.94283, 0.596632, -0.239176, -0.403105, -0.381526, 0.262351, 0.44095, 0.000591], [-0.084275, 0.042439, -0.074301, 0.307627, 0.351938, -0.122972, -0.585261, -0.160229, 0.416209, -0.117971, -0.170672, -0.124799, -0.177444, -0.035481, -0.073682, -0.096871, -0.015695, 0.193665, 0.13453, -0.125486, 0.096527, -0.196245, 0.084837, -0.256266, -0.259858, 0.204938, -0.053567, 0.156272, -0.180405, -0.205257, -0.297184, -0.208467, -0.00406, 0.063886, 0.033584, -0.428677, -0.197812, 0.142084, -0.196573, -0.087965, 0.121066, -0.068181, -0.035972, 0.123983, 0.103778, 0.210777, -0.085524, -0.080252, 0.09122, 0.028081], [-0.241572, -0.568986, 0.133788, 0.319091, 0.288007, 0.149841, 0.825565, -0.157759, 0.11683, -0.722476, -0.471457, 0.72608, 0.021943, -0.062869, -0.305454, -0.632643, 0.028809, 0.055819, 0.199293, -0.314127, 0.591073, -0.022555, 0.126918, -0.083118, 0.121701, 0.198141, -0.289801, 0.309694, 0.151807, -0.218761, 0.193676, -0.693743, -0.584466, -0.110264, -0.045572, -0.341513, -0.117189, -0.562805, -0.065904, 0.125124, -2.36392, -0.90826, -0.111534, 0.095812, 0.277447, 0.029609, 0.028759, 0.126164, -5.2575, -0.003242], [-0.330325, 0.262473, -0.230381, -0.54898, -0.079309, -0.094451, -0.101146, -0.352551, 0.342665, 0.136159, -0.272693, 0.354505, -0.241035, -0.144379, 0.258024, 0.077046, -0.180261, 0.467026, -0.430942, 0.094761, -0.129974, -0.644766, 0.240083, -0.464197, -0.396712, 0.190537, -0.601562, 0.172215, 0.04062, 0.238179, 0.242227, 0.049069, 0.198577, 0.174241, -0.042444, 0.861359, -0.116458, -0.048285, 0.046459, -0.161743, -0.074354, 0.679899, -0.275191, 0.640638, -0.14847, 0.129098, -0.466602, -0.076598, -0.301648, -0.015943], [-0.077351, 0.140135, 0.212568, 0.260505, 0.462966, -0.035157, -3.44979, -0.08933, 0.015044, 0.331016, 0.005531, -0.14569, 0.076756, -0.210299, 0.021698, 0.116671, -0.143022, 0.041259, 0.099541, 0.088164, -0.073149, 0.015947, -0.36354, -0.155657, -0.078251, 0.038909, 0.080022, 0.15242, -0.018772, 0.293137, 0.019614, -0.107787, 0.142875, -0.006518, -0.016022, 0.226467, 0.345287, 0.144576, -0.273416, 0.36164, -0.088468, -0.257569, 0.564, -0.054857, -0.058576, -0.054122, -0.082963, 0.004149, 0.038239, -0.007293], [0.038794, 0.066395, -0.197348, 0.590031, 0.248321, -0.291555, -0.42958, -0.210868, -0.014887, -0.447748, -0.049764, 0.098869, -0.113693, 0.411711, 0.396037, -0.287775, -0.278026, 0.110852, 0.655304, -0.203645, 0.44101, 0.385018, 0.141891, -0.106333, -0.445944, -0.413255, 0.040446, -0.184557, -0.532882, 0.125227, 0.368033, 0.157021, 0.287462, -0.055593, 0.006416, -0.170442, 0.376227, -0.298907, 0.050339, -0.170312, 0.545134, 0.032371, 0.670748, -0.4334, -0.141363, -0.009461, 0.214953, -0.51744, -0.466419, -0.00719], [-0.443408, 0.099432, -0.141721, 0.303865, 0.172018, -0.362822, -0.503818, 0.029929, -0.39472, 0.320052, -0.218126, 0.079637, -0.021538, 0.413257, 0.067698, -0.564221, 0.242416, -0.121237, 0.108785, -0.423775, 0.036453, -0.037752, 0.337108, 0.119489, -0.652008, 0.05176, -0.480468, -0.481754, -0.190054, 0.391734, 0.425891, 0.25163, -0.000961, -0.356678, -0.011691, -0.072358, 