{"number_of_layer": 8, "number_of_neurons_each_layer": [5, 50, 50, 50, 50, 50, 50, 5], "weight": [[[-0.029944, -0.754825, -1.86758, -0.154352, 0.354842], [0.045315, 1.24854, 1.27294, 0.845994, -0.02153], [-0.189939, 1.00206, -1.05594, 0.043105, -0.3189], [-0.038632, 0.602401, -0.566887, 0.091611, -0.192924], [-0.001892, -1.58547, -0.060415, 0.250514, -0.335303], [0.188421, 1.01804, -0.912452, 0.289335, -0.30808], [-0.0018, 0.010215, 0.017038, -0.002369, 0.004676], [0.219366, -0.266597, -0.063733, -0.254165, -0.173123], [-0.008721, 1.89136, 0.539781, 0.067644, -0.08195], [0.039816, -1.04605, 1.19063, -0.356576, 0.41504], [0.189576, -0.97804, 0.787977, -0.015372, 0.083474], [0.07983, -1.17272, -0.849707, 0.568349, -0.287857], [-2.23813, -0.051235, -0.080159, 0.086423, -0.137713], [0.105497, 0.766531, -1.14149, 0.107003, -0.102099], [0.0128, 0.745128, 0.273471, -0.298313, 0.105706], [0.003154, -0.021853, -0.001286, 0.021132, 0.004302], [-0.085879, 0.705611, -0.83168, -0.091949, 0.342491], [0.019048, 0.013782, -2.82672, 0.176425, -0.04704], [0.849159, -0.083014, 0.018076, 0.084064, -0.075572], [0.036888, -0.000678, -0.013911, -0.116806, -1.61032], [0.010751, 0.333719, -0.386559, -0.318307, 0.353445], [0.06728, 0.117556, 0.02187, -0.020863, 0.717618], [0.210043, -0.68052, 0.601385, 0.154794, -0.005779], [-0.12243, -1.45862, 1.65672, -0.241808, 0.435951], [0.206621, -1.39815, -0.535986, 0.045287, -0.157679], [0.036651, 0.964738, -1.38486, 0.021347, -0.384763], [0.026727, 0.993436, -1.17119, -0.196993, 0.331726], [-0.011474, -0.379824, -0.752291, -0.69534, 0.712364], [0.058562, 0.07317, -0.113043, 0.717135, -0.376261], [0.020976, 0.843534, -1.03007, -0.117281, 0.316059], [0.104742, -1.12474, 0.693672, 0.185089, -0.380419], [-0.033765, 0.673742, 0.147281, 0.097163, 0.112714], [-0.278335, 0.444603, 0.01699, -1.71012, 1.99988], [0.361249, 1.11047, 0.036326, 0.066577, -0.633768], [0.070788, -0.098386, 1.37026, 0.348431, -0.3868], [-0.000829, 0.146422, -0.67755, 0.210175, -0.371309], [-0.012499, 0.087104, 0.252121, -1.43873, 0.280709], [-0.143876, -0.576338, -0.043384, 0.141245, 0.086974], [-0.220313, -1.43432, 1.57766, -0.389883, 0.710866], [0.048953, -0.054796, 0.061976, 0.129491, -0.974034], [0.3735, 0.313354, -0.376171, -0.072385, 0.170712], [0.034372, 1.01415, -1.24232, -0.069656, 0.4427], [-0.008775, -1.49678, 1.18721, 0.265049, -0.159489], [-0.185778, -1.55659, 1.34662, 0.072135, -0.449653], [-0.150183, -0.680848, 0.599607, 0.226011, -0.236315], [0.248443, -0.643634, -0.013306, 0.082146, -0.386011], [0.057631, -0.716166, 0.010909, 0.200334, -0.326717], [0.166407, 1.22452, -0.004807, 0.600641, -0.700796], [1.88515, -0.001723, 0.002114, -0.005905, 0.000108], [0.09174, 1.99309, 0.130806, 0.417271, -0.393195]], [[0.67013, 0.038411, -0.994374, -0.724202, 0.678852, -0.092843, 0.030286, -0.168001, 0.080284, -0.1736, 1.1349, 0.193977, 0.162543, -0.627191, 0.446679, 0.001989, 1.04422, -1.12177, 0.29746, -0.154592, 0.81957, 0.367156, 1.59657, -0.773422, 0.490655, 0.364878, 0.132239, -0.999959, 0.794207, -0.495378, 0.382472, 0.158766, 0.027776, -0.221598, -0.821569, -1.77271, -0.854725, 0.140407, -0.767673, -0.977789, -0.285864, 0.585055, -1.10443, 0.161553, -1.26369, 0.828866, -0.193381, 0.296538, 0.06395, 0.022858], [-0.247624, 0.159665, 0.86895, 0.421652, -2.35503, 0.788529, 0.0448, 0.026713, 0.258382, 2.19199, -0.538482, -1.10514, -0.595353, 0.67589, -0.273029, -0.008948, 0.867684, -0.796498, 0.109674, 1.42891, -0.307634, -0.056012, -1.33988, 0.289814, -0.727361, 1.72024, 1.87771, -0.175301, 0.67385, 2.85679, -1.31771, 0.176479, -0.613598, 1.35171, 1.25363, -0.111179, -0.339878, -1.04078, 0.565907, 0.80855, -0.470171, 2.3152, -1.03839, -1.29066, 0.090254, -2.23905, -2.41537, 1.34467, 0.004956, 0.788415], [0.213713, 0.111278, 1.19673, 0.329839, 0.789444, -0.853116, 0.038441, -0.070195, 0.203989, -0.533775, -1.55755, 0.208529, -0.293665, 0.18404, 0.384295, -0.035002, 0.694148, 0.135915, 0.179697, -2.7716, -0.530572, -0.111381, -0.36983, -0.188305, -0.003879, -0.468858, -1.02491, -0.233949, -0.919385, -0.352812, 0.067328, 0.706319, 0.49063, 0.527715, -1.08319, -0.58576, 0.565696, 0.076501, 0.189457, -0.005269, -1.09245, -0.333454, -0.068516, 0.571614, 0.334284, 1.39879, 0.527991, -0.771322, 0.674309, 0.295486], [0.137007, -0.435386, -1.37896, -2.50179, 1.11524, -0.018413, -0.016681, -1.2116, 4e-06, 1.2698, -0.447982, 0.682584, -0.305062, -4.6098, 0.217946, -0.023051, -1.30652, -0.30438, 0.011612, -0.453488, -1.47877, 0.663206, -1.85874, -1.7583, 0.958963, 0.906304, -0.022945, 0.505924, -0.767089, -0.299733, 0.016157, -0.812003, -0.1745, -0.614677, -1.34957, -0.382419, -1.56991, 1.08548, -1.21904, -0.448986, 0.507628, -1.9711, -0.286958, -0.353788, -0.481163, -0.160331, 1.04869, -4.19011, 0.158111, -0.347093], [0.003465, -0.048973, -0.013221, -0.06275, -0.040941, -0.017066, 0.015387, 0.017965, -0.004145, -0.036325, 0.022217, 0.040492, 0.014093, -0.014576, -0.053847, 0.027477, -0.019061, -0.01201, 0.00138, 0.023984, -0.022043, 0.029206, 0.027358, 0.011918, -0.012824, 0.02005, 0.03042, 0.018811, -0.035562, 0.000674, -0.024549, -0.031637, -0.003811, -0.032553, -0.051277, -0.033865, 0.017292, -0.024874, -0.031866, 0.017679, -0.031582, -0.013067, 0.020777, 0.026831, 0.02798, -0.038347, 0.027527, -0.034158, -0.038451, -0.0202], [-0.021494, -0.03312, -0.019232, -0.003811, -0.054231, 0.0287, -0.020256, -0.052925, 0.002394, -0.043779, 0.018153, -0.01662, -0.012776, 0.027783, -0.002792, -0.045446, -0.022691, -0.046639, 0.041421, -0.007084, -0.046411, -0.013478, 0.046969, -0.004031, -0.02055, 0.0058, -0.03156, -0.036777, -0.033521, 0.03879, -0.037594, 0.012108, 0.019181, -0.032998, 0.020573, -0.023793, -0.015867, 0.031233, 0.021712, 0.013732, -0.040391, 0.038251, -0.003624, 0.024831, -0.058336, -0.025608, 0.015328, -0.014667, -0.015266, 0.022819], [-0.048711, -0.054618, -0.034067, -0.008741, -0.016136, -0.049786, -0.006958, 0.016689, 0.038833, 0.00476, -0.012184, -0.000108, -0.047938, -0.042901, -0.057267, -0.024339, 0.01128, 0.01956, 0.022546, -0.055959, 0.009241, -0.028473, -0.055205, 0.009763, -0.03244, 0.026251, -0.032079, -0.031462, -0.056086, -0.026483, 0.02949, 0.028875, -0.052894, 0.00952, -0.021896, 0.020049, 0.019465, -0.03798, -0.016965, 0.012932, -0.033658, -0.022108, -0.02955, 0.033363, -0.045368, -0.003039, 0.007028, -0.048847, 0.016094, -0.027895], [0.411505, 0.486405, -0.188571, 0.562679, -0.320328, -0.039712, 0.000129, 1.22693, 0.297299, -1.82867, -0.99088, -0.246123, 0.902772, 0.172357, -0.110789, -0.00347, -0.188746, 0.708489, -0.096855, -2.09192, 1.01066, 1.06214, 0.365403, -0.156386, -0.789409, -1.00216, 1.11149, -0.669211, -0.195523, 0.710687, 0.980837, 1.71038, -0.274494, -1.23776, 0.202698, 1.06422, 0.806051, 1.16828, -0.843323, -0.547329, 0.348989, -2.60617, 1.04542, 0.231862, 0.302827, 1.55634, -0.624123, -0.361325, 0.477704, -0.259797], [-0.007551, 0.017112, 0.164331, -0.013176, 0.075319, 0.194533, -0.028326, 0.59777, 0.386456, -2.0738, 0.14116, -0.438987, 0.567728, 0.309772, 0.926879, 0.022248, -0.702434, -0.087933, -0.143317, 1.34384, -0.425926, -0.912649, -0.978973, 0.375544, -0.168592, 0.217281, -3.48483, 0.745523, -0.427841, -1.8835, 0.489319, 0.479886, -0.438803, -0.217222, -0.416964, 0.166074, -1.89954, 0.386962, 0.204019, -1.14128, -0.160922, 0.235094, 0.053069, 0.651992, -0.715778, 0.881913, 0.58481, -0.147909, 0.117379, 0.086652], [-0.05228, -0.019867, 0.19194, 0.575316, -0.072857, -0.337211, -0.026373, -0.406385, -0.278542, -0.674541, -0.701809, -0.110888, -3.48045, -0.077508, 0.195755, -0.032779, -0.113234, 0.059877, 0.974117, 0.016069, -0.201592, -0.326923, -0.317886, 0.402693, 0.359579, 0.009038, -0.577216, 0.028606, 0.09854, -0.02585, 0.115145, -0.148231, -0.020275, -0.050731, -0.094392, -0.182844, -0.008991, 0.033805, -0.361696, 0.264658, -0.680499, 0.207784, -0.129342, 0.160725, 0.07256, 0.189916, -0.284203, -0.076581, 2.15326, 0.177682], [-0.049263, -0.048017, -0.041905, -0.014904, -0.066158, -0.051742, -0.047142, -0.027989, -0.006303, -0.03488, 0.010526, 0.002173, 0.028637, 0.016066, 0.006812, -0.042128, -0.015499, -0.041268, -0.018938, 0.028411, 0.010422, -0.051631, -0.016397, 0.009514, -0.071539, 0.029904, 0.034619, -0.031778, -0.005669, 0.01322, -0.009073, -0.062016, 0.005704, -0.049318, 0.010052, -0.04501, -0.019459, 0.01025, -0.055431, -0.005885, -0.007223, -0.006171, 0.038935, 0.032588, -0.057857, -0.046154, 0.016329, -0.020119, -0.007144, 0.018092], [0.933162, 0.191007, -2.2354, -1.22936, -1.38233, -1.89944, -0.03069, -0.137103, 0.220467, -6.59497, -3.9502, 2.28156, -0.719514, -2.47167, 0.262273, -0.01217, -1.99896, 0.838077, 0.343926, -10.8011, -0.595405, 1.10382, -2.13671, -1.89661, 1.14967, -1.50637, -5.04035, -0.203245, -3.53808, -4.66263, -0.965143, 0.301526, 0.954489, 0.131577, -2.39189, -0.996594, 1.86538, 0.099913, -0.629089, -2.01101, -0.192909, -2.87381, -2.94271, 0.177381, -3.0893, -0.56317, -0.868516, -0.942963, 0.202122, -0.600532], [1.28321, 1.22926, -2.0798, -1.69521, 0.320662, -0.068374, 0.026898, 0.870574, 0.132935, 0.489566, -3.3397, 1.36011, -0.177201, -0.052382, 0.85116, -0.004995, -2.00522, -0.357931, 0.422088, 1.40829, 0.615585, 0.174507, -1.4435, -0.688375, 0.398977, -1.20707, -2.84913, -0.918101, -0.741371, -2.1791, -0.250136, -0.461626, 0.288072, -1.46778, -0.363231, -0.535046, 0.982247, -0.004986, -2.12722, -1.78787, 0.180046, -2.36289, -0.274636, -0.530564, -2.74915, 1.77908, 2.91565, 0.898714, -0.082566, -0.736128], [0.046681, 0.289913, 0.789965, 0.577395, 0.811879, -0.713353, -0.033438, 0.152296, -0.07491, -2.9258, -0.038326, -0.387333, -0.081991, 0.606847, -0.148201, 0.00241, 1.38389, -0.381822, 0.468316, -0.468592, -2.22656, -1.50576, -0.710098, 0.271174, -0.159918, 0.377245, -0.091111, -0.413838, 0.154876, 1.62495, -0.059868, 0.730579, -1.41598, 1.07913, -0.098805, 0.019275, -0.109551, 1.15489, 0.120113, 1.39416, -0.463415, -0.900832, -0.399152, -0.061072, 0.34588, -0.786638, 0.416447, -0.317327, 0.198115, 0.170395], [-0.273355, 0.126593, 0.380217, 1.00405, -0.189368, 0.16697, 0.004415, -0.240706, -0.105048, -0.359332, -0.620357, 0.112861, -0.37705, -0.510043, -0.456112, 0.019789, 0.892086, -0.338461, 0.111041, -0.459847, -0.517269, -0.209049, -1.23304, 0.118396, 0.416308, 0.33059, -0.408946, -0.009293, -0.384219, 0.031545, -0.370566, -0.108541, 0.135456, 0.347023, 0.450514, -0.880438, 0.090134, 0.227512, -0.112079, -0.317575, 0.26641, -0.147506, -0.008715, -0.228667, 0.7537, 0.391229, -0.620763, 0.270827, -0.030532, -0.277929], [0.191131, 0.069993, -0.283681, 0.039106, 0.402684, 0.342056, 0.004328, -0.753671, -0.170131, 0.558958, 0.558275, -0.213941, 0.1015, 0.223327, 0.794845, -0.039627, -0.061372, -0.231322, 0.383764, 0.639941, -0.196785, 0.92334, 0.661989, 0.05942, 0.15217, -0.03964, -0.175865, -0.144242, 0.043676, 0.554288, 0.592408, 0.587007, -0.506442, -0.014559, -0.423932, 0.639385, 0.484158, 0.436942, -0.57557, 0.983671, -0.582632, 0.136569, 0.075702, -0.063114, -0.117303, -1.70907, -0.832191, -0.033245, -0.307619, -0.151518], [-0.000462, 0.040335, -0.05831, -0.000625, 0.019346, -0.019756, -0.003056, -0.018648, -0.050845, 0.035494, -0.001442, 0.000973, -0.034012, -0.036689, -0.045082, 0.002129, 0.027369, 0.011337, -0.00692, -0.047897, -0.01065, -0.049822, -0.004036, -0.005931, 0.021827, 0.017258, 0.020362, -0.029925, -0.000263, -0.048878, -0.034449, -0.036718, 0.010625, -0.034019, -0.012024, 0.001928, -0.023977, -0.038645, -0.003335, 0.02243, -0.03344, -0.048314, -0.040586, -0.056932, 0.020506, -0.048699, -0.006937, -0.002034, -0.03912, 0.022812], [-0.08803, -0.006495, 0.393326, 0.163145, 0.607066, -0.906206, -0.037519, -0.281912, 0.002238, -0.108241, 0.313051, 0.086662, 0.437354, -0.486838, 0.295223, 0.057324, -0.967686, 0.445016, -0.317696, 0.426963, 0.341781, 2.03437, -2.45016, 0.155742, -0.348631, 0.338803, -0.247618, -0.428061, -1.13864, -2.28817, 0.137657, 0.937206, -0.412723, 0.889087, -0.479967, -0.633266, 0.798923, -0.628667, 0.23532, 1.11854, 0.778915, -1.16077, 0.197628, 0.082427, -0.045775, 1.06196, 1.31925, 0.070056, 0.579361, -0.225894], [0.613125, 0.154175, -0.240222, 0.04861, -0.019077, -0.640449, -0.008828, -1.1619, -0.167536, -0.316746, -1.39005, 0.043183, -0.521208, -0.442339, -1.04613, 0.009734, 0.802507, -0.01063, -0.310286, -0.079075, -0.237144, 0.875514, -1.51314, -0.182476, -0.708455, 0.461603, -0.028532, -0.271571, 0.394765, -0.452009, 0.171398, 1.3013, -0.296039, 1.25549, 0.199142, -0.361088, 0.393312, 0.524724, 1.12252, -0.424281, 0.851032, 0.414783, -0.309489, 0.400775, -1.01238, 1.52311, -0.224862, -0.34139, 0.372888, -0.059615], [-0.010259, -0.080833, -1.90875, -3.01244, 1.13575, 0.513708, 0.006322, -0.873373, 0.668925, -9.1276, 1.45903, 0.938247, 1.73219, -1.49436, 0.256011, 0.000683, -1.62554, -0.608325, -0.564444, -4.5562, -0.09568, 0.149715, -3.80855, -1.90924, 1.11966, -0.869859, -10.8354, 0.545885, -0.04399, -4.15179, -1.89872, -0.617875, 0.232762, -0.167675, -1.72573, -0.857904, 0.411828, -1.1938, -1.19488, 0.309496, -2.62413, -1.49252, 1.06361, -1.69509, -1.52959, -1.25188, 0.778753, 0.972802, -3.73271, 1.5693], [-0.072817, 0.254735, 0.50827, 0.099708, -1.72244, 0.4864, 0.052953, -0.440317, -1.47876, -0.585674, -0.987947, -0.791329, -0.762987, -0.427364, -0.246576, -0.028076, -1.73112, -0.265137, 0.249267, -2.17, 0.798687, -0.173101, -1.83498, -1.60129, -0.347862, 1.21459, -1.66849, -0.223676, 0.193035, 0.12198, -0.715923, 0.759759, 0.615484, 2.86276, -0.42746, -0.694768, -0.327484, -0.547302, -0.909167, -0.979575, -0.917988, -0.551279, -0.970221, -0.296999, -0.74569, -3.94562, -2.37793, 0.46859, 0.215617, 0.981207], [0.021486, -0.01894, -0.04793, -0.04927, -1.9e-05, -0.002071, -0.021451, 0.002496, -0.052291, 0.038379, -0.026455, -0.037382, 0.013285, -0.029402, -0.049895, 0.045695, 0.032182, -0.011687, 0.021538, -0.052243, 0.041241, 0.02105, 0.002936, 0.018786, -0.019939, 0.003252, 0.027147, -0.020984, -0.047969, 0.01999, -0.023394, 0.031539, -0.053013, 0.027637, -0.003061, 0.008793, 0.019401, -0.040898, -0.054784, -0.024124, -0.049079, -0.05374, 0.000689, -0.039883, -0.022445, -0.026089, 0.000792, 0.016485, -0.02597, -0.044376], [0.052744, 0.017547, -0.049196, -0.05988, 0.004836, -0.014629, 0.041529, -0.008951, 0.019705, -0.013618, -4.4e-05, -0.007232, -0.0131, -0.025648, -0.007077, -0.015128, 0.026038, 0.006657, -0.01624, 0.014358, -0.019099, 0.00125, 0.022411, -0.01115, -0.025537, -0.001557, -0.037414, -0.060934, -0.025141, 0.002509, -0.0089, -0.035695, 0.027087, -0.035433, -0.008489, -0.010711, 0.017275, -0.021949, -0.01026, -0.052723, -0.032183, -0.059583, 0.001228, 0.013283, -0.066515, 0.029649, 0.017903, 0.016397, -0.013487, -0.040499], [-0.874391, 1.3188, -0.360888, 0.825027, 1.21686, -1.14345, -0.020067, -1.40438, 1.15193, -0.383151, -1.19501, -0.824502, -0.417817, -3.31381, -0.107233, -0.033744, 0.622465, -1.56408, -0.457942, 0.314149, 0.581312, 0.076109, 0.807063, -0.809091, -0.49625, 0.233039, -0.585079, -0.668604, -0.222681, -0.378828, 1.64406, 0.849984, -0.298283, 1.25176, -0.787672, -0.612776, 0.015111, 0.2684, 0.708939, -1.52918, 1.19898, -2.16358, -0.50675, 0.233402, -1.0544, -1.723, -1.72826, -0.411589, 0.574591, -0.231828], [-0.142083, 0.022332, -0.028291, -0.094986, -0.400376, 0.241676, -0.032584, -0.190617, -0.065931, -0.592984, -0.007459, -0.26071, -1.22181, -0.035908, -0.453998, 0.010957, -0.329878, -0.047112, 0.868103, -0.181669, 0.323176, -0.468151, 0.004182, -0.033765, 0.042359, 0.053617, -0.314862, -0.390047, 0.203095, -0.122422, -0.353216, -0.513634, 0.299489, -0.211739, 0.162812, 0.515871, -0.232813, 0.256378, -0.34811, 0.242018, -0.070775, 0.61042, -0.088752, 0.18118, -0.192493, 0.047831, -0.929721, 0.202697, -0.616326, -0.455548], [-0.781816, 0.434437, -0.337518, 0.418715, -0.020226, 0.559977, 0.024309, -0.062255, 0.542883, 0.911685, 0.191821, 0.41277, 0.249726, 0.700692, 0.577083, -0.006986, -0.37192, -0.205859, -0.199095, -0.758673, -0.20975, -0.501064, -0.301698, 0.148527, 0.469582, -1.00993, 0.173068, -0.505439, 0.261811, -0.630456, -0.397286, -0.925085, -0.3221, 0.521271, -0.724533, -0.567826, -0.921528, -0.463616, 0.578178, -0.698068, 0.528222, -1.82439, 0.326321, 0.405964, -0.634362, 1.10602, 0.209105, -0.49485, 0.554473, 0.398701], [-1.8863, -0.14942, -1.47875, -0.48048, 0.006687, 0.882545, 0.010451, -0.207202, -6.32111, -0.264834, 1.01037, 0.597102, -0.672065, 0.063466, -2.50651, 0.024991, -0.03076, -0.759992, 0.446826, 2.03114, 1.97833, 0.237729, 0.522795, -0.03709, 0.343409, 1.79139, -0.016363, -1.9034, 0.027302, -0.023387, 0.226583, -2.8804, 0.079806, -0.130356, 0.088482, 0.287502, -0.701078, -0.477431, 0.663893, 2.15964, -1.63363, -0.042443, 1.08724, 0.178425, 0.595036, 0.025934, 0.214519, -0.89481, 0.008707, -1.8652], [-0.841925, -1.13163, -0.011784, 0.174881, 0.42131, 0.064758, 0.032465, -0.583833, -3.87317, 2.00744, 1.81319, -0.885858, -1.16093, -0.019327, -2.01806, -0.039997, -0.011831, -5.84875, 0.23795, -6.83445, -1.03367, 0.779649, 0.837317, 1.4221, -0.499782, 0.060611, 0.049171, -0.545849, 0.224421, 0.046849, 1.05946, -1.50306, -0.379988, -0.748976, 0.423191, 0.088769, 0.322873, -0.146104, 0.901642, -1.21033, -1.89228, -0.033723, 2.45176, 0.853311, 0.586414, -0.704141, -0.086788, -0.6572, 0.318211, -0.248212], [0.02821, -0.014658, -0.029603, 0.023276, -0.02551, 0.022765, 0.009261, 0.024187, -0.034382, -0.000613, -0.045488, -0.000194, -0.020725, -0.057236, -0.027583, -0.009313, 0.016904, 0.00166, -0.0103, -0.003608, -0.012608, -0.00481, -0.017312, 0.017051, -0.048928, -0.029133, 0.013049, -0.021007, 0.007514, -0.025582, -0.046846, -0.037315, 0.009986, -0.004988, -0.011444, -0.057609, 0.034528, -0.050658, -0.008076, 0.038739, 0.010951, -0.014546, 0.032248, -0.004183, 0.002419, -0.045059, -0.057837, -0.053407, -0.010155, 0.025925], [-0.261688, 0.157586, -0.278059, -0.203463, -0.56196, 1.38754, -0.031155, 0.259752, -0.237098, 0.887913, -0.24536, 0.362607, -0.574756, 0.23853, -0.417346, 0.038301, -0.402647, -0.162641, -0.207406, -1.00876, -0.078565, -0.973193, -0.147726, 0.498039, -0.393348, 0.125111, 2.043, -0.173248, 0.071869, -0.174993, 0.173982, 0.124821, 0.621132, -0.278571, -0.078159, 0.341007, 0.478873, 0.272131, -0.966708, -2.38659, 0.215901, 0.226618, 0.613395, 0.050532, 0.415107, -1.01718, -0.09652, 0.304907, 0.446044, -0.389419], [1.17002, -0.001984, -2.99139, -1.47585, -0.008789, -1.29997, -0.014899, -0.378636, 0.050246, 0.078643, -7.11577, 1.97719, -1.20855, -1.72731, -0.727647, -0.005608, -1.99689, 0.963877, 0.269778, -2.96772, 1.50778, -0.489506, -1.36062, -3.48194, 1.00218, -2.69898, 2.3614, 0.399384, 0.223361, -0.778988, 0.612499, -2.80865, -0.792139, -1.5415, -2.25676, 0.869603, -3.96437, -0.715605, -4.26705, 1.35542, 0.81225, -2.92001, 0.715053, 0.197533, -0.356256, -1.80204, 2.45857, -0.70351, -0.182402, -1.69697], [-0.030706, -0.028343, -0.019911, 0.018791, -0.053916, 0.030533, -0.003426, 0.034062, 0.035143, 0.045468, 0.029722, -0.019184, -0.017208, 0.02894, -0.028661, 0.041879, -0.029167, -0.002176, 0.018916, 0.011442, -0.022014, -0.021996, 0.023986, -0.001615, 0.011663, -0.043517, -0.005028, 0.031496, 0.038657, -0.03399, -0.023609, -0.008609, -0.049198, -0.026031, -0.004327, -0.006483, -0.006022, -0.053058, 0.048476, -0.044848, -0.001972, 0.010831, 0.01107, -0.01217, -0.019439, -0.010815, -0.018663, 0.002575, -0.037724, 0.001625], [0.451051, -0.241624, 0.840137, 0.923183, 0.536213, 0.221987, 0.036527, -0.258667, -0.434154, 0.886426, 0.154451, -0.168441, -1.26175, -0.099563, -0.172009, -0.001044, 0.080181, -0.253926, 0.58743, -4.62668, 0.275142, -0.022804, 1.06529, -0.094619, 0.008194, -0.700693, -0.106526, 0.170149, 0.542244, -0.898185, 0.126322, 0.561647, 0.053508, -1.04853, 0.979025, 1.02999, 0.467812, -0.577787, -0.051446, -1.3885, -0.08257, -0.580416, -0.529446, 0.128597, 0.105961, 0.013602, -0.25162, -0.782542, -0.454953, 0.201023], [-0.257749, 0.007769, 0.546539, 0.217324, -0.321858, -0.621313, 0.029489, 0.270712, -0.297588, -0.441866, -1.81299, 0.136443, 0.285223, -0.255151, -0.341962, -0.020564, 1.05672, -0.0981, -0.149066, 0.64188, 0.089954, -0.070552, -0.523364, -0.140873, -0.013606, 0.217265, -1.02687, 0.087215, 0.303355, -0.282668, -0.078289, -0.514405, 0.180104, -1.17564, 0.451849, 0.660984, -0.107171, -0.369293, 0.44432, 0.759918, -0.010869, 0.422135, -0.117515, 0.109252, 0.562837, -0.189558, -1.08971, -0.145579, -1.25886, -0.077339], [-0.067987, 0.259909, 0.271899, -0.799517, -0.154063, 0.20214, 0.042335, -0.764443, 0.064631, -3.72277, -2.18567, 0.138714, 0.031659, 0.576073, -0.329295, 0.02942, -0.057888, 0.08914, 0.097627, 0.226139, 0.138151, 1.20667, 0.875369, -4.33923, -0.165662, -0.068118, -1.09464, 0.965016, -0.786304, -3.81543, 0.283328, 0.229683, 0.141943, 1.31919, -0.499103, -0.517888, 0.832679, -0.887425, -1.16012, 1.53989, -1.76287, -3.34617, -0.081007, -0.81935, -0.54041, 3.12562, 0.179997, -0.554999, 0.628933, 0.182286], [0.770374, -0.215566, -1.75462, -2.47887, 2.00341, -0.721525, 0.015258, -0.283925, 1.17584, -0.398953, 1.44194, 0.747895, -0.217286, -0.839313, 0.335283, 0.021712, -1.64828, 0.576235, -0.115876, -2.39352, 0.814856, -0.281515, 0.974672, 0.420008, 1.15946, -0.986708, -2.23657, -0.259048, -0.176361, -2.16146, 0.458367, 0.44476, 0.387216, -0.884072, -0.26489, -1.13548, 0.433301, 0.968544, -0.988682, -0.362267, 0.667079, -1.27982, 0.350041, 0.006001, -0.137502, 1.45446, 1.14055, -0.474915, -0.03071, -1.04551], [0.304704, 0.132604, -0.823462, 0.18525, -0.869024, -2.30567, -0.000779, -1.69526, -0.538826, -3.45385, -0.862352, 0.216623, -0.110929, -3.56774, -0.923492, -0.0548, -0.384797, 0.30047, -0.765391, -2.36095, 0.160003, 0.11318, -2.91163, -0.034959, -0.732564, 0.648644, -1.34666, 0.46314, 0.184289, -2.6677, -1.65029, 0.88926, 0.257713, 0.184098, 0.505786, -0.179603, -0.07907, -0.150936, -0.388612, -1.31296, -0.451932, -2.32094, -2.76905, -0.855195, -0.065929, 3.49728, 2.50089, 1.11986, -0.225274, -0.058557], [0.444323, 0.882416, 0.25418, -0.378888, -2.71017, 0.694127, -0.002829, -0.027485, -2.12569, 1.61735, 1.53944, 0.630232, 0.696445, -0.406266, 0.653692, -0.026508, 0.630425, -0.042395, -0.308924, 1.96577, 0.418531, -0.087714, 1.21631, 0.704831, 0.44045, -0.182264, 0.240371, 0.212677, 0.220812, 0.713458, -1.39768, 0.635464, -0.939215, -0.211088, 0.459842, -0.302371, 0.839965, 0.67741, 0.250688, 1.1725, 0.14316, 0.512438, -1.32011, 0.064742, 0.159086, 0.704573, -0.079739, 0.852973, 0.214212, -0.76984], [-0.411164, 0.022888, 0.006602, 0.19205, -0.328579, -0.031025, 0.026473, 1.16403, 0.040666, -2.01626, 2.5113, 0.043209, 0.047642, -0.304041, 0.675009, -0.039408, 0.185122, -0.061374, -0.222251, 0.016058, -0.729908, -0.021828, -1.84796, -0.030078, 0.216795, 0.325282, 0.118596, -0.128755, -0.84293, -0.025324, 1.09778, -0.150389, -0.00448, -1.13481, -0.349344, 0.124068, 0.552134, -0.159636, -0.414711, -0.18394, -0.498269, 0.240107, 0.062474, -0.103728, -0.559474, -1.24843, -0.774572, 0.417728, 0.199058, 0.464163], [1.17552, 0.935158, -0.860887, -3.38938, -0.849022, -5.58089, 0.028946, 0.271713, -0.007122, -4.15329, -2.88527, -0.94445, -1.25053, -7.21749, 0.558941, -0.008678, -3.81973, -4.48133, 0.358376, -6.76207, -0.898577, -0.099276, -2.62774, -2.82654, -0.986339, -1.01015, -7.39164, 1.94193, -1.56982, -2.43051, -1.19006, 2.02632, 1.07034, 0.12411, 1.005, -5.04796, -0.521016, 0.021336, -1.66976, -1.59462, -1.02565, -3.15154, -3.11302, -2.20723, -0.109258, -1.25817, -3.57478, 1.94609, 0.369043, 1.71817], [-0.099325, 0.315548, 0.964266, 0.888089, 0.069967, -0.817479, -0.036222, 0.065832, -0.00211, -0.367341, -0.020461, -0.032207, -0.079037, -0.720423, -0.451995, -0.016211, 0.26779, -0.51905, 0.052777, -2.15905, -0.395308, 0.272602, -1.42414, -0.321405, 0.312256, -0.049783, -0.063661, 0.081931, -0.424775, -0.26031, -0.250604, -0.216659, 0.184077, 0.174045, -0.52945, -1.45488, -0.136621, 0.219612, 0.186513, -0.55062, 0.274946, 0.031229, -0.589925, 0.763258, 0.482103, -0.567531, -0.35469, 0.226922, 0.326848, 0.515871], [0.277961, -0.195606, -2.28415, -0.816566, 0.946004, 0.130998, 0.037527, 0.834612, -0.077766, -0.008238, -2.43089, 0.417645, 0.271494, 1.67607, 0.404216, -0.009304, -0.710559, 0.031563, 0.196822, -2.85134, 0.382561, 1.06108, 0.63882, -0.771555, -0.411309, -0.282302, -1.89769, -0.63416, -0.789406, 1.33025, 1.17483, 0.326766, 0.258303, 0.796642, -0.26561, -0.388926, -1.1785, -0.155965, -0.664031, 0.808365, -1.26743, -1.25524, 0.109048, -0.916561, -0.184443, -1.23697, 0.445293, 0.574079, 0.456535, 0.104196], [-0.078977, 0.175734, -0.201822, -1.98335, -0.454557, 1.31786, -0.0022, -0.319358, -0.39027, -1.7328, -0.109172, 0.584494, -0.152173, 0.699425, 0.363276, 0.034544, -4.15417, -0.314255, 0.219547, -2.079, -0.898359, -0.274042, 1.4297, -1.22556, 0.469736, 0.853903, 0.525757, 0.696126, -0.847171, -0.053298, -1.81108, -0.205403, 0.14039, 0.522538, -0.88368, -0.871895, 0.581972, 0.453402, -1.1569, -0.946675, -1.4587, -0.996177, -1.25127, -0.729032, -0.439104, -0.446528, -3.98166, -0.921316, 0.21264, 0.219038], [-0.082384, 0.24414, 0.692248, 0.617725, -0.079527, -0.683525, -0.042205, -1.60551, -0.264562, 0.350516, -0.19792, -0.462925, 1.28321, -0.50117, -0.837683, 0.055384, 1.75032, 0.409591, -0.780974, -1.12244, 0.163526, -0.743644, -0.22947, -0.040992, -0.402678, -0.272548, 0.233026, -0.442367, 0.983759, -0.396974, -1.24451, 0.4141, 0.207913, 0.049959, 0.717303, 0.427849, -0.057854, 1.47519, 1.05341, -0.134895, -0.103361, 0.651573, -0.620016, 0.612242, 0.163621, 1.8388, -0.464768, -0.251417, -0.65407, -0.439822], [0.128414, -0.034014, 0.329018, -0.605395, 0.524792, 0.610712, -0.014647, -0.244683, -0.037072, 0.828643, 1.29949, 0.234409, -0.246202, -0.494526, -0.103044, -0.008377, 0.304984, 0.457673, -0.33115, 1.18471, 0.199777, -0.106967, 0.415286, 0.120403, 0.470854, -0.689734, -0.730895, -0.288202, -0.019111, 0.671728, -0.160585, -0.144602, 0.040082, 0.937854, 0.247485, 0.092466, -0.298871, 0.649696, -0.109947, 0.512496, 0.927525, -0.539911, 0.410725, -0.150582, 0.724621, 1.7435, 0.761549, -0.558626, 0.099039, 0.357608], [0.568572, -0.672336, 0.953872, 0.670128, 0.566438, 0.015817, -0.000558, 0.616301, 0.130131, -1.26549, -0.542334, 0.840408, -0.322136, -0.90644, -0.182872, -0.046578, 1.20048, 0.264102, 0.060886, -3.02499, -1.2673, -0.37978, 1.75743, 1.11367, 0.431034, 0.236133, -0.288916, -0.362896, -1.49321, 0.84433, -0.092207, -0.458594, 0.204084, -2.28463, 0.889101, -0.939466, 1.0806, 0.904047, 0.638093, 1.92717, -2.38085, 0.566535, -0.301108, -0.094016, -0.088716, 0.787114, 0.227389, 0.051342, 0.327278, 0.13224], [-0.043364, 0.069107, 0.360155, 0.481226, 0.512753, -0.432077, 0.027578, 0.629581, 0.087505, -0.041315, -1.10315, -0.425535, 0.080918, 0.794762, 0.900245, -0.011114, 0.279643, 0.072656, 0.003045, -0.48189, 0.078557, 0.024787, -0.367505, -0.415003, 0.597893, -0.003436, -0.825154, 0.596476, -0.22491, -0.296375, 0.330287, -0.473696, -0.184235, 0.617029, 0.069486, 0.583681, 0.900547, -0.322515, 0.07921, -0.628208, -0.343387, -0.768415, -0.047047, 0.617795, 0.339937, 0.264417, 1.52369, -0.506462, -0.124444, -0.06005], [-0.23805, 0.183928, 0.887616, -0.062139, -1.74235, 1.30792, 0.009119, -0.584867, -0.060176, 0.159135, -2.57568, -0.186995, -0.547357, 2.58874, 0.248781, 0.023051, 0.348997, -0.862849, 0.268552, -3.04602, -0.745049, 0.09528, -0.974338, -1.59912, -0.570674, 1.51166, 0.610947, -0.102166, -0.285906, 1.00418, -1.97581, 0.02318, 0.015545, -0.048052, 1.94215, -0.687692, 0.216327, -0.667801, 0.094034, 0.89115, -0.621171, 1.2885, -1.35699, -1.09167, 0.018852, -1.1529, -1.81687, 0.48691, 0.042261, 0.787465], [-0.041964, 0.17505, -0.110549, -1.42529, -1.06313, 0.862149, -0.005325, -0.875036, -0.297053, -1.38356, 1.1869, -0.419964, 0.148691, 0.283325, -0.324151, 0.035768, -0.968466, -0.184264, -0.291296, -2.52943, -0.107081, -1.16255, 1.27888, 0.257085, 0.119285, 0.319933, 1.53965, 0.484207, -0.422117, -1.26757, -0.143048, -0.685564, 0.350995, 2.59508, 0.191564, -0.910689, 0.066363, 0.566885, 0.447453, -0.915005, 1.05609, 0.190633, -0.586858, -0.422916, -0.103637, -2.05122, -2.1952, -1.88074, -0.194849, -0.943158], [-0.093404, -0.221673, 0.1812, 0.454193, 0.322575, 0.209762, -0.011267, -0.731583, -0.318685, 0.933971, 0.6968, -0.823215, 0.086468, 1.74451, -0.377554, 0.017131, -0.203424, -0.309963, -0.063326, -0.12206, 0.314815, -0.157947, 0.810529, -1.55977, 0.133689, -0.00842, 0.675742, -0.351996, 0.183754, 0.71188, -0.637136, -0.608635, -0.013714, -0.013208, -0.057093, -0.320308, 0.114848, -0.441279, 0.238436, -0.368475, 0.410207, 0.325139, 0.303671, -0.290138, 0.497387, -0.323015, 1.0841, -0.15561, -0.141011, 0.22744]], [[-1.01797, 0.68209, 0.461356, 1.93899, -0.012135, 0.030893, 0.025745, -1.02286, -0.638413, 0.20377, 0.021855, 0.479182, 0.333089, -3.66668, -0.757048, -2.80202, -0.030013, -0.633922, 1.07478, 0.870496, 0.137749, -0.015503, 0.019404, 0.074106, -0.721265, -0.987267, -2.03502, 1.08342, -0.032734, -0.217041, -1.0278, -0.009629, 0.053778, -0.852855, -0.856817, 0.888639, -3.61455, -1.87461, 0.226498, -0.183977, -1.20104, -0.623635, -0.081566, -0.140301, 0.291455, 0.35782, -1.99223, 0.117489, -0.238039, -1.27998], [-0.939494, -0.075959, 0.268126, -3.74888, -0.028436, -0.070989, 0.030362, -2.92655, -0.477864, 0.31039, 0.035118, -0.164787, -0.326498, -1.26793, -1.09515, -1.65422, 0.045373, -0.821753, 0.47765, 1.04527, 0.192282, 0.026027, -0.018612, -1.0153, 0.204778, 1.51393, -0.31554, 0.404674, 0.006141, -0.334196, -0.596325, -0.009561, -0.519177, -0.170141, -0.096563, 1.0128, 0.796598, -0.266447, -1.78349, 0.638239, -0.352072, -0.428331, 1.19095, -0.502822, -1.05826, -1.31197, -1.36444, 0.537594, 0.243375, 1.19369], [0.688761, 1.48396, -0.976798, 1.42407, 0.039716, -0.024916, -0.008976, 0.463769, -0.603218, 0.859255, -0.001936, 1.3817, -0.024947, -0.353967, -1.88735, 0.425347, -0.032806, 0.297888, 0.969884, 1.78216, 1.12027, 0.046764, 0.001494, 0.846495, -1.03491, 0.036312, 1.13244, 0.939545, -0.00175, 1.89438, 0.310877, -0.052432, -0.676306, -1.53398, 4.00422, 0.844625, 1.43879, 0.391604, 0.753089, 0.652549, -0.37245, 0.316399, 0.993262, -1.23019, 1.44877, 0.981638, 1.50294, 1.26202, 1.63162, 0.825732], [-0.522774, 0.365109, 0.008783, -0.935037, 0.04825, 0.055221, 0.050567, 0.214128, 0.085062, 0.121661, -0.014546, 0.023604, -0.883186, -0.655763, 1.15329, 1.1958, -0.032729, -0.02521, -0.384685, -0.238709, -0.459323, 0.007617, 0.02693, 0.171828, 0.15221, 0.73303, 0.664304, -0.467225, 0.002307, 1.48903, 0.141434, 0.030252, -0.412858, -0.393179, -0.061687, 0.104581, 0.316995, 0.607365, 1.20803, -0.856956, -1.39819, -0.382291, -0.893296, 0.1015, 0.879768, 0.015295, 0.955077, -0.195829, 0.108957, -0.228532], [1.35615, -0.581028, -0.07677, 0.82515, 0.006875, 0.014816, -0.022191, 0.798799, 0.021522, 0.129958, 0.043674, -3.5143, -0.112293, -0.68674, 0.55827, -0.295995, 0.021475, 0.06046, -0.09893, -0.573389, 1.13444, -0.011669, 0.056722, 0.16599, 0.559952, 0.19051, 0.070381, -1.04612, -0.010579, 0.162803, 0.146378, 0.050572, 0.096779, -0.355547, -0.368947, -1.25482, 1.25775, 1.11452, 0.510465, -1.23582, 0.026446, 0.873366, 0.540131, 0.132998, 0.146, 2.84019, -0.771955, 0.10191, 1.05918, 1.38069], [-0.051339, 0.091513, 0.562318, -1.40782, -0.021101, 0.023928, -0.030191, -0.786264, 0.275743, 0.261263, -0.012497, 1.35608, 0.305064, 0.565523, 1.11352, 0.312869, 0.007544, 0.075361, -0.239879, 0.062236, 0.259716, -0.012326, 0.007443, -0.236623, -0.108699, -0.803554, -0.477367, 0.766572, 0.034413, -0.416176, -0.477702, -0.029892, -0.389591, -0.210033, -0.401662, 0.038006, -0.882648, 0.067592, -0.771614, 0.697453, 1.64069, -0.490475, -0.181029, -0.077821, -0.258018, -0.442998, -0.832876, 0.14469, -1.198, 0.607086], [0.852557, -0.470868, -0.055358, -2.06243, -0.012033, 0.023505, -0.041016, 1.75498, -1.7649, 0.26581, -0.058714, 0.704665, 0.492181, -0.82888, -0.425699, -0.063205, 0.022018, -0.722918, 0.569997, -0.561002, 1.47198, 0.02648, 0.048662, 0.342613, -0.289888, -0.710464, 0.391209, -0.592276, 0.04964, -0.373808, 0.140768, 0.016224, 0.8623, 0.899339, -1.20987, -0.017756, -0.597033, -0.300189, -0.021258, 0.75855, -0.6106, 0.15539, -1.14907, 1.14698, -0.166894, 0.906962, 0.802248, -0.225467, -1.1077, -0.028953], [1.04874, 1.11097, -1.18043, 0.910756, 0.02741, -0.02621, 0.0368, -0.96788, -0.004805, -2.55778, 0.014864, 0.433411, 0.625534, 0.158752, -0.663772, 0.317286, 0.037703, 1.37615, -2.90684, -0.210159, -0.070113, 0.01569, -0.002033, -0.254279, 1.93242, 0.628428, 1.08197, 1.38044, 0.029649, 0.647716, 1.17493, -0.008121, 0.534582, -0.239968, -3.31155, 0.05661, 0.269368, 0.972751, 0.049811, 0.641158, -2.01204, 0.431934, 1.0117, -1.57614, -0.81446, 0.286061, 1.82862, 0.507141, 0.126938, 3.39182], [0.02993, -0.134961, 0.225869, -0.376216, -0.019171, 0.039862, 0.012528, -0.386837, -0.20454, -0.07399, 0.028472, -0.113221, -0.298401, 0.548226, -0.206253, 1.29533, 0.033567, 0.189768, -0.001346, 0.670718, 0.583006, -0.018145, -0.021686, -0.05296, -0.15987, 0.184262, -0.225967, 0.058348, 0.036156, -0.158836, 0.035655, 0.026314, -0.450867, -0.749238, 0.818568, 0.300472, -1.02194, -0.13273, 0.309027, -0.010599, -0.009572, -0.061523, -0.402107, 0.121906, -0.518836, -0.160675, 0.829782, 0.530252, 0.652796, 0.346282], [0.21629, 1.24398, -0.002628, 1.7758, -0.02095, 0.007989, -0.02434, 0.203021, 0.362817, -14.9593, 0.038268, 0.648961, 0.540776, 0.194044, 0.194389, 1.14779, 0.015548, -0.027233, -1.0831, -0.50345, 0.344204, -0.029741, -0.044846, 0.528959, -3.47092, 0.458554, 1.93362, 0.834645, -0.048544, -0.087648, 1.35029, -0.018879, -0.325909, 0.441564, -0.280889, 0.594469, 1.60566, 0.075105, 0.275551, 0.701211, -1.15378, 1.12941, 1.1535, 0.596831, -0.961077, 1.55194, 0.205305, 0.591065, 0.193584, 1.72596], [1.20931, 0.420543, -3.25814, 1.68225, -0.03754, -0.021668, -0.044833, -0.861977, 0.789202, -0.316096, 0.017299, -1.83498, -0.472815, -0.169684, -0.289915, 0.896159, 0.04821, 1.63079, -0.660352, -1.49229, -0.289122, 0.027867, 0.020323, 2.82431, -1.241, 0.959476, 0.163285, -2.91597, -0.038557, -7.02068, -0.924376, -0.032494, -1.47838, -0.966853, -1.20718, -0.354097, 0.727295, -2.02351, 0.101314, -1.49913, -3.77305, 0.372576, -3.03962, -0.429552, 1.82569, 0.130452, 3.0228, -0.173333, -8.96234, -7.8133], [-1.28943, 0.121446, -0.801863, -0.062183, -0.025683, 0.062752, 0.03372, 0.998941, 0.144502, 0.262486, -0.01879, 0.482477, -0.04602, 0.272066, 0.605668, 0.124728, -0.03899, -0.31925, -0.328364, 1.51297, -0.121324, -0.034437, -0.005427, -0.038982, -0.077498, 0.614493, -1.41187, -2.01027, 0.036204, 1.02913, -0.409612, -0.03387, 0.429081, 0.263445, 0.565381, -0.139388, -0.140082, 0.168352, 1.0242, -0.466797, -1.61677, -0.108173, -0.190273, -0.215766, 0.274078, -2.09191, -0.147119, 0.473205, 0.190958, -1.3944], [0.222705, 0.403608, 0.032348, 0.265658, -0.001903, 0.01914, -0.014776, -2.3153, 0.398329, 0.009261, 0.014644, -0.886798, 0.238783, 3.44987, -0.534157, -3.62688, -0.030514, -0.915895, -0.378124, -0.137207, -0.155564, -0.039145, -0.030117, -2.15149, -1.10141, 0.815122, 0.112365, -0.437037, -0.010447, 0.246828, -0.697961, 0.000452, 0.636268, 0.958892, -0.073976, 0.572519, 0.253568, -3.32401, 1.22901, 0.875868, -0.006987, -0.151575, -0.835507, 0.274961, -0.380928, 0.363403, -0.651254, -0.555813, 1.03985, -0.234185], [-3.74816, 1.08272, -1.41176, -0.181702, -0.015061, -0.031424, 0.018876, -0.980912, 0.579885, 0.091662, -0.039769, 0.759594, -1.6723, -1.09782, -0.789458, -0.862134, -0.01469, 1.21026, -1.90139, -2.46848, -0.736009, 0.042648, -0.019617, 1.11249, -5.21548, -0.475865, -0.039797, -0.042395, -0.023104, -0.890433, -0.039065, -0.034501, -2.33942, -0.173712, 1.62877, 0.096659, -2.14131, 0.126948, -0.824155, -0.559728, 1.42657, -2.04458, 1.70143, 0.076691, -3.02022, -2.60403, -2.42165, 0.956288, -0.356665, -0.718724], [-0.623753, -0.163099, 0.348514, 0.771998, 0.00324, -0.0489, -0.042631, -0.312696, -0.472768, -0.104701, -0.022612, -0.023017, 0.132699, 0.665154, -0.77778, -0.08841, -0.037634, 0.895555, -0.047169, -0.810732, 0.246011, -0.023844, -0.034009, 0.376771, 0.304223, -0.62818, -0.064819, 0.297105, 0.01109, -0.120748, 0.338253, 0.028891, 0.397759, -0.238828, 0.820387, 0.099192, 0.21105, -0.220804, -0.177772, 0.167916, -0.50675, 0.378177, 0.723755, 0.22421, 0.175805, 0.336653, -0.475956, 0.125201, -0.203202, 0.948392], [-0.04459, -0.091164, -0.756953, 0.0305, 0.021211, -0.00423, 0.002514, 0.612583, 0.102474, 0.060694, 0.03952, -0.141098, 0.106286, 0.065387, -0.00551, -0.754266, -0.031696, 0.482247, 0.117847, 0.060378, -0.343668, -0.028303, -0.037687, 0.468317, 0.141458, -0.021014, 0.151132, -0.117937, 0.039562, 0.219243, -0.026926, -0.011699, 0.269371, -0.663186, 0.783044, 0.102448, 0.6475, 0.510577, 0.161891, -0.661805, -0.357491, -0.455365, 0.267454, -0.05919, -0.156271, 0.090017, 0.492808, 0.017331, 0.142868, -0.962318], [0.445781, 0.25268, -0.370048, 0.91347, -0.030839, 0.024131, 0.041697, -0.700522, 0.232453, -0.147879, -0.014948, -0.453872, 0.148956, -0.494365, 1.04701, -2.99208, 0.030464, -0.199831, 0.126806, 0.132238, 0.160533, 0.016017, 0.017339, -0.124343, 0.622798, 0.002937, 0.278801, 0.181755, 0.031271, 0.055672, 0.035903, 0.040107, -0.539914, -1.23215, 0.524095, 0.159638, 0.322539, 1.75249, 0.692636, 0.226109, 0.720816, 0.219624, -0.471109, -0.247649, 0.228897, -0.702151, 1.1236, 0.071169, 1.51736, 0.995276], [0.059297, -2.07605, -0.571638, 0.747792, -0.020165, 0.06831, 0.016672, -1.55909, 0.31478, 0.072062, 0.032627, 0.029291, 0.083655, -1.14842, 0.061253, 0.192258, 0.051467, -0.658486, 0.342526, 0.161698, 0.19831, 0.018813, 0.002199, -0.720881, -0.019182, -0.040323, -0.546905, -2.27423, -0.004681, 0.629137, 0.084764, 0.02103, 0.261085, 0.32413, -1.86524, -0.161079, -0.346157, -0.946172, 0.027049, -0.008821, 1.10169, 0.294574, 0.196251, -0.441053, 0.579909, -0.789201, -0.275736, -1.12107, 0.277727, 0.565458], [1.20638, -0.637735, 0.946453, 1.45664, 0.042469, -0.023304, -0.002949, 0.268234, -0.253226, -0.24924, -0.015986, -0.254958, -0.226176, 0.171413, -0.353815, 0.887878, -0.013337, 0.614595, -0.068663, -0.523242, -0.233963, 0.045313, 0.007455, 0.56233, 0.602101, -0.689804, 0.301097, -1.081, -0.035841, -0.109195, 0.18977, 0.03427, 0.3517, 0.754224, 0.743386, -0.423671, -0.514217, 0.059351, -0.326264, -0.434643, 1.45318, 0.316315, 0.303919, 0.516392, 0.093979, 0.211225, 0.374916, 0.185517, -0.233739, -0.750426], [0.150536, -0.119846, 0.179206, 0.170946, 0.044716, -0.021115, 0.048993, 0.53677, 0.060941, -0.197065, 0.008636, 0.049403, 0.200637, -1.20057, -0.126791, -1.27732, -0.003487, -0.43436, -0.121769, -0.169727, 0.887131, -0.002536, -0.006067, 0.897653, 0.648933, 0.425756, 0.314497, -0.211848, 0.003051, -1.31215, 0.007911, 0.031571, -0.156902, -0.093347, 0.646685, 0.453637, -0.529779, -2.24047, 0.742416, -0.223593, 0.801337, 0.730392, -0.220782, 0.399766, -0.370877, 1.45578, -0.569359, 0.135714, -0.712582, -2.4707], [-0.053699, -0.076133, -0.04275, -0.003049, 0.046024, 0.008628, -0.010346, 0.028652, -0.067383, -0.00444, -0.049667, -0.034113, 0.0072, -0.004071, -0.057804, 0.039189, 0.02035, -0.08917, -0.003424, -0.044228, -0.009109, 0.008991, -0.03737, -0.01094, 0.009056, -0.055377, 0.015289, -0.063931, -0.000161, 0.046207, 0.024979, -0.045985, -0.046737, -0.004213, 0.010174, -0.001963, -0.050503, -0.006774, -0.063637, -0.03277, 0.002489, -0.011117, -0.008356, -0.054523, -0.020069, -0.037489, -0.022061, -0.012412, -0.040328, -0.018452], [2.85534, 0.188435, -0.226971, 0.305271, 0.040641, 0.010833, 0.01386, 3.16332, 0.987257, 0.03359, 0.006627, 1.92605, -2.63217, -0.603608, 0.561928, -3.10613, -0.007122, 0.675719, 0.011398, 0.861121, 0.201648, -0.049532, -0.032054, -0.333176, 0.732164, 0.053642, -0.244374, 1.14807, 0.043429, -0.221314, -1.6508, -0.044059, 0.079068, 1.15433, 0.406055, -0.818576, -0.707614, 0.627575, 1.05911, -1.5106, -1.45127, 0.12921, 1.04639, -0.09185, -0.815304, 0.195192, 0.971726, 0.689389, 1.18651, 0.182267], [1.84069, -0.103447, -0.864854, 0.25221, 0.033827, 0.009373, 0.006192, 0.550133, -0.741471, 0.074245, 0.0065, -0.332926, -0.150894, 1.19647, -0.156404, 3.22614, 0.015813, 0.367262, 0.340245, -1.20627, -1.1416, -0.046961, 0.006568, -0.546719, 0.840128, 0.066804, 0.251472, 0.396152, -0.045809, 0.333187, -0.313936, -0.011043, -1.18243, 0.824045, 0.245461, -0.674562, 1.29459, 0.832523, 0.245054, 0.693751, 0.798896, -0.05945, -0.084483, -0.244902, -0.036248, 0.313264, 0.720024, 0.024138, 0.665787, 0.756379], [-1.4076, -0.30653, 0.761237, 0.382572, 0.015589, 0.017564, 0.048617, -0.792566, 0.222861, -0.237781, -0.015142, 0.368669, -0.295128, 0.812843, 0.540047, 1.01371, 0.026118, -0.155188, 0.12491, 0.261922, -0.145379, -0.019658, 0.024536, 0.719318, 1.08507, -0.459314, -0.522181, 0.176507, 0.000848, 0.127152, -0.144537, -0.004458, 0.356368, -0.738847, 1.1762, 0.309023, -1.27629, 0.805548, -0.112955, 0.14644, -0.106958, -0.951563, 0.167764, 0.966919, -0.597287, 0.293254, -0.189006, -0.243446, 0.170365, -0.410887], [1.04373, 0.114151, -0.012488, 0.813421, -0.019177, -0.013487, 0.003816, -0.345629, -0.134137, -0.038585, 0.040364, -0.51296, 0.014489, -0.641238, 0.364458, 0.261087, -0.023966, -0.044511, 0.015942, -1.19493, -0.11987, -0.024665, 0.001999, 0.714511, 0.342688, 0.041384, -0.432142, -1.43318, -0.042007, 0.191529, -0.814673, 0.02589, 0.131608, 0.074796, -0.285336, 0.2823, 0.625367, 0.658059, 0.649651, -0.578024, 0.61147, -0.284951, 0.444145, -0.070238, 0.424669, 0.955643, 0.006827, 0.296799, 0.685583, -2.06496], [-0.793071, -0.035747, 0.427548, 1.10572, -0.014497, -0.015441, -0.015826, 0.829794, 0.370025, 0.564686, -0.017924, -0.083344, 0.657642, -0.964959, 0.497046, -0.949345, 0.014609, -0.279033, -0.270262, 1.11118, 0.534612, -0.019715, -0.036301, -0.634733, -3.72259, -0.778739, -1.47864, 0.156543, 0.00854, -0.937841, -0.971557, -0.003342, -1.60391, 1.0197, -1.04268, 0.61674, -1.51351, -0.146561, -0.969471, 0.064013, -0.928903, -0.471662, 0.190359, 1.6732, -0.824425, -0.922948, 0.18896, -0.432649, -0.377891, -0.207044], [1.33387, 0.05913, 0.003619, 0.974011, 0.019806, 0.033835, 0.036562, 2.32452, 0.220203, 0.071427, -0.018547, 0.171947, -0.272299, 2.58846, 0.882664, 1.78037, 0.034204, -0.735156, -0.323795, -0.526422, 0.071954, 0.018722, 0.008026, -0.721031, 0.506012, 1.24012, 0.102823, -0.151657, 0.025054, 1.02602, 1.21203, 0.03478, 0.108436, 0.433436, 2.2586, -0.333405, 0.999263, 0.835891, -0.304461, -0.358006, 1.42377, 0.304398, 2.03985, 0.614124, -1.18245, 2.18435, 1.67152, 0.163082, -1.27421, 0.536287], [-1.00254, 0.318954, -0.288682, 0.034378, -0.005377, 0.02042, -0.036266, -0.343646, 0.288475, -0.096991, 0.040797, -0.538155, 0.045664, -0.900581, -0.202386, -2.00794, 0.043233, 0.104013, 0.353419, 0.750211, 0.663745, -0.024502, 0.044812, 0.452204, 0.148304, -0.001186, -0.212123, -0.739851, -0.035396, 1.54565, -0.415159, -0.042866, 0.682816, 0.820223, -0.506067, 0.42271, 1.01941, -0.154054, 0.829236, -0.111554, 0.324643, -0.72573, -0.590325, -0.574135, 0.186804, 0.738146, 1.71371, -0.282513, -0.089243, -3.43228], [0.804687, -0.250335, 0.670325, 1.63655, 0.035995, -0.025087, 0.0271, -7.65476, 1.07263, -2.15353, -0.014056, 0.553029, 0.020133, 0.122502, 0.332453, -4.99111, -0.032405, 0.213288, 0.890327, 0.352977, 0.286381, 0.011708, 0.008233, 0.441661, 0.931447, 0.101012, -0.273766, 0.711269, -0.032051, 0.020551, 0.149667, 0.030465, 1.72627, 0.626009, 0.398124, 0.305593, -0.556763, 0.438803, 1.97287, 0.082964, 0.751518, -0.311101, 0.504045, -1.27011, 0.205351, 0.610493, 0.292552, 0.240062, -0.08153, 2.7148], [-0.610761, -0.749737, -1.45968, 0.29155, -0.014082, 0.017425, -0.00616, -0.802796, 0.085194, 0.099787, 0.031704, 0.127211, 0.413568, -0.823631, -0.982592, 0.798464, 0.000486, 0.348488, -0.127742, 0.434864, -0.094716, 0.010236, 0.0427, -5.80431, 0.19466, -0.51006, 0.028284, 0.290007, 0.015, -0.038746, 0.218086, 0.020085, 0.010047, 0.164626, -2.16807, 0.036326, 0.551642, -0.123773, -1.42305, -0.269515, 0.484933, -0.03143, -0.008412, -0.279035, -0.661529, 0.34738, 1.0911, -3.27082, -0.216155, -2.41855], [-0.640575, 0.106173, 0.323336, -0.744114, 0.027693, -0.011444, -0.011819, 0.47988, -0.119703, -1.67364, -0.036882, 0.414541, -0.06366, 0.022825, 1.25533, 1.00203, 0.041937, -0.226416, -0.138887, -0.553797, 0.086029, -0.043386, 0.026831, -0.370024, 0.116772, -0.587154, 0.350655, 0.15596, 0.00368, -0.023993, 0.366294, 0.005448, 0.094009, 0.333448, 1.26761, -0.097868, 0.36979, 0.298809, -0.310102, 0.368075, 0.676829, -0.490267, -0.409285, 0.134381, -0.205989, 0.200932, 0.216477, 0.163817, -0.290593, 0.25316], [0.356334, 0.300263, 0.404465, -0.060202, 0.005023, -0.007173, 0.046815, -0.844111, 0.105369, 0.063209, -0.003628, 0.114873, -0.68657, 1.01728, 0.315619, -3.84178, -0.029203, -0.287322, -0.458577, 0.183323, -0.151217, -0.006811, 0.033842, -0.249125, 0.295946, 0.274577, -0.045099, -0.096706, -0.029886, 0.421611, 0.538625, -0.022186, 0.340188, -0.444046, -0.661304, -1.07789, -1.75985, 1.27147, 0.044413, 0.591102, 0.412039, 0.020914, -0.16811, -0.248007, -0.217355, 0.279986, -0.171373, 0.163322, 0.805109, -0.067559], [-0.164763, 0.338695, -0.357279, -0.361447, 0.003414, 0.043441, -0.009992, 0.024022, -0.145105, -1.25386, 0.043636, 0.326966, -0.228574, 1.04151, 2.5082, 3.67471, 0.016033, -0.331852, 0.885797, -0.336885, -0.618697, -0.000874, 0.024403, 0.745542, 2.41997, -0.171257, 1.15652, 0.557731, 0.006678, -0.010795, 1.04676, 0.039162, 1.40981, -1.20173, 1.14862, 0.108242, 0.878289, -0.28119, -0.337703, 0.492595, -0.497351, 0.307619, 0.250986, -1.58676, 0.598953, 0.996657, 0.144939, 0.679536, 0.390011, 0.948178], [0.01563, -0.964854, 0.430946, 0.250846, -0.015149, -0.019078, 0.018087, 0.345583, 0.536077, -0.020164, -0.027614, -0.73378, 0.256254, -0.358681, 0.536817, 0.191175, -0.028691, 0.156909, 0.257975, 0.274049, 0.606754, 0.015911, -0.042088, -0.186983, 0.092999, 0.631504, -0.791898, -0.313882, 0.000249, 0.345946, -0.214647, 0.04307, 0.077426, 0.439229, 0.484309, -0.035716, 0.223343, -0.100022, -0.56084, -1.59655, 0.260427, 0.075879, 0.243259, 0.55239, -0.107111, 0.499145, 0.011336, -0.832793, -0.348353, 1.85816], [0.399001, 0.485951, -0.31834, 1.62288, -0.005643, 0.041031, -0.036028, 1.41778, 0.290575, -0.270748, 0.004406, 0.309901, 0.470471, -6.46368, -0.335775, 1.23107, 0.038141, -0.601668, -0.610328, -1.19999, -0.220293, -0.007584, -0.008254, -2.66702, -0.857076, -0.989168, -6.19326, 0.650371, 0.013035, 0.450022, -0.059172, 0.027412, 1.31578, -0.91966, 1.89958, 0.174884, 1.83932, 1.97415, 1.10652, -1.75402, 0.917119, 0.415689, -0.427732, -0.852765, 0.128263, 0.874288, 0.422155, 0.047021, -0.296347, 0.77672], [0.327429, -0.612275, -0.776575, -1.00736, -0.009233, 0.051085, 0.004973, 1.34979, 1.01873, 0.383612, -0.036379, -0.173206, -0.15386, 0.336486, -1.31754, -0.900137, 0.04583, 0.160614, 0.235802, -0.712342, 0.636465, -0.008518, 0.062325, -0.263844, -0.304848, -0.357865, 0.640266, -0.802409, 0.012513, -2.09252, 0.059764, -0.008419, -0.308728, -0.889434, -0.493882, 0.439423, -0.756271, 0.507812, 0.65065, 0.488347, -1.25204, 0.20187, 0.201435, -0.029617, -0.363576, -1.02987, 0.255055, 0.441016, 0.489825, 1.2681], [0.809063, 0.480693, -1.10225, 0.089962, 0.037277, 0.015583, -0.026597, 0.800234, 0.076273, 0.225464, 0.024116, -0.637981, -0.020573, 1.23897, 0.018081, 1.37188, 0.030969, 0.939441, -0.214233, 1.15297, -1.48824, -0.010044, -0.04375, -0.77682, 0.462045, 0.26567, -0.023818, 0.514377, 0.022883, 0.016273, 0.493748, -0.041172, -0.955584, -0.008177, 1.9794, 0.155024, 2.07876, 0.111974, -0.224401, 0.235427, 1.11876, -0.16678, 0.588566, -0.539337, 0.018549, -1.71674, -0.663958, -0.544861, 0.176175, 1.86157], [-1.53572, 0.857018, -0.319174, -0.530302, 0.028634, 0.045102, 0.030655, 0.357004, 0.248588, -0.174802, 0.014229, 0.566195, 0.500957, -0.889595, -1.74658, -1.29711, -0.005414, -0.4165, 0.230526, -0.497876, -0.029657, -0.051671, -0.022922, -0.320814, 0.282488, -1.35074, -0.01256, 0.630306, -0.043231, 1.38451, 0.075407, 0.041148, -0.21219, 0.031404, -1.50958, 0.279815, 0.128276, -0.590746, 0.244909, 0.275593, 0.918138, 0.032385, -0.500717, -0.470077, -0.647464, 0.148108, -0.100726, -0.161205, 0.440847, -0.800471], [0.319425, 0.526849, 0.182789, -1.34862, 0.015311, 0.024267, 0.038355, 0.534789, 0.855911, -0.005757, -0.020199, 0.319544, -0.227293, -0.513177, -1.25863, 0.0527, 0.014119, 0.125233, 0.206101, -0.539911, -0.13141, -0.002183, -0.046595, -0.042647, 0.458042, 0.020865, 0.265931, 0.330193, -0.024183, 0.620126, 0.286794, 0.028944, 0.393626, -1.18586, 0.476628, 0.097586, -1.58052, -0.12706, -1.05802, 0.373148, 0.238282, -0.886959, -0.363676, -0.465887, -0.335693, 0.271497, -0.14994, -0.029176, 0.505953, 0.734302], [-0.738607, 0.109722, 0.2543, -1.68077, -0.006586, -0.003371, -0.044101, -0.362074, -0.583966, 0.133819, -0.047602, 0.354444, -0.37449, -0.326009, 0.388086, 1.00495, -0.016374, -0.003569, 0.266689, -0.5392, -0.229123, 0.046505, 0.003381, 0.438636, 0.50661, 0.734084, 0.20716, -0.1125, 0.021568, -0.038844, 0.267843, -0.033048, -0.391598, 0.222156, 1.875, -0.309451, -0.307126, -0.434418, -0.302766, 0.191476, 0.206179, -0.034643, -0.185923, 0.437207, 0.138236, -0.586334, 0.185011, -0.08904, 0.146047, -0.295944], [-0.040283, -0.004753, -0.014768, 0.038123, -0.009965, 0.006327, -0.036977, -0.004749, -0.040912, 0.009051, 0.038502, -0.01424, -0.059111, 0.037239, 0.018157, -0.026741, -0.009305, 0.015596, -0.036115, 0.016373, 0.012045, 0.035565, 0.027584, -0.008634, -0.009965, -0.077734, -0.051403, 0.02629, -0.019696, -0.055127, -0.032387, -0.035806, 0.00732, -0.066971, -0.031423, -0.00266, -0.036456, 0.006289, -0.056765, -0.016414, 0.017134, 0.019278, -0.052318, -0.004724, -0.018208, 0.003409, -0.000371, -0.027025, 0.004564, 0.0312], [-0.046159, -0.021804, -0.051187, -0.00836, -0.008711, 0.034632, -0.007609, 0.023673, -0.023923, -0.04047, 0.040353, -0.035322, -0.010944, 0.026172, 0.005805, 0.017674, -0.018983, 0.011768, 0.001881, -0.038534, 0.00946, 0.006515, 0.004914, -0.008316, 0.014493, 0.012993, 0.011661, -0.013563, 0.039113, -0.01565, -0.007671, -0.004466, -0.039829, 0.022751, 0.038208, -0.016407, -0.058665, -0.030939, -0.05603, 0.014643, 0.020205, -0.01437, 0.002465, -0.059395, -0.01874, -0.011239, 0.026449, -0.000309, -0.016745, 0.002567], [-0.053298, -0.166935, -0.307491, 0.549686, -0.022755, -0.027556, -1.3e-05, 0.655521, -0.921471, -0.006165, -0.007211, 0.139615, 0.103945, -4.91342, 1.01573, -1.60214, 0.025226, 0.121514, -0.603782, -0.028214, 0.369605, 0.009055, 0.005451, 0.565049, -1.17122, 0.04951, 0.687965, 0.310228, 0.037016, -0.468655, -0.163023, -0.018729, -1.78777, 0.455377, 0.102337, 0.236334, -2.63141, 0.07565, 0.742627, -0.105603, 1.28979, 0.158912, 0.541354, 0.755976, -0.131753, -0.008763, 0.874689, 0.220159, -0.144403, 0.125973], [0.288742, -0.455071, 0.637936, 0.808186, 0.029372, 0.005927, -0.032337, 0.057039, 0.28574, 0.477179, -0.030852, 0.189078, -0.15238, -0.360458, -0.114706, 2.61435, 0.048272, 0.216875, 0.186632, -1.29561, -0.240227, 0.016619, 0.020729, 0.012742, -0.198352, -0.255166, 0.71834, -0.021505, 0.044488, -0.315828, 0.472397, -0.044492, 0.587426, 0.488406, 0.2264, -0.732051, 1.11111, 1.81277, 0.304749, 0.281408, 1.33187, 1.00586, -0.075119, 0.623485, -0.346149, 0.289112, -0.004755, -0.992165, 0.072719, 1.81662], [2.62927, -0.047132, -0.623043, 0.460853, -0.016876, 0.019505, -0.006494, 0.015182, 0.203357, 0.239994, 0.014161, -0.680972, -1.19219, 0.403527, -0.240582, 1.46366, -0.011141, -0.207488, -0.144096, 1.63457, 0.145991, 0.044465, -0.00859, -0.126232, 0.554075, -0.617745, 0.480235, 0.497996, 0.011571, -0.537775, 0.457297, 0.003634, 0.808448, 0.758876, -0.273946, -0.62061, 0.656968, 0.530978, 0.203805, 0.233644, -0.97382, 0.315672, -0.176164, 0.093757, 0.373507, -0.375711, 1.44291, 0.342488, -0.450437, 0.998283], [1.95132, 0.262167, 1.07793, 2.32187, -0.037212, 0.013161, 0.04741, 1.64467, 0.090086, -0.305414, -0.043487, 0.180222, -0.822275, 1.55232, 0.822309, 0.154753, 0.027251, -0.224907, -0.533468, 1.29138, 0.26885, -0.047503, -0.038975, 0.145444, 0.825557, -1.19535, 1.88714, 0.93516, 0.047207, 0.123546, 2.37941, -0.040116, 1.01775, 0.414494, 0.547794, -1.5941, 0.023712, 2.10147, 1.35814, 0.204933, -1.1646, -1.11991, 0.350167, -0.420339, -1.14291, -1.26837, 0.32669, -0.103451, 1.02932, 1.40026], [1.30009, 2.65152, -0.614352, 1.57999, -0.01369, -0.02156, -0.011723, 0.110431, 0.951817, -0.262536, 0.030026, 1.28299, 1.42648, 0.782664, -0.296893, 2.38062, 0.008468, 0.580528, -0.09246, 1.54708, 0.939485, -0.000105, 0.004524, 0.905433, -0.358206, 0.809054, 1.25775, 1.73122, 0.029413, 0.65133, 1.626, 0.005033, 0.762174, -0.313112, 1.09758, 1.25462, 0.059742, -0.00445, 1.48472, 1.28684, -0.30093, -0.249348, 0.739957, 1.39006, 0.213921, 0.407861, 1.75334, 1.96213, 0.383477, 0.753858], [1.09323, 0.239544, -0.10674, -0.775245, -0.011599, -0.021906, 0.011482, -0.487232, -0.602002, 0.263435, 0.019669, 0.330684, 0.118137, 0.100202, 0.014202, 0.362991, -0.011183, -0.338613, -0.746622, 0.57086, 0.267162, -0.006231, 0.01369, -0.609678, 0.825162, 0.313111, 1.04304, -0.056084, -0.042846, -0.318439, 0.103755, -0.044915, 0.010679, -0.193744, -0.288384, -0.045779, 0.893002, 0.663288, -2.33307, -0.379417, -0.774074, 0.193105, -0.427736, -0.173183, -0.512461, -1.98992, 1.39088, -0.040922, -0.367737, 1.81176], [1.02326, 0.151154, -1.03351, 2.61809, 0.021508, 0.001055, -0.044334, -0.71208, -0.341784, 0.397252, -0.019127, 0.598065, 0.080992, 0.547592, 0.706409, -0.950806, 0.023358, -0.049254, 0.15819, 1.39353, 0.477076, -0.047919, -0.027176, 0.67798, -0.23324, -0.671113, 0.129998, -0.081051, 0.036267, -0.530527, -0.640713, -0.03227, 0.251064, -0.051301, 0.495569, 0.55512, -0.00188, -1.43033, 0.251563, 0.010049, 0.317537, -0.146077, 0.337076, 0.547257, -1.71581, -0.450197, 0.434792, -1.06236, -0.298853, 0.7844], [-1.27103, 1.11867, -1.04589, -1.42135, 0.029899, -0.014248, -0.004239, -0.085535, 0.197606, 0.428331, 0.001779, -1.23214, -0.31008, 1.33031, -1.41443, 0.489643, 0.058272, -0.911543, 0.744372, 0.382021, 0.519641, 0.008249, -0.001704, -2.01216, -0.247222, 1.42461, 1.2365, 0.54112, -0.015417, -2.19617, 1.04034, 0.000274, -0.342876, 0.817567, -0.215045, 0.874027, 0.147268, -0.756814, -2.06391, 0.691645, -1.32802, 0.10969, -1.41692, 0.421827, 0.206378, 0.041968, -0.521568, 1.2768, 0.844153, -0.317085]], [[0.446741, 0.469555, 0.316073, 0.788932, -1.52066, 0.487978, 0.138488, 0.976399, -1.27018, -1.45886, -0.225622, -0.482662, 0.475703, 2.83004, 0.650785, 0.337993, 0.398519, 0.850916, -0.660201, 0.433803, 0.033832, 1.09619, -0.696674, -0.395716, -2.50153, -0.474461, 0.925644, -0.363683, -0.742283, -0.45262, -3.02002, -2.00282, 0.954124, 0.290405, -0.491096, 0.356339, -0.516207, 0.959353, 0.429287, -1.24907, 0.047043, 0.028796, 0.413715, 0.126455, 0.286522, -0.269556, 0.574924, -0.139117, 0.509127, 0.365109], [0.482816, 0.198646, -0.376456, 0.208998, 0.765369, 0.405243, 0.607157, -1.19774, 2.26217, 0.108253, -0.249866, 1.06345, -2.04008, 1.10101, -0.930211, -0.608484, 1.29522, -1.22633, 0.126492, 0.226385, 0.030723, 0.70208, -2.76415, 0.378765, -0.383775, -1.1415, -5.4049, 0.616333, -2.2735, 3.5911, 0.284989, 0.047841, -0.646798, 0.434139, -0.22218, -0.541631, -7.43112, -0.023187, 0.505, -0.009644, -0.038466, -0.037663, -0.824733, -0.391934, 1.27212, 0.66946, -0.256045, -0.747126, -0.411048, 0.41034], [0.040739, 0.020158, -1.65371, -0.996956, -0.173621, -1.15123, -0.289587, 1.49675, 0.892763, 0.380065, 0.387151, 2.25954, -0.066659, 3.3376, 0.35312, -0.487679, 2.09061, 1.33804, 0.832269, 0.744635, 0.047906, 3.4334, 1.07626, -0.807531, 1.8167, -0.368308, 1.35355, -0.678145, -3.90649, 2.26717, -0.791388, 2.16512, 2.34437, 0.812881, -4.60145, 0.90423, 1.14879, 0.797705, 2.26403, 2.3125, -0.040675, 0.041925, 4.70863, 1.18297, 1.88181, 2.73564, -0.308545, 1.04472, 1.09601, 0.37786], [0.212887, 0.379602, -1.12734, -1.09158, 0.880816, 1.85603, 0.148022, 0.111219, 1.03725, 0.966607, -0.190806, -0.881597, 0.367, 0.420568, -1.12966, 0.490472, 1.20082, 2.10976, 0.542945, 1.91643, 0.050936, 3.29776, 1.34198, 0.798304, 1.66952, 0.889127, 0.725572, 1.77031, 0.183135, 0.672357, -0.149103, -0.070764, 1.69515, 0.649003, -0.8294, -0.269213, 1.01877, 0.539419, -0.221554, 3.18323, -0.015865, -0.046465, 0.814876, 1.14031, -0.09962, 1.80227, -0.523098, 1.57836, -1.72624, 0.146908], [0.161714, 1.36877, -0.782796, -0.434236, 0.403913, 0.458922, 0.076886, 0.671807, 0.94923, 0.317201, -0.059716, 1.22028, 1.695, -5.15428, 0.546899, 0.280116, 2.57833, -1.57639, 0.48103, 0.317114, 0.02915, 2.16837, 0.593849, -0.284914, 1.61025, 0.455257, 1.04222, 0.601296, -0.110066, -2.06828, -0.498179, 0.816048, 1.00741, 0.975362, 0.023974, 0.089432, 0.587421, 0.943294, 0.058559, 1.53052, -0.011086, 0.001011, 3.52358, 0.829231, 2.90459, 3.77446, -0.971483, -0.464186, 0.679961, 0.364346], [-1.0734, 0.973323, -0.825358, -0.928186, -0.387839, -0.484698, 0.911767, -0.615488, 2.53038, 0.848595, 0.347441, 0.249114, 0.188969, -0.905032, -0.559407, 0.480423, 4.17285, -0.269046, -0.32926, 0.764666, -0.050801, -1.0619, 1.56043, 1.95503, 0.691766, 1.53279, -5.06177, -0.576045, -0.258318, -1.12581, 0.930937, -0.733168, -3.17641, -1.07367, 1.38703, -0.339643, -2.86298, 0.769094, 1.21206, 1.43354, 0.038447, -0.041748, 0.775736, 1.30212, -1.12886, 2.49933, -0.637679, -1.0399, 0.026116, 0.173712], [0.158177, -0.51771, -0.339851, 0.284257, 0.584078, 1.22209, -0.466568, -0.916789, 0.640305, 0.339711, 0.717268, -0.389687, -1.04035, -1.35351, 0.349185, -0.430059, 2.46061, -1.98576, -0.398427, 1.27678, 0.046193, 1.43435, 0.580633, 0.393255, 0.504309, -0.572569, -2.17587, -1.73229, 2.16066, 1.17655, 3.51032, -0.360992, 0.26439, 1.31557, 0.069283, 0.267251, 2.40017, 0.088637, 0.157504, -0.727206, 0.050014, -0.032569, -1.25402, 0.570365, 1.04348, 0.930012, -0.617873, 0.79725, -0.493773, 0.449546], [-0.396225, -0.153829, -1.29068, 1.33038, 0.962651, 1.4748, -0.050439, 0.748439, 1.91034, 0.770209, -0.18421, 0.994719, 3.08377, -1.21089, 0.864695, -0.7808, 0.96571, 5.07364, -0.010824, 0.544169, -0.032729, 0.554239, 1.01784, 0.872732, 2.55988, 1.26755, 1.62069, 1.51254, 0.175691, 2.57635, 0.948947, 0.407444, 0.219312, -0.85903, 2.47594, 0.970844, -2.4647, 1.21246, 0.314634, 1.67401, -0.042078, -0.036656, 1.99827, -0.190774, -0.572473, 3.53116, -0.712551, 0.63244, 0.259311, -0.502028], [0.526789, 0.878861, -0.344948, -3.30977, 0.463298, 0.350095, -0.16518, 0.731393, 0.54209, -0.42689, 0.524525, -0.119997, 1.22758, 0.113168, 0.950302, -1.02744, 0.41585, 1.2336, 0.124692, 0.071945, -0.044654, -1.80153, -1.07499, -1.34374, 0.271857, 0.662883, 0.263876, -0.763448, -0.191809, -0.776028, -0.396668, -1.59589, 1.05538, -0.176809, 2.57817, -0.367107, 0.310361, -0.582794, 1.38759, 0.3284, 0.013811, -0.027783, -0.129254, 0.764786, 0.810822, 1.34431, 0.32479, 0.716435, 0.051883, -1.29874], [-0.253783, 1.75959, -0.910241, 1.40633, 0.736819, 2.19842, -0.871552, -1.24951, -0.748562, -1.7661, 1.37869, 0.500613, -0.893848, 1.19331, 1.78207, 0.265889, -1.28968, -0.625182, -2.31861, -1.28228, -0.036385, 1.63137, 0.259513, 0.569525, -1.73466, -2.04132, 2.67653, 1.10674, 0.865066, 3.75472, -1.59633, -1.00878, 3.78186, -2.50149, 0.222038, 1.09873, 0.919359, 1.36122, 0.603274, -1.268, -0.008687, -0.026737, 1.9006, 0.254639, 1.2394, -0.264284, 0.790569, 1.42018, 0.162335, 0.935819], [-0.569206, 1.32791, 0.087899, 0.097755, 0.143224, 0.285474, 0.521136, -0.421519, -1.77806, -0.342353, -0.384006, 0.09152, 0.267157, -0.152335, -0.090627, 0.612756, 0.771305, 1.40607, 0.192624, 0.366482, -0.01161, 0.002532, -0.934898, 3.47566, 1.31188, 0.656214, 0.369087, -0.791566, 0.577511, -0.381343, 1.7662, 0.039233, 0.3147, -0.715188, 1.06859, 0.658926, -0.211863, 0.560558, 0.563049, 0.054227, 0.014617, 0.051129, -0.328039, 0.007677, -2.03799, 0.376845, 0.14665, 0.476587, 0.164423, 1.12218], [0.670049, 1.20158, -0.971794, 0.285648, 0.836761, 0.977437, -0.503938, 0.205567, -0.539982, -0.400704, -0.157224, 0.88752, 1.26529, 0.280838, 1.45404, 1.01261, 2.94546, -0.012422, 0.766993, 1.88384, -0.000848, 2.58668, 1.75629, 0.242624, 1.04932, 0.799243, 1.40902, -0.475018, 1.04394, -1.15867, 1.09072, 1.01718, 0.074247, 0.864815, 0.393976, -2.43768, 0.409578, 0.866658, -0.138481, 1.48543, -0.049913, -0.034393, 2.23254, 0.430314, 4.64445, -2.18922, -0.762778, -0.146787, 1.29889, 0.520293], [0.665467, 1.15261, -0.414228, -0.965392, 0.710919, -0.529325, 0.534273, -0.218397, 2.1875, 1.13183, -0.610811, -0.402242, 1.49552, 0.122944, -2.7637, 0.219119, -0.202508, -2.36838, 1.03252, 0.208624, 0.01218, 1.12138, 2.34376, 0.613731, 1.10396, 0.648315, 0.062597, 1.06199, 1.6784, 0.363088, 1.55805, -0.338265, 0.10626, 1.06957, -1.00762, -1.03656, 0.863298, 0.192602, 1.36786, 1.6093, 0.037781, -0.030789, 0.7385, 0.273008, -1.69477, 1.75056, -0.627149, 2.93725, -0.161844, 0.183264], [-0.533201, 0.852747, -1.09232, -0.134538, 0.574108, 0.145226, -0.346548, 0.603773, 1.78634, 0.936528, -0.412326, 2.19211, 1.03361, 0.134486, -0.496843, 0.443002, 1.5416, 2.10589, 0.642191, 1.13155, -0.017858, 0.886636, 1.3019, -0.012456, -1.48117, 0.903899, -1.19462, -0.126632, 0.532385, 1.38407, 2.38752, -0.082115, 0.846978, -0.106364, 2.27119, -0.864395, 0.730027, 0.015859, -0.670495, 0.184236, 0.023589, 0.022762, 2.27281, 1.7975, 2.16655, 1.05924, -0.806715, -1.1807, 0.672639, -0.306018], [-0.041172, -0.51524, 0.115256, -0.400488, 0.793905, -0.17949, 0.589808, 0.414803, 0.912996, 0.707787, -0.064858, 0.177951, 0.565523, 0.845478, 0.204344, 0.270679, -0.586103, 0.324097, 0.180799, -1.55628, -0.044848, -0.607976, -0.75917, 0.772719, -0.667118, 0.624013, 0.865952, 0.137857, 0.696908, -0.299941, 1.35185, 0.186497, -1.18378, 0.010591, -0.466698, 0.128919, 0.311313, -0.36706, 0.188659, -0.897301, -0.03724, -0.030421, -0.578895, -0.120791, -0.257837, -0.584175, -0.362203, 0.161275, -0.230148, -0.42039], [1.07419, 0.340853, -1.06313, 0.713309, -0.747626, 1.32393, -0.58294, -0.490918, 2.99136, 0.225661, 0.206173, 1.28152, 1.75403, -1.08808, -0.634664, 0.432598, -0.331646, 2.83428, 0.072144, 3.04242, -0.041345, -2.67158, 0.644363, 0.645403, 1.01648, 0.282008, 2.24642, -0.118594, 1.71541, 0.810137, 1.61404, 1.68248, -0.369135, 0.310858, 1.15086, 1.67995, 1.32999, -0.512444, 0.199947, 2.31068, 0.051364, 0.038782, 0.304328, 0.938625, 0.628097, 1.57417, -0.977514, 3.35071, 0.228846, -0.84817], [-0.492711, 1.06153, -0.103563, 0.941796, -0.021396, 1.46331, 0.730658, -0.178575, 2.34452, 0.584216, -0.441164, -0.500158, 0.847363, 1.19524, -0.150089, 0.848141, 3.53315, 1.16079, 0.653039, -0.242728, -0.026647, 0.839191, -0.382798, -0.255433, 0.5757, 1.21293, 1.71471, 0.963864, -0.187508, 2.33666, 0.493076, 1.05873, -0.037762, 0.507395, 0.176312, 1.64879, -0.267716, -0.066917, 0.533648, 1.504, -0.012021, -0.031184, -1.53952, 0.405625, 0.589151, 0.986818, -1.21835, 0.379984, 0.965323, -0.549241], [0.065472, 0.738236, 0.101861, 0.028237, 0.112605, 1.59939, -0.438217, 0.829807, -1.83135, -0.401519, 0.187098, 1.20931, -1.16865, -0.905381, 0.58382, -0.440168, -2.40049, -1.60183, 0.493921, -1.51598, 0.031048, -2.29382, 1.84139, -0.384745, 1.26471, 0.869098, 0.310617, 0.158217, -3.16443, -1.6704, -0.921692, 0.4673, 0.512614, -1.36281, 1.3219, -0.937917, 0.012536, 1.27328, 0.631053, -1.58985, 0.030623, -0.030547, -1.05347, -0.36489, 0.344659, -0.637277, 0.045286, -1.65587, 0.482518, -0.051267], [0.154298, 0.259098, -0.514558, -0.490874, 2.02066, -1.16641, -0.300696, 1.21043, 2.08472, 1.55997, 1.14174, 0.936277, 1.19462, -1.09222, -1.53291, 0.172804, 3.38342, 0.688277, 0.74713, 0.88095, -0.020786, -0.126007, 0.185805, -0.21152, 1.66776, -0.107491, 1.48279, 0.195551, -0.672558, -0.972445, -0.422175, 0.35262, 0.261494, 1.51994, -0.623542, 0.167206, 0.208534, 0.557029, 1.37059, 1.26205, 0.035406, -0.028729, 0.745912, -1.20444, 0.285615, -0.510137, 0.047121, -1.0048, 0.868938, -0.457559], [-0.012491, -0.019673, 0.004219, 0.006396, -0.032405, -0.013879, -0.027301, -0.027853, -0.018149, -0.011641, -0.002639, -0.038976, 0.008333, 0.009088, -0.053175, 0.026548, -0.02308, -0.023799, -0.019571, -0.027468, -0.041271, -0.039813, 0.035013, 0.001849, -0.014062, 0.028198, -0.036404, -0.034653, 0.042587, 0.006627, 0.012338, 0.021013, -0.0054, 0.00281, 0.029322, -0.060211, -0.03922, 0.022519, 0.049914, 0.001788, 0.0169, 0.029233, 0.02404, -0.019899, 0.036582, -0.03099, -0.013232, -0.030399, -0.040469, 0.001048], [0.277442, 0.514691, -0.833605, -0.208628, 1.35108, -0.408218, 0.917329, 0.12602, 2.53124, -0.654904, -0.500803, -0.132418, -1.50924, 3.02238, -0.676183, -0.378242, -1.42199, 1.95047, 1.40341, -1.03717, -0.005211, 2.97137, 0.850489, 0.508602, 1.56132, 0.676127, -0.279306, 0.193903, 2.35572, -2.83835, 1.42862, 0.676016, 2.35735, 0.217435, 2.7908, -0.198181, 1.33502, -0.51236, -0.022863, -0.38246, -0.026012, -0.052234, 2.10825, 0.169131, -0.130408, 0.64121, -0.563288, 0.695664, 0.221616, -0.714256], [0.278423, 0.277547, -1.09294, 0.153013, -0.001629, 0.055129, 0.559781, -0.907463, -0.086705, 2.05953, 0.220942, 1.55338, -0.433455, -1.21477, 0.342165, -0.501248, -0.768824, 0.618041, -2.01985, -0.517785, 0.04342, 1.14942, 0.6881, 0.37479, 1.93847, -0.910406, 0.352364, 0.223396, 3.61938, 0.531378, 1.90507, 2.3523, 0.94054, 1.55308, -1.05984, -0.075882, 0.974718, 0.377653, -0.016305, 0.131926, 0.036572, -0.00336, -0.364182, 1.66389, -0.290216, 3.99037, -0.736875, 1.32072, 0.102632, 0.235294], [0.234188, -0.043358, -0.007787, -0.201911, 0.360745, 0.512746, -0.604594, 0.201229, 0.59561, 0.323957, 0.06346, -0.438497, -1.10261, -0.172325, -0.89575, 0.484262, 0.893245, -1.0878, 0.036241, -0.488996, -0.026013, 1.3731, -0.658515, 1.10524, 0.259209, -0.433733, -0.0671, 0.023507, 0.797323, 0.085247, 1.71061, 0.558566, 0.411945, 1.29079, -0.275006, -0.110619, -0.282413, -0.389688, -0.246338, 0.243627, 0.002485, 0.010591, 0.246664, 1.17614, -0.164513, 0.296039, -0.352107, -1.05856, 0.055352, 0.261811], [1.08933, 2.00806, 1.77147, 3.60169, -2.04773, 3.91621, 1.50437, 0.767442, -1.11702, -1.84212, 0.103831, -0.026799, 3.08152, 2.15653, 2.28279, 0.106535, 3.94849, 1.01227, 1.34043, -0.235565, 0.027769, 3.32185, 0.372857, 4.5403, 0.125965, 2.02335, 3.26162, 0.539196, 3.19734, 2.88218, -3.45373, 0.806372, 2.92983, -2.10449, 3.48062, 0.960785, 1.4751, 3.62347, 1.77921, 5.70884, -0.030406, 0.030137, 5.07531, 2.21858, 0.735142, 1.61253, 1.37437, 2.13471, 0.304408, 1.96371], [-0.124945, 0.016711, -0.110531, 0.09527, -0.530086, 0.076746, 0.583181, -3.74124, -1.73047, -0.746271, 0.285703, -0.818994, 1.47388, -2.93706, 0.95636, 0.07306, 2.62034, -0.323173, -1.00786, 0.526168, 0.047927, -1.25417, -0.491393, 0.904099, 0.763424, 0.875324, 0.963194, 0.183851, -0.552009, 0.236927, -0.767723, 0.773999, 0.874859, -1.39011, 0.022507, 0.408761, -0.318258, -0.105448, 0.422784, 2.51838, -0.007604, 0.001213, -2.44513, -0.054115, -0.332951, 2.03683, 0.101337, 0.587648, -0.644937, 0.428481], [1.15213, 0.496329, -0.374804, 1.06365, 0.599388, 0.649272, 0.538729, 0.754859, 0.919999, 0.174588, -0.534692, -0.992734, 3.15028, 2.91526, 0.984243, -0.080308, -0.222056, 1.38403, 0.856743, 1.28735, 0.022571, 3.00769, -2.0411, -0.176209, 1.03267, 0.023458, 0.529581, 2.49484, 1.53418, 2.6498, -0.096197, 1.86121, -0.247273, 1.59751, -1.5587, -0.635104, 1.69712, -0.555348, -0.284579, -0.340149, -0.025542, 0.0257, 0.963949, -0.212639, 0.690426, 0.146831, -0.739311, 1.14827, -0.839341, -1.14988], [0.078997, 0.92843, 0.122946, -0.196473, 0.592923, -0.008038, -0.020594, 0.345657, 2.17706, -0.567998, -0.573033, 0.294811, 1.34771, 1.43697, -0.407291, -0.086267, -0.016901, 0.271131, 1.00092, 1.26529, 0.00176, 2.15228, -0.138462, 1.21215, 1.62015, 0.145019, -0.429211, 0.886007, 1.52056, 1.74014, 1.15525, -0.266009, 0.409337, -0.505445, 0.068315, -0.397757, 0.687681, -0.958318, -0.237454, 2.34564, -0.037635, -0.004758, 1.19973, 0.697093, -0.798635, -0.571892, -0.534663, 0.28148, 0.078022, 0.087396], [-0.308056, -0.070006, -0.287366, 0.148826, -1.34307, -0.480127, 0.377683, -0.826508, -0.292114, -0.37139, -0.467555, 0.096644, 0.217364, 0.30878, -0.924976, 0.072012, 2.0047, 1.48695, 1.77505, -0.495404, -0.074561, -0.749203, -0.164712, 1.56981, 1.59999, -0.678815, 0.528861, -0.186679, -0.722347, -1.62127, 0.060787, -1.71808, 1.11814, 1.63184, 0.960119, 0.228434, 0.862656, 0.590648, 0.168762, -0.677871, -0.038009, -0.00076, 2.16522, 0.49916, -2.73584, -2.45071, -0.104235, -0.891367, 1.51393, -0.259553], [0.331313, -1.26019, -0.108099, -0.286094, 0.46964, 1.29369, -0.220904, 0.219842, -2.57641, -0.466814, 0.193995, 0.807059, -2.44526, 0.386866, -0.310905, -0.185732, 1.06286, 0.595807, -0.179301, -0.319581, -0.046459, 1.6668, 0.00077, -0.06614, 0.827898, 0.652013, -0.781694, 0.182172, 0.218824, 0.458025, -0.295387, -0.251754, 1.16401, -0.749558, 0.008435, -1.20513, 0.211179, 0.169257, 0.587693, -0.107156, 0.002586, -0.028779, -0.955815, 0.562031, -1.54028, 1.17399, 0.00619, 1.66757, -0.22226, 0.567318], [-0.538364, -0.889935, -0.611203, 0.045889, 0.165587, 0.774605, -0.529809, 0.102918, 3.68634, -1.30684, -0.057627, 0.533933, 2.08752, -0.911671, 0.621609, 0.309361, -0.070661, -0.763054, 0.677011, 0.989471, -0.002248, 0.776282, 0.336204, -0.270028, 0.121291, -3.32075, 1.34781, -0.640537, -0.175878, 1.22478, -0.012664, 0.355555, 1.75821, -0.0454, 2.317, 0.332957, 0.89946, 0.559616, 0.858485, 0.608278, 0.012066, 0.040729, 0.658651, 0.132794, 1.30479, 1.58462, -0.764134, -0.566018, 0.732705, 0.556991], [0.097706, -0.703041, -0.505431, -0.322704, 0.043115, -0.567776, 0.170846, -0.304026, 2.82357, -1.87158, -0.205208, 1.13162, -0.166829, 1.7356, -0.645842, 0.005639, -0.244004, 0.464308, 0.503173, -0.792577, -0.001786, 2.05269, 1.03207, 0.315583, 0.663459, 0.277277, 0.442049, 0.437323, 0.803563, 0.388854, -0.661727, 0.755828, 0.667175, 0.871123, 0.394817, -0.272481, 0.348336, -0.350153, -0.11891, 0.521499, 0.054229, -0.001053, 0.854733, -0.084468, 0.489179, -0.123285, -0.312364, 0.844992, 0.247461, -0.423532], [0.865553, 0.72842, -0.757535, 0.446158, 0.173483, -0.150858, -0.58465, 0.716889, 2.5232, 0.822647, -0.387017, 1.72469, 0.211692, 1.32745, 1.06326, 0.382079, -2.10561, 1.93296, 1.21908, -0.614668, -0.048893, 0.712602, 0.6358, 1.6251, 0.519186, -0.490627, 0.766899, -0.250693, 1.90612, 3.2264, -0.129933, -1.02645, 1.22377, -1.04549, -4.22231, 2.45948, 0.349396, -0.737962, -0.67893, 0.732691, 0.039017, -0.044738, -1.07105, 1.42667, 2.80559, 0.96647, -0.383743, 1.63253, 0.201038, -0.384075], [0.608106, 0.811731, -0.175287, -1.39511, 0.043278, 0.841079, 0.438324, 0.323099, 0.772054, 0.170097, -0.01171, 0.399317, 0.981847, 1.83596, 0.504015, 0.169874, 1.67295, 0.974906, -0.34074, 1.54271, -0.021918, 2.73738, -3.7724, -0.695703, 0.486912, 0.3622, 0.515373, 0.384598, -0.397561, -0.857246, 0.373088, -0.058389, 0.592004, 0.589689, 0.01863, 0.937662, -0.335991, -0.396873, 0.234085, 0.355338, -0.051638, -0.010071, -5.5183, 0.754801, 0.497322, 0.701889, -0.50247, 1.30563, -0.005687, -1.53211], [0.199062, -1.46233, -0.979815, 0.672005, 0.236995, 1.38591, -0.694145, -0.292704, 2.71773, -0.366358, -0.468914, -0.003992, 1.1042, -0.064829, -0.325137, 0.376325, -0.329211, 1.92401, 0.350271, 0.488052, 0.020796, -0.491822, 0.87781, -0.059327, -0.399606, 1.66199, 0.788834, 0.746881, 1.6359, -0.089875, 0.30478, 0.330732, 0.580346, -0.908922, 1.48336, -0.299401, 0.666254, 1.22552, 0.223086, 2.46293, 0.056068, 0.024271, 2.84708, -0.734423, 1.48992, 1.88263, -0.212583, 0.777351, -0.75211, 0.035756], [-0.305968, 0.02763, -0.260711, 0.944486, -0.620744, -0.047311, 0.214189, -0.603042, -0.033272, -0.375835, -0.209918, -0.136955, 1.45257, 0.488404, -0.557449, 0.130329, 0.173936, -0.700549, -0.107667, 0.693763, 0.005113, 3.02403, -1.23045, 0.205872, 0.443062, 0.057421, 0.255252, -0.247785, -3.50988, 1.33149, -0.397318, 0.792892, -0.2066, -0.203938, -0.190648, -0.676787, -0.103832, 0.081587, 0.027686, 0.505349, 0.009588, 0.003772, -0.655642, 0.576084, -0.838885, -4.50981, 0.045161, -2.10773, 0.452303, -0.249457], [-0.971362, 0.337583, -0.19212, -0.44895, -0.902659, 1.44466, -1.00999, 0.562461, 0.319811, -0.829668, 0.140228, -0.643415, -0.853878, 0.927062, 1.27227, 0.304202, 1.15554, -2.91856, 1.40435, 1.57378, 0.011094, -2.07252, 2.49943, -1.95928, -1.49858, 0.872635, -0.878369, -0.366877, -0.017591, 3.21705, -0.997033, -2.07674, 0.10483, -0.035309, 0.734874, -0.082379, -0.586076, -0.541456, 0.26187, 1.03197, 0.025915, 0.017362, -2.34529, 0.210321, 2.95034, 0.294124, 0.106964, 1.60321, 0.977917, -0.250665], [0.49608, 0.592396, -0.147331, -0.17137, 0.322707, 0.528305, 0.114821, -0.111011, 1.27105, -0.063754, 0.043823, -1.43585, 0.031391, 0.111926, -0.480182, 0.568951, 0.936101, -0.158765, 0.190257, 0.648164, -0.047846, 0.092366, -5.51909, 0.873184, 0.510827, 0.509927, -0.211946, -0.172599, 0.436789, 2.06909, 1.04996, 0.50007, 0.950832, -0.127741, 0.384944, 0.32107, 0.484798, -0.560691, 0.670283, 1.19927, -0.045005, -0.015629, 1.4388, -0.617979, 2.12321, -0.029508, -0.240599, 1.87981, 0.10986, -0.541273], [-0.053176, -0.056751, -0.056192, -0.022169, 0.00163, 0.014427, -0.017732, -0.030354, 0.041755, -0.056157, -0.032039, 0.014424, -0.019858, -0.050103, 0.018067, 0.036606, 0.049497, -0.041554, -0.015856, -0.03728, 0.039903, -0.036158, -0.003684, -0.064865, -0.037836, -0.031852, -0.010429, 0.030732, -0.009355, 0.00353, 0.008567, 0.04697, 0.02919, -0.03429, 0.026507, -0.013953, -0.053325, 0.00119, 0.026932, 0.035758, 0.006078, 0.03616, 0.026696, 0.015133, 0.008687, 0.009132, -0.027837, -0.050088, -0.064933, 0.0135], [-0.019899, 0.269002, -0.602633, -0.31788, -0.090794, -0.171888, 0.417423, 0.163197, 0.799701, 0.307781, -0.046316, -0.156912, 0.447274, -1.01442, 0.003468, -0.620563, 1.09538, -0.175883, -0.322135, 0.254787, 0.001399, -0.048045, -0.80671, -0.111283, -0.023292, 0.043137, 0.521348, -0.237248, -0.164036, 0.620136, 1.92007, -0.127347, 0.204082, -0.475616, -0.131799, 0.086122, 0.438708, 0.313023, 0.498123, 0.859177, 0.024506, 0.045357, 0.358666, 1.14814, 0.332639, 1.38432, -0.361563, -0.004498, 0.395814, 0.034685], [0.24553, 0.194826, -0.05326, -0.123938, 0.561812, 0.634697, -0.025871, -0.375928, 0.398727, 0.988462, 0.439238, 0.585241, 1.42394, -0.450985, -0.010465, 0.175562, -0.460891, -0.314208, -0.351537, 0.712401, -0.008584, 1.42165, 0.348213, -0.283771, 0.290766, 0.364919, -0.825601, -0.740681, -1.08109, 1.28336, -0.95179, -0.083728, -1.05055, -0.38678, -3.2018, 0.768202, 0.648294, -0.050876, 0.08281, 0.88751, -0.008772, -0.052117, 1.50451, 0.176434, 0.919163, -0.429563, -0.046264, 0.465686, 0.01291, 0.300976], [-0.426337, 0.416158, -0.163891, -0.45751, 0.023855, -0.462953, 0.162808, 1.46152, 0.822553, -0.583283, -0.304357, 0.00745, -0.46245, 0.918881, -0.726638, -0.150853, -0.484757, 0.161504, 0.054832, 0.254489, -0.012981, 1.32367, 0.394345, -1.15104, 0.104008, 0.535397, -0.676994, 1.76786, -0.153024, 0.681924, 0.474623, -0.401154, 0.241537, -0.165245, 0.648078, 0.334176, 0.655014, 0.680621, -0.168107, 0.170909, 0.017813, -0.029484, 0.106052, -0.018255, 1.27072, 0.768891, -0.043837, 0.47187, -0.087013, -0.14471], [-0.039931, -1.04138, -1.54047, 0.033866, 1.22102, -0.036494, 0.581606, 0.371464, 2.17586, 0.373455, -0.53039, -0.270695, 1.499, 1.43541, -1.69197, 0.925257, 1.58024, 1.1079, 0.808802, -0.213213, 0.046756, 0.828181, 0.992014, 1.62054, 1.21877, 1.39866, 0.252938, -0.150486, 2.56807, 0.594668, 2.7159, 1.41352, 1.1674, 0.02925, 2.81291, 0.01251, 1.10289, 0.468612, -0.687432, 2.34582, -0.031305, 0.015879, 3.96963, 0.728907, 1.84747, 2.73747, -0.943957, -2.64421, 0.865378, 0.033243], [-0.011497, -0.005376, -0.018893, -0.042527, -0.030934, -0.046344, 0.017639, -0.006841, 0.016334, 0.000897, -0.049601, -0.057963, 0.035288, 0.046024, -0.018951, -0.030302, 0.009697, -0.063033, -0.031789, -0.014783, -0.00716, 0.001206, 0.005991, 0.014085, 0.03482, -0.065319, -0.023393, -0.015075, 0.02541, -0.010507, -0.030873, 0.021831, -0.019731, -0.026731, 0.024533, -0.050596, -0.038567, 0.027434, 0.038827, 0.002546, -0.011959, -0.04797, 0.024856, -0.055687, -0.007714, 0.052343, -0.014907, 0.011164, -0.017625, 0.012125], [-0.502134, 0.770584, 0.035332, 0.105459, -0.10754, -0.330061, 0.034855, -0.043451, -1.27071, 1.56541, -0.385586, 0.148423, -0.997456, 1.08496, -0.316835, 0.244034, 3.28008, -5.31747, 0.579826, -0.16897, -0.014101, -1.03409, -1.00314, 1.17409, 1.00081, 2.13676, 2.17298, 0.611838, -1.22601, -3.5259, 0.675077, 0.41714, -2.89885, 0.755684, -0.988222, -0.318159, -0.499691, 0.461619, 1.09295, 1.66048, 0.003445, -0.043819, 0.535857, 0.241044, 0.324115, 1.13948, -0.628435, -5.12982, -0.96233, -0.153312], [0.020766, 0.216371, -0.485806, 0.776664, 0.40617, 0.685475, 0.683676, -0.797513, 0.045013, 0.152208, -0.242377, -0.089311, 0.542381, 0.911118, -0.952018, -0.334648, -0.560323, 0.117352, 1.18729, -1.09331, 0.010753, -0.317176, -0.038548, 0.664649, -0.274968, 0.642815, 0.860521, 0.029757, -1.91632, 0.196668, -0.273336, 1.15451, 0.542421, 1.14903, 1.77444, -0.235051, 0.580583, 0.474118, 0.638395, 1.82932, 0.060675, -0.041372, 1.62612, 0.567261, 0.370603, 0.610907, -0.17007, -0.991864, -1.09294, -0.032958], [-0.046152, -0.045668, -0.037413, -0.035495, 0.021666, -0.048925, 0.039258, -0.04076, -0.032931, 0.028732, 0.037068, -0.035332, -0.006686, -0.026741, -0.055494, 0.028682, -0.042793, -0.027166, -0.005731, -0.045006, -0.016531, -0.019859, -0.039536, -0.045569, -0.024741, 0.005012, -0.015249, -0.04501, 0.02925, 0.04089, -0.027439, 0.020368, 0.004051, -0.031938, 0.019765, -0.048337, 0.026304, -0.012613, 0.016865, 0.008137, -0.004363, -0.009912, 0.040107, 0.00349, -0.001623, 0.03989, -0.028532, 0.001836, -0.046039, -0.021747], [0.005284, -0.035249, -0.043463, -0.014089, -0.036011, -0.032603, 0.00885, -0.016129, -0.01298, 0.004474, 0.036525, 0.010804, 0.015471, -0.018046, 0.020448, 0.047006, -0.03042, -0.039501, -0.046621, 0.003329, -0.033779, -0.03824, -0.036218, 0.012439, -0.010949, 0.005675, -0.007072, -0.014205, 0.035833, -0.007241, -0.008828, 0.038316, 0.031988, -0.023419, 0.044174, 8.2e-05, -0.031114, 0.0271, 0.044536, -0.034072, 0.039712, -0.046815, -0.05175, -0.02101, 0.004442, 0.028883, -0.053252, 0.028123, -0.002273, 0.00448], [-0.702082, 1.26096, -0.538809, 1.93321, -0.53549, 0.488053, 0.478061, 0.422391, 2.73955, -0.572197, -0.403813, -0.231197, -0.772991, 0.2781, 0.53836, -0.665606, 1.18098, -1.00238, 0.269201, 0.320858, -0.059884, 0.164711, 0.157729, 1.09103, 0.07173, -1.45216, 0.20898, 0.163535, 1.96836, 2.75692, 0.204372, 0.487454, 0.871178, 2.40646, 1.92733, 0.700564, -1.0613, 1.36963, 1.16443, 0.669323, 0.061555, -0.029577, 0.517961, 0.683073, -0.832346, 1.68911, -0.271966, 0.971976, 0.064254, -0.325997], [-0.462418, 0.150857, -0.007624, 0.244056, 0.383961, -0.180805, -0.272482, 0.443563, 0.747045, -0.211402, -0.426906, 0.173065, 0.672634, -0.81221, 0.123904, -0.307257, 1.38781, 0.109889, 0.561963, 0.829388, 0.044092, 1.40566, -0.452679, 0.743428, -0.379458, -0.01237, 0.54043, 0.937868, 0.276488, -1.54512, 0.799824, -1.20758, 0.553239, -0.120932, -0.209896, 0.072957, -0.689517, -0.080538, -0.721092, -1.41823, 0.00766, 0.015592, 0.002834, 0.504029, 1.58652, -0.018845, -0.552588, -2.41346, -0.118065, -0.382658], [-1.61925, -0.908535, -1.11847, -0.493504, 0.327731, 0.636887, 1.47701, 1.85576, 4.3378, 0.045798, 0.463903, 0.764189, 2.17483, 0.764637, 0.799573, 0.460329, 1.59883, 2.65379, -0.339358, 0.477416, 0.017229, 1.6683, 0.866282, 0.949835, -1.87066, 0.107344, 1.35431, -0.102512, -0.657124, 3.51881, 0.760458, -1.36715, 0.744684, 1.19035, 2.14402, 1.04368, 1.8855, 0.229277, 1.57927, -0.209049, 0.039915, -0.052866, 5.32414, 0.66987, 2.31683, 1.22916, -0.730771, 0.67217, -0.818032, -0.09824]], [[-0.034258, -0.02901, 0.011224, -0.042284, -0.018771, -0.058011, -0.04148, 0.045349, -0.01153, -0.032862, -0.0304, 0.00879, -0.064891, 0.01053, 0.040228, -0.033594, 0.005424, -0.014573, -0.054663, 0.022843, 0.00711, 0.007012, 0.017021, -0.049406, 0.006857, 0.010431, 0.032139, 0.017849, 0.025091, 0.025016, -0.023794, -0.004803, -0.046738, 0.004099, -0.017674, -0.003642, 0.038479, 0.031674, -0.029301, 0.001651, -0.038559, 0.016421, 0.014669, -0.027047, -0.023565, 0.022018, -0.044205, -0.001983, -0.049721, 0.027842], [-0.547335, -1.76218, 1.39273, -2.00031, -1.21183, 0.113661, -0.935233, 0.906253, -2.81448, 0.084711, 0.201016, -2.48913, 0.605991, -0.886629, -1.88436, -7.31087, -3.94203, -0.72673, 1.73146, 0.050624, -1.66702, -1.51553, -0.164783, 0.191987, -0.672761, -0.646193, -1.1481, 0.584251, 1.57435, 1.20185, -0.587699, -1.85249, -2.30562, -0.17492, -2.67401, -6.1892, -4.61528, 0.01489, -0.734415, 0.64644, 0.18057, -2.06206, 0.048227, -0.46486, 1.38018, 0.054917, -0.009415, -0.494919, 0.308096, -3.54829], [-1.30781, 0.950494, -1.04128, 0.268419, -0.357872, -0.147994, 0.005122, -0.082633, 0.321823, 0.37851, 0.216943, -2.57271, -0.850272, 0.065909, -1.55756, -0.298283, 0.449008, -0.89747, -2.26025, -0.014603, -0.589166, 0.013988, -0.506449, 0.177787, 0.427438, -0.5906, -0.314162, -0.596472, 0.222028, -0.654773, -0.449976, -0.199281, 0.22239, -0.838005, 0.881007, -0.781088, -2.01908, -0.058028, 0.065488, -4.34445, 0.240172, -2.52957, 0.024521, -4.85337, -1.20879, 0.006867, -0.006139, -0.00777, 1.44503, 0.165954], [0.459445, 3.40946, -0.596746, -1.54434, -2.53018, -3.47556, -2.34878, 0.583294, -0.341513, 0.295791, -0.766235, -0.963356, -0.549237, -2.37782, -3.89506, -4.27546, -2.4683, 0.833908, 2.24181, 0.000141, -4.76185, -0.122618, -0.877626, 0.797218, -2.97611, -1.53811, -4.64513, -3.25486, -0.981408, -0.404553, 0.218859, 1.3313, -2.72008, -3.02564, -2.38403, 0.302252, 1.05267, 0.009811, -6.14806, 1.66091, -0.298253, -0.291686, -0.021067, 0.700307, 0.158406, -0.027717, 0.012087, 0.069348, -2.681, -0.505794], [0.309164, 2.37718, -1.04407, -0.39983, -0.753693, -1.67595, -0.640292, 0.605833, -0.437157, 0.807411, -1.28951, -0.377443, 0.031205, 1.10053, 0.005542, -0.363531, -0.444448, 0.944757, 0.593157, -0.01305, 0.08944, -1.99166, 0.897293, -0.146804, 0.874864, 0.043035, 0.010017, 0.880955, -2.0671, -3.99509, 0.059996, -0.421264, 0.305845, 0.181797, -0.947733, -0.117902, 0.2524, 0.040974, -3.72998, 0.415434, 0.034643, -0.092802, -0.017579, 1.50314, -2.65537, 0.020475, -0.045695, 0.072415, -0.087444, 1.52115], [-0.26544, -3.98868, 1.21675, 2.02996, -3.56052, -0.979705, 0.641213, -1.72017, -1.09261, 0.777238, 0.416987, -1.46381, -3.7174, -0.291183, -4.09655, -4.38925, 1.90584, -0.700777, -1.25855, 0.018458, 0.078813, -9.35839, -3.09314, 0.105661, -1.05236, -3.31358, -4.86386, -0.054178, -0.588774, -1.21073, -1.21373, 0.095586, -0.073437, -1.61205, -1.56007, -1.71958, -0.833876, 0.01928, -1.29935, -4.27612, 0.306515, -0.380453, -0.005374, -1.45263, -1.24573, 0.038425, -0.020099, 1.48325, -0.82022, 0.296761], [-0.003366, 0.041813, 0.01188, -0.032614, -0.048235, 0.026069, -0.049876, 0.040044, 0.027687, -0.05646, -0.020641, -0.047989, -0.011783, 0.010061, 0.00819, -0.044078, -0.010531, -0.0164, -0.050481, 0.027577, 0.027034, 0.008617, 0.023588, -0.009518, 0.020787, 0.002501, -0.031395, -0.027536, 0.018447, -0.002201, -0.045794, 0.009023, 0.038486, 0.038243, -0.001254, -0.028623, 0.003315, 0.011385, -0.038663, -0.026917, 0.009774, -0.056324, -0.011077, 0.038877, -0.028166, 0.033613, -0.015842, -0.040504, 0.010911, 0.005725], [-0.340497, -3.79489, -5.25963, 0.045069, -0.253941, -1.27675, 0.070992, -0.775848, 1.94908, -0.200758, 0.215369, 2.98163, -2.08206, -0.463801, -3.68466, -1.89703, 1.58189, 0.435561, -1.54446, -0.02877, -0.744548, -5.26288, -2.1081, 0.220292, -1.01044, 0.119354, 0.700409, -0.895013, -1.95098, 0.510568, 1.12555, -0.2187, -0.812432, -2.60402, -0.350654, -0.865788, -2.10841, 0.0031, -0.158104, -1.32405, 0.873894, -0.71622, 0.029091, -0.008101, 0.345505, -0.034995, 0.013673, 0.434421, 0.061471, -2.79913], [0.729971, 0.884706, -1.02625, 0.997032, 0.537012, 0.181679, 0.279173, -0.138987, -2.2116, -0.083063, 0.005106, -0.288346, 0.188759, 0.198553, 0.56712, 0.649038, 0.203411, 0.553713, -0.261408, -0.028271, 0.230923, -0.39212, 0.54403, -0.089879, -0.412418, -0.370885, -0.348155, 0.129109, -0.603318, 1.61539, 0.709065, -0.196399, 0.914515, -1.0901, -1.80606, 0.44699, -2.31074, -0.015042, -1.23697, -1.93302, 1.30336, -0.304208, 0.020473, -2.316, -1.8655, -0.023548, 0.038065, 0.52234, -1.20987, -0.325829], [0.133867, -4.09985, 0.55043, -1.98872, 0.030184, -5.51705, -0.458034, -0.845634, 0.962459, 0.116289, -0.100133, -6.22307, 0.178997, 0.115212, -0.518038, -0.971763, 0.243846, -2.37182, -0.79243, 0.048961, -0.841936, -2.42913, 0.935333, -0.039188, -0.300898, -0.111027, -4.53078, -0.650053, 0.325574, -0.502955, 1.36715, 0.101219, -0.498716, 1.18101, -4.24354, 0.690786, -1.03749, -0.004738, 0.2457, 0.345435, -3.10364, -5.67379, -0.010663, 0.013983, -0.628435, 0.001218, 0.034013, 0.22594, -0.425008, 0.109895], [-0.54375, 3.69638, -0.044674, -1.52721, -0.234763, -1.92653, 0.074475, 0.041577, -1.45848, 1.04609, 0.550229, 1.05653, -0.919968, -0.004684, 1.72075, 1.21755, -0.284527, -0.334301, 0.327546, 0.010062, -1.94468, 0.631312, -0.653036, -0.685947, 0.023387, -0.863325, 0.866714, 0.85763, -0.83898, 0.465032, 0.710752, 0.653268, 1.1254, 2.53926, 1.0099, 1.29272, 3.69735, 0.023977, 1.0189, 1.30427, 1.03342, -3.03998, -0.001616, 3.99051, 0.037754, -0.000413, -0.038614, 0.486127, 1.60224, -0.5173], [0.161032, 0.010455, -1.81222, -0.246482, -0.667675, -3.53045, -0.818536, -0.689879, 0.52688, 0.533626, 0.242397, 0.785069, -1.56216, -0.218621, 1.4567, -0.604558, 1.16244, 1.66699, 0.173354, 0.039401, -0.595149, 0.990283, 0.111646, -0.584153, 1.40556, 0.016945, 1.76963, 0.067952, -0.008395, 2.54418, -1.11649, 0.527688, 1.46699, 0.344932, 0.375197, 0.1554, 1.14024, 0.009796, 1.49802, 1.96053, 1.26639, -4.24522, -0.036777, -0.268142, 1.39594, 0.023215, -0.010719, -0.166539, 0.686888, -1.42098], [-0.403262, 0.707396, 0.612514, -2.75684, -2.92228, -0.178159, 0.084817, 1.40832, 1.09299, 0.682044, 0.191237, 0.279353, 1.08009, -3.38606, -3.46817, 0.523358, -0.949145, 0.793092, -1.11851, 0.008234, -2.59907, 0.090973, -2.23377, 0.31119, 1.11875, 0.19491, -3.52856, -1.04127, -1.27637, -1.96273, -0.514176, -2.45907, -2.77284, -2.06244, -0.89797, 0.872158, 0.769932, 0.012588, -1.76711, 0.078763, -0.684064, -5.93039, -0.052094, 0.948769, -1.86319, 0.003762, 0.034097, 1.21795, -2.26969, -0.593609], [-0.039872, 0.070366, -0.262708, -0.053748, 0.049156, -0.526844, -0.047504, -0.43759, -0.634263, 0.183033, 0.174471, 0.175834, -0.006764, 0.120041, -0.058639, 0.072293, -0.364881, 0.044714, 0.010168, 0.023379, 0.073133, -0.104758, -0.140227, -0.015842, -0.512661, -0.195449, -0.229319, -0.102183, -0.041364, 0.235072, -0.149422, 0.263672, 0.2665, -0.012042, -2.83041, 0.34423, 0.587119, -0.035306, 0.121763, -0.229234, 0.207296, -0.686037, -0.021572, -0.329899, -0.898231, -0.03332, -0.021057, -0.013074, -0.716383, -0.136107], [0.463591, -3.36567, 0.708801, -4.30789, -2.64209, 1.84716, -0.329149, 0.081757, -0.751278, 2.3547, 0.3031, -2.91016, -5.53414, -2.85765, -5.82023, -1.42541, -1.98776, -0.030188, -1.18379, 0.034357, 0.153541, -8.8506, -3.74001, 1.21022, -0.071338, -4.56772, -1.87203, -1.16766, 0.240381, -6.45677, -7.29043, 0.990736, 1.24769, -6.06069, 1.3338, 0.678696, -3.54823, -0.031133, -7.69459, 0.206866, 2.69975, -0.205296, -0.023869, 1.31725, -0.449626, -0.050079, -0.000861, -0.157933, -5.58894, -4.78343], [0.51336, -3.13699, -0.781833, -4.19898, -2.15017, -4.52861, 0.315365, -3.02886, -2.61108, 0.624545, 0.153402, -2.31999, -1.46438, -0.734623, -0.653194, -4.70264, -1.18686, 0.713243, -0.157086, -0.00336, -5.34547, -3.42716, 0.204431, 0.359041, 1.74817, -1.08111, -0.885602, -0.739462, -0.096705, -1.43519, -2.91587, 1.90505, -5.43873, -0.343917, -3.23822, -1.65829, -3.73662, 0.045645, -3.77835, -1.07001, -7.73717, 0.477592, -0.024265, 2.8085, 0.636359, 0.012605, 0.017971, 0.345332, -1.45669, -1.61499], [-0.433203, 0.614794, -1.44233, 1.31761, 0.47303, -3.27306, -0.587051, -2.87169, 0.862041, 0.30096, -1.16012, -4.49813, -3.61692, 0.63799, 0.706527, -0.896728, 0.873573, 0.230103, 0.086627, -0.032365, -1.71611, -1.30781, -0.782265, 0.017504, -0.096673, 0.431919, 0.494692, -1.30452, 0.753941, 0.673634, 0.380872, -0.422221, -3.63915, -0.765929, 2.28502, 0.946169, 1.36487, -0.040126, 1.33243, -0.025793, 0.828691, -6.53265, -0.032189, -0.794546, -1.32325, 0.030793, -0.020235, -2.18501, 1.3305, -1.32335], [-0.312955, 1.363, -1.68105, -1.43209, -0.393013, 0.366984, -0.451451, 0.073508, -1.91745, -0.142186, -0.423046, 0.588958, 0.401195, -0.390744, 0.861096, 0.930607, 0.443966, 1.07452, -0.225655, 0.018148, -1.29379, -0.243922, 0.566039, -0.237369, 1.71277, -0.420432, -0.190878, 0.412955, 0.231237, 1.74727, 0.16867, -1.2228, 1.03682, 0.24728, -0.906896, 0.085424, 2.24329, 0.028801, 1.08781, 1.20395, 0.506943, -0.722592, 0.010189, -0.76335, 0.097421, -0.030549, 0.034075, 0.378803, 0.805473, -0.100002], [-0.07993, -0.905559, 0.043484, 0.192569, 0.248243, 0.24816, 0.317565, 0.390142, 0.133392, -0.069709, -0.202074, 0.107223, 0.070749, -0.132378, 0.240105, -0.048464, 0.255857, -0.374495, -0.073687, -0.045083, -0.138944, -0.224722, 0.169308, 0.037013, 0.120109, 0.055182, -0.026867, -0.07594, -0.100589, 0.306286, 0.073679, 0.194035, -0.052127, -0.194992, 0.203111, -0.079176, 0.799911, 0.001565, 0.022561, 0.173462, 0.155888, -0.168494, -0.050084, -0.441062, 0.239243, -0.017366, -0.012303, -0.348356, -0.16059, 0.291597], [0.591124, -0.186638, 1.21534, -0.742161, -0.158308, 0.905368, -1.25666, -0.240913, 0.360634, 0.120265, -0.08272, 1.15558, -1.17313, -0.351454, 1.28812, 0.78791, 1.05652, 0.813154, 0.750749, -0.002983, 0.857641, -1.95128, 1.94459, -0.508386, 1.85892, 1.10426, 0.958217, -0.333341, 1.00603, 1.17357, -0.450319, -3.916, -0.999231, -0.490087, 2.11722, 1.17537, 0.925551, -0.004197, 2.77583, 0.39324, 0.779382, -1.09593, 0.042787, 0.716676, -0.468056, -0.042065, -0.000685, -0.50536, -1.35024, -3.4108], [1.1103, 0.806761, -0.510802, -1.44607, -0.95099, -1.17871, -2.19055, 1.10241, -0.198619, 0.24225, -1.11862, -2.58128, -0.846704, -1.56808, -2.04083, -1.72868, -2.34832, 0.706805, 1.8322, 0.015735, -3.8816, 0.087149, -0.839166, 0.706895, -0.867707, -2.78629, -2.87785, -0.083283, 0.140371, 0.049896, -0.241613, 1.20101, 0.460198, -1.53532, -0.638694, -1.94282, -2.59701, -0.025315, -5.29909, 1.8799, 0.800244, -4.16394, -0.009495, 0.356198, -0.473277, -0.040231, 0.011394, -0.173995, -2.1626, -1.24721], [0.02103, -0.97193, -0.04617, -0.393634, -0.658401, -0.73154, -0.490519, -0.961608, 0.003905, 0.231718, 0.101542, 0.601435, 0.17917, -0.395477, -0.892614, -0.299197, 0.040565, -0.49309, -0.423805, 0.036899, -0.604564, -1.62221, 0.553883, 0.106237, -0.303001, -0.435698, 0.231251, 0.374514, -0.013199, -0.065243, -3.23541, -0.16984, 0.587379, 0.226001, 0.430888, 0.760986, 0.320723, 0.032187, 0.496575, -1.30389, -0.537036, -1.01386, 0.021665, -1.05492, 0.175273, 0.040751, -0.021552, -0.087725, -0.536239, 0.138152], [0.628355, 0.103639, -0.045241, -0.296422, -0.843934, -3.56232, 0.534923, 1.04406, 1.25187, 0.294969, -0.055343, 0.702369, 0.809951, 0.369912, -0.308179, -1.04073, 1.18226, -0.856136, -0.151609, -0.046974, -0.493389, -1.36027, -0.304417, -0.043599, -0.926785, -0.084657, 0.475376, -0.421997, -0.779701, 0.193268, -0.066112, -0.885028, -0.53803, -0.567966, -0.014565, -0.073876, -0.251344, 0.032072, -0.105796, 0.3828, 0.306186, -0.968483, 0.068673, 0.113008, 0.809959, -0.006482, 0.027609, -0.940618, -0.205478, -0.190954], [1.07267, 2.48444, -0.807649, -5.82691, -3.84652, -1.68974, -0.593113, -0.708806, 0.594272, 1.70155, -0.099183, -1.03407, -4.39142, -1.70239, -2.47455, 0.992519, -2.76746, 0.810359, -0.239047, -0.039691, -3.32948, -4.70522, -0.940219, 0.832912, 2.55019, -3.16463, 0.996477, -0.572488, 0.422283, -8.42664, -5.90118, 1.37121, -0.324194, -2.44058, -1.16873, 1.61372, -1.3926, 0.032954, -1.70874, 0.359542, -1.5787, -1.44827, 0.038587, -3.03336, -0.578083, -0.034742, 0.001766, 0.627506, -3.68438, -0.09463], [1.10232, 0.452458, 1.04345, 0.624135, -1.91116, -0.92962, -0.636311, 0.283909, 0.729954, -0.050612, 0.239414, 0.877364, -2.5047, -0.734985, -0.258248, 0.079879, 0.261522, 0.534196, 0.166856, 0.029411, -0.948846, 1.38149, -0.326324, -0.643715, 1.24634, 0.400218, -0.242489, 0.996106, 0.586741, -1.15578, 1.12336, 0.827704, 0.103565, 0.44544, 1.04858, 1.10927, 2.74419, 0.045004, 2.50793, 2.48106, 1.79728, 0.542478, -0.024903, 0.59553, 0.538036, 0.026551, -0.052935, 0.185232, 0.306234, -1.13013], [0.921778, -1.38786, 1.78877, 0.140487, 0.349361, -0.393956, -0.249711, -0.605068, 1.76151, -0.415755, -0.021482, -0.524715, -0.116046, -0.046323, 0.22784, 1.73851, 0.174462, 0.266447, 0.755525, -0.030131, 0.690622, 0.515446, 0.303032, 0.182207, -0.428451, -0.606166, 0.106964, -0.35278, 0.295189, -1.08753, 0.520062, -0.855008, 1.38282, 1.07845, -1.01563, 1.2127, 0.417561, -0.039089, 1.09746, 2.21952, 0.575377, 0.403056, 0.040431, 0.509969, -0.123769, 0.021333, -0.000888, -0.849661, 0.137382, 0.143226], [1.02768, 1.16781, -0.171721, 0.92587, -0.216143, 0.260561, -0.398039, -1.90657, 0.847565, -0.15645, 0.147914, 0.206256, -1.12508, 0.429355, 0.722543, -0.09992, 0.48268, -1.65905, -0.501332, -0.021914, -0.968875, 0.359255, -0.099758, -0.298634, 0.244752, 0.087743, -0.060357, 0.840376, 0.320465, 0.560427, -0.525751, 0.364922, 0.139783, 0.94349, 0.178564, -0.096693, 2.25602, -0.018743, -1.13243, 1.11495, 0.508676, -1.55801, -0.007871, 1.8378, 0.802819, -0.044461, -0.007274, -0.151214, -0.149659, 0.770315], [0.494569, 0.25597, 0.018841, 0.235097, -0.617845, 0.520214, -1.38056, -1.34034, -2.45198, 0.607982, -0.49042, 1.52205, 0.205847, 0.294953, 0.394148, -0.108139, -1.19379, 0.56931, -0.176592, 0.004288, 2.33416, 0.320855, 0.919218, 0.027981, 0.877644, -2.06749, -0.9384, 0.547474, -0.035568, 1.10918, -0.071396, -1.77234, -2.57254, 0.367449, -0.77505, -0.821542, -0.283299, 0.035255, 0.401921, -0.497989, -1.74427, -1.85303, 0.004565, 0.529857, -1.95905, 0.041524, 0.038345, -0.478495, 1.14715, 1.47536], [0.4286, 1.18946, -0.318312, -0.106452, -0.301937, 0.113063, -0.19081, 0.329384, -2.42968, -0.061528, 0.625093, 0.120119, -0.14204, 0.400587, 0.620986, -1.18518, -0.462874, -0.128833, 0.183059, 0.059159, 0.133025, 0.111547, 0.441559, -0.212235, 0.299729, 0.053998, 0.430197, 0.169556, 0.148506, 0.874374, 0.507429, -0.151606, 0.952925, 0.998899, 0.852134, -0.401259, -0.283429, -0.033831, 0.321284, 0.302067, -0.856043, -0.768295, -0.032134, -0.215578, 0.566488, 0.001906, -0.013229, 0.339552, -0.472485, 0.241234], [0.231188, 0.999043, -0.462059, -0.472439, 0.265595, -0.06458, 0.099236, -0.112061, 0.875651, -0.1104, 0.175974, 0.932248, -0.31669, -0.145269, -0.68298, 0.98905, -0.092659, -1.75166, 0.269147, -0.008892, -0.722516, -0.36057, 0.256661, -0.178167, 0.199378, -0.895207, 0.009186, 0.008991, -0.046373, -0.348063, -0.164538, -0.185872, 0.244613, -0.666059, -1.70888, 0.322175, -2.34763, -0.044806, 0.565865, 1.01216, -0.114312, -3.01474, 0.069112, -0.614103, 0.505479, -0.038008, -0.010405, -0.098078, 0.710192, 0.472585], [-0.00758, 0.53364, -2.48619, 0.700484, -0.010411, 1.16761, -0.221465, 0.271771, 0.946035, -0.514791, -0.054554, 0.656031, 0.29814, -0.568244, -0.341145, 0.506964, 1.13966, 0.57432, -0.197946, -0.052128, 0.184698, 0.583155, -0.174372, -0.016131, -0.051104, -0.079675, -0.097198, -0.134713, 0.077337, -3.24315, -1.00606, 0.412733, 0.354465, -0.628186, 0.943486, -0.050214, -2.92261, 0.006158, -0.219644, 0.637469, 0.630996, -0.164094, 0.033502, -1.35095, 0.131381, -0.044833, -0.011314, -0.035132, -1.16068, -0.961472], [-0.064471, 0.783236, -1.2227, 0.715198, -0.560474, -3.4298, 0.235473, -0.500643, 0.871596, 0.217896, -1.65161, -2.02205, -1.55159, 1.51657, 0.193423, -4.49367, 1.89735, 0.771173, -0.562876, -0.039279, 1.19963, -0.983096, 0.072816, 0.031026, 0.393561, 0.596408, 0.928027, -0.206607, -0.314593, -4.31046, -1.11971, -1.44832, -1.48469, -2.48995, 0.164632, 1.64122, -2.75639, -0.019148, -1.78081, -0.982789, 0.998181, -1.03876, -0.015612, 0.046641, -0.859178, -0.020062, -0.010721, 0.124856, 0.632579, -1.23535], [-0.670883, -0.249786, 0.216283, 0.113329, -0.487336, -0.46851, -0.039735, -0.421951, 0.659675, -0.054052, -0.600463, 0.103681, -0.18533, 0.10246, 0.253376, -0.130299, 0.126442, 0.82573, 0.079399, -0.01831, 0.133722, 0.331409, 0.393037, -0.047723, 0.569941, 0.126645, -0.21025, -0.072616, -0.350816, -1.07202, 0.519342, 0.009206, 0.330481, 0.041537, 2.08918, -0.054502, 0.954798, -0.032231, -0.077189, -0.072208, 1.22469, 0.163676, -0.010756, -0.003674, -0.010512, 0.021804, 0.022092, -0.177283, 0.214582, -0.078036], [-0.009325, -1.35515, -0.255159, -0.039764, 0.203916, 0.058392, -0.026169, -0.003903, -0.537279, -0.216197, 0.088921, -0.065933, 0.104744, 0.285423, -1.31663, 0.328015, -0.116265, 0.291119, 0.140035, 0.005589, 0.504612, 0.025322, -0.246536, -0.09321, -0.062014, 0.307411, 0.128026, 0.077238, 0.564381, 0.046794, 0.389222, 1.00859, 0.194779, 0.540753, 0.372397, 0.235895, -0.806797, 0.027893, 0.391583, 0.1353, 0.021249, -0.29879, -0.009562, -0.07297, -1.01941, 0.025869, 0.026436, 0.265973, 0.057939, -0.419415], [-0.305337, -0.003571, -0.431867, 1.08544, 0.100618, 0.173508, -0.205373, -0.50311, -0.84578, -0.433438, -0.822221, 1.12705, -1.38025, 0.137096, 0.680435, 1.41698, 0.538402, -0.302258, 0.052075, 0.001926, 0.560706, 0.324795, -0.5188, 0.000119, -0.861353, 0.208526, 0.445625, -0.395996, 0.07105, 1.53984, 0.113794, -0.243898, -0.261036, -0.973497, 1.05346, -1.57136, 1.4627, 0.016023, 0.567715, 0.549615, 0.544086, -2.65624, 0.012486, 1.58671, 0.276634, 0.027689, -0.023782, 0.241259, 0.318227, 0.18376], [-0.187387, -3.55996, 0.903195, -0.108934, -1.36541, -0.824903, 0.371143, 1.34324, -2.45404, 0.288948, -1.71934, -0.051006, 0.684918, 0.307991, -0.901207, 0.710702, 0.614859, -0.466144, -0.476981, 0.03991, 0.594854, -1.18408, -1.39679, 0.015537, -0.256256, 0.737296, -0.891542, -0.107512, -0.192429, -0.135885, 0.308678, -0.687841, -1.44847, -1.53127, -0.307597, -0.091178, -6.25589, 0.022563, 1.0277, 1.04046, 0.167095, 0.711872, 0.000658, -1.44996, 0.612635, -0.001938, -0.036075, 0.731518, 0.178257, 0.021116], [0.650738, 1.47524, 0.101603, 0.536721, 0.054841, 0.1404, 0.243594, -1.04963, 0.410328, 0.165619, -0.839472, 0.799713, -0.734463, -0.3558, -0.054242, 0.565323, 0.044891, 0.887153, -0.179478, 0.011032, -0.211158, -0.238412, 0.279986, -0.458806, 1.28472, -0.930639, 0.647912, 0.952484, 0.746151, -0.242812, 0.532673, 0.654683, 2.07934, 1.61175, 2.13167, -0.635028, -2.52992, -0.056908, 2.17136, -1.42764, 1.31876, -0.970854, -0.053081, -0.458605, 0.275018, 0.009891, -0.031034, -0.482288, 1.16462, -1.04372], [-0.26039, -0.043621, -0.363496, -0.296979, 0.2291, 0.325057, -0.097174, -2.58603, -0.168216, 0.190898, -0.017567, -0.403483, -1.02407, -0.026261, 0.126642, 0.631662, 0.287521, -0.179642, -0.095868, 0.005779, 0.184816, -0.027022, -0.177299, -0.036667, 0.157759, -0.499484, -0.112718, 0.269988, 0.286121, 0.102968, 0.166459, -0.063074, -0.423682, -0.267405, -1.37466, 0.333069, 2.24096, 0.003371, -0.24887, -1.18346, -0.835195, -2.31419, -0.038286, -2.06932, 0.168831, -0.000232, -0.004416, -1.23004, 0.282878, 0.303747], [-1.35378, 1.91326, 0.518993, 1.62544, 0.90371, -1.79444, 0.381219, 0.350013, -2.92641, -0.735414, 0.124344, -0.850327, -0.138801, 0.953702, -0.43204, -0.489921, -0.22161, -0.054592, 0.562791, -0.01739, 0.512315, -1.14886, -0.105307, 0.02877, 0.384643, -0.833499, -0.577388, 0.766793, 0.130616, 0.229427, 0.662465, -0.198585, -2.18577, 0.846448, -2.93054, -1.30257, 1.97822, 0.018761, -0.146281, -0.972602, 1.24685, -0.147762, -0.037685, -1.30025, -0.358958, 0.052296, -0.003956, 0.573634, 2.15518, 0.807822], [1.12751, -1.97121, -0.287927, -0.302131, -0.103873, -0.137892, -0.414588, 0.071416, 0.04418, 0.051484, 0.11614, 0.393575, -0.601997, 0.217539, -0.337174, 1.74778, 0.275888, -2.3223, 0.281953, -0.031366, 0.412126, 0.246702, 0.950425, -0.29076, 1.07518, -0.177449, 0.817338, -0.34693, -1.79505, 0.943274, -0.625751, -0.023164, 0.373847, -0.387692, -0.603512, 0.004745, -0.008037, -0.022663, -1.14906, -0.063512, 0.888659, -1.61736, 0.051038, 1.30301, 0.124148, -0.037969, -0.04186, 0.21814, 0.661607, -0.369253], [-0.720371, -4.20072, -0.540856, -3.18067, -1.90833, -4.349, -1.43359, 0.129078, -5.76577, 1.61023, -2.27078, 0.206773, -3.56088, -0.074541, -1.67366, -2.11843, -3.47209, 0.345657, 1.30847, 0.001834, 0.150463, -5.16515, -5.28372, 1.15008, -4.77696, -6.14742, -6.99867, -0.979856, -1.66825, 0.735806, -0.722042, -1.6433, -6.18383, -2.15546, 