{"number_of_layer": 8, "number_of_neurons_each_layer": [5, 50, 50, 50, 50, 50, 50, 5], "weight": [[[-1.22364, -0.009441, -0.810391, 0.067463, 0.033102], [-0.324506, 2.51008, -3.26326, -0.016754, 0.557671], [-0.175872, 1.61603, -1.68477, -0.020066, -0.632399], [-0.110428, 1.07836, 1.22588, 0.503452, -0.184421], [-0.043321, 0.548392, 1.48964, -0.150276, 0.146735], [0.040369, 0.566056, -0.535388, 0.020968, -1.17675], [-0.166577, 0.309364, 0.119931, -0.343652, 0.413484], [-0.000778, 1.28686, -1.5959, -0.037596, 0.479811], [0.094843, -1.14365, 0.059312, 0.309324, -0.483113], [0.067928, -0.056719, 0.029796, -0.324139, -0.186163], [-6.3e-05, 0.000151, 0.025388, -0.014305, 0.002142], [1.08379, 0.012573, -0.008111, 0.080149, 0.055094], [-0.066005, 1.08944, 0.098722, 0.174017, 0.243226], [0.021498, -1.34225, -1.2069, 0.576033, -0.223012], [-0.11648, -0.613922, 0.682569, -0.00293, -0.205024], [-0.004347, -0.558844, -0.072178, 0.204131, -0.012846], [-0.137321, -1.60403, -0.313702, -0.227908, 0.473758], [-0.083632, -2.4342, 1.74218, 0.050815, -0.370485], [0.040192, -0.475003, -0.872888, 0.363054, -0.391918], [-0.028281, 0.050617, 0.256596, -0.82379, 0.82544], [-1.13584, -0.210861, 0.090811, -0.293971, 0.058699], [0.12293, -1.24712, 1.0498, 0.165529, -0.175538], [0.040949, 0.732379, -1.32052, -0.38384, 0.219592], [0.121014, 1.54491, -0.137242, 0.349345, -0.508539], [0.314288, 0.426539, 0.368413, -0.018487, 0.065288], [-0.042618, -1.42517, 1.67703, -0.032849, 0.517838], [0.003482, 0.568789, -1.18383, 0.418485, -0.40431], [0.026075, 2.12133, -0.159878, 0.483853, -0.62792], [-0.04741, -0.942987, 1.09201, -0.048571, 0.208633], [-0.010326, -0.042683, 0.041457, -0.011651, -1.69004], [-0.063296, -1.76113, -0.035293, 0.342101, -0.532949], [-0.057168, -0.566805, -0.503282, -0.311096, 0.19237], [-0.08026, 1.33464, -1.71486, -0.05862, 0.480875], [-0.022369, -0.463606, -1.37601, -0.113315, 0.134162], [0.018634, 0.614076, -0.789113, -0.153881, 0.299923], [-0.090732, -0.226533, -0.01376, 0.438472, -0.513207], [0.168957, 1.18998, 0.204045, 0.510663, -0.042588], [0.09195, 0.784212, -1.24023, -0.00031, -0.095346], [-2.27536, 0.12375, -0.130336, 0.056924, -0.000754], [-0.007376, 1.24143, -0.861916, -0.008138, 0.140988], [-0.050864, 1.82126, 0.122728, -0.007047, -0.323328], [-0.827136, 0.185072, 0.041359, 0.092164, -0.188473], [0.015153, 0.424028, -0.38103, 1.07357, -1.24138], [-0.143119, -1.31388, 1.55046, -0.049128, 0.510088], [0.012945, -0.302139, 0.030534, 0.423848, 0.151605], [-0.111765, 0.829996, 0.234447, 0.787289, -0.831681], [-2.07231, -0.119973, 0.132682, 0.059983, 9.6e-05], [-0.036758, 0.044048, -1.26881, 0.075839, 0.132676], [0.412411, -0.261863, 0.856361, 0.958962, -1.16471], [0.088841, 0.209498, 0.306201, 0.23334, 0.620798]], [[0.27976, -0.913012, -0.44844, 0.100325, 0.237511, 1.9542, 0.055543, -2.19464, 1.48848, 0.460862, -0.008738, 1.09801, 0.11901, -0.361285, -1.70021, -0.191449, 0.198098, -0.003617, 0.588306, -0.459659, 0.038781, -1.68301, 0.049112, 1.67396, -1.99328, -1.2976, -0.553928, 0.428486, -0.829089, -0.458244, 0.454907, -0.210223, -1.17835, 0.69737, -0.355505, -2.15911, 0.113729, 0.405151, 0.545456, -1.2851, 0.496195, -0.082323, 0.125999, -1.07196, 0.136604, -0.888542, 0.390549, 1.51034, -0.257862, 0.711772], [0.011774, -0.060774, -0.001111, -0.029956, -0.040364, 0.011522, 0.00149, -0.014186, -0.030443, 0.007963, -0.038263, 0.025516, -0.037964, -0.033744, 0.035176, -0.027775, -0.005632, -0.023387, -0.030914, -0.037571, -0.035121, -0.018654, 0.020933, 0.014597, 0.064657, 0.010149, 0.007236, -0.045649, 0.043249, -0.022852, 0.017418, -0.001544, -0.05594, -0.029322, -0.007815, 0.014258, 0.020722, 0.002591, -0.052336, 0.008196, -0.044474, -0.04795, 0.019895, -0.017544, -0.051638, 0.033651, -0.051268, 0.015008, -0.042256, -0.044808], [0.513314, -0.109594, 0.354869, 1.06532, 1.20405, 1.4084, -1.3799, 0.096632, 0.247468, 1.61314, -0.031165, 1.05495, 1.25502, 0.648964, 0.839104, -0.748853, -2.20992, 0.002649, 0.461628, -0.454609, 0.355317, 0.252902, 0.456614, 0.44099, 0.78589, 0.844181, 0.224102, 0.319617, 1.82464, 1.00804, -0.9976, 0.746439, -0.366632, -0.194253, 0.216619, 0.791296, -0.509105, -0.19434, 0.15487, 1.6757, -1.52225, -0.071507, 0.159728, -0.097984, 0.276937, 0.079197, -0.143238, -0.350633, -0.410727, -0.457837], [0.774402, 0.061177, -0.383021, 1.09062, 0.460418, 0.601166, 0.289436, 0.422809, 0.062031, 2.7854, -0.022328, 0.373603, -1.11431, -1.36857, 0.344195, -1.15247, -0.304929, -0.182586, 1.4735, -0.758113, 0.441614, 0.255724, -0.665695, 0.410252, 0.006183, 0.39746, 0.238924, -0.527049, 1.91529, 1.40132, -0.189853, -1.86001, 0.53799, -0.147003, -0.198229, 0.180414, 0.125604, 0.190672, 0.877019, -0.394915, -7.1796, 1.02883, 0.193763, -0.030865, -1.0658, 0.753152, -0.136355, 0.853893, -0.329692, -0.186704], [-1.51742, 0.677731, 1.20627, -1.26055, -1.80156, -1.39036, -1.38064, 0.757877, -2.45866, -1.59359, -0.025859, -0.27446, 0.093457, -0.456034, -0.227055, -2.08228, -0.619196, 0.073379, -0.36169, -0.636587, -2.25624, -0.002908, 0.210764, 0.189417, -0.731495, 0.058253, 0.245961, 0.420231, 0.003643, -4.28865, -0.456864, -1.44496, 0.732762, -0.845582, 0.065308, -0.163453, 1.25642, 2.47523, -1.47399, 1.89081, -1.314, 0.897016, -0.418208, 0.047429, -0.577685, -0.040666, -1.81469, -0.201401, 0.149909, -0.343817], [-0.176715, -0.262949, -0.725565, -0.559942, -0.54567, 0.309891, -0.363503, -0.055578, -0.38384, -2.16925, 0.032007, 0.932476, 1.47129, 0.852009, -0.453067, 0.980574, -0.07243, -0.807044, 1.03579, -0.137112, -0.508755, -2.03047, 1.08503, -0.80191, -0.203503, 1.30934, -0.131023, -0.261113, 0.020129, 0.482311, -0.359214, 0.265383, 0.250377, -0.122895, 1.70598, 0.567708, 0.057424, -0.492516, 0.18761, 0.242813, 1.20357, -0.655419, 0.352389, 1.19641, -0.840551, 0.149946, 0.751692, -0.992938, -0.103268, 0.07209], [0.276339, 0.100655, 0.549387, 0.718197, 1.68605, 0.00138, 0.290509, 1.28862, 1.44254, 1.32637, -0.013324, 0.245222, 1.32707, 2.34763, 0.794363, 0.331456, -0.152235, 0.945344, 1.885, 1.48551, -1.04584, -0.8235, -0.192703, 0.875939, 1.02081, 0.58308, -1.91149, 0.950797, -0.193563, -3.43101, -0.005257, 1.24467, 0.112374, 1.68058, -1.16457, 0.089482, -0.711509, -0.508055, 0.189503, 0.561708, 0.297011, -0.796393, -0.096912, 0.474093, -0.172653, 1.4694, -0.134953, -2.16979, -0.769317, -0.336556], [0.002495, 0.017794, -0.016355, -0.026351, -0.033737, -0.008314, 0.002459, 0.013146, -0.005625, 0.043833, 0.024589, 0.017373, -0.054399, -0.053822, -0.029237, -0.033766, -0.013564, -0.009999, -0.003134, 0.010816, -0.04543, 0.011336, -0.01556, 0.007632, -0.02201, 0.014737, -0.053095, -0.047179, 0.037804, 0.019233, -0.01708, -0.028292, 0.033617, -0.031802, -0.024054, 0.032346, 0.011489, -0.020015, -0.018429, -0.03473, 0.024724, 0.027016, -0.006836, -0.006748, 0.012797, 0.029535, 0.011994, 0.020288, -0.057619, -0.061814], [-0.17513, 0.076979, 0.035466, 0.440951, -0.681317, 0.653427, -2.0022, -0.539431, 1.38263, 0.08463, -0.022625, -0.274988, 0.222147, 0.309196, -0.973238, -0.550146, -0.808697, 0.734503, -0.158691, -2.39455, -1.06818, 0.253837, -0.847338, 0.772605, 0.502373, 0.047449, -0.238642, 1.21266, -2.16573, -2.62921, 0.718944, -0.291932, 0.969606, -1.80904, -3.16163, -0.757511, -0.788544, -0.15843, -0.148813, -1.02834, 0.195473, -0.253799, 0.19266, 0.766506, -0.078995, 0.056862, -0.812348, 1.00971, 0.006884, 0.247913], [-0.724191, -0.159193, -0.534533, 0.042411, 0.341729, 0.683841, 0.049339, 0.255262, -0.111584, 0.011934, 0.029732, -0.158144, -0.306641, 0.251427, -0.171953, 0.461295, 0.381786, -0.134245, -0.276265, 0.135276, 0.168801, 0.138124, -0.180742, -0.204531, -0.119447, -0.25361, -0.081598, -0.14206, -0.570068, -0.356283, -0.221903, 0.223731, -0.251396, -0.742689, -4.44316, -0.498349, 0.180353, 0.500499, -0.185054, -0.098782, 0.164446, -0.360118, -0.048779, -0.303102, -0.477778, 0.440583, 0.404659, 0.438633, 0.015808, 0.266677], [-0.761787, -0.272072, -0.495626, -0.590968, -0.065629, -0.487312, 0.730751, -0.813309, -0.079821, -0.587356, 0.038092, 0.037513, 0.432464, -0.176078, -0.057253, -1.0319, -0.378748, -0.237, 0.009497, -0.521961, -0.536929, -0.040698, 0.012193, -0.459296, -0.122995, -0.105649, 0.455882, -0.057689, 0.415561, -0.127989, 0.005967, 0.212344, 0.256996, 0.457656, 1.5333, -0.273226, 0.440024, -0.058804, 0.700151, -0.519888, 0.198292, -0.140942, 0.15732, 0.404857, 0.881272, 0.154286, -0.51625, 0.190012, -0.0002, -0.870047], [0.251679, -0.014372, 0.531036, 0.983675, 2.34881, 1.75298, 0.889393, 0.572498, -1.37117, -1.57579, 0.038386, 0.000913, 0.079956, -0.1228, -1.57114, -0.389946, -0.030997, -1.5508, -1.25597, -0.281198, 0.018448, -2.70286, -1.19298, 1.91818, -0.32455, -2.09609, 0.590473, 1.2908, -1.77437, -1.56327, -2.44966, 0.937541, -0.413114, 1.0455, 0.023624, -1.70287, 0.817645, -0.954711, 0.210707, -0.42099, -0.055445, -1.0819, -0.647192, -0.607376, 0.119023, 0.952223, -0.212703, -0.77132, -0.101335, -0.628941], [0.001367, -0.354661, 0.514588, 0.734655, 0.180892, 0.635593, -1.1735, 0.013058, 0.203124, 0.270305, 0.039024, -1.02687, -0.376975, -0.116701, -0.040719, -0.934016, 0.528325, -0.464223, 0.685376, 0.5157, -0.821965, 0.591433, -0.10847, -0.410115, 0.345903, 0.509848, -0.090549, -0.397627, 0.525785, 0.897261, -0.298435, -0.378128, 0.289993, 0.239245, 1.33688, -0.016093, -0.49873, 0.040123, -0.172286, 0.573895, -0.955184, 1.15631, 0.294645, -0.147287, 0.563891, 0.195957, 0.396646, -0.036418, 0.623483, 0.912303], [-0.61657, -0.013668, 0.217459, 0.319706, 0.014881, 0.996793, 0.416743, 1.41971, -2.47614, -0.22552, -0.037049, -0.233069, -0.355514, -1.11819, -0.590522, -0.247789, 0.945062, -0.517499, -2.25129, -1.19037, 0.691003, 1.0199, -2.28134, 2.34687, 0.035543, -0.270042, -0.238154, 0.791713, 2.75924, -2.93568, -1.67995, 0.250094, -0.764348, -0.172606, -2.47602, -3.20417, 0.391215, -2.5213, -0.065724, -1.81971, -0.834831, -0.95794, -0.170998, -0.205784, -0.119703, 1.59389, 0.423314, -2.91044, 0.198912, 0.101727], [-1.95964, -0.181824, 0.74674, 0.990815, 1.85515, -0.645635, -0.402311, 0.770159, 0.839492, -1.03251, -0.026807, -0.189338, 1.17337, 0.691299, -0.800606, 0.55257, 1.70596, 0.306437, 1.77366, -0.622123, -0.00079, -0.616623, 0.132272, -0.169392, 1.22473, 0.227288, -0.335664, 0.147185, -0.083304, -0.429284, 0.526568, -0.715721, 0.204695, 0.467096, -0.468824, 0.028568, -0.826477, -0.544853, 0.07646, 1.79907, -0.178493, -0.202984, 0.364103, 0.007679, -0.317842, -0.486036, -0.135145, 0.329806, 0.087685, -0.707542], [-0.594623, 0.223412, 0.171033, 0.170663, 0.424089, -0.567642, -0.047277, 0.098867, -0.288016, -0.05333, 0.01081, 0.864273, 0.671178, -0.618042, -1.01927, 0.729188, 0.538649, 0.346108, -0.448783, 0.442007, -0.932451, 1.55328, -0.191026, 0.637907, -0.354763, 0.832585, 0.252993, 0.340432, 0.723193, -0.192357, -0.058019, -0.114512, -0.18972, 0.716283, 1.3869, -0.250038, 0.992624, 0.673711, 0.397261, 0.388783, 0.583189, -0.446323, 0.363519, 0.088467, 0.037863, 0.187267, -0.139888, -0.729654, -0.151402, -0.197314], [-0.043737, -0.027342, -0.034906, 0.020198, -0.055945, -0.020777, 0.023861, 0.036825, -0.026695, -0.008291, 0.041886, -0.056655, -0.017169, 0.003656, 0.030892, 0.021911, -0.03168, -0.018625, -0.009355, 0.039538, -0.049715, -0.030039, -0.049401, 0.014383, 0.015254, 0.036836, 0.002921, 0.012734, 0.031637, -0.035115, 0.002732, -0.027604, -0.008801, -0.0169, 0.031223, 0.023391, -0.052681, -0.018992, -0.033571, -0.028032, -0.043196, -0.058004, 0.039798, -0.020757, -0.043977, 0.020886, -0.065746, 0.006171, -0.038444, -0.005823], [0.125027, 0.231032, 0.710759, -0.157579, 0.336933, 0.071354, 0.187201, -0.592896, 0.757237, 0.450372, 0.04547, 0.338879, 0.50628, 0.314853, 0.902789, 0.747207, 0.012128, -0.50614, -0.17794, 0.663245, 0.071151, -0.388177, 0.493113, 0.348413, -0.270044, -0.328041, -0.456158, 0.144052, -0.026508, -0.495135, 0.456652, 0.34026, -0.178016, -0.421384, 0.098876, -3.38049, 0.421093, -0.266101, -0.01846, -0.151742, 0.045794, 0.456589, -0.499762, -0.087806, 0.404131, 0.028704, -0.58663, -0.318354, -0.608901, 0.125497], [-0.904114, 0.098953, -1.07487, -0.496032, 0.546717, 0.700031, 0.554313, -0.179643, 0.263909, 1.683, 0.004024, -0.072216, -0.187318, -0.276596, -0.485786, 0.642859, -0.825401, -1.05602, 0.365282, 0.892148, 0.303029, -1.04983, 0.808223, -2.0375, 0.562316, 0.603888, -0.202263, -1.79307, 1.01106, 0.027464, 1.72182, -0.486203, -0.320082, -0.519899, -3.0019, 1.33472, 0.362853, -0.964519, -0.217217, -3.60027, 0.556466, -0.571383, -0.092029, -1.00735, -0.464032, -1.52666, -0.169484, 1.34949, 0.597624, 0.00154], [0.012681, -0.045783, 0.027021, -0.024971, -0.017626, -0.038852, -0.033094, 0.036602, -0.042054, -0.016292, -0.023065, -0.048912, -0.034902, -0.016542, -0.044122, -0.041132, 0.038444, -0.013509, -0.034747, 0.02293, 0.001257, -0.048934, -0.002987, 0.031914, 0.012104, -0.011284, -0.008297, -0.029756, 0.01304, -0.044234, -0.037046, -0.023562, 0.024031, -0.049135, 0.034187, -0.023733, 0.033979, -0.047836, -0.029916, 4.1e-05, -0.03304, -0.025772, 0.012618, -0.007397, 0.01819, 0.04193, 0.023743, -0.050767, -0.014333, -0.033005], [-0.615162, 0.087339, -0.312447, -0.041015, 0.524018, -0.269231, -0.820094, -1.25093, 1.65404, 0.813578, 0.024547, -0.100891, -0.595107, 0.32012, -0.879318, 0.436123, -0.221848, -0.760816, 0.637537, 0.973454, -0.559167, -0.612222, 0.871009, -0.161759, -0.01259, -0.546221, -0.633921, -0.741162, -0.581762, 2.77674, -0.461685, 0.389281, -0.863952, -0.555215, -1.1258, 1.81217, -0.107203, 0.261664, -0.194191, -0.351716, 0.194538, -0.430389, -0.571496, -0.265915, -1.82576, 0.225593, 0.025382, -0.53863, 0.042723, 0.530247], [-0.026353, -0.035754, -0.008917, 0.009441, 0.008282, -0.013474, 0.022466, -0.060785, -0.04808, -0.052243, -0.011091, -0.040174, 0.018498, -0.0124, 0.003766, 0.004076, -0.023956, -0.022704, 0.026918, -0.061329, -0.058257, 0.003133, 0.005385, 0.027956, -0.004601, 0.025377, 0.030888, -0.048613, -0.018517, 0.018922, 0.013133, 0.019732, -0.008802, 0.023861, 0.000256, 0.025514, -0.005555, -0.002096, 0.004583, 0.004011, 0.021892, -0.022724, 0.014418, -0.009811, -0.072971, 0.025071, -0.021974, -0.024288, -0.047918, -0.055644], [-0.538639, 0.070175, -0.217586, 0.014774, 0.115123, 0.097653, -0.143425, 0.281783, -0.332972, -0.047702, -0.009958, 2.34021, 0.062541, 0.009773, 0.176416, 0.765738, -0.027357, -0.254306, 0.110534, -0.106934, -0.904765, -0.079055, 0.191917, -0.149763, -0.389975, 0.296332, 0.236513, 0.094969, -0.311791, 0.262016, -0.34755, -0.061127, 0.272131, -0.084111, 0.350938, -0.44885, 0.111852, -0.336231, -1.30807, -0.336775, -0.560612, -0.641036, 0.14158, 0.129745, 0.50923, 0.088294, -1.32673, -0.090754, 0.209369, 0.134663], [-0.905519, 0.601977, 0.417544, 0.203039, -0.277047, -0.257777, -0.213757, 0.306003, -0.28654, -0.234225, 0.009494, -0.087715, -0.434624, 0.292813, -0.334436, 0.312446, -0.026697, 0.499906, 0.289168, 0.174134, -0.627819, -1.25061, -0.154352, -0.509761, 1.62759, 0.120057, -0.055431, -0.261104, -0.437345, 0.133045, -0.546684, 0.146647, -0.423609, -0.213321, -0.935956, -0.348842, 0.109483, -0.878572, -2.23018, -0.168595, -0.114589, -0.597919, 0.151834, 0.016239, -0.274579, 0.076034, -2.09349, -0.403168, 0.28423, -0.323809], [-3.27442, -0.48597, -1.45618, 1.38275, 0.097935, -3.17733, 0.040166, -0.388237, 2.1924, 0.796055, 0.045163, 0.150343, -0.787042, -0.202697, -1.06832, 0.636315, -0.158675, -0.87072, 0.149009, -0.188207, -1.09728, 0.116323, 0.682116, 0.510617, 1.10556, -0.356746, -0.818823, -0.923053, 1.00242, -0.287393, 1.47182, 0.497324, -0.519503, 0.420338, -0.147596, 0.239361, -0.322923, -1.41466, -0.773558, -1.47854, 1.07589, -0.481061, -0.354181, -1.69519, 0.251763, 0.517968, 0.910651, 0.859201, -0.281881, 1.22631], [0.015109, 0.03116, 0.025275, -0.014994, -0.054669, -0.009509, -0.038149, -0.039492, -0.011656, 0.007041, -0.046488, -0.006989, 0.004309, -0.044698, -0.033758, -0.015574, 0.035015, 0.010318, -0.005615, -0.029577, -0.037149, -0.022137, -0.051014, 0.002458, -0.047812, -0.009631, 0.001021, 0.000522, 0.017251, 0.020412, 0.018323, -0.032384, 0.00667, 0.013871, -0.007621, -0.060233, -0.028185, 0.006703, -0.054303, -0.000701, -0.046304, -0.01429, -0.046938, -0.004766, -0.04578, -0.011586, -0.037864, -0.005045, 0.011639, -0.022836], [-0.287659, 0.402661, 0.562432, -0.455003, -0.033228, 0.107021, 0.256496, 1.21883, -1.26221, 0.517429, -0.006631, -2.65843, -0.210098, 0.301552, 0.376747, 0.181945, 0.642859, 0.1205, -0.529388, -0.508099, -1.10943, -2.5197, -0.267316, -1.29915, -1.77785, 0.907026, -0.026857, 0.014417, -0.407963, -0.880457, -0.488931, -1.14167, 0.721523, 0.452217, 0.735972, -0.275859, 0.138323, -0.406065, 2.29055, -1.78978, -1.96478, 1.32514, 0.198186, 0.407542, 0.568024, 0.13991, 1.61601, 0.192892, 0.705673, -0.166227], [-1.24624, -0.823895, -1.63639, 1.17699, 1.76401, -0.508182, 1.01459, -1.92647, -0.063514, 0.745665, -0.033756, 0.217194, 1.12206, 2.17703, -1.62614, 0.433964, 0.794733, -0.985794, 1.54913, 1.01892, -0.389714, -2.19363, 0.536664, -0.848815, 0.474807, -2.03182, -1.46481, -0.385529, -3.38796, -4.07217, -0.819146, 1.07917, -1.55268, 2.23558, -0.839957, -0.019193, 0.76318, -2.01642, -0.47761, -0.464582, 0.490054, -1.10651, -0.186023, -1.36613, 0.039054, 0.501907, -0.71338, 0.171865, -0.850263, 0.626365], [-2.66425, -0.036864, 0.92811, 0.613895, 0.353723, 0.98481, 0.587717, 0.278641, -0.034378, 0.027643, 0.016634, 0.52053, 1.39785, 0.505008, -0.060257, 0.905172, 0.044911, 0.221816, -1.24383, 0.039904, -0.24213, -1.11595, -0.383469, 0.440605, 0.064154, -0.508611, 0.03137, -0.536746, 0.043528, -0.676643, -0.087869, 0.557064, -0.437857, 0.298486, -0.671849, 0.52623, -0.226569, -1.99128, -0.118881, 0.513342, -0.262808, -1.18012, -0.141378, -0.000554, 0.017304, 0.283094, 0.812531, -0.797339, -0.43746, 0.369698], [-0.027682, -0.533048, 0.093482, 0.011336, -0.266119, 0.319177, 0.165487, 0.964252, 0.00216, 0.412301, -0.042254, -0.069597, 1.10539, -1.38511, 1.11667, 0.963501, 0.518919, -1.05328, 0.206108, -1.23846, 1.71018, 0.025355, 0.958168, 0.349162, 0.089969, -3.44305, -0.618203, -0.884074, 0.028582, -1.43441, -1.04739, 0.988746, -0.185927, -0.79247, -2.32239, -0.499033, -0.013658, -0.739591, -0.017248, 0.227668, 0.989662, -1.015, 0.329941, -0.170636, 0.019325, -0.050377, -0.318491, -0.2539, 0.263143, 0.686946], [-0.65865, -0.443092, 0.711751, 0.056934, -0.013475, 1.24258, 0.31814, 0.517653, 0.664014, 0.413371, -0.056146, 0.249158, 0.563244, 0.423566, 0.518691, 0.309362, 0.437003, 0.343024, -0.422431, 0.507171, 0.532794, -0.579116, -0.622215, -1.61621, -0.171721, -0.484879, 0.713936, -0.339633, -0.183388, -0.317856, 0.36997, 0.234405, -0.256351, 0.723308, 1.07952, -2.12647, 0.40469, 0.297899, -0.252411, -0.394178, 0.97995, -0.104795, -1.7246, -0.157121, 0.173342, 0.352068, -0.227075, -0.029244, 0.026027, 0.086891], [0.700574, -0.017615, 0.602228, -0.395819, -0.387385, 0.222259, -0.341408, 0.58581, 1.4148, -0.028984, -0.022771, 0.095632, 0.243436, 0.504647, 0.658192, -0.009032, 0.216978, 0.956479, 0.569169, -0.412144, 0.296848, 1.83419, 0.199734, 0.55031, -0.40815, 0.432196, 0.18711, 0.113626, 1.89943, 1.79523, 0.522094, -0.599747, 0.518689, -0.555825, 1.70387, 0.003434, -0.758716, 0.347211, -0.081395, 0.159194, 0.227063, -0.595777, -0.401119, 0.268983, -0.2092, 0.188184, -0.746081, -0.034202, 0.40312, 0.54945], [-0.027215, -0.54662, 0.331696, -0.005595, -0.048622, -0.803296, -0.805598, 0.880766, 1.78887, 0.489845, 0.001733, -0.149161, 0.883124, -0.66274, -0.09988, -0.345163, -0.215387, -0.117557, -0.218564, 1.46401, 0.43253, -1.67422, 0.163387, -1.74173, 0.058646, -0.65713, -0.206948, 0.34058, -1.44583, -0.026133, 0.859731, 0.013952, -0.582953, -0.455147, 2.61751, 0.085259, 0.518592, 0.708369, 0.706904, 0.400084, -1.14307, 0.339721, -0.287989, -0.170072, 0.040833, -0.709944, 0.84023, 0.850487, 0.196376, 0.579446], [-0.138003, 0.597231, 0.050031, -0.093043, -0.296436, 0.054918, -0.333458, -0.187269, -0.730344, -0.118852, -0.051416, -1.67928, -0.20628, -0.079313, 0.918539, 0.713346, -0.45828, -0.24738, -0.110309, -0.121086, -0.357926, -1.06302, 0.190722, -0.079185, -0.024162, -0.397235, 0.081147, 0.159933, -0.408905, -0.456884, -0.253931, -0.536773, 0.417964, -0.271297, -0.146307, 0.810202, -0.038391, -1.19684, 0.671016, -1.07776, 0.127446, -1.15909, -0.147576, 1.29878, -0.133808, 0.134673, 0.118885, 0.049264, 0.104259, 0.313621], [-0.638957, -0.011138, 0.34778, 0.265573, 0.107584, 0.160828, 0.311125, -0.56379, 1.51875, -1.68907, -0.030434, 0.035558, 1.75738, 0.456345, -2.05039, 0.794589, 0.269717, -0.103964, -0.707525, -2.20128, -0.458296, -0.244222, -1.08302, 2.08182, 1.84257, -1.61496, -0.143402, 1.72439, -1.66709, 0.997158, 2.9983, -0.5239, -0.923443, 1.2877, 2.13343, 0.184063, 0.076378, 1.71251, -0.734983, 0.619713, 0.779619, 0.179901, -1.35791, 0.434758, 0.460113, 0.182184, 0.411023, -1.11212, -0.351324, 0.828297], [-3.35671, -0.636732, 0.810062, -0.80494, -0.301713, 1.39653, 1.24808, -0.52575, -1.71114, 0.292384, -0.021963, -0.63375, 0.085481, -1.89014, 1.76557, -3.96955, -1.03143, 1.9838, 0.266858, 1.23845, -1.60083, 1.09698, 0.140029, 0.601477, 0.88236, -0.873286, -0.300301, 0.39544, -0.202957, -0.494999, -1.6434, 0.169519, -0.929239, 1.2773, 1.89449, -2.64556, 0.041107, 0.936167, 1.35634, -0.011453, 0.863998, 0.290545, -0.662776, -0.229471, -0.884484, -1.03155, -0.62417, 1.03502, 0.69973, 1.42987], [-0.279161, 0.432565, -0.066645, 1.09632, 0.831755, 1.10093, 0.64059, -0.387134, -0.104764, -0.035195, 0.029302, 0.335676, -0.573344, 0.449948, 0.604524, 0.319892, 0.45392, -0.09908, 0.718477, 0.127461, 0.510704, -2.08956, -0.618541, 0.446604, -0.133463, 0.284569, 0.731328, -0.236211, -2.19188, -4.34327, -0.296784, 0.493824, -0.062814, -0.731506, -0.93871, 0.118723, -0.50165, 1.70709, -0.893256, 0.802062, -0.203004, -0.055191, -0.734011, -0.162183, -0.252355, 0.895329, 0.798806, -0.671875, -0.079519, 0.830053], [0.001943, 0.153385, 0.37431, 0.758782, -1.01076, -0.270595, -0.88438, -0.076917, -1.14331, 2.64664, 0.013315, -0.053434, -0.114168, 0.083377, -0.522963, -1.80655, -1.03323, 0.413859, -0.094965, 0.772566, 0.549973, 0.93477, 0.770469, 0.924714, 0.471433, 0.663966, -0.465698, -0.118084, 0.703598, 0.719664, -0.403898, 0.634977, -0.543476, -0.707322, 0.844194, -0.498326, -0.311919, 0.720694, -0.027604, -0.382297, 0.709543, -0.046164, -0.023868, 0.196655, 0.136282, 0.503497, 0.817023, -1.38358, -0.112757, 1.70529], [0.225384, 0.04929, -0.823184, -0.141227, 0.16584, -0.793406, 0.252593, 0.440019, -0.001094, -1.26508, -0.02062, 0.061522, 1.29938, 0.081502, -0.277435, 0.655583, 0.232712, -0.300661, -0.315617, -1.22438, -0.214574, -0.132086, -0.167058, 0.000827, 0.767028, -0.004537, 0.635323, 0.062438, -0.208952, 0.363928, -0.361577, -0.150668, 0.537661, 0.290099, -0.712999, -0.297772, 0.251652, -0.263618, 0.194198, 0.148722, -0.03336, -1.36383, 0.164786, 0.937966, 0.962565, -0.661226, 0.206316, -0.409961, -0.141311, 0.770073], [-0.016782, 0.018967, 0.035955, -0.005261, -0.026654, -0.004133, -0.034341, 0.001757, 0.033028, 0.020954, -0.034433, -0.005682, -0.010306, -0.030227, 0.01397, 0.007398, -0.005975, -0.037589, -0.014087, 0.035215, -0.021517, -0.047467, -0.051575, -0.013457, 0.007934, -0.041333, -0.01285, -0.054477, -0.003036, -0.019698, 0.002602, -0.045421, 0.027958, -0.000978, -0.05045, -0.050471, -0.00756, 0.017794, 0.010916, -0.011203, 0.040934, 0.030748, 0.001248, -0.034563, 0.021372, -0.013808, -0.035352, -0.046204, 0.00828, 0.03688], [-0.473651, 0.152044, -1.50521, -1.00471, -0.505852, -1.23551, 1.17911, -1.67514, 1.87613, -0.812953, 0.008064, 0.29381, -1.4382, 0.082238, 0.190376, 0.454807, -0.302634, 0.441681, 0.453953, -0.258076, 0.355207, 0.5927, 0.902703, -1.13934, -0.836516, 0.508044, -0.336418, -1.58633, 0.457454, 0.019441, 1.82544, 0.092533, -0.392165, 0.157265, -1.93479, 0.945813, -0.838891, -0.841355, -0.293072, -5.20904, 1.17357, -1.18102, 0.236268, -0.060359, 0.663341, -0.961764, 0.57541, 1.89188, 0.083576, -0.077413], [-0.022204, 0.035088, -0.039765, 0.026362, -0.001858, -0.002907, -0.038964, -0.012671, -0.029391, -0.035869, -0.021674, -0.019413, 0.024819, 0.002397, -0.002372, -0.018322, -0.024231, 0.002755, -0.04145, 0.013779, -0.016422, -0.033763, -0.012839, -0.044516, -0.007196, -0.050498, 0.020455, -0.049394, -0.045808, -0.028972, -0.042434, 0.020471, -0.045924, -0.0072, 0.02002, -0.045024, -0.017697, -0.034024, 0.012225, 0.026804, -0.014412, -0.001233, 0.029497, -0.026615, -0.050301, 0.025197, 0.032408, -0.03328, -0.044411, -0.043171], [-0.316814, -0.523283, -1.18228, -0.624647, -0.480065, -1.66095, 1.24862, -1.31605, 0.863068, 0.261019, -0.007108, 0.0966, 0.815794, 1.87213, -2.5441, -0.400136, 0.922917, -0.57443, 0.38392, 0.943336, -0.322837, -0.856515, -0.003471, 0.767979, -0.003448, -0.579583, -2.46292, 1.05085, 0.059106, -5.24767, 0.972209, -0.554192, -1.17654, 0.316076, -2.53272, -0.855552, -0.024971, -2.85558, 0.094275, -0.466336, -0.195144, 0.489161, -0.951244, -2.51729, 1.04553, 0.189631, 0.171311, -0.480762, -0.204948, -0.588939], [0.710216, -0.355842, 0.317262, -0.281825, 0.355083, -0.982327, -0.761963, 0.712911, 0.759238, -0.023423, 0.041407, 1.05189, -0.536616, 0.65347, -0.328858, 0.525755, -0.713435, 0.176907, 1.22146, 0.458946, 0.653378, 0.686088, 0.23466, 0.519861, 0.180894, 0.679623, -0.528203, 0.434481, 0.271132, -0.354115, 0.408902, 0.051438, -0.200562, 0.572832, 0.118583, 1.17935, 0.311706, -1.41367, -0.05812, -0.442051, -0.094226, 1.00124, -0.002195, 0.38584, -1.95241, -0.316998, -0.93175, 0.111484, -0.534261, 0.252469], [-1.16086, 0.43013, 0.670883, -0.74921, -1.04856, 0.432164, -1.16538, 1.2714, -1.42135, -0.696036, -0.037504, -0.034941, -0.287671, -0.914987, -4.51082, -3.041, -0.517112, -0.115332, -0.599278, -1.16966, 1.15318, -0.026378, 0.114176, 0.84784, -0.545885, -0.02415, 0.130624, 0.589988, 0.008284, 0.610269, -1.62342, -0.669874, 0.29546, -1.21101, 3.76642, -1.29514, 0.146056, 1.16557, -1.03863, 0.718636, -0.371106, -0.453615, 0.866631, -0.024897, 0.911156, 0.472635, -0.269198, -0.031059, 0.488835, -0.229996], [1.23391, 0.277189, -0.106151, 0.431397, 0.140115, 0.231541, -0.23978, 0.018306, 0.869435, -0.521958, 0.038539, 0.353091, -1.19901, 0.122806, -0.906272, -0.470586, -0.090864, 0.448004, -0.090897, 0.235002, -0.683815, -0.348198, 0.250249, -0.474306, 0.999729, -0.291871, 0.136191, 0.551009, -0.272682, -2.31837, 0.413493, -0.221812, 0.107396, -0.024619, -0.290789, 0.170217, -0.853706, 0.682576, 0.513047, -0.804189, -1.44474, -0.436473, 0.024629, -0.066775, 1.01954, 0.070288, 0.013155, -0.001452, -0.460394, 1.22829], [0.487363, -0.29364, 0.678436, 0.213798, 0.893448, 0.686284, -0.591862, -0.029338, 1.41044, 2.28325, 0.00129, 0.574019, -0.437567, 0.933499, 0.801004, -0.37752, 0.901344, 0.87764, 0.68185, 0.888695, -0.160313, 0.492255, 0.079861, 0.383742, -0.171636, -1.32444, 0.222779, 0.395297, -3.12913, -0.483883, -0.239083, 0.662562, 0.026563, -0.464905, -0.085451, -0.818016, -0.063934, 0.875865, 0.24986, 0.536058, -0.587158, 1.11784, -0.549539, -1.56134, 1.56165, 0.20163, -0.055067, -1.28389, -0.869467, -0.76389], [-0.17498, 0.253613, 0.594274, -0.211637, 0.426436, 0.110676, 0.439265, -0.520674, -1.11936, -0.809306, 0.004875, 0.32064, -0.012757, -1.29574, 0.082022, 1.24425, -0.413288, -0.12748, -0.141614, -0.260998, -0.28633, 0.09187, -0.597914, 0.394572, 0.389724, -0.828014, 0.184768, 0.100808, 0.668116, -0.318628, 0.242953, 0.476813, 0.451542, -1.69588, -0.197218, 0.395571, -0.471978, 1.90538, -0.10747, -2.67517, -0.272342, -0.034277, -0.3882, -0.31163, 0.188827, -0.006982, 0.821322, -0.089545, 0.205146, 0.12999], [-0.041429, -0.046016, -0.049343, -0.025607, -0.031021, -0.015808, -0.02605, -0.034428, 0.010616, -0.045004, -0.039097, -0.046969, -0.02066, -0.017787, 0.004165, 0.007735, -0.03607, -0.022581, -0.04062, -0.013457, 6.4e-05, -0.02944, -0.026202, 0.032753, -0.040549, 0.025167, -0.028632, -0.03669, 0.035585, 0.004394, -0.042243, 0.041357, 0.025236, 0.011227, 0.004322, -0.015554, -0.047985, -0.043695, -0.044852, 0.001265, -0.037522, -0.007608, -0.034534, 0.03102, -0.005237, -0.024689, -0.020717, 0.005588, -0.047356, -8.1e-05], [-0.436658, 0.79293, -0.092092, 0.021916, 0.530063, 1.45334, -0.161394, -0.086327, 0.165505, 0.23349, -0.00242, 0.168891, -0.864513, -0.090897, 0.494979, 0.491588, -0.523861, -0.364922, -0.519445, -0.686633, 0.074332, -2.02076, -0.516775, -0.024275, -0.401861, -0.093728, -0.407696, -0.468147, 0.623741, -2.20067, -0.131275, -0.044429, -0.141348, -0.589701, 0.288935, 0.182599, 0.387615, -1.42023, -0.530249, 0.952424, -0.302008, -0.417758, 0.238883, 0.02057, 0.036692, -0.192236, 0.912593, 0.29355, -0.269071, 0.404377]], [[-0.101551, 0.05293, 0.544805, 0.978394, -0.521801, -0.578598, -0.054687, 0.029892, -0.376838, 0.798923, 0.349935, -0.513143, 0.378731, -0.500514, -0.203295, -0.143219, -0.007979, 2.42566, -0.092436, -0.041342, 0.118645, 0.050943, -0.423932, -0.212099, -0.144433, 0.047928, 0.553859, -1.16666, 0.636446, 0.482483, 1.51253, -0.700281, -0.268334, 0.519753, 0.102941, 0.008949, 0.712914, -0.453268, 0.120449, -0.042557, -0.494991, -0.018498, -0.220193, 0.178756, -1.07494, -0.175858, -0.227896, 1.58447, -0.007182, 0.549921], [0.238151, -0.029127, -1.0487, 0.018172, -0.157522, -0.171073, 0.736264, -0.002531, -3.68045, -0.256088, -0.900762, -0.255146, -1.65038, 0.260863, 0.206586, 0.169194, -0.002281, -3.45326, -0.078567, 0.018954, 0.325898, 0.006941, -0.037109, 0.0608, 0.096678, -0.036997, -0.026454, 0.987967, 0.664471, -0.244235, 0.379427, -0.477428, 0.557752, -4.07814, 0.170594, 0.876323, -1.55777, -0.214533, -0.087441, -0.031502, -0.537149, 0.039018, 0.190746, -0.187807, -0.671737, 0.882688, 0.521023, -2.33892, 0.047915, -3.33154], [0.067447, -0.032673, 0.074006, -0.210997, 0.440064, 0.145795, -0.631727, 0.017694, 1.30648, -1.49417, -0.717463, -0.406359, 1.09638, -0.247599, -1.63927, 0.339608, 0.001702, -0.493059, 0.252328, -0.007848, -0.106128, 0.009301, 0.033593, -0.243605, 0.160241, 0.000102, 0.222125, 0.300762, -0.24125, -0.800891, -0.577329, 1.45132, -0.38624, -0.640814, 0.1699, -0.974656, -0.173341, -0.071033, -1.10623, -0.039224, -0.234038, -0.044876, -0.600961, -0.243116, 1.79597, 0.853513, -1.11373, -0.220661, -0.016642, 0.106513], [-0.022983, 0.006729, -0.016015, 0.013801, 0.018401, -0.041475, -0.045817, 0.011912, -0.035566, -0.048903, 0.022667, -0.042244, 0.024002, -0.041594, 0.014487, -0.050336, -0.054486, 0.022121, -0.051357, -0.053542, 0.01931, 0.04496, -0.004187, 0.016778, 0.012869, 0.041579, -0.014766, 0.021613, 0.011459, 0.022701, -0.028135, -0.072753, -0.019452, 0.011873, -0.027583, 0.03584, -0.057533, -0.055232, 0.005613, 0.005612, -0.051352, -0.047287, -0.021659, -0.032929, 0.009871, 0.036117, 0.008049, 0.009906, -0.019722, 0.020845], [-0.102553, -0.026336, 0.489077, -0.351206, -0.26283, 0.090529, 0.348209, 0.00666, 0.543907, -0.312093, -0.275808, 0.349159, 0.2925, 0.298938, -0.34389, -0.266525, 0.008008, 2.19712, -0.070837, 0.029745, 0.592756, 0.044005, 0.08597, -8.47707, 0.135879, 0.016873, 0.171106, -0.243493, -0.595316, 0.088136, 1.62564, -0.409517, -0.788123, 0.088487, -0.283233, 1.5349, 1.22444, -0.653589, -0.164453, -0.016814, 0.467005, -0.045265, -0.42578, -0.142068, 0.321234, 0.506741, 0.027714, -1.12419, -0.031071, 0.24173], [-0.446321, -0.020407, 0.280158, -0.677794, 1.31839, -0.083777, -1.48845, 0.037783, 1.35865, -0.358088, 0.32778, 0.343206, 0.818221, 0.782651, 0.492718, 0.093407, 0.009509, 2.3207, -0.422517, -0.00971, 1.89269, -0.030549, 0.053851, 0.111488, 0.072825, -0.018566, -0.359255, 5.16433, 0.132458, 0.046061, -1.19317, 1.90251, -0.455078, 0.238703, -0.420851, -0.48265, -0.650053, 0.107833, 0.392514, -0.036158, -0.121639, -0.008789, 0.26744, -0.494107, 2.19179, 0.684799, -0.606683, -2.30117, 0.014351, -0.743106], [0.080587, 0.013355, 0.279223, 0.627869, 1.09586, 0.535983, -1.07508, 0.051575, 1.50999, 2.40279, 2.83697, 0.19614, -0.982675, -1.36946, 1.0651, 0.708494, 0.034073, -4.41827, 0.085941, 0.044295, -0.821, -0.033772, 0.152601, 0.208402, 0.328017, -0.017228, 0.181532, 1.31064, -0.971482, 1.81637, -1.97457, 0.950424, 0.394789, -0.750343, 0.484591, -1.04041, 0.194877, 0.684103, 0.157428, -0.034166, 0.316653, -0.035606, 0.785632, -0.878106, 1.90615, -0.50294, -0.862509, -0.168805, 0.04721, 0.58556], [0.249269, -0.031719, 1.48025, 0.269995, 0.612106, -1.04764, -0.568791, -0.034699, 1.15895, -0.809063, -0.544486, 1.80506, 0.170122, 2.08394, 0.11619, 0.542545, -0.005907, -2.2715, 0.17772, -0.034209, 0.76708, 0.016556, 0.869952, -0.113366, -0.158506, 0.035857, -0.800824, -1.02242, -0.8543, 0.136155, -3.78196, 2.9571, 0.992207, -1.80303, 0.189606, -0.508057, 0.531763, -1.4384, 0.479135, 0.047249, 0.451297, 0.022914, -0.060853, 0.43175, 1.49056, -0.721405, -0.32425, 3.35193, 0.01797, -0.271262], [0.13656, -0.002374, 0.608578, 1.74865, -0.542811, 0.390901, 0.092931, 0.014592, 1.09034, 0.437733, 0.969198, -0.900787, -0.419231, -0.08898, 0.602891, 0.459163, 0.006314, 1.17144, 0.047916, -0.038411, 0.101305, -0.012794, 0.201776, 0.479395, 0.505603, 0.03611, 0.617047, -0.928871, 1.3246, 1.17666, 0.127927, -0.293828, -1.0401, 0.399413, 0.204871, -0.943638, 0.533302, -0.813837, -0.582545, -0.033115, -0.976447, -0.044912, -0.238025, 0.170241, -0.624018, 0.936041, -0.168594, -0.299472, -0.024327, 0.793055], [0.594287, 0.020032, 0.800716, 3.0209, 0.886182, 0.666597, -0.417553, -0.003034, -0.65679, -0.484693, -0.675591, 1.89063, -1.62864, 1.09911, 0.870625, -0.189093, -0.008815, -4.35384, 1.29975, -0.038804, 1.06871, 0.032255, -0.506759, 0.806086, 1.06132, 0.01743, -0.747138, 0.031308, -0.988329, 3.90164, -2.71828, 0.198236, 0.529056, -0.864378, 0.938264, -0.725573, 0.149961, -0.514595, -0.113228, -0.02474, 0.651204, -0.028211, -0.901705, 0.115441, 0.439103, 0.947156, 0.155548, -4.17899, -0.04266, -0.402093], [-0.664893, -0.005592, 0.680234, 0.861688, 0.731802, 0.913038, -0.432768, 0.033862, -0.191863, 0.3768, -0.083252, 0.264434, 0.422091, 0.423912, -0.128326, -0.34682, -0.046233, -5.60481, -0.431354, 0.006208, 0.538509, 0.017933, 0.5192, 0.211531, -0.547472, -0.003026, -0.193438, 0.384894, -1.97567, 2.44824, -1.56988, -0.000972, 0.009374, -0.314879, 0.460369, -1.90421, -0.530899, -1.57357, 0.545, -0.025343, 0.391954, -0.028038, 0.392918, 0.856525, -1.18669, 0.30829, 0.496309, -2.17816, -0.031585, 0.477901], [-0.207456, -0.021864, 0.131023, 0.315892, 0.008629, 0.357325, -0.050991, -0.026921, 0.162939, 0.506665, -0.141606, -0.063179, 0.192658, 0.022167, 0.107663, -0.141814, -0.050779, 1.13, -0.02005, 0.00103, 0.099206, -0.003746, -0.223788, -0.726959, -0.146514, -0.007505, 0.069972, -0.037011, 0.018663, -0.490435, -0.469386, -0.204425, -0.112578, 0.256631, -0.026356, -0.201554, -0.144411, -0.141059, 0.409602, 0.042534, 0.036822, -0.012137, -0.340216, 0.280396, -0.127466, -0.026039, -0.040699, -0.052234, 0.022408, -0.361201], [-0.162307, -0.003264, 0.498193, 0.686443, -1.14781, 0.001665, -0.36028, 0.011465, 0.287167, 1.03817, -0.833754, 0.397015, -1.34866, 0.535967, 0.157721, 0.591914, 0.031452, 1.09114, 0.676937, -0.030887, -0.360882, -0.04485, -0.233438, -0.103479, 0.146681, -0.010779, -0.065925, -0.222871, 0.314631, 1.04115, 0.807457, 0.13714, 0.372011, -0.270559, -0.393256, -0.326365, -0.748953, -0.119227, 1.12318, -0.027341, 0.522003, 0.030988, 0.081409, -0.596126, 0.629603, 0.739337, -0.118907, 0.660994, 0.023295, -1.54703], [-0.72496, -0.01728, -0.945995, -4.84182, 0.191399, -0.725622, 3.16169, 0.01087, -1.72477, -4.20056, -3.36355, -1.83978, -2.00405, -0.906687, -2.44646, 2.75554, -0.027929, 0.528477, -2.39374, -0.02209, -2.77242, -0.00861, -0.122584, 0.427352, -1.79483, 0.021347, -0.466334, -4.12453, 1.36903, 0.369921, -0.519982, 3.06548, 0.352771, -0.309684, -0.093835, 1.56652, 0.212891, -0.824566, -0.717457, -0.010084, -0.746536, 0.008632, -2.25466, 0.691193, -0.113852, -0.446483, 0.458942, 1.03644, -0.043404, 0.69017], [-0.092447, 0.049063, -3.85723, -1.6389, 1.40258, 0.507421, -0.905469, 0.039132, -1.58545, -0.101075, 0.588586, 0.289957, -0.733828, 0.374921, -0.197505, 0.071837, -0.026919, 1.70255, 0.449672, -0.021674, -0.68413, 0.033565, 0.140846, -0.313997, 0.247232, 0.037975, -0.259269, 0.816141, 0.234352, -4.03493, -0.525937, 0.26862, -0.423704, -0.508746, 0.204682, -0.962832, -1.3845, -1.29599, -0.204971, -0.007298, 1.09821, -0.003753, -2.02505, -1.53485, -0.714548, 0.874019, -0.969442, -1.67776, -0.047586, 1.82516], [0.587809, 0.014547, 0.465873, 0.580483, 0.438975, -1.0111, -0.208707, -0.012147, 0.614514, 2.58715, -0.366919, -0.432177, 0.890581, 0.293126, 1.56034, -0.079866, -0.03449, 0.393721, -0.075474, -0.006571, 1.53756, 0.012289, 0.04192, 0.330753, -0.13462, -0.034294, -0.256917, -0.018634, 0.495784, -1.03525, 2.86181, 0.20383, 0.621399, -0.162475, -0.288561, 0.792263, -1.30142, 0.056346, 0.547386, -0.006843, -3.167, 0.026747, -0.745056, -0.092998, 0.394287, -0.239348, 0.974437, -2.3674, 0.008045, -0.484306], [0.686821, 0.00914, -2.20943, -1.95233, 1.30483, -0.911619, 1.28872, -0.00408, 0.250697, 0.79662, 2.23417, 0.394969, 0.447111, 0.167989, -0.111802, 1.1174, -0.029383, -2.40133, 0.32207, 0.038872, 0.77587, -0.045908, -5.23768, -7.7249, 0.165525, -0.00122, 0.487078, 1.71019, -0.149033, -0.474841, -4.02608, 2.66273, 0.894128, 1.17207, 0.011248, -2.76192, -0.377523, 0.754847, 1.68707, 0.036861, 0.924308, -0.018333, -0.719984, -0.878336, 2.02393, 1.31263, -0.663146, 2.15488, 0.011307, -0.706078], [-0.075245, -0.016644, 1.10724, 0.105243, 0.366382, -0.077396, 0.256057, -0.018465, 0.639227, 0.630528, -0.617981, 0.699005, -0.343294, -0.515049, -0.992378, -1.26567, 0.02391, 1.25505, -0.006092, -0.009577, -0.077863, 0.002842, 0.55957, -0.01747, 0.040025, -0.015266, -0.150175, 0.258851, 0.577332, 0.292271, -0.048546, -0.031943, 0.289534, 0.643738, -0.181875, 0.778388, -0.287838, 0.300362, 0.107969, -0.043724, 0.644161, -0.041105, -0.577987, -0.432784, 0.732836, 0.099453, -0.384045, 0.125628, -0.018535, -1.17414], [-0.157132, -0.023768, -0.042845, -0.171957, 1.36048, -1.42624, -1.33775, -0.014509, 1.67402, 1.59687, 0.576216, -0.337117, 0.966967, 0.542765, 0.548212, 0.067205, -0.039685, 1.89898, -0.355132, 0.022791, 0.545461, -0.034391, -0.028438, 0.295663, 0.339716, -0.011398, 0.054388, -0.026627, -0.069523, 2.05274, 1.73944, 0.829654, 0.398851, 0.457079, -0.944247, -0.700955, -0.803082, -0.620207, 0.558836, 0.046933, -0.509238, 0.034484, 0.851694, -2.58697, -0.138145, 2.24663, -0.361526, 4.20923, 0.015781, 0.824208], [0.608374, 0.02377, 0.674873, -0.063823, 1.26216, 0.457234, -0.544306, -0.013624, -1.96866, -3.08621, 0.022075, 0.08839, 1.07326, 1.10467, 0.944843, -0.435968, 0.028593, -0.06753, -0.302812, -0.042879, 0.366734, 0.005531, -0.306377, 0.288958, 0.518191, -0.023768, -0.322785, 1.86949, 0.447859, -1.79713, -1.49592, -0.580203, -0.863961, -0.491823, 0.220859, -0.441105, -0.961192, -0.079599, 0.011704, -0.021124, -0.168996, -0.03622, 1.00587, -0.80192, -0.240969, -0.387654, 0.192668, -2.14113, -0.042188, -0.836722], [0.249087, 0.007935, -1.38349, -1.91368, 0.83342, -0.303077, 0.049753, -0.026614, 0.607988, -0.604029, 0.827339, 0.180195, 0.895235, 0.76834, 0.706211, -0.353142, -0.020039, 2.11007, 0.024545, -0.000456, 0.534892, -0.018546, 0.168189, 0.75588, -0.851129, 0.040461, -0.315672, 0.689041, -1.58289, 0.809778, 0.732666, 0.574159, -1.51131, -0.224594, -0.175944, -2.40689, 1.46208, -0.536703, 1.76916, 0.002238, 0.889207, -0.025851, 0.234416, 0.023248, 0.491487, 0.861545, 0.321293, -1.06988, 0.005912, -1.50388], [0.371957, 0.008759, -3.25757, -3.18617, 0.046666, 0.964323, 0.554055, 0.050202, 0.006111, -2.21761, -0.290608, 0.370314, -0.19141, -0.550031, 1.00369, 0.428615, 0.030478, -0.252365, -0.318217, 0.045875, -0.813584, -0.036843, -0.562636, -1.34919, 0.391739, 0.02627, 0.292033, 0.394689, 0.453551, 0.392656, 0.164279, 0.317226, -0.048882, -1.0301, 0.374836, 0.640348, 1.4833, -0.246113, -0.625067, 0.008126, -0.202372, 0.035878, 0.224177, -0.206149, -0.301244, -4.21172, -0.025508, -0.722584, 0.000414, -0.055506], [0.043601, -0.006698, -0.719168, -0.721014, 0.430165, 1.21799, 0.571483, 0.010684, -0.675816, -0.551323, -0.338233, 0.827759, -0.784393, 0.346489, -0.362528, 0.815972, -0.052531, -1.0849, -0.175963, 0.049319, -0.045956, -0.03498, 0.958397, 0.024563, 0.052404, 0.030709, -0.661322, 0.650241, 0.580859, 0.119573, -0.397339, 0.863856, -0.117033, 0.521571, 0.506937, 0.55254, -1.89525, -0.189211, -1.7973, -0.041725, 0.361889, 0.030375, -0.247064, -0.047099, 0.151197, 0.259199, -0.52544, 1.52825, -0.042109, 0.20719], [-0.282005, -0.027573, 1.45062, -1.55279, 0.025965, -2.56259, -0.692327, 0.011265, -1.234, -1.02591, -0.676949, -0.297466, 0.138541, -0.271836, 0.891891, -0.053553, 0.000634, -0.36216, 0.070034, 0.007369, 0.799258, -0.030468, 0.154956, -3.69889, -0.846889, 0.038111, -0.517916, -1.03097, 0.318495, -1.58952, -0.566818, -0.583486, 0.224823, 0.061592, 0.425833, -1.31506, -9.25983, 0.810857, -0.842734, -0.0477, 1.13879, -0.022979, -0.461912, -0.951172, -0.461243, 0.251621, 0.099761, -0.361807, 0.048282, -8.50516], [0.472259, 0.010367, 0.417249, 0.974364, -0.595799, -0.609547, -0.033874, 0.028841, -1.3923, 0.522424, 0.36555, -0.570525, 0.639763, -0.850213, 0.06989, 0.059062, -0.032715, 0.170151, -0.224548, 0.01058, 0.18238, -0.007771, 0.090861, 0.561248, 0.179233, 0.041279, 0.091515, -1.10998, 0.115846, -0.0809, 1.54484, -0.195594, -0.15431, -0.696605, 0.367904, 0.634225, 0.653558, -0.152098, 0.536362, -0.012364, -0.49274, 0.042205, 0.518074, -0.019032, -0.756052, 0.967548, -0.131973, 0.471163, 0.03945, 0.806305], [0.471241, -0.001373, 0.884405, 0.842141, -0.560963, 0.608093, -0.134234, 0.025459, -0.323012, 2.70918, -0.277442, -0.368403, -0.164716, -1.53358, -0.018449, 0.465703, -0.031332, 1.48241, -0.247328, 0.011837, -0.296835, 0.02037, -0.045747, 0.932894, -0.123667, -0.044392, 0.419074, -1.301, 0.005089, 0.571255, 1.56636, -0.046029, -0.258424, 0.432735, 0.585052, 0.12842, 1.02698, -0.12711, 0.366186, 0.001731, -0.812784, -0.03804, 0.461472, -0.302709, -1.71933, -0.247579, -0.302516, 0.068568, -0.030996, 0.18827], [0.140697, 0.045274, -0.161462, 0.207101, 0.553677, 0.080815, 1.60454, 0.042981, 1.2874, 0.496382, 1.2174, 0.063833, 1.613, 0.774693, 0.60435, -0.948351, 0.050449, -2.45814, -0.312901, -0.031611, 1.23813, -0.035094, -0.100762, 0.236053, 0.237796, 0.013423, -1.05904, 0.73921, 0.44755, 1.20083, -0.145523, 0.348487, 1.6983, 0.444011, 0.085603, -0.087004, -0.031875, -0.356377, -0.918184, 0.03773, -0.240237, -0.019474, -0.169917, 0.140352, 1.70532, 1.64151, -1.97264, 0.092644, 0.041084, -0.101279], [-0.34399, -0.041612, 0.316915, 0.370631, 0.225318, -0.301413, 0.095316, 0.04832, 0.126583, 0.280818, -0.216017, 0.078336, 0.893793, 0.179682, 0.115233, -0.796283, 0.01224, 0.887977, -0.012205, 0.038184, 0.337453, 0.001857, -0.172093, -0.234376, -0.466459, -0.04783, 0.033909, 0.103964, 0.078197, 0.822181, 1.51741, -0.249561, 0.073941, 0.851483, 0.215656, 0.238087, 0.706491, -0.227256, -0.93355, -0.029013, -0.060115, 0.017946, -0.870371, -0.26265, -0.282376, 0.122984, 0.167767, 1.20793, 0.009475, 0.138897], [0.00738, -0.03793, -0.021786, 0.019427, -0.001315, 0.018462, 0.028428, -0.008948, -0.020818, -0.011436, -0.003797, 0.020516, -0.040928, -0.006282, 0.013989, -0.003002, -0.052814, 0.027649, -0.038924, 0.014908, -0.034224, -0.023739, -0.012917, -0.011753, 0.020536, -0.022219, -0.057164, -0.016057, -0.073245, -0.027908, -0.023534, -0.023954, -0.008562, -0.045803, -0.023026, 0.048129, 0.039015, -0.024806, 0.047736, 0.002054, -0.056171, -0.029457, -0.073579, -0.028895, -0.015788, -0.027342, -0.066261, 0.043402, -0.018407, 0.021346], [1.26141, 0.025824, 1.36127, 1.42405, 2.50391, 2.78618, 1.57418, 0.029174, 2.61652, -1.11833, 0.058357, 1.11149, 0.585506, 0.311871, 0.469788, 1.69681, -0.051079, 0.745874, 0.717882, 0.008389, 1.18768, 0.00521, 1.44902, 0.816544, 0.025244, 0.011506, 0.420036, 0.866617, 0.516718, 1.22255, 0.466404, 1.74364, 1.14117, 0.601942, 0.827963, 0.270271, -0.418117, 0.626061, -1.01732, 0.044358, 1.37341, -0.012579, -0.39484, -0.135558, 2.14361, 1.96489, 0.424922, 1.36244, 0.002505, -0.478242], [0.194994, 0.043694, 0.733799, 0.50088, 0.089071, 0.273765, -0.011433, 0.003646, -0.212653, 0.469438, 1.08176, 0.501707, 0.33384, -1.07471, 0.212276, -0.126146, -0.002082, 0.530924, -0.586127, -0.026335, -1.16873, -0.028345, -0.031194, 0.242458, 0.014713, -0.021232, -0.226406, 0.615672, -0.509178, 0.057784, -0.860815, 0.067937, 0.298787, 0.053848, -0.168094, -0.127658, -0.618047, 0.192947, 0.372583, -0.020082, -0.438543, -0.037628, -0.397836, -0.228179, -0.39117, 0.74582, 0.022087, 0.592524, -0.039227, -0.514075], [0.086296, -0.005573, -3.69521, 0.949155, 0.748753, -0.093046, 0.58503, -0.026016, -1.16616, 1.94628, 1.30158, 0.368367, 0.515315, -1.19022, 0.842874, 0.396558, 0.000745, 0.213571, -0.418665, 0.03487, 0.967088, 0.004983, -0.175212, 0.893609, 0.585683, -0.044279, -0.080907, -0.233905, 0.481195, 1.67779, 1.60533, -0.661511, 0.216584, 0.897206, -0.84243, -1.16363, -0.041431, -0.367176, -0.676423, 0.044253, -0.385448, -0.037604, 0.579687, -0.665992, 1.11491, -3.20838, -0.266206, 0.819317, -0.006235, 0.475231], [0.029979, -0.031691, -0.050712, 0.004326, 0.03024, 0.01951, 0.003751, 0.037692, 0.014639, -0.011581, 0.011183, -0.023065, 0.037871, -0.008779, 0.019094, 0.006728, -0.028571, -0.015172, 0.002582, 0.010096, -0.04369, 0.038098, -0.048892, 0.031964, -0.018848, 0.007028, -0.026457, -0.013439, -0.009822, -0.045373, -0.026077, -0.029573, -0.042449, -0.058088, -0.010706, 0.026935, -0.004244, 0.027416, -0.039465, -0.028946, 0.007363, -0.025579, -0.049315, -0.019745, -0.014999, 0.003569, -0.01094, -0.036126, 0.003787, -0.040338], [-0.227903, -0.026383, 1.70777, -2.64831, -4.01105, 0.144188, 0.426682, 0.024296, 0.034108, 0.252556, 0.726086, 0.138253, 1.13889, 1.02845, -1.6956, -0.614361, 0.012098, 1.66375, -0.116639, -0.000685, 1.48403, -0.004801, 0.135436, -0.734526, -1.11485, -0.013624, -0.117776, -0.732311, 0.341391, 0.929237, 1.96995, -2.81895, 0.058981, -1.21141, 0.005189, 1.21875, 0.034732, -0.101294, 0.683114, 0.042133, 0.116861, 0.000811, 1.01441, -1.49226, 0.848487, 0.011681, -0.299185, -1.13049, -0.02183, 0.481376], [-0.245701, -0.021042, 1.80618, 0.455293, 0.514732, -0.042687, -0.036426, -0.002866, 0.050117, -1.14086, 1.33726, -0.252266, 0.82855, 0.431848, -0.512336, -0.409098, -0.0263, 1.442, 0.026318, 0.012274, 0.110084, 0.025349, -0.328037, -0.935636, 0.150498, 0.024366, 0.164935, -0.038921, 0.850861, 0.431352, 0.688919, -0.14077, -0.148778, 0.012346, -0.274769, -0.215668, -0.006107, -0.088347, -0.497366, -0.038407, -0.202252, -0.008787, -0.327495, 0.088108, 0.219993, -0.930637, -0.070111, 2.61175, -0.040405, 0.487043], [-0.256456, 0.039392, -0.657319, 1.07335, 0.149101, 1.19832, -0.213085, 0.006865, 1.51493, 1.11568, 0.380525, 0.12044, 0.152294, 0.047334, -1.1077, -0.287292, -0.033947, 1.78734, 0.598327, 0.031862, 0.436566, 0.043553, 0.049007, 0.372904, -0.826432, -0.008674, -0.134142, -0.090777, 0.041455, 1.65265, 1.73146, -0.6352, -0.70063, 0.073268, 0.053216, 0.370046, 0.492342, 0.099374, -0.019365, 0.026911, 0.587461, -0.023338, 0.02073, -0.08816, 1.31302, 3.00833, -0.155019, 2.92479, 0.009956, 0.135748], [0.148026, 0.022812, 0.755661, 1.12614, -0.526652, -1.22816, 0.113932, -0.028786, 0.359719, 0.078598, -2.65803, -0.436377, 0.866217, 1.15571, 0.26503, -0.853232, 0.014109, -0.633783, 0.821269, -0.015515, 0.521404, 0.02795, -0.696079, 0.084913, 0.226862, -0.014472, -0.17637, -0.069591, -0.999789, 0.095815, 0.62057, 0.059958, 0.522469, 0.006669, -0.139419, -0.086841, 0.122542, 0.271586, -1.84294, -0.044285, -0.368518, 0.009241, -0.39262, 1.29337, -0.222396, -1.13003, 0.197434, -4.2342, 0.048362, 0.436653], [0.005413, -0.041273, -0.05058, 0.029252, -0.042709, 0.048654, -0.017095, -0.015624, 0.017086, 0.005086, -0.04553, -0.040175, -0.0398, 0.019703, -0.046708, 0.009997, 0.01461, -0.040165, -0.050108, 0.00336, -0.041708, -0.002519, 0.003615, -0.020439, -0.061914, -0.050593, -0.011668, -0.033187, 0.011984, 0.017776, 0.034815, -0.05479, -0.002738, -0.016919, -0.004277, 0.022638, -0.032006, 0.003322, 0.021137, -0.039567, 0.004204, -0.01685, -0.055783, 0.011898, -0.033117, -0.007949, -0.022844, 0.039818, 0.030192, 0.039904], [-0.011446, -0.023708, -2.24816, -2.98871, 0.600003, -0.268114, 1.67741, -0.007808, 0.693891, 1.37006, -5.43955, -0.008588, 0.864135, 0.334138, 1.18681, -0.124679, 0.02372, -0.934829, 0.293132, 0.021755, 0.034288, 0.047927, -0.129693, -1.3407, -0.089652, 0.000693, -0.592465, 0.309299, -1.13265, 0.188712, -1.76629, 0.727634, -0.765875, 0.887539, -0.230557, -1.61439, 1.08129, -1.37235, -0.973024, -0.006383, 0.041553, -0.00468, 0.798483, -0.620382, 0.922826, -1.1647, -0.631264, 1.95295, -0.045044, -1.35439], [-0.789018, -0.000245, -0.544782, -1.35614, 0.191833, -0.356636, 0.176132, -0.036937, 0.393713, 1.1152, -0.955283, -0.260078, -0.977967, 0.693302, -0.233249, -0.488778, -0.023049, 1.48863, 0.818063, -0.031076, -1.50344, -0.004563, -0.175042, -0.472026, -0.303106, -0.032455, -0.195044, -0.110856, 0.387886, -1.34307, 0.284717, -0.097367, -0.024743, 0.410295, 0.219587, 0.017425, 0.558422, 0.042428, -0.390052, 0.016918, 0.528704, 0.025051, 0.010932, -0.207577, 0.375306, 0.929363, -0.197988, 0.584396, -0.001025, 1.8481], [0.077238, -0.040879, 0.081682, -0.54032, 0.080707, 0.18916, 0.029634, -0.001511, -0.102258, -0.205029, 0.062823, 0.13336, 0.01424, -0.374947, 0.485056, -0.355948, -0.010789, -0.008444, -0.078701, -0.020543, 0.314933, -0.035527, 0.181071, 0.047824, -0.154528, 0.041684, 0.177075, -0.21179, 0.144659, 0.009571, -0.921374, -0.104959, 0.124202, 0.010817, -0.152309, 0.247132, 0.331229, -0.822315, 0.031793, -0.000807, 0.113724, -0.005655, -0.0276, 0.371629, -0.301812, 0.28633, -0.558353, 0.526819, 0.011926, -0.315127], [0.00538, -0.016105, 0.001873, -0.936175, -0.263868, 0.602876, -1.09677, -0.051297, 0.739623, 1.84443, 0.355303, 0.418115, 0.479567, 0.616358, -0.512199, 0.588216, -0.036521, 2.71352, 0.173795, -0.050332, 0.477854, 0.022216, -3.20198, -3.80684, 0.171387, 0.018303, 1.16881, 0.441324, 0.388288, 1.08325, 2.29356, 0.292561, 0.547082, 0.300867, 0.22931, 0.398774, -2.06941, 0.048054, 0.605323, 0.011704, -0.27054, 0.033929, 1.14429, -0.935874, -0.711416, 0.602885, -0.344263, 0.784446, -0.047047, -0.197288], [0.953945, -0.03322, -0.398569, -1.16557, -0.93649, -0.821505, 0.36519, 0.02457, 0.47064, -2.1633, 1.03822, 0.549542, -0.871115, 2.20906, -0.666317, 0.98219, 0.007005, -1.74744, 0.816798, 0.032732, -1.15022, -0.019972, -0.16678, 0.298507, 0.348189, 0.011855, 0.217493, -0.36272, -0.248119, 0.004275, -2.66538, 0.251749, -0.614705, -1.29232, 0.837327, -0.085711, 1.66141, -1.0467, 0.243407, -0.032627, 1.69857, -0.036456, -0.58238, 0.630005, 1.55255, -1.06401, -0.846617, -4.13773, -0.020341, -2.44004], [-0.079714, -0.025492, -0.360323, 0.273154, -1.57408, -0.595386, -0.186455, 0.005612, -1.14397, -0.547126, -1.91275, 0.052935, 0.773769, 0.967481, 1.36, -0.171897, -0.047621, -0.856795, 0.147016, -0.038101, -1.08172, 0.010532, -0.085747, -0.436914, 0.241637, 0.04541, -0.525647, 0.486908, 0.091904, 2.75028, -0.071433, -0.806195, -0.799049, -0.34868, 0.814741, -1.30064, 1.58011, -0.172828, -0.510945, 0.043452, -0.467822, 0.02162, -0.189714, -0.134472, -4.82908, 1.04691, 1.14828, -1.35908, -0.019312, -0.562431], [0.172627, 0.016407, -0.533657, 1.17643, 0.397434, -1.95578, -0.204209, -0.017254, -4.2837, -0.159889, -1.04592, 0.109188, -1.71674, 0.379123, -0.638582, 0.087898, 0.033495, 1.04133, 0.271333, 0.034738, -0.217898, -0.033053, -0.510466, 0.922009, -0.421204, 0.008973, -0.111658, 0.541016, -0.187429, -0.407929, -0.556249, -0.222025, 0.513522, -0.149515, -0.070971, -0.074886, 0.19517, 0.34181, -1.53802, -0.006137, 0.658509, 0.018789, -0.409433, 0.766049, 0.455884, 0.193341, -0.301859, 2.24637, 0.028393, 0.492806], [-0.046188, -0.023957, 0.029863, -0.02644, 0.002302, -0.030042, 0.004506, 0.011307, 0.00835, 0.017558, -0.002421, -0.045228, 0.005492, 0.008528, 0.023009, -0.067607, -0.031314, -0.016244, 0.01708, -0.036595, -0.024828, 0.032246, -0.004315, 0.009016, 0.019768, -0.030301, -0.054335, -0.02613, 0.014315, 0.028816, 0.017552, -0.050971, -0.061273, 0.009652, -0.036152, 0.007702, -0.047839, 0.000152, 0.000153, -0.018434, 0.025685, -0.009931, -0.001419, -0.043819, -0.012336, 0.016843, -0.03265, -0.023846, -0.021879, -0.005891], [0.384489, 0.009747, 0.173992, 2.43554, 1.07486, 0.180019, 0.545778, -0.0095, 2.3083, 0.504564, 0.800755, -2.46072, -0.196896, 1.78246, 0.794047, -0.33073, -0.029817, -1.60286, -0.065382, -0.018348, 1.37208, 0.021943, 0.269748, 0.044586, 0.072696, -0.002917, -0.101664, 0.364426, 0.274471, -0.145421, -0.050528, -0.185023, 1.79468, 0.10929, -0.494215, 0.189819, 1.12175, -1.18808, 1.31605, -0.02506, -2.08812, -0.031293, -0.326318, 0.872941, -1.14302, 1.36403, -0.012008, -0.080664, 0.020375, -0.644392], [-0.307866, 0.013535, -0.126126, -0.6461, 1.06944, 0.096421, 1.72797, -0.019889, 0.197507, -1.04613, 0.381593, 0.667174, 0.656469, 0.42969, 0.832813, 0.989752, 0.029545, 1.78919, -1.22169, -0.016257, 0.465393, 0.02302, -0.122632, 0.183597, -0.182869, -0.039292, 0.836296, 0.750752, 1.49216, -1.17417, 0.383462, -0.182888, 0.79558, 2.16442, 0.032474, -0.096909, -0.5852, -1.02628, 1.65005, -0.020615, 1.01541, 0.012585, 0.465002, 0.771528, 0.851756, 0.098867, -2.27922, 0.112664, 0.04846, 0.33716], [0.576023, -0.020128, 1.3299, 0.352433, 1.2583, -0.094653, 0.21819, -0.052442, 0.794561, 0.832612, 2.11942, -1.40847, 0.40064, 1.1931, 0.914806, -0.293393, -0.045525, 1.53013, -0.05911, 0.039599, 0.746453, 0.01417, 0.011566, 0.389587, -0.570678, 0.0238, -0.622991, 0.607437, -0.808131, 1.06293, 1.07002, 0.585785, 0.340323, 0.963713, -0.237232, 0.428692, -0.22705, -0.216802, -0.175329, 0.041404, 0.104027, -0.010189, -1.29388, -1.35908, -0.09934, 1.3702, -0.689051, 3.07544, 0.031427, 1.18727], [0.07533, -0.034419, -2.02654, -5.45013, 0.704377, -2.11708, 0.265979, 0.019171, 1.13409, 1.54515, 1.20965, 0.04596, 1.10494, -0.097781, -0.258573, -1.03811, -0.021028, 1.03809, -0.302956, -0.018214, -0.127442, 0.013207, -0.239819, -0.189736, -0.636677, -0.024948, -0.648398, 0.172537, 0.334831, -2.78468, 1.20457, 0.095146, 0.906808, -0.775667, 0.01863, -0.564539, 1.96651, 0.710039, 2.66217, -0.009239, 0.619469, -0.044907, -0.106329, -1.16823, 1.02654, 0.140487, 0.176382, 0.828364, 0.03214, 0.979618]], [[-1.97184, 2.69083, -0.79563, -0.019769, -0.392914, -0.415527, -0.940117, -1.18513, 1.0424, -1.50621, 1.39061, 2.14663, 2.07389, 0.057759, 1.76839, -1.16737, -0.149728, 1.92581, 3.49917, -0.464302, 0.742248, 1.4457, -0.369599, 1.52663, 1.77568, 1.18094, 1.76828, 1.06099, -0.007896, -0.358571, 1.89336, 2.293, 0.015636, 2.05302, 0.008791, 1.6984, 1.23397, 0.023685, -1.54462, -0.071421, 0.715653, 1.83938, 0.299768, -0.360798, 1.66388, -0.030982, 1.80534, -0.064326, 1.03495, 1.6048], [-8.25536, 1.179, -2.71508, 0.042016, 0.914005, -0.298612, -0.355517, 0.206796, 0.566141, 0.259441, -1.03529, 0.880279, 0.717371, -0.879794, 0.16192, -0.071675, -0.145706, 0.040029, 0.176933, 0.123895, 1.03434, -0.133586, 0.400642, 1.1391, 0.209192, 0.372585, -0.478503, 0.003716, 0.061832, -0.220205, 0.622439, 0.605023, -0.032386, 0.230237, 0.404065, 0.633547, -0.699651, 0.05339, 1.53036, 1.20714, 0.358815, -0.25755, 0.320901, -1.19559, 0.705853, -0.010493, 0.993644, 0.107935, 0.098195, -0.103047], [-1.19088, -0.893179, -0.295004, 0.030154, -0.75445, -0.210717, 0.04666, 0.744881, 0.672358, 0.726559, 0.025506, 1.90404, -1.87426, 0.188333, -0.030324, -0.485253, 0.193331, -0.599281, 0.656721, 0.619998, -0.78911, -1.71665, -0.491749, -0.589831, -0.007619, -0.501484, 0.795132, -0.868068, -0.01601, 0.192862, -4.16437, -3.48626, -0.043493, 0.92631, 0.334821, 1.51304, -0.424679, 0.015059, 2.05409, -0.598645, 0.904942, 0.110747, 0.43065, -1.21193, -2.63879, 0.029708, 0.531109, -0.461708, 0.486055, 1.31061], [1.96467, -0.18571, 0.434948, 0.028416, 2.22851, -0.086876, 0.161236, -0.647952, 1.37399, 0.018591, 0.432506, 2.46911, 2.98665, -0.057978, -1.78643, -1.40611, 0.519024, -0.237913, -0.069812, -0.152076, 0.076889, 0.386861, -0.471081, 2.65777, 0.678184, 1.7113, 0.86479, 1.65376, 0.016988, -0.290261, 2.17968, 0.553818, -0.015552, 1.09513, 0.637102, -0.467827, 0.734003, 0.020319, -0.396249, 1.54164, 0.449885, -0.968407, -1.01465, 1.7088, 1.11781, 0.029762, 0.728341, -0.360715, -0.228073, -2.285], [9.69284, 0.394363, 0.784303, 0.002848, -0.2183, -0.710144, 0.183027, -0.381228, 0.962063, -0.125151, 0.538973, 1.17664, 2.2503, 0.060907, 0.21073, 0.378133, -0.013692, 0.925963, 1.69166, -0.997692, 0.694655, 1.71911, -0.22517, 1.08141, 1.04185, 1.1166, 0.88971, 0.903203, -0.053261, -0.681498, 0.910301, -1.21647, 0.033317, -0.718112, -2.27416, 1.1253, 0.915325, 0.034552, 1.23672, 1.73942, -0.275754, 0.359171, 0.461449, 0.273283, 4.67643, -0.015699, 0.176322, 0.003851, 1.09323, 0.52824], [1.77154, -0.487347, -2.4914, 0.009863, 0.519841, -0.123732, 1.73588, -0.297402, -4.59151, 1.38246, 0.976593, -2.7978, -3.10953, 0.056695, -2.68711, 1.91087, 0.412588, 0.194383, 0.22713, 0.250338, -1.02797, 0.713212, -1.03738, -8.67222, -2.81502, -0.287843, -0.43782, -5.81521, 0.010566, -0.473052, -3.44254, 0.205186, 0.017689, -3.20164, -4.03041, -0.634236, -1.47664, 0.039984, 1.63899, -7.90078, -0.523903, 0.920256, 0.816189, -0.460454, 0.013161, 0.045293, 0.1695, 0.533115, 4.30692, -3.39242], [-3.49018, 1.28655, -0.088955, -0.01783, -0.272316, -0.274276, -0.120347, 0.045782, 0.695188, -0.487051, -0.777903, 0.888051, 2.04234, -0.06118, -0.107064, 0.240516, -1.05549, -0.498742, 1.11592, -0.092879, 0.080458, 0.583776, 0.565481, -0.160406, 0.316575, 0.050517, 1.0897, 0.39235, 0.009536, -0.432637, 2.49854, -0.973574, 0.016684, 0.907307, 0.914747, 0.174096, -0.465479, -0.025312, 1.65068, 0.539387, 0.159115, 0.023658, 0.190141, -0.883712, 0.981844, -0.012201, 0.356291, -0.006163, -0.225998, 1.71341], [-0.47278, -1.0058, 0.009368, -0.049433, 1.79877, 0.185036, 0.458626, 0.017669, -2.04167, -0.028862, -0.792647, 0.756942, 0.74174, 0.833728, -0.068372, -0.045482, 1.48032, 0.820154, 0.376292, 0.812741, 0.496903, 0.657978, -0.53117, 2.60137, 1.43096, 2.08181, 0.866763, 0.702014, -0.018789, -0.097995, -2.12881, 2.11399, 0.021604, 0.206018, -1.70223, 0.966329, 0.060521, 0.032174, -0.164997, -0.988174, -0.214044, 1.95107, 0.444901, 0.717006, 1.7339, 0.013453, -3.62929, -0.321421, -1.01313, 0.099362], [-1.81913, -0.161868, 0.51721, -0.022664, 0.394177, -0.077171, -0.017689, -0.470274, -0.504442, 0.784853, 0.998735, 0.700568, 0.313025, 0.197089, 0.614696, 0.662592, 0.238113, -1.0562, 0.461324, -0.058721, 0.51271, 0.329866, 0.808899, 0.511439, -1.51943, -0.031855, 0.798072, -0.679327, -0.018073, 0.004964, -4.05585, -0.320675, -0.001255, 3.10856, -0.922702, -0.847817, -0.877705, 0.023509, 0.721541, -2.31906, 0.422642, -1.02018, -0.221142, 1.4731, 2.37978, 0.049786, -0.359973, -0.16849, 1.28667, 0.805564], [-5.17659, 1.77459, 0.501269, -0.051339, -0.558034, -0.362838, 1.02149, 0.249284, -0.966828, 0.56352, 1.71379, 0.812943, -1.74541, 0.622946, 0.412267, 0.290735, -0.220711, 0.365311, 0.55259, 0.660235, 0.08397, 1.3359, 0.476753, 1.14417, 0.249472, 2.39384, 1.54721, 0.375728, -0.015077, -1.26337, 3.06315, 1.32961, 0.034362, -0.427275, 2.50396, 1.22307, 0.965589, -0.041506, -2.75742, -2.77934, 0.389746, -0.103099, 1.21859, -3.11759, 1.81592, 0.022266, -3.09421, 0.324511, 0.479527, 0.187892], [-2.88811, -1.24372, -0.014124, -0.054117, -1.07699, -0.571524, 0.084574, -0.418698, -0.344038, -0.238876, 1.08529, -0.999338, 0.033068, 0.07679, 0.337493, -0.40242, -0.593976, 0.371883, 3.00931, 0.239569, -0.608621, 0.375391, 0.004852, -1.80053, 0.50015, -0.614437, 0.149345, 1.0811, 0.043774, -0.132223, 0.404771, 1.09849, 0.029682, 0.164086, -0.53719, 1.0243, 0.680202, -0.023691, 1.09267, -0.764362, 0.65887, 0.503712, -0.332752, 0.098038, 0.002994, 0.03079, 1.89088, 0.341759, -1.64678, -0.494069], [1.10556, 3.79003, 0.361716, 0.019966, 0.726613, -1.05, -0.064208, -0.265202, 0.401736, 0.662393, 0.689247, 0.353594, 1.29378, 0.343033, 0.728657, -1.63453, 0.057947, -0.187305, 0.513877, -0.857922, 0.686599, 0.903784, -0.238056, 1.31706, 1.77336, 1.26008, -0.970679, 0.387868, 0.002776, -0.241981, -0.356442, 0.15158, -0.022601, 0.804926, 0.008203, 2.29988, 1.21737, 0.037652, 1.57801, 1.19879, -0.126086, -0.240901, -0.566667, 2.09485, 0.651726, 0.038284, -0.150916, -0.397096, 1.16638, 0.699494], [-3.13417, -0.021888, 0.863395, 0.009506, 2.2502, 0.097396, 0.172263, -0.457063, 1.45039, 0.084633, -0.656417, 4.06829, 0.191113, 0.508255, 0.47134, 0.459076, -0.072891, -0.744356, -0.165627, 0.41725, 0.731014, -0.594004, -0.993663, -0.554602, 0.658087, -0.600046, 0.469099, 1.47665, 0.047585, -0.741851, 1.10165, 1.57917, -0.037388, 0.639459, 1.9175, 0.865569, -0.397226, 0.012506, -1.20511, -0.360002, 0.019404, -0.030732, 0.146337, 1.57368, -0.357588, 0.038101, -0.867202, 0.82716, 0.742695, -0.576043], [-11.8676, 2.16773, 0.340974, 0.005583, 2.53387, 0.867616, -2.12396, -0.259284, 2.83183, -1.07772, 1.98955, 5.33558, -1.09302, -0.259238, -0.284713, 1.73329, -0.07607, 0.777498, 2.20028, -1.22552, 0.838028, 3.75916, 0.297113, 2.79057, 2.01864, 1.11675, -1.2243, 1.30763, 0.032582, -0.577728, 1.14427, -5.94912, 0.008398, 3.00977, 2.41555, 0.172831, 3.39443, -0.004697, -2.70525, 2.36824, 1.09981, 1.66387, 0.030282, 0.628007, 2.48754, 0.027627, 2.47623, -0.693044, 1.48796, 0.212651], [-9.58436, -1.14302, -1.93428, 0.020736, -1.00085, 0.312156, -0.152472, -0.381789, -2.32147, -0.293812, -1.90878, 0.521702, 0.397323, -0.147422, -0.790003, 0.030694, -0.127464, -1.92988, -1.74281, 0.643478, 0.086439, 0.830192, 0.531749, 6.6503, 0.451964, 0.027445, 1.5647, -2.14325, -0.037533, 0.159544, 0.271659, 0.971636, -0.042994, 0.542426, 0.264347, -1.40706, -0.703349, -0.034376, 1.10087, 1.31513, -0.010402, 0.296308, -0.239066, 1.56583, 0.908401, 0.023199, 0.456492, -0.255779, -0.914895, -0.717047], [-1.68013, 0.314563, 0.725104, -0.02098, -0.311425, 0.367865, 0.115736, -0.050325, -1.09779, 0.63235, 1.15224, 1.85312, -1.63215, 0.612447, -0.007318, -0.10554, -0.526881, 0.270176, 1.14336, 0.527959, 0.162407, -1.02755, -0.393153, -0.483271, 0.308242, 0.496672, 1.39832, 1.33828, 0.02696, -0.462867, -1.25649, 0.125297, 0.034823, 1.4053, 0.204854, 0.607397, 0.604982, -0.025089, 1.1226, -0.348136, -0.243158, -1.09412, 0.167084, 0.726764, 2.02092, -0.038808, -0.63941, -0.022821, 0.422693, 0.07701], [-2.15022, 4.2847, 0.811212, -0.015921, 0.666709, -0.40774, -1.13081, -0.953432, 0.278987, -0.389422, -0.669281, 1.30621, 1.00509, -0.117643, 0.29725, -0.099253, 0.767436, 0.172209, 1.70269, -1.25452, 0.810619, 1.01393, 1.00261, 2.01609, 0.595203, -0.234879, -2.84383, 1.09618, 0.039941, 0.084376, 2.00838, 2.17189, 0.039652, 1.20478, 0.729253, 0.70785, 0.532332, 0.015456, 3.16433, -0.172585, 0.372652, -0.464058, -0.830291, 1.93208, 1.58293, -0.027355, 1.44847, -1.34604, -0.510454, 0.649315], [-0.39469, 0.384113, 0.297062, 0.050564, -0.05081, -0.4741, 0.476347, -0.731016, 0.546297, -0.0474, 0.106385, 0.134792, 2.25304, 0.138307, 1.41039, -0.071923, -0.320888, -0.539129, -0.377896, 0.97286, 0.733307, 0.646349, 0.285157, -3.44943, 1.4712, -0.572828, -1.6472, 0.778037, 0.00962, -0.339908, 1.75503, 0.188666, 0.043165, -0.501863, 0.336045, 0.284193, 0.734617, -0.017728, -4.22873, 1.65669, 0.265187, -0.488869, 0.647469, -0.605086, -0.764598, 0.027219, 1.0678, -0.825813, 1.77996, 1.44721], [-4.79411, -1.6369, 0.39651, 0.036879, -0.350982, -0.596657, 0.569862, -0.046254, 0.429206, 0.291351, -0.695859, 2.34684, 0.520287, -0.07039, -0.7218, 0.367516, 0.522123, 0.330275, -1.13382, 0.963309, -0.771433, -0.54644, 0.490201, 1.50096, 0.913649, 0.402736, 0.59681, 0.894858, 0.001376, -0.559319, 2.42851, 0.283076, 0.015031, -0.108759, -0.154967, -0.877815, -0.694679, 0.059283, 0.957001, -0.037908, 0.399469, -0.391928, 0.128693, -1.06068, -0.644946, 0.015277, 1.49023, 0.274554, -0.613622, 1.34259], [-1.88149, 0.172174, 0.046813, -0.034117, -0.869888, 0.185993, -0.434281, 0.09877, 0.0115, -0.394661, -0.930901, 0.045317, -0.73085, 0.175698, 0.068957, -0.612367, -1.14112, 0.240464, 0.38162, -0.265907, 0.500114, 0.105639, -0.509378, -0.766244, -0.463999, -1.4225, -0.115675, 0.751767, -0.009683, 0.322582, 0.93931, 0.001699, -0.0113, 0.304862, -0.076165, 0.399111, 0.244761, 0.00852, -0.502051, -0.037624, -0.359217, -0.804297, -0.134915, 0.923027, -1.1143, 0.024159, 0.22358, 0.249548, -1.71604, 0.593242], [-5.37812, -2.38352, -0.226627, -0.022812, 0.897678, -0.178773, -0.113471, -0.568623, 0.480826, -0.071809, -0.601989, 0.657994, -0.445491, -1.08069, -0.186626, -1.45584, 0.408248, -0.82813, 1.67243, 0.368202, 0.498783, -0.925001, 1.0892, -1.1744, 1.23042, 0.797839, -0.940666, 0.659987, 0.04695, -0.171501, 1.72383, -0.590454, -0.022508, -0.97606, 1.45169, -0.665719, -0.361409, -0.005645, -0.882563, 1.30028, 0.676225, -0.099393, -0.246817, -0.12237, 0.939327, -0.019724, 0.132108, 0.69507, -0.164319, 0.24045], [1.15974, -0.007282, 0.122467, -0.014825, -1.88483, 0.266362, -0.084818, 0.199089, 0.424469, 0.505938, 1.78883, -6.69116, -1.04553, -0.411569, -0.39586, 0.086121, 0.245223, 2.27382, -0.406384, 0.286111, 0.485056, 0.081741, 0.009614, -0.356543, -0.626401, 0.119379, 0.116633, -1.20624, -0.042818, 0.26889, -2.5082, 1.20111, -0.003182, -1.22999, -2.87363, -0.727701, -1.00463, -0.037869, 1.30087, -0.677555, 0.289034, 0.405868, 0.288798, -0.471841, -1.16226, -0.045905, -1.5774, -0.485341, 1.53424, -0.459885], [-13.1676, -3.31178, 0.301139, 0.040277, 0.05365, 0.107529, 0.097874, -0.2646, 1.10699, 0.982286, 1.1738, 1.47556, 1.70497, -0.150595, -0.256569, 1.06308, 0.245974, 0.021025, 0.392735, -2.28576, 1.75828, 1.39348, 0.182475, -0.43002, 2.66028, 0.106613, -2.49951, 0.299593, 0.057582, -0.687301, 1.43254, 1.35841, 0.026721, -0.795141, 1.28923, 1.72868, -0.657339, 0.014794, -0.2705, 0.583567, -0.11215, -0.707474, 0.935852, 1.06459, 0.596927, -0.023528, 1.23217, 0.189021, -1.87762, -0.334769], [-4.29502, 1.56033, 0.306185, 0.03829, -0.84217, -0.162566, -0.434397, -0.152558, 0.765423, 0.967564, -0.662064, 3.41015, 2.20543, 0.405735, -1.99298, -0.807905, 0.147333, 1.65161, -6.29224, -1.16917, -0.073953, -0.054093, -1.54606, 0.602194, 1.26328, 0.241349, -4.58533, -0.418126, -0.03649, -0.092124, 2.55568, -1.30612, 0.04315, 1.66106, 1.18937, 1.37724, -0.417557, 0.014165, 0.486542, 1.09647, -0.13027, -0.82946, 0.162893, 0.729996, -1.56739, 0.042557, 0.50932, -0.561033, -0.064649, 0.658809], [-0.003778, -0.021082, -0.019862, 0.018419, 0.001188, -0.00644, 0.016839, -0.047879, -0.021494, 0.002031, -0.02208, -0.049978, 0.071746, -0.038113, 0.031052, 0.040696, -0.021005, -0.06462, -0.035603, -0.004645, -0.043676, 0.051898, -0.052064, -0.035315, -0.030914, -0.027997, 0.053725, 0.021569, 0.02006, -0.027503, -0.024863, -0.005713, 0.009367, 0.027813, -0.052855, -0.030644, 0.028223, -0.037992, -0.048491, 0.042494, -0.022526, -0.000595, -0.05543, 0.043917, 0.025497, 0.033749, 0.028886, -0.027291, -0.052921, 0.027022], [-4.06223, 1.45206, 0.140417, -0.025172, 1.2491, 0.275506, -0.314572, -0.347071, 0.210138, 0.191998, -0.974885, 1.44487, 1.20415, -0.2155, -0.154512, 0.124325, -0.165479, -0.396873, 1.28133, -0.50819, 0.195722, -0.161731, 0.225036, 0.663835, 0.484917, 0.550803, -0.775208, 0.656497, -0.045685, -0.405267, 1.08088, -2.4293, 0.033647, 1.29841, 0.948533, -0.44418, -0.235537, 0.050042, -0.156782, -0.09336, -0.14456, -1.64255, 0.025104, -0.652451, 0.316956, 0.030565, 0.255682, 0.528051, 0.875746, -0.229355], [-7.10391, -1.84238, -2.09477, 0.029621, 0.07404, -0.321091, 1.41688, 0.32398, -0.016595, -0.573129, -3.85806, -3.94543, -3.70789, -0.602706, 0.650354, -0.797361, 1.21888, 0.062772, -0.548983, -1.38774, -0.72537, -0.817019, -0.018717, -0.073787, -1.89652, 1.73014, -1.95676, -1.27884, -0.005425, 0.305148, 0.027392, 1.84616, 0.007832, -0.442864, -3.31347, -0.52366, -1.39988, 0.03117, -0.398382, -2.23673, -0.667713, 2.47926, 0.442465, 0.864959, 0.512969, -0.005771, -2.71158, -0.251893, -0.582953, -0.68795], [-14.8261, 3.39337, 2.8434, 0.042755, 0.502876, -0.761608, -0.698632, -1.04373, 2.23089, 0.261217, 2.88375, -0.841538, 5.46572, -1.0717, 0.892682, 2.59003, 0.348961, -0.677016, 2.95992, 0.436601, 1.08271, 0.901984, -2.2889, -11.4819, 2.12511, 0.366116, 0.956723, 1.16291, -0.012397, -1.57229, 2.70416, 1.22603, -0.016771, 2.06628, 1.86258, 3.54368, 1.15661, 0.007785, 1.27738, 2.62411, 0.395119, 1.2068, -0.459505, 1.44528, -0.350808, -0.009852, -2.16662, 0.524274, 0.720912, 1.50013], [-2.42725, -0.370022, 0.12701, -0.013407, -0.908579, -0.310006, 0.274402, 0.048496, -1.21358, 0.379703, 1.20213, 0.70606, 0.54803, -0.026603, -0.071068, -0.057227, -0.314193, 0.179045, 0.511486, 0.419737, -0.138833, -0.006656, 0.211537, 0.059126, -1.12265, 0.173663, 0.365325, 0.923904, -0.011311, 0.233691, 0.156395, 0.67504, -0.018632, -1.35266, -0.462364, 0.272052, -1.12208, -0.044805, 0.843972, 0.379893, 0.192325, 0.428006, 0.022619, -1.04274, 0.546199, 0.03019, -0.358464, -0.291457, -3.15755, -0.656765], [-1.65719, -1.52817, -0.00128, 0.010649, -0.583992, 0.046109, -0.139583, -0.068234, -0.685059, 0.10401, -0.215649, -0.657034, -0.88385, 0.144948, 0.344658, -0.138137, -0.390145, 0.243199, 0.344415, -0.1368, -0.044285, 0.074389, -0.067602, 2.05157, 0.960645, 0.329371, -0.192114, -0.587082, -0.04239, 0.203665, -2.4167, 0.827694, -0.032393, 0.126249, 0.663415, -0.573245, -0.761635, -0.045776, -0.336284, -0.734901, -0.41435, 0.603329, 0.207986, -2.70738, 1.09182, -0.012955, 0.280037, -0.063178, 0.697214, 0.723835], [-1.61756, 2.45745, 2.31556, -0.007903, -0.544939, -0.298215, -0.259807, -0.067614, -0.159091, -0.258083, 0.65322, 0.499829, 2.10301, 0.835402, 0.796644, -0.22549, 0.017725, -1.04065, 2.03935, 0.662776, -0.435821, 2.25449, -0.190486, -0.839108, 0.701245, 1.38821, -0.983759, 0.260564, 0.028959, -0.627153, -2.53252, -0.782284, 0.052866, 0.087173, -0.543722, 1.90852, 2.85161, 0.023956, 2.09475, 2.58634, 0.36926, 0.291781, -0.420458, 1.30597, -2.23922, -0.042045, 0.736611, -0.827281, 1.16771, 1.83825], [-5.60584, 3.15649, 0.419131, -0.02013, 1.16546, -0.088155, -0.577505, -0.577763, 0.913196, -0.592169, 1.3127, 2.272, 1.51108, -0.042667, 0.988346, 0.891673, 0.187826, 1.51039, 2.58509, 0.016373, 0.007442, 1.09157, 0.218906, 3.92437, 0.971436, 0.441651, -1.5801, 0.978947, 0.002387, -0.743432, 4.9748, 0.526969, 0.042677, 1.28477, 1.01296, 2.84026, 0.991754, -0.007858, 0.841798, 0.657567, 0.623105, 1.02986, -0.176293, 1.0737, 0.048092, 0.029644, 2.88164, -0.627324, 2.99949, 1.03239], [-7.36858, 0.245225, 0.356036, -0.042371, 1.40031, -0.874297, 0.928471, -1.10802, 1.16771, 0.416433, 0.919342, -0.226765, 1.87396, 0.024001, 0.102969, 0.963083, 0.79875, 0.333234, -1.0285, 0.613659, 1.40319, 1.15284, -0.126806, 3.57189, 0.606841, 2.42127, -0.476983, -0.185478, -0.046031, -0.728919, 0.533593, 0.487028, 0.043602, 2.27574, 1.42322, 3.15187, 0.328278, -0.027846, -0.832125, -2.08525, 0.153309, -0.330327, -0.78059, -0.156664, -4.9825, -0.03296, 2.44995, 0.042406, 0.743797, 1.5606], [0.089439, 5.05766, 1.76875, -0.022657, -2.97013, 3.9732, 0.034256, 1.99656, -2.51024, 2.30258, 7.37699, -0.308662, 2.65155, 2.52194, 2.20702, 1.34729, -1.58905, 4.41929, 4.64263, 4.59225, 3.71955, 3.47341, 0.500652, 3.38565, -1.29468, -1.6604, 2.70982, 4.0382, 0.011465, 3.22455, -2.14272, 2.75713, 0.003411, 1.8377, -0.136656, 2.07382, 1.6544, -0.03311, 3.91838, 3.599, 0.144692, -2.25258, 1.79091, 0.522738, 1.3883, -0.011762, 0.068359, 0.542639, 3.30441, 2.58962], [-1.33671, 0.460017, 0.595023, -0.040766, -0.467594, 0.228713, -0.423218, -0.1537, -0.728435, -0.153964, 0.720572, 1.00134, 1.16123, 0.350753, 0.074829, -0.276824, -0.655222, 0.768772, 0.428373, -0.086762, -0.772379, 0.424012, -0.055238, 1.68078, -0.882583, 0.487427, 0.730766, -0.020039, -0.048125, -0.174875, 0.177567, -0.046539, -0.039956, -0.516253, -0.458626, 0.649834, -0.300927, 0.029572, 1.25854, 1.2913, 0.886178, 0.638243, -0.02235, 1.16724, 0.273127, -0.009984, 1.65611, 0.066816, -0.337501, 0.658288], [-5.24591, 1.37869, 0.439925, -0.035705, -0.072047, -0.387878, 0.0135, -0.044325, -0.156664, -0.228165, 0.44464, 1.54162, 2.08598, 0.061784, -0.124494, 0.042328, -0.055238, -0.254585, 1.28458, -0.038354, -0.051499, -1.23753, -0.215359, -1.12221, -0.745155, 0.63065, 1.27023, 0.757999, -0.029582, -0.563018, 0.337774, 2.12089, 0.00381, -0.047209, 0.557872, 0.427255, 0.661002, -0.022735, -0.58874, 0.012294, -0.200077, 0.575921, 0.209271, 1.49269, 2.10285, -0.02025, 0.726713, 0.16617, 0.94791, 0.20274], [-0.031511, -0.018085, -0.0133, -0.004814, 0.002703, -0.074706, 0.020235, -0.004871, 0.006439, -0.04661, 0.002722, -0.05045, 0.009179, -0.039194, -0.042022, 0.010988, -0.038511, -0.065655, -0.042846, 0.012073, 0.017743, 0.006975, -0.050098, 0.048894, -0.023779, -0.059371, -0.019748, -0.053192, 0.04497, -0.013688, -0.032968, -0.018645, 0.029734, 0.016362, -0.006693, 0.030939, 4.6e-05, -0.013648, -0.041419, -0.030065, 0.022209, 0.015627, 0.016184, -0.031597, 0.016906, 0.032152, -0.013747, 0.006708, 0.036814, -0.030983], [-17.390301, -1.2434, 0.153796, -0.018776, -3.1508, -0.003389, 0.178847, 0.459799, -1.87316, 0.639579, -2.84925, 0.246265, -1.30363, 0.687446, 1.12514, -0.320439, -0.580616, 1.04483, -0.656863, -0.125156, 1.44932, 0.325613, 0.602807, 0.300274, 0.40288, -0.701535, 0.273243, -1.15886, 0.014862, 0.310832, -3.88879, 1.33693, -0.001169, -1.377, -0.361538, -1.0947, 0.484337, -0.053782, -4.1464, -0.1909, -0.638372, -0.386727, -0.027762, -0.288289, -0.214254, 0.002509, -2.36976, 0.164995, -1.99232, 0.64099], [-0.968604, 1.06809, 0.274832, 0.012734, 0.009813, 0.258871, -0.031508, -0.334103, -0.333927, -0.044284, -1.16821, -2.35915, -0.214511, 0.208947, 0.815347, 0.380539, -0.192666, 0.332691, 0.793972, 0.129476, 0.160227, -0.181819, 0.238571, 1.95149, 0.058783, -0.23732, 0.14552, -0.157798, -0.044999, -0.04029, 0.148083, 0.017814, 0.023533, -1.11595, -0.836416, 0.490997, 0.11783, -0.033946, 0.230661, -0.763634, 0.147731, 0.116678, -0.066046, 0.538896, -1.12687, -0.022086, -1.83403, 0.334062, -0.299889, -0.860415], [-13.24, 1.76057, 0.370416, 0.04676, -0.366231, -0.087459, -1.48398, -0.238269, -0.226611, -0.059168, 0.746442, 0.578349, 1.5651, 0.622135, -0.639195, 0.139101, -0.308101, 0.541866, -0.343151, 0.132307, 1.0954, 0.218179, 0.092945, 1.83681, -1.169, 1.18334, 0.202373, -0.054605, 0.024983, 0.109211, 0.395602, 1.98396, -0.01123, 1.09687, -3.55215, 1.58235, 0.070845, 0.010375, 0.206154, -1.52795, -0.176196, 0.246737, 0.256631, 1.86939, 0.390145, -0.042239, 3.09275, -0.139695, -1.29815, 1.66801], [-3.9901, 0.994203, 0.563803, -0.057024, 0.588649, -0.217094, -0.18493, 0.108666, -0.841407, -0.003413, 2.8308, -0.510483, 0.154369, 0.179139, 0.338621, 0.500502, 0.020295, -0.3878, 0.273705, -0.060962, -0.693244, 0.618267, 0.116059, -0.68084, 0.346255, -0.029289, -1.45389, 1.15941, 0.008928, 0.171627, 0.982589, -0.034881, 0.048688, 0.264217, 0.683763, 0.193589, 0.57842, -0.012835, -0.01695, 0.947788, 0.147318, 0.379576, -0.655272, 0.012538, 1.98189, -0.019418, 0.687311, -0.944689, -0.637218, -0.410936], [-13.6468, -6.54177, -0.563937, -0.0525, 0.307237, -1.24344, 0.333083, 1.08962, 1.50658, 2.05187, -0.060507, -1.69408, -3.61943, -1.36294, -2.34827, -0.88538, -1.92967, 2.16742, -3.97039, -1.71611, 0.460788, 3.13587, -1.39661, -4.36153, 1.07735, 1.17029, 0.085265, -0.005316, 0.041031, -0.521265, -5.65784, -1.88809, -0.028388, -0.542109, -1.30729, -2.41004, -0.219292, 0.009447, -2.12617, -2.84317, -0.862275, -1.48831, 2.80206, -2.75463, -2.32812, 0.030778, -1.07376, 0.297116, -0.63452, -2.27696], [-6.94118, 1.83893, 1.31481, -0.009845, 2.18352, 0.006091, 0.460635, -0.568697, 1.31321, 0.469295, 2.24845, 2.87004, -2.03638, -0.203278, -0.766144, 1.2239, 0.352427, 1.00777, 0.655322, 0.102933, 1.88745, 0.78495, 1.09677, 3.56271, 1.85466, 1.72233, -0.800512, 0.447676, 0.049067, -1.06654, 0.430854, 0.935782, -0.030083, 0.919953, 2.35726, 1.66493, 0.112928, 0.018747, -0.009121, -1.96509, 0.636262, -1.35746, -0.414858, 1.81163, 0.458985, -0.036001, 2.12904, -0.341137, 1.29458, 0.084859], [2.228, -0.634374, 0.112074, 0.027709, 0.047031, -0.550128, -0.672294, -0.064158, 0.777006, 0.314409, -2.59373, 0.601005, -3.73747, -0.65785, -0.289202, -0.278144, 0.307339, -1.98682, 0.212506, -0.749157, -0.972887, -0.962924, -0.627374, -0.885907, 0.408248, 0.024952, 1.07524, 1.74608, -0.037023, -0.405775, 1.18078, -3.24449, -0.022522, 0.387503, 0.798174, -0.665097, 0.688219, 0.027637, -0.689704, 1.14781, 0.183204, -0.186111, -0.024441, -1.82484, 0.366348, 0.02105, 0.689896, 0.589539, 2.78804, 0.555243], [0.007811, -0.198348, -1.19309, 0.012919, -0.898506, -0.153083, 0.739552, -0.216287, -1.20436, 0.195642, 2.41803, -5.63788, -1.91509, -2.25595, -0.255854, 1.47416, 1.05782, 1.49145, -3.32098, 0.33918, -0.66042, -0.369362, 0.437701, 4.22283, -1.84772, -0.273166, 0.046515, -0.575673, 0.051987, -0.065351, -1.16261, -0.66289, -0.017686, -0.16642, -3.77127, 1.7044, -0.022455, 0.02445, 2.03741, -4.763, -0.100468, 0.067813, 0.314086, -0.279232, -0.845194, -0.008042, 0.31477, -0.064261, 0.068701, 0.000921], [-2.97173, -0.674111, 0.186765, -0.003443, 0.727817, -0.118061, -0.065484, -0.239122, 0.375682, -0.042803, -1.98568, 2.53536, -0.301516, -0.164712, -0.135457, -1.00309, 0.520186, -0.583423, 0.59808, 0.199372, -0.162457, -0.575633, 0.408924, -1.58848, 2.02362, 0.346258, -1.51548, 0.698552, 0.01846, -0.413863, -0.931311, -0.113283, 0.024348, -0.437673, 1.33588, 0.6929, 0.356493, 0.021974, -0.320384, 0.173591, -0.170839, -0.257552, -0.226202, 0.743195, -0.531948, 0.02215, -0.793727, 0.277702, -0.409158, 0.792877], [-1.01964, 1.59302, 0.383085, 0.043874, 0.905196, -0.23611, 0.053791, -0.059016, 0.803108, -0.037284, 3.01016, 0.707029, 0.872541, 0.270192, 0.889451, 0.266674, 0.631495, 1.83499, -1.72331, 0.469601, -0.417073, 0.553818, 0.554349, -1.22748, 0.307127, 0.4975, -1.46756, -0.504901, 0.015796, -0.487877, -0.140771, 3.08181, 0.025203, 2.94188, -0.027958, 0.683116, -0.421384, -0.016155, 0.580373, -1.01697, -0.180374, 0.072266, -1.5972, -1.84962, 1.70263, 0.012362, 1.80134, -0.861495, 0.787968, -0.545325], [-2.60907, 1.93764, 0.25266, -0.029637, 0.4046, -0.832308, 0.650166, -0.408544, 0.81053, 0.57174, 1.33518, 1.32051, -0.426502, 0.842849, 0.852114, -0.642269, -1.2089, 1.72829, -1.12482, 0.926477, -0.375905, 3.09086, -0.422975, 2.26224, 1.21055, 0.947953, -3.86506, 0.438472, 0.029318, -0.20025, -0.833574, 2.51449, -0.001216, -3.41866, 1.70083, 0.538405, 0.189926, -0.036627, -1.02479, 0.036597, 0.392287, 0.395208, -0.915482, -2.48523, -0.664791, -0.04311, 1.92744, -1.18296, -0.701463, -0.464143], [-2.975, 1.34038, -1.30772, 0.01579, -0.04077, -0.976567, -0.915032, -0.325076, 0.523638, -0.264163, 0.828552, 0.259215, 1.44061, -0.840549, 0.126019, 0.314663, -0.025695, -0.222767, -1.96955, -0.751994, -0.732827, -0.265837, 0.285762, 3.33116, 0.785749, -0.001117, 0.791825, 0.368004, -0.016053, 0.087169, 3.26377, 1.3269, -0.0335, 2.50762, 1.4067, 0.819603, 0.334377, -0.006668, 0.207763, 0.482126, -0.607775, -0.037464, 0.079044, -0.380245, -0.096093, 0.052219, -0.107037, 0.178061, 0.373731, 0.738145], [-1.31253, 0.360337, 1.05993, 0.025091, -1.68945, -0.292732, 0.038888, -0.104466, -0.297275, -0.119788, 0.199337, -1.50029, 0.150555, -0.161042, 0.433271, 0.628834, -1.15382, 0.712518, -0.035112, -1.55574, 0.879588, -0.850678, 0.257401, -0.778577, -0.419852, 0.711506, 1.43755, 0.446434, 0.010305, -0.269623, 0.48829, 0.766078, 0.024892, -1.29206, -0.587447, 0.187387, 1.96568, 0.032183, 0.138459, 0.397586, 0.199935, 0.647589, 0.80236, 0.831488, 0.019018, 0.027301, 0.983719, 0.623409, -0.309875, -0.933762]], [[-6.24517, -2.1565, 0.276165, -2.98795, 1.75516, 0.359902, -2.7732, -3.91132, -2.01821, -6.47013, -9.29998, 0.584627, -0.972822, -2.50981, 3.02457, 2.72282, -0.205052, 1.64592, -1.82353, -1.8457, -1.21476, -0.766492, -1.80287, 1.77077, 0.0169, 1.23689, -3.24704, -6.19711, -3.28149, -5.00409, -0.620668, -0.831251, -4.55704, 0.548945, -2.01367, -0.645864, 0.04538, 0.828688, 0.716676, -3.96328, -2.90801, 1.48717, -3.08856, -3.85602, -2.41988, 0.919319, -2.48895, -1.98503, -2.95126, 0.065353], [-0.447025, 0.661061, 0.062579, -0.552264, 0.205469, -0.11999, -0.312943, -0.079696, 0.275419, 0.247905, -0.331929, -0.272487, 0.323334, -0.155381, 0.308886, -0.393477, 1.02308, 0.668908, 0.638132, -1.09266, 0.104343, -0.042707, 0.654408, -0.933113, -0.030912, -0.178995, -0.365544, -1.5093, 1.31318, 0.428366, -1.11979, -0.15022, 0.33973, -0.075827, 1.10243, 0.106525, -0.027603, 0.570674, 1.0729, 0.261542, -1.03525, 0.151378, -0.412517, -1.23853, 0.62306, -0.115126, 1.41104, -0.012456, 0.418256, 0.046124], [-0.899249, -3.42841, -1.55264, -0.781881, -3.38881, -2.05566, -1.30873, 1.18175, -3.16414, 0.110754, -1.05515, 0.848153, -0.55556, 0.577919, -1.95626, -2.8321, -1.93982, -0.182744, -0.593117, -0.305324, -0.373419, -3.79675, -1.22247, -0.988725, -0.026277, -2.63033, 0.496492, -1.42989, -3.6917, 0.027835, -1.40872, 1.18189, -2.59297, 0.004106, -0.533164, -1.30601, -0.045183, -1.56183, 0.211654, -1.4486, -2.84633, 0.629985, -0.531303, -3.04128, -4.9445, 0.699447, -0.657008, -0.247607, 0.670812, 1.14676], [0.208039, 0.588664, 0.635815, 0.333327, -0.266423, -1.58068, 0.413321, -0.31557, -1.96546, 0.921055, 0.254962, -0.414946, -0.097884, -0.105925, -6.06744, 0.004489, 0.391934, -0.625933, -0.085268, 0.13208, 0.203579, -0.354928, 0.545869, 0.249528, 0.04032, 0.257561, 0.966059, 1.14967, -0.34652, -0.025459, 1.12798, -0.168074, 0.641875, -0.032026, -0.58243, -1.10994, -0.041911, 0.05102, -1.96821, 0.374417, 0.102895, -0.000766, -0.090263, 0.226636, -5.30154, 0.490544, 0.395716, -0.736118, -0.011603, 0.040333], [-1.53726, -1.77891, -0.370705, -1.47521, -2.7496, -1.65191, -0.372425, -1.14239, -1.79986, -2.3088, -4.44249, 1.88043, 0.318502, 0.613388, 1.163, -0.995416, -0.96668, -1.39037, 1.92245, -0.64295, 0.857846, -0.055721, 1.99245, 1.22371, -0.035253, 1.12878, 0.648977, -0.206011, 0.373268, -0.53567, -2.9153, -2.37987, -1.8071, -0.091811, -1.51884, -1.71473, -0.004292, 0.345682, 0.580005, 0.286575, 0.461469, 0.884206, -3.02884, -2.33433, 0.960549, -1.20294, -0.299461, 1.59404, 0.212875, 0.06321], [-0.147262, 0.843237, 0.911772, 0.425107, -0.522022, -0.880717, 0.738818, 0.13745, -0.513087, 1.62735, -0.056897, 0.056022, 0.45324, 0.032623, 1.6114, 0.020512, -1.07228, 0.290872, 0.607007, 0.966733, -0.564169, -0.220273, -0.103116, -0.207977, 0.024498, -0.024324, -0.014197, 1.3588, -0.766901, 1.633, 0.560327, -1.47153, 1.09254, -0.166813, 2.40546, -0.25672, 0.04094, -3.55619, 0.501275, 0.738839, 0.629985, 0.572743, -0.59115, -0.979998, -3.54664, 1.01425, 0.56308, 0.601995, 0.228017, 1.33691], [-0.145616, 1.40168, -0.112312, -0.057323, -0.545612, -0.330299, -0.273376, -0.102759, 0.358025, 0.774206, 1.16352, -0.433222, 0.093307, 0.073595, 1.08474, 0.018442, -0.024855, -0.06732, 0.456372, 0.729264, 0.6793, 0.935737, -1.63584, 0.097328, 0.048617, -0.20944, -0.323221, -3.96087, -0.842483, 1.82072, -0.093398, 0.517264, -1.11329, -0.101797, -5.67129, -0.178571, 0.029046, -0.143859, 0.395755, 0.543744, 0.928429, -1.18537, 0.014532, 0.427566, -0.393128, -0.154822, -0.985827, 0.686727, 0.079817, -3.64961], [-2.86869, 2.19154, -2.2329, -0.266021, 2.31712, -1.19286, 2.26391, 1.59348, 2.32227, 4.5451, 1.3699, -2.39375, -0.448606, -0.492532, 2.69135, 2.35212, 0.740536, -0.029191, -1.54532, 1.87896, 0.528378, 0.395018, 5.137, 1.85105, 0.024905, 0.707077, 0.987193, 2.06083, 1.60326, -4.32893, 0.313341, 1.16231, -2.35782, -0.51379, 2.26488, -4.02576, -0.009377, -0.090446, 0.489979, 0.727587, 1.49547, 0.281367, 1.91629, -2.45753, -5.50769, -2.37411, 2.89143, 1.93873, 1.38338, 1.08608], [1.38009, -0.239464, -0.073232, -0.148645, -1.32108, 2.65538, 1.00278, -2.4865, 0.679603, -3.61753, 0.152267, 1.38937, 0.124053, 0.146722, 0.103424, 1.029, 0.348489, 0.144294, 0.901536, 0.312668, 0.786984, -0.472525, 4.35102, -0.298335, -0.025476, -0.08247, 0.942743, 2.90819, -1.03679, 0.452662, 0.444619, 1.02178, 0.28593, -0.153426, 0.420566, -0.288849, -0.021507, -0.735627, 1.07858, 1.09953, -0.068816, -0.252199, 0.016971, 1.21007, -1.98848, -0.132741, 1.85158, 0.256696, -1.70764, 0.466281], [-0.906117, -0.106084, -0.388751, -0.81238, -0.774904, 0.393361, 0.542425, -0.213478, -0.965757, 0.007355, -1.24826, 0.475832, -0.129267, -0.485306, 0.386142, -0.591843, -1.25627, -0.896796, -0.411876, -0.163837, -0.272239, 0.149633, -3.24095, 0.009424, 0.030938, -1.00421, -0.021894, 0.07372, -0.749965, -0.508205, -0.632339, -0.10731, -0.224676, 0.074832, 2.11947, 0.23308, 0.045129, -0.135664, 0.431124, 0.293092, 0.199099, 0.015081, 0.150625, -0.693439, -0.424527, -0.198757, 0.565967, -0.002477, -1.72942, 0.209299], [0.75052, 0.412877, 0.394667, 0.734293, -1.09486, -2.60019, 1.09266, -1.31884, 2.38554, 0.159178, -0.170094, 0.085846, 0.179904, 0.182906, 1.37438, 0.616457, -0.916762, -0.478343, -0.501889, 1.83327, 1.09905, 2.09718, 5.06931, -0.555674, 0.036678, 0.546893, 1.2085, 2.99086, -1.87642, -0.688628, 2.76726, 0.483168, 0.200586, -0.211506, 0.305676, 2.03493, 0.014725, -1.00333, -0.461223, 1.04996, 0.674813, -0.817025, -0.206745, 0.80578, -3.85906, 1.33844, -1.03048, 1.78177, 0.015064, -0.432069], [0.260783, 1.97001, -0.018654, -0.224376, -0.090794, -1.27074, 0.081769, -1.72798, -0.873407, 1.60308, -1.66058, 0.167973, 0.90569, 0.505621, -0.914893, 0.311905, -0.33362, 1.21085, 0.35412, 0.337988, 0.551912, 0.76075, 2.72263, 0.183478, -0.006338, 0.151885, 0.686688, -0.713197, 1.18039, 1.00128, -0.467369, -1.63919, -0.853245, -0.215513, 0.844613, -1.25403, 0.005687, 0.017001, -0.297619, -0.541634, 0.663882, 0.112297, 0.153923, -0.682795, 1.5662, -1.75504, 0.064908, -0.344001, 0.909375, -0.530613], [-0.352027, 0.624588, -0.116913, -0.163181, 0.193717, 0.429042, 0.254501, -0.264703, -0.837285, 0.420375, 0.54913, -0.096601, -0.180883, -0.110521, -2.47269, -0.298606, 0.117409, 0.245049, 0.150447, 0.613181, 0.604645, -0.273494, 0.129446, 0.081595, 0.006255, 0.178949, -0.19702, 0.198742, 0.546247, 1.54628, 0.684323, 0.00244, -0.268852, -0.06, 0.77167, 0.039214, 0.072436, 0.056734, 0.564787, 0.028776, -0.0173, 0.079795, 0.438258, -0.230489, 0.552088, 0.096523, -0.077894, 0.298147, 0.012021, -0.534536], [1.02572, -0.905568, 1.55711, 0.288397, -1.13062, 3.48929, 4.11142, -2.06236, 1.16369, 1.69138, 5.96984, -1.6589, 0.29127, -2.2232, 2.01497, -2.53248, 1.37107, -1.82866, 1.76192, 1.18242, 2.69054, 2.97734, 2.22084, 2.43004, -0.066957, 2.66153, 5.51507, 0.539566, 2.74021, -2.41263, -0.869079, -2.93485, 1.0717, 2.66939, 6.03305, 1.09534, 0.000877, 4.7088, 5.20791, -0.85221, -0.209182, 4.8258, -4.32075, -1.54751, 0.627627, 1.49509, 1.07558, 1.24279, -3.56456, 1.49939], [-0.76564, 3.21629, -0.299129, 0.110142, -0.892341, -0.360744, -0.592306, -2.90983, -5.63036, 3.56684, 4.07985, 2.79942, -0.463671, 1.07585, 3.75676, -0.326912, 0.427133, 2.35847, -4.16918, 3.21369, -0.11169, 0.029178, 2.65793, 3.10944, -0.038174, 0.443699, 2.363, -3.75948, 2.43732, 1.71509, 2.24337, 0.177229, 1.07299, -0.55053, -1.03474, -0.100118, 0.001761, 0.062211, 2.39549, 1.54313, 1.9822, 1.66007, -0.242561, 0.150634, -0.038688, -2.33634, -0.085606, 0.428842, 0.554999, 1.29828], [-2.46559, -0.103803, -0.645788, 0.312297, -6.10705, 1.26485, -0.692205, -0.505117, 0.750127, 0.879915, -4.56449, -2.08322, -0.865724, -0.488521, 3.00342, 0.355728, 1.66418, -2.51461, -2.42849, 0.03739, -0.740163, 1.03365, -1.1541, 3.26638, 0.026507, -2.27249, 0.303555, -1.61116, -1.39497, -0.692604, -4.01409, -1.37021, -1.70228, 0.015186, 0.230914, 1.57171, 0.026156, -0.07206, -1.12562, -3.03061, -0.633159, -0.134086, -1.23577, -2.5875, -1.217, 0.913834, -2.75714, -0.065015, 0.09856, 2.2408], [0.453858, -0.463503, 0.850007, 1.61999, -2.07886, -0.857935, 0.136427, 0.551297, 1.68361, 3.66346, 0.640106, 4.04304, -0.547217, -0.206286, 3.32769, 1.17602, -1.46486, 0.059169, 0.293554, 1.42344, 0.284089, 2.02622, 2.29255, -0.78784, 0.003323, 2.4163, -3.05852, 0.676491, 2.06413, -0.068689, 0.299254, 2.29611, -0.534369, -0.347426, 1.98668, 1.71165, 0.00244, 0.09016, 2.21892, -4.0754, 0.346244, 1.4246, 1.69369, 0.57492, -7.44652, -0.351073, 1.97398, -1.8818, 0.168027, 0.9635], [-0.498334, 0.523448, -0.597142, -2.40991, 1.11852, -2.70433, -9.88737, -2.01344, -3.04253, -1.95724, 0.064635, -3.07029, -11.1816, -0.04646, -7.93784, -12.3993, -1.90449, -3.79359, -4.92521, -3.45925, -3.14864, -0.282354, -2.05593, -2.21754, -0.0319, -0.941504, -1.90951, 0.25094, -1.28883, 0.962086, -3.73901, -2.89639, -4.18299, 0.563912, -0.25802, 1.05839, 0.024903, -0.910494, -6.34703, -1.9826, -2.32433, 0.208337, 0.808065, -1.00253, -1.1103, -2.66512, -1.63645, -1.05821, -3.32259, -3.60906], [0.600256, 1.78447, 1.02236, -0.011736, 0.130872, 1.08827, 0.750489, 1.54393, 1.00901, -0.255399, 1.07412, -0.1904, -0.469428, -0.226938, 0.918536, -0.183399, -0.392418, 0.754904, 0.256196, -1.64603, 0.727482, 1.22204, 1.92272, -2.82769, 0.024217, 0.131819, -0.014426, -0.477083, -1.26987, -0.605379, -0.306027, 0.958162, 1.52375, -0.17937, -0.04389, 0.651077, -0.002455, -0.359472, 0.200358, 1.27979, 1.4436, 0.643516, 0.52893, 0.896226, -2.27086, 1.89786, 1.22072, 0.409293, -0.450741, -0.925196], [0.667603, -4.34354, 1.00166, 0.524067, -1.12718, 2.1811, -1.51068, 0.68478, 1.20906, 1.68899, -5.78259, 0.47989, -0.575974, 0.165216, -0.734991, 1.01107, -0.623485, 0.63751, 0.001667, 2.21487, 0.711152, 1.93875, 1.9148, 0.993946, -0.000197, 1.42429, -1.27706, -1.30384, -0.035898, -3.18546, 0.847092, 0.928631, 0.241791, -0.241736, 0.6327, 0.843449, 0.017398, 0.043877, -1.30201, -0.216279, 1.2515, 0.738426, 0.506319, 0.304436, -1.35704, 1.02625, -2.07858, 1.13836, -2.53607, 0.140461], [0.072136, 0.512068, 0.291686, -0.040604, 0.003042, -1.42791, 0.650024, -2.61637, 1.01474, 0.101221, -0.503559, 1.09868, 0.157429, 0.031566, 1.63901, -0.08008, -0.374138, -0.416916, 0.126535, 0.210743, 0.182748, 1.04684, 1.22137, -0.59067, 0.065282, 0.47198, 0.036559, -0.625904, -0.038206, 0.067711, 0.382946, 0.34031, -0.05123, -0.108262, 0.849104, 1.41376, 0.005583, -0.419729, 0.064871, -0.306982, 0.321059, -0.015471, 0.211707, -0.184327, -5.39159, -1.54639, 0.081638, -0.236082, 0.028846, 0.0902], [-0.768426, 1.01316, -0.324738, 0.475595, 0.285644, -0.225489, 1.25395, 0.854761, -1.53135, 0.215984, 0.28898, -0.989219, -0.352627, -0.293524, 0.393467, 1.76033, 0.891835, 0.635426, 1.09359, 0.827145, 0.120721, 1.0132, -4.50191, -0.762092, -0.012872, -1.03686, 0.40887, 0.680508, -0.410528, 1.19464, -0.182578, 0.428544, -0.177174, -0.208541, -3.55465, 0.084506, 0.034212, 0.026307, 0.131452, -0.114622, 0.798631, 0.399669, -1.27203, -0.117701, -0.475879, -0.811322, 1.17599, 1.50897, -0.766248, 0.695872], [0.339873, 0.872415, 0.822203, 0.040039, -3.09222, 1.78193, -1.7864, -0.334043, -1.80493, 0.130572, 1.29554, -0.592852, -0.117838, -0.052752, 3.54051, 0.402063, 0.978477, -0.458849, -0.400342, 1.31578, -1.24416, 0.085841, -6.78599, 1.20897, 0.00716, -1.01936, 0.34088, 2.35228, 0.112796, 1.70221, 2.50482, -3.81997, -1.76078, 0.068803, -3.11295, -1.63503, 0.012873, 0.911871, 0.184213, -1.80606, -0.357218, -0.191957, -3.88793, -1.51697, -0.327794, -4.28853, -1.93289, -0.93697, -1.01156, -2.58251], [0.923757, 1.83334, 0.257995, -0.116565, 0.65493, 0.502545, -0.47873, 0.59406, -1.09359, -2.40603, 1.81871, 0.473582, 0.316931, 0.260958, -0.664687, 1.59757, 1.98147, 1.6302, 2.24915, 1.07989, 0.664672, -0.756908, -1.78235, 2.36971, 0.05402, -0.630946, 0.150168, -0.067655, 4.50637, 0.094378, 1.57053, 1.49094, 0.96957, -0.334024, -1.27471, -2.47659, -0.028828, 1.75874, 0.643565, 1.18767, -0.019286, -0.375223, 0.85406, -1.63797, 0.282415, -0.192479, -1.03416, 0.462427, 2.45325, -0.616785], [-2.6464, -1.17647, -0.092502, 0.022059, -3.91432, -2.4662, 0.274866, -0.406169, -3.60053, -0.971772, 0.301545, 0.919579, -0.276161, -0.045456, -3.31113, -0.761636, 0.788107, -1.61623, -0.361962, -0.446825, -0.258159, -0.204644, -6.08988, -0.262342, -0.013244, 0.707497, 0.375917, 0.094405, 0.706886, 2.04589, -0.979713, -1.61322, -3.51476, 0.048432, -11.719, -4.98062, -0.008109, -0.61903, 1.42048, -1.19743, -0.758775, -0.033273, 0.141688, -4.80178, -3.55309, -0.166033, -0.010456, 0.09765, 0.395538, -1.05711], [0.052727, 0.180257, -0.08653, 0.053008, 0.010969, -0.293137, 0.398408, 0.272123, 0.545509, 0.18089, 0.167553, 0.672137, 0.042717, -0.141562, 0.131584, 0.473328, 0.178454, 0.667555, 0.046764, 0.067729, -0.148434, 0.535911, 0.771739, 0.535079, -0.002214, 0.291458, 0.175732, 0.30427, -0.169439, 0.101686, -0.454767, 1.02861, 0.002501, -0.025565, -0.237289, 0.741519, 0.040851, 0.03352, -0.306805, 0.562028, 0.333557, 0.641069, -0.021125, -0.363815, 1.84545, 0.3463, -0.634224, 0.292702, 0.573954, 0.341858], [-2.69295, -0.860126, -3.85162, -3.10084, 1.97111, -2.06417, -1.35803, 1.14462, 1.43399, -6.15967, 0.811472, -2.49976, -3.16632, 0.407755, -5.11772, -4.31595, -5.51406, -0.270865, 1.15305, -0.626413, -3.12898, -6.13846, -3.30428, -7.52599, -0.029672, -5.43831, -4.47159, -4.59059, -3.48509, -5.62134, 1.07999, 0.465745, -6.64763, 0.552194, -2.86755, -4.40994, 0.044854, -1.67214, -0.545274, -0.801666, -3.10185, -0.179488, -4.95848, -0.620436, -5.5716, -2.51234, -0.334544, -0.790342, -4.02297, -3.72794], [-1.6452, -1.46506, 0.086812, -0.870915, -0.463213, 0.326155, -0.937734, -0.64148, -4.5076, -0.245962, -1.71743, 1.06844, 0.046035, -0.035625, 0.23892, 0.314887, 1.47354, -0.579956, 0.110109, 0.275614, 0.456118, 0.422885, 0.575051, 0.207442, 0.026512, -0.146628, 0.530505, 0.672929, -0.080659, -1.03977, 0.178177, -1.156, -0.966377, -0.058107, -0.187477, 1.29462, 0.02776, -0.289203, 0.184237, 0.474998, 0.202066, 0.110635, -1.13594, -0.73774, 0.420697, -0.428583, -0.528785, 0.12563, -0.717179, -0.300835], [-0.710955, -2.27216, 0.826274, -0.474592, -1.7846, 0.288909, 1.43668, 0.667801, 0.202344, -1.50039, -0.671285, 0.184031, 0.190771, -0.660973, -2.87618, 0.827627, 0.410184, -0.031098, -0.310641, 0.746268, 0.988112, 0.927719, 0.587997, -2.25418, 0.016812, -1.00731, 0.238297, 0.511384, 0.175444, 1.44804, 2.12134, 1.31637, 0.328743, -0.321174, -0.118568, 0.879988, -0.032293, 0.050683, 0.446693, 1.38923, 0.4191, 0.203477, 0.974892, -4.20149, -0.13649, 0.469407, -0.068395, 0.633533, 1.39154, 1.18976], [-0.18694, -2.56094, -0.383071, -0.132765, -0.738768, 0.249768, -0.463417, -0.21123, -1.38575, -0.672507, -1.48344, -5.39159, 0.002822, -0.255997, -0.86647, 0.655027, 0.985487, 0.469793, -0.656546, 0.471738, -0.359029, 0.379377, -1.31566, 0.847623, 0.006208, -0.190312, -0.562739, -5.21812, 0.469425, -1.00496, -1.18816, -0.489811, -0.543423, 0.09345, -0.780079, -0.550902, -0.050981, 0.047478, -0.311954, 1.92321, -0.509281, -0.145831, -1.16201, -1.63753, -1.01162, 0.353658, -4.08135, -1.76986, -2.3162, 0.238257], [-0.273674, 2.09435, -0.651447, -0.640357, 0.559729, -4.24173, 0.92108, 0.598648, 0.2065, -0.220885, -2.00664, -3.01554, 0.264038, -0.347033, 1.43117, 2.22492, 0.736662, 2.27712, 1.71592, -3.42997, 0.491897, 2.07709, 1.95836, 0.638769, -0.038486, -0.030421, 0.842385, -0.326384, 0.492587, 1.16814, 0.139598, 0.787478, -0.119667, -0.357174, 2.15804, 0.854048, -0.00702, 1.0458, 2.67468, 0.672758, 1.33568, -0.489479, 1.05673, 0.002172, -1.0744, -0.425329, -0.685694, 0.115167, 0.912633, 1.74881], [1.07979, -1.85354, 0.927818, 0.137955, -0.930909, 0.419436, 0.748526, 0.769948, -0.2598, 1.2787, -0.551523, -0.070767, 0.077086, -0.313297, 2.67251, 1.44699, -1.3999, 1.94853, 1.04337, 1.35269, 0.054276, -4.39613, 2.55998, 0.209137, 0.025584, 1.89037, 0.36267, 0.302835, 0.755932, -3.51102, 0.1451, -0.671607, -0.56331, -0.339849, 1.49858, -0.518166, 0.027434, 0.006064, 0.123972, 0.199679, 0.865833, 0.899964, 0.448849, 0.471469, -0.227034, 0.508693, 1.58206, -0.966732, -1.71892, 0.555579], [-0.1964, -2.22905, -0.042458, 0.22059, -0.326321, -0.015542, -0.347426, 0.029455, -5.91584, 0.538021, -0.594012, 0.434951, 0.155099, 0.125578, -0.270945, -0.386399, -0.972687, 0.662934, 0.986127, 0.669846, 0.032694, 0.08904, -0.359225, 0.125902, 0.057292, -0.090318, 0.141833, -8.14863, 1.03174, -2.37648, -1.06507, -1.45179, -0.280799, -0.035053, 1.28136, -0.431531, -0.076382, 0.226018, -0.231731, -2.03699, 0.018473, 0.172734, -0.156675, -0.277327, -3.37463, -0.287076, 0.63251, -0.311394, 0.450207, -0.459512], [1.7777, 2.73795, 0.190028, -0.139942, 0.024553, -0.358596, -0.714803, -0.252764, 0.937615, 3.06718, 1.09938, 2.34253, -0.63259, 0.177185, 0.27723, -0.413975, -0.104384, 0.759046, 1.88495, 1.18196, 0.326981, 0.160121, 0.274467, 2.72671, 0.00928, 2.31308, -0.605212, 0.862214, -0.25443, 1.83039, -0.160356, -0.480152, 1.73232, -0.160356, 1.29974, -3.29598, -0.025633, -1.11773, 0.776424, -0.283293, 0.783931, 0.258433, -0.457829, -0.233723, -2.12055, -1.32077, 1.69167, -2.91895, -0.241043, 1.83742], [-0.177863, -1.11372, 0.22481, -0.795977, -0.339986, 0.558798, 1.37426, -0.774913, -2.19457, 0.971264, 0.211953, -0.558081, 0.788377, 0.187798, 0.551699, 0.522575, 0.992645, 0.06373, 0.429955, -0.201897, -0.182298, 0.601717, -5.85485, 1.0008, -0.027542, -2.63849, 0.913375, -0.343765, -0.45628, 1.69208, 0.131032, -1.8846, -0.536807, -0.19543, -3.42762, -0.002097, -0.020665, 0.758534, 0.672592, 0.531107, 0.235188, -0.363567, 0.316856, -0.937419, -1.38957, -0.249056, -0.695246, 0.527598, -0.969148, 0.537999], [-6.05805, -7.76314, -1.25725, -3.79213, -2.38699, 2.59943, -8.96824, -4.91353, 2.81898, 1.22887, -7.01318, -3.2995, -0.923718, -3.97569, 3.98433, -0.088884, -1.02167, 2.52704, -0.366032, 1.52516, -4.28153, 0.384563, 1.75515, -1.02475, 0.009239, -0.999988, -0.742349, -3.57111, -3.93905, -6.37097, -2.73557, -3.1455, -0.719293, 0.723806, -0.31084, -2.15383, 0.047261, 1.51786, 2.27355, 2.75619, -0.607839, 0.107469, -4.71467, -0.483364, -8.38176, -2.22964, -3.66767, -4.67775, -6.29176, -0.231492], [-0.776749, -1.54683, -0.609441, 0.953982, -0.345085, -0.115557, 0.376581, 0.581604, -0.873658, -3.75729, -1.57776, -1.58748, -0.855083, 0.085676, -0.311335, 0.258238, -1.19329, -0.227957, -1.92202, -0.309133, -0.650784, -0.490686, -3.92654, -1.12944, -0.022185, -3.52959, 0.149013, -2.27922, -0.394392, -1.9456, -4.18416, -3.64148, -0.956009, 0.050579, -3.98797, -4.76204, 0.002641, -1.25065, -0.256011, 0.842819, 0.821193, 1.00209, -1.65918, -8.35816, -1.72505, -5.20921, -0.857824, 1.07939, 0.258601, -2.24727], [-0.748013, 0.876385, -1.12231, -0.981524, -1.18231, 1.13193, -2.22932, 2.09343, 1.23339, 1.39173, -5.29987, 2.19309, -2.06677, 0.202369, -0.748531, -2.94885, -5.58695, -2.01175, -0.395363, -7.63593, -0.903088, 1.07898, 0.409411, -1.52361, -0.046291, -3.69877, 0.875239, -2.51933, -1.06672, 1.00332, 0.858926, -2.21021, -0.674357, 0.159049, -0.889849, 0.218018, 0.003711, -0.966664, -0.822196, -3.70011, -3.14587, 1.37162, -0.346503, -3.72033, -2.60118, 0.047541, -0.922066, 0.217317, -4.58865, -0.8126], [0.562319, 1.07185, -0.581628, 0.252144, -0.988136, -0.003423, 1.53842, 0.625213, -0.993228, -1.24601, 1.73353, 0.498595, 0.324049, -0.102876, 0.916713, 0.138839, -1.31869, 1.6275, -0.159686, 1.59918, 0.412406, 1.11192, 0.161446, -0.374793, -0.032038, -0.742666, -0.701631, 0.434237, 0.591542, 0.649989, 1.49924, -1.9488, 1.141, -0.23526, 0.563375, -0.156893, -0.020089, 0.133205, 1.20112, 0.631573, 0.148534, 0.553615, 0.28409, 0.404471, -1.97642, -0.672468, 0.769003, 0.344776, -0.759445, 0.730117], [-0.160122, 1.11371, 0.423578, 0.180195, -0.366259, -0.069066, 0.535121, 0.353386, -0.85998, -0.672835, 0.785464, 0.073849, -0.073563, -0.608076, -0.515266, 0.984218, 0.641311, -0.681305, 0.669186, -0.555066, -0.105852, 0.446654, -2.74663, -0.10615, 0.033647, 0.322551, -0.115119, 0.709133, 0.313561, 0.289875, 0.535921, 0.733654, 0.457523, -0.094839, -1.07228, -0.085452, 0.049036, 0.341644, 0.120483, 0.025303, -0.171608, 0.098245, -0.499801, 0.381012, -0.308233, 0.20521, 0.335296, 0.197574, -0.389652, 0.128837], [-1.0665, -1.20864, 0.245724, -0.471942, -7.53511, 0.543732, -0.934204, -0.08455, -2.86494, 0.968291, -2.83196, 2.40525, 0.695113, -0.728887, -0.653009, 0.942582, -0.762395, 0.980126, -0.050609, 0.021402, -0.011293, 0.625386, 0.876806, 1.33803, -0.051295, 0.176942, 0.001079, -10.1682, 0.99819, -0.398248, -0.505994, -3.40441, -0.936319, -0.129588, 0.385639, -0.430119, 0.020587, 0.230815, -0.977418, 0.158058, 0.608597, -0.147616, -2.63823, -2.13822, 0.306999, -1.19321, -0.756541, -0.073041, 0.742022, 0.809434], [-1.05212, -0.46211, 0.211687, 0.079999, 0.412501, -0.076619, -0.241648, 1.18254, 0.572158,