{"number_of_layer": 8, "number_of_neurons_each_layer": [5, 50, 50, 50, 50, 50, 50, 5], "weight": [[[0.004933, -0.024435, 0.040872, 1.06486, 0.723523], [0.073587, 0.197079, -0.065862, -1.0801, -1.18616], [-0.078413, -0.000611, 0.001293, -0.815879, -0.913551], [-0.171514, 0.706609, -0.813937, 0.181097, -0.360601], [-0.019418, 0.81831, -1.15701, 0.14491, -0.488842], [-0.565541, 0.491667, 0.032559, 0.00885, 0.018075], [-0.58044, 0.343776, 0.035106, 0.229948, -0.008431], [0.027182, -1.71689, 1.76381, 0.079785, -0.268231], [-0.023247, 0.036162, 0.004102, -1.16189, 0.661678], [-0.614791, 0.050095, -0.753513, 0.020882, 0.212197], [-0.005713, -0.017027, 0.077576, -0.020079, -1.23166], [0.015891, 0.200034, -1.08844, 0.439444, -0.84619], [-0.954994, 0.011564, -0.016833, -0.638373, -0.255006], [0.01693, -0.010038, 0.019275, 0.008201, -0.000438], [-0.137398, 1.33831, 0.494817, 0.26454, -0.281946], [-0.02143, -0.003105, -0.03495, -0.475157, -1.25515], [0.084363, 1.7022, -0.381404, -0.255338, -0.211515], [-0.349467, 0.003713, 0.01204, -0.076442, 0.055403], [-0.072632, 0.637075, 0.154221, -0.745238, 0.013578], [0.078793, 0.656164, 0.567332, -0.276757, 0.114393], [0.0302, -0.614831, -0.988174, 0.129795, -0.076804], [-0.073889, -0.859836, -0.74606, 0.592049, -0.503128], [0.060975, 0.001329, -1.78781, -0.006236, 0.004562], [-1.09701, 0.014126, -0.010954, -0.476596, -0.452832], [-0.656524, -0.016505, 0.000613, -0.513311, 0.10933], [0.000117, 0.005451, -0.021523, -1.92077, 0.787189], [-0.133123, -0.207092, 0.090221, -1.35367, -0.143551], [-1.75623, -0.186911, 0.168125, 0.004945, -0.023555], [-0.049419, 1.23982, 1.21019, 0.596753, -0.419914], [-2.15861, 0.023826, -0.023498, -0.02314, 0.001591], [-0.015469, -0.010354, 9.5e-05, 0.007355, 0.013604], [-1.92402, -0.097144, 0.010553, -0.035109, 0.037092], [-1.82183, 0.011479, -0.163526, 0.140157, -0.40634], [-0.013099, 0.154192, -0.139331, -1.71148, -0.75053], [-0.025931, 1.6976, -1.6505, -0.024005, -0.608909], [0.294514, 0.961739, -0.845631, -0.063422, 0.052988], [-1.74725, 0.002445, -0.00185, -0.002999, -0.003673], [-0.550264, 0.000866, 0.517646, -0.000686, 0.094205], [-1.06202, -0.004393, -0.816866, -0.024187, 0.196388], [-0.862895, -0.025965, -0.117171, 0.076674, -0.378277], [-0.088552, -0.20374, 0.222432, -0.634312, -1.50758], [-1.39016, -0.098479, 0.050563, -0.028128, 0.066279], [0.109478, 1.61962, -1.70305, -0.171375, 0.610081], [0.01154, -0.028421, -0.000325, 0.321128, -1.14222], [0.022137, 2.28674, -0.092765, 0.019503, 0.0697], [-0.31445, 0.006642, -0.060318, -0.550325, -0.116599], [0.036079, -0.996834, -0.609295, 0.092221, -0.105101], [-0.009477, 0.00501, 1.50382, -0.289126, -0.205648], [-0.006383, 0.002943, 0.003935, 0.002142, -0.003854], [-0.015206, -0.477251, 0.258654, -0.102124, 0.725973]], [[-0.668403, 1.2575, 3.42779, 0.189877, -0.229317, 0.442845, 0.24599, 0.0494, 0.428808, 0.13699, 0.290627, 0.207051, 2.69443, 0.034129, -0.27466, 0.291337, 0.412431, -0.005862, -0.678747, 0.037144, 0.546924, -0.185764, -0.325697, 2.39497, -0.536425, -0.482948, -0.499012, 0.722015, -0.064891, 1.43932, 0.018106, 1.10297, -0.160405, 0.530526, -0.07848, -0.133058, 1.27422, 0.195502, -0.085193, 0.221617, 1.13822, 0.193765, -0.02335, -0.231445, 0.072254, -0.196491, 0.022423, 0.616714, 0.038353, -0.826053], [0.101601, 0.14785, 0.123069, 0.466206, 0.455678, -0.457456, 0.820348, -0.189716, -0.858558, 0.349801, -0.305901, -0.268801, -0.120516, 0.032714, -0.558622, -5.22482, 0.387924, -0.100691, 0.002567, 1.16219, 0.453111, -0.022265, 0.307787, 2.2937, -0.036155, 0.247379, -0.022822, 0.074156, 0.127206, 1.0819, -0.047014, -0.004886, -0.172383, -0.517259, -0.424022, -0.218042, -3.6162, -1.84276, 0.558683, -0.197661, 0.373843, 0.760712, -0.025204, -0.059591, -0.12663, 0.185065, 0.257901, -0.064421, -0.010256, -0.329214], [0.52726, 1.56037, -0.303904, -0.243788, 0.489118, 0.247535, -1.38316, 0.109686, -0.711218, 0.270515, 0.778348, -0.841169, -0.838228, -0.022626, -0.962286, 0.224308, 0.950773, 0.25989, -0.019212, 0.431263, 1.37314, 0.317734, -0.226558, 1.35236, 0.231485, -0.062225, -3.83382, -0.464063, -0.550978, -0.285207, 0.033842, 0.028798, 0.415833, -0.591188, -0.937999, -0.827456, 3.08473, -0.089372, -0.156651, 0.467999, -0.486625, 0.051596, 0.214064, 0.759846, 0.837613, -0.855512, 0.802114, -0.346256, 0.024895, 0.022072], [-4.23134, -0.375187, 2.0477, -0.593416, 0.557595, -0.221047, 0.38396, 0.204676, 0.625489, -0.441794, 0.18768, 0.179852, -1.28559, -0.002324, 0.459782, -1.32346, -0.216784, -0.297691, -1.03709, -0.289711, 0.363176, 1.03769, -0.00815, -0.433464, -0.019525, 1.06977, 0.738177, 0.149892, 0.150187, -0.391797, -0.027606, 0.399821, 0.275952, -1.03996, 0.114131, -0.891491, -0.841979, -0.714811, -0.143781, 0.141994, -0.569918, 0.183204, -0.436457, 0.487011, 0.198424, 0.10436, -0.403983, -0.426425, -0.019696, -0.959281], [0.122661, -0.355362, 2.83892, -0.247921, -0.162246, -0.174088, 0.095951, -0.66739, 0.801111, -0.531381, 0.15646, -0.38844, -0.283035, 0.017291, -0.309774, 1.48271, 0.595154, 0.000178, -1.89689, 0.86223, 0.573001, -0.04927, 0.861111, -0.593764, 0.157792, -0.45424, -1.1428, 0.125378, -0.742054, -0.379553, -0.00775, 0.54109, 0.032721, 0.723443, 0.410226, -0.025243, 0.175699, -1.1537, 0.082081, 0.396793, -0.70202, -0.072727, 0.660624, 0.656892, -0.327966, 1.07157, 0.547844, 0.733396, 0.019486, -0.171115], [-9.65054, 0.74778, -0.023581, 0.023515, 0.021304, -0.506715, 0.365043, -0.042616, -0.597144, 0.063485, 0.475898, 0.235011, 0.208792, 0.034637, 0.410632, 2.31411, -0.327821, -0.139453, -0.559726, -1.56805, 0.539136, 0.618383, -0.4096, 0.828034, -0.693937, -0.111889, 0.749573, -0.222217, 0.494746, 0.20842, 0.02605, 0.453553, -0.767105, 0.206853, 0.364589, -0.874426, -1.21237, 0.208289, -0.024272, 0.53269, -0.504756, 0.524284, -0.119931, 0.878361, 0.057161, -0.826064, -0.303475, 0.062514, -0.020908, -0.212583], [-0.121772, 0.037734, -0.459332, 0.924888, 1.18498, 0.128628, -0.405509, 1.66483, 0.342612, -0.095896, -0.342544, -0.607842, -0.175811, 0.031081, -0.472658, 1.0192, 1.01853, -0.215283, -1.66623, -0.307601, -0.380283, -0.495574, -0.772941, 0.917974, -0.072999, -0.368104, -0.145392, -0.146323, -0.553521, 0.015523, 0.019695, -0.005679, 0.235126, -0.051627, 0.341949, -0.213835, 0.157653, 0.241043, -0.336054, -0.01704, 0.236316, 0.053275, -0.88241, 0.623907, -0.021178, -0.190686, -0.04247, 0.260424, -0.017485, 0.573851], [0.416049, 0.536619, -0.040332, 0.416212, -0.064471, -0.611652, 0.567061, 0.255088, -0.303448, -0.540112, 1.14326, 0.399053, -1.85693, -0.0527, 0.341182, 1.76729, 0.233963, -1.71038, -1.38344, 0.443331, -0.106524, 0.033341, 0.166011, -0.412882, -0.218689, 0.058485, -0.65554, -0.273727, 0.876699, -0.850324, -0.011874, -0.306429, 0.897838, -0.439751, 0.185414, -0.10258, 0.299937, 0.061931, -0.5838, -0.37608, 0.946115, 0.059764, -0.128287, 0.173802, 0.348198, -0.860467, 1.60352, -0.091285, 0.029214, 0.022553], [0.216247, -0.563245, -1.53588, 0.452506, -0.021257, 0.538805, -0.176004, -0.187085, -1.10645, 0.784396, 0.250436, -0.273106, -0.934866, 0.011621, 0.252986, 0.712788, -0.212378, 0.978794, -0.106845, -0.470035, -0.876373, 0.358575, -0.048823, -1.31079, 0.032675, 0.571867, -0.062512, -0.624514, -0.205411, 0.380308, 0.01615, 0.592411, -0.27316, -0.3142, 0.506193, 0.38038, 1.09527, -0.303683, 0.24386, 0.588566, 0.771115, 0.900647, 0.323533, -0.452836, -0.183792, -0.049745, -0.234911, 0.259434, 0.010249, -0.982575], [0.046016, -0.077043, -2.48297, 0.408024, 0.371131, -0.472386, -0.585655, 0.736873, 0.024662, -0.612765, 0.97607, -0.842838, 0.538674, 0.018023, 0.129292, 0.88417, -0.219473, -1.01653, -0.282062, 0.361477, 0.308001, -0.374951, 0.76328, 0.27367, -0.269931, 0.200664, 0.543223, 0.760473, -0.496296, -0.260606, 0.038884, 0.511561, -0.278037, -0.285049, 0.289499, -0.400887, -0.717324, -0.004854, 0.12685, -0.545929, 0.927732, -0.530687, 0.624271, -0.223914, 0.569093, -0.866126, 0.197059, 0.189886, 0.044432, 0.319948], [-0.355548, -0.857902, 1.14062, -0.232465, 0.09306, -0.390733, -0.650945, 1.12574, 0.524323, -0.30364, -1.76361, -1.17129, 1.03567, -0.010311, 0.248953, -3.54311, 0.436691, 0.15734, 1.14025, 0.483724, 0.476179, -0.431683, -0.229124, -0.070458, 0.901127, -0.24277, 0.861752, -0.636692, 0.268338, 1.51791, -0.023145, 0.160058, -0.230664, 0.087475, 1.32182, -0.358947, -1.35751, -0.463457, 0.121736, 0.543002, -0.170956, -0.009322, 0.112917, 0.29828, -0.288783, 0.469811, -0.324788, -0.275441, -0.020989, 0.315772], [0.362163, -1.32279, -4.51946, 0.256401, 0.448769, -0.019307, -0.409545, -0.858217, -1.37485, 0.281362, 0.891001, -0.280571, 1.14271, -0.047212, 0.708102, 1.41096, -0.215568, -0.160885, -0.351599, -1.2173, -1.14896, -0.874383, 0.152402, -0.1655, -0.060006, 0.306386, -1.02933, 0.205521, -0.949586, 0.283089, 0.04061, -0.850294, 0.194797, -0.447265, 1.05987, 0.336254, 1.31066, 0.647658, 0.143479, -0.159611, 1.65859, -0.510937, 1.44752, -0.392713, 0.041002, -0.959057, -0.623085, -0.017713, 0.018854, -1.06985], [0.85131, -0.892061, -0.938992, 0.254679, 0.338695, 0.357082, 0.128976, 0.011181, -0.151688, -0.025246, -0.332517, -0.744812, 1.08521, 0.021233, -0.208906, -0.893943, -0.055392, -0.398053, 0.356543, -0.762084, -0.359189, -0.478927, 0.171932, 1.09907, -0.063671, 0.691647, 0.14881, 0.159062, -0.791819, -0.120603, -0.047853, -0.284635, -0.209496, -0.901984, 1.08936, 0.245132, 2.10272, -0.515233, -0.052428, 0.218689, 1.04716, -0.159696, 1.0684, -0.14429, 0.181166, 0.348703, -0.357419, 0.012212, 0.012923, -1.55901], [1.11441, 3.65572, -4.39148, -0.169601, -0.200038, -0.12804, 0.021969, -0.953613, -0.823411, 0.272452, -2.65799, 4.25481, -1.3899, -0.047512, -0.49331, -3.34642, 0.470182, 0.141435, 0.242516, 0.378926, 0.040928, -0.091121, 0.260073, -6.46448, -0.23175, 0.516983, -0.209373, 0.048161, 0.105465, -0.152434, -0.028064, -0.464893, 0.26814, 2.13563, 0.14644, 0.269136, -0.661463, 0.247404, -0.165898, -0.300799, -1.46928, 0.394086, 0.1628, -2.11499, 0.234749, 1.52008, 0.023085, -1.56866, -0.015375, -0.886732], [-0.012178, -0.023846, -0.03086, 0.03763, -0.025738, 0.018255, -0.029349, -0.028213, 0.0289, 0.047383, -0.033996, 0.005517, -0.050577, -0.002619, 0.022725, -0.016941, -0.008629, -0.023888, 0.012115, -0.008432, -0.03981, 0.033951, -0.029504, 0.039531, 0.009376, -0.036655, -0.029777, 0.020921, 0.012526, 0.009226, 0.00078, -0.00199, -0.032025, 0.017205, -0.013828, -0.006371, -0.034834, 0.028348, -0.041528, 0.007806, 0.020385, -0.00805, -0.056548, 0.028881, -0.039639, -0.02054, 0.006228, -0.009454, -0.042928, -0.036289], [0.025924, 0.27903, 2.57448, 0.207073, 0.097753, 0.977927, 0.037152, 0.364885, 0.302543, 0.170755, -0.093168, -0.452939, 2.8433, 0.008156, 0.114593, -3.39449, -0.351756, -0.330132, 0.098522, -0.340051, -0.22365, 0.108352, 0.409757, 1.90538, 1.09389, -0.078396, 0.067374, 0.677943, -0.13319, 2.52616, 0.019094, 0.938196, -1.24137, -0.268686, -0.148066, 0.068685, -0.305457, -0.220763, 0.716257, -0.218452, 0.557885, 1.31092, -0.52667, -0.158512, 0.388948, 0.111081, -0.233231, -0.052504, -0.024272, -0.421574], [0.11728, -0.07522, 1.68346, -0.000665, 0.082881, 0.550595, 0.307842, -0.098957, -0.413277, 0.011943, 0.060687, -0.071632, 0.455708, -0.014068, 0.001489, -1.27061, 0.094433, 0.052023, -0.257098, 0.010905, -0.141572, 0.057117, 0.038045, 0.72587, 0.004051, 0.198688, -0.037741, 1.42191, 0.000753, 2.37419, -0.03139, 3.16159, 0.007402, 0.008034, 0.045298, -0.162146, 14.5776, -0.168359, 0.205545, 0.030041, 0.055626, 0.834516, 0.133158, -0.114267, 0.08614, -0.029688, 0.012609, 0.058482, -0.028848, -0.337896], [-4.73017, -0.037268, -0.034971, -2.8739, -1.35105, -0.250224, -0.518123, 0.057348, -0.399019, -0.517448, -2.71956, 0.0301, 0.189913, 0.007625, -0.151983, 0.027566, -0.962644, 0.240377, -0.558197, -0.029129, 0.320264, 0.079343, -0.421066, 0.032977, -0.250246, -0.483888, -0.279655, 0.15796, -0.213942, -0.303099, 0.002582, 0.287435, 1.65206, 1.41332, -0.953232, -0.079284, -1.21848, 0.099448, -0.004778, -0.089727, 0.038118, 0.229415, -0.882323, -1.32107, 0.370924, 0.098369, -0.01676, 0.067964, -0.053175, -0.260473], [-0.11998, 0.092714, 3.45771, -0.670509, -0.367728, -0.208216, 0.335232, -0.188075, -1.11818, 0.345083, -0.080721, 0.328459, 1.90121, -0.039076, 0.547617, -0.545781, 0.426608, -0.231521, -1.1826, 0.373429, -0.208971, -1.37165, -1.33629, -0.004819, -0.099331, -1.59347, -0.316299, 0.568518, -0.368452, -0.121865, -0.013623, 1.01573, -0.835929, 1.16026, 0.505746, 0.332853, 4.39655, -0.133435, 0.948395, 0.316126, -0.443451, -0.529593, -0.104589, 0.239625, -0.632664, 0.642585, 2.33755, 0.473015, -0.023388, -0.073943], [-1.4054, 1.62796, -0.756273, -0.64453, -0.464872, -0.106542, -0.592244, -0.14671, -1.34881, 0.136898, -1.77396, 0.306358, 0.07321, -0.003447, -0.200167, -1.63969, -0.038342, 0.06436, 0.398033, 0.17324, -0.343816, 0.203723, -0.298504, 0.37354, -0.054119, 0.931969, 1.24927, -0.169067, 0.233773, 0.179957, 0.003522, 0.316877, 0.197576, 0.784963, 0.841182, -0.27886, -0.027989, 0.22365, 0.023915, -0.170941, -0.082629, 0.128476, 0.122665, 1.66103, -0.25533, 0.09324, -0.152602, -0.127612, 0.023783, -0.168326], [0.438422, -0.123022, -0.313075, 0.739116, 0.252267, 0.591507, -0.372774, 0.422048, 0.025406, -0.112819, 0.37366, -0.250514, -0.680389, 0.017726, -0.021732, 2.52509, -0.231391, 0.191281, -0.461042, -0.508579, 0.33436, -0.454225, -0.041044, 0.029999, -0.440087, 0.060964, -0.283681, 0.002995, -0.31214, -0.768579, 0.000376, 0.611501, -0.151198, -0.415743, 0.214354, 0.063072, 1.31109, 0.033325, 0.223511, -0.188014, 0.003954, -0.000788, 0.601131, -0.16049, -0.673191, -0.016209, -0.271949, 0.050328, -0.00945, -0.950709], [0.214428, 1.73878, -1.23292, -0.471287, -0.045833, -0.283954, -0.10489, 0.070862, -1.00593, 0.238656, 0.80994, 0.324978, -0.021419, -0.006623, 0.157723, -0.295367, 0.36328, 0.331065, 0.655788, 0.152654, -0.340105, 0.688994, -1.22013, -0.000912, 0.303525, 0.267107, -0.203273, -0.303958, 1.201, -0.32892, -0.001426, 0.404558, 0.100787, -1.11991, 0.573317, 0.48679, -0.095332, -0.486835, -0.106995, -0.133722, 0.502167, 0.146856, 0.474856, -0.555014, -0.631426, 0.231595, -0.2488, -1.4536, 0.012037, -0.489079], [0.140747, 0.009025, 1.39608, 0.673166, 0.495685, -0.814662, -0.556849, 0.523018, -0.142747, 1.43687, -0.227225, 0.418158, 0.651644, -0.013922, 0.144395, 1.25126, 0.079983, 0.273005, -1.92736, 0.55231, -0.531045, 0.051786, -2.10277, -0.771158, -0.332009, -0.060593, -0.69059, -1.0053, 0.563837, 1.25748, 0.014946, -0.785354, 0.145577, -0.395151, 0.3776, 0.178328, 0.696934, 0.246582, -1.25831, -0.413741, 0.980177, 0.831744, 0.214206, 0.472157, 0.473121, 0.051945, 0.379952, 0.695248, 0.001905, 0.120589], [0.509682, 0.331234, -0.927398, 0.281712, -0.810148, -0.24338, -0.956881, 0.131775, -10.8545, -0.25363, 0.260929, 1.44431, 1.44, 0.02023, -1.00514, 1.45257, 0.124513, -0.560383, -1.62598, 0.081125, 0.367993, -0.462387, -1.72638, 0.569469, -1.43644, -0.826883, 0.346076, -0.804516, -0.502485, -0.033824, -0.01003, 0.67711, 0.729009, 0.276086, 0.087286, -0.275432, -1.60832, -0.552878, 0.575158, 0.561432, 0.135112, 0.343392, -1.25399, 0.519596, 1.75904, 0.215571, 0.245932, -0.18005, 0.031516, -1.4615], [0.905735, -2.35724, 1.61884, -0.154951, 0.763329, -0.09292, 0.034881, -0.473982, 3.57724, -0.321819, 0.109063, -0.700187, 0.976222, 0.000802, -0.364896, 3.75253, -1.31776, -0.390547, -1.27284, 0.61992, 0.620395, -0.469192, -0.517353, 3.23163, 0.572237, -2.0679, -0.41425, -0.05034, -0.192785, -0.241622, -0.035502, -0.001889, 1.11257, 1.29507, 1.50364, -0.770667, -0.531235, 0.06326, -0.622527, 0.094073, -0.45485, 0.122172, -0.994617, 0.539198, -0.180081, 0.653684, -0.064852, 0.296093, 0.039149, 0.208007], [0.16107, -0.891483, -0.236404, -0.030903, 0.819696, 0.267499, 0.940587, -0.086919, -0.970715, 0.832858, 0.756981, -0.560242, 0.183942, -0.026249, -0.104004, -0.070719, 0.063607, -0.334436, -0.172432, -0.980308, -0.543019, 0.026602, 0.643491, 1.8507, 0.173553, 0.350931, -0.257097, 0.246807, -0.800571, 1.07656, -0.028476, -2.0499, 0.662666, -0.080004, -0.900858, 0.534575, -0.761986, -0.125422, 0.275059, -0.210324, 0.822034, 0.698581, -0.223846, -0.530868, 0.220179, -0.121938, -0.87721, 1.57923, 0.065797, -0.324849], [-0.505907, 0.279135, 0.169412, -0.016037, -1.13874, -0.03393, -0.214188, -1.97899, -0.004277, 0.066744, 0.112503, -0.03665, -0.366183, -0.012225, -0.512521, -0.708262, 0.260556, 0.752479, 1.04041, 0.350995, 0.759342, 1.16234, 0.678465, -0.875112, 0.292397, -0.083525, 0.46012, 0.040149, 0.724563, -0.005181, -0.01118, -0.08339, -0.402317, 0.357325, -1.62527, 0.478965, 2.20822, -0.476381, -0.083816, -0.119116, -0.553727, 0.173043, -1.33718, -0.231319, 0.395675, 0.352222, 0.555898, 0.896388, -0.034861, 0.360464], [0.122278, -0.444175, 2.0669, -0.916673, 0.605856, -0.342998, -0.689484, 1.05618, -0.922629, 0.460289, 0.07352, -0.589954, -1.08015, 0.000224, -1.2506, 2.37826, 0.886675, -0.211271, -1.40003, -1.16747, -0.448837, 0.617203, -0.313282, -0.472109, -0.83361, -0.584321, -0.558475, 0.090123, -0.390306, 0.624514, 0.009848, -0.144557, -0.16768, 0.6227, 0.47381, -0.509727, 0.987357, -0.159275, 0.06737, 0.255765, 0.401781, -0.309453, 0.881482, 0.841748, 1.27909, -0.347497, -0.631909, 0.273126, -0.028809, -0.598982], [0.62415, 1.22575, -1.24915, -0.108485, 0.375355, 0.885508, -0.806057, -0.245454, 0.108126, -0.048692, 0.236649, 0.74952, -0.110918, 0.030548, 0.36568, 0.562059, -0.187483, 0.666873, -0.655235, 0.027429, -0.014793, -0.505073, -0.692509, -0.312167, 0.06009, -0.224769, -1.06383, -0.388789, -1.04324, -0.10379, -0.024105, 0.515271, -0.149816, -0.198256, -0.862845, 0.116497, -1.3368, -0.053769, -0.033248, -0.176935, -0.369046, -0.191291, -0.470369, 0.846957, -0.376865, -0.20063, -0.140637, 1.28656, 0.000922, -0.913274], [0.000417, 0.005513, 0.041542, 0.030923, -0.001586, -0.040254, 0.034728, -0.016745, -0.022604, 0.022942, 0.03299, 0.031353, 0.03678, -0.001877, -0.021682, -0.04322, -0.028904, -0.019742, 0.040993, -0.006079, 0.006254, 0.020315, -0.045015, 0.023383, -0.01941, 0.023592, -0.048754, 0.030069, 0.030338, -0.026998, 0.019951, 0.03886, -0.041025, 0.019091, -0.046434, -0.050296, 0.020472, -0.015502, 0.007092, -0.022912, 0.003216, 0.030905, -0.025295, -0.008722, -0.017085, -0.042568, -0.039396, -0.009784, 0.003325, -0.01439], [-0.147915, 0.562666, -0.772156, -0.440151, 0.196249, -1.22886, 0.746841, -0.062135, -0.210279, -0.377782, 1.41307, 1.24368, -2.10663, 0.043871, -0.611481, 0.959698, -1.4302, -2.03937, 2.21248, -0.465687, -0.675216, -0.165683, 0.013583, -9.81328, -0.910941, 1.28151, -1.6721, 0.663454, 0.296237, 0.548642, -0.032006, -1.91763, 0.89997, -0.906247, 0.095577, -0.754286, 3.96631, 0.222833, -0.102864, 1.3575, 0.022655, -1.59054, 0.324857, 1.38628, 0.117854, 0.982418, -0.135324, -0.29199, -0.023502, -2.18235], [0.04439, 0.482145, -1.35067, -0.192295, -0.036171, 0.328138, -0.167353, 1.10273, 0.880105, -0.479585, 0.411832, -1.36976, -0.203928, -0.028552, 0.211998, -0.543038, -0.172309, 1.51793, -0.000582, -0.583133, -0.668624, 0.440152, 0.810221, -0.434871, 0.609657, 0.054757, 0.421535, 0.463654, -0.739947, 0.067632, 0.019636, -0.920961, 0.125457, -0.256155, 0.809512, -0.989556, 2.29773, 0.846556, 0.037577, -0.162042, -0.478274, 0.237106, 1.84339, 0.076496, 0.291488, -0.813608, -0.576359, 0.278216, 0.027805, -0.163061], [1.02778, -0.126808, 2.1438, 0.060771, 0.356083, -0.013423, -0.362964, -0.228774, -2.00273, -0.518758, 0.616963, 0.326624, -0.57784, -0.013357, 1.23015, 2.72526, -0.957011, -0.905912, 0.019893, 0.240166, -0.81747, -1.26946, 0.725385, 0.732964, -1.17646, -0.81099, -0.415273, 0.307833, -0.498936, -0.255746, 0.016164, 1.35881, 0.31693, -0.030467, 0.754492, 0.403428, 1.09959, 0.594103, -0.110949, 0.492709, 0.076831, -0.308432, -0.240137, -0.765144, -0.138152, 0.537739, -1.93353, 1.63353, 0.014132, -2.37386], [-0.00417, -0.053666, 0.025672, -0.064606, 0.016444, -0.006894, 0.024503, -0.010164, -0.029998, 0.011557, -0.018793, 0.034524, 0.03774, 0.03496, -0.019708, 0.03367, -0.036416, -0.055627, -0.027797, -0.034911, 0.016743, 0.00767, -0.021507, -0.03489, 0.033927, -0.029631, -0.025371, -0.008362, 0.023881, -0.055454, -0.014173, -0.061729, 0.02253, -0.05105, -0.005385, -0.030606, -0.020574, 0.033082, 0.026115, 0.008832, 0.000772, 0.031963, -0.032825, 0.035959, 0.033066, -0.015595, -0.038223, 0.010519, -0.026592, -0.035505], [-0.529019, -0.138552, -0.082038, 0.524554, -0.266047, 0.822744, 0.114865, 0.592612, 0.323894, 0.226223, 0.023221, 1.13116, -0.217306, 0.018717, -0.434652, 1.91166, -0.889464, 0.231393, 0.216614, -0.024405, -0.456977, -0.356667, -0.272976, -0.714284, -0.52779, -0.438199, -0.597923, 0.29227, 0.072739, -0.408595, -0.029927, 0.011615, -0.111794, 0.506326, -0.244663, -1.01385, 2.27364, 0.416791, -0.419545, -0.099567, 1.35389, 0.396085, -0.278881, 0.980259, -0.271118, -0.477924, 0.234016, 1.01578, 0.000935, 0.754577], [0.728348, -0.578273, 0.244175, 0.084193, -0.132723, 0.514517, -0.586956, 0.298432, 0.434199, -0.275281, 1.03049, 0.408447, -0.171769, -0.017993, 0.413865, 1.54003, 0.706467, -0.37773, 0.439486, 0.472414, -0.404422, -0.614756, 2.02337, 1.39638, -0.055956, -0.549518, -1.30331, 0.025026, 0.301577, 0.302112, -0.038653, -0.278233, 0.771275, -0.719518, 0.488411, -0.769332, -1.0159, 0.558562, 0.288178, 0.066425, 0.908727, -0.010367, 0.014042, -0.214225, -1.58877, -0.870398, -0.032989, -0.206492, -0.022212, 0.117173], [0.798751, -0.590522, 2.14946, -0.078779, -0.519186, -0.404121, 0.250969, 0.09219, -0.75228, 0.340874, 0.050363, 0.473347, 1.99667, -0.027978, -0.507709, -1.17833, 0.727569, -0.038432, -0.477522, 0.493177, 0.46224, 0.222618, -1.73728, 3.39585, 2.19733, -0.219575, 0.030902, 0.266464, -0.357296, -0.179205, 0.028811, -0.624179, 1.0201, 0.731227, 0.691649, 0.394494, -2.81741, 0.454933, 0.572224, 0.495497, -0.630635, 0.632046, 0.674344, 0.344155, 0.325009, 0.521035, -0.064711, 0.265608, 0.049456, -0.467475], [-0.036122, 0.86067, 0.22453, -0.453824, -0.273816, 0.72007, 0.462064, -0.531397, -0.162212, -1.24008, -0.067208, 3.25984, -0.188456, -0.027349, -0.051643, -2.1928, -0.244989, 0.211079, -0.766439, 0.215599, -0.037764, -0.329871, -1.28478, 1.75281, -0.394391, -0.192155, -0.670999, 0.412201, 0.356327, 0.19431, -0.009737, 0.510523, -0.322688, -0.179349, -0.027124, -0.224643, 0.880049, 0.261398, -1.14715, -0.145404, 0.607034, 0.924889, -1.08386, 0.428796, 0.783022, 0.000457, 0.246413, 0.430176, -0.006689, 0.209129], [0.09732, 0.067509, 0.453876, 0.107647, 0.275703, 0.378378, -0.290295, 0.042669, 0.034019, 0.361371, 0.120999, 0.477818, 0.916773, -0.025534, -0.34234, -0.70359, 0.426061, 0.650745, 0.673142, -0.552784, -0.426624, -0.190042, -0.063872, 3.47192, 0.147337, -0.006846, 0.133125, 1.46584, -0.112526, 0.869413, 0.051019, 1.70989, 1.34499, -0.159106, -0.018613, -0.895823, 2.85204, 1.07583, -0.463678, 0.395979, -0.284817, 0.767412, 0.511095, 0.040183, -0.2012, -0.12489, 0.176174, 0.070544, -0.007925, -0.44804], [0.005653, 0.024944, -0.038621, -0.01576, -0.030086, -0.031058, -0.008786, -0.009712, -0.023501, -0.004497, 0.014108, 0.024196, -0.032423, -0.011961, -0.038892, -0.012156, -0.026646, -0.023017, -0.013742, 0.004128, -0.006822, -0.008391, -0.000628, -0.028279, 0.029809, -0.017074, -0.018727, -0.003834, 0.014716, 0.0039, 0.006006, 0.045198, -0.005342, -0.013256, -0.006627, 0.005159, -0.021422, -0.037511, 0.028873, -0.006964, -0.047086, -0.040294, 0.008986, -0.013764, 0.007991, -0.021198, 0.008887, 0.014441, 0.026362, 0.006193], [-0.008711, -0.03977, -0.023525, -0.028162, -0.057633, 0.018874, 0.032901, -0.021001, -0.022355, -0.009892, 0.014526, -0.024825, 0.033421, -0.010113, 0.013802, -0.000357, 0.039831, 0.003791, -0.028395, 0.004361, -0.045368, -0.043761, -0.01531, 0.006235, 0.014965, 0.011847, 0.030465, 0.003116, -0.030498, -0.005761, 0.002305, -0.007982, -0.016526, 0.019811, -0.01141, -0.008384, -0.003552, -0.018002, -0.007166, -0.048795, 0.03113, -0.027138, 0.020891, -0.00454, 0.009117, -0.023645, -0.000728, -0.047574, -0.03905, -0.033453], [-0.107398, 0.24934, -0.986172, -0.278112, 0.280161, 0.452568, 0.363203, 0.313542, -0.346434, -0.591667, -0.606887, 1.36672, 1.26332, -0.029013, 0.201181, -2.63517, 0.969949, -0.090072, -0.403368, 0.154442, -0.991451, 0.296447, -1.78718, 0.673073, -0.015109, 0.031829, 0.066268, 0.979107, -0.236599, 0.736596, 0.053237, 0.385752, -0.391965, -0.005295, 0.238485, -0.708545, 2.24369, 0.876784, -0.98596, -0.299187, -0.767922, 0.41291, 1.02716, 0.150367, -0.490265, 0.192187, -0.604633, -0.253158, -0.019243, 0.066425], [0.000346, -0.044833, 0.019014, 0.006468, -0.053421, -0.002419, -0.008982, 0.008338, -0.002205, -0.048164, -0.04319, -0.047703, -0.009126, -0.013041, -0.01011, -0.023976, -0.013113, -0.049478, 0.01935, -0.030753, -0.051477, -0.02527, -0.04066, -0.004044, -0.02351, -0.000578, 0.024452, -0.019261, 0.004227, -0.009588, -0.005759, 0.014117, 0.031888, -0.005953, 0.043162, 0.003815, 0.029937, 0.029945, -0.033087, -0.004821, -0.032197, 0.024592, -0.010708, 0.008895, 0.000958, -0.007126, 0.008191, -0.03416, -0.008508, -0.009177], [1.25477, 0.905385, 0.50324, -1.06259, -0.112695, 0.31015, -0.422799, 0.045277, -0.755871, 0.012045, -0.00893, 0.307385, 0.699571, 0.021832, -0.21105, 0.315136, -0.535841, 0.394479, 6.2e-05, -0.153219, 0.139661, 0.920592, -0.404784, -0.363993, 2.06335, -0.627152, -0.55375, -0.050929, 0.215497, 0.053039, -0.019832, -0.095702, 0.192666, 1.63879, 0.534641, -0.075091, 1.03689, -0.240992, -0.027767, 0.186782, 0.599093, 0.070877, 0.232226, 0.725842, 0.400824, -1.82667, -0.223899, -0.220375, -0.004061, -0.119228], [-0.421819, 0.003768, 0.019111, -0.330622, -0.021413, -0.0535, 0.04832, -0.388188, -0.091401, 0.082179, 0.577684, -0.027404, -0.008339, 0.007473, -0.310097, 0.034583, -0.940878, 0.069531, -1.30235, 0.749895, 0.032969, -0.370061, -0.055957, -0.033286, -0.365927, -0.79902, -0.155239, -0.136971, -0.199964, -0.013763, 0.029938, 0.266673, 0.383321, -0.387339, 0.175826, -0.236125, 0.499172, -0.111334, -0.12244, -0.636624, -0.001052, 0.107811, 0.244338, -2.90802, 0.143133, 0.502605, 0.06276, 0.207133, -0.039194, 1.11112], [1.36322, 0.930375, 1.16089, -0.191528, 0.818893, 0.23622, -0.97184, -0.655999, -0.17238, -0.009107, 1.44709, 0.122078, 0.136856, -0.029141, 0.040898, 2.65902, -0.49186, -0.406531, 0.797336, 0.282198, -1.07494, -0.121971, -0.778594, 1.1939, -0.245849, -1.93255, -0.208427, -0.046984, 0.211949, 0.358565, -0.011622, -0.97345, 0.802395, 0.119033, 0.732964, -0.526123, -0.643073, 0.137854, 0.304923, 0.520875, 0.446148, 0.135073, 0.148917, -0.341, -0.808136, 1.69567, -0.180599, 1.56025, -0.010347, 0.213896], [-0.068742, -0.007085, -0.975557, 0.216778, 0.456083, 0.381241, -0.077113, 0.366045, -0.813182, 0.632647, 0.198131, -1.55834, -0.439455, -0.029706, 1.1261, -0.124024, 0.419937, -1.64386, -1.26034, 0.866553, 0.201992, -0.170023, -0.5334, 1.7312, 0.314984, 0.740789, 0.238832, 0.439428, 0.25006, -0.080003, 0.004139, 0.876438, 0.128814, 0.488693, 0.374002, -1.48651, -0.59615, -0.095333, 0.864112, -0.188686, 0.610567, 0.167781, 0.853024, -0.273313, -0.648347, 0.253562, 1.55247, -0.280059, 0.043792, 0.658057], [-0.12468, -0.992518, 3.03331, 0.388278, 0.255521, 0.248349, 0.514889, -0.223543, 2.05052, -0.289264, -0.100657, -0.282035, 0.274804, -0.024782, -0.155162, -1.29599, 0.540989, 0.283704, 0.144042, 0.265834, 0.145187, 0.255364, 0.528894, -0.688318, -0.395002, -0.699513, -0.46361, 1.56005, -0.026564, 1.58093, 0.02591, 2.01279, 0.178194, -0.425, -0.408838, -0.075171, 11.4047, 0.196468, 0.158873, 0.013701, 1.02628, 1.04471, 0.439553, 0.587437, -0.081993, -0.205032, -0.498603, 0.2258, -0.017202, 0.104813], [0.241716, -0.052379, 1.42106, -0.110401, -0.233156, 0.195089, -0.540822, -0.610151, -1.25439, 0.358435, -0.373456, -0.160262, -0.818302, 0.020892, -0.121991, 2.30072, 0.075669, 0.087461, -0.083529, 0.593285, -0.535384, -0.491209, 0.873379, -0.859754, -0.645835, 0.253322, 0.641645, -0.173698, 0.093727, 0.115625, 0.021684, 0.391866, -0.395591, 0.147528, 0.88175, 0.129543, -0.126698, 0.945624, -0.081224, -0.138508, -0.081917, 0.578826, -1.06322, 1.46068, 0.301755, -0.262777, -0.122489, -1.34851, -0.000852, -0.642085], [-0.107384, 0.173068, -0.892756, -1.05483, -0.981113, 0.805816, -0.669545, -1.09172, -0.04739, -0.210102, 0.089136, 0.063381, -0.039328, 0.041557, 1.33732, -0.804684, -0.492944, 0.125275, -1.35004, 0.755066, 0.317992, 0.123251, 0.032444, -0.358034, -0.37542, 0.420143, 0.534712, 0.105811, 0.048228, -0.325212, -0.025369, -0.055512, -0.319335, 0.478411, -0.33757, 0.350793, 0.163171, 0.239339, -1.348, -0.448302, -0.887585, 0.042507, -0.921629, -0.321469, -0.272983, -0.301899, -0.508762, 0.393349, 0.042695, -0.21924]], [[-0.004827, 1.02973, -0.625117, 1.11137, 0.109581, -1.4646, 1.33399, 0.247208, -0.585137, -0.076527, 0.068575, -2.08177, -8.2769, -0.908809, 0.000187, -0.101998, -0.366189, -1.08524, 0.746526, -0.671923, -1.29195, 1.08667, -0.660239, -0.153215, 0.909729, 0.279238, -2.68706, 0.080772, 1.24378, -0.025612, -1.93323, 0.728017, 0.790737, -0.036952, 0.671367, -1.64016, -0.579253, -0.878752, -0.06055, 0.029835, 0.024646, -0.815047, 0.028457, 0.334557, -1.35356, -0.909108, -0.155302, -0.787842, -0.401875, -0.215614], [0.000365, 0.087069, -0.04598, 0.073844, -0.123066, -0.408085, -0.109502, -0.037186, 0.033576, -0.128533, 0.034601, -0.148119, -0.071158, -0.04558, 0.016886, 0.219764, 1.65006, 0.00934, 0.34311, -0.078945, 0.035841, 0.01012, -0.108218, 0.110763, -0.005519, 0.162644, -0.071187, 0.097354, -0.131055, 0.012917, -0.683907, -0.002312, 0.113978, 0.048687, -0.259304, 0.111409, -0.069536, 0.061143, 0.281865, -0.010904, 0.0404, 0.389868, -0.000451, 0.118547, 0.281215, -0.097112, 0.119002, 0.324199, -0.196872, 0.023188], [-0.266048, -0.042328, 1.00464, -1.39983, -0.766205, 1.05837, -4.65304, 0.275713, -1.17291, -0.535357, -0.550926, -1.9688, -3.15261, -1.53888, 0.026207, 0.141781, 0.04003, 1.22036, 0.397298, 1.54078, 1.30876, -1.30802, 1.31308, -0.650692, -0.57447, -0.061194, 1.13414, 0.14558, -0.305928, 0.002254, 0.789189, -0.681167, -2.01996, 0.044134, -1.27876, 0.959116, -0.045145, -1.9198, 0.166347, -0.010499, -0.045024, -0.804696, -0.00736, -0.549517, 0.706372, 0.055693, -0.63612, -0.009876, -0.797054, -1.16324], [0.250964, -0.555669, 0.177012, -0.76166, -0.769682, 0.570951, -2.68075, -0.406307, -0.619823, -0.489767, -0.252491, 0.218688, -1.85213, -0.29575, -0.039942, 0.124, -0.108984, 0.905091, 0.064653, -0.129872, -0.502949, -0.138749, 1.12661, -0.413299, 0.114552, -0.295426, -0.170918, 1.95667, 0.242174, -0.020144, 0.290891, -0.391908, 0.152675, -0.042591, 0.51968, -0.156568, 0.367034, -0.236459, 0.537834, 0.007859, -0.011417, -1.30836, 0.042916, -0.531396, -0.347347, -0.815238, -1.45274, -0.245754, -0.224125, -0.768497], [-0.802805, 1.48263, -0.674935, -0.197191, 1.77956, -0.530475, 0.64754, 0.145061, -0.526682, -0.292969, 0.678309, -0.656647, -0.647586, 1.7523, -0.053947, 0.195879, 0.058076, -1.2891, 0.046258, 0.592184, -2.2611, -1.24549, -2.02514, -0.731989, -0.627536, -0.390748, -1.75217, -0.793503, -0.607129, -0.001692, 0.007109, -0.759662, 0.011408, -0.014774, 1.06664, 0.248863, 0.279988, -0.204782, -0.377864, 0.027844, 0.012946, 0.572457, 0.022853, 1.75693, -1.7654, -0.458404, 0.157476, 0.032616, -4.59331, -0.295189], [-0.756571, 0.313248, 0.4031, -0.596908, 0.282813, 0.566735, 0.309084, -0.33482, -1.1116, -0.426461, 0.389, -0.65305, 1.41457, 0.013694, -0.0179, 0.247697, -0.113092, -0.256411, 1.23318, 1.37015, 0.679455, 0.020478, -1.04404, -0.928838, 0.566951, -0.233078, 0.102716, 0.685018, -0.575565, 0.008761, -2.05915, 0.385165, 0.00575, 0.01536, -0.194744, 0.163998, 0.322696, -0.279269, -0.408557, -0.006108, 0.010376, 0.24107, -0.010037, 0.191098, 1.09344, -1.03151, 0.10636, -0.295535, -0.54008, -0.587804], [0.033867, -0.009712, 0.011668, -0.017934, -0.009121, -0.015386, -0.006727, -0.011223, -0.037893, -0.044076, -0.00428, -0.031234, 0.021118, 0.046413, 0.017057, -0.044277, -0.029576, 0.017834, 0.000113, -0.011687, -0.002646, -0.057767, -0.040329, 0.018046, 0.001835, -0.03758, -0.051206, -0.033675, 0.023495, -0.001623, -0.006532, -0.028369, 0.039442, -0.034937, 0.023555, 0.04123, 0.014053, -0.032608, -0.0305, -0.013296, 0.03962, 0.018785, 0.015844, 0.013041, -0.0333, -0.012381, 0.047543, 0.022665, 0.014667, -0.013282], [-0.181854, -0.542408, -0.490994, 1.24237, -0.563558, -0.45442, -0.726436, -0.865935, -0.505933, -0.248705, 0.042442, -1.70852, 1.97204, 2.11083, 0.037579, 0.372497, 0.27782, -0.543363, -0.197963, -0.603618, 0.078747, -0.432204, -0.006878, 1.02806, 2.64101, 0.640212, -1.23171, 0.81408, 1.19111, -0.017761, -4.81567, 0.479886, 0.317844, -0.045779, 0.233998, 0.183416, -0.11111, -1.25407, -0.477696, -0.015954, -0.017118, -0.304796, -0.02365, -1.61292, -3.04111, -2.09027, 1.69314, -0.144693, -5.29082, -0.602984], [0.303452, 0.931099, -0.066411, 0.058653, 0.074908, -0.180994, 1.57877, 0.327333, -0.684752, 0.112195, -0.453775, 1.21286, 0.263857, -0.383562, -0.013283, 0.287455, -0.789389, -0.168104, 0.159943, 0.006819, -0.511045, 0.016752, 0.222872, 0.004053, -0.024127, -0.697853, 0.167491, -0.061547, 0.039499, -0.050054, -0.890793, -0.268635, 0.063487, -0.009188, -0.69256, -0.32717, -0.075906, 0.169224, -0.170148, 0.027987, -0.009649, -0.730506, -0.036771, -0.495458, -0.21304, 0.03144, -0.506791, -0.359322, 0.268927, 0.949013], [-0.017916, -0.041306, -0.004227, -0.002075, 0.038558, 0.040913, -0.047702, 0.003241, 0.017764, -0.055734, -0.062285, 0.017424, -0.055808, -0.044204, 0.002162, 0.017204, 0.012577, 0.005869, -0.034925, -0.051757, 0.016025, -0.010573, -0.056301, -0.049683, 0.00409, -0.047829, -0.062543, -0.045649, -0.021885, -0.003141, -0.02206, 0.001078, 0.014096, -0.023021, -4.9e-05, -0.046741, -0.023169, -0.043107, -0.030067, 0.040437, -0.002268, 0.036485, -0.004636, -0.045696, 0.028052, -0.022537, 0.000684, 0.02129, -0.021498, -0.006522], [0.559454, -0.626179, -0.217704, 0.154544, 0.383133, 0.101161, -0.972661, -0.321428, 0.24318, 0.517432, -0.317205, -0.65235, -0.40045, -0.408909, -0.048723, 0.182891, -0.322161, -0.176849, 0.551831, 0.31573, 0.175418, 0.345544, 0.221048, -0.580259, -0.17138, 0.09862, -0.279257, -0.225239, 0.46919, 0.014104, 0.04357, -0.26388, 0.102588, -0.039208, 0.322052, -0.132685, 0.443515, -0.752375, 0.26313, 0.009623, -0.042535, -0.170701, 0.024153, 0.375853, -0.087185, 0.219245, 0.141851, -0.187451, 0.388115, -0.040074], [-0.571713, 0.530683, -0.395206, -0.179096, 0.12815, -0.823172, 1.40126, -0.365121, 0.867578, 0.244509, -0.422863, 0.377277, -0.694851, 1.63584, 0.001523, -0.223773, -0.261654, 1.26364, 0.471543, -0.502394, 0.323457, 0.01798, 0.587146, -1.28003, 1.08196, 0.50255, 0.787781, 0.34528, -1.09806, 0.002828, -0.842469, -0.162292, -0.846499, 0.018772, 1.11559, -1.26868, -0.378941, 0.604247, -0.210684, 0.006143, 0.044705, -0.228173, 0.033636, -0.931697, 0.815243, -3.33756, 1.06037, 0.208069, -0.379835, 0.333823], [-0.557808, 0.067831, 0.00172, 0.187256, 0.239822, -0.163446, -0.116475, -0.153509, -0.097411, -0.653581, -0.154459, -0.065419, 0.342216, -1.20104, -0.00367, -0.048232, 0.170434, -0.364413, 0.611655, -0.024742, -0.657023, 0.593296, -0.345816, -0.841516, 0.015803, 0.364315, -0.20748, -0.498288, -0.014843, 0.024407, -0.078889, -0.222382, -0.150924, -0.043801, -0.059605, -0.477858, -0.054592, -1.62282, 0.595434, -0.020083, -0.042672, -1.8796, -0.000869, -0.03356, -0.215349, -0.363967, 0.715176, -0.268497, -0.018428, 0.586616], [0.084178, -0.044685, -0.282569, 0.060777, -0.101636, -0.248965, -0.554159, 0.023418, 0.416227, -0.352518, -0.240669, 0.103925, -0.553731, -0.266382, 0.03558, 0.921687, -0.657395, 0.181547, 0.010129, 0.131938, 0.208631, -0.000773, -0.226331, -0.037215, 0.151084, 0.777904, -0.316197, -0.263702, 0.353471, 0.026472, -0.426646, 0.310844, -0.359073, -0.028923, -0.06887, 0.111118, 0.221202, -0.180049, 0.388335, -0.035051, -0.038456, -0.007645, -0.030312, -0.031572, -0.016657, -0.106572, 0.070417, 0.206369, -0.4208, 9.3e-05], [-0.705171, 0.675163, 0.41263, -0.346017, 0.943934, -0.07979, 0.335772, 0.034044, -1.28862, -0.773677, -0.213651, 0.388528, -0.597139, 0.756241, -0.033857, 0.802088, 0.153251, 0.116385, 0.926133, 0.532672, 0.537184, -0.236213, 0.005845, -0.197072, 0.120641, 0.463194, -0.58949, 0.014849, -0.329854, 0.005668, 0.649076, -0.174636, 0.691255, -0.038469, 0.772418, -0.334735, 0.284774, 0.939624, -0.051043, 0.052136, -0.018265, -0.893179, -0.017925, -1.0645, 0.242483, 0.026895, -0.448929, -0.243206, 0.056876, 0.164905], [0.091646, -0.185277, -0.836511, -0.169148, 0.034966, 0.269732, -3.71424, 0.226668, -0.737905, -0.347713, -0.562627, -1.14854, -0.945364, -0.365485, -0.038043, -0.182993, 0.192762, -0.058628, 0.138496, 0.419204, -0.026207, 0.248292, 0.801625, -1.46436, -1.3174, -0.443879, -1.88053, -0.971462, 1.39115, 0.020758, 0.025542, -0.285277, -0.750247, -0.014215, -1.31729, -0.018453, -0.279968, 0.915962, -0.3726, -0.028257, -0.021346, 0.025192, -0.020856, -0.597991, 1.84967, 1.46815, -0.430752, 0.345429, 0.584741, 1.64108], [0.389774, -0.381275, 0.303939, 0.145603, 0.239217, 0.605496, 1.13791, 0.219061, 0.123282, 0.184263, -0.218485, 0.71623, 0.895947, 0.089713, 0.008259, -0.164842, -2.54156, -0.267958, -0.439243, 0.200331, -0.515758, -0.436682, 0.443914, 0.145866, 0.104744, -0.043875, 0.408757, 0.000122, 0.109568, 0.032828, 1.98454, -0.10073, 0.05508, 0.037012, 0.112257, -0.408605, 0.165248, 0.259737, -0.077308, -0.017194, -0.045576, -0.81374, 0.038312, 0.477645, 0.145394, -0.226222, -0.088644, -0.511287, 0.073933, 0.248984], [-0.052863, -0.306454, -0.131901, 0.271514, 0.350108, -0.679725, -0.415431, -0.313619, -0.093489, -0.284174, -0.000593, 0.032507, -0.753894, 0.08285, -0.0421, -0.243793, 1.98634, -0.68278, -0.400232, 0.143532, -0.218386, 0.070053, 0.080593, -0.347699, 0.147794, 0.038317, 0.045408, -0.038094, 0.307224, -0.03582, 0.764449, 0.273067, -0.104229, -0.018562, 0.407813, 0.245256, 0.130024, 0.157579, -0.16454, -0.021928, -0.047711, -0.222459, 0.053622, -0.733929, 0.079006, 0.272738, 0.035365, 0.234336, -0.001047, -0.320836], [-0.049029, -0.219997, 0.079155, -0.398414, 0.060884, 0.681201, -2.03406, -0.309884, 0.879119, 1.22422, 0.193205, 0.452115, 0.398012, -0.005751, 0.016948, -0.281145, -0.138653, 0.190484, 0.268925, -0.635622, -0.18706, 0.399529, -0.101095, 0.230748, -0.085419, 0.236098, -0.504902, 0.524809, 0.461734, -0.007534, 0.877839, 0.275765, 1.24387, 0.052125, 0.780484, -0.252953, -0.013635, -0.149863, 0.378373, 0.038986, -0.018378, 0.220124, 0.015045, 0.038731, -0.263041, -0.421464, 0.005297, -0.115565, 0.545982, -0.780645], [-1.47054, 0.963632, 0.612572, 0.754702, -2.28017, -0.212511, 0.607383, -0.136963, 0.238461, 0.501418, -0.44541, 0.183886, -0.002543, -0.316263, -0.044075, 0.351507, -0.016035, -0.446913, 0.196269, -0.279727, 0.21296, -0.531583, -0.114264, 0.717963, -0.928551, 0.031071, -0.075348, -0.372236, -0.781466, 0.032895, -1.24904, -0.185499, -0.190804, -0.053255, -0.223834, 1.29246, -0.254669, 0.951144, -0.1824, 0.008773, 0.02295, 0.985085, -0.000704, 0.341183, -0.503468, -0.222337, -0.533671, 0.470464, 0.407592, -0.276362], [-0.19511, 0.081268, -0.852561, 1.134, -0.024714, -0.993276, 1.81007, -0.54715, 0.240478, 1.02185, 1.14609, -0.031938, 1.16877, 1.26497, -0.00178, -0.11807, 0.130205, -1.26081, -0.326091, -1.25226, 1.09207, 1.00598, -0.924673, -0.367932, 0.599892, 0.575598, -1.90549, -1.25722, -0.139794, -0.000533, -0.940556, 0.403116, -2.21551, 0.004281, 1.74461, -1.21898, 0.078565, -0.539099, -0.106412, 0.021365, -0.02009, -0.052755, 0.027305, 0.614125, -2.05578, 0.070474, 0.390583, 0.029067, 1.15277, -0.90181], [0.120715, -0.287743, 0.114391, 0.672567, -0.035816, -0.502868, -0.457353, 0.075235, 0.490981, -0.455677, 0.128521, -0.174917, 0.009554, 0.066424, 0.05611, 0.384798, 0.52961, 0.618066, 0.013366, -0.347255, 0.496252, -0.366205, 0.015455, 1.19636, -0.142211, 0.182479, 0.238382, -0.205929, -0.29263, -0.002514, 0.321266, -0.054671, 0.452934, 0.048855, 0.529353, 0.227344, 0.198533, -1.25013, 0.26278, -0.010694, 0.024123, -1.44375, -0.011567, -0.40338, -0.108065, 0.660013, -0.090426, -0.215407, 0.109195, 0.212647], [-0.357578, -0.515126, -1.38428, -2.34865, -0.552943, -2.02731, -9.74343, -0.438244, -0.714488, -0.185295, -0.912403, -2.15592, -3.68296, -1.71093, -0.023292, -0.069935, 0.228558, 2.71434, 0.331612, 1.95071, -1.12975, -0.992908, 0.620053, -0.14158, -1.44573, -0.165653, 0.458748, -1.63046, -0.207578, -0.035935, -0.121497, -0.580182, -3.05687, 0.042399, -1.51359, 1.75889, 0.404998, -1.31408, -0.25669, -0.023038, 0.023725, 0.598017, 0.032512, -0.202809, 2.18485, 0.683686, 0.033183, 0.289968, -1.94302, 0.352173], [0.135721, -0.015136, -0.016251, 0.107836, -0.368932, 0.096291, 1.05756, 0.141611, 0.511719, 0.301161, 0.070417, 0.112545, -0.81447, 0.218845, 0.016926, -0.094609, -0.42912, -0.173331, 0.268745, -0.10392, 0.809081, -0.330814, -0.130192, -0.535836, 0.007092, -0.369642, -0.017221, -0.308576, -0.102938, 0.015092, -0.550958, -0.110568, 0.211973, 0.008564, -0.276614, -0.331356, -0.382441, -0.636281, 0.112637, -0.025079, 0.025221, -0.315593, 0.01393, 0.726043, -0.764084, -0.536884, 0.441247, -0.042998, 0.300475, -0.097137], [-0.86492, -0.511165, -0.257873, 0.109358, 0.096113, 0.355043, 1.47041, 0.765762, -0.820305, 0.442784, -0.095923, 1.0429, 0.374627, 0.169622, 0.019578, 0.885518, 1.84498, -0.458585, -0.494225, 0.111617, 0.136168, -0.381719, -0.053717, -0.080492, 0.208749, -0.638667, 0.39259, -0.220175, 0.430127, -0.010214, 0.628764, -0.387078, 0.963855, -0.036827, -0.526625, -0.253735, 0.30554, -0.255811, 0.326224, 0.013312, 0.033239, -0.624035, -0.000263, -0.454245, -0.227212, -0.116813, 0.154792, 0.002243, 0.32186, 0.186377], [-1.00307, 0.047118, 0.571921, -0.531732, -0.203926, 0.552261, -2.17122, -0.394233, 0.618556, 0.519974, 0.586892, -0.923532, 0.026619, -0.720824, 0.002709, -0.384936, 0.046651, -0.033371, 0.217868, 0.357169, 0.493692, 0.313715, -0.084262, -0.640864, -0.08625, 0.164865, -0.930277, -0.035224, 0.211138, -0.013563, 1.11933, 0.068321, -0.653447, 0.058212, 0.83143, -0.522729, -0.022415, 0.278731, 0.053035, -0.021296, -0.011378, 0.017917, 0.046989, 0.324194, 0.294542, 0.284807, -0.156878, 0.367455, 0.142697, -0.604962], [0.22644, -0.090432, 0.886738, 0.035159, -0.289789, 0.413533, -0.222911, -0.185895, 0.519306, 0.412087, 0.591881, -0.203274, 0.158284, -1.04557, -0.022196, -0.324737, -0.00774, -0.582513, 0.038575, 0.304626, 0.169665, -0.75663, 1.02388, 1.50999, 0.040997, 0.075636, 0.879208, -0.356987, -0.147378, 0.007238, -0.176165, -0.030161, -0.797343, -0.032217, -0.44071, 0.281489, -0.225937, -0.547609, -0.29055, -0.034064, 0.022367, 0.523313, 0.003567, 0.144708, -0.006846, 0.486161, 0.544682, 0.149351, -0.386611, -0.985144], [-0.268145, -1.94089, 0.035333, 0.56383, 0.30404, -0.71072, -0.188645, -0.010534, -0.124901, -0.123167, -0.583323, 0.604317, 0.863847, -0.351731, -0.046626, 0.137612, 0.718567, -3.00266, 0.627868, -0.0515, -1.21972, 0.362938, 0.940186, -0.494756, -0.140818, -0.107889, 0.442926, -0.15044, 1.19233, -0.034242, -0.899818, 0.356063, 0.371355, -0.010505, -1.68974, 0.637294, -0.07695, -0.136662, 0.399371, 0.038817, -0.002134, -0.302977, 0.026766, -0.401412, 1.05122, -0.326452, -0.461113, -0.825416, -0.384433, 0.244144], [0.490668, 0.382516, -2.93534, 2.78153, 1.24962, -2.21681, -0.854806, 1.13523, 0.599965, 0.119533, -0.37185, 0.603191, -3.35489, 1.23598, 0.035573, -0.193755, -0.632642, -0.350133, 0.579387, -0.709955, -0.388391, 0.417001, -0.154858, 0.032789, -0.566332, 0.152183, -1.94217, -0.968343, 0.975692, -0.049414, -1.90206, 0.335959, 1.26452, -0.022501, 0.243931, -1.6619, -0.231043, -2.32306, -0.137238, -0.022384, 0.041125, -2.97229, -0.028569, 1.1383, -0.770011, 0.084787, 0.178268, 0.14395, 1.47625, -0.592688], [0.058453, -0.888157, -0.193419, 0.081245, -0.00721, -0.247585, 0.575955, 0.334981, 0.080182, -0.24171, 0.337505, -0.693752, 0.966488, 0.972776, 0.034653, -0.051807, 0.091737, -0.054591, -0.301646, -0.10456, -0.476203, -0.146586, -0.387853, -0.153661, -0.596924, -0.358779, 0.425187, 0.121614, -0.480564, 0.005117, 0.946053, -0.278129, -0.21071, -0.021591, 0.386128, -0.519108, -0.026934, 0.000437, 0.266409, 0.032628, -0.012204, -0.568981, -0.030281, -0.208351, -0.55319, 0.331885, 0.260953, -0.106699, 0.421309, -0.22507], [0.175332, 0.321992, 0.143034, -0.382746, -0.302504, 1.37643, -0.844433, 0.314413, -0.131659, 0.211789, 0.155281, -0.026089, 0.604225, 0.696594, 0.002996, -0.195721, 0.090723, 0.075491, 0.585107, -0.537633, -0.5506, -0.53116, 0.296816, -0.433183, -0.292992, 0.066608, 0.184971, 0.949025, -0.271058, 0.019782, 1.06162, 0.575556, 0.042184, 0.048999, -0.590224, -0.073304, 0.503952, -0.399285, 0.668322, -0.052254, -0.004556, -0.309854, -0.039839, 0.24738, -4.8087, 0.221364, 0.133494, -0.260117, 0.057489, -0.057015], [0.28964, -0.097092, 0.299772, 0.081065, -0.008617, -0.262558, -0.522529, -0.577434, -0.034056, 0.550448, -0.088801, 0.483941, -0.867677, 0.327446, -0.00283, -0.560322, 0.215268, -0.113121, -0.030757, 0.04544, -0.657679, 0.417401, 0.53315, -0.702836, 0.43722, 0.019604, 0.236343, -1.08238, -0.50386, 0.0264, -5.35881, 0.389919, 0.746934, 0.039267, 0.034857, 0.491793, 0.749347, -0.139594, -0.97171, -0.037657, -0.002468, 0.780254, 0.014982, 0.547871, -0.067906, -0.240883, 0.148232, -0.00048, -0.097559, 0.196333], [-0.486675, 0.332302, -0.198582, -0.763577, -0.121596, 0.324411, -0.374218, 0.194525, 0.248861, -0.125887, 0.369541, -0.266559, 0.238129, -0.881789, -0.009419, 0.219647, 0.021977, -0.31768, 0.001975, 0.644701, -0.256452, -0.691747, -0.385683, -0.325128, 0.00399, -0.888241, -0.198196, 0.334602, 0.160104, -0.019297, -2.1707, 0.195269, -0.665863, -0.04511, -0.28994, 0.064489, -0.079849, 0.061214, -0.152933, -0.017538, 0.024232, 0.652437, 0.007538, -0.372202, 0.15344, -0.218076, -0.161577, -0.027683, -0.685578, 0.134702], [-0.49824, 0.44153, 0.092688, -0.503152, -0.506546, 0.527066, -0.25836, -0.321739, 1.04384, 0.123645, -0.311376, -0.289964, 0.268291, -0.286811, -0.010161, -0.085482, 0.07328, 0.282363, 0.363324, -0.008542, -0.676011, -0.12322, 1.0239, -0.538747, -0.875789, -0.815631, -0.544574, -0.473825, 0.70447, -0.030967, -1.58871, -0.739848, -0.397659, -0.011829, 0.209878, -0.224197, -0.448009, -0.879449, 1.03164, 0.034118, -0.025628, 0.118135, -0.042957, 1.1145, -0.063219, -0.697055, -0.011121, -0.263181, 0.837807, 0.21039], [-0.043893, -0.01749, 0.401449, -0.261307, -0.07767, 0.958063, -0.604375, 0.105223, -0.649644, 0.261866, -0.895386, -0.660974, -0.401649, -0.100672, 0.003317, -0.389985, -1.48184, 0.426623, 0.458463, 0.600996, -0.12949, 0.095482, 0.930456, -0.338784, -0.079065, 0.397037, -0.318159, 1.42298, 0.259262, -0.041294, 1.40862, -0.488969, -0.143007, 0.005826, -0.571984, 0.18866, -0.190546, -0.1524, -0.443112, 0.011958, 0.025281, 0.081888, -0.048682, 0.310279, 0.550778, -0.251591, 0.174784, -0.4635, -0.148531, 0.20773], [0.221868, 0.134316, -0.255801, 0.620174, 1.40596, -0.073008, 2.16965, 0.291177, -0.71299, -0.091748, 0.676208, 1.08951, 0.855038, 0.350793, 0.043788, -0.60223, 0.520373, -0.474155, -0.447745, -0.222496, -0.208715, 0.298452, 0.170455, 0.659422, 0.469594, 0.283709, -0.635643, -0.271349, 0.661882, 0.036514, -0.097189, -0.767513, -0.6171, -0.022097, 0.600587, -0.088401, 0.142986, -1.28834, -0.11136, -0.011064, -0.013451, -0.63168, -0.037525, 0.058108, -3.5053, 0.448901, 0.69344, 0.29898, 0.630414, 0.207525], [-0.093656, 0.006718, 0.285298, 0.268752, -0.954504, -0.459479, -1.07675, 0.445925, -0.051138, 0.092803, -2.21036, -0.039933, 0.735129, 0.154752, -0.045903, -0.874986, 0.340791, 5.64821, 1.16196, -0.183654, -0.063112, -0.332572, 0.289152, -0.381805, -0.558516, 0.319012, 0.447133, -0.303093, -0.35885, 0.03327, 1.38971, 0.281183, 0.270117, -0.018938, -0.746955, 0.283644, 0.066597, 0.760958, -0.242017, -0.043632, 0.043824, -0.636888, 0.032517, 0.387117, 1.21358, 1.32409, -0.304395, -0.580672, -1.04242, -0.680811], [1.00585, -0.07496, 0.307618, -0.227505, -0.011822, 1.04998, -1.8607, -0.080587, 0.258007, 0.235771, 0.278078, -1.06718, 0.33007, 0.258399, 0.015607, 0.558628, 0.244358, 0.421719, 0.216052, 0.154526, -0.139732, -0.325097, 0.216859, -0.561218, -0.312828, 0.051185, -0.570094, -0.235881, -0.193009, 0.022272, 0.550113, -0.002856, 0.04408, 0.011628, 0.159351, 0.025445, 0.387709, 0.172539, 0.647671, -0.034259, 0.031773, 0.293732, -0.019671, -0.330604, 0.254826, 0.410135, 0.289517, -0.450566, 0.191777, -0.351906], [0.321579, 0.04347, -0.326064, -0.013204, 0.060899, -1.71526, -1.05824, -0.334002, 0.0592, 0.103599, -0.008251, -0.052552, 0.207723, 0.388784, 0.001956, 0.027982, 0.040406, -0.152107, 0.33937, -0.19168, 0.30409, -0.507135, -0.026248, 0.31895, 0.068815, 0.572039, -0.429165, -0.089022, 0.100795, 0.055565, -0.840889, -0.030085, -0.35731, -0.01781, 0.536556, -0.22297, -0.700215, -0.264888, 0.231314, -0.002009, -0.001041, 0.37904, -0.007407, 0.521311, -0.170293, -0.577852, -0.348454, -0.399568, 0.947714, 0.076951], [0.033946, 0.014416, -0.021232, -0.042479, 0.013423, -0.024432, -0.021772, -0.015608, -0.024665, -0.037888, 0.014774, -0.009685, 0.045372, -0.028381, -0.044444, -0.032278, 0.03631, -0.02261, 0.039066, -0.044387, -0.01204, 0.016076, -0.023076, 0.045959, -0.010683, 0.028229, -0.048854, 0.040378, -0.047791, -0.016697, 0.002611, -0.054607, -0.044499, 0.012573, -0.013711, -0.004711, -0.022603, 0.034956, -0.018391, 0.006391, 0.008252, 0.015943, 0.01329, -0.006541, -0.017547, 0.012032, -0.007493, -0.00154, -0.041673, -0.002733], [0.168063, -0.212846, 0.460143, 0.095641, -0.311957, 1.2006, 0.770314, 0.060289, -0.113343, -0.070814, -0.008587, -0.271331, 0.228654, -0.279548, -0.029135, -0.256729, 0.083383, -0.548906, 0.088094, -0.076171, 1.2254, 0.047753, 0.355376, 0.695444, -0.108097, -0.283522, -0.258219, 0.391273, 0.349243, -0.010705, 1.05495, -0.064343, -0.070732, -0.029482, 0.119828, 0.151482, -0.227516, 0.434157, 0.005975, -0.048685, -0.023436, 0.515332, -0.034979, -0.275414, -0.344021, 0.187506, -0.321804, -0.230855, -0.03433, 0.536977], [0.512406, 0.077315, 0.624772, 0.170826, -0.167561, -0.187394, 2.79183, 0.065682, 0.198225, -0.088362, -0.229569, 0.774638, 0.674643, -0.166923, -0.02609, 0.349267, -0.019703, -0.107128, 0.498466, 0.125062, -0.175358, 0.076701, -0.070529, 1.21993, 0.338823, -0.333038, 1.08323, 1.49564, -0.756466, 0.004617, -0.00963, -0.444483, 0.056779, 0.029692, -0.142965, -0.036888, -0.238187, -0.096783, 0.273966, -0.022081, -0.039949, 0.173976, -0.023537, 0.6737, 0.010792, -0.815314, -0.041104, -0.312849, -0.313458, 0.20984], [0.210176, -5.55528, 0.590904, 0.660343, 0.001964, -3.28055, 0.187901, -0.191703, -0.564609, 0.735246, -0.182699, -0.284708, 0.631839, 0.582153, 0.034899, -0.275331, -0.515434, -1.07302, -1.30731, -0.083538, -1.12997, 0.161317, 0.294114, -0.250436, 0.777604, 0.880983, -0.112465, -0.028059, 0.129097, -0.003386, -2.07785, -0.398131, -0.046455, 0.03077, -0.184418, -0.2085, -0.911092, 0.441296, 0.221261, -0.030891, 0.003523, 1.00066, -0.014147, 0.260659, -0.219744, -0.809499, -0.175886, -0.115428, 0.344757, 0.256448], [0.209843, -0.192153, 0.030268, -0.051204, -0.155209, -0.824462, 0.890008, 0.217832, 0.104926, -0.234829, 0.233467, 0.378849, -0.089158, 0.443706, -0.016378, 0.439886, -0.12011, 0.337625, 0.381058, 0.104383, -0.175785, -0.181194, 0.104818, -0.066153, 0.195713, -0.51694, 0.029813, 0.028454, 0.043465, 0.0513, -1.25965, 0.01673, 0.509257, -0.008775, 0.064427, 0.515088, -0.02321, -1.33597, -0.38021, -0.010012, -0.037882, -0.361483, 0.019469, -0.968248, 0.169421, -0.148011, 0.476019, -0.43788, -0.732752, -0.717102], [-0.266948, 0.324387, 0.946156, -0.011149, 0.235948, 0.179447, 1.7562, -0.066486, -0.083897, -0.888073, -0.511366, 0.70666, -0.244368, -0.240498, 0.040439, 0.147687, 0.123021, -0.214537, -0.268253, 0.292242, -1.08725, -0.230632, 0.400257, 0.57737, -0.172656, 0.087811, 0.482196, 0.31757, -0.39179, -0.011564, -0.234965, -0.084844, 0.424594, -0.008007, -0.831977, 0.244698, 0.150981, 1.40005, 0.487863, 0.009228, -0.000178, -0.102396, -0.05429, 0.250366, 0.027954, -0.000603, -0.357074, 0.095727, -0.69127, 0.922326], [-0.61177, -0.444307, 0.195805, 0.300173, 0.201817, -0.906818, -3.00477, -0.444768, -0.014317, 0.4806, 0.576523, 0.096668, 0.084501, -1.56751, 0.02414, -0.233992, -0.476674, -0.050828, -5.32478, -1.4184, 0.467719, 0.204601, 1.31582, -0.895867, 1.82225, -0.120369, 0.289008, 1.01447, -0.261902, 0.011797, -0.351261, -0.038244, -0.738268, -0.052913, -1.21259, -0.422262, -0.108371, -1.20037, 0.214275, -0.005253, -0.034202, 0.016494, 0.034089, 1.26125, 2.51637, -0.070633, -1.62072, 0.034876, -0.911049, -0.45394], [0.716541, 0.427705, 0.466926, 0.4655, -0.868532, 0.816038, 0.259701, -0.02124, 0.261093, 0.529184, 0.145677, 0.480283, -0.316237, -0.056411, -0.0217, -0.300845, -0.407385, -0.209452, 0.089754, -0.461687, -2.16361, -0.445367, 0.331588, -1.17858, 0.769613, -0.289058, -0.224453, -0.405847, -0.785122, 0.037834, 2.98135, 0.051232, 0.315437, -0.030152, 0.323723, -0.248113, -0.524986, -1.8071, 0.3673, 0.004841, -0.017432, -0.002031, 0.01933, 0.024508, -0.947897, -0.424395, -0.548283, 0.438067, -0.663215, -0.650532], [-0.108386, 0.480612, -0.122207, 0.514458, 0.131142, -0.346595, -0.837944, -0.356906, 0.032784, -0.230111, 0.228271, 0.185299, -0.269997, 0.406377, -0.038769, -0.039204, 0.026342, -0.571714, -0.602616, -0.091784, 0.530185, 0.258338, 0.051796, -0.256824, 0.478956, -0.335809, -0.192023, 0.152078, 0.152009, -0.02355, 0.132088, -0.396872, -0.256097, -0.024193, 0.761292, 0.032589, -0.037853, 0.166921, 0.182703, 0.041216, 0.004467, 0.495443, 0.046892, 0.053838, -0.078654, 0.194824, -0.10142, -0.135853, 0.430369, -0.202087], [-0.380665, -0.848026, 0.515084, 0.324226, -0.174322, 0.73572, 0.01671, -0.371415, 0.053751, 0.240228, -0.258314, -0.203131, -0.269132, -0.229022, 0.027855, 0.28131, 0.593945, -0.643746, -0.377571, 0.071891, -0.037284, -0.461218, -0.162923, -0.096874, -0.325418, -0.019537, 0.084905, -0.18741, 0.019948, -0.035436, 0.931286, 0.176678, -0.336003, -0.02746, 0.10038, 0.163229, 0.423599, -0.099536, 0.087152, 0.036173, -0.017608, -0.59781, -0.013452, -0.011208, 0.179605, 0.431317, -0.165262, -0.613139, 0.413956, 0.177494], [0.033301, 0.238641, -0.127637, -0.431311, -0.167445, 0.097824, -2.32226, -0.13565, 0.01539, 0.084734, 0.325839, -0.27182, -0.703126, -0.243283, 0.010777, -0.03826, -0.514921, 0.682558, -0.150764, 0.058899, 0.478626, -0.043931, -0.408543, -0.147532, -0.160075, 0.388039, 0.256174, -0.305518, -0.134941, -0.044842, 0.969951, -0.081114, 0.087843, 0.007019, 0.281717, -0.044323, 0.021842, -0.376739, 0.659859, -0.031634, -0.025355, 0.181226, 0.018911, 0.118158, 0.390207, 0.293145, 0.078342, 0.311199, -0.14955, -0.031542]], [[-0.175117, 0.967964, -0.051813, -0.228062, -0.001894, 0.118713, 0.000671, 0.150873, 0.292727, 0.028658, -0.015, -0.14336, 0.492504, -0.286397, -0.207117, 0.455274, 0.103707, 0.054131, 0.140193, 0.486619, 0.185761, 0.090984, -0.086155, -0.555063, -0.193822, -0.420526, 0.349189, -0.313292, -0.197863, -2.37322, -0.841339, 0.199091, 0.209878, -0.029265, 0.08827, 0.665318, 0.115107, -0.33157, 0.124697, 0.041078, 0.070398, 0.075456, 0.113278, 0.044148, -0.283528, 0.454486, -0.302735, 0.007844, -0.136715, 0.387053], [-0.11483, 0.151416, -0.216471, 0.09341, -0.172225, -0.154481, -0.005077, 0.05511, -0.077767, 0.021941, 0.663246, -0.156376, 0.107275, 0.401427, 0.196051, -0.03328, -0.026982, 0.230048, -0.204967, 0.026632, -0.059517, -0.265258, -0.008677, -0.118946, 0.254942, -0.095947, 0.081108, 0.128004, -0.074094, -0.210517, -0.034189, 0.193329, -0.225441, 0.229744, -0.171632, 0.121183, -0.012646, 0.408565, 0.006938, -0.044304, -0.27186, 0.177348, 0.036474, 0.150135, 0.034182, 0.113607, 0.040926, 0.033065, -0.019033, 0.234602], [-1.09148, -2.99414, -1.85869, -2.56168, -4.01594, 0.444427, -0.013698, -2.20783, 0.193382, -0.010859, -0.205635, 0.790629, 1.1733, 0.575156, 1.34656, 0.571276, 2.03679, -1.05962, 0.757589, -1.9697, 0.644804, 0.159835, 2.40644, -1.31198, 0.519132, -0.322103, 3.50517, 0.006938, 1.26197, -5.87087, 0.414524, -1.69957, -1.07322, 0.191529, -0.870184, -2.66734, -0.191637, -0.722738, -1.37035, -0.016611, 1.45946, -0.647413, -1.67064, -1.51284, -2.09066, 4.6371, -7.01176, -1.55171, -5.14056, -4.78378], [0.464741, -1.5652, 0.239769, 0.00543, -0.343635, 0.262559, 0.008337, 0.769772, 0.288908, 0.032016, 0.669956, -2.02698, 1.09565, 0.098507, -0.347399, -0.042823, -0.466139, 0.185736, 0.212165, 0.062967, 0.197007, -0.022436, -0.134553, 0.631278, -0.272967, -0.387625, 0.560612, -1.56097, -0.087085, -0.883154, -0.418726, -0.128327, 0.184541, -0.236749, -0.287849, -0.314121, -1.87797, 0.028994, 0.220184, -0.010737, 0.556651, 0.035855, -1.42124, -0.321741, 0.013671, 0.23093, -0.141667, 0.19449, 0.429722, -0.331684], [0.269327, -1.33547, 0.364051, 0.286994, 0.117654, 0.062172, 0.024712, 0.277322, 0.207679, 0.023392, 0.449215, -0.21405, -0.003613, -0.554613, -0.014357, 0.497168, 0.6211, -0.511248, 0.434542, -0.042399, 0.603238, -0.229765, 0.298159, -0.144421, 0.055805, -0.272193, -0.149121, 0.091256, 0.273264, -0.427296, 0.020731, -0.001403, -0.037169, 0.003167, -0.038782, -0.714269, 0.063866, -0.279307, -0.30798, 0.044512, -0.190218, 0.314217, -0.090787, 0.025518, 0.272111, 0.074674, 0.20937, -0.202696, -0.163271, -0.248929], [-0.036401, -0.52079, -0.013363, -0.191921, -0.039716, -0.362078, -0.002984, -0.272439, 0.250697, -0.044796, 0.312234, 0.056323, 0.567351, 0.257793, 0.030824, -0.291391, -0.029427, -0.107275, -0.102648, 0.125472, -0.286445, -0.044217, -0.272171, 0.166589, -0.245049, 0.004669, -0.215489, -0.129004, -0.065235, 0.284278, 0.241945, -0.012014, 0.161566, -0.003535, 0.581718, 0.373907, -0.182214, 0.201021, 0.144515, 0.002246, 0.214741, -0.312574, 0.202793, 0.17543, -0.213159, 0.188466, -0.065907, 0.166171, -0.249559, 0.200018], [0.011055, -0.043125, -0.043129, -0.009424, -0.026267, 0.011973, -0.015552, 0.015982, 0.020761, -0.045139, -0.064345, -0.003274, -0.022856, -0.016086, -0.014789, -0.04757, 0.009133, -0.027822, -0.037651, -0.04562, -0.015013, -0.020386, -0.051137, -0.050411, -0.027983, -0.000147, 0.035213, -0.017589, 0.025627, 0.022114, -0.026706, -0.002158, 0.006701, -0.030819, 0.032958, 0.026424, -0.015282, 0.004839, -0.052915, 0.021726, -0.046502, -0.034129, -0.007252, -0.040293, 0.019314, 0.045487, 0.039678, 0.01443, 0.007565, -0.042265], [-0.526834, 0.420875, -0.771317, -0.029756, -0.10375, 0.125733, -0.052869, -0.110641, 0.468702, -0.017797, 0.540736, 0.261011, 0.987874, -0.191375, 0.38189, 0.095208, -0.316942, -0.277844, -0.81337, 0.16438, 0.06128, 0.226044, 0.259907, 0.510163, -0.108683, 0.369499, 0.585126, -0.22001, 0.024835, 0.333992, -0.226908, -0.123905, -0.134044, 0.316925, 0.798313, -0.117415, -0.024311, -0.077326, 0.172651, 0.044428, -0.189348, -0.672147, -0.519307, 0.591936, -0.423975, 1.28674, 0.926053, 0.552219, 0.657328, -0.049387], [0.655249, 0.418072, 1.20019, -0.075108, 0.769475, -1.03909, -0.004347, -1.78593, -0.339397, -0.023643, -0.668525, 0.47139, 1.27831, 0.351131, -0.249449, -1.37869, 0.341014, -0.176409, -0.9987, -0.474207, -0.969118, -0.704615, -0.864083, -0.986591, 0.016356, 0.233064, -1.09044, 0.696222, -0.083189, -1.56091, 0.650632, 0.696272, -0.139349, -0.220915, 0.43181, 0.355625, -0.359656, 0.319359, -0.111829, 0.002049, 0.653711, 0.628286, 1.74977, 0.893463, -1.97721, -0.026818, -0.551767, 0.014, 0.291018, -0.01084], [-0.386339, 0.267363, -1.1248, -0.226759, 0.56605, 0.06099, -0.018532, -2.26175, 1.80561, 0.058332, -0.353461, 0.501204, 1.39966, 0.043801, -0.500745, -1.75048, -0.125729, 0.461353, -2.33411, 0.627391, -3.112, 0.257261, -1.48602, 0.760566, -0.563575, 0.964311, -0.330587, 0.701841, -0.471692, 2.04878, -5.48648, 0.470656, -0.3156, 0.168216, 0.57521, 2.55628, -0.183112, 1.01498, 0.471356, 0.042648, 0.290141, -1.89759, 0.304831, -0.221179, -1.48369, 1.1817, 0.992422, 0.467304, -0.193611, 0.181264], [-0.007628, 0.202061, -0.528429, 0.110077, 1.38087, -0.500929, 0.010497, -1.9723, 0.633773, 0.011011, -0.639751, -1.27968, 1.62346, 0.367541, -0.687577, -2.00362, 0.394045, 0.075665, -0.3002, -0.349272, -0.544462, 0.269675, 0.666627, -0.513565, -0.134813, 0.513764, 1.20521, 1.16844, 0.518994, -0.942804, -0.282554, -0.167396, -0.618226, -0.392756, 0.614291, 0.268602, 0.385669, 0.23456, 0.560398, -0.040886, -0.066185, 0.067591, 0.285423, 0.199806, -0.370265, 1.87418, 0.029281, 1.30828, 0.291949, -0.89548], [0.790754, -2.51887, 0.112582, 0.57984, -0.789672, 0.155696, 0.025812, -0.010115, -0.702556, -0.0087, -1.97021, 0.575539, 1.83464, -0.194283, -2.06397, 0.26253, 0.350299, -0.773841, 0.355538, 0.164418, -0.060096, -0.168603, 0.258487, 1.26617, 0.497083, 0.463401, -0.533733, -0.309261, 0.339126, -0.518681, 0.084906, -0.644364, -0.71115, -0.137928, -1.38907, 0.008445, 0.525519, 0.504218, 0.258101, -0.052847, 1.24775, -0.608221, 1.16263, -0.837178, 0.141503, -0.085522, -0.017076, -1.7924, -1.33428, -0.126581], [0.291417, -0.117275, 0.020084, 0.343453, 0.42398, -0.718339, -0.004196, 0.309213, -0.627933, -0.018843, 0.356611, -0.069237, 0.216629, -0.104716, 0.535751, -0.512052, 0.11074, 0.218316, -0.050982, -0.33101, 0.054692, -0.279476, 0.286912, 0.196238, -0.158014, 0.282445, 1.11715, 0.435065, -0.102236, -0.462732, -0.264598, 0.248273, -0.268926, 0.053758, -0.069511, 0.481427, 0.032775, 0.085458, -0.36238, 0.024288, 0.327348, -0.092477, 0.420772, 0.067458, -0.065347, 0.505615, 0.265087, 0.446868, -0.487474, 0.075669], [-0.299426, -3.10502, -0.151279, 0.976341, 0.230332, -0.029081, 0.003604, 0.060304, -0.440534, 0.003205, 0.72107, 0.791157, 0.780642, 0.116237, 0.064536, 0.322301, -0.110577, 0.111096, -0.351919, 0.909615, -0.205506, -0.162547, -0.054527, 0.729799, -0.031291, 0.332097, 1.00073, 1.17194, 0.151156, 0.091548, 0.451873, 0.315197, 0.716901, -0.732997, -0.068312, 0.695796, 0.467324, -0.826076, -0.099046, -0.001336, 0.053314, -0.158997, 0.201398, -0.078869, -0.323679, -0.447144, -0.461458, 0.568263, -0.482371, -0.524186], [0.288678, 0.035978, 0.164663, 0.13815, 0.142008, 0.180679, -0.019057, 0.251389, 0.189369, -0.00292, 0.300849, -0.22224, 0.123282, -1.36891, -0.087701, 0.26353, 0.924437, -0.883233, 0.283752, -0.098913, 0.383604, -0.010441, 0.317187, 0.204392, -0.390784, -0.408066, -0.196737, -0.297207, 0.121861, -0.463914, -0.281869, -0.025407, 0.066537, -0.250044, 0.571072, -0.2355, 0.042728, -0.70618, -0.294523, 0.021057, -0.260369, -0.15655, -0.378334, 0.065763, -0.122185, -0.090246, -0.079257, -0.281504, -0.121409, -0.246562], [0.039001, 0.21608, 0.022047, 0.227084, 0.125257, -1.02082, -0.047265, -0.796262, 0.639535, -0.032934, 0.718549, 0.469208, 0.200379, -0.159719, 0.335065, 0.141337, -0.276485, -0.105678, -0.292235, 0.323296, 0.289473, 0.159716, -0.065409, 0.108558, 0.006056, -0.230705, -0.06681, -0.758888, -0.150164, 0.357317, 0.760151, -1.17614, 0.254513, 0.295626, 0.046037, -0.340076, -0.001859, -0.150712, 0.179272, -0.045589, -0.075499, 0.003441, -2.20354, 0.273986, 0.178072, -0.799935, -0.652126, 0.63465, -0.226647, -0.146289], [0.7202, 0.157522, 0.312875, -0.13649, 0.562048, 0.370188, -0.018407, -0.020295, -0.22879, -0.019154, 1.02556, 0.078798, 0.099945, -1.13402, -0.467367, 0.243557, 0.360729, -0.091737, -0.106862, -1.06592, -0.196248, 0.198402, 0.083109, -1.17869, 0.294988, 0.67441, -1.42085, -1.94092, -0.43931, -0.317845, 0.778161, -0.300915, 1.11784, 0.902506, -0.490684, 0.712155, 0.425206, 0.006991, -0.905357, 0.034613, -0.243638, 0.642361, 0.415783, -1.557, -0.396055, -1.53182, 0.196815, 0.196518, -1.55621, -0.287365], [-0.04333, -0.455952, 0.311707, 0.008903, 0.027531, 0.368357, -0.040295, -0.281094, -0.359307, -0.028739, -0.337434, -0.033182, 0.761489, -0.050884, -0.031657, -0.596736, 0.150672, -0.039768, -0.470202, 0.626935, -0.311689, -0.328647, -0.60845, -1.03604, 0.186937, -0.170815, -1.236, 0.079108, -0.000822, -0.666717, 0.044845, -0.068181, -0.171642, -0.107181, -0.268796, 0.43534, -0.145849, 0.378679, -0.285842, 0.038329, -0.169564, -0.006649, 0.562456, -0.086024, -0.381889, 0.515332, -0.594414, 0.118685, -0.102681, 0.110851], [0.454434, 0.064907, -0.795108, -0.58868, -1.58957, 0.660698, 0.006929, -2.84796, 0.642534, 0.010302, 0.278555, -0.488361, -1.31958, -0.083155, 0.085485, 0.61136, -0.444081, 0.17545, -0.538814, -0.466548, -1.67601, -0.092788, 0.344064, -3.56927, -0.097669, -0.969757, 1.9353, -0.791831, -0.200116, 1.28258, 0.206616, 0.293421, 0.489106, 0.802797, -0.324363, -0.492577, 0.920609, -0.309767, -0.012816, 0.012888, 0.05821, -0.005068, -1.40857, -0.540928, 0.032616, 4.42648, -0.652739, -0.57997, 0.155047, 0.490537], [0.345459, 0.300796, -0.0994, -0.378193, 0.012632, -0.566947, 0.037091, 0.493879, -0.468443, -0.034258, 0.56252, 0.667527, 1.91228, 0.389037, -0.230012, -0.044767, -0.331664, 0.023423, 0.431251, 0.060937, -0.132491, -0.37647, 0.35744, 0.372054, -0.004685, -0.579274, 0.333055, -0.97873, -0.184193, -1.0704, -0.44911, -0.487851, -6.31903, -1.15476, 0.343353, 0.138097, 1.26524, 0.343246, -2.36752, -0.001416, 0.538228, -0.509929, 2.11007, 0.802997, -0.767871, -0.777291, -2.06342, 0.627576, -0.66943, -0.48639], [-0.689834, -0.102794, -0.444507, -0.824675, -0.158061, 0.018217, -0.057168, -0.114672, -1.32228, -0.045977, -1.94544, 0.309544, 0.112688, -0.735955, -0.713296, 0.158849, -1.27428, -0.122147, 0.049909, 0.005504, 0.032527, 0.595698, -0.073167, 0.429049, 0.164834, 0.166717, 0.304765, -0.460373, 0.048073, 0.068412, 0.296397, -0.397411, -0.011966, 0.240144, 1.49129, -0.004405, -0.218277, 0.081299, 0.669502, 0.043279, 1.22363, -0.304059, 0.749221, 0.664413, -0.891955, -0.963791, 0.292985, -0.15855, 0.538413, 0.44], [0.193501, -0.501494, -0.096762, 0.024041, -0.102399, 0.03198, -0.003737, -0.120252, -0.031507, 0.011602, 0.467041, -0.004485, 0.122829, 0.260377, 0.008649, -0.121994, 0.273818, -0.076407, -0.072223, -0.060587, -0.196553, -0.224336, -0.082584, -0.037559, -0.173521, -0.076184, -0.049362, 0.042694, -0.043513, 0.084686, -0.281027, 0.174486, 0.060408, 0.014665, -0.409456, 0.30613, 0.090449, 0.324255, -0.121608, -0.028151, -0.252613, 0.045247, 0.166141, -0.073611, -0.246016, 0.224215, -0.180836, 0.049659, 0.221808, 0.103712], [-0.11277, 0.102763, 0.468507, 0.237363, 0.079425, -0.203799, -0.011159, -0.177169, 0.049579, -0.028931, 0.241503, 0.153122, -0.023934, 0.251087, 0.103607, -0.822252, -0.152464, -0.061396, -0.516379, -0.292914, -0.24695, -0.282414, -0.456952, -0.135784, -0.031998, 0.306953, -0.151335, 0.504481, -0.169661, 0.316186, 0.081049, 0.317392, -0.192749, 0.193138, 0.423764, 0.886137, 0.004757, -0.04172, 0.023899, -0.025842, 0.636131, -0.351316, -0.162462, 0.152826, -0.264752, -0.319005, -0.624652, 0.022851, 0.17541, -0.280412], [-0.116594, 0.197215, -0.019665, 0.121394, -0.065754, -0.006539, 0.031545, -0.015777, 0.061561, -0.003424, -0.419872, 0.122248, 0.030663, 0.352528, -0.432623, -1.78726, -0.085188, 0.057747, -0.516906, -0.108096, -0.233804, -0.142476, -0.142907, 0.386618, -0.150567, 0.184458, -0.035858, 0.578338, 0.203867, -0.164507, -0.543755, -0.250989, 0.217236, -0.148481, -0.049936, -0.965867, 0.508915, 0.318834, 0.307182, 0.051264, 0.212817, 0.100255, 0.175279, 0.239638, 0.017548, -0.291539, 0.023178, 0.191191, 0.163276, 0.082139], [-0.025632, -0.045352, -0.026567, -0.042091, 0.026268, 0.004347, -0.002365, 0.006979, 0.027567, -0.031615, -0.012665, 0.005096, 0.044239, -0.035837, 0.031647, -0.046019, -0.030775, 0.016661, -0.026714, -0.013049, 0.001078, 0.001585, 0.003499, -0.042307, 0.014669, 0.029419, -0.011448, 0.035983, -0.010872, -0.011648, -0.015708, -0.00883, 0.009708, -0.054197, -0.030075, 0.036261, -0.021376, -0.021216, -0.051936, 0.015459, -0.03242, -0.038191, -0.047541, -0.006422, 0.007512, 0.011482, 0.010208, -0.038268, 0.002479, -0.052421], [-0.117277, -0.409648, -0.338554, 0.175213, 0.225312, 0.293867, -0.011087, -0.660449, -0.17698, 0.013234, 0.184787, -0.078978, -0.265478, 0.041562, 0.169667, -0.008184, -0.155593, 0.194192, -0.824503, -0.2546, -0.556967, -0.314802, -0.221568, 0.295751, 0.153973, 0.232566, -0.455583, 0.590071, 0.155229, -0.051222, -0.035181, -0.17702, -0.034342, 0.224939, 0.034123, -1.1671, 0.098351, 0.020275, -0.293677, -0.017201, -0.413906, -0.062117, -0.282761, -0.090602, 0.024246, 1.06609, 0.445048, -0.101749, 0.331029, 0.278343], [0.034862, -1.92269, 0.082373, 0.273951, 0.089562, 0.348806, -0.017628, 0.068522, 0.234431, 0.02778, 0.360367, -0.029856, -0.147462, -0.386966, -0.09215, 0.17217, 0.178275, -0.891836, -0.089102, -0.602802, 0.128975, -0.404842, 0.138319, 0.910175, -0.30169, -0.306747, -0.260075, -0.076971, -0.02098, 0.16041, 0.554598, -0.386739, -0.021463, 0.137911, -0.556151, 0.191578, 0.011627, -0.105524, -0.176515, -0.017303, -0.28703, 0.072313, -0.823245, -0.265465, 0.506854, -0.447203, 0.44982, -0.076224, -0.008008, -0.155806], [0.160876, -0.514889, 0.00202, 0.274277, 0.046672, 0.764728, -0.033532, -0.663805, -0.055059, -0.016378, 0.103346, -0.205905, -1.2295, -0.211154, 0.258127, 0.121395, -0.403717, -0.028532, -0.159161, -0.560048, 0.530616, -0.158832, 0.183143, -0.399999, 0.092918, 0.104868, -0.565122, 0.161803, 0.389649, 0.414087, 0.046338, -0.016612, -1.17575, 0.521255, -0.612191, -0.109565, 0.372235, -0.013721, 0.070542, 0.026181, -0.240581, 0.261097, 0.13665, -0.595224, 0.646986, -3.302, -0.023108, 0.194379, 0.806999, 0.482092], [-0.040927, 0.29637, -0.063405, -0.206627, -0.059705, 0.013196, 0.035771, -0.183363, 0.004628, 0.031079, -0.067346, 0.109916, 0.047179, 0.391189, 0.063214, -0.144602, 0.004184, 0.042812, 0.001546, 0.066851, -0.211479, 0.10887, -0.148973, 0.083309, -0.301446, 0.008298, 0.153559, -0.207623, -0.110174, 0.239667, -0.14314, 0.174504, 0.193318, -0.051785, 0.026275, 0.153682, -0.148413, -0.018589, 0.153472, -0.029352, 0.267484, -0.236419, 0.172185, 0.130229, -0.192868, 0.264138, -0.165955, 0.230644, 0.218643, 0.168845], [-0.05581, -0.467592, 0.174589, 0.156582, -0.029913, -0.102292, -0.021407, 0.059809, 0.328301, 0.044519, -0.100635, -0.020351, 0.313472, 0.240809, 0.157723, 0.270478, 0.161416, 0.121971, 0.388745, 0.327025, 0.47068, 0.237946, 0.157625, -0.188109, -0.014144, -0.362802, 0.062062, -0.423052, 0.201019, -0.047596, -0.063271, -0.141903, 0.319556, -0.048216, 0.527198, -0.263528, -0.062158, 0.078142, -0.225939, -0.002277, 0.045157, 0.107559, 0.042469, -0.07617, 0.416726, 0.35865, 0.077998, -0.05403, -0.362201, -0.140044], [-0.021613, -1.81509, 0.181901, 0.136454, 0.105256, -0.059931, -0.031558, 0.316947, -0.462105, -0.045125, -0.245039, 0.055913, 0.16123, -0.092884, 0.234136, 0.51549, 0.32048, -0.613609, 0.27787, 0.575193, 0.443288, 0.000396, 0.168922, -0.342831, 0.072826, -0.403249, 0.091553, 0.119397, 0.183071, -0.011388, -0.477709, -0.014997, 0.334551, -0.330562, 0.198228, -0.427125, 0.157971, -0.330851, -0.394563, 0.005724, -0.302254, 0.201099, 0.454078, -0.285784, 0.218694, 0.116883, -0.218652, -0.085472, -0.240483, -0.41766], [-0.054472, -0.064001, -0.02721, 0.030364, -0.038369, -0.043797, -0.039648, 0.008421, -0.000175, 0.004106, -0.064447, 0.032969, 0.035853, -0.025053, -0.023625, -0.00046, -0.052664, -0.015895, 0.016535, 0.021111, 0.020143, 0.025195, -0.016453, -0.049215, -0.014439, -0.06201, 0.051561, -0.057606, -0.020304, 0.025811, -0.053434, -0.011553, 0.038477, -0.008853, -0.054159, -0.006061, -0.056287, -0.019646, -0.013787, 0.024773, -0.007901, 0.002715, -0.030835, 0.014419, -0.069652, 0.040183, -0.023439, 0.015057, -0.009893, 0.01476], [-0.507121, 0.006099, 0.246067, 0.270105, -1.68085, -0.316463, -0.009398, 0.090164, -1.04438, 0.012905, 0.506529, -0.543419, 1.3098, 0.52034, -0.113853, -0.571399, -0.060104, -0.131795, -0.551242, -0.232229, -0.266624, -0.208357, -0.213964, -0.222158, 0.280923, 0.21269, -0.477788, 0.535408, 0.078988, -1.06178, 0.512107, -0.18396, -1.43595, 0.198155, -0.136811, 0.243393, -0.534616, -0.03574, -0.511506, -0.022594, -0.446771, 0.014546, 0.69851, 0.777781, -0.184154, -0.15236, 0.25526, -0.746449, 0.099074, -0.767475], [0.758773, 0.365766, 0.331929, 0.454975, -0.411079, -0.504131, 0.013389, -0.710605, 0.287757, 0.019701, -0.151995, -1.41289, -0.775792, 0.442211, 0.49179, -0.285288, 0.238904, -0.121181, -1.33655, -0.426745, -0.641167, -0.463152, -0.692674, -2.11571, -0.441858, -1.08061, 0.087216, 1.37867, -0.01667, 0.031149, -0.068303, 1.49305, 0.891482, 1.38686, 0.421082, 1.24505, -0.035122, -0.09539, -1.18184, -0.004695, 0.390871, -0.721745, 0.082133, -0.120259, -0.448866, 1.48146, -0.299026, 0.075099, 0.419685, 0.775309], [0.004308, 1.58982, 0.265375, 0.878097, 0.360944, -0.020534, 0.02408, 0.560856, -1.36507, 0.017987, 2.06885, -0.242321, 1.03064, -0.717494, 0.37372, 0.942282, -0.21303, -0.372604, 0.125579, 0.797686, 0.887358, -0.010577, 0.293589, -0.662305, 0.768663, -0.376167, 0.234201, -0.021461, -0.004014, 0.156765, 0.086476, -0.810494, 0.000721, -0.508311, -0.720389, -0.156653, 0.539729, -1.69802, -1.17766, -0.048119, -0.586107, 0.134445, -0.086529, -0.72602, 0.614196, 1.01228, -0.351236, 0.002887, -0.461566, -1.15195], [0.688686, -0.308805, -0.47778, 0.411244, 0.091219, -0.498456, 0.009487, -0.455943, -0.551585, 0.019887, -0.797084, 0.194658, 0.247847, 0.44696, -0.124077, -0.569647, 0.363477, 0.038032, -0.876636, 0.155275, -0.976581, 0.114997, -0.155864, -0.306216, -0.166862, 0.679231, 0.061343, 1.12125, 0.17297, 0.301403, 1.04228, 0.10978, -0.114591, 0.025834, 0.836644, -0.909662, -0.198935, 0.55174, 0.215489, -0.00299, -0.357439, -0.102125, -0.178822, 0.060955, -0.361235, 1.26678, -0.919875, 0.327416, 0.246565, -0.027916], [-1.10696, 0.435683, -0.590164, 0.960872, 0.394034, -0.252026, -0.017083, -0.435708, -0.085574, -0.029491, 0.875406, 0.471262, 1.06004, -0.357317, 0.469546, 0.326944, -0.050156, 0.63177, -1.34312, -0.848129, -1.1226, -0.404894, -0.277084, -1.11342, -0.609839, 0.390721, -0.265698, 0.092881, -0.460697, 0.536907, 0.167444, -0.053521, -0.087732, -0.431066, 1.14369, -1.73758, 0.885621, -0.639804, 0.927791, 0.014971, -2.91478, 0.045579, 0.352415, 0.799423, -0.057666, 0.272991, 0.012524, -0.30766, 0.333168, 0.909766], [0.012242, -2.62902, 0.3374, 0.263616, 0.126152, 0.015245, -0.001802, 0.492522, 0.193434, -0.035072, 0.607633, -0.068615, 0.060548, -0.701894, 0.203592, 0.382317, 0.649043, -0.841731, 0.381716, 0.185237, 0.59454, -0.608147, 0.272883, -0.462237, 0.195805, -0.363289, -0.051938, 0.144221, 0.249611, -0.807865, 0.000922, 0.003712, 0.027448, -0.11273, 0.571459, -0.818602, -0.01845, -0.473692, -0.286713, 0.002858, -0.240855, 0.212777, 0.26499, 0.40051, 0.277694, 0.253974, 0.371809, -0.064363, -0.156166, -0.127491], [-0.323864, 0.754139, 0.222428, 0.26365, -0.021742, -0.252991, 0.026522, -0.082395, 0.647029, 0.012291, 0.106048, -0.240226, 0.393533, -0.342837, 0.140402, 0.019159, -0.34254, 0.342649, 0.005296, 0.06336, 0.23533, 0.011049, -0.056779, -0.25237, 0.050425, -0.094136, -0.459273, -0.018697, -0.002413, -1.17201, -0.419596, 0.113709, 0.073587, 0.020252, -0.784773, 0.015505, 0.075524, -0.134578, -0.371689, 0.019506, -0.127994, 0.196849, -0.158173, 0.020929, -0.17899, -1.20746, -0.00702, 0.004335, -0.176833, 0.124559], [-0.189466, 0.53893, -0.087611, 0.257562, 0.042215, 0.067588, -0.021035, 0.195862, -0.11741, -0.048941, -0.845211, 0.281987, -0.309584, -0.042313, 0.115943, 0.533215, -0.471266, -0.977591, 0.499598, -0.012737, -0.000879, 0.096719, -0.952706, -0.634565, -0.173555, -0.357582, -0.013358, 0.760088, 0.256711, 0.614967, -0.019114, -0.183731, 0.324725, -0.215041, 0.664084, -0.540901, 0.230622, -0.686503, -0.003081, -0.023032, -0.490491, -0.786841, -0.926823, -0.082341, -0.229977, 0.931608, 1.64487, 0.464813, 1.32732, -0.66729], [-3.74963, 0.294305, 0.275174, -0.541912, 0.70058, 0.252188, -0.012712, -0.691862, 0.810244, -0.028769, 0.597492, 0.836009, -0.974874, -0.399906, 0.91138, 0.04051, 0.11022, 0.185231, 0.678555, 0.47016, 0.493731, 0.973196, 0.483817, -0.438648, -0.488026, -0.589094, 0.744465, 0.673072, 0.085802, 0.651205, -0.267177, 0.047846, 0.572976, 1.16687, -0.561524, 0.083561, 0.879394, 0.018689, -0.382597, -0.015792, -1.12432, -1.119, -0.180044, 0.860686, -0.370824, -1.10456, 0.53924, -0.081541, 0.367298, -1.06871], [-0.008383, 0.487673, 0.327118, -0.019762, 0.110552, -0.112914, -0.005074, 0.471176, 0.425169, -0.038075, 0.142675, 0.180302, -0.401761, -0.614945, -0.219262, -0.158283, 0.346054, 0.345935, 0.06461, -1.06509, -0.0224, -0.1406, -0.362535, 0.38276, -0.777411, -0.391826, -1.01048, 0.477119, -0.26308, -0.012053, -0.06587, 0.023992, -0.171149, 0.109099, 0.044681, 1.34966, -0.218434, 0.114032, -0.114834, 0.010849, -0.61205, -0.633372, 0.571383, 0.251063, -0.107085, 1.21228, 0.116272, -0.230959, 1.01759, 0.977752], [0.405928, -0.082551, 0.973156, -0.174645, 0.268386, 0.1765, -0.043392, -0.117433, -0.046392, 0.019457, -1.04293, 0.667947, -0.048693, 0.303693, -0.568309, 0.086576, -0.328838, -0.11386, 0.60097, -1.02685, 0.237465, 0.155431, -0.185828, -0.230299, 0.047816, -0.072752, -0.940402, 0.157771, 0.38279, -0.428078, -0.562277, 0.094969, 0.254486, -0.137194, -0.18667, -0.232717, -0.058745, 0.514432, -0.144239, 0.050873, 0.406376, 0.529448, -0.148914, -0.429623, -0.306796, -0.597671, -0.277096, -0.103498, 0.604642, -0.228655], [0.039388, 0.025582, -0.037625, -0.018402, -0.02672, -0.00466, 0.007812, -0.046688, -0.034032, -0.022373, -0.052476, -0.044224, -0.018067, 0.029911, 0.006475, -0.042003, 0.019194, -0.006905, -0.049333, -0.003463, -0.017581, -0.017898, -0.019373, 0.015113, -0.017451, -0.033368, 0.029551, -0.026187, 0.017944, 0.033331, 0.037977, 0.011055, -0.008259, 0.021078, -0.006553, 0.0156, 0.005376, -0.043475, -0.001467, -0.014056, 0.012976, -0.047989, -0.003514, -0.014577, -0.048909, -0.049833, 0.043383, -0.01819, -0.049767, -0.043007], [0.667693, 0.224397, 0.380219, 0.026781, -0.004461, 0.154797, -0.002741, 0.331951, 0.611296, -0.030884, 0.168259, -0.419953, 0.072512, 0.514624, -0.494157, -0.058161, 0.238274, 0.050019, 0.171513, -1.27858, 0.254729, -0.377271, -0.640489, -0.174349, -0.114296, -0.121411, 0.248749, 0.813854, 0.257843, 1.10367, 0.294485, 0.446619, -0.708059, 0.154168, 0.178282, -0.730039, -0.752183, -0.489831, 0.961749, -0.042453, 0.369329, 0.348494, -2.61079, -0.797962, -0.148983, -2.22253, 0.308239, 1.64748, 0.180844, -0.340214], [-0.331381, -0.646261, -1.71886, 0.742971, 0.212074, 0.15579, -0.030214, -0.090019, 0.544336, -0.014808, 0.245664, -0.140092, 0.178286, -1.09033, 0.745824, -0.024259, 0.804499, -0.668162, 0.053929, -2.28072, 0.079526, 0.342224, 0.004432, -0.16015, 0.299429, 0.890393, 2.36714, 0.528613, 0.033872, 1.39793, 0.001699, -0.335124, -0.393916, -0.077687, 0.023021, -0.605527, -0.09965, 0.289063, -0.152212, 0.009644, -1.60318, 0.018049, -1.236, -0.604774, 0.051586, -0.718027, -0.907294, -0.888367, -1.37789, -3.24992], [0.343861, -0.111497, -0.387445, 0.05364, -0.029676, 0.333075, -0.025762, -0.768337, 0.960557, -0.001691, 0.190837, 0.131001, -0.126265, -0.293909, -0.373634, -0.881502, -0.244667, 0.900278, 0.452789, -0.079463, -0.153708, -0.387633, -1.36373, 0.570717, -0.690349, 0.827063, 0.167917, -0.73893, -0.276416, -0.605287, 0.226397, 0.374463, -0.166922, 0.547069, -0.394112, 0.142273, 0.288453, 0.242146, -0.715709, 0.020738, -0.020268, 0.184713, 0.789478, 0.412351, -0.70904, -8.97674, -0.60155, 0.422125, -0.28599, 0.074513], [0.204417, 0.211337, 0.094126, -0.059596, -5.80577, 0.163955, -0.001296, -2.10103, 0.016086, 0.039388, 0.57467, -0.220479, -0.17062, -0.038372, 0.054235, -0.029077, -0.480368, -0.112498, 0.064097, -0.85306, -0.093119, -0.199317, -0.473224, -0.032597, 0.083902, 0.210814, 0.527893, 0.115443, -0.088645, 0.794548, 0.183953, 0.069997, 0.613774, -0.192295, 0.163352, 0.469383, 0.107064, 0.055742, 0.097531, -0.006377, 0.121408, 0.104603, -0.614689, -0.387118, 0.069948, 0.195649, -0.103436, 0.250618, -0.35873, -0.219164], [0.800714, 1.00783, 0.321913, 0.519904, 0.507707, -0.502022, -0.020219, 0.573311, -0.635725, 0.020244, -0.195605, 0.099149, -1.71941, -2.1306, -0.00066, 0.338586, 0.175088, -0.442856, 0.599222, -1.05303, 0.466929, -0.754806, 0.36705, -0.387183, 0.537731, -0.198293, 0.182635, 0.906695, 0.186265, -2.36691, -0.876836, -1.86017, -0.338947, 0.054679, 0.732287, 0.247089, 0.411199, 0.057496, -0.43667, 0.030676, -0.719451, 0.625014, 0.160269, -0.1272, 0.088393, -1.61558, 0.318238, -0.836619, 0.24387, -0.211714], [0.4475, -0.186071, 0.243868, 0.448954, -0.190069, -0.807107, 0.032592, -0.563457, -0.476102, 0.004395, 0.565009, 0.103228, -0.066181, -0.678199, 0.029537, -0.20475, 0.199297, -0.362099, -0.962084, 0.535581, -0.49511, -1.14274, -0.296156, -0.52482, 0.234467, 0.87876, 0.035701, 1.78, 0.248173, 0.732402, -0.357298, 0.663913, 0.342027, -0.797758, -0.430208, 0.287612, 0.010465, 0.028962, 0.438826, 0.013272, 0.209475, 0.055955, 1.02877, 0.56211, -1.09307, -0.233338, -1.88592, -0.275908, 0.181251, -0.279828]], [[0.459169, -0.18214, 0.106879, 0.315017, -0.506453, -0.151852, -0.007671, 0.074683, -0.007176, -0.014804, -0.059606, 0.159973, 0.014674, -0.117605, -0.504488, 0.048712, 0.16778, 0.210682, -0.140841, 0.032936, -0.001361, 0.434788, 0.041328, 0.140718, 0.055541, 0.07342, -0.084668, -0.104901, 0.486918, 0.248133, -0.218643, 0.010399, -0.06594, 0.062374, 0.156874, 0.040822, 0.068938, 0.23382, -0.193689, 0.334794, 0.139339, -0.00271, -0.119662, -0.022486, 0.073165, -0.183339, -0.005339, -0.636241, -0.622071, -0.177354], [-0.299825, 0.008016, -0.008031, 0.419244, 0.19951, 0.226456, 0.001761, -0.059867, -0.073761, -0.065216, -0.124127, 0.228433, 0.069267, -0.016608, -0.055866, 0.276039, 0.288805, 0.004934, -0.054051, 0.1732, 0.142958, 0.113135, 0.357508, -0.365179, -0.014701, 0.139868, 0.20609, 0.122127, 0.176985, -0.189953, -0.013078, 0.02692, 0.192373, 0.150392, 0.372973, -0.084989, 0.271171, -0.663944, -0.417766, -0.204095, 0.152201, -0.065981, -0.354153, -0.036871, 0.270221, -0.143762, -0.039533, -1.10269, -0.511432, 0.047426], [0.54395, -0.105823, 0.140522, 1.20904, -0.408817, -0.899471, -0.034711, 0.034947, 0.028125, -0.074854, 0.149372, -0.055799, 0.110592, 0.319374, 0.722901, 1.44793, -0.066753, 0.095895, -0.127479, 0.466512, -0.233881, -0.951289, -0.182229, -0.165138, -0.046277, 1.25636, 0.872332, -1.29691, 0.140112, 0.117193, -0.171402, 0.025164, -0.228664, 0.315963, -0.338473, -0.689784, 0.238432, 0.220348, 0.133308, -0.015622, -0.241463, 0.048758, 0.063365, 0.007906, -0.209623, -0.665405, -2.3051, -0.509531, -0.06227, 0.298498], [0.419857, -0.42683, 0.384667, 1.13244, -0.541808, 0.504733, 0.014258, -1.19472, 0.403251, -0.112853, -0.3079, 0.120299, -0.085151, 0.668264, -0.821752, -0.412201, -0.8076, -0.058271, -0.351546, -0.535616, 0.082078, 0.38576, -0.090683, -0.149012, 0.022092, 0.34069, 0.444591, 0.237104, -1.59185, 0.236078, -0.324549, 0.024291, 0.150649, 0.296989, 0.543801, -1.28658, 0.182897, -0.756176, -0.211956, -0.090596, 0.29781, 0.494699, -0.123055, -0.048653, 0.163784, 0.033768, 0.257432, -1.58464, -0.181443, 0.175058], [-0.107528, 0.40094, 0.018847, -0.064263, -0.98389, -0.53189, 0.027567, -0.273574, -0.456309, 0.294592, -0.331479, -0.076646, -0.241468, 0.34107, -0.715736, -0.018707, 0.024822, 0.37836, -0.072228, -2.51048, -0.617496, -0.489732, -0.076599, 0.086971, 0.02866, -2.18334, 0.000151, -0.884673, 0.653945, -0.820987, 0.950909, 0.000139, -0.621646, -0.377157, -0.260191, -0.792446, -0.79794, -0.078398, -1.08337, 0.211057, 0.770473, -0.493437, -0.098938, 0.011856, -0.898658, 0.009858, -0.522847, -0.052596, 0.008236, -1.60554], [-0.223019, 0.126113, 0.16127, 1.47468, 0.40517, -2.50476, 0.005058, 0.000644, 0.040696, -1.22861, -0.01145, -0.471927, -0.063868, -1.67187, -2.11955, -0.272372, -0.264907, 0.157378, 0.027683, 0.834566, -0.253101, -1.77909, 0.131779, 0.046803, 0.047695, -0.026617, 0.887668, -0.245009, 0.463455, -0.043984, 0.970081, -0.012008, -0.123878, 0.121567, -0.414273, -1.3366, 0.513634, -0.256472, -0.043839, -0.059361, 0.157775, -0.33628, -0.018467, -0.033306, -0.061966, -0.282382, 0.57239, -1.68733, -0.143997, 0.799153], [-0.554766, -0.043222, -2.98097, 0.255912, -0.133444, 0.451366, -0.018556, -0.638999, -0.360448, 0.214628, -0.447849, -0.339492, 0.13393, -0.158972, 0.23061, 0.69705, -0.148234, 0.616481, -1.07524, -0.621484, 0.120353, -0.100288, 0.605162, 0.454244, -0.035357, -0.212019, 0.424105, -0.206971, 0.049425, -0.439609, -0.029876, 0.00576, 0.175476, -0.263534, -0.761191, 0.046104, 0.266834, -0.096355, 0.000202, -1.58635, 0.076238, 0.381981, -0.084879, 0.040093, -0.492266, 0.021041, 0.395455, 0.11024, -1.694, 0.350967], [-0.603214, -0.520669, -0.74533, -1.99758, -1.05882, 0.188201, -0.050696, -0.065294, 0.084919, -0.212208, 0.123365, 0.092839, 0.038469, 0.016522, 0.101884, -0.193515, 0.471963, 0.238309, -0.000765, 0.092953, 0.003564, 0.089505, 0.035387, -0.032539, 0.009913, 0.527421, 0.308177, -2.14142, 0.098262, 0.186905, 0.484451, -0.022791, 0.004442, -0.186809, -0.410329, -0.411283, -0.018198, -0.227962, -1.36828, 0.662, 0.686906, 0.467783, -0.262654, -0.007362, -3.53561, -0.726946, 0.30633, -0.337613, -0.53721, 0.413637], [0.61769, -0.112402, 0.056736, 0.168172, 0.344031, 0.327924, 0.041638, -0.404172, -0.098923, 0.096481, -0.070995, 0.035719, 0.089396, 0.088958, 0.410839, 0.316973, -0.306996, 0.243264, -0.124162, -0.008689, 0.09619, -0.286335, 0.097126, 0.076121, -0.022766, -0.31622, -0.056034, 0.3711, 0.383033, -0.377687, -0.058388, -0.001346, 0.14476, 0.216663, 0.070572, 0.050466, 0.195371, -0.393419, -0.162602, -0.200898, 0.083191, -0.102004, -0.116762, -0.055157, 0.075236, -0.278711, -0.131827, -3.76879, -0.531436, -0.112143], [0.482764, 0.109819, 0.067202, -0.033818, -0.161793, 0.060956, 0.023379, -0.055146, -0.120445, 0.018815, 0.013189, 0.010107, 0.034539, 0.099538, 0.269979, 0.754991, 0.031649, -0.142807, -0.140574, -0.015574, 0.361354, 0.676576, 0.09885, -0.213619, 0.034767, 0.271764, -0.064918, 0.329777, -0.34186, -0.497712, 0.380789, 0.053395, 0.160217, -0.08659, 0.092517, 0.110832, 0.133372, -0.448167, 0.213994, -0.891397, -0.115195, 0.12033, -0.049469, 0.028114, 0.019192, -0.151528, 0.092142, 0.329816, -0.002679, 0.044062], [0.29404, -0.511473, 0.011835, -2.79771, 0.575522, -0.262778, 0.02378, 0.475287, -1.10402, 0.044137, 0.453169, 1.03932, -1.7844, -0.034519, 0.104898, -2.14348, 0.249452, -0.394481, 0.12942, 1.96305, -0.294922, 0.465578, 0.153249, -2.54692, 0.022557, 0.645306, -0.336811, -0.876196, -0.488046, 0.167929, -0.40845, -0.010336, 0.075571, 0.977642, 0.214546, -1.25727, 0.720426, -0.544073, -0.156802, 0.083414, -0.620441, -1.9698, -1.35925, -0.03313, 1.11559, -1.00221, -0.1639, -2.63629, -0.047398, -0.011007], [0.002052, -0.000835, 0.069829, 0.084975, 0.356421, -0.058966, 0.00706, -0.128053, 0.109225, 0.222964, -0.02275, -0.100312, 0.158988, 0.09415, 0.124625, 0.04627, 0.086108, 0.098796, 0.050809, -0.076519, 0.068189, -0.003413, 0.229578, -0.109755, 0.030323, 0.012689, 0.113288, -0.042334, -0.086353, -0.224468, -0.130316, 0.008068, 0.068539, -0.066916, -0.310777, 0.000596, 0.022767, 0.155353, -0.130806, 0.037856, -0.070264, -0.019725, -0.047272, -0.024495, 0.020723, -0.045404, 0.037458, 0.062262, -0.269806, 0.065018], [0.666767, -0.596849, -0.102188, -0.219814, 0.504046, 0.282598, -0.030096, -0.245367, -0.056683, -0.424286, 0.051341, -0.032077, -0.145058, 0.009769, -0.256481, 0.042268, -0.220207, -0.514087, -0.022837, 0.059713, -4.89699, 0.822695, -0.218318, -0.303862, -0.007305, 0.372914, 0.098693, -0.061664, -0.596486, 0.143506, -0.419772, -0.009158, 0.239205, -0.047187, -0.224727, 0.125119, -0.034932, -0.330281, -0.02768, 0.078181, -0.267832, -0.066178, -0.147044, 0.036453, 0.019508, 0.035214, -0.1737, 0.073864, -0.048607, -0.366137], [-0.334057, 0.07596, -0.06376, -0.179551, 0.313703, 0.629147, -0.001741, 0.148752, -0.322455, 0.346455, -0.077481, 0.087988, -0.152517, -0.091296, 0.176296, -0.540238, 0.154238, -0.204417, -0.244607, 0.561635, -0.105239, -0.375716, 0.023128, -0.277484, -0.035796, 0.094695, -0.235621, -0.074433, 0.099752, -0.522598, 0.167737, 0.055392, 0.090868, 0.447345, 0.287439, -0.243416, 0.43862, -0.071712, -0.162384, 0.05083, -0.290441, -0.318484, -0.45156, -0.012098, 0.568307, -0.5158, -0.234382, -0.139258, -0.54765, -0.243928], [0.218528, -0.172351, 0.012047, -0.50631, 0.06743, -0.573218, 0.04339, -1.08846, 0.180388, -0.793662, 0.081888, -0.984772, -0.086412, -2.39186, -0.228908, -0.193683, -0.094163, -0.137271, -0.104541, -0.809342, -0.071282, 0.051017, -0.123488, -0.129992, -0.045098, 0.106624, 0.027499, -0.007865, -0.433534, 0.294272, -0.292497, 0.042287, 0.075998, 0.004702, 0.061835, -0.287744, 0.014561, -0.209951, -0.094761, 0.073138, -0.049917, 0.223979, -0.075703, 0.022376, -0.107983, 0.066422, -0.009587, 0.161613, 0.025711, -0.905183], [-0.600908, -0.062645, -1.55426, 0.666496, 0.032156, 0.227953, -0.025454, -0.078465, -0.321073, 0.393257, -0.366166, -0.553235, 0.108339, 0.170165, 0.011211, 0.026033, -0.241802, 0.150755, -0.289201, 0.095353, 0.020121, 0.032035, -0.327859, 0.082638, 0.022246, -0.033608, 0.002899, 0.33736, -0.040792, -0.544311, 0.735113, 0.036458, 0.134742, 0.149285, 0.100672, -0.011497, 0.244326, -0.472049, 0.212455, -0.117033, 0.154622, 0.08744, -0.126441, -0.033437, 0.037456, -0.681363, 0.011396, 0.166522, -0.109739, 0.22734], [-0.082717, 0.244434, -0.284862, -0.265342, 0.074514, 0.04985, -0.006955, -0.291001, -0.299578, 0.281546, -0.237234, 0.107329, 0.098258, -0.255618, 0.212525, -0.758901, -0.035498, 0.103165, -0.454008, 0.08941, -0.189989, -0.366527, 0.04611, 0.106015, -0.027786, 0.055763, 0.198639, -0.019252, 0.370694, -0.81021, -0.013892, -0.038776, 0.129092, 0.076922, 0.31469, -0.151627, 0.127654, -0.045912, -0.353636, -0.028973, 0.124666, -0.168304, -0.006296, -0.026382, -0.074657, -0.183738, 0.10836, 0.40309, -2.24054, 0.456401], [-0.137555, -0.316713, -0.0026, -1.67268, 0.124903, -3.29773, 0.007603, -0.352518, 0.074729, -0.056813, 0.158547, -1.87785, -0.164246, 0.50188, -10.4213, 0.290045, -0.680661, 0.079694, 0.089585, -0.299812, 0.040857, -1.07386, 0.434215, -1.04129, -0.022534, 0.580481, -3.22415, 0.092528, -2.23928, 0.084445, -0.378698, -0.003623, 0.437992, 0.453931, 0.088598, -0.503595, 0.399275, 0.164713, 0.20955, -0.18435, 0.091014, -2.2394, 0.010891, -0.030024, -0.205104, -0.278748, 1.78257, -0.742866, 0.312771, -2.13805], [-4.33101, -0.916214, -0.929827, 0.641558, -0.268088, -0.099196, -0.001522, -0.414976, -0.639914, 0.19778, -0.33258, 0.054907, -0.330754, 0.332852, 0.633774, -1.37738, 0.30786, -0.173159, 0.339484, 0.759075, -0.424633, 0.27468, 1.036, 0.450189, 0.011209, -0.302664, 0.679534, 0.771764, 0.168303, -1.15306, 0.2612, 0.010295, 1.33281, 0.407904, -0.005751, -0.707663, 0.247236, 0.031668, 0.223495, 1.16627, -0.244342, -0.285528, -0.319729, -0.035287, 0.559248, -0.201011, 0.488218, -0.85228, -1.24143, -1.40721], [-0.283202, 0.065733, -0.35336, 0.107616, -0.05704, 0.070933, 0.012091, 0.103238, -0.220149, 0.01737, 0.142456, -0.029523, -0.186691, -0.03664, 0.48843, -0.965779, -0.155638, 0.262059, -0.415472, 0.230089, -0.154747, -0.219099, 0.033238, 0.016774, -0.037691, 0.452231, -0.586166, -0.097908, -0.2068, -0.024123, -0.049085, -0.007665, 0.106762, 0.282354, 0.045117, -0.182375, 0.17549, -0.128522, -0.234253, -0.09359, 0.046167, -0.000126, -0.209365, 0.018927, 0.130408, -0.3839, -0.255161, 0.374072, -0.340175, 0.265355], [-0.148602, 0.450404, 0.124777, -1.31442, -0.054765, -0.764836, -0.027017, 0.652256, -0.594405, 0.061747, 0.166602, 0.071846, -0.13068, -1.77207, 1.24032, -3.99846, 1.02956, -0.014279, 0.086677, 0.804193, -0.191657, -1.43608, 0.326513, -0.084363, -0.037171, -1.299, 0.231329, -0.016609, 0.101132, -0.006833, 0.667429, 0.015263, -0.780594, 0.744208, -0.489092, -0.837213, 0.649135, -0.86824, -0.016764, -0.116698, -1.07731, 2.48648, 0.003959, 0.011036, 0.100788, -0.534393, -2.73887, -0.038726, -0.065326, -1.04395], [0.027737, -0.019744, 0.000897, 0.022053, -0.028073, -0.055013, 0.040892, 0.033252, -0.048718, -0.003544, 0.013604, -0.017814, 0.009731, -0.030761, -0.003995, -0.037271, 0.00903, -0.001733, 0.026937, -0.015649, 0.011509, -2.8e-05, 0.029317, 0.02294, -0.021839, -0.03446, -0.03593, -0.006946, -0.022639, -0.007074, -0.041444, -0.003195, -0.042366, -0.021391, -0.000349, -0.059818, 0.021513, -0.050227, -0.021154, 0.037156, 0.030764, -0.01006, -0.028217, 0.014006, -0.03446, 0.013203, 0.006219, 0.024639, -0.012472, -0.019697], [-0.037544, -0.209353, -0.606542, -0.157529, -0.090046, -0.068932, 0.013804, -0.035697, -0.396442, 0.094898, -0.06025, 0.314265, 0.534337, -0.285601, 0.332755, 0.067351, -0.231992, -0.106715, -0.247903, -5.50248, -0.182123, 0.28593, -0.352877, 0.354212, -0.001427, -0.278392, -0.303231, 0.252595, -0.821377, -0.912004, -0.388702, -0.003129, -0.083078, 0.01612, -0.256244, 0.507925, 0.309695, -0.549613, -0.230759, -0.255201, -1.76218, -0.384181, -0.224048, 0.038028, -0.376016, -0.395696, 0.224355, -0.121321, -0.059831, 0.024387], [0.310659, -0.082099, 0.00179, 0.135369, -0.170823, -0.08703, 0.035002, 0.071022, -0.087696, 0.118671, -0.059719, 0.257068, -0.136946, -0.004743, -0.275454, 0.867449, 0.116222, -0.381026, -0.132284, 0.481648, 0.078079, 0.407911, -0.181984, -0.096587, 0.02616, 0.211918, -0.223347, -0.16811, 0.137659, -0.081058, -0.148023, 0.01261, 0.131207, 0.216612, 0.03981, -0.19784, 0.097727, -0.407012, -0.086229, -0.129168, 0.022966, -0.189081, -0.203914, 0.027134, 0.322186, -0.024025, -0.179748, -1.17729, -0.012085, -0.121847], [0.171707, 0.326413, -0.018174, 0.085268, -0.261535, -0.121878, 0.039629, 0.026914, -0.049888, -0.112696, -0.014632, 0.009476, -0.021159, -0.033229, -2.47933, 0.003638, 0.064768, 0.08611, -0.019519, 0.043011, -0.131804, -0.184706, 0.045551, 0.06052, 0.044548, 0.061874, -0.296052, -0.025359, 0.014442, 0.087239, 0.130744, -0.05096, -0.054321, -0.019376, -0.00983, -0.059999, -0.037875, -0.163791, -0.109285, 0.124225, -0.125095, 0.057636, 0.059727, 0.014867, 0.051557, -0.053628, 0.037356, 0.174629, -0.054609, -0.037501], [-0.033714, 0.008452, 0.020428, 1.1121, 0.211458, 0.43378, 0.029397, 0.137476, -0.357496, 0.812325, 0.115558, 0.148212, -0.401389, -0.313887, 0.486901, -1.18299, 0.194255, 0.475035, -0.271563, 1.02042, -0.32745, 0.048301, -0.901875, 0.688947, 0.008672, 0.014143, -1.02977, -0.120815, -0.676684, -0.333143, 0.364879, -0.005737, -0.200703, 0.955026, 0.321059, -0.454376, 1.1308, -0.345815, 0.172682, 0.480517, -0.885061, -1.2594, -0.396711, 0.027631, 0.779858, -0.944048, -0.75428, -0.826152, -0.488729, -0.84235], [-0.336356, -0.164342, -0.113014, 0.205384, -0.096383, 0.360458, 0.051898, 0.142572, -0.106106, -0.0413, -0.172066, 0.140601, 0.021718, 0.056858, -0.367231, -0.063193, 0.177642, 0.012518, -0.153968, 0.216381, -0.062229, 0.33725, 0.034358, 0.015709, -0.015524, 0.218874, 0.002704, 0.000803, 0.184833, 0.010764, -0.157115, -0.031241, -0.044182, 0.209996, 0.016587, -0.05735, 0.098741, -0.299715, 0.031141, 0.140474, 0.138634, -0.143267, -0.113978, -0.041205, 0.192338, -0.267619, -0.151568, -0.404115, -0.100072, -0.103212], [-0.10078, -0.281911, -3.52511, -0.147513, -0.185109, 0.569493, -0.017013, -0.101628, -0.176847, 0.231833, -0.347321, 0.025512, 0.171421, -0.056519, 0.301726, -5.12091, -0.051278, -0.258973, 0.025786, -0.030716, 0.039591, 0.040164, -0.067804, 0.180197, -0.009167, 0.115204, -0.186214, -0.135502, -0.025391, -0.466083, 0.524672, -0.001104, 0.43257, -0.028306, -0.704354, 0.426222, 0.212654, -0.266277, -0.618688, -0.499777, 0.047666, -0.392895, 0.167215, 0.030848, 0.139573, -1.27097, -0.379355, -2.86423, -0.182362, -0.262072], [0.790685, -0.114035, -0.155262, 0.550696, 0.029425, 0.217141, 0.03143, 0.069929, -0.136167, -0.296189, -0.116042, 0.268192, 0.074814, 0.043819, 0.171064, 0.650437, -0.042448, 0.004761, -0.017833, -0.094288, -0.079291, -0.193032, 0.195015, -0.34296, -0.005631, 0.001927, 0.166551, 0.044089, 0.005117, -0.337425, -0.118516, 0.016793, 0.700437, -0.147422, -0.034444, 0.233357, -0.034737, -0.250263, 0.192906, -0.282698, -0.159789, 0.135276, 0.385287, 0.003415, -0.017232, 0.364784, 0.281898, -0.009724, -0.14462, -0.303749], [-0.178958, -0.052247, -0.105273, 0.322298, -0.739717, 0.074521, 0.04953, -0.054842, -0.118555, -0.086438, -0.252258, 0.120064, 0.069048, -0.097027, 0.209539, 0.212011, 0.231717, 0.217486, -0.256584, 0.071011, 0.05833, 0.047908, -0.031334, 0.197772, -0.034285, -0.029247, -0.524029, 0.29984, 0.582008, 0.052605, 0.003288, 0.026038, -0.185667, 0.202877, -0.097557, 0.137434, 0.278963, -0.625011, -0.254466, -0.233235, 0.392093, -0.116353, -0.133337, -0.025768, 0.256187, -1.23583, -0.154634, 0.129831, 0.27987, -0.20448], [0.065815, 0.171899, -0.055912, 0.041889, -0.338135, -0.083277, 0.006323, 0.068611, -0.054338, 0.038584, -0.025125, 0.094232, 0.001833, -0.013863, -0.133453, 0.118793, 0.016806, 0.15054, -0.081027, 0.07543, -0.013896, 0.090627, 0.096028, -0.001605, 0.041042, 0.041776, -0.2948, 0.004103, 0.087577, 0.038502, -0.996519, 0.004602, -0.109694, 0.063414, 0.057565, -0.005211, 0.053247, -0.213578, -0.020729, 0.005053, -0.04135, -0.071298, -0.011985, -0.030768, 0.095029, 0.18336, -0.026044, 0.419037, 0.007593, -0.061861], [-0.031485, -0.053062, -0.338349, -2.56074, -0.024599, 0.412092, -0.003241, 0.697581, 0.579535, -0.120839, 0.548276, 0.495301, 0.141158, -0.783386, 0.143664, 1.62908, -0.2492, 0.042391, -0.097089, 0.209219, 0.094679, -0.548634, -0.560601, 0.763221, -0.016977, 0.72346, 1.59463, -0.701537, -0.273356, 0.084302, 0.746039, -0.018504, -0.283141, 0.27679, -0.149295, -0.242147, -0.017683, -0.922258, -0.120635, 0.500256, 0.305478, 0.446556, -0.386654, 6.7e-05, -0.469987, 0.35208, -0.139749, -1.29997, -2.15899, 0.314178], [-1.38777, -0.721159, -2.95026, -0.732005, 0.346714, 0.626436, 0.02505, -0.552053, -0.341669, 1.11746, -2.13821, -4.53855, 0.580311, -0.97922, 0.608518, 2.63244, -2.66712, -0.27202, -6.01083, -0.490122, -1.40231, 0.173805, -1.22603, 0.4351, 0.00012, -0.349217, -1.6012, -1.30822, -0.461958, -0.709481, -1.67349, -0.009568, 0.688032, -0.226879, -0.144193, 0.87518, 0.436749, 0.496267, -0.419381, 0.191466, -1.41269, -1.18222, -0.272996, -0.015165, -1.00223, -1.18169, 0.807322, 1.54519, -1.65152, -1.57586], [0.567362, -0.222231, -0.033529, 0.081356, 0.181262, -0.80043, -0.003415, -0.269941, 0.460689, -1.05219, 0.425284, -0.077944, -0.311976, 0.165313, 0.440765, 0.095747, -0.07543, -0.389234, 0.034513, -0.464967, 0.074724, 0.596941, 0.109072, -0.112871, 0.030187, -0.273554, -0.022339, 0.038608, 0.162313, 0.106982, 0.171681, -0.036959, -0.297186, -0.047984, 0.118173, -0.511351, 0.126263, -0.163875, -0.841864, 0.301107, -0.035985, -0.259168, -0.02356, -0.039063, -0.581171, 0.280103, 0.745271, -0.095114, -0.050436, -0.389635], [0.16848, 0.081056, -5.25611, 0.874299, 0.115626, 0.176774, 0.004263, -0.275202, -0.332602, 0.065325, -0.128134, -0.633998, -0.069998, 0.355249, 0.198319, 0.155595, 0.193322, 0.184382, 0.310771, -0.148721, -2.10431, 0.36463, -0.849994, -0.292958, 0.004423, 0.216403, -0.270709, -0.231592, 0.226837, -1.35292, -0.186516, -0.022459, 0.424822, -0.14777, 1.07066, 0.155975, -0.015348, 0.240989, 0.324836, 0.115229, -0.218459, 0.528895, -0.704675, 0.000434, -0.231177, -0.143662, 0.505117, -0.169946, -5.99256, 0.218533], [-0.124125, 0.016477, 0.454859, 0.02843, -0.029083, -0.06314, -0.055674, -0.112882, 0.011362, 0.347771, -0.132305, -0.01798, -0.06983, 0.518362, -0.060749, 0.436431, 0.013392, -0.273738, -0.116017, 0.020307, 0.040079, 0.297183, 0.06272, -0.257735, -0.025669, 0.190191, -0.227404, 0.172561, -0.469685, -0.149346, -0.115015, -0.009771, 0.158375, -0.053992, 0.111795, -0.02092, 0.040883, -0.86745, -0.036735, -0.126781, 0.081434, 0.02601, -0.111266, -0.041037, 0.046328, 0.15558, 0.054164, 0.470713, -0.022083, 0.350546], [-0.171262, -0.523883, 0.160949, -0.565537, 0.296447, 0.177179, -0.026593, -0.717204, 0.403355, -0.426289, 0.080579, -0.108474, 0.257541, 0.057353, -0.050236, 0.039882, -0.419278, 0.4218, 0.048145, -0.703415, 0.447505, 0.169922, -0.281475, 0.123292, -0.004502, 0.165924, 0.361035, -0.124719, -1.17386, 0.09346, 0.270158, 0.033726, -0.026854, -0.344108, -0.335009, -0.305866, -0.54818, 0.027942, -0.261893, -0.501095, 0.046902, 0.02067, -0.155953, 0.015507, -0.29154, 0.178586, 0.481077, 0.797639, -0.238625, 0.113424], [0.234923, 0.192868, 0.088185, -0.414767, 0.640593, 0.238172, -0.044611, -1.18211, 0.213869, -0.629731, 0.163873, -0.486877, 0.055606, -0.333899, -0.664344, -0.505487, -0.133278, -0.247728, 0.065266, -0.733996, -0.108975, -0.380101, -0.184721, -0.572941, 0.029764, 0.011936, 0.157254, -0.033284, -4.37249, 0.127785, 0.050478, 0.036229, 0.258396, -0.014704, -0.001955, 0.053433, 0.04693, -0.36343, 0.129299, -0.113321, 0.15034, -0.065631, 